{"learner":{"attributes":{"best_iteration":"18","best_score":"0.5542363880212787"},"feature_names":["home_park_factor","temp_f","air_density_rho","roof_closed_flag","wind_mph","home_lineup_wrc_plus","home_lineup_xwoba_vs_rhp","home_lineup_xwoba_vs_lhp","home_team_barrel_pct_15g","home_team_woba_15g","home_team_xwoba_off_15g","away_sp_k_pct","away_sp_xwoba_against","away_sp_gb_pct","away_sp_ff_velo","away_sp_whiff_pctl","away_sp_bb_pct","away_bullpen_vulnerability","away_bp_fatigue_72h","close_total","elo_diff","home_pyth_win_pct_15g","home_rolling_rd_15g","ump_rpg_above_avg","home_catcher_framing_runs"],"feature_types":["float","float","float","float","float","float","float","float","float","float","float","float","float","float","float","float","float","float","float","float","float","float","float","float","float"],"gradient_booster":{"model":{"cats":{"enc":[],"feature_segments":[],"sorted_idx":[]},"gbtree_model_param":{"num_parallel_tree":"1","num_trees":"59"},"iteration_indptr":[0,1,2,3,4,5,6,7,8,9,10,11,12,13,14,15,16,17,18,19,20,21,22,23,24,25,26,27,28,29,30,31,32,33,34,35,36,37,38,39,40,41,42,43,44,45,46,47,48,49,50,51,52,53,54,55,56,57,58,59],"tree_info":[0,0,0,0,0,0,0,0,0,0,0,0,0,0,0,0,0,0,0,0,0,0,0,0,0,0,0,0,0,0,0,0,0,0,0,0,0,0,0,0,0,0,0,0,0,0,0,0,0,0,0,0,0,0,0,0,0,0,0],"trees":[{"base_weights":[4.8244286E-2,-3.156889E-1,2.5209174E-1,-3.630498E-1,2.828971E-2,-9.782992E-2,3.743167E-1,-8.111381E-1,-2.5970307E-1,1.6890615E-1,-5.649131E-1,6.4460623E-1,1.501269E-1,-1.8602548E-2,-5.88811E-2,-1.7642846E-2,1.8829746E-2,4.8144683E-2,-1.8199187E-3,3.7887513E-3,-4.0687587E-2,5.3019375E-2,1.7055193E-2,-3.4523197E-3,2.5542218E-2],"categories":[],"categories_nodes":[],"categories_segments":[],"categories_sizes":[],"default_left":[0,0,0,1,0,0,0,1,0,1,1,0,1,0,0,0,0,0,0,0,0,0,0,0,0],"id":0,"left_children":[1,3,5,7,-1,9,11,13,15,17,19,21,23,-1,-1,-1,-1,-1,-1,-1,-1,-1,-1,-1,-1],"loss_changes":[2.5200127E1,5.2992325E0,9.343088E0,5.179736E0,0E0,7.212188E0,9.688005E0,2.9965706E0,5.8265567E0,6.0873914E0,3.4086347E0,8.838465E0,7.1165066E0,0E0,0E0,0E0,0E0,0E0,0E0,0E0,0E0,0E0,0E0,0E0,0E0],"parents":[2147483647,0,0,1,1,2,2,3,3,5,5,6,6,7,7,8,8,9,9,10,10,11,11,12,12],"right_children":[2,4,6,8,-1,10,12,14,16,18,20,22,24,-1,-1,-1,-1,-1,-1,-1,-1,-1,-1,-1,-1],"split_conditions":[3.164E-1,3.254E-1,1.100624E0,9.11E1,2.828971E-2,8.14E1,9.38E1,4.3843728E-2,5.082251E-1,3.130301E-1,4.3126944E-2,9.96E-1,4.429694E-1,-1.8602548E-2,-5.88811E-2,-1.7642846E-2,1.8829746E-2,4.8144683E-2,-1.8199187E-3,3.7887513E-3,-4.0687587E-2,5.3019375E-2,1.7055193E-2,-3.4523197E-3,2.5542218E-2],"split_indices":[6,7,17,14,0,1,14,16,13,13,16,0,13,0,0,0,0,0,0,0,0,0,0,0,0],"split_type":[0,0,0,0,0,0,0,0,0,0,0,0,0,0,0,0,0,0,0,0,0,0,0,0,0],"sum_hessian":[3.3761176E2,1.21014084E2,2.1659767E2,1.1540184E2,5.6122475E0,5.6122475E1,1.604752E2,2.0344397E1,9.505744E1,3.612884E1,1.9993631E1,7.190692E1,8.856828E1,1.0172198E1,1.0172198E1,8.33068E1,1.1750643E1,6.664544E0,2.9464298E1,5.78763E0,1.4206001E1,2.9288916E1,4.2618004E1,5.5596325E1,3.2971954E1],"tree_param":{"num_deleted":"0","num_feature":"25","num_nodes":"25","size_leaf_vector":"1"}},{"base_weights":[1.0464656E-2,-2.7008834E-1,1.6512838E-1,-3.6915234E-1,4.9548367E-1,3.2515794E-1,-1.4782397E-1,-4.3008092E-1,3.4887154E-2,7.1369566E-2,-1.5298687E-2,2.0852904E-1,9.111641E-1,-2.562198E-1,4.1307297E-2,1.8345848E-2,-2.4383163E-2,7.60363E-2,6.6725165E-3,-5.871558E-3,6.6996485E-2,-2.7747735E-2,-7.8238355E-4],"categories":[],"categories_nodes":[],"categories_segments":[],"categories_sizes":[],"default_left":[0,1,1,0,0,0,0,0,0,0,0,0,1,0,0,0,0,0,0,0,0,0,0],"id":1,"left_children":[1,3,5,7,9,11,13,15,-1,-1,-1,17,19,21,-1,-1,-1,-1,-1,-1,-1,-1,-1],"loss_changes":[1.4656987E1,9.287854E0,1.0951051E1,7.2472267E0,1.1028954E1,9.676204E0,8.060692E0,4.847027E0,0E0,0E0,0E0,1.1786053E1,1.0594217E1,4.8541203E0,0E0,0E0,0E0,0E0,0E0,0E0,0E0,0E0,0E0],"parents":[2147483647,0,0,1,1,2,2,3,3,4,4,5,5,6,6,7,7,11,11,12,12,13,13],"right_children":[2,4,6,8,10,12,14,16,-1,-1,-1,18,20,22,-1,-1,-1,-1,-1,-1,-1,-1,-1],"split_conditions":[3.164E-1,1.4738389E0,4.8E-1,3.25E-1,3.1193078E-1,3.4793815E-1,1.1518649E-1,-2.4E0,3.4887154E-2,7.1369566E-2,-1.5298687E-2,2.8565362E-1,1.1571618E0,3.139498E-1,4.1307297E-2,1.8345848E-2,-2.4383163E-2,7.60363E-2,6.6725165E-3,-5.871558E-3,6.6996485E-2,-2.7747735E-2,-7.8238355E-4],"split_indices":[6,17,15,7,9,9,16,22,0,0,0,10,17,10,0,0,0,0,0,0,0,0,0],"split_type":[0,0,0,0,0,0,0,0,0,0,0,0,0,0,0,0,0,0,0,0,0,0,0],"sum_hessian":[3.3575793E2,1.1905367E2,2.1670425E2,1.0587181E2,1.3181862E1,1.4335834E2,7.334592E1,1.0071692E2,5.1548877E0,5.733799E0,7.448063E0,1.2069338E2,2.2664953E1,6.6663666E1,6.6822524E0,6.4244165E0,9.42925E1,5.4897947E0,1.1520359E2,6.8818135E0,1.5783139E1,2.9154148E1,3.7509518E1],"tree_param":{"num_deleted":"0","num_feature":"25","num_nodes":"23","size_leaf_vector":"1"}},{"base_weights":[3.469205E-2,-2.946607E-1,2.0635062E-1,-3.9272997E-1,5.0446457E-1,-1.1467954E-1,3.2677126E-1,-2.7666163E-1,-8.36105E-1,7.305141E-2,-1.6844174E-2,-2.551326E-1,3.3222815E-1,2.7610108E-1,6.348191E-2,-2.2823973E-2,3.6124785E-3,-1.2201662E-2,-5.3037144E-2,-3.3455595E-2,-4.3219123E-3,-1.3608187E-2,3.3856057E-2,1.0850508E-2,5.423664E-2],"categories":[],"categories_nodes":[],"categories_segments":[],"categories_sizes":[],"default_left":[0,1,0,0,0,0,0,0,1,0,0,0,0,1,0,0,0,0,0,0,0,0,0,0,0],"id":2,"left_children":[1,3,5,7,9,11,13,15,17,-1,-1,19,21,23,-1,-1,-1,-1,-1,-1,-1,-1,-1,-1,-1],"loss_changes":[1.8874018E1,9.165552E0,8.51683E0,5.042471E0,1.0910464E1,3.8868632E0,7.282339E0,5.22241E0,2.5031977E0,0E0,0E0,3.2002618E0,3.2941155E0,7.070427E0,0E0,0E0,0E0,0E0,0E0,0E0,0E0,0E0,0E0,0E0,0E0],"parents":[2147483647,0,0,1,1,2,2,3,3,4,4,5,5,6,6,7,7,8,8,11,11,12,12,13,13],"right_children":[2,4,6,8,10,12,14,16,18,-1,-1,20,22,24,-1,-1,-1,-1,-1,-1,-1,-1,-1,-1,-1],"split_conditions":[3.164E-1,1.4738389E0,1.100624E0,3.155E-1,3.1193078E-1,9.64E1,1.015E2,5.7491288E-2,2.5E-1,7.305141E-2,-1.6844174E-2,9.672E1,-4.6666667E-1,2.34E2,6.348191E-2,-2.2823973E-2,3.6124785E-3,-1.2201662E-2,-5.3037144E-2,-3.3455595E-2,-4.3219123E-3,-1.3608187E-2,3.3856057E-2,1.0850508E-2,5.423664E-2],"split_indices":[6,17,17,6,9,14,1,8,15,0,0,5,22,18,0,0,0,0,0,0,0,0,0,0,0],"split_type":[0,0,0,0,0,0,0,0,0,0,0,0,0,0,0,0,0,0,0,0,0,0,0,0,0],"sum_hessian":[3.3176392E2,1.1342483E2,2.183391E2,1.01479706E2,1.1945119E1,5.9572376E1,1.5876671E2,8.171266E1,1.9767048E1,5.245154E0,6.6999655E0,4.5653595E1,1.3918784E1,1.5189655E2,6.8701706E0,5.371919E1,2.799347E1,6.010824E0,1.3756224E1,1.2358694E1,3.32949E1,5.1335692E0,8.785215E0,1.4273456E2,9.161992E0],"tree_param":{"num_deleted":"0","num_feature":"25","num_nodes":"25","size_leaf_vector":"1"}},{"base_weights":[1.970873E-2,-2.90578E-1,1.956374E-1,-5.0453943E-1,-7.502394E-2,3.7010628E-1,-1.6624872E-1,-9.238636E-1,-2.4836387E-1,3.5547492E-1,-3.6280528E-1,1.8763915E-2,5.622825E-1,-6.896887E-1,-3.2306786E-3,-5.8745902E-2,-3.0159434E-2,8.661284E-3,-3.5079747E-2,-1.4295644E-2,3.3945978E-2,1.5535335E-2,-3.0310169E-2,-2.7105868E-2,1.1610633E-2,2.2599934E-2,6.932702E-2,-8.563233E-3,-4.9288105E-2,4.082088E-2,-7.0558027E-3],"categories":[],"categories_nodes":[],"categories_segments":[],"categories_sizes":[],"default_left":[0,0,1,0,0,0,0,1,0,0,1,0,1,0,0,0,0,0,0,0,0,0,0,0,0,0,0,0,0,0,0],"id":3,"left_children":[1,3,5,7,9,11,13,15,17,19,21,23,25,27,29,-1,-1,-1,-1,-1,-1,-1,-1,-1,-1,-1,-1,-1,-1,-1,-1],"loss_changes":[1.8746902E1,5.694311E0,1.3894685E1,6.4520426E0,7.9449E0,9.991543E0,6.1379976E0,1.1607342E0,7.7605577E0,5.542569E0,6.467982E0,6.520359E0,8.074802E0,2.4533892E0,6.430026E0,0E0,0E0,0E0,0E0,0E0,0E0,0E0,0E0,0E0,0E0,0E0,0E0,0E0,0E0,0E0,0E0],"parents":[2147483647,0,0,1,1,2,2,3,3,4,4,5,5,6,6,7,7,8,8,9,9,10,10,11,11,12,12,13,13,14,14],"right_children":[2,4,6,8,10,12,14,16,18,20,22,24,26,28,30,-1,-1,-1,-1,-1,-1,-1,-1,-1,-1,-1,-1,-1,-1,-1,-1],"split_conditions":[3.169E-1,5.133903E-1,4.8E-1,3.128E-1,4.2157716E-1,1.1571618E0,3.0417392E-1,1.5E2,3.154E-1,3.129E-1,9E-2,9.719E1,2.29E2,2.970469E-1,4.104704E-1,-5.8745902E-2,-3.0159434E-2,8.661284E-3,-3.5079747E-2,-1.4295644E-2,3.3945978E-2,1.5535335E-2,-3.0310169E-2,-2.7105868E-2,1.1610633E-2,2.2599934E-2,6.932702E-2,-8.563233E-3,-4.9288105E-2,4.082088E-2,-7.0558027E-3],"split_indices":[6,24,15,6,21,17,9,18,6,7,15,5,18,10,21,0,0,0,0,0,0,0,0,0,0,0,0,0,0,0,0],"split_type":[0,0,0,0,0,0,0,0,0,0,0,0,0,0,0,0,0,0,0,0,0,0,0,0,0,0,0,0,0,0,0],"sum_hessian":[3.413818E2,1.2328733E2,2.1809447E2,6.1199417E1,6.208791E1,1.4713603E2,7.095844E1,2.2220747E1,3.8978672E1,2.4781485E1,3.7306427E1,5.241217E1,9.472386E1,1.6083775E1,5.4874664E1,1.0969163E1,1.1251583E1,2.051432E1,1.8464352E1,8.346497E0,1.6434988E1,9.829758E0,2.747667E1,1.4023274E1,3.8388893E1,8.491129E1,9.812568E0,6.4202986E0,9.663476E0,7.193357E0,4.768131E1],"tree_param":{"num_deleted":"0","num_feature":"25","num_nodes":"31","size_leaf_vector":"1"}},{"base_weights":[-2.3014024E-2,-7.369005E-2,5.5141085E-1,-5.9558316E-3,-4.1502702E-1,8.88073E-2,1.6005416E-1,1.5421613E-1,-1.7159739E-1,-1.3009079E-1,-8.692704E-1,-3.2230947E-2,4.7485775E-1,1.5991981E-3,3.0925272E-2,1.3772162E-2,-1.4527695E-2,1.5846256E-2,-2.8389711E-2,-5.6510754E-2,-5.040407E-3,1.9211592E-3,6.056663E-2],"categories":[],"categories_nodes":[],"categories_segments":[],"categories_sizes":[],"default_left":[0,0,0,1,0,0,1,1,1,0,0,0,0,0,0,0,0,0,0,0,0,0,0],"id":4,"left_children":[1,3,5,7,9,-1,11,13,15,17,19,-1,21,-1,-1,-1,-1,-1,-1,-1,-1,-1,-1],"loss_changes":[9.902376E0,7.215601E0,1.2936142E1,6.964844E0,6.5757866E0,0E0,5.8795004E0,7.555411E0,6.942034E0,6.6238565E0,3.8454866E0,0E0,5.221799E0,0E0,0E0,0E0,0E0,0E0,0E0,0E0,0E0,0E0,0E0],"parents":[2147483647,0,0,1,1,2,2,3,3,4,4,6,6,7,7,8,8,9,9,10,10,12,12],"right_children":[2,4,6,8,10,-1,12,14,16,18,20,-1,22,-1,-1,-1,-1,-1,-1,-1,-1,-1,-1],"split_conditions":[3.4324545E-1,1.19086E0,1.7992084E-1,3.3E-1,6.5E-1,8.88073E-2,1.1472334E0,8.959338E-2,9.3E1,7.7169925E-2,1.06784254E-1,-3.2230947E-2,2.5483516E-1,1.5991981E-3,3.0925272E-2,1.3772162E-2,-1.4527695E-2,1.5846256E-2,-2.8389711E-2,-5.6510754E-2,-5.040407E-3,1.9211592E-3,6.056663E-2],"split_indices":[10,2,11,15,15,0,17,16,14,16,16,0,11,0,0,0,0,0,0,0,0,0,0],"split_type":[0,0,0,0,0,0,0,0,0,0,0,0,0,0,0,0,0,0,0,0,0,0,0],"sum_hessian":[3.3778006E2,3.1119775E2,2.6582296E1,2.6051846E2,5.067931E1,5.5803576E0,2.100194E1,1.3248102E2,1.2803743E2,3.1934153E1,1.8745157E1,5.611256E0,1.5390683E1,1.0571786E2,2.6763163E1,2.6633348E1,1.0140408E2,1.5935524E1,1.5998629E1,1.3642023E1,5.1031337E0,1.0324538E1,5.0661445E0],"tree_param":{"num_deleted":"0","num_feature":"25","num_nodes":"23","size_leaf_vector":"1"}},{"base_weights":[-9.626109E-3,-2.7145672E-1,1.4441723E-1,-3.4650514E-1,3.096001E-1,7.140133E-2,6.358532E-1,2.5528923E-2,-3.978828E-1,5.465669E-2,-1.7546423E-2,6.71887E-1,1.664199E-2,-2.5095535E-2,9.427432E-1,-2.8046632E-2,-5.8559603E-3,7.0096545E-2,1.0173528E-2,-2.0616315E-2,6.0791424E-3,9.835309E-3,7.5814374E-2],"categories":[],"categories_nodes":[],"categories_segments":[],"categories_sizes":[],"default_left":[0,1,0,0,0,0,1,0,0,0,0,0,0,0,0,0,0,0,0,0,0,0,0],"id":5,"left_children":[1,3,5,7,9,11,13,-1,15,-1,-1,17,19,-1,21,-1,-1,-1,-1,-1,-1,-1,-1],"loss_changes":[1.3873093E1,5.6625824E0,7.7266345E0,5.192028E0,8.1985655E0,6.2267103E0,1.0212091E1,0E0,4.8531246E0,0E0,0E0,5.1274776E0,7.9224E0,0E0,9.249605E0,0E0,0E0,0E0,0E0,0E0,0E0,0E0,0E0],"parents":[2147483647,0,0,1,1,2,2,3,3,4,4,5,5,6,6,8,8,11,11,12,12,14,14],"right_children":[2,4,6,8,10,12,14,-1,16,-1,-1,18,20,-1,22,-1,-1,-1,-1,-1,-1,-1,-1],"split_conditions":[3.169E-1,1.4738389E0,3.263E-1,-2.4E0,3.1193078E-1,2.9130286E-1,-1.7559607E0,2.5528923E-2,5.6880735E-2,5.465669E-2,-1.7546423E-2,4.195804E-2,1.0699809E0,-2.5095535E-2,3.2694575E-1,-2.8046632E-2,-5.8559603E-3,7.0096545E-2,1.0173528E-2,-2.0616315E-2,6.0791424E-3,9.835309E-3,7.5814374E-2],"split_indices":[6,17,6,22,9,10,23,0,8,0,0,8,17,0,12,0,0,0,0,0,0,0,0],"split_type":[0,0,0,0,0,0,0,0,0,0,0,0,0,0,0,0,0,0,0,0,0,0,0],"sum_hessian":[3.419896E2,1.263936E2,2.15596E2,1.12293594E2,1.4100006E1,1.8870424E2,2.6891754E1,5.8452463E0,1.0644835E2,6.1499095E0,7.950097E0,1.4828334E1,1.7387592E2,5.5776615E0,2.1314093E1,6.670968E1,3.9738667E1,5.016703E0,9.81163E0,3.3599915E1,1.40276E2,9.84769E0,1.1466404E1],"tree_param":{"num_deleted":"0","num_feature":"25","num_nodes":"23","size_leaf_vector":"1"}},{"base_weights":[-2.0816203E-2,-6.2112954E-2,7.5439006E-1,-8.65898E-2,5.4586727E-2,6.881233E-2,-1.0440294E-2,2.2259079E-2,-3.1796223E-1,-1.4142449E-2,6.5932954E-3,-2.9796103E-2,-4.9590482E-3],"categories":[],"categories_nodes":[],"categories_segments":[],"categories_sizes":[],"default_left":[0,0,1,1,0,0,0,1,0,0,0,0,0],"id":6,"left_children":[1,3,5,7,-1,-1,-1,9,11,-1,-1,-1,-1],"loss_changes":[1.0842779E1,9.163156E0,1.0549136E1,7.9491615E0,0E0,0E0,0E0,7.2405515E0,6.0804253E0,0E0,0E0,0E0,0E0],"parents":[2147483647,0,0,1,1,2,2,3,3,7,7,8,8],"right_children":[2,4,6,8,-1,-1,-1,10,12,-1,-1,-1,-1],"split_conditions":[3.26E-1,1.063E2,4.0377402E-1,5E-1,5.4586727E-2,6.881233E-2,-1.0440294E-2,9.11E1,3.9837816E-1,-1.4142449E-2,6.5932954E-3,-2.9796103E-2,-4.9590482E-3],"split_indices":[7,1,13,15,0,0,0,14,13,0,0,0,0],"split_type":[0,0,0,0,0,0,0,0,0,0,0,0,0],"sum_hessian":[3.362303E2,3.2009793E2,1.6132366E1,3.143544E2,5.7435203E0,9.542635E0,6.5897303E0,2.143959E2,9.9958496E1,5.62459E1,1.5815001E2,4.326581E1,5.6692688E1],"tree_param":{"num_deleted":"0","num_feature":"25","num_nodes":"13","size_leaf_vector":"1"}},{"base_weights":[-1.0664862E-3,-2.1671152E-1,2.3428932E-1,-5.8338565E-1,-1.1729685E-1,-4.5703046E-2,6.5262055E-1,-1.3776594E-1,-8.400338E-1,-2.104224E-1,3.0705437E-1,-2.447172E-1,3.099888E-1,8.895399E-1,-1.5343772E-1,3.6026184E-2,-3.25541E-2,-2.201357E-2,-5.2521374E-2,5.7544315E-4,-2.2706907E-2,5.627206E-2,-1.5387419E-2,1.5046922E-2,-2.077578E-2,3.3511467E-2,-1.3253248E-2,3.3110876E-2,8.130615E-2,2.455825E-2,-3.5720747E-2],"categories":[],"categories_nodes":[],"categories_segments":[],"categories_sizes":[],"default_left":[0,0,1,0,0,0,0,0,1,0,1,0,0,0,0,0,0,0,0,0,0,0,0,0,0,0,0,0,0,0,0],"id":7,"left_children":[1,3,5,7,9,11,13,15,17,19,21,23,25,27,29,-1,-1,-1,-1,-1,-1,-1,-1,-1,-1,-1,-1,-1,-1,-1,-1],"loss_changes":[1.7337683E1,6.4298563E0,1.9161854E1,4.204117E0,5.656167E0,7.068548E0,1.2655928E1,7.077751E0,1.5368958E0,6.313206E0,1.3362767E1,6.080494E0,7.6109467E0,7.4312515E0,6.0442424E0,0E0,0E0,0E0,0E0,0E0,0E0,0E0,0E0,0E0,0E0,0E0,0E0,0E0,0E0,0E0,0E0],"parents":[2147483647,0,0,1,1,2,2,3,3,4,4,5,5,6,6,7,7,8,8,9,9,10,10,11,11,12,12,13,13,14,14],"right_children":[2,4,6,8,10,12,14,16,18,20,22,24,26,28,30,-1,-1,-1,-1,-1,-1,-1,-1,-1,-1,-1,-1,-1,-1,-1,-1],"split_conditions":[3.198E-1,9.78E-1,3.2407045E-1,2.0020081E-1,1.14E1,1.2582637E0,1.00774206E-1,3.1895724E-1,2.940767E-1,9.976E1,6.402134E-2,6.89E1,3.1067213E-1,8.9246966E-2,3.1952554E-1,3.6026184E-2,-3.25541E-2,-2.201357E-2,-5.2521374E-2,5.7544315E-4,-2.2706907E-2,5.627206E-2,-1.5387419E-2,1.5046922E-2,-2.077578E-2,3.3511467E-2,-1.3253248E-2,3.3110876E-2,8.130615E-2,2.455825E-2,-3.5720747E-2],"split_indices":[6,0,12,11,4,17,16,12,12,5,16,1,12,16,9,0,0,0,0,0,0,0,0,0,0,0,0,0,0,0,0],"split_type":[0,0,0,0,0,0,0,0,0,0,0,0,0,0,0,0,0,0,0,0,0,0,0,0,0,0,0,0,0,0,0],"sum_hessian":[3.396065E2,1.7726576E2,1.6234074E2,3.6771633E1,1.4049413E2,9.778394E1,6.455681E1,1.4000053E1,2.2771582E1,1.156241E2,2.4870031E1,6.2901653E1,3.488229E1,4.9812256E1,1.4744552E1,5.0883756E0,8.911678E0,8.918472E0,1.3853108E1,6.1015358E1,5.460874E1,1.0312331E1,1.45577E1,1.4813737E1,4.8087917E1,2.134517E1,1.3537119E1,3.9515972E1,1.0296281E1,6.9188027E0,7.825749E0],"tree_param":{"num_deleted":"0","num_feature":"25","num_nodes":"31","size_leaf_vector":"1"}},{"base_weights":[-3.6756944E-2,-3.6906803E-1,1.2809028E-1,-1.2065973E-1,-6.0141027E-1,5.8721185E-2,7.1655977E-1,2.178892E-1,-3.4711203E-1,7.130315E-3,-7.5646996E-1,8.951493E-2,-4.686645E-2,-1.0853245E-2,1.022381E0,-7.6144114E-3,5.6498934E-2,-2.7932584E-2,2.1956125E-2,-4.9026657E-2,-2.345627E-2,-1.7814131E-2,7.7366317E-3,-4.6822155E-4,7.3003076E-2],"categories":[],"categories_nodes":[],"categories_segments":[],"categories_sizes":[],"default_left":[0,1,1,0,0,1,0,0,1,0,0,1,0,0,0,0,0,0,0,0,0,0,0,0,0],"id":8,"left_children":[1,3,5,7,9,11,13,15,17,-1,19,21,-1,-1,23,-1,-1,-1,-1,-1,-1,-1,-1,-1,-1],"loss_changes":[1.8575556E1,6.4150696E0,9.217102E0,4.336383E0,6.779621E0,6.340761E0,7.0256243E0,7.9002867E0,5.8481064E0,0E0,2.631401E0,5.83464E0,0E0,0E0,8.198256E0,0E0,0E0,0E0,0E0,0E0,0E0,0E0,0E0,0E0,0E0],"parents":[2147483647,0,0,1,1,2,2,3,3,4,4,5,5,6,6,7,7,8,8,10,10,11,11,14,14],"right_children":[2,4,6,8,10,12,14,16,18,-1,20,22,-1,-1,24,-1,-1,-1,-1,-1,-1,-1,-1,-1,-1],"split_conditions":[3.164E-1,3.3E-1,2.1730585E0,4.138516E-1,-1.6E0,1.8646924E0,3.7853494E-1,9.0885445E-2,5.013042E-1,7.130315E-3,5.5062167E-2,9.4E1,-4.686645E-2,-1.0853245E-2,5.8604747E-2,-7.6144114E-3,5.6498934E-2,-2.7932584E-2,2.1956125E-2,-4.9026657E-2,-2.345627E-2,-1.7814131E-2,7.7366317E-3,-4.6822155E-4,7.3003076E-2],"split_indices":[6,15,23,13,22,23,13,16,13,0,8,18,0,0,16,0,0,0,0,0,0,0,0,0,0],"split_type":[0,0,0,0,0,0,0,0,0,0,0,0,0,0,0,0,0,0,0,0,0,0,0,0,0],"sum_hessian":[3.372273E2,1.1140669E2,2.258206E2,5.4576084E1,5.683061E1,2.0299162E2,2.2828976E1,2.188923E1,3.268685E1,9.815173E0,4.7015434E1,1.97787E2,5.2046256E0,5.7044377E0,1.7124538E1,1.6162577E1,5.726653E0,2.5984953E1,6.7019005E0,2.5061102E1,2.1954332E1,2.467274E1,1.7311426E2,5.3921676E0,1.173237E1],"tree_param":{"num_deleted":"0","num_feature":"25","num_nodes":"25","size_leaf_vector":"1"}},{"base_weights":[5.5635087E-3,-2.6518217E-1,1.3897341E-1,-7.5351125E-1,-1.546809E-1,-4.268394E-2,3.8704273E-1,-3.8662055E-1,-5.622503E-2,1.8555312E-1,-4.059204E-1,8.7901704E-2,-4.3753284E-1,5.467771E-1,-2.3907694E-1,4.405485E-3,-3.839677E-2,-2.4400111E-2,1.715472E-2,-7.7154944E-3,-3.864576E-2,3.5780463E-2,-1.6041658E-3,1.8293275E-4,-3.9639246E-2,2.0940328E-2,6.713338E-2,-3.7551757E-2,1.1110435E-2],"categories":[],"categories_nodes":[],"categories_segments":[],"categories_sizes":[],"default_left":[0,1,1,1,1,1,1,0,0,0,0,0,0,0,0,0,0,0,0,0,0,0,0,0,0,0,0,0,0],"id":9,"left_children":[1,3,5,7,9,11,13,15,-1,17,19,21,23,25,27,-1,-1,-1,-1,-1,-1,-1,-1,-1,-1,-1,-1,-1,-1],"loss_changes":[1.2156981E1,5.878915E0,1.0175788E1,2.320734E0,7.9278126E0,6.7952237E0,9.671973E0,2.1860292E0,0E0,4.380844E0,4.789174E0,7.502345E0,5.1336164E0,7.210224E0,4.9106197E0,0E0,0E0,0E0,0E0,0E0,0E0,0E0,0E0,0E0,0E0,0E0,0E0,0E0,0E0],"parents":[2147483647,0,0,1,1,2,2,3,3,4,4,5,5,6,6,7,7,9,9,10,10,11,11,12,12,13,13,14,14],"right_children":[2,4,6,8,10,12,14,16,-1,18,20,22,24,26,28,-1,-1,-1,-1,-1,-1,-1,-1,-1,-1,-1,-1,-1,-1],"split_conditions":[3.164E-1,9.12E1,3.2407045E-1,6.0892258E-2,3.3E-1,3.1067213E-1,4.8E-1,1.67E2,-5.622503E-2,1E2,0E0,3.0044162E-1,1.41E2,3.42205E-1,3.946751E-1,4.405485E-3,-3.839677E-2,-2.4400111E-2,1.715472E-2,-7.7154944E-3,-3.864576E-2,3.5780463E-2,-1.6041658E-3,1.8293275E-4,-3.9639246E-2,2.0940328E-2,6.713338E-2,-3.7551757E-2,1.1110435E-2],"split_indices":[6,14,12,16,15,12,15,18,0,18,22,10,18,10,13,0,0,0,0,0,0,0,0,0,0,0,0,0,0],"split_type":[0,0,0,0,0,0,0,0,0,0,0,0,0,0,0,0,0,0,0,0,0,0,0,0,0,0,0,0,0],"sum_hessian":[3.3455026E2,1.1010747E2,2.244428E2,1.9244192E1,9.086327E1,1.3004256E2,9.440024E1,1.0702282E1,8.54191E0,3.870694E1,5.2156334E1,9.83074E1,3.173515E1,7.53132E1,1.9087034E1,5.1097116E0,5.59257E0,6.939602E0,3.1767338E1,3.178506E1,2.0371271E1,1.497914E1,8.332826E1,1.4596853E1,1.7138296E1,6.619584E1,9.117365E0,8.748913E0,1.033812E1],"tree_param":{"num_deleted":"0","num_feature":"25","num_nodes":"29","size_leaf_vector":"1"}},{"base_weights":[3.3276487E-2,-1.18024625E-1,2.5830674E-1,-1.3189148E-2,-4.0058276E-1,-5.2922136E-1,3.6582485E-1,-6.913706E-2,4.8129495E-2,5.2285653E-2,-5.872457E-1,-4.9569337E-3,-4.4548314E-2,7.363989E-1,1.2712127E-1,2.0350968E-4,-3.54792E-2,-1.9433208E-2,3.4062773E-2,-4.557408E-2,-1.7512362E-2,7.6822005E-2,1.9628331E-2,-4.6457317E-2,1.0996573E-2],"categories":[],"categories_nodes":[],"categories_segments":[],"categories_sizes":[],"default_left":[0,1,0,1,0,0,0,0,0,0,0,0,0,0,0,0,0,0,0,0,0,0,0,0,0],"id":10,"left_children":[1,3,5,7,9,11,13,15,-1,17,19,-1,-1,21,23,-1,-1,-1,-1,-1,-1,-1,-1,-1,-1],"loss_changes":[1.143994E1,5.9507008E0,1.1627942E1,8.129235E0,4.6274624E0,2.4990535E0,1.0469057E1,6.5955296E0,0E0,4.921313E0,2.6459923E0,0E0,0E0,1.2208385E1,7.4426575E0,0E0,0E0,0E0,0E0,0E0,0E0,0E0,0E0,0E0,0E0],"parents":[2147483647,0,0,1,1,2,2,3,3,4,4,5,5,6,6,7,7,9,9,10,10,13,13,14,14],"right_children":[2,4,6,8,10,12,14,16,-1,18,20,-1,-1,22,24,-1,-1,-1,-1,-1,-1,-1,-1,-1,-1],"split_conditions":[1.2561527E0,5.8E-1,3.124E-1,9.62E1,5.5106986E-2,4.0839136E-1,9.96E-1,1.20507E0,4.8129495E-2,1.0183E2,3.173E-1,-4.9569337E-3,-4.4548314E-2,1.14945E0,2.6344568E-1,2.0350968E-4,-3.54792E-2,-1.9433208E-2,3.4062773E-2,-4.557408E-2,-1.7512362E-2,7.6822005E-2,1.9628331E-2,-4.6457317E-2,1.0996573E-2],"split_indices":[17,15,6,14,16,21,0,2,0,5,6,0,0,2,12,0,0,0,0,0,0,0,0,0,0],"split_type":[0,0,0,0,0,0,0,0,0,0,0,0,0,0,0,0,0,0,0,0,0,0,0,0,0],"sum_hessian":[3.3410574E2,2.0006544E2,1.340403E2,1.4668767E2,5.3377777E1,1.5630542E1,1.1840975E2,1.3961194E2,7.0757356E0,1.5789731E1,3.7588043E1,7.7228336E0,7.907708E0,4.5573868E1,7.2835884E1,1.2618214E2,1.3429797E1,9.506855E0,6.282877E0,1.467092E1,2.2917124E1,1.2656258E1,3.291761E1,5.1550694E0,6.768082E1],"tree_param":{"num_deleted":"0","num_feature":"25","num_nodes":"25","size_leaf_vector":"1"}},{"base_weights":[1.2006516E-2,-4.550992E-2,6.9660926E-1,-1.7842852E-1,1.624327E-1,-1.8235385E-2,1.0901744E0,-8.189529E-1,-1.2744169E-1,2.7240376E-4,6.4192533E-1,5.457175E-1,9.124079E-2,-5.506264E-2,-2.1363162E-2,-1.6197952E-2,9.436384E-4,2.991337E-2,-6.678292E-3,5.659082E-2,6.4574587E-3,-7.4025686E-3,5.3711385E-2],"categories":[],"categories_nodes":[],"categories_segments":[],"categories_sizes":[],"default_left":[0,0,0,1,0,0,0,0,1,0,0,0,0,0,0,0,0,0,0,0,0,0,0],"id":11,"left_children":[1,3,5,7,9,-1,11,13,15,17,19,21,-1,-1,-1,-1,-1,-1,-1,-1,-1,-1,-1],"loss_changes":[1.3188227E1,8.574245E0,1.1239808E1,6.070839E0,9.414651E0,0E0,6.6782074E0,1.0506887E0,5.076129E0,7.4017577E0,7.5407343E0,4.7225423E0,0E0,0E0,0E0,0E0,0E0,0E0,0E0,0E0,0E0,0E0,0E0],"parents":[2147483647,0,0,1,1,2,2,3,3,4,4,6,6,7,7,8,8,9,9,10,10,11,11],"right_children":[2,4,6,8,10,-1,12,14,16,18,20,22,-1,-1,-1,-1,-1,-1,-1,-1,-1,-1,-1],"split_conditions":[3.253E-1,1.2582637E0,2.9950237E-1,7.4E1,6.138082E-1,-1.8235385E-2,5.6E-1,2.4886484E-1,-3.6486882E-1,3.6921513E-1,9.38E1,7.54E1,9.124079E-2,-5.506264E-2,-2.1363162E-2,-1.6197952E-2,9.436384E-4,2.991337E-2,-6.678292E-3,5.659082E-2,6.4574587E-3,-7.4025686E-3,5.3711385E-2],"split_indices":[7,17,12,18,21,0,15,11,23,21,14,1,0,0,0,0,0,0,0,0,0,0,0],"split_type":[0,0,0,0,0,0,0,0,0,0,0,0,0,0,0,0,0,0,0,0,0,0,0],"sum_hessian":[3.3312622E2,3.0816913E2,2.4957096E1,1.8808537E2,1.2008375E2,6.7710657E0,1.8186031E1,1.2757435E1,1.7532794E2,9.048355E1,2.9600197E1,1.1446008E1,6.7400236E0,6.361215E0,6.39622E0,7.4308655E1,1.0101929E2,1.5913095E1,7.457046E1,1.4520504E1,1.5079692E1,5.2604933E0,6.1855145E0],"tree_param":{"num_deleted":"0","num_feature":"25","num_nodes":"23","size_leaf_vector":"1"}},{"base_weights":[-1.4043858E-2,-4.81436E-2,7.0192283E-1,-5.292236E-1,3.0866186E-3,5.744068E-2,-7.7590994E-3,1.6812613E-2,-7.2345567E-1,-2.6549885E-2,7.571989E-1,-4.6933863E-2,-1.7740978E-2,-3.303028E-3,3.2255374E-2,2.340989E-3,6.6779904E-2],"categories":[],"categories_nodes":[],"categories_segments":[],"categories_sizes":[],"default_left":[0,1,0,0,0,0,0,0,0,1,0,0,0,0,0,0,0],"id":12,"left_children":[1,3,5,7,9,-1,-1,-1,11,13,15,-1,-1,-1,-1,-1,-1],"loss_changes":[8.258239E0,7.949699E0,6.0689607E0,5.46165E0,6.556108E0,0E0,0E0,0E0,1.7035809E0,7.535675E0,4.495167E0,0E0,0E0,0E0,0E0,0E0,0E0],"parents":[2147483647,0,0,1,1,2,2,3,3,4,4,8,8,9,9,10,10],"right_children":[2,4,6,8,10,-1,-1,-1,12,14,16,-1,-1,-1,-1,-1,-1],"split_conditions":[3.264E-1,8.5E1,1.3079057E0,-1.2666667E0,1.015E2,5.744068E-2,-7.7590994E-3,1.6812613E-2,8.24706E-1,1.5690416E0,8.3E0,-4.6933863E-2,-1.7740978E-2,-3.303028E-3,3.2255374E-2,2.340989E-3,6.6779904E-2],"split_indices":[7,18,17,22,1,0,0,0,24,17,4,0,0,0,0,0,0],"split_type":[0,0,0,0,0,0,0,0,0,0,0,0,0,0,0,0,0],"sum_hessian":[3.358703E2,3.214912E2,1.4379083E1,3.0042765E1,2.9144843E2,9.22754E0,5.1515427E0,5.372469E0,2.4670296E1,2.81356E2,1.0092456E1,1.4599998E1,1.0070297E1,2.665761E2,1.4779866E1,5.014584E0,5.077872E0],"tree_param":{"num_deleted":"0","num_feature":"25","num_nodes":"17","size_leaf_vector":"1"}},{"base_weights":[-2.4851358E-2,-2.705782E-1,9.1306694E-2,-1.9718412E-1,-5.11329E-2,-2.103074E-1,1.951598E-1,2.1426257E-2,-4.16269E-1,-4.1068798E-1,3.1633192E-1,6.250753E-2,1.5149403E-1,6.3063414E-3,-3.7428807E-2,7.404577E-3,-3.181298E-2,1.40766995E-2,-3.1176716E-2,3.8184326E-2,-2.059619E-2,4.6255044E-3,3.697226E-2],"categories":[],"categories_nodes":[],"categories_segments":[],"categories_sizes":[],"default_left":[0,1,0,0,0,0,0,0,1,0,0,0,1,0,0,0,0,0,0,0,0,0,0],"id":13,"left_children":[1,3,5,7,-1,9,11,13,15,17,19,-1,21,-1,-1,-1,-1,-1,-1,-1,-1,-1,-1],"loss_changes":[9.71578E0,5.827804E0,7.2858934E0,4.834725E0,0E0,6.4323034E0,7.760323E0,4.2370977E0,6.34838E0,6.6136966E0,5.861291E0,0E0,5.7178183E0,0E0,0E0,0E0,0E0,0E0,0E0,0E0,0E0,0E0,0E0],"parents":[2147483647,0,0,1,1,2,2,3,3,5,5,6,6,7,7,8,8,9,9,10,10,12,12],"right_children":[2,4,6,8,-1,10,12,14,16,18,20,-1,22,-1,-1,-1,-1,-1,-1,-1,-1,-1,-1],"split_conditions":[3.164E-1,2.2827609E0,1.100624E0,4.4348842E-1,-5.11329E-2,5.6078845E-1,1.1107416E0,3.2049692E-1,9E-2,2.9481545E-1,8.110119E-2,6.250753E-2,2.2827609E0,6.3063414E-3,-3.7428807E-2,7.404577E-3,-3.181298E-2,1.40766995E-2,-3.1176716E-2,3.8184326E-2,-2.059619E-2,4.6255044E-3,3.697226E-2],"split_indices":[6,23,17,21,0,21,17,10,15,9,16,0,23,0,0,0,0,0,0,0,0,0,0],"split_type":[0,0,0,0,0,0,0,0,0,0,0,0,0,0,0,0,0,0,0,0,0,0,0],"sum_hessian":[3.3852362E2,1.0823283E2,2.302908E2,9.975965E1,8.473177E0,5.8722282E1,1.7156853E2,5.038549E1,4.937416E1,4.269679E1,1.6025494E1,5.720793E0,1.6584773E2,4.5090534E1,5.294956E0,1.3939869E1,3.543429E1,9.965179E0,3.273161E1,9.897181E0,6.128314E0,1.5177847E2,1.4069248E1],"tree_param":{"num_deleted":"0","num_feature":"25","num_nodes":"23","size_leaf_vector":"1"}},{"base_weights":[-1.9303648E-2,-5.682022E-1,1.8294973E-2,-8.288945E-1,1.23518435E-2,1.17592424E-1,-1.9745015E-1,-1.5307724E-2,-5.292179E-2,-2.2257362E-1,2.3050568E-1,-4.6908212E-1,1.0505153E-1,-4.013921E-2,3.484045E-3,1.5995682E-3,2.6978282E-2,-3.1218445E-2,6.819802E-3,4.0683612E-2,-3.4258224E-3],"categories":[],"categories_nodes":[],"categories_segments":[],"categories_sizes":[],"default_left":[1,1,1,1,0,1,0,0,0,0,0,0,0,0,0,0,0,0,0,0,0],"id":14,"left_children":[1,3,5,7,-1,9,11,-1,-1,13,15,17,19,-1,-1,-1,-1,-1,-1,-1,-1],"loss_changes":[6.9885244E0,4.8181434E0,6.8232007E0,1.6770744E0,0E0,8.424414E0,8.3006E0,0E0,0E0,9.354515E0,1.0054461E1,5.077018E0,5.999647E0,0E0,0E0,0E0,0E0,0E0,0E0,0E0,0E0],"parents":[2147483647,0,0,1,1,2,2,3,3,5,5,6,6,9,9,10,10,11,11,12,12],"right_children":[2,4,6,8,-1,10,12,-1,-1,14,16,18,20,-1,-1,-1,-1,-1,-1,-1,-1],"split_conditions":[7.4E1,8.6035386E-2,4.9E-1,2.8006157E-1,1.23518435E-2,9.08E1,3.2E-1,-1.5307724E-2,-5.292179E-2,2.3E-1,7.3869765E-1,8.4E-1,9.31E1,-4.013921E-2,3.484045E-3,1.5995682E-3,2.6978282E-2,-3.1218445E-2,6.819802E-3,4.0683612E-2,-3.4258224E-3],"split_indices":[18,16,15,12,0,14,7,0,0,15,24,15,14,0,0,0,0,0,0,0,0],"split_type":[0,0,0,0,0,0,0,0,0,0,0,0,0,0,0,0,0,0,0,0,0],"sum_hessian":[3.3712323E2,2.0707287E1,3.1641592E2,1.5677332E1,5.029954E0,2.1699718E2,9.941877E1,5.49567E0,1.0181662E1,5.3836483E1,1.6316069E2,5.2091988E1,4.732678E1,1.7448751E1,3.638773E1,1.0001982E2,6.3140873E1,4.1434177E1,1.0657809E1,8.585815E0,3.8740963E1],"tree_param":{"num_deleted":"0","num_feature":"25","num_nodes":"21","size_leaf_vector":"1"}},{"base_weights":[-2.5411046E-4,-2.3817703E-1,1.2589194E-1,-5.183684E-1,-3.5828605E-2,-1.8457713E-2,3.8495263E-1,-3.17858E-1,-8.4883666E-1,-1.9384068E-1,5.983884E-1,4.5218965E-1,-1.066427E-1,-4.0156418E-1,5.335453E-1,6.613078E-3,-3.2580208E-2,-5.587105E-2,-2.3640892E-2,1.3977486E-2,-2.3658922E-2,6.2025588E-2,-5.2730803E-4,4.5133527E-2,-1.503095E-2,-3.545587E-2,2.1768531E-3,4.177515E-3,-3.848167E-2,4.3955978E-2,9.557106E-3],"categories":[],"categories_nodes":[],"categories_segments":[],"categories_sizes":[],"default_left":[0,0,0,0,0,0,0,0,0,1,0,0,0,0,0,0,0,0,0,0,0,0,0,0,0,0,0,0,0,0,0],"id":15,"left_children":[1,3,5,7,9,11,13,15,17,19,21,23,25,27,29,-1,-1,-1,-1,-1,-1,-1,-1,-1,-1,-1,-1,-1,-1,-1,-1],"loss_changes":[1.0183497E1,6.6468916E0,8.299109E0,2.9919672E0,7.06474E0,5.9978213E0,9.4925165E0,4.9287395E0,1.2885256E0,7.5724688E0,5.5163836E0,8.0074215E0,1.1027583E1,2.4187086E0,7.783848E0,0E0,0E0,0E0,0E0,0E0,0E0,0E0,0E0,0E0,0E0,0E0,0E0,0E0,0E0,0E0,0E0],"parents":[2147483647,0,0,1,1,2,2,3,3,4,4,5,5,6,6,7,7,8,8,9,9,10,10,11,11,12,12,13,13,14,14],"right_children":[2,4,6,8,10,12,14,16,18,20,22,24,26,28,30,-1,-1,-1,-1,-1,-1,-1,-1,-1,-1,-1,-1,-1,-1,-1,-1],"split_conditions":[3.169E-1,1E0,1.3001404E0,4.135402E-1,1.18407E0,2.970469E-1,-1.7316155E0,3.152E-1,3.0195472E-1,6.402134E-2,1.19475E0,8.15E1,4.6153847E-2,3.2049692E-1,9.37E1,6.613078E-3,-3.2580208E-2,-5.587105E-2,-2.3640892E-2,1.3977486E-2,-2.3658922E-2,6.2025588E-2,-5.2730803E-4,4.5133527E-2,-1.503095E-2,-3.545587E-2,2.1768531E-3,4.177515E-3,-3.848167E-2,4.3955978E-2,9.557106E-3],"split_indices":[6,0,17,23,2,10,23,7,10,16,2,1,8,10,14,0,0,0,0,0,0,0,0,0,0,0,0,0,0,0,0],"split_type":[0,0,0,0,0,0,0,0,0,0,0,0,0,0,0,0,0,0,0,0,0,0,0,0,0,0,0,0,0,0,0],"sum_hessian":[3.3730344E2,1.1656435E2,2.2073907E2,4.8225224E1,6.833913E1,1.423499E2,7.8389175E1,3.123521E1,1.6990015E1,5.5264584E1,1.307454E1,2.1811766E1,1.2053814E2,1.2185831E1,6.620335E1,1.3556042E1,1.7679169E1,8.760682E0,8.229334E0,2.050843E1,3.4756153E1,5.859011E0,7.2155294E0,1.3521453E1,8.290312E0,2.3308771E1,9.722937E1,5.590529E0,6.595302E0,3.216896E1,3.403438E1],"tree_param":{"num_deleted":"0","num_feature":"25","num_nodes":"31","size_leaf_vector":"1"}},{"base_weights":[-1.289377E-4,-1.8275765E-1,1.2220168E-1,9.7185625E-3,-4.1598576E-1,7.652208E-2,6.117273E-2,-9.022489E-2,4.627369E-2,-8.334432E-1,-1.6907184E-1,1.5512113E-1,-3.6462802E-1,-3.483222E-2,4.843853E-3,-4.7094684E-2,-1.9480271E-2,2.2162052E-2,-1.690768E-2,9.942763E-3,-3.7993416E-2,-4.656658E-2,1.4603765E-3],"categories":[],"categories_nodes":[],"categories_segments":[],"categories_sizes":[],"default_left":[0,0,1,0,0,1,0,0,0,0,0,0,0,0,0,0,0,0,0,0,0,0,0],"id":16,"left_children":[1,3,5,7,9,11,-1,13,-1,15,17,19,21,-1,-1,-1,-1,-1,-1,-1,-1,-1,-1],"loss_changes":[7.456381E0,6.014037E0,9.960907E0,6.8860297E0,6.1008434E0,6.7478924E0,0E0,7.7741814E0,0E0,7.040615E-1,4.219074E0,6.7336516E0,6.6071453E0,0E0,0E0,0E0,0E0,0E0,0E0,0E0,0E0,0E0,0E0],"parents":[2147483647,0,0,1,1,2,2,3,3,4,4,5,5,7,7,9,9,10,10,11,11,12,12],"right_children":[2,4,6,8,10,12,-1,14,-1,16,18,20,22,-1,-1,-1,-1,-1,-1,-1,-1,-1,-1],"split_conditions":[3.18E-1,4.7387385E-1,3.9158472E-1,-4E-1,5.4533803E-1,2.7616957E-1,6.117273E-2,9.23E1,4.627369E-2,8.1E-1,3.6075455E-1,1.55E1,7.1E0,-3.483222E-2,4.843853E-3,-4.7094684E-2,-1.9480271E-2,2.2162052E-2,-1.690768E-2,9.942763E-3,-3.7993416E-2,-4.656658E-2,1.4603765E-3],"split_indices":[6,21,12,22,21,11,0,14,0,15,13,4,4,0,0,0,0,0,0,0,0,0,0],"split_type":[0,0,0,0,0,0,0,0,0,0,0,0,0,0,0,0,0,0,0,0,0,0,0],"sum_hessian":[3.3175232E2,1.3288014E2,1.988722E2,7.33253E1,5.955485E1,1.9197847E2,6.8937154E0,6.692295E1,6.402345E0,2.1250755E1,3.8304096E1,1.6349686E2,2.8481619E1,1.5137424E1,5.178553E1,1.6176031E1,5.0747232E0,7.937557E0,3.0366537E1,1.5678558E2,6.7112737E0,1.1118317E1,1.7363302E1],"tree_param":{"num_deleted":"0","num_feature":"25","num_nodes":"23","size_leaf_vector":"1"}},{"base_weights":[-1.7655766E-2,9.262118E-2,-2.6117885E-1,-6.723121E-1,1.4018144E-1,-3.2180348E-1,3.436802E-2,-4.999393E-2,-5.602608E-3,1.0250301E-1,4.610404E-2,-1.2481033E-1,-5.626443E-1,3.10736E-3,4.309426E-2,-2.1724416E-2,5.617071E-3,-3.6721785E-2,1.4106263E-3],"categories":[],"categories_nodes":[],"categories_segments":[],"categories_sizes":[],"default_left":[1,1,0,0,1,0,0,0,0,0,0,0,1,0,0,0,0,0,0],"id":17,"left_children":[1,3,5,7,9,11,-1,-1,-1,13,-1,15,17,-1,-1,-1,-1,-1,-1],"loss_changes":[8.995299E0,8.486204E0,6.223846E0,2.3976688E0,6.327841E0,4.6170254E0,0E0,0E0,0E0,6.3544145E0,0E0,4.1343E0,4.5037136E0,0E0,0E0,0E0,0E0,0E0,0E0],"parents":[2147483647,0,0,1,1,2,2,3,3,4,4,5,5,9,9,11,11,12,12],"right_children":[2,4,6,8,10,12,-1,-1,-1,14,-1,16,18,-1,-1,-1,-1,-1,-1],"split_conditions":[4.9E-1,7.4E1,3.262E-1,3.2363316E-1,9.61E1,7.888108E-2,3.436802E-2,-4.999393E-2,-5.602608E-3,2.2E0,4.610404E-2,3.4554668E-2,1.3017145E0,3.10736E-3,4.309426E-2,-2.1724416E-2,5.617071E-3,-3.6721785E-2,1.4106263E-3],"split_indices":[15,18,7,9,14,16,0,0,0,22,0,24,23,0,0,0,0,0,0],"split_type":[0,0,0,0,0,0,0,0,0,0,0,0,0,0,0,0,0,0,0],"sum_hessian":[3.3305753E2,2.296724E2,1.0338514E2,1.267521E1,2.1699718E2,9.779541E1,5.589727E0,7.503486E0,5.171724E0,2.0810027E2,8.89691E0,5.4629787E1,4.3165623E1,1.9862651E2,9.47376E0,2.3331236E1,3.1298552E1,3.3254025E1,9.911595E0],"tree_param":{"num_deleted":"0","num_feature":"25","num_nodes":"19","size_leaf_vector":"1"}},{"base_weights":[-2.2590453E-2,-5.2432984E-1,4.2632103E-2,-2.2402978E-1,-9.1734034E-1,5.6013083E-3,6.9019186E-1,1.01386845E-1,-3.5086203E-2,-2.6594011E-2,-5.1923614E-2,1.1089921E-1,-2.2616021E-1,6.2290527E-2,-9.082628E-3,-1.6948398E-2,3.2834094E-2,-3.276236E-2,7.93385E-3,-1.4708253E-2,2.0868031E-2],"categories":[],"categories_nodes":[],"categories_segments":[],"categories_sizes":[],"default_left":[0,0,0,0,0,1,1,0,0,0,0,1,0,0,0,0,0,0,0,0,0],"id":18,"left_children":[1,3,5,7,9,11,13,15,-1,-1,-1,17,19,-1,-1,-1,-1,-1,-1,-1,-1],"loss_changes":[1.1114926E1,4.405504E0,7.211533E0,3.7195559E0,2.227068E-1,6.9955673E0,8.10668E0,3.8498693E0,0E0,0E0,0E0,7.3176374E0,4.042142E0,0E0,0E0,0E0,0E0,0E0,0E0,0E0,0E0],"parents":[2147483647,0,0,1,1,2,2,3,3,4,4,5,5,6,6,7,7,11,11,12,12],"right_children":[2,4,6,8,10,12,14,16,-1,-1,-1,18,20,-1,-1,-1,-1,-1,-1,-1,-1],"split_conditions":[3.116E-1,4.2157716E-1,3.263E-1,8.6804904E-2,3.9269465E-1,4.9E-1,4.1676113E-1,-1.010933E0,-3.5086203E-2,-2.6594011E-2,-5.1923614E-2,7.4E1,1.1621977E-1,6.2290527E-2,-9.082628E-3,-1.6948398E-2,3.2834094E-2,-3.276236E-2,7.93385E-3,-1.4708253E-2,2.0868031E-2],"split_indices":[6,21,7,23,13,15,13,23,0,0,0,18,16,0,0,0,0,0,0,0,0],"split_type":[0,0,0,0,0,0,0,0,0,0,0,0,0,0,0,0,0,0,0,0,0],"sum_hessian":[3.3796616E2,3.8069416E1,2.9989673E2,2.2470047E1,1.5599368E1,2.8462885E2,1.526789E1,1.3833855E1,8.636191E0,5.019018E0,1.058035E1,1.9606891E2,8.855993E1,9.063113E0,6.204777E0,7.9327064E0,5.901149E0,1.0763007E1,1.8530591E2,8.058671E1,7.973216E0],"tree_param":{"num_deleted":"0","num_feature":"25","num_nodes":"21","size_leaf_vector":"1"}},{"base_weights":[5.5533974E-4,-5.1020995E-2,4.9965066E-1,-1.0834959E-2,-6.1422473E-1,1.2929729E0,2.7326412E-2,-4.1505647E-1,5.0751366E-2,-4.911289E-2,-2.4330388E-1,8.561675E-2,3.4448538E-2,-4.8684508E-1,3.4858823E-2,1.2378708E-2,-3.1834282E-2,-4.1024256E-3,1.496125E-2,-3.1971578E-2,1.0931599E-2,-4.3100264E-2,2.429385E-3],"categories":[],"categories_nodes":[],"categories_segments":[],"categories_sizes":[],"default_left":[0,0,0,0,0,0,0,0,0,0,0,0,0,0,0,0,0,0,0,0,0,0,0],"id":19,"left_children":[1,3,5,7,9,11,13,15,17,-1,19,-1,-1,21,-1,-1,-1,-1,-1,-1,-1,-1,-1],"loss_changes":[8.633875E0,6.873801E0,1.1735794E1,7.110359E0,2.522458E0,1.7842846E0,7.4731627E0,5.702992E0,8.208315E0,0E0,2.2265837E0,0E0,0E0,2.513973E0,0E0,0E0,0E0,0E0,0E0,0E0,0E0,0E0,0E0],"parents":[2147483647,0,0,1,1,2,2,3,3,4,4,5,5,6,6,7,7,8,8,10,10,13,13],"right_children":[2,4,6,8,10,12,14,16,18,-1,20,-1,-1,22,-1,-1,-1,-1,-1,-1,-1,-1,-1],"split_conditions":[3.263E-1,3.249E-1,9.31E1,3.114E-1,1.0442E2,1.16224E0,1.72E2,8.952E1,1.2866714E0,-4.911289E-2,3.221223E-1,8.561675E-2,3.4448538E-2,3.2556424E-1,3.4858823E-2,1.2378708E-2,-3.1834282E-2,-4.1024256E-3,1.496125E-2,-3.1971578E-2,1.0931599E-2,-4.3100264E-2,2.429385E-3],"split_indices":[6,6,14,6,5,2,18,5,17,0,9,0,0,10,0,0,0,0,0,0,0,0,0],"split_type":[0,0,0,0,0,0,0,0,0,0,0,0,0,0,0,0,0,0,0,0,0,0,0],"sum_hessian":[3.334164E2,3.0300204E2,3.041435E1,2.8377335E2,1.9228718E1,1.0701872E1,1.9712479E1,3.675998E1,2.4701335E2,8.824632E0,1.0404087E1,5.2333484E0,5.468524E0,1.1306728E1,8.40575E0,9.184109E0,2.757587E1,1.614136E2,8.559975E1,5.394152E0,5.009935E0,6.28977E0,5.016958E0],"tree_param":{"num_deleted":"0","num_feature":"25","num_nodes":"23","size_leaf_vector":"1"}},{"base_weights":[-2.1519965E-2,1.8141385E-2,-4.9562144E-1,5.155855E-1,-3.9403874E-2,-7.696148E-1,9.601562E-3,6.281233E-2,1.2821068E0,-2.7875003E-1,5.740984E-2,-1.5183431E-2,-4.9872074E-2,-3.2727268E-2,3.0222667E-2,3.224871E-2,8.868095E-2,-8.512661E-3,-3.992605E-2,-2.224971E-2,5.838276E-3],"categories":[],"categories_nodes":[],"categories_segments":[],"categories_sizes":[],"default_left":[1,0,0,0,0,0,0,0,0,1,1,0,0,0,0,0,0,0,0,0,0],"id":20,"left_children":[1,3,5,7,9,11,-1,13,15,17,19,-1,-1,-1,-1,-1,-1,-1,-1,-1,-1],"loss_changes":[6.4146576E0,9.046802E0,5.109396E0,1.1291465E1,6.586724E0,1.7172804E0,0E0,8.8079815E0,2.6503086E0,4.4791045E0,6.097368E0,0E0,0E0,0E0,0E0,0E0,0E0,0E0,0E0,0E0,0E0],"parents":[2147483647,0,0,1,1,2,2,3,3,4,4,5,5,7,7,8,8,9,9,10,10],"right_children":[2,4,6,8,10,12,-1,14,16,18,20,-1,-1,-1,-1,-1,-1,-1,-1,-1,-1],"split_conditions":[3.0560917E-1,2.8144655E-1,1.045E2,2.722779E-1,1.1021639E0,9.568E1,9.601562E-3,2.473376E-1,4.9852002E-1,2.5026226E-1,9.2E1,-1.5183431E-2,-4.9872074E-2,-3.2727268E-2,3.0222667E-2,3.224871E-2,8.868095E-2,-8.512661E-3,-3.992605E-2,-2.224971E-2,5.838276E-3],"split_indices":[11,12,5,12,17,5,0,11,24,11,18,0,0,0,0,0,0,0,0,0,0],"split_type":[0,0,0,0,0,0,0,0,0,0,0,0,0,0,0,0,0,0,0,0,0],"sum_hessian":[3.3966345E2,3.1432968E2,2.5333775E1,3.1766632E1,2.8256305E2,1.8030413E1,7.3033605E0,2.0650578E1,1.11160555E1,8.083666E1,2.0172638E2,6.6870656E0,1.1343348E1,8.794524E0,1.1856053E1,5.8478656E0,5.2681894E0,6.797511E1,1.286155E1,2.0627977E1,1.810984E2],"tree_param":{"num_deleted":"0","num_feature":"25","num_nodes":"21","size_leaf_vector":"1"}},{"base_weights":[-6.535922E-3,-4.1022375E-2,6.2899244E-1,-9.147834E-2,4.4614738E-1,1.107152E0,-1.283349E-2,-2.0535398E-1,1.398551E-1,-4.04269E-2,7.505158E-1,3.0304378E-2,7.156711E-2,1.8230323E-2,-1.3024007E-2,1.7671628E-2,-1.0540019E-2,8.388571E-2,1.9562216E-2],"categories":[],"categories_nodes":[],"categories_segments":[],"categories_sizes":[],"default_left":[0,0,1,0,1,0,0,0,1,0,0,0,0,0,0,0,0,0,0],"id":21,"left_children":[1,3,5,7,9,11,-1,13,15,-1,17,-1,-1,-1,-1,-1,-1,-1,-1],"loss_changes":[7.3389654E0,7.8436294E0,7.5833225E0,7.6281195E0,1.204874E1,9.8122597E-1,0E0,6.181615E0,7.2458553E0,0E0,7.548546E0,0E0,0E0,0E0,0E0,0E0,0E0,0E0,0E0],"parents":[2147483647,0,0,1,1,2,2,3,3,4,4,5,5,7,7,8,8,10,10],"right_children":[2,4,6,8,10,12,-1,14,16,-1,18,-1,-1,-1,-1,-1,-1,-1,-1],"split_conditions":[3.261E-1,3.263E-1,4.1676113E-1,1.3001404E0,-1.3849396E0,2.2827674E-1,-1.283349E-2,1.5210311E-1,9.38E1,-4.04269E-2,9.25E1,3.0304378E-2,7.156711E-2,1.8230323E-2,-1.3024007E-2,1.7671628E-2,-1.0540019E-2,8.388571E-2,1.9562216E-2],"split_indices":[7,6,13,17,23,11,0,11,14,0,14,0,0,0,0,0,0,0,0],"split_type":[0,0,0,0,0,0,0,0,0,0,0,0,0,0,0,0,0,0,0],"sum_hessian":[3.3267355E2,3.1643774E2,1.6235796E1,2.874762E2,2.8961563E1,1.038108E1,5.854717E0,1.9272041E2,9.475578E1,5.3306794E0,2.3630884E1,5.2053285E0,5.1757507E0,1.6500845E1,1.7621956E2,5.888323E1,3.587255E1,5.5745263E0,1.8056356E1],"tree_param":{"num_deleted":"0","num_feature":"25","num_nodes":"19","size_leaf_vector":"1"}},{"base_weights":[7.7656014E-3,-2.3117481E-1,1.17086336E-1,-5.1416337E-2,-1.7613636E-1,9.1733253E-1,7.576036E-2,7.641743E-3,-4.197463E-1,1.852159E-2,6.5289535E-2,-2.123308E-1,1.6805851E-1,6.346023E-3,-4.0732626E-2,-3.6783036E-2,4.133407E-3,2.0574503E-2,-2.0275477E-2,4.744196E-3,4.280361E-2],"categories":[],"categories_nodes":[],"categories_segments":[],"categories_sizes":[],"default_left":[0,1,0,0,0,0,0,1,0,0,0,0,1,0,0,0,0,0,0,0,0],"id":22,"left_children":[1,3,5,-1,7,9,11,13,15,-1,-1,17,19,-1,-1,-1,-1,-1,-1,-1,-1],"loss_changes":[8.732872E0,4.4237185E0,7.514655E0,0E0,4.4526567E0,1.8896284E0,5.8631654E0,5.755956E0,6.846631E0,0E0,0E0,6.62839E0,8.303232E0,0E0,0E0,0E0,0E0,0E0,0E0,0E0,0E0],"parents":[2147483647,0,0,1,1,2,2,4,4,5,5,6,6,7,7,8,8,11,11,12,12],"right_children":[2,4,6,-1,8,10,12,14,16,-1,-1,18,20,-1,-1,-1,-1,-1,-1,-1,-1],"split_conditions":[3.164E-1,7.5E1,2.8565362E-1,-5.1416337E-2,4.7387385E-1,7.972333E-2,1.100624E0,1.8943036E0,1E0,1.852159E-2,6.5289535E-2,5.2551102E-2,2.4673724E0,6.346023E-3,-4.0732626E-2,-3.6783036E-2,4.133407E-3,2.0574503E-2,-2.0275477E-2,4.744196E-3,4.280361E-2],"split_indices":[6,18,10,0,21,16,17,23,22,0,0,16,23,0,0,0,0,0,0,0,0],"split_type":[0,0,0,0,0,0,0,0,0,0,0,0,0,0,0,0,0,0,0,0,0],"sum_hessian":[3.3228577E2,1.039561E2,2.2832967E2,5.5718713E0,9.838423E1,1.0171369E1,2.181583E2,5.6630844E1,4.1753387E1,5.035544E0,5.135825E0,5.261866E1,1.6553964E2,5.0195354E1,6.435487E0,2.534954E1,1.6403847E1,1.21744175E1,4.044424E1,1.506545E2,1.4885145E1],"tree_param":{"num_deleted":"0","num_feature":"25","num_nodes":"21","size_leaf_vector":"1"}},{"base_weights":[-1.4344354E-2,-2.060039E-1,1.1134719E-1,-6.5882427E-1,-1.3655427E-1,-7.307017E-2,2.8189275E-1,-5.2836336E-2,-3.377682E-1,2.2722723E-2,-4.1738823E-1,2.8815243E-2,-5.1698964E-2,-2.9668862E-1,3.4996065E-1,5.281972E-3,-3.589832E-2,-3.7796467E-3,4.9962047E-2,1.39646875E-2,-3.0332506E-2,3.4731563E-2,-4.76267E-3,-3.3611454E-2,7.1830065E-3,1.3949702E-2,5.3175207E-2],"categories":[],"categories_nodes":[],"categories_segments":[],"categories_sizes":[],"default_left":[0,1,0,0,0,1,1,0,1,0,0,0,0,0,1,0,0,0,0,0,0,0,0,0,0,0,0],"id":23,"left_children":[1,3,5,7,9,11,13,-1,15,17,19,21,-1,23,25,-1,-1,-1,-1,-1,-1,-1,-1,-1,-1,-1,-1],"loss_changes":[8.191947E0,4.144787E0,6.482195E0,1.8971858E0,5.288254E0,9.771378E0,4.3155556E0,0E0,1.9699123E0,7.3962917E0,5.8076715E0,7.5781703E0,0E0,2.0476422E0,4.5718527E0,0E0,0E0,0E0,0E0,0E0,0E0,0E0,0E0,0E0,0E0,0E0,0E0],"parents":[2147483647,0,0,1,1,2,2,3,3,4,4,5,5,6,6,8,8,9,9,10,10,11,11,13,13,14,14],"right_children":[2,4,6,8,10,12,14,-1,16,18,20,22,-1,24,26,-1,-1,-1,-1,-1,-1,-1,-1,-1,-1,-1,-1],"split_conditions":[3.18E-1,9.5E1,3.216241E-1,3.9837816E-1,5.1306933E-1,3.0042905E-1,1.1358592E-1,-5.2836336E-2,4.3995968E-1,1.5034158E0,3.6075455E-1,2.9187098E-1,-5.1698964E-2,3.227E-1,2.34E2,5.281972E-3,-3.589832E-2,-3.7796467E-3,4.9962047E-2,1.39646875E-2,-3.0332506E-2,3.4731563E-2,-4.76267E-3,-3.3611454E-2,7.1830065E-3,1.3949702E-2,5.3175207E-2],"split_indices":[6,18,9,13,21,11,11,0,13,17,13,10,0,6,18,0,0,0,0,0,0,0,0,0,0,0,0],"split_type":[0,0,0,0,0,0,0,0,0,0,0,0,0,0,0,0,0,0,0,0,0,0,0,0,0,0,0],"sum_hessian":[3.3810394E2,1.3365794E2,2.0444601E2,1.664488E1,1.1701306E2,9.850278E1,1.0594323E2,6.409646E0,1.0235233E1,7.525228E1,4.1760784E1,8.9936775E1,8.566004E0,1.0798299E1,9.514493E1,5.0582156E0,5.177018E0,6.920711E1,6.0451684E0,8.819627E0,3.294116E1,1.3404199E1,7.653258E1,5.543813E0,5.2544856E0,8.780331E1,7.3416224E0],"tree_param":{"num_deleted":"0","num_feature":"25","num_nodes":"27","size_leaf_vector":"1"}},{"base_weights":[-2.2726431E-2,-5.6940097E-2,6.08068E-1,-1.7322344E-1,1.12342075E-1,-1.5284682E-2,1.0080849E0,-2.765002E-1,2.3667887E-2,6.575521E-1,2.2999773E-2,9.4655566E-2,4.1682255E-3,-2.353605E-2,-3.8178712E-3,8.182954E-3,-3.3150695E-2,-2.002096E-2,5.9222456E-2,-8.61705E-3,2.115528E-2],"categories":[],"categories_nodes":[],"categories_segments":[],"categories_sizes":[],"default_left":[0,0,1,0,0,0,1,1,0,0,0,0,0,0,0,0,0,0,0,0,0],"id":24,"left_children":[1,3,5,7,9,-1,11,13,15,17,19,-1,-1,-1,-1,-1,-1,-1,-1,-1,-1],"loss_changes":[7.2303367E0,6.2629843E0,6.6095014E0,3.8378205E0,6.305629E0,0E0,9.845544E0,4.771221E0,6.4287877E0,1.0638509E1,8.867795E0,0E0,0E0,0E0,0E0,0E0,0E0,0E0,0E0,0E0,0E0],"parents":[2147483647,0,0,1,1,2,2,3,3,4,4,6,6,7,7,8,8,9,9,10,10],"right_children":[2,4,6,8,10,-1,12,14,16,18,20,-1,-1,-1,-1,-1,-1,-1,-1,-1,-1],"split_conditions":[3.263E-1,1.2582637E0,5.9450347E-2,5.7142857E-2,3.6921513E-1,-1.5284682E-2,1.2650279E0,7.0052266E-2,1.2098558E0,9.31E1,6.006928E-1,9.4655566E-2,4.1682255E-3,-2.353605E-2,-3.8178712E-3,8.182954E-3,-3.3150695E-2,-2.002096E-2,5.9222456E-2,-8.61705E-3,2.115528E-2],"split_indices":[7,17,16,8,21,0,17,16,17,14,21,0,0,0,0,0,0,0,0,0,0],"split_type":[0,0,0,0,0,0,0,0,0,0,0,0,0,0,0,0,0,0,0,0,0],"sum_hessian":[3.3241595E2,3.1617657E2,1.623937E1,1.8741449E2,1.2876208E2,5.0163293E0,1.1223042E1,1.2266687E2,6.474763E1,1.723371E1,1.11528366E2,5.199503E0,6.0235386E0,6.1568333E1,6.1098537E1,5.4415756E1,1.0331866E1,5.8092318E0,1.1424478E1,7.532315E1,3.6205215E1],"tree_param":{"num_deleted":"0","num_feature":"25","num_nodes":"21","size_leaf_vector":"1"}},{"base_weights":[1.684842E-2,-8.293756E-3,4.5383904E-2,-5.9116185E-1,2.6898097E-2,5.1157437E-3,-8.5701686E-1,4.8115022E-2,-4.123506E-2,-5.373616E-2,-2.3650466E-2,-1.345246E-3,1.3811144E-2],"categories":[],"categories_nodes":[],"categories_segments":[],"categories_sizes":[],"default_left":[0,1,0,0,1,0,0,1,0,0,0,0,0],"id":25,"left_children":[1,3,-1,5,7,-1,9,11,-1,-1,-1,-1,-1],"loss_changes":[7.5543137E0,6.7580857E0,0E0,3.5461655E0,5.6577067E0,0E0,6.3422203E-1,5.2151318E0,0E0,0E0,0E0,0E0,0E0],"parents":[2147483647,0,0,1,1,3,3,4,4,6,6,7,7],"right_children":[2,4,-1,6,8,-1,10,12,-1,-1,-1,-1,-1],"split_conditions":[1.054E2,7.4E1,4.5383904E-2,6.4E0,3.4687483E-1,5.1157437E-3,3.2448336E-1,1.1251216E0,-4.123506E-2,-5.373616E-2,-2.3650466E-2,-1.345246E-3,1.3811144E-2],"split_indices":[1,18,0,4,11,0,12,23,0,0,0,0,0],"split_type":[0,0,0,0,0,0,0,0,0,0,0,0,0],"sum_hessian":[3.3594922E2,3.2769135E2,8.257851E0,1.7758951E1,3.099324E2,5.0919266E0,1.2667025E1,3.0331894E2,6.6134524E0,6.9360485E0,5.7309766E0,2.2891545E2,7.4403496E1],"tree_param":{"num_deleted":"0","num_feature":"25","num_nodes":"13","size_leaf_vector":"1"}},{"base_weights":[2.342219E-2,-8.7406E-2,1.6750702E-1,-6.812995E-1,-1.3748397E-2,2.1612541E-1,-3.1449236E-2,-2.7864666E-3,-4.9242076E-2,-5.8320362E-2,5.2879727E-1,4.4740042E-1,2.5399983E-2,-9.5595615E-3,6.849922E-3,6.256871E-2,-1.0099022E-2,-3.7712798E-2,2.8512651E-2,1.6349299E-2,-1.804555E-2],"categories":[],"categories_nodes":[],"categories_segments":[],"categories_sizes":[],"default_left":[0,0,1,0,0,0,0,0,0,0,0,0,0,0,0,0,0,0,0,0,0],"id":26,"left_children":[1,3,5,7,9,11,-1,-1,-1,13,15,17,19,-1,-1,-1,-1,-1,-1,-1,-1],"loss_changes":[5.2927938E0,8.192083E0,5.714067E0,3.8693933E0,4.0890627E0,6.0098815E0,0E0,0E0,0E0,4.0741673E0,7.0325522E0,9.528941E0,8.957446E0,0E0,0E0,0E0,0E0,0E0,0E0,0E0,0E0],"parents":[2147483647,0,0,1,1,2,2,3,3,4,4,5,5,9,9,10,10,11,11,12,12],"right_children":[2,4,6,8,10,12,-1,-1,-1,14,16,18,20,-1,-1,-1,-1,-1,-1,-1,-1],"split_conditions":[5.133903E-1,3.127E-1,8.5E-1,-4.8874205E-1,1.8666667E0,4.8395124E-1,-3.1449236E-2,-2.7864666E-3,-4.9242076E-2,4.429694E-1,1.41E2,9.11E1,9.5E0,-9.5595615E-3,6.849922E-3,6.256871E-2,-1.0099022E-2,-3.7712798E-2,2.8512651E-2,1.6349299E-2,-1.804555E-2],"split_indices":[24,6,15,23,22,21,0,0,0,13,18,14,4,0,0,0,0,0,0,0,0],"split_type":[0,0,0,0,0,0,0,0,0,0,0,0,0,0,0,0,0,0,0,0,0],"sum_hessian":[3.2953192E2,1.8648412E2,1.430478E2,1.9666407E1,1.668177E2,1.3550513E2,7.54267E0,6.8117185E0,1.2854688E1,1.5497823E2,1.183948E1,6.0634056E1,7.487107E1,9.224632E1,6.2731907E1,5.59494E0,6.2445397E0,5.1473007E0,5.5486755E1,4.2132534E1,3.273854E1],"tree_param":{"num_deleted":"0","num_feature":"25","num_nodes":"21","size_leaf_vector":"1"}},{"base_weights":[-9.958444E-4,-4.211921E-2,4.740659E-1,-6.3789785E-2,3.7343245E-2,1.2021079E0,-3.9569375E-1,-4.4553604E-2,-4.229593E-2,3.312947E-2,8.866427E-2,-3.747005E-2,3.7893262E-3,-9.366429E-3,2.7041463E-3],"categories":[],"categories_nodes":[],"categories_segments":[],"categories_sizes":[],"default_left":[0,0,1,0,0,0,0,0,0,0,0,0,0,0,0],"id":27,"left_children":[1,3,5,7,-1,9,11,13,-1,-1,-1,-1,-1,-1,-1],"loss_changes":[6.6682734E0,5.4182973E0,1.7694998E1,4.5757504E0,0E0,3.4629269E0,2.2486007E0,4.239686E0,0E0,0E0,0E0,0E0,0E0,0E0,0E0],"parents":[2147483647,0,0,1,1,2,2,3,3,5,5,6,6,7,7],"right_children":[2,4,6,8,-1,10,12,14,-1,-1,-1,-1,-1,-1,-1],"split_conditions":[3.254E-1,1.054E2,4.0377402E-1,3.249E-1,3.7343245E-2,7.5E-1,7.54E1,3.179E-1,-4.229593E-2,3.312947E-2,8.866427E-2,-3.747005E-2,3.7893262E-3,-9.366429E-3,2.7041463E-3],"split_indices":[7,1,13,7,0,15,1,6,0,0,0,0,0,0,0],"split_type":[0,0,0,0,0,0,0,0,0,0,0,0,0,0,0],"sum_hessian":[3.3930814E2,3.131149E2,2.619322E1,3.0563925E2,7.4756675E0,1.4050216E1,1.2143004E1,2.993342E2,6.305053E0,8.336155E0,5.714061E0,6.601247E0,5.5417576E0,1.2193533E2,1.7739885E2],"tree_param":{"num_deleted":"0","num_feature":"25","num_nodes":"15","size_leaf_vector":"1"}},{"base_weights":[4.003162E-2,1.17704E-2,5.908093E-1,-4.4755703E-3,3.9840203E-2,-1.0371691E-2,4.992062E-2,-3.4750335E-2,5.19567E-1,1.0889972E-3,-1.8001253E-2,4.889373E-2,7.333677E-3],"categories":[],"categories_nodes":[],"categories_segments":[],"categories_sizes":[],"default_left":[0,0,1,0,0,0,0,0,0,0,0,0,0],"id":28,"left_children":[1,3,5,7,-1,-1,-1,9,11,-1,-1,-1,-1],"loss_changes":[5.1578245E0,4.0417747E0,5.469637E0,4.955432E0,0E0,0E0,0E0,5.434967E0,2.7720652E0,0E0,0E0,0E0,0E0],"parents":[2147483647,0,0,1,1,2,2,3,3,7,7,8,8],"right_children":[2,4,6,8,-1,-1,-1,10,12,-1,-1,-1,-1],"split_conditions":[3.264E-1,1.079E2,6.136606E-2,1.6961461E0,3.9840203E-2,-1.0371691E-2,4.992062E-2,1.19475E0,1.42E2,1.0889972E-3,-1.8001253E-2,4.889373E-2,7.333677E-3],"split_indices":[7,1,16,17,0,0,0,2,18,0,0,0,0],"split_type":[0,0,0,0,0,0,0,0,0,0,0,0,0],"sum_hessian":[3.308062E2,3.1563205E2,1.5174177E1,3.1020673E2,5.4253106E0,5.2952113E0,9.878965E0,2.9414706E2,1.605965E1,2.5139038E2,4.27567E1,6.4768414E0,9.582809E0],"tree_param":{"num_deleted":"0","num_feature":"25","num_nodes":"13","size_leaf_vector":"1"}},{"base_weights":[-6.6740206E-4,5.767559E-2,-3.031189E-1,-5.6864053E-1,1.0007027E-1,3.2287455E-1,-4.799659E-1,-8.739173E-1,7.741783E-4,-3.0932784E-2,1.2956545E-1,-9.385004E-3,3.6777824E-2,1.5913187E-2,-5.996901E-1,-5.286869E-2,-2.6032317E-2,1.3369842E-3,1.6349314E-2,-3.9094128E-2,3.8188366E-5],"categories":[],"categories_nodes":[],"categories_segments":[],"categories_sizes":[],"default_left":[0,1,1,1,0,1,0,1,0,0,0,0,0,0,0,0,0,0,0,0,0],"id":29,"left_children":[1,3,5,7,9,11,13,15,-1,-1,17,-1,-1,-1,19,-1,-1,-1,-1,-1,-1],"loss_changes":[5.954679E0,7.568453E0,6.195947E0,3.2383485E0,5.715049E0,2.7967253E0,4.2955074E0,2.2036934E-1,0E0,0E0,5.1912613E0,0E0,0E0,0E0,4.124384E0,0E0,0E0,0E0,0E0,0E0,0E0],"parents":[2147483647,0,0,1,1,2,2,3,3,4,4,5,5,6,6,7,7,10,10,14,14],"right_children":[2,4,6,8,10,12,14,16,-1,-1,18,-1,-1,-1,20,-1,-1,-1,-1,-1,-1],"split_conditions":[1.0823E2,7.4E1,1.6014032E-1,3.2800388E-1,2.2E0,9.02E1,4.116638E-2,2.4163122E-1,7.741783E-4,-3.0932784E-2,1.3001404E0,-9.385004E-3,3.6777824E-2,1.5913187E-2,3.274E-1,-5.286869E-2,-2.6032317E-2,1.3369842E-3,1.6349314E-2,-3.9094128E-2,3.8188366E-5],"split_indices":[5,18,11,12,4,14,8,11,0,0,17,0,0,0,6,0,0,0,0,0,0],"split_type":[0,0,0,0,0,0,0,0,0,0,0,0,0,0,0,0,0,0,0,0,0],"sum_hessian":[3.3546274E2,2.8189453E2,5.3568233E1,1.708449E1,2.6481003E2,1.1617939E1,4.195029E1,1.0894603E1,6.189887E0,9.651501E0,2.5515852E2,5.4367285E0,6.1812105E0,5.2550855E0,3.6695206E1,5.858922E0,5.0356803E0,1.6852072E2,8.663782E1,2.7921104E1,8.774102E0],"tree_param":{"num_deleted":"0","num_feature":"25","num_nodes":"21","size_leaf_vector":"1"}},{"base_weights":[2.0548476E-2,-4.4885978E-1,6.688241E-2,-8.8837975E-1,-4.271504E-2,2.82148E-1,-2.0657238E-2,-5.5216428E-2,-2.0653509E-2,2.8086811E-2,-2.614112E-2,-2.0094266E-2,3.7243587E-1,-9.494548E-2,4.86086E-1,3.017619E-2,5.5200225E-3,5.360588E-3,-1.0851127E-2,7.014751E-2,4.844184E-3],"categories":[],"categories_nodes":[],"categories_segments":[],"categories_sizes":[],"default_left":[0,0,0,0,0,0,1,0,0,0,0,0,0,0,0,0,0,0,0,0,0],"id":30,"left_children":[1,3,5,7,9,11,13,-1,-1,-1,-1,-1,15,17,19,-1,-1,-1,-1,-1,-1],"loss_changes":[7.3821735E0,5.40634E0,5.8200135E0,1.0421095E0,5.198589E0,5.662695E0,8.338353E0,0E0,0E0,0E0,0E0,0E0,4.73983E0,4.7849507E0,9.972307E0,0E0,0E0,0E0,0E0,0E0,0E0],"parents":[2147483647,0,0,1,1,2,2,3,3,4,4,5,5,6,6,12,12,13,13,14,14],"right_children":[2,4,6,8,10,12,14,-1,-1,-1,-1,-1,16,18,20,-1,-1,-1,-1,-1,-1],"split_conditions":[9.13E1,3.19E-1,1.9295609E-1,3.5768878E-1,-2.3881438E-1,3.114E-1,2.14E2,-5.5216428E-2,-2.0653509E-2,2.8086811E-2,-2.614112E-2,-2.0094266E-2,9E0,1.29E2,3.7E-1,3.017619E-2,5.5200225E-3,5.360588E-3,-1.0851127E-2,7.014751E-2,4.844184E-3],"split_indices":[14,6,11,12,23,6,18,0,0,0,0,0,4,18,15,0,0,0,0,0,0],"split_type":[0,0,0,0,0,0,0,0,0,0,0,0,0,0,0,0,0,0,0,0,0],"sum_hessian":[3.370373E2,2.9498724E1,3.0753857E2,1.3597016E1,1.5901708E1,8.826534E1,2.1927324E2,8.439353E0,5.157663E0,6.964029E0,8.937678E0,9.889554E0,7.8375786E1,1.9194661E2,2.7326618E1,4.0954754E1,3.7421036E1,7.231543E1,1.1963119E2,7.367035E0,1.9959583E1],"tree_param":{"num_deleted":"0","num_feature":"25","num_nodes":"21","size_leaf_vector":"1"}},{"base_weights":[2.2537397E-2,5.802602E-2,-3.7985224E-1,-3.4189847E-1,9.7057365E-2,-7.2098994E-1,2.0618048E-2,1.6914165E-2,-5.33186E-1,4.520697E-2,4.1850063E-1,-5.047561E-2,3.3057535E-3,-4.3453436E-2,-1.098011E-2,8.4185676E-4,2.6760539E-2,4.4634532E-2,-4.093687E-3],"categories":[],"categories_nodes":[],"categories_segments":[],"categories_sizes":[],"default_left":[1,0,0,0,1,0,0,0,0,0,0,0,0,0,0,0,0,0,0],"id":31,"left_children":[1,3,5,7,9,11,-1,-1,13,15,17,-1,-1,-1,-1,-1,-1,-1,-1],"loss_changes":[4.8657975E0,4.912267E0,7.7625227E0,3.8253253E0,4.7404184E0,4.534276E0,0E0,0E0,2.1530418E0,3.4247942E0,9.455425E0,0E0,0E0,0E0,0E0,0E0,0E0,0E0,0E0],"parents":[2147483647,0,0,1,1,2,2,3,3,4,4,5,5,8,8,9,9,10,10],"right_children":[2,4,6,8,10,12,-1,-1,14,16,18,-1,-1,-1,-1,-1,-1,-1,-1],"split_conditions":[3.0230466E-1,9.11E1,1.0456E2,1.02E2,1.4573833E0,3.311828E-1,2.0618048E-2,1.6914165E-2,9.976E1,3.262E-1,3.2255948E-1,-5.047561E-2,3.3057535E-3,-4.3453436E-2,-1.098011E-2,8.4185676E-4,2.6760539E-2,4.4634532E-2,-4.093687E-3],"split_indices":[11,14,5,18,17,9,0,0,5,7,10,0,0,0,0,0,0,0,0],"split_type":[0,0,0,0,0,0,0,0,0,0,0,0,0,0,0,0,0,0,0],"sum_hessian":[3.3819257E2,3.1156958E2,2.6622984E1,2.7014366E1,2.8455524E2,1.867233E1,7.9506536E0,5.7609787E0,2.1253387E1,2.4601277E2,3.8542446E1,1.34569645E1,5.215366E0,9.406542E0,1.1846845E1,2.3352661E2,1.248617E1,1.9386442E1,1.9156006E1],"tree_param":{"num_deleted":"0","num_feature":"25","num_nodes":"19","size_leaf_vector":"1"}},{"base_weights":[3.232198E-2,-8.007872E-2,1.89473E-1,-1.2322747E-1,4.5524012E-2,3.6830315E-1,-8.0491744E-2,1.9250637E-1,-2.0026702E-1,5.75945E-1,-3.396848E-1,6.5490104E-2,-3.041669E-1,4.066759E-2,5.4998614E-5,-1.7273104E-2,3.12879E-3,1.6799022E-2,6.8113275E-2,1.4849086E-2,-3.1602148E-2,-2.6681606E-2,2.5555348E-2],"categories":[],"categories_nodes":[],"categories_segments":[],"categories_sizes":[],"default_left":[0,0,1,0,0,0,0,0,1,1,1,0,0,0,0,0,0,0,0,0,0,0,0],"id":32,"left_children":[1,3,5,7,-1,9,11,13,15,17,19,-1,21,-1,-1,-1,-1,-1,-1,-1,-1,-1,-1],"loss_changes":[5.8970695E0,8.439884E0,6.747554E0,4.6014147E0,0E0,1.2527137E1,1.7896227E1,4.4320374E0,5.7951117E0,1.1850796E1,3.8455524E0,0E0,9.492147E0,0E0,0E0,0E0,0E0,0E0,0E0,0E0,0E0,0E0,0E0],"parents":[2147483647,0,0,1,1,2,2,3,3,5,5,6,6,7,7,8,8,9,9,10,10,12,12],"right_children":[2,4,6,8,-1,10,12,14,16,18,20,-1,22,-1,-1,-1,-1,-1,-1,-1,-1,-1,-1],"split_conditions":[1.2561527E0,3.262E-1,9.39E1,2.874351E-1,4.5524012E-2,1.0652E2,3.597157E-1,3.0138975E-1,1.71E2,9.33E1,3.060855E-1,6.5490104E-2,6.4837307E-1,4.066759E-2,5.4998614E-5,-1.7273104E-2,3.12879E-3,1.6799022E-2,6.8113275E-2,1.4849086E-2,-3.1602148E-2,-2.6681606E-2,2.5555348E-2],"split_indices":[17,7,14,12,0,5,21,10,18,14,12,0,21,0,0,0,0,0,0,0,0,0,0],"split_type":[0,0,0,0,0,0,0,0,0,0,0,0,0,0,0,0,0,0,0,0,0,0,0],"sum_hessian":[3.3199E2,1.93839E2,1.3815099E2,1.8658688E2,7.252126E0,8.2883194E1,5.5267784E1,3.630364E1,1.5028325E2,6.4231575E1,1.8651619E1,6.9864435E0,4.828134E1,7.789214E0,2.8514423E1,9.66044E1,5.3678844E1,5.030659E1,1.3924985E1,5.864569E0,1.278705E1,3.794647E1,1.0334873E1],"tree_param":{"num_deleted":"0","num_feature":"25","num_nodes":"23","size_leaf_vector":"1"}},{"base_weights":[2.3363715E-2,-1.5539557E-1,1.05702214E-1,-3.621813E-1,9.1224E-2,-1.0034411E-1,2.047029E-1,-4.8067304E-1,3.6614053E-2,3.9033222E-1,-4.539453E-1,2.805394E-2,-7.3432523E-1,6.628102E-1,1.444046E-1,-3.336952E-2,1.0509423E-2,-1.8174885E-2,3.0287746E-2,5.8052363E-3,-5.1202398E-2,-4.569199E-2,7.084653E-3,-5.184221E-2,-1.7622286E-2,8.113897E-3,5.6409955E-2,3.1638805E-2,3.5832876E-3],"categories":[],"categories_nodes":[],"categories_segments":[],"categories_sizes":[],"default_left":[0,0,0,0,0,1,0,0,0,0,0,0,1,0,0,0,0,0,0,0,0,0,0,0,0,0,0,0,0],"id":33,"left_children":[1,3,5,7,9,11,13,15,-1,17,19,21,23,25,27,-1,-1,-1,-1,-1,-1,-1,-1,-1,-1,-1,-1,-1,-1],"loss_changes":[4.979203E0,5.4762053E0,4.7416067E0,7.907011E0,8.245192E0,6.189475E0,4.231618E0,6.9989233E0,0E0,5.4957104E0,5.965743E0,6.9779587E0,1.113296E0,3.9965787E0,4.9177723E0,0E0,0E0,0E0,0E0,0E0,0E0,0E0,0E0,0E0,0E0,0E0,0E0,0E0,0E0],"parents":[2147483647,0,0,1,1,2,2,3,3,4,4,5,5,6,6,7,7,9,9,10,10,11,11,12,12,13,13,14,14],"right_children":[2,4,6,8,10,12,14,16,-1,18,20,22,24,26,28,-1,-1,-1,-1,-1,-1,-1,-1,-1,-1,-1,-1,-1,-1],"split_conditions":[3.0783972E-1,4.9852002E-1,3.18E-1,5.3560704E-1,4.705079E-1,2.6591697E-1,1.5706591E-1,1E0,3.6614053E-2,-1.2508292E0,9.37E1,9.13E1,9.54E1,1.62E2,3.192E-1,-3.336952E-2,1.0509423E-2,-1.8174885E-2,3.0287746E-2,5.8052363E-3,-5.1202398E-2,-4.569199E-2,7.084653E-3,-5.184221E-2,-1.7622286E-2,8.113897E-3,5.6409955E-2,3.1638805E-2,3.5832876E-3],"split_indices":[9,24,6,21,21,11,11,3,0,23,14,14,14,18,6,0,0,0,0,0,0,0,0,0,0,0,0,0,0],"split_type":[0,0,0,0,0,0,0,0,0,0,0,0,0,0,0,0,0,0,0,0,0,0,0,0,0,0,0,0,0],"sum_hessian":[3.361734E2,1.0573417E2,2.3043924E2,5.7256836E1,4.8477333E1,7.47829E1,1.5565634E2,5.2169525E1,5.0873094E0,3.1486319E1,1.6991014E1,6.298293E1,1.1799969E1,1.6942913E1,1.3871342E2,4.1096466E1,1.1073061E1,6.845267E0,2.4641052E1,8.894089E0,8.096925E0,6.0226684E0,5.6960262E1,5.6271343E0,6.1728344E0,8.813048E0,8.129864E0,1.6983858E1,1.2172957E2],"tree_param":{"num_deleted":"0","num_feature":"25","num_nodes":"29","size_leaf_vector":"1"}},{"base_weights":[-1.2589542E-3,-2.0495959E-2,4.5482013E-2,3.383984E-2,-3.0415022E-1,1.0251274E-1,-2.0550093E-1,-5.113784E-2,-5.925123E-1,-4.089472E-3,1.3691549E-2,-1.5862718E-2,2.9203905E-2,1.1428804E-2,-3.7667762E-2,-4.4931944E-2,1.7617762E-2],"categories":[],"categories_nodes":[],"categories_segments":[],"categories_sizes":[],"default_left":[1,0,0,0,0,0,0,0,1,0,0,0,0,0,0,0,0],"id":34,"left_children":[1,3,-1,5,7,9,11,13,15,-1,-1,-1,-1,-1,-1,-1,-1],"loss_changes":[5.864788E0,5.061078E0,0E0,4.5561957E0,3.8206697E0,6.8131466E0,5.642914E0,5.909425E0,7.4245195E0,0E0,0E0,0E0,0E0,0E0,0E0,0E0,0E0],"parents":[2147483647,0,0,1,1,3,3,4,4,5,5,6,6,7,7,8,8],"right_children":[2,4,-1,6,8,10,12,14,16,-1,-1,-1,-1,-1,-1,-1,-1],"split_conditions":[1.6961461E0,3.0042905E-1,4.5482013E-2,1.0625E2,3.199E-1,7.51E1,9.61E1,5.59907E-1,1.96E2,-4.089472E-3,1.3691549E-2,-1.5862718E-2,2.9203905E-2,1.1428804E-2,-3.7667762E-2,-4.4931944E-2,1.7617762E-2],"split_indices":[17,11,0,5,6,1,14,21,18,0,0,0,0,0,0,0,0],"split_type":[0,0,0,0,0,0,0,0,0,0,0,0,0,0,0,0,0],"sum_hessian":[3.3262744E2,3.2670535E2,5.9220924E0,2.7492282E2,5.1782536E1,2.140719E2,6.0850933E1,2.8208975E1,2.357356E1,1.03379745E2,1.1069215E2,5.3830242E1,7.02069E0,2.0655695E1,7.55328E0,1.7841908E1,5.7316527E0],"tree_param":{"num_deleted":"0","num_feature":"25","num_nodes":"17","size_leaf_vector":"1"}},{"base_weights":[2.1042265E-2,-1.19827464E-1,1.5525554E-1,-1.7398778E-2,-4.275099E-1,9.0170175E-2,9.969163E-1,1.8451414E-1,-2.6050332E-1,1.4372766E-2,-6.4452267E-1,2.2698093E-2,6.2616E-1,7.12049E-2,1.6126981E-2,1.8915165E-2,-2.2413304E-2,4.352901E-5,-3.347401E-2,-4.2064037E-2,1.5832277E-2,7.495036E-3,-1.9015165E-2,4.8594534E-2,-4.40772E-3],"categories":[],"categories_nodes":[],"categories_segments":[],"categories_sizes":[],"default_left":[0,0,0,0,0,0,0,1,0,0,0,0,0,0,0,0,0,0,0,0,0,0,0,0,0],"id":35,"left_children":[1,3,5,7,9,11,13,15,17,-1,19,21,23,-1,-1,-1,-1,-1,-1,-1,-1,-1,-1,-1,-1],"loss_changes":[6.444547E0,5.236474E0,9.468473E0,6.2268205E0,6.6266336E0,5.8828187E0,3.1201038E0,8.673588E0,6.149991E0,0E0,6.3478003E0,7.5346107E0,4.578894E0,0E0,0E0,0E0,0E0,0E0,0E0,0E0,0E0,0E0,0E0,0E0,0E0],"parents":[2147483647,0,0,1,1,2,2,3,3,4,4,5,5,6,6,7,7,8,8,10,10,11,11,12,12],"right_children":[2,4,6,8,10,12,14,16,18,-1,20,22,24,-1,-1,-1,-1,-1,-1,-1,-1,-1,-1,-1,-1],"split_conditions":[3.197E-1,3.185E-1,1.49E1,9.5E0,5.042662E-2,2.5426428E0,3.207E-1,5.8E-1,5.1306933E-1,1.4372766E-2,3.248E-1,8.5765576E-1,4.8E-1,7.12049E-2,1.6126981E-2,1.8915165E-2,-2.2413304E-2,4.352901E-5,-3.347401E-2,-4.2064037E-2,1.5832277E-2,7.495036E-3,-1.9015165E-2,4.8594534E-2,-4.40772E-3],"split_indices":[7,7,4,4,16,23,6,15,21,0,6,23,15,0,0,0,0,0,0,0,0,0,0,0,0],"split_type":[0,0,0,0,0,0,0,0,0,0,0,0,0,0,0,0,0,0,0,0,0,0,0,0,0],"sum_hessian":[3.3887854E2,1.6539148E2,1.7348706E2,1.24876236E2,4.051524E1,1.62062E2,1.142507E1,6.834916E1,5.6527073E1,9.358464E0,3.1156776E1,1.4486792E2,1.719408E1,6.3138533E0,5.111216E0,5.2632572E1,1.5716587E1,3.5095615E1,2.1431458E1,2.5966066E1,5.19071E0,1.10589645E2,3.4278275E1,1.1343294E1,5.8507867E0],"tree_param":{"num_deleted":"0","num_feature":"25","num_nodes":"25","size_leaf_vector":"1"}},{"base_weights":[-2.216282E-2,-4.0860468E-1,2.5499212E-2,-8.551121E-1,-1.02982365E-1,3.5757273E-2,5.381042E-3,-2.723122E-2,-5.22498E-2,2.1055546E-1,-3.4570575E-2,3.657506E-2,-4.6541446E-1,-2.7278377E-2,5.141425E-2,-3.231306E-4,1.8222796E-2,-4.6133436E-2,5.293613E-3],"categories":[],"categories_nodes":[],"categories_segments":[],"categories_sizes":[],"default_left":[0,0,0,0,0,0,0,0,0,0,0,0,0,0,0,0,0,0,0],"id":36,"left_children":[1,3,5,7,9,-1,11,-1,-1,13,-1,15,17,-1,-1,-1,-1,-1,-1],"loss_changes":[6.137193E0,4.9038367E0,4.1176853E0,2.991457E-1,4.3619E0,0E0,4.270784E0,0E0,0E0,1.0253355E1,0E0,3.8487308E0,4.818451E0,0E0,0E0,0E0,0E0,0E0,0E0],"parents":[2147483647,0,0,1,1,2,2,3,3,4,4,6,6,9,9,11,11,12,12],"right_children":[2,4,6,8,10,-1,12,-1,-1,14,-1,16,18,-1,-1,-1,-1,-1,-1],"split_conditions":[3.114E-1,5.133903E-1,8.99E1,4.4E-1,4.1996545E-1,3.5757273E-2,2.39E2,-2.723122E-2,-5.22498E-2,3.129E-1,-3.4570575E-2,3.42205E-1,4.9852002E-1,-2.7278377E-2,5.141425E-2,-3.231306E-4,1.8222796E-2,-4.6133436E-2,5.293613E-3],"split_indices":[6,24,14,15,21,0,18,0,0,7,0,10,24,0,0,0,0,0,0],"split_type":[0,0,0,0,0,0,0,0,0,0,0,0,0,0,0,0,0,0,0],"sum_hessian":[3.3164053E2,3.55807E1,2.9605984E2,1.3727374E1,2.1853325E1,7.412537E0,2.886473E2,6.67727E0,7.050104E0,1.4675711E1,7.1776133E0,2.7157553E2,1.7071768E1,7.798014E0,6.8776965E0,2.4093118E2,3.0644361E1,9.140611E0,7.9311576E0],"tree_param":{"num_deleted":"0","num_feature":"25","num_nodes":"19","size_leaf_vector":"1"}},{"base_weights":[-1.2548475E-2,-1.2392683E-1,1.8567519E-1,-2.1898282E-1,1.6865292E-1,2.9056734E-1,-2.5281027E-1,-4.1196868E-1,-3.712494E-2,-1.2673397E-1,7.217737E-1,5.5169183E-1,9.340571E-2,-5.767593E-1,1.9992271E-2,-2.4543166E-2,1.4370537E-2,-3.5692085E-2,2.492347E-3,2.6535366E-2,-1.866655E-2,1.12054E-3,5.0522298E-2,1.1968521E-2,5.8573354E-2,-3.4514606E-2,1.1561754E-2,-3.542266E-3,-4.0564828E-2],"categories":[],"categories_nodes":[],"categories_segments":[],"categories_sizes":[],"default_left":[0,0,1,0,0,0,0,0,0,1,0,0,0,0,0,0,0,0,0,0,0,0,0,0,0,0,0,0,0],"id":37,"left_children":[1,3,5,7,9,11,13,15,17,19,21,23,25,27,-1,-1,-1,-1,-1,-1,-1,-1,-1,-1,-1,-1,-1,-1,-1],"loss_changes":[7.386573E0,5.992526E0,5.610443E0,5.6725388E0,8.763395E0,4.9739027E0,5.257017E0,4.4740343E0,5.011046E0,5.945396E0,3.7378378E0,7.8089075E0,6.2973037E0,1.8762732E0,0E0,0E0,0E0,0E0,0E0,0E0,0E0,0E0,0E0,0E0,0E0,0E0,0E0,0E0,0E0],"parents":[2147483647,0,0,1,1,2,2,3,3,4,4,5,5,6,6,7,7,8,8,9,9,10,10,11,11,12,12,13,13],"right_children":[2,4,6,8,10,12,14,16,18,20,22,24,26,28,-1,-1,-1,-1,-1,-1,-1,-1,-1,-1,-1,-1,-1,-1,-1],"split_conditions":[5.7142857E-2,1.4016753E0,6.3E-1,1E0,1.18168E0,6.2271062E-2,9.62E1,3.262E-1,2.782959E-1,9.16E1,9.25E1,9.47E1,6.360424E-2,3.156E-1,1.9992271E-2,-2.4543166E-2,1.4370537E-2,-3.5692085E-2,2.492347E-3,2.6535366E-2,-1.866655E-2,1.12054E-3,5.0522298E-2,1.1968521E-2,5.8573354E-2,-3.4514606E-2,1.1561754E-2,-3.542266E-3,-4.0564828E-2],"split_indices":[8,17,15,0,2,8,14,6,12,14,14,14,8,6,0,0,0,0,0,0,0,0,0,0,0,0,0,0,0],"split_type":[0,0,0,0,0,0,0,0,0,0,0,0,0,0,0,0,0,0,0,0,0,0,0,0,0,0,0,0,0],"sum_hessian":[3.3252753E2,2.1314175E2,1.1938576E2,1.6106503E2,5.2076733E1,9.661207E1,2.2773685E1,7.752786E1,8.353717E1,3.4450024E1,1.7626707E1,4.079038E1,5.582169E1,1.5297153E1,7.4765325E0,6.993668E1,7.5911784E0,8.6926985E0,7.484447E1,9.082761E0,2.5367262E1,5.4648094E0,1.2161899E1,2.8044313E1,1.2746063E1,7.7495327E0,4.807216E1,5.2577868E0,1.0039367E1],"tree_param":{"num_deleted":"0","num_feature":"25","num_nodes":"29","size_leaf_vector":"1"}},{"base_weights":[8.501653E-3,-2.635622E-2,4.8163262E-1,1.1920865E-2,-4.0201646E-1,3.7365727E-2,5.075373E-2,-1.0974123E-2,3.1895734E-2,1.3879539E-2,-6.7301345E-1,-2.1732401E-2,3.0237732E-2,1.8724125E-3,-2.5073871E-2,-4.5694724E-2,-3.7502672E-3],"categories":[],"categories_nodes":[],"categories_segments":[],"categories_sizes":[],"default_left":[0,0,0,0,0,1,0,0,0,0,0,0,0,0,0,0,0],"id":38,"left_children":[1,3,5,7,9,11,-1,13,-1,-1,15,-1,-1,-1,-1,-1,-1],"loss_changes":[5.4905324E0,4.4666653E0,5.3757486E0,4.0569487E0,5.4766994E0,3.8788135E0,0E0,6.516935E0,0E0,0E0,2.93147E0,0E0,0E0,0E0,0E0,0E0,0E0],"parents":[2147483647,0,0,1,1,2,2,3,3,4,4,5,5,7,7,10,10],"right_children":[2,4,6,8,10,12,-1,14,-1,-1,16,-1,-1,-1,-1,-1,-1],"split_conditions":[3.271E-1,3.249E-1,5.8098592E-2,1.015E2,-6.666667E-1,3.287005E-1,5.075373E-2,8.83E1,3.1895734E-2,1.3879539E-2,3.310266E-1,-2.1732401E-2,3.0237732E-2,1.8724125E-3,-2.5073871E-2,-4.5694724E-2,-3.7502672E-3],"split_indices":[6,6,8,1,22,12,0,1,0,0,10,0,0,0,0,0,0],"split_type":[0,0,0,0,0,0,0,0,0,0,0,0,0,0,0,0,0],"sum_hessian":[3.311444E2,3.09301E2,2.1843424E1,2.8157843E2,2.7722557E1,1.2501683E1,9.34174E0,2.725912E2,8.987234E0,7.896173E0,1.9826384E1,6.952125E0,5.5495586E0,2.4893959E2,2.3651608E1,1.3756825E1,6.069558E0],"tree_param":{"num_deleted":"0","num_feature":"25","num_nodes":"17","size_leaf_vector":"1"}},{"base_weights":[-2.759424E-2,-3.917126E-2,-2.9348764E-3,-4.254716E-2,5.8965904E-1,-1.5571256E-1,1.4297548E-1,9.5429987E-1,-9.345629E-3,1.7952723E-2,-1.0206612E-2,1.8926024E-2,-4.87945E-3,7.327098E-2,3.3677444E-3],"categories":[],"categories_nodes":[],"categories_segments":[],"categories_sizes":[],"default_left":[0,0,0,1,1,0,0,0,0,0,0,0,0,0,0],"id":39,"left_children":[1,-1,3,5,7,9,11,13,-1,-1,-1,-1,-1,-1,-1],"loss_changes":[6.0413804E0,0E0,7.419866E0,6.2412086E0,5.7867103E0,4.671053E0,6.425751E0,6.085271E0,0E0,0E0,0E0,0E0,0E0,0E0,0E0],"parents":[2147483647,0,0,2,2,3,3,4,4,5,5,6,6,7,7],"right_children":[2,-1,4,6,8,10,12,14,-1,-1,-1,-1,-1,-1,-1],"split_conditions":[2.1E0,-3.917126E-2,3.26E-1,1.2561527E0,4.1676113E-1,8.905E1,9.39E1,5.7142857E-2,-9.345629E-3,1.7952723E-2,-1.0206612E-2,1.8926024E-2,-4.87945E-3,7.327098E-2,3.3677444E-3],"split_indices":[4,0,7,17,13,5,14,8,0,0,0,0,0,0,0],"split_type":[0,0,0,0,0,0,0,0,0,0,0,0,0,0,0],"sum_hessian":[3.2326114E2,9.241175E0,3.1401996E2,2.952144E2,1.8805574E1,1.8346486E2,1.1174952E2,1.264107E1,6.164504E0,1.5221724E1,1.6824313E2,5.617407E1,5.5575447E1,7.6058426E0,5.0352273E0],"tree_param":{"num_deleted":"0","num_feature":"25","num_nodes":"15","size_leaf_vector":"1"}},{"base_weights":[1.899157E-2,-1.6633087E-1,1.151274E-1,-2.9261342E-1,1.471744E-1,-7.8036874E-3,2.6595175E-1,-1.3210389E-3,-5.3039235E-1,-4.28802E-1,4.3015954E-1,-3.1479254E-2,5.2282844E-2,4.801516E-3,5.4732347E-1,2.5993813E-2,-1.5179378E-2,1.9000275E-2,-3.3039574E-2,-4.332122E-2,4.4096597E-3,4.437985E-2,-1.3987315E-2,1.4290688E-2,-5.4664346E-3,1.5497721E-2,-2.4135465E-2,3.6858313E-2,-1.2492999E-2],"categories":[],"categories_nodes":[],"categories_segments":[],"categories_sizes":[],"default_left":[0,0,1,1,0,0,1,1,0,0,0,0,0,0,1,0,0,0,0,0,0,0,0,0,0,0,0,0,0],"id":40,"left_children":[1,3,5,7,9,11,13,15,17,19,21,-1,23,25,27,-1,-1,-1,-1,-1,-1,-1,-1,-1,-1,-1,-1,-1,-1],"loss_changes":[5.860513E0,4.492898E0,4.015687E0,5.572055E0,5.553365E0,4.525013E0,7.142325E0,6.0124016E0,5.5096273E0,2.6449552E0,7.5830927E0,0E0,4.204075E0,7.8019805E0,7.266447E0,0E0,0E0,0E0,0E0,0E0,0E0,0E0,0E0,0E0,0E0,0E0,0E0,0E0,0E0],"parents":[2147483647,0,0,1,1,2,2,3,3,4,4,5,5,6,6,7,7,8,8,9,9,10,10,12,12,13,13,14,14],"right_children":[2,4,6,8,10,12,14,16,18,20,22,-1,24,26,28,-1,-1,-1,-1,-1,-1,-1,-1,-1,-1,-1,-1,-1,-1],"split_conditions":[3.171E-1,8.19E1,3.2407045E-1,3.101596E-1,9.27E1,3.5849836E-2,1.1817765E-1,2.0035231E-1,5.69E1,1.1952298E0,1.0583E2,-3.1479254E-2,1.42E2,3.5277143E-1,4.7E-1,2.5993813E-2,-1.5179378E-2,1.9000275E-2,-3.3039574E-2,-4.332122E-2,4.4096597E-3,4.437985E-2,-1.3987315E-2,1.4290688E-2,-5.4664346E-3,1.5497721E-2,-2.4135465E-2,3.6858313E-2,-1.2492999E-2],"split_indices":[6,1,12,12,5,16,23,11,1,17,5,0,18,12,15,0,0,0,0,0,0,0,0,0,0,0,0,0,0],"split_type":[0,0,0,0,0,0,0,0,0,0,0,0,0,0,0,0,0,0,0,0,0,0,0,0,0,0,0,0,0],"sum_hessian":[3.2686948E2,1.1139723E2,2.1547223E2,7.9457664E1,3.1939571E1,1.19235916E2,9.623632E1,3.6162346E1,4.329532E1,1.0352741E1,2.158683E1,9.671923E0,1.09563995E2,5.0439156E1,4.579716E1,1.3009748E1,2.3152597E1,5.18455E0,3.8110767E1,5.2407255E0,5.1120157E0,1.29755535E1,8.611276E0,4.4496876E1,6.5067116E1,3.1245522E1,1.9193636E1,3.7049427E1,8.747734E0],"tree_param":{"num_deleted":"0","num_feature":"25","num_nodes":"29","size_leaf_vector":"1"}},{"base_weights":[-3.49379E-2,-3.493756E-1,1.2400709E-2,-8.3043015E-1,-4.1752752E-2,-1.3533831E-2,3.9033055E-2,-5.4772194E-2,-9.279356E-3,3.3638796E-1,-4.2561203E-1,-4.2619443E-1,2.2024706E-2,3.790185E-2,-1.47390235E-2,1.3930113E-3,-4.4574216E-2,-3.32509E-2,8.217987E-3,3.7428398E-2,-5.3700536E-5],"categories":[],"categories_nodes":[],"categories_segments":[],"categories_sizes":[],"default_left":[0,0,1,0,0,0,0,0,0,0,0,0,0,0,0,0,0,0,0,0,0],"id":41,"left_children":[1,3,5,7,9,11,-1,-1,-1,13,15,17,19,-1,-1,-1,-1,-1,-1,-1,-1],"loss_changes":[4.915325E0,6.3590264E0,5.743287E0,2.667573E0,4.1212564E0,4.1078696E0,0E0,0E0,0E0,4.046295E0,2.9912906E0,3.2414246E0,4.332332E0,0E0,0E0,0E0,0E0,0E0,0E0,0E0,0E0],"parents":[2147483647,0,0,1,1,2,2,3,3,4,4,5,5,9,9,10,10,11,11,12,12],"right_children":[2,4,6,8,10,12,-1,-1,-1,14,16,18,20,-1,-1,-1,-1,-1,-1,-1,-1],"split_conditions":[3.124E-1,5.133903E-1,3.954903E-1,1.05E1,3.9607215E-1,9.08E1,3.9033055E-2,-5.4772194E-2,-9.279356E-3,3.2997635E-1,9.46E1,5.848213E-1,3.132E-1,3.790185E-2,-1.47390235E-2,1.3930113E-3,-4.4574216E-2,-3.32509E-2,8.217987E-3,3.7428398E-2,-5.3700536E-5],"split_indices":[6,24,12,4,21,14,0,0,0,12,14,21,6,0,0,0,0,0,0,0,0],"split_type":[0,0,0,0,0,0,0,0,0,0,0,0,0,0,0,0,0,0,0,0,0],"sum_hessian":[3.2892804E2,4.220552E1,2.867225E2,1.5799332E1,2.6406189E1,2.7830984E2,8.412657E0,1.0702222E1,5.09711E0,1.3364477E1,1.3041711E1,2.1207607E1,2.5710223E2,7.8915563E0,5.4729214E0,7.0852475E0,5.9564633E0,1.5010984E1,6.196623E0,6.954337E0,2.501479E2],"tree_param":{"num_deleted":"0","num_feature":"25","num_nodes":"21","size_leaf_vector":"1"}},{"base_weights":[-1.8804464E-2,-3.8992744E-2,1.205819E-3,-4.494383E-1,2.8268034E-2,-4.357309E-2,5.9046694E-3,3.8722243E-2,3.9648646E-3,5.6287567E-3,-6.525412E-3],"categories":[],"categories_nodes":[],"categories_segments":[],"categories_sizes":[],"default_left":[0,0,0,1,0,0,0,0,1,0,0],"id":42,"left_children":[1,-1,3,5,7,-1,-1,-1,9,-1,-1],"loss_changes":[5.0451503E0,0E0,3.9608548E0,4.5097275E0,5.552259E0,0E0,0E0,0E0,4.362404E0,0E0,0E0],"parents":[2147483647,0,0,2,2,3,3,4,4,8,8],"right_children":[2,-1,4,6,8,-1,-1,-1,10,-1,-1],"split_conditions":[2E0,-3.8992744E-2,-1.8666667E0,4.1676113E-1,2.7695894E-1,-4.357309E-2,5.9046694E-3,3.8722243E-2,9.38E1,5.6287567E-3,-6.525412E-3],"split_indices":[4,0,22,13,9,0,0,0,14,0,0],"split_type":[0,0,0,0,0,0,0,0,0,0,0],"sum_hessian":[3.3022757E2,7.4873867E0,3.227402E2,1.7399158E1,3.0534103E2,9.671662E0,7.7274957E0,8.657737E0,2.966833E2,1.6421454E2,1.3246877E2],"tree_param":{"num_deleted":"0","num_feature":"25","num_nodes":"11","size_leaf_vector":"1"}},{"base_weights":[-4.2295266E-2,-3.7024844E-2,-2.1077799E-2,-1.18637204E-1,1.3587983E-1,3.8830733E-3,-2.6108572E-1,5.3387154E-2,8.56954E-2,-2.384646E-2,6.3960375E-3,1.3349945E-2,-2.0591041E-2,-4.572529E-3,1.6806066E-2],"categories":[],"categories_nodes":[],"categories_segments":[],"categories_sizes":[],"default_left":[0,0,0,1,0,0,0,0,1,0,0,0,0,0,0],"id":43,"left_children":[1,-1,3,5,7,9,11,-1,13,-1,-1,-1,-1,-1,-1],"loss_changes":[4.9242334E0,0E0,4.9874E0,3.504534E0,5.749857E0,6.5559974E0,7.499852E0,0E0,5.3369985E0,0E0,0E0,0E0,0E0,0E0,0E0],"parents":[2147483647,0,0,2,2,3,3,4,4,5,5,6,6,8,8],"right_children":[2,-1,4,6,8,10,12,-1,14,-1,-1,-1,-1,-1,-1],"split_conditions":[2.1E0,-3.7024844E-2,8.24706E-1,9.36E1,1.12987E0,1.3E-1,3.1E-1,5.3387154E-2,4.2670777E-1,-2.384646E-2,6.3960375E-3,1.3349945E-2,-2.0591041E-2,-4.572529E-3,1.6806066E-2],"split_indices":[4,0,24,14,2,15,15,0,13,0,0,0,0,0,0],"split_type":[0,0,0,0,0,0,0,0,0,0,0,0,0,0,0],"sum_hessian":[3.324561E2,8.805155E0,3.236509E2,1.9974223E2,1.2390868E2,1.0790536E2,9.183688E1,5.2957997E0,1.18612885E2,2.1544912E1,8.636044E1,2.0221533E1,7.161535E1,6.984256E1,4.8770325E1],"tree_param":{"num_deleted":"0","num_feature":"25","num_nodes":"15","size_leaf_vector":"1"}},{"base_weights":[-3.0079076E-2,6.2702805E-2,-1.548799E-1,2.7637297E-1,-9.076024E-2,1.6649699E-1,-2.7186292E-1,-1.04766116E-1,5.8557254E-1,3.8558044E-2,-1.4264141E-1,-6.4044096E-2,5.654816E-2,-3.4050226E-1,1.8690394E-2,-1.3066711E-2,2.9565573E-2,1.4095016E-2,5.7803918E-2,-2.189408E-3,-3.1662952E-2,-2.4374172E-2,1.982356E-2,4.059606E-3,-2.3610696E-2],"categories":[],"categories_nodes":[],"categories_segments":[],"categories_sizes":[],"default_left":[1,0,1,0,1,0,0,0,1,0,1,0,0,0,0,0,0,0,0,0,0,0,0,0,0],"id":44,"left_children":[1,3,5,7,9,11,13,15,17,-1,19,21,-1,23,-1,-1,-1,-1,-1,-1,-1,-1,-1,-1,-1],"loss_changes":[3.7649224E0,6.1479278E0,5.2552204E0,9.288793E0,5.00329E0,8.433208E0,4.646728E0,4.0690265E0,7.189765E0,0E0,5.018995E0,6.29566E0,0E0,5.1871386E0,0E0,0E0,0E0,0E0,0E0,0E0,0E0,0E0,0E0,0E0,0E0],"parents":[2147483647,0,0,1,1,2,2,3,3,4,4,5,5,6,6,7,7,8,8,10,10,11,11,13,13],"right_children":[2,4,6,8,10,12,14,16,18,-1,20,22,-1,24,-1,-1,-1,-1,-1,-1,-1,-1,-1,-1,-1],"split_conditions":[9.39E1,4.1019392E-1,3.3E-1,2.7E-1,-3.80167E0,1.0686E2,1.1901576E-1,1.27E1,1.3001404E0,3.8558044E-2,3.5566336E-1,7.9926595E-2,5.654816E-2,-1.1619884E0,1.8690394E-2,-1.3066711E-2,2.9565573E-2,1.4095016E-2,5.7803918E-2,-2.189408E-3,-3.1662952E-2,-2.4374172E-2,1.982356E-2,4.059606E-3,-2.3610696E-2],"split_indices":[14,13,15,15,23,5,16,4,17,0,12,23,0,23,0,0,0,0,0,0,0,0,0,0,0],"split_type":[0,0,0,0,0,0,0,0,0,0,0,0,0,0,0,0,0,0,0,0,0,0,0,0,0],"sum_hessian":[3.2330505E2,1.8572632E2,1.3757872E2,7.729951E1,1.0842681E2,3.6602028E1,1.009767E2,3.491824E1,4.2381268E1,5.3688097E0,1.03058E2,3.0294243E1,6.3077846E0,9.170089E1,9.275811E0,2.901621E1,5.902028E0,2.8633944E1,1.3747325E1,8.668194E1,1.6376062E1,1.5751933E1,1.454231E1,2.191627E1,6.978462E1],"tree_param":{"num_deleted":"0","num_feature":"25","num_nodes":"25","size_leaf_vector":"1"}},{"base_weights":[-1.5344004E-2,-4.8549917E-1,1.3536427E-2,-7.4145174E-1,3.097628E-3,2.0745483E-1,-6.761013E-2,-9.618082E-3,-5.320952E-2,2.8953287E-1,-2.4924742E-2,5.5539742E-2,-2.7219906E-1,8.679034E-3,4.817174E-2,-4.7767833E-2,5.4893065E-3,-1.9775508E-2,1.4393068E-2],"categories":[],"categories_nodes":[],"categories_segments":[],"categories_sizes":[],"default_left":[1,0,0,0,0,0,1,0,0,0,0,0,0,0,0,0,0,0,0],"id":45,"left_children":[1,3,5,7,-1,9,11,-1,-1,13,-1,15,17,-1,-1,-1,-1,-1,-1],"loss_changes":[4.4630427E0,2.7112184E0,4.8950315E0,2.1058674E0,0E0,5.4607677E0,5.5437193E0,0E0,0E0,6.305047E0,0E0,7.6620026E0,5.819881E0,0E0,0E0,0E0,0E0,0E0,0E0],"parents":[2147483647,0,0,1,1,2,2,3,3,5,5,6,6,9,9,11,11,12,12],"right_children":[2,4,6,8,-1,10,12,-1,-1,14,-1,16,18,-1,-1,-1,-1,-1,-1],"split_conditions":[7.4E1,7.93E1,1.29E2,5.1369864E-2,3.097628E-3,1.1067E2,4E-1,-9.618082E-3,-5.320952E-2,1.5002396E0,-2.4924742E-2,9E1,3.233E-1,8.679034E-3,4.817174E-2,-4.7767833E-2,5.4893065E-3,-1.9775508E-2,1.4393068E-2],"split_indices":[18,1,18,8,0,5,15,0,0,17,0,14,7,0,0,0,0,0,0],"split_type":[0,0,0,0,0,0,0,0,0,0,0,0,0,0,0,0,0,0,0],"sum_hessian":[3.2720575E2,1.8021208E1,3.0918454E2,1.2038448E1,5.982759E0,9.075294E1,2.184316E2,5.0472903E0,6.991158E0,8.182888E1,8.92406E0,1.3680936E2,8.162224E1,7.088919E1,1.0939685E1,6.1215296E0,1.3068782E2,6.713469E1,1.4487547E1],"tree_param":{"num_deleted":"0","num_feature":"25","num_nodes":"19","size_leaf_vector":"1"}},{"base_weights":[-5.0133467E-2,-2.0878088E-2,-7.5450945E-1,-5.288629E-1,8.399765E-3,-5.2516054E-2,-1.2323511E-2,-8.0078167E-1,4.7178213E-3,-1.0675087E-2,3.689617E-2,-5.126935E-2,-2.0426132E-2,-2.083665E-3,2.2831872E-2],"categories":[],"categories_nodes":[],"categories_segments":[],"categories_sizes":[],"default_left":[1,1,0,0,1,0,0,0,0,0,0,0,0,0,0],"id":46,"left_children":[1,3,5,7,9,-1,-1,11,-1,13,-1,-1,-1,-1,-1],"loss_changes":[6.780098E0,4.728972E0,1.7132463E0,3.0118103E0,4.2011604E0,0E0,0E0,6.532068E-1,0E0,4.287217E0,0E0,0E0,0E0,0E0,0E0],"parents":[2147483647,0,0,1,1,2,2,3,3,4,4,7,7,9,9],"right_children":[2,4,6,8,10,-1,-1,12,-1,14,-1,-1,-1,-1,-1],"split_conditions":[3.2583192E-1,7.4E1,1.0043E2,8.802112E-2,1.6961461E0,-5.2516054E-2,-1.2323511E-2,3.252285E-1,4.7178213E-3,3.261E-1,3.689617E-2,-5.126935E-2,-2.0426132E-2,-2.083665E-3,2.2831872E-2],"split_indices":[11,18,5,16,17,0,0,9,0,7,0,0,0,0,0],"split_type":[0,0,0,0,0,0,0,0,0,0,0,0,0,0,0],"sum_hessian":[3.2878705E2,3.1666443E2,1.2122622E1,1.6326593E1,3.0033783E2,6.986974E0,5.135648E0,1.11686535E1,5.157941E0,2.9364526E2,6.692575E0,6.0756907E0,5.0929627E0,2.7623276E2,1.7412506E1],"tree_param":{"num_deleted":"0","num_feature":"25","num_nodes":"15","size_leaf_vector":"1"}},{"base_weights":[6.789192E-4,-4.3823275E-1,4.0713847E-2,1.2972851E-2,-6.176165E-1,6.652242E-1,-6.43532E-3,-7.853674E-1,-8.755092E-3,1.203711E0,-4.7105476E-3,9.802139E-2,-1.6054955E-1,-4.904857E-2,-1.6153833E-2,2.6680503E-2,8.7296285E-2,4.1850712E-2,1.2555794E-3,-1.1905348E-2,1.7852962E-2],"categories":[],"categories_nodes":[],"categories_segments":[],"categories_sizes":[],"default_left":[0,0,0,0,0,0,1,0,0,0,0,0,0,0,0,0,0,0,0,0,0],"id":47,"left_children":[1,3,5,-1,7,9,11,13,-1,15,-1,17,19,-1,-1,-1,-1,-1,-1,-1,-1],"loss_changes":[5.7975082E0,3.611878E0,8.906671E0,0E0,1.5129786E0,8.796598E0,4.5571384E0,1.1150141E0,0E0,3.6087894E0,0E0,9.071847E0,4.675249E0,0E0,0E0,0E0,0E0,0E0,0E0,0E0,0E0],"parents":[2147483647,0,0,1,1,2,2,4,4,5,5,6,6,7,7,9,9,11,11,12,12],"right_children":[2,4,6,-1,8,10,12,14,-1,16,-1,18,20,-1,-1,-1,-1,-1,-1,-1,-1],"split_conditions":[9.11E1,1.02E2,9.17E1,1.2972851E-2,1.84E2,4.327244E-1,4.2E-1,3.9E-1,-8.755092E-3,1.63E2,-4.7105476E-3,9.924115E-1,2.19833E0,-4.904857E-2,-1.6153833E-2,2.6680503E-2,8.7296285E-2,4.1850712E-2,1.2555794E-3,-1.1905348E-2,1.7852962E-2],"split_indices":[14,18,14,0,18,13,15,15,0,18,0,17,23,0,0,0,0,0,0,0,0],"split_type":[0,0,0,0,0,0,0,0,0,0,0,0,0,0,0,0,0,0,0,0,0],"sum_hessian":[3.2791718E2,2.6579044E1,3.0133813E2,5.3447905E0,2.1234253E1,2.0233118E1,2.81105E2,1.4835532E1,6.398721E0,1.1496427E1,8.736691E0,1.67762E2,1.1334302E2,9.636268E0,5.1992645E0,6.0292506E0,5.4671764E0,1.4124093E1,1.536379E2,9.904266E1,1.4300355E1],"tree_param":{"num_deleted":"0","num_feature":"25","num_nodes":"21","size_leaf_vector":"1"}},{"base_weights":[-2.157302E-2,-5.8492884E-2,3.2893285E-1,1.07595585E-1,-1.282772E-1,-3.268977E-2,6.052697E-1,-3.752601E-1,2.3599193E-1,9.752759E-2,-2.619478E-1,3.2254797E-1,6.4209245E-2,-3.3322886E-2,1.4758185E-2,2.8526355E-2,1.451801E-3,5.1730336E-4,3.1784423E-2,-3.1330846E-2,-7.1202517E-3,1.030309E-3,4.590198E-2],"categories":[],"categories_nodes":[],"categories_segments":[],"categories_sizes":[],"default_left":[0,0,0,0,1,0,0,0,0,0,0,0,0,0,0,0,0,0,0,0,0,0,0],"id":48,"left_children":[1,3,5,7,9,-1,11,13,15,17,19,21,-1,-1,-1,-1,-1,-1,-1,-1,-1,-1,-1],"loss_changes":[4.3193636E0,3.5080557E0,9.036144E0,5.6520452E0,6.446806E0,0E0,4.4522142E0,3.952077E0,4.933816E0,3.7391524E0,5.748149E0,3.4395862E0,0E0,0E0,0E0,0E0,0E0,0E0,0E0,0E0,0E0,0E0,0E0],"parents":[2147483647,0,0,1,1,2,2,3,3,4,4,6,6,7,7,8,8,9,9,10,10,11,11],"right_children":[2,4,6,8,10,-1,12,14,16,18,20,22,-1,-1,-1,-1,-1,-1,-1,-1,-1,-1,-1],"split_conditions":[3.4324545E-1,4.1735315E-1,6.4E0,9.23E1,1.7E-1,-3.268977E-2,8.22E1,3.205E-1,1.15159E0,3.4793815E-1,3.164E-1,3.221E-1,6.4209245E-2,-3.3322886E-2,1.4758185E-2,2.8526355E-2,1.451801E-3,5.1730336E-4,3.1784423E-2,-3.1330846E-2,-7.1202517E-3,1.030309E-3,4.590198E-2],"split_indices":[10,21,4,14,15,0,1,7,2,9,6,7,0,0,0,0,0,0,0,0,0,0,0],"split_type":[0,0,0,0,0,0,0,0,0,0,0,0,0,0,0,0,0,0,0,0,0,0,0],"sum_hessian":[3.312963E2,3.0047903E2,3.0817265E1,8.8738144E1,2.1174089E2,6.4639115E0,2.4353354E1,1.8235996E1,7.0502144E1,7.883621E1,1.3290468E2,1.823487E1,6.118481E0,1.2717907E1,5.5180883E0,2.6274237E1,4.422791E1,6.8722466E1,1.0113748E1,3.1764448E1,1.01140236E2,1.2786253E1,5.448618E0],"tree_param":{"num_deleted":"0","num_feature":"25","num_nodes":"23","size_leaf_vector":"1"}},{"base_weights":[-1.6621377E-2,-3.4914564E-2,4.9785785E-3,3.725469E-2,-3.947591E-1,9.130339E-2,-2.2434068E-1,-8.808184E-1,2.6646376E-2,-1.6304782E-3,1.1325563E-2,1.7359281E-2,-1.9706711E-2,-5.4476973E-2,-1.810295E-2],"categories":[],"categories_nodes":[],"categories_segments":[],"categories_sizes":[],"default_left":[0,0,1,0,0,0,1,0,0,0,0,0,0,0,0],"id":49,"left_children":[1,-1,3,5,7,9,11,13,-1,-1,-1,-1,-1,-1,-1],"loss_changes":[4.8417134E0,0E0,4.1368237E0,4.2132154E0,1.1271418E1,4.136787E0,5.09241E0,1.3484039E0,0E0,0E0,0E0,0E0,0E0,0E0,0E0],"parents":[2147483647,0,0,2,2,3,3,4,4,5,5,6,6,7,7],"right_children":[2,-1,4,6,8,10,12,14,-1,-1,-1,-1,-1,-1,-1],"split_conditions":[3.074E-1,-3.4914564E-2,3.0230466E-1,1.0823E2,1.045E2,3.198E-1,2.8280532E-1,3.2167187E-1,2.6646376E-2,-1.6304782E-3,1.1325563E-2,1.7359281E-2,-1.9706711E-2,-5.4476973E-2,-1.810295E-2],"split_indices":[6,0,11,5,5,6,12,10,0,0,0,0,0,0,0],"split_type":[0,0,0,0,0,0,0,0,0,0,0,0,0,0,0],"sum_hessian":[3.275944E2,9.099398E0,3.1849496E2,2.95539E2,2.2955973E1,2.4547246E2,5.0066544E1,1.50966425E1,7.8593307E0,1.2848216E2,1.16990295E2,1.122806E1,3.8838486E1,9.980675E0,5.1159678E0],"tree_param":{"num_deleted":"0","num_feature":"25","num_nodes":"15","size_leaf_vector":"1"}},{"base_weights":[2.0423252E-2,-4.4100583E-1,4.7015477E-2,-8.073595E-1,1.8927947E-2,-1.3007869E-1,1.118637E-1,-5.1868618E-2,-1.9188408E-2,1.8933166E-2,-8.843297E-1,3.7885305E-2,3.8585928E-1,1.2558307E-2,-1.672278E-2,-5.810501E-2,-2.0095753E-2,1.022071E-2,-7.526358E-3,4.346779E-2,1.1353478E-3],"categories":[],"categories_nodes":[],"categories_segments":[],"categories_sizes":[],"default_left":[1,1,0,0,0,0,0,0,0,1,0,0,0,0,0,0,0,0,0,0,0],"id":50,"left_children":[1,3,5,7,-1,9,11,-1,-1,13,15,17,19,-1,-1,-1,-1,-1,-1,-1,-1],"loss_changes":[4.0545096E0,5.712943E0,3.5945377E0,8.456116E-1,0E0,9.459494E0,4.6213655E0,0E0,0E0,5.921934E0,1.393013E0,5.716096E0,8.498703E0,0E0,0E0,0E0,0E0,0E0,0E0,0E0,0E0],"parents":[2147483647,0,0,1,1,2,2,3,3,5,5,6,6,9,9,10,10,11,11,12,12],"right_children":[2,4,6,8,-1,10,12,-1,-1,14,16,18,20,-1,-1,-1,-1,-1,-1,-1,-1],"split_conditions":[7.4E1,8.293496E-2,6.1E0,3.1756052E-1,1.8927947E-2,3.249E-1,3.242E-1,-5.1868618E-2,-1.9188408E-2,1.2298908E0,3.263E-1,3.283662E-1,9.5E0,1.2558307E-2,-1.672278E-2,-5.810501E-2,-2.0095753E-2,1.022071E-2,-7.526358E-3,4.346779E-2,1.1353478E-3],"split_indices":[18,16,4,10,0,6,6,0,0,17,6,12,4,0,0,0,0,0,0,0,0],"split_type":[0,0,0,0,0,0,0,0,0,0,0,0,0,0,0,0,0,0,0,0,0],"sum_hessian":[3.277397E2,1.7009325E1,3.1073035E2,1.17651E1,5.244225E0,8.301597E1,2.2771439E2,6.685718E0,5.0793815E0,7.013484E1,1.2881129E1,1.8019916E2,4.7515232E1,4.2496864E1,2.7637976E1,7.2802777E0,5.6008515E0,9.56095E1,8.458965E1,1.9782776E1,2.7732456E1],"tree_param":{"num_deleted":"0","num_feature":"25","num_nodes":"21","size_leaf_vector":"1"}},{"base_weights":[3.4404233E-2,-5.329599E-1,6.665323E-2,-8.6216724E-1,8.390552E-3,1.11259945E-1,-2.368179E-1,-2.5315389E-2,-5.203861E-2,2.5506252E-1,1.0232043E-2,-6.2765425E-1,3.22447E-1,2.1696433E-2,2.6475123E-4,-1.7242843E-2,6.444366E-3,-5.118335E-3,-4.0590864E-2,-6.710887E-3,4.809026E-2],"categories":[],"categories_nodes":[],"categories_segments":[],"categories_sizes":[],"default_left":[1,0,0,1,0,0,0,0,0,1,0,0,0,0,0,0,0,0,0,0,0],"id":51,"left_children":[1,3,5,7,-1,9,11,-1,-1,13,15,17,19,-1,-1,-1,-1,-1,-1,-1,-1],"loss_changes":[6.006983E0,4.219748E0,4.218713E0,2.4725628E-1,0E0,3.930023E0,8.94742E0,0E0,0E0,4.986003E0,6.7871985E0,2.2279491E0,5.1272216E0,0E0,0E0,0E0,0E0,0E0,0E0,0E0,0E0],"parents":[2147483647,0,0,1,1,2,2,3,3,5,5,6,6,9,9,10,10,11,11,12,12],"right_children":[2,4,6,8,-1,10,12,-1,-1,14,16,18,20,-1,-1,-1,-1,-1,-1,-1,-1],"split_conditions":[7.4E1,8.86215E-2,6.737588E-2,-2.6603854E-1,8.390552E-3,1.43E2,3.211E-1,-2.5315389E-2,-5.203861E-2,4.2032102E-1,1.62E2,1.7992084E-1,4.3838337E-1,2.1696433E-2,2.6475123E-4,-1.7242843E-2,6.444366E-3,-5.118335E-3,-4.0590864E-2,-6.710887E-3,4.809026E-2],"split_indices":[18,16,8,23,0,18,7,0,0,13,18,11,23,0,0,0,0,0,0,0,0],"split_type":[0,0,0,0,0,0,0,0,0,0,0,0,0,0,0,0,0,0,0,0,0],"sum_hessian":[3.2536414E2,1.6664003E1,3.0870013E2,1.1181064E1,5.4829392E0,2.6969193E2,3.9008198E1,5.0179324E0,6.163131E0,1.10657684E2,1.5903424E2,2.2889692E1,1.6118505E1,6.4051285E1,4.6606403E1,3.935468E1,1.1967956E2,6.3457046E0,1.654399E1,9.863515E0,6.2549896E0],"tree_param":{"num_deleted":"0","num_feature":"25","num_nodes":"21","size_leaf_vector":"1"}},{"base_weights":[-7.852099E-3,-3.5379365E-2,1.271393E-2,-7.730933E-2,1.6340694E-1,3.6169477E-2,-4.1639173E-1,4.081511E-2,1.033604E-1,-1.4246509E-3,3.71513E-2,-3.0356482E-2,1.5527901E-2,-3.1431194E-2,8.334446E-3],"categories":[],"categories_nodes":[],"categories_segments":[],"categories_sizes":[],"default_left":[0,0,0,0,0,0,0,0,0,0,0,0,0,0,0],"id":52,"left_children":[1,-1,3,5,7,9,11,-1,13,-1,-1,-1,-1,-1,-1],"loss_changes":[4.7532816E0,0E0,4.370602E0,7.7794533E0,4.638176E0,6.97356E0,7.2152557E0,0E0,5.2715626E0,0E0,0E0,0E0,0E0,0E0,0E0],"parents":[2147483647,0,0,2,2,3,3,4,4,5,5,6,6,8,8],"right_children":[2,-1,4,6,8,10,12,-1,14,-1,-1,-1,-1,-1,-1],"split_conditions":[2.1E0,-3.5379365E-2,5.699482E-2,5.2542374E-2,-1.4E0,5.1457975E-2,1.22E1,4.081511E-2,3.102E-1,-1.4246509E-3,3.71513E-2,-3.0356482E-2,1.5527901E-2,-3.1431194E-2,8.334446E-3],"split_indices":[4,0,8,8,22,8,4,0,6,0,0,0,0,0,0],"split_type":[0,0,0,0,0,0,0,0,0,0,0,0,0,0,0],"sum_hessian":[3.286755E2,8.43054E0,3.2024496E2,2.0078435E2,1.1946061E2,1.511074E2,4.9676937E1,9.000651E0,1.1045995E2,1.3932207E2,1.1785345E1,3.948234E1,1.0194597E1,8.08483E0,1.0237512E2],"tree_param":{"num_deleted":"0","num_feature":"25","num_nodes":"15","size_leaf_vector":"1"}},{"base_weights":[5.1276498E-3,-3.9436456E-2,3.2426587E-1,8.189431E-2,-2.1045314E-1,5.4725967E-2,5.7017084E-2,-7.285401E-2,3.287684E-1,3.0719885E-1,-3.2961714E-1,2.6888162E-1,-3.6085125E-2,-1.7457532E-2,4.3876083E-3,5.9330612E-2,6.87436E-3,5.3638067E-2,-9.277064E-3,-2.6826823E-2,-2.266197E-3,-1.5387109E-3,4.4653334E-2],"categories":[],"categories_nodes":[],"categories_segments":[],"categories_sizes":[],"default_left":[1,1,1,0,0,0,0,0,0,0,0,0,0,0,0,0,0,0,0,0,0,0,0],"id":53,"left_children":[1,3,5,7,9,11,-1,13,15,17,19,21,-1,-1,-1,-1,-1,-1,-1,-1,-1,-1,-1],"loss_changes":[4.7324443E0,6.077843E0,8.905592E0,6.578962E0,7.5961213E0,5.4646873E0,0E0,4.747195E0,1.071489E1,8.970801E0,5.8140078E0,4.8108125E0,0E0,0E0,0E0,0E0,0E0,0E0,0E0,0E0,0E0,0E0,0E0],"parents":[2147483647,0,0,1,1,2,2,3,3,4,4,5,5,7,7,8,8,9,9,10,10,11,11],"right_children":[2,4,6,8,10,12,-1,14,16,18,20,22,-1,-1,-1,-1,-1,-1,-1,-1,-1,-1,-1],"split_conditions":[2.14E2,9.39E1,9.51E1,8.959338E-2,3.653882E-1,9.47E1,5.7017084E-2,3.0918896E-1,2.993146E-1,1.15461E0,5.536781E-1,3.224E-1,-3.6085125E-2,-1.7457532E-2,4.3876083E-3,5.9330612E-2,6.87436E-3,5.3638067E-2,-9.277064E-3,-2.6826823E-2,-2.266197E-3,-1.5387109E-3,4.4653334E-2],"split_indices":[18,14,14,16,21,14,0,10,10,2,21,7,0,0,0,0,0,0,0,0,0,0,0],"split_type":[0,0,0,0,0,0,0,0,0,0,0,0,0,0,0,0,0,0,0,0,0,0,0],"sum_hessian":[3.3085345E2,2.9108334E2,3.9770126E1,1.7058206E2,1.20501274E2,3.0698008E1,9.072119E0,1.0528873E2,6.5293335E1,2.2253489E1,9.824779E1,2.4573738E1,6.1242704E0,3.827276E1,6.701597E1,1.095585E1,5.4337486E1,8.253314E0,1.40001745E1,5.6348186E1,4.18996E1,1.7245361E1,7.328376E0],"tree_param":{"num_deleted":"0","num_feature":"25","num_nodes":"23","size_leaf_vector":"1"}},{"base_weights":[-1.3681254E-2,-3.0277694E-2,2.7143663E-2,-1.1491536E-1,7.3386714E-2,-3.18807E-1,9.773456E-3,-3.8857487E-1,1.3478564E-1,-2.8071979E-3,-4.109362E-2,3.6897534E-3,-2.8164973E-2,9.2760585E-3,-3.9554235E-2,3.4264815E-3,3.2893196E-2],"categories":[],"categories_nodes":[],"categories_segments":[],"categories_sizes":[],"default_left":[0,0,0,0,1,0,0,0,0,0,0,0,0,0,0,0,0],"id":54,"left_children":[1,3,-1,5,7,9,11,13,15,-1,-1,-1,-1,-1,-1,-1,-1],"loss_changes":[3.0599809E0,2.8240445E0,0E0,4.5044155E0,4.16092E0,8.835888E0,4.108095E0,4.133106E0,4.4118185E0,0E0,0E0,0E0,0E0,0E0,0E0,0E0,0E0],"parents":[2147483647,0,0,1,1,3,3,4,4,5,5,6,6,7,7,8,8],"right_children":[2,4,-1,6,8,10,12,14,16,-1,-1,-1,-1,-1,-1,-1,-1],"split_conditions":[1.054E2,5.133903E-1,2.7143663E-2,1.16188E0,-2.058543E0,1.0433E2,1.1022E2,3.4E-1,3.271E-1,-2.8071979E-3,-4.109362E-2,3.6897534E-3,-2.8164973E-2,9.2760585E-3,-3.9554235E-2,3.4264815E-3,3.2893196E-2],"split_indices":[1,24,0,2,23,5,5,15,6,0,0,0,0,0,0,0,0],"split_type":[0,0,0,0,0,0,0,0,0,0,0,0,0,0,0,0,0],"sum_hessian":[3.2850116E2,3.1990714E2,8.594022E0,1.7605612E2,1.4385101E2,6.621851E1,1.098376E2,1.6250978E1,1.2760003E2,4.423429E1,2.1984226E1,9.95837E1,1.0253897E1,6.9200554E0,9.330924E0,1.1425843E2,1.33415985E1],"tree_param":{"num_deleted":"0","num_feature":"25","num_nodes":"17","size_leaf_vector":"1"}},{"base_weights":[8.416696E-3,-2.154055E-1,7.3474534E-2,-4.1459608E-1,1.8413067E-1,3.2920036E-1,-1.7204445E-2,-6.1645764E-1,1.1088538E-2,6.5762687E-1,-3.199725E-1,-4.7519973E-1,4.915692E-1,-6.114066E-2,5.8935225E-1,2.8039187E-3,-3.702874E-2,2.6726607E-2,-2.6605064E-2,6.140848E-2,-5.3347372E-3,1.20139625E-2,-3.65362E-2,-3.757797E-2,-5.089951E-3,3.1588595E-2,-2.8452625E-2,5.670873E-4,-2.1878617E-2,7.6116673E-3,5.0246913E-2],"categories":[],"categories_nodes":[],"categories_segments":[],"categories_sizes":[],"default_left":[1,0,0,0,0,0,1,0,0,0,0,0,0,0,0,0,0,0,0,0,0,0,0,0,0,0,0,0,0,0,0],"id":55,"left_children":[1,3,5,7,9,11,13,15,17,19,21,23,25,27,29,-1,-1,-1,-1,-1,-1,-1,-1,-1,-1,-1,-1,-1,-1,-1,-1],"loss_changes":[4.683368E0,5.841613E0,5.7820234E0,4.1872377E0,6.128398E0,8.756763E0,4.962055E0,2.7976532E0,5.013177E0,5.848965E0,3.093855E0,1.1069453E0,8.506678E0,4.7324114E0,2.1320887E0,0E0,0E0,0E0,0E0,0E0,0E0,0E0,0E0,0E0,0E0,0E0,0E0,0E0,0E0,0E0,0E0],"parents":[2147483647,0,0,1,1,2,2,3,3,4,4,5,5,6,6,7,7,8,8,9,9,10,10,11,11,12,12,13,13,14,14],"right_children":[2,4,6,8,10,12,14,16,18,20,22,24,26,28,30,-1,-1,-1,-1,-1,-1,-1,-1,-1,-1,-1,-1,-1,-1,-1,-1],"split_conditions":[3.444095E-1,1.0406E2,4.1735315E-1,3.2284486E-1,3.2730561E-1,9.2E1,2.34E2,5.0239164E-2,3.187E-1,1.196861E0,2.4163122E-1,3.189E-1,3.2243833E-1,1.0823E2,3.201E-1,2.8039187E-3,-3.702874E-2,2.6726607E-2,-2.6605064E-2,6.140848E-2,-5.3347372E-3,1.20139625E-2,-3.65362E-2,-3.757797E-2,-5.089951E-3,3.1588595E-2,-2.8452625E-2,5.670873E-4,-2.1878617E-2,7.6116673E-3,5.0246913E-2],"split_indices":[13,5,21,10,9,14,18,16,6,17,11,7,10,5,7,0,0,0,0,0,0,0,0,0,0,0,0,0,0,0,0],"split_type":[0,0,0,0,0,0,0,0,0,0,0,0,0,0,0,0,0,0,0,0,0,0,0,0,0,0,0,0,0,0,0],"sum_hessian":[3.1954236E2,7.144276E1,2.480996E2,4.7649292E1,2.3793467E1,6.425689E1,1.8384271E2,3.201804E1,1.5631253E1,1.2112159E1,1.1681309E1,1.046836E1,5.378853E1,1.7226389E2,1.1578815E1,5.073759E0,2.6944279E1,7.9684315E0,7.6628222E0,6.587738E0,5.5244207E0,5.116963E0,6.5643454E0,5.433902E0,5.0344586E0,4.786556E1,5.92297E0,1.4526315E2,2.7000738E1,6.3091145E0,5.2697005E0],"tree_param":{"num_deleted":"0","num_feature":"25","num_nodes":"31","size_leaf_vector":"1"}},{"base_weights":[3.979315E-2,-3.6750144E-1,7.289541E-2,-6.7497325E-1,2.461988E-2,4.658848E-1,3.908193E-2,-4.64694E-2,-1.5722714E-2,-1.9063253E-2,7.5784343E-1,1.5544853E-1,-8.9333884E-2,1.6035965E-2,6.904336E-2,-2.1662023E-3,1.8870605E-2,3.940923E-2,-8.083673E-3],"categories":[],"categories_nodes":[],"categories_segments":[],"categories_sizes":[],"default_left":[0,0,0,0,0,0,0,0,0,0,0,0,0,0,0,0,0,0,0],"id":56,"left_children":[1,3,5,7,-1,9,11,-1,-1,-1,13,15,17,-1,-1,-1,-1,-1,-1],"loss_changes":[4.4327526E0,6.870545E0,4.0090303E0,1.4171982E0,0E0,6.2048426E0,4.2002063E0,0E0,0E0,0E0,4.49273E0,6.516736E0,8.621813E0,0E0,0E0,0E0,0E0,0E0,0E0],"parents":[2147483647,0,0,1,1,2,2,3,3,5,5,6,6,10,10,11,11,12,12],"right_children":[2,4,6,8,-1,10,12,-1,-1,-1,14,16,18,-1,-1,-1,-1,-1,-1],"split_conditions":[9.08E1,3.22E-1,9.17E1,1.2366692E0,2.461988E-2,4.5918368E-2,1.54E2,-4.64694E-2,-1.5722714E-2,-1.9063253E-2,3.216E-1,2.3024605E-1,2.8565362E-1,1.6035965E-2,6.904336E-2,-2.1662023E-3,1.8870605E-2,3.940923E-2,-8.083673E-3],"split_indices":[14,7,14,17,0,8,18,0,0,0,7,11,10,0,0,0,0,0,0],"split_type":[0,0,0,0,0,0,0,0,0,0,0,0,0,0,0,0,0,0,0],"sum_hessian":[3.2579443E2,2.37289E1,3.0206555E2,1.76374E1,6.0915027E0,2.2918814E1,2.7914673E2,9.415236E0,8.222162E0,5.795794E0,1.712302E1,1.4633331E2,1.328134E2,1.0952991E1,6.170028E0,7.76242E1,6.870912E1,9.361209E0,1.23452194E2],"tree_param":{"num_deleted":"0","num_feature":"25","num_nodes":"19","size_leaf_vector":"1"}},{"base_weights":[-4.4200778E-2,2.3898682E-1,-8.51963E-2,-9.1471076E-2,7.8453594E-1,4.0873048E-1,-1.1253569E-1,-4.7079358E-1,4.4956398E-1,6.2271398E-2,-6.9136E-3,5.5502683E-2,-8.8963695E-3,-6.1991915E-2,-3.9930028E-1,1.4242931E-2,-4.7886815E-2,-3.9961524E-3,4.4440366E-2,2.348282E-2,-5.934085E-3,-3.0998064E-2,3.3524574E-3],"categories":[],"categories_nodes":[],"categories_segments":[],"categories_sizes":[],"default_left":[0,0,0,0,1,0,0,0,0,0,0,0,0,0,0,0,0,0,0,0,0,0,0],"id":57,"left_children":[1,3,5,7,9,11,13,15,17,-1,-1,-1,-1,19,21,-1,-1,-1,-1,-1,-1,-1,-1],"loss_changes":[3.8047156E0,7.5506544E0,3.90113E0,5.6975446E0,6.872513E0,6.4468956E0,3.9074974E0,6.234606E0,2.7522805E0,0E0,0E0,0E0,0E0,7.0428724E0,4.206019E0,0E0,0E0,0E0,0E0,0E0,0E0,0E0,0E0],"parents":[2147483647,0,0,1,1,2,2,3,3,4,4,5,5,6,6,7,7,8,8,13,13,14,14],"right_children":[2,4,6,8,10,12,14,16,18,-1,-1,-1,-1,20,22,-1,-1,-1,-1,-1,-1,-1,-1],"split_conditions":[-1.4666667E0,1.012E0,5.39E1,8.04E1,8.110119E-2,5.9099395E-2,3.0042905E-1,3.0802125E-1,3.168E-1,6.2271398E-2,-6.9136E-3,5.5502683E-2,-8.8963695E-3,2.809959E-1,1.0402E2,1.4242931E-2,-4.7886815E-2,-3.9961524E-3,4.4440366E-2,2.348282E-2,-5.934085E-3,-3.0998064E-2,3.3524574E-3],"split_indices":[22,0,1,1,16,16,11,12,6,0,0,0,0,12,5,0,0,0,0,0,0,0,0],"split_type":[0,0,0,0,0,0,0,0,0,0,0,0,0,0,0,0,0,0,0,0,0,0,0],"sum_hessian":[3.249727E2,4.0484634E1,2.8448807E2,2.5730883E1,1.475375E1,1.4189179E1,2.702989E2,1.5202299E1,1.0528584E1,9.606315E0,5.147435E0,6.056609E0,8.13257E0,2.3083003E2,3.946884E1,6.1200414E0,9.082258E0,5.1448064E0,5.383777E0,2.1539892E1,2.0929015E2,2.6568243E1,1.2900599E1],"tree_param":{"num_deleted":"0","num_feature":"25","num_nodes":"23","size_leaf_vector":"1"}},{"base_weights":[2.6732148E-3,-1.14461645E-1,1.3315707E-1,-1.7192048E-1,5.825258E-1,5.134963E-1,3.444154E-2,-1.20335035E-1,-6.997762E-1,5.1855613E-2,-3.4164449E-3,-4.824597E-2,1.35624E0,-4.04222E-2,7.1273804E-1,-1.2675117E-2,4.053844E-3,-1.2188521E-2,-4.734155E-2,2.3898708E-2,-2.9765585E-2,9.0018794E-2,3.1278964E-2,2.3174009E-3,-3.2618467E-2,-3.8847781E-3,6.749217E-2],"categories":[],"categories_nodes":[],"categories_segments":[],"categories_sizes":[],"default_left":[0,0,0,1,0,0,1,0,0,0,0,0,0,0,0,0,0,0,0,0,0,0,0,0,0,0,0],"id":58,"left_children":[1,3,5,7,9,11,13,15,17,-1,-1,19,21,23,25,-1,-1,-1,-1,-1,-1,-1,-1,-1,-1,-1,-1],"loss_changes":[4.9812655E0,6.9784746E0,5.7703233E0,4.257377E0,4.0084553E0,1.5069939E1,6.2983646E0,3.9487262E0,1.3449378E0,0E0,0E0,6.037406E0,2.998642E0,5.9847016E0,6.3121576E0,0E0,0E0,0E0,0E0,0E0,0E0,0E0,0E0,0E0,0E0,0E0,0E0],"parents":[2147483647,0,0,1,1,2,2,3,3,4,4,5,5,6,6,7,7,8,8,11,11,12,12,13,13,14,14],"right_children":[2,4,6,8,10,12,14,16,18,-1,-1,20,22,24,26,-1,-1,-1,-1,-1,-1,-1,-1,-1,-1,-1,-1],"split_conditions":[3.218297E-1,1.5521197E0,3.2797834E-1,3.0042905E-1,3.245506E-1,1.18676E0,2.29E2,7.3869765E-1,-8.666667E-1,5.1855613E-2,-3.4164449E-3,1.49E2,-7.488371E-1,1.438618E-1,6.666667E-1,-1.2675117E-2,4.053844E-3,-1.2188521E-2,-4.734155E-2,2.3898708E-2,-2.9765585E-2,9.0018794E-2,3.1278964E-2,2.3174009E-3,-3.2618467E-2,-3.8847781E-3,6.749217E-2],"split_indices":[9,17,9,11,23,2,18,24,22,0,0,18,24,16,22,0,0,0,0,0,0,0,0,0,0,0,0],"split_type":[0,0,0,0,0,0,0,0,0,0,0,0,0,0,0,0,0,0,0,0,0,0,0,0,0,0,0],"sum_hessian":[3.2391205E2,1.707517E2,1.5316035E2,1.5844316E2,1.2308532E1,3.0694876E1,1.2246548E2,1.4545622E2,1.2986945E1,6.897526E0,5.411006E0,1.8983751E1,1.1711125E1,1.11139404E2,1.1326075E1,8.7406876E1,5.804934E1,5.261728E0,7.7252173E0,9.7406025E0,9.243148E0,6.3731413E0,5.3379836E0,9.814704E1,1.2992366E1,5.446655E0,5.87942E0],"tree_param":{"num_deleted":"0","num_feature":"25","num_nodes":"27","size_leaf_vector":"1"}}]},"name":"gbtree"},"learner_model_param":{"base_score":"[2.268384E-1]","boost_from_average":"1","num_class":"0","num_feature":"25","num_target":"1"},"objective":{"name":"binary:logistic","reg_loss_param":{"scale_pos_weight":"1"}}},"version":[3,2,0]}