{"learner":{"attributes":{},"feature_names":[],"feature_types":[],"gradient_booster":{"model":{"cats":{"enc":[],"feature_segments":[],"sorted_idx":[]},"gbtree_model_param":{"num_parallel_tree":"1","num_trees":"85"},"iteration_indptr":[0,1,2,3,4,5,6,7,8,9,10,11,12,13,14,15,16,17,18,19,20,21,22,23,24,25,26,27,28,29,30,31,32,33,34,35,36,37,38,39,40,41,42,43,44,45,46,47,48,49,50,51,52,53,54,55,56,57,58,59,60,61,62,63,64,65,66,67,68,69,70,71,72,73,74,75,76,77,78,79,80,81,82,83,84,85],"tree_info":[0,0,0,0,0,0,0,0,0,0,0,0,0,0,0,0,0,0,0,0,0,0,0,0,0,0,0,0,0,0,0,0,0,0,0,0,0,0,0,0,0,0,0,0,0,0,0,0,0,0,0,0,0,0,0,0,0,0,0,0,0,0,0,0,0,0,0,0,0,0,0,0,0,0,0,0,0,0,0,0,0,0,0,0,0],"trees":[{"base_weights":[-2.0837458E-3,-2.5458878E-2,2.817732E-1,4.630031E-2,-8.902774E-2,3.527242E-1,6.2149778E-2,1.0109864E-1,-1.2214325E-2,-6.5921836E-2,-1.7670795E-1,1.7574238E-2,3.8792014E-1,7.475573E-3,6.468786E-1,8.782927E-2,4.4555846E-1,1.9468012E-1,-2.292629E-2,1.2643565E-1,-7.518775E-2,-2.4360098E-2,-1.9293506E-1,-2.3088802E-1,1.6511066E-1,3.1808674E-1,5.2132344E-1,-5.439223E-2,2.9817718E-1,7E-1,-5.126889E-2,-2.8626714E-3,5.321476E-3,-2.2073658E-3,3.0208534E-2,-2.4829851E-3,1.870366E-2,4.721734E-3,-2.0779795E-3,3.3801153E-2,4.4675E-3,-4.5059635E-3,1.7209863E-3,-8.6120395E-3,2.2255199E-2,-1.9046249E-3,-1.0553142E-2,-1.6789362E-2,1.6259465E-2,2.4483025E-3,2.7189879E-2,1.177366E-2,2.6066715E-2,1.8167755E-2,3.334738E-2,3.3749123E-3,-9.36665E-3,-8.363284E-3,2.8403265E-2,1.0982431E-2,3.5E-2,3.0182316E-3,-5.37396E-3],"categories":[],"categories_nodes":[],"categories_segments":[],"categories_sizes":[],"default_left":[0,0,0,0,0,0,0,0,0,0,0,0,0,0,0,0,0,0,0,0,0,0,0,0,0,0,0,0,0,0,0,0,0,0,0,0,0,0,0,0,0,0,0,0,0,0,0,0,0,0,0,0,0,0,0,0,0,0,0,0,0,0,0],"id":0,"left_children":[1,3,5,7,9,11,13,15,17,19,21,23,25,27,29,31,33,35,37,39,41,43,45,47,49,51,53,55,57,59,61,-1,-1,-1,-1,-1,-1,-1,-1,-1,-1,-1,-1,-1,-1,-1,-1,-1,-1,-1,-1,-1,-1,-1,-1,-1,-1,-1,-1,-1,-1,-1,-1],"loss_changes":[2.2425447E2,1.4244714E2,4.0047424E1,4.703689E1,3.353453E1,2.2916718E1,2.0107016E1,3.458474E1,1.5728197E1,2.3370132E1,8.53138E0,6.846593E0,1.6217285E1,1.0381237E1,8.859591E0,1.9693066E1,2.1832611E1,1.5331777E1,1.4757117E1,1.222378E1,2.0468544E1,2.3231182E1,8.750626E0,4.1699963E0,5.1245127E0,1.930281E1,1.3622284E1,7.7263136E0,1.2818035E1,9.5859146E-1,1.1212231E-1,0E0,0E0,0E0,0E0,0E0,0E0,0E0,0E0,0E0,0E0,0E0,0E0,0E0,0E0,0E0,0E0,0E0,0E0,0E0,0E0,0E0,0E0,0E0,0E0,0E0,0E0,0E0,0E0,0E0,0E0,0E0,0E0],"parents":[2147483647,0,0,1,1,2,2,3,3,4,4,5,5,6,6,7,7,8,8,9,9,10,10,11,11,12,12,13,13,14,14,15,15,16,16,17,17,18,18,19,19,20,20,21,21,22,22,23,23,24,24,25,25,26,26,27,27,28,28,29,29,30,30],"right_children":[2,4,6,8,10,12,14,16,18,20,22,24,26,28,30,32,34,36,38,40,42,44,46,48,50,52,54,56,58,60,62,-1,-1,-1,-1,-1,-1,-1,-1,-1,-1,-1,-1,-1,-1,-1,-1,-1,-1,-1,-1,-1,-1,-1,-1,-1,-1,-1,-1,-1,-1,-1,-1],"split_conditions":[3E0,3E-1,5.323232E0,4.8850574E0,7.8E-1,9.3934104E-2,3.631295E-1,1.2982666E0,-5.9968084E-1,4.375E0,-1.6007533E-2,-4.2353947E-2,4E0,6.423611E-2,1.91E1,4.6E1,2.3613527E-1,8.8E1,2.5712478E-1,-3.4E0,2E0,3.3165786E-1,-1.34065E-2,3.1056264E-1,8.4E1,8.979592E-2,1.57E2,5.7E-1,3.8902597E0,1.667025E-1,1.8975092E-1,-2.8626714E-3,5.321476E-3,-2.2073658E-3,3.0208534E-2,-2.4829851E-3,1.870366E-2,4.721734E-3,-2.0779795E-3,3.3801153E-2,4.4675E-3,-4.5059635E-3,1.7209863E-3,-8.6120395E-3,2.2255199E-2,-1.9046249E-3,-1.0553142E-2,-1.6789362E-2,1.6259465E-2,2.4483025E-3,2.7189879E-2,1.177366E-2,2.6066715E-2,1.8167755E-2,3.334738E-2,3.3749123E-3,-9.36665E-3,-8.363284E-3,2.8403265E-2,1.0982431E-2,3.5E-2,3.0182316E-3,-5.37396E-3],"split_indices":[177,33,95,95,33,2,127,201,197,95,120,105,177,129,78,166,65,166,70,125,177,54,76,47,163,118,160,30,115,2,2,0,0,0,0,0,0,0,0,0,0,0,0,0,0,0,0,0,0,0,0,0,0,0,0,0,0,0,0,0,0,0,0],"split_type":[0,0,0,0,0,0,0,0,0,0,0,0,0,0,0,0,0,0,0,0,0,0,0,0,0,0,0,0,0,0,0,0,0,0,0,0,0,0,0,0,0,0,0,0,0,0,0,0,0,0,0,0,0,0,0,0,0,0,0,0,0,0,0],"sum_hessian":[3.379565E4,3.1225215E4,2.5704326E3,1.4667828E4,1.6557387E4,1.9423392E3,6.280934E2,7.5740674E3,7.0937607E3,1.3105512E4,3.4518745E3,1.8473335E2,1.7576058E3,5.7531244E2,5.2780956E1,7.294328E3,2.7973907E2,3.483543E2,6.7454062E3,6.0170294E2,1.2503809E4,3.3252002E2,3.1193545E3,6.861524E1,1.161181E2,1.155903E3,6.0170294E2,4.7502863E2,1.0028382E2,3.694667E1,1.5834288E1,8.28661E2,6.4656675E3,6.861524E1,2.1112383E2,1.4778668E2,2.0056764E2,9.2366675E2,5.8217397E3,3.694667E1,5.647562E2,1.1004829E4,1.4989791E3,2.533486E2,7.917143E1,3.2724194E2,2.7921125E3,5.805905E1,1.0556191E1,8.972763E1,2.6390478E1,8.2338293E2,3.3252002E2,2.9029526E2,3.1140765E2,2.480705E2,2.2695811E2,3.694667E1,6.333715E1,5.2780957E0,3.1668575E1,5.2780957E0,1.0556191E1],"tree_param":{"num_deleted":"0","num_feature":"204","num_nodes":"63","size_leaf_vector":"1"}},{"base_weights":[-2.4683469E-3,-5.477303E-2,2.004438E-1,-4.050415E-3,-1.17176935E-1,1.5845197E-1,4.815188E-1,-2.7362958E-2,8.804187E-2,-9.545829E-2,-1.9936496E-1,2.773879E-1,9.7794235E-2,7E-1,4.1888452E-1,-1.03697106E-1,-7.994759E-3,7.6610714E-2,7E-1,-1.5819457E-1,-6.643557E-2,-2.5387943E-1,-1.1532647E-1,2.1319507E-1,5.927734E-1,8.999538E-2,6.607839E-1,7E-1,1.0291256E-1,7E-1,3.7858588E-1,-6.1074193E-3,1.0674433E-2,9.1296835E-3,-8.9031685E-4,2.891305E-3,1.9211097E-2,3.5E-2,-2.6746325E-3,2.968187E-2,-8.314021E-3,-3.395817E-3,3.5E-2,-1.5019299E-2,-7.153127E-3,-8.814281E-3,5.737798E-3,-1.793859E-3,1.2794979E-2,9.3327E-3,3.5E-2,4.254157E-3,3.5E-2,-9.75677E-4,3.5E-2,3.5E-2,6.1606443E-3,1.0629375E-2,2.8212252E-3,3.5E-2,1.4728144E-2,8.6399616E-4,2.0958468E-2],"categories":[],"categories_nodes":[],"categories_segments":[],"categories_sizes":[],"default_left":[0,0,0,0,0,0,0,0,0,0,0,0,0,0,0,0,0,0,0,0,0,0,0,0,0,0,0,0,0,0,0,0,0,0,0,0,0,0,0,0,0,0,0,0,0,0,0,0,0,0,0,0,0,0,0,0,0,0,0,0,0,0,0],"id":1,"left_children":[1,3,5,7,9,11,13,15,17,19,21,23,25,27,29,31,33,35,37,39,41,43,45,47,49,51,53,55,57,59,61,-1,-1,-1,-1,-1,-1,-1,-1,-1,-1,-1,-1,-1,-1,-1,-1,-1,-1,-1,-1,-1,-1,-1,-1,-1,-1,-1,-1,-1,-1,-1,-1],"loss_changes":[3.6171057E2,8.576727E1,8.2362274E1,3.2094723E1,2.1667374E1,4.3823914E1,1.5199188E1,1.7636108E1,2.3524473E1,1.7490181E1,1.1600433E1,4.1425293E1,1.762127E1,7.5362396E0,1.2100769E1,1.4154928E1,1.779818E1,1.7150642E1,9.115652E0,1.8575653E1,1.1326857E1,7.8880005E0,1.4054604E1,1.8164223E1,2.3873291E1,1.5300911E1,5.3903084E0,5.14415E0,1.0278982E-1,2.314228E0,1.0154297E1,0E0,0E0,0E0,0E0,0E0,0E0,0E0,0E0,0E0,0E0,0E0,0E0,0E0,0E0,0E0,0E0,0E0,0E0,0E0,0E0,0E0,0E0,0E0,0E0,0E0,0E0,0E0,0E0,0E0,0E0,0E0,0E0],"parents":[2147483647,0,0,1,1,2,2,3,3,4,4,5,5,6,6,7,7,8,8,9,9,10,10,11,11,12,12,13,13,14,14,15,15,16,16,17,17,18,18,19,19,20,20,21,21,22,22,23,23,24,24,25,25,26,26,27,27,28,28,29,29,30,30],"right_children":[2,4,6,8,10,12,14,16,18,20,22,24,26,28,30,32,34,36,38,40,42,44,46,48,50,52,54,56,58,60,62,-1,-1,-1,-1,-1,-1,-1,-1,-1,-1,-1,-1,-1,-1,-1,-1,-1,-1,-1,-1,-1,-1,-1,-1,-1,-1,-1,-1,-1,-1,-1,-1],"split_conditions":[4E0,3.9E-1,6E0,8.403337E1,8E-1,1.5E-1,3.9940712E-1,2E0,1.2064343E-1,3.173E-1,1.3021203E0,6.743738E-2,3.6354256E-1,2.0859173E-2,-3.9316077E0,1.0073134E-1,6.4327484E-1,3.5407156E-1,1.61E1,6E0,3.314E-1,8.349901E-2,2.8655022E-1,-1.13264E0,3.187E-1,5.266667E0,2.192767E-1,3.05E2,4E0,1.3577421E-1,-1.5027796E-1,-6.1074193E-3,1.0674433E-2,9.1296835E-3,-8.9031685E-4,2.891305E-3,1.9211097E-2,3.5E-2,-2.6746325E-3,2.968187E-2,-8.314021E-3,-3.395817E-3,3.5E-2,-1.5019299E-2,-7.153127E-3,-8.814281E-3,5.737798E-3,-1.793859E-3,1.2794979E-2,9.3327E-3,3.5E-2,4.254157E-3,3.5E-2,-9.75677E-4,3.5E-2,3.5E-2,6.1606443E-3,1.0629375E-2,2.8212252E-3,3.5E-2,1.4728144E-2,8.6399616E-4,2.0958468E-2],"split_indices":[175,33,175,141,33,33,52,175,119,107,195,129,128,39,144,155,116,66,78,87,111,119,49,203,107,125,2,87,0,7,105,0,0,0,0,0,0,0,0,0,0,0,0,0,0,0,0,0,0,0,0,0,0,0,0,0,0,0,0,0,0,0,0],"split_type":[0,0,0,0,0,0,0,0,0,0,0,0,0,0,0,0,0,0,0,0,0,0,0,0,0,0,0,0,0,0,0,0,0,0,0,0,0,0,0,0,0,0,0,0,0,0,0,0,0,0,0,0,0,0,0,0,0,0,0,0,0,0,0],"sum_hessian":[3.407898E4,2.7095342E4,6.9836387E3,1.4947173E4,1.214817E4,6.077275E3,9.0636414E2,1.1928306E4,3.0188674E3,9.610661E3,2.537509E3,2.0513923E3,4.0258826E3,1.6075667E2,7.456074E2,2.413164E3,9.515142E3,2.9709268E3,4.7940704E1,3.038376E3,6.5722847E3,1.5378855E3,9.9962354E2,1.7058612E3,3.4553104E2,3.9720198E3,5.386286E1,1.3924352E2,2.151315E1,5.3604088E1,6.9200336E2,2.2810842E3,1.3207993E2,4.649988E2,9.050143E3,2.8010647E3,1.6986212E2,3.2021927E1,1.5918775E1,3.1559021E1,3.006817E3,6.5669976E3,5.2871876E0,1.0820647E3,4.5582086E2,7.9043555E2,2.0918797E2,2.496936E2,1.4561676E3,1.0657078E2,2.3896024E2,3.950558E3,2.14617E1,1.0521507E1,4.3341354E1,1.2330803E2,1.5935488E1,5.3406057E0,1.6172543E1,3.7544598E1,1.605949E1,7.002365E1,6.2197974E2],"tree_param":{"num_deleted":"0","num_feature":"204","num_nodes":"63","size_leaf_vector":"1"}},{"base_weights":[2.2731472E-3,-4.716803E-2,1.9255595E-1,1.2628647E-2,-1.0974632E-1,1.188932E-1,3.0712572E-1,3.1614263E-2,-1.0620137E-1,-9.08383E-2,-1.8821628E-1,6.6559714E-1,1.04570106E-1,4.230802E-1,2.1319601E-1,8.02724E-2,-9.635233E-3,2.6571277E-1,-1.2372907E-1,-4.4790406E-2,-1.3117728E-1,-3.203843E-1,-1.5543048E-1,7E-1,-6.758047E-2,1.7485622E-1,2.8297665E-2,2.8485388E-1,5.1530963E-1,1.333791E-1,3.6066893E-1,5.528343E-3,-2.6037197E-3,2.264139E-3,-2.4465641E-3,3.5E-2,-2.1835375E-3,-7.052538E-3,7.7837477E-3,-3.3924088E-3,4.768802E-3,-6.8012974E-3,1.3199352E-2,-1.7205989E-2,5.8683683E-3,-1.0291866E-2,-2.893927E-3,1.8283995E-2,3.5E-2,1.992562E-2,-1.3113742E-2,7.198644E-3,2.3305818E-2,1.4816917E-2,1.6107499E-4,-1.3434441E-3,1.8321179E-2,5.165133E-3,2.775164E-2,9.776606E-3,-3.2025946E-3,3.5E-2,1.4895814E-2],"categories":[],"categories_nodes":[],"categories_segments":[],"categories_sizes":[],"default_left":[0,0,0,0,0,0,0,0,0,0,0,0,0,0,0,0,0,0,0,0,0,0,0,0,0,0,0,0,0,0,0,0,0,0,0,0,0,0,0,0,0,0,0,0,0,0,0,0,0,0,0,0,0,0,0,0,0,0,0,0,0,0,0],"id":2,"left_children":[1,3,5,7,9,11,13,15,17,19,21,23,25,27,29,31,33,35,37,39,41,43,45,47,49,51,53,55,57,59,61,-1,-1,-1,-1,-1,-1,-1,-1,-1,-1,-1,-1,-1,-1,-1,-1,-1,-1,-1,-1,-1,-1,-1,-1,-1,-1,-1,-1,-1,-1,-1,-1],"loss_changes":[3.199369E2,1.0101161E2,5.9156555E1,3.1147385E1,1.9553406E1,3.337174E1,2.9797821E1,2.3892845E1,1.2431404E1,1.9741493E1,1.1044289E1,2.203698E1,2.2311432E1,1.5496613E1,1.7820831E1,2.1902878E1,1.3906943E1,1.3217396E1,8.816004E0,1.6055382E1,1.0892593E1,5.3178406E0,1.0084789E1,2.224884E-1,3.5939755E0,1.9418327E1,1.34256525E1,1.2553463E1,1.196788E1,1.2118511E1,1.72481E1,0E0,0E0,0E0,0E0,0E0,0E0,0E0,0E0,0E0,0E0,0E0,0E0,0E0,0E0,0E0,0E0,0E0,0E0,0E0,0E0,0E0,0E0,0E0,0E0,0E0,0E0,0E0,0E0,0E0,0E0,0E0,0E0],"parents":[2147483647,0,0,1,1,2,2,3,3,4,4,5,5,6,6,7,7,8,8,9,9,10,10,11,11,12,12,13,13,14,14,15,15,16,16,17,17,18,18,19,19,20,20,21,21,22,22,23,23,24,24,25,25,26,26,27,27,28,28,29,29,30,30],"right_children":[2,4,6,8,10,12,14,16,18,20,22,24,26,28,30,32,34,36,38,40,42,44,46,48,50,52,54,56,58,60,62,-1,-1,-1,-1,-1,-1,-1,-1,-1,-1,-1,-1,-1,-1,-1,-1,-1,-1,-1,-1,-1,-1,-1,-1,-1,-1,-1,-1,-1,-1,-1,-1],"split_conditions":[4E0,3.5E-1,5E0,5.2708335E0,8E-1,-2.9333334E0,4.9259257E0,-2.367367E-3,-1.7736174E0,3.0592632E-1,1.1E2,-4.503573E-4,3.3E-1,-4.2735045E-3,1E0,1.18871E0,8.4E1,4.148131E-1,1.5780459E3,3.3226022E-1,1.5E2,1.4E1,1.3076504E-2,6.46763E-2,8.215568E-2,2.1943133E-2,-2.7696319E-2,2.47E-1,-2.5426395E-2,3.1E1,-2.3854053E-2,5.528343E-3,-2.6037197E-3,2.264139E-3,-2.4465641E-3,3.5E-2,-2.1835375E-3,-7.052538E-3,7.7837477E-3,-3.3924088E-3,4.768802E-3,-6.8012974E-3,1.3199352E-2,-1.7205989E-2,5.8683683E-3,-1.0291866E-2,-2.893927E-3,1.8283995E-2,3.5E-2,1.992562E-2,-1.3113742E-2,7.198644E-3,2.3305818E-2,1.4816917E-2,1.6107499E-4,-1.3434441E-3,1.8321179E-2,5.165133E-3,2.775164E-2,9.776606E-3,-3.2025946E-3,3.5E-2,1.4895814E-2],"split_indices":[175,33,175,95,33,123,95,185,117,22,160,174,33,135,29,169,163,62,139,47,162,86,24,2,21,135,120,100,120,162,120,0,0,0,0,0,0,0,0,0,0,0,0,0,0,0,0,0,0,0,0,0,0,0,0,0,0,0,0,0,0,0,0],"split_type":[0,0,0,0,0,0,0,0,0,0,0,0,0,0,0,0,0,0,0,0,0,0,0,0,0,0,0,0,0,0,0,0,0,0,0,0,0,0,0,0,0,0,0,0,0,0,0,0,0,0,0,0,0,0,0,0,0,0,0,0,0,0,0],"sum_hessian":[3.4005633E4,2.6992836E4,7.0127964E3,1.3803603E4,1.3189233E4,4.2696553E3,2.7431414E3,1.1902638E4,1.900965E3,1.0630001E4,2.5592332E3,1.07843994E2,4.1618115E3,1.2260729E3,1.5170684E3,5.4604795E3,6.442158E3,8.4919914E1,1.816045E3,4.964741E3,5.6652593E3,5.069232E2,2.0523098E3,7.0390854E1,3.7453148E1,2.1652297E3,1.9965817E3,4.9231616E2,7.3375665E2,9.855582E2,5.3151013E2,4.443514E3,1.016965E3,2.6869172E3,3.7552412E3,3.1833366E1,5.3086548E1,1.7104977E3,1.05547325E2,4.2638433E3,7.008982E2,5.597237E3,6.802248E1,4.8105374E2,2.5869474E1,1.3523939E3,6.99916E2,5.3745875E0,6.5016266E1,1.0726748E1,2.6726398E1,1.9590039E3,2.0622575E2,1.6988226E2,1.8266993E3,1.0224651E2,3.9006964E2,6.4839935E1,6.6891675E2,7.495903E2,2.3596802E2,4.3528637E1,4.879815E2],"tree_param":{"num_deleted":"0","num_feature":"204","num_nodes":"63","size_leaf_vector":"1"}},{"base_weights":[-3.6153207E-3,-5.2084606E-2,1.8224607E-1,-1.9694655E-3,-1.1422941E-1,1.4625731E-1,4.3744564E-1,4.54548E-2,-4.1899893E-2,-1.548588E-1,-7.949075E-2,2.4986665E-1,7.3453285E-2,6.0075825E-1,2.8592435E-1,3.299844E-2,3.7700382E-1,-1.8731603E-2,-1.0907295E-1,-1.2880854E-1,-2.5511497E-1,-1.05593815E-1,-1.2857708E-2,1.854193E-1,4.3799198E-1,2.3737341E-2,1.67413E-1,7E-1,3.940146E-1,2.3463358E-1,7E-1,4.489288E-3,-9.808115E-4,6.6152066E-3,3.5E-2,-4.0394897E-3,7.435673E-4,-6.2259706E-3,1.5558255E-2,-4.2757625E-3,-9.0700565E-3,-2.2479116E-3,-1.4194612E-2,-6.511596E-3,1.4202668E-3,6.8083094E-3,-3.519702E-3,8.702402E-3,3.5E-2,2.261511E-3,2.5104502E-2,-3.2200646E-3,6.016141E-3,1.9298635E-5,1.3502421E-2,3.5E-2,1.809124E-2,3.2437295E-3,2.5358135E-2,1.6228966E-2,-7.0030167E-4,2.3054823E-3,3.5E-2],"categories":[],"categories_nodes":[],"categories_segments":[],"categories_sizes":[],"default_left":[0,0,0,0,0,0,0,0,0,0,0,0,0,0,0,0,0,0,0,0,0,0,0,0,0,0,0,0,0,0,0,0,0,0,0,0,0,0,0,0,0,0,0,0,0,0,0,0,0,0,0,0,0,0,0,0,0,0,0,0,0,0,0],"id":3,"left_children":[1,3,5,7,9,11,13,15,17,19,21,23,25,27,29,31,33,35,37,39,41,43,45,47,49,51,53,55,57,59,61,-1,-1,-1,-1,-1,-1,-1,-1,-1,-1,-1,-1,-1,-1,-1,-1,-1,-1,-1,-1,-1,-1,-1,-1,-1,-1,-1,-1,-1,-1,-1,-1],"loss_changes":[3.1011133E2,8.503417E1,6.53313E1,2.8626194E1,1.7191254E1,4.706465E1,2.1592148E1,2.8525126E1,1.277002E1,1.46371765E1,1.1430958E1,3.114476E1,1.7127018E1,9.594528E0,1.0549206E1,1.9903461E1,2.2354366E1,1.2728699E1,1.3699068E1,1.01408E1,6.987358E0,1.5595295E1,1.5882663E1,1.4735291E1,1.6503418E1,2.0434195E1,2.1751198E1,6.6371155E0,5.6330643E0,9.256298E0,2.2648506E0,0E0,0E0,0E0,0E0,0E0,0E0,0E0,0E0,0E0,0E0,0E0,0E0,0E0,0E0,0E0,0E0,0E0,0E0,0E0,0E0,0E0,0E0,0E0,0E0,0E0,0E0,0E0,0E0,0E0,0E0,0E0,0E0],"parents":[2147483647,0,0,1,1,2,2,3,3,4,4,5,5,6,6,7,7,8,8,9,9,10,10,11,11,12,12,13,13,14,14,15,15,16,16,17,17,18,18,19,19,20,20,21,21,22,22,23,23,24,24,25,25,26,26,27,27,28,28,29,29,30,30],"right_children":[2,4,6,8,10,12,14,16,18,20,22,24,26,28,30,32,34,36,38,40,42,44,46,48,50,52,54,56,58,60,62,-1,-1,-1,-1,-1,-1,-1,-1,-1,-1,-1,-1,-1,-1,-1,-1,-1,-1,-1,-1,-1,-1,-1,-1,-1,-1,-1,-1,-1,-1,-1,-1],"split_conditions":[4E0,3.9E-1,6E0,4.875E0,1.2047485E0,4.9166665E0,4.977778E0,1.2982666E0,5.3431373E0,8E-1,8.22E1,2.8217E-1,3.8847333E-1,4.4092834E-1,4.5E0,-2.5733092E-3,3.2772727E-2,9.486886E-2,2.307E1,3.1054828E-1,-1.4877313E-2,1.6269767E0,3.265E1,1.4317006E-1,-9.52381E-2,1E0,3.037409E-1,1.8718182E-1,2.778403E-1,3.3897772E-2,1.6980506E-1,4.489288E-3,-9.808115E-4,6.6152066E-3,3.5E-2,-4.0394897E-3,7.435673E-4,-6.2259706E-3,1.5558255E-2,-4.2757625E-3,-9.0700565E-3,-2.2479116E-3,-1.4194612E-2,-6.511596E-3,1.4202668E-3,6.8083094E-3,-3.519702E-3,8.702402E-3,3.5E-2,2.261511E-3,2.5104502E-2,-3.2200646E-3,6.016141E-3,1.9298635E-5,1.3502421E-2,3.5E-2,1.809124E-2,3.2437295E-3,2.5358135E-2,1.6228966E-2,-7.0030167E-4,2.3054823E-3,3.5E-2],"split_indices":[175,33,175,95,195,95,95,201,95,33,85,53,203,52,191,154,71,184,112,22,120,77,28,61,104,29,130,104,47,155,2,0,0,0,0,0,0,0,0,0,0,0,0,0,0,0,0,0,0,0,0,0,0,0,0,0,0,0,0,0,0,0,0],"split_type":[0,0,0,0,0,0,0,0,0,0,0,0,0,0,0,0,0,0,0,0,0,0,0,0,0,0,0,0,0,0,0,0,0,0,0,0,0,0,0,0,0,0,0,0,0,0,0,0,0,0,0,0,0,0,0,0,0,0,0,0,0,0,0],"sum_hessian":[3.442198E4,2.730266E4,7.11932E3,1.5114765E4,1.2187896E4,6.2408022E3,8.785175E2,6.908999E3,8.205766E3,5.6160547E3,6.571842E3,2.5745127E3,3.6662896E3,4.2138055E2,4.5713693E2,6.6598853E3,2.4911366E2,6.102325E3,2.1034404E3,4.4595767E3,1.1564779E3,4.7216E3,1.8502413E3,1.91907E3,6.554429E2,2.398466E3,1.2678234E3,2.7023975E2,1.5114081E2,4.1268814E2,4.444881E1,3.202597E3,3.4572883E3,1.5084956E2,9.826411E1,2.1430745E3,3.9592507E3,2.0295452E3,7.389515E1,2.4474792E3,2.0120975E3,1.3959517E2,1.0168828E3,3.9883079E3,7.332923E2,5.1499493E2,1.3352465E3,1.8919816E3,2.7088354E1,9.219885E1,5.63244E2,1.2542444E3,1.1442217E3,4.829245E2,7.8489886E2,2.0891922E2,6.132054E1,3.9068016E1,1.12072784E2,3.028326E2,1.0985554E2,5.443003E0,3.9005806E1],"tree_param":{"num_deleted":"0","num_feature":"204","num_nodes":"63","size_leaf_vector":"1"}},{"base_weights":[1.1642578E-3,-4.794766E-2,1.8193997E-1,-5.8780066E-3,-1.023673E-1,1.0851777E-1,2.9333043E-1,2.2491904E-2,-5.3804174E-2,-1.303631E-1,-4.8826214E-2,3.5E-2,9.991583E-2,4.684738E-1,2.4034825E-1,1.778525E-2,3.7077442E-1,7.385926E-2,-7.493572E-2,-3.2787427E-1,-1.2214101E-1,1.5362594E-1,-6.866397E-2,8.099772E-2,3.9426285E-1,1.5454316E-1,5.7148916E-1,2.8838322E-1,-1.064579E-2,-5.246749E-3,1.4798946E-3,6.242734E-3,3.5E-2,-2.2792236E-3,2.3194013E-2,4.851206E-3,-4.6123876E-3,-1.7886853E-2,3.8632103E-3,-8.889027E-3,-4.6811183E-3,4.3896944E-3,3.5E-2,-4.5878515E-3,3.608695E-3,5.5427714E-3,-3.291788E-3,2.6098205E-2,-1.60533E-3,1.8019419E-3,3.5E-2,3.5E-2,2.1961149E-2,7.266082E-3,1.6716806E-2,5.53872E-3,-8.813943E-3],"categories":[],"categories_nodes":[],"categories_segments":[],"categories_sizes":[],"default_left":[0,0,0,0,0,0,0,0,0,0,0,0,0,0,0,0,0,0,0,0,0,0,0,0,0,0,0,0,0,0,0,0,0,0,0,0,0,0,0,0,0,0,0,0,0,0,0,0,0,0,0,0,0,0,0,0,0],"id":4,"left_children":[1,3,5,7,9,11,13,15,17,19,21,-1,23,25,27,29,31,33,35,37,39,41,43,45,47,49,51,53,55,-1,-1,-1,-1,-1,-1,-1,-1,-1,-1,-1,-1,-1,-1,-1,-1,-1,-1,-1,-1,-1,-1,-1,-1,-1,-1,-1,-1],"loss_changes":[3.0179785E2,6.1197548E1,5.936125E1,2.0501104E1,1.746318E1,3.2113182E1,2.665387E1,1.5519693E1,1.5130602E1,1.2387238E1,1.6088432E1,0E0,2.4160343E1,2.1542633E1,2.672763E1,1.355207E1,1.2706081E1,3.713778E1,1.43307495E1,3.7205505E0,1.1643234E1,1.4942826E1,1.1867037E1,1.7909336E1,1.4287876E1,1.3249143E1,1.4634628E1,1.218306E1,7.1998944E0,0E0,0E0,0E0,0E0,0E0,0E0,0E0,0E0,0E0,0E0,0E0,0E0,0E0,0E0,0E0,0E0,0E0,0E0,0E0,0E0,0E0,0E0,0E0,0E0,0E0,0E0,0E0,0E0],"parents":[2147483647,0,0,1,1,2,2,3,3,4,4,5,5,6,6,7,7,8,8,9,9,10,10,12,12,13,13,14,14,15,15,16,16,17,17,18,18,19,19,20,20,21,21,22,22,23,23,24,24,25,25,26,26,27,27,28,28],"right_children":[2,4,6,8,10,12,14,16,18,20,22,-1,24,26,28,30,32,34,36,38,40,42,44,46,48,50,52,54,56,-1,-1,-1,-1,-1,-1,-1,-1,-1,-1,-1,-1,-1,-1,-1,-1,-1,-1,-1,-1,-1,-1,-1,-1,-1,-1,-1,-1],"split_conditions":[4E0,5.133333E0,5E0,3.6E-1,3E0,-4.4E0,1E0,1.6349467E0,1.9628796E-1,4.9E1,1E-1,3.5E-2,7.8809105E-2,9.281E1,5.390805E0,3.6E1,2.6024438E-3,3.1836834E-2,-1.6962904E-2,2.3523657E-1,-1.6342685E-2,6.490015E-2,2.0352039E-1,8.037825E-1,9.4717294E-2,1.221247E-2,3.0554956E-1,4.6363635E0,3.3293515E-1,-5.246749E-3,1.4798946E-3,6.242734E-3,3.5E-2,-2.2792236E-3,2.3194013E-2,4.851206E-3,-4.6123876E-3,-1.7886853E-2,3.8632103E-3,-8.889027E-3,-4.6811183E-3,4.3896944E-3,3.5E-2,-4.5878515E-3,3.608695E-3,5.5427714E-3,-3.291788E-3,2.6098205E-2,-1.60533E-3,1.8019419E-3,3.5E-2,3.5E-2,2.1961149E-2,7.266082E-3,1.6716806E-2,5.53872E-3,-8.813943E-3],"split_indices":[175,95,175,30,175,123,72,201,49,161,30,0,129,106,95,166,76,133,174,7,133,38,7,116,61,174,22,94,130,0,0,0,0,0,0,0,0,0,0,0,0,0,0,0,0,0,0,0,0,0,0,0,0,0,0,0,0],"split_type":[0,0,0,0,0,0,0,0,0,0,0,0,0,0,0,0,0,0,0,0,0,0,0,0,0,0,0,0,0,0,0,0,0,0,0,0,0,0,0,0,0,0,0,0,0,0,0,0,0,0,0,0,0,0,0,0,0],"sum_hessian":[3.399099E4,2.6729918E4,7.261068E3,1.5076209E4,1.165371E4,4.3775874E3,2.8834805E3,9.470609E3,5.6055996E3,7.6514487E3,4.002261E3,3.4091545E1,4.3434956E3,6.6786743E2,2.215613E3,9.345368E3,1.25241264E2,7.95741E2,4.809859E3,3.042354E2,7.3472134E3,3.5657083E2,3.6456902E3,4.0823896E3,2.6110593E2,1.6562854E2,5.0223886E2,1.8595798E3,3.560333E2,8.198766E2,8.525491E3,8.025738E1,4.498388E1,6.09856E2,1.8588498E2,4.395196E2,4.370339E3,2.8345865E2,2.0776764E1,2.4879734E3,4.8592397E3,3.249811E2,3.1589725E1,3.132419E3,5.1327136E2,3.392741E3,6.896486E2,2.0075417E2,6.0351757E1,1.4262207E2,2.3006462E1,1.5862065E2,3.4361823E2,4.5311035E2,1.4064695E3,2.0562646E2,1.5040683E2],"tree_param":{"num_deleted":"0","num_feature":"204","num_nodes":"57","size_leaf_vector":"1"}},{"base_weights":[-1.0288486E-3,-4.9635805E-2,1.8168616E-1,-6.5650837E-3,-1.0652636E-1,2.844837E-1,1.0970539E-1,-4.854526E-2,4.0469166E-2,-1.7939746E-1,-8.703809E-2,2.4342604E-1,5.5571514E-1,7.618751E-2,2.5588974E-1,-4.971876E-2,3.5E-2,1.8773594E-1,1.8504195E-2,3.9847744E-1,-1.8689537E-1,3.266057E-1,-9.158023E-2,1.8829298E-1,4.0259686E-1,6.2884825E-1,1.7783332E-1,4.6944685E-2,2.9523617E-1,4.9091044E-1,1.1699407E-1,-4.5309835E-3,-7.735617E-4,1.7866016E-3,1.4330427E-2,5.4704177E-4,1.8756874E-2,8.7744715E-3,3.5E-2,-1.0510662E-2,-2.4186363E-3,3.5E-2,1.784942E-3,-1.0682127E-2,-3.9329655E-3,1.2323334E-2,2.3979377E-3,1.7144835E-3,2.383768E-2,3.475031E-2,1.1396362E-2,2.0142836E-2,-5.2540903E-3,2.561811E-2,1.5756552E-3,3.2772068E-2,1.1371096E-2,1.0390817E-2,3.4346446E-2,4.113564E-3,3.5E-2],"categories":[],"categories_nodes":[],"categories_segments":[],"categories_sizes":[],"default_left":[0,0,0,0,0,0,0,0,0,0,0,0,0,0,0,0,0,0,0,0,0,0,0,0,0,0,0,0,0,0,0,0,0,0,0,0,0,0,0,0,0,0,0,0,0,0,0,0,0,0,0,0,0,0,0,0,0,0,0,0,0],"id":5,"left_children":[1,3,5,7,9,11,13,15,17,19,21,23,25,27,29,31,-1,33,35,37,39,41,43,45,47,49,51,53,55,57,59,-1,-1,-1,-1,-1,-1,-1,-1,-1,-1,-1,-1,-1,-1,-1,-1,-1,-1,-1,-1,-1,-1,-1,-1,-1,-1,-1,-1,-1,-1],"loss_changes":[3.044361E2,6.63435E1,5.3266037E1,3.0430254E1,1.655188E1,3.2892258E1,2.0746109E1,1.0753571E1,2.3507507E1,1.0736244E1,1.7327324E1,2.2544617E1,1.0642418E1,2.2079092E1,2.5732613E1,1.1397615E1,0E0,1.4166119E1,1.7059517E1,2.5495882E0,7.8383102E0,1.5795508E1,1.4346817E1,1.5633179E1,1.8071732E1,8.479141E0,4.148243E0,2.184614E1,9.768841E0,1.6125313E1,1.386644E1,0E0,0E0,0E0,0E0,0E0,0E0,0E0,0E0,0E0,0E0,0E0,0E0,0E0,0E0,0E0,0E0,0E0,0E0,0E0,0E0,0E0,0E0,0E0,0E0,0E0,0E0,0E0,0E0,0E0,0E0],"parents":[2147483647,0,0,1,1,2,2,3,3,4,4,5,5,6,6,7,7,8,8,9,9,10,10,11,11,12,12,13,13,14,14,15,15,17,17,18,18,19,19,20,20,21,21,22,22,23,23,24,24,25,25,26,26,27,27,28,28,29,29,30,30],"right_children":[2,4,6,8,10,12,14,16,18,20,22,24,26,28,30,32,-1,34,36,38,40,42,44,46,48,50,52,54,56,58,60,-1,-1,-1,-1,-1,-1,-1,-1,-1,-1,-1,-1,-1,-1,-1,-1,-1,-1,-1,-1,-1,-1,-1,-1,-1,-1,-1,-1,-1,-1],"split_conditions":[4E0,5.133333E0,4.9139786E0,1.0008235E-1,2E0,6E0,1.1333333E0,3.314E-1,4.3095236E0,2.8985508E-2,1E-1,2.8217E-1,2.902269E-1,4E0,2.5554138E-1,3.2949707E-1,3.5E-2,1.2261693E0,3.713904E-1,9E0,2.0183332E1,9.584E1,2.7859503E-1,1.0638298E-1,-4.1896522E-2,6.2E-1,3.185E-1,1.8585695E-1,2.6E1,7.758215E-2,1.07E2,-4.5309835E-3,-7.735617E-4,1.7866016E-3,1.4330427E-2,5.4704177E-4,1.8756874E-2,8.7744715E-3,3.5E-2,-1.0510662E-2,-2.4186363E-3,3.5E-2,1.784942E-3,-1.0682127E-2,-3.9329655E-3,1.2323334E-2,2.3979377E-3,1.7144835E-3,2.383768E-2,3.475031E-2,1.1396362E-2,2.0142836E-2,-5.2540903E-3,2.561811E-2,1.5756552E-3,3.2772068E-2,1.1371096E-2,1.0390817E-2,3.4346446E-2,4.113564E-3,3.5E-2],"split_indices":[175,95,95,184,175,175,121,111,95,129,157,53,49,177,148,103,0,196,128,0,78,106,66,102,37,15,111,55,10,60,166,0,0,0,0,0,0,0,0,0,0,0,0,0,0,0,0,0,0,0,0,0,0,0,0,0,0,0,0,0,0],"split_type":[0,0,0,0,0,0,0,0,0,0,0,0,0,0,0,0,0,0,0,0,0,0,0,0,0,0,0,0,0,0,0,0,0,0,0,0,0,0,0,0,0,0,0,0,0,0,0,0,0,0,0,0,0,0,0,0,0,0,0,0,0],"sum_hessian":[3.427662E4,2.7074758E4,7.2018633E3,1.5409581E4,1.1665177E4,2.9648027E3,4.2370605E3,8.142238E3,7.2673438E3,2.4596763E3,9.2055E3,2.5766584E3,3.8814417E2,3.4480056E3,7.890549E2,8.1367686E3,5.4689684E0,9.4226544E2,6.3250786E3,3.0837528E1,2.4288386E3,9.92156E1,9.106285E3,1.9153939E3,6.6126465E2,3.2464923E2,6.3494938E1,3.042984E3,4.0502155E2,2.9216235E2,4.9689252E2,3.7074336E3,4.429335E3,3.7189145E2,5.7037396E2,6.1947334E3,1.3034518E2,2.05699E1,1.0267628E1,2.0784504E3,3.5038815E2,3.164962E1,6.756598E1,8.7018884E2,8.236096E3,1.353544E3,5.618499E2,1.1107269E2,5.5019196E2,2.7803574E2,4.6613506E1,3.5129715E1,2.836522E1,9.66231E1,2.9463608E3,6.279764E1,3.422239E2,1.2037476E2,1.717876E2,4.80115E2,1.6777533E1],"tree_param":{"num_deleted":"0","num_feature":"204","num_nodes":"61","size_leaf_vector":"1"}},{"base_weights":[1.8285458E-3,-4.4907093E-2,1.7412436E-1,8.192619E-3,-9.580154E-2,1.4092419E-1,4.0151697E-1,4.987657E-2,-4.029827E-2,-7.5561725E-2,-1.7074698E-1,2.3247574E-1,7.4539006E-2,5.444142E-1,2.6784486E-1,4.1429207E-2,3.773958E-1,-8.034743E-2,2.791107E-2,-2.7848454E-2,-1.1346659E-1,-2.209016E-1,-1.0048697E-1,1.952463E-1,4.37495E-1,7.7419356E-3,1.8503885E-1,4.037908E-1,7E-1,6.1244416E-1,1.952602E-1,1.6925251E-3,1.5261419E-2,2.9371126E-2,5.011942E-3,-4.5206966E-3,1.5738182E-2,1.5924426E-2,-3.653757E-4,-3.0331379E-3,3.431176E-3,-7.3533156E-3,-1.683997E-3,-5.6778393E-3,-1.2934081E-2,-5.8513954E-3,3.5E-2,3.0511914E-2,9.0351505E-3,2.7077977E-2,5.824714E-4,-2.993558E-3,4.389459E-3,6.2854225E-3,2.3152871E-2,1.7547648E-2,3.5E-2,3.5E-2,-1.359445E-2,3.5E-2,5.451038E-3,4.333708E-3,1.9890962E-2],"categories":[],"categories_nodes":[],"categories_segments":[],"categories_sizes":[],"default_left":[0,0,0,0,0,0,0,0,0,0,0,0,0,0,0,0,0,0,0,0,0,0,0,0,0,0,0,0,0,0,0,0,0,0,0,0,0,0,0,0,0,0,0,0,0,0,0,0,0,0,0,0,0,0,0,0,0,0,0,0,0,0,0],"id":6,"left_children":[1,3,5,7,9,11,13,15,17,19,21,23,25,27,29,31,33,35,37,39,41,43,45,47,49,51,53,55,57,59,61,-1,-1,-1,-1,-1,-1,-1,-1,-1,-1,-1,-1,-1,-1,-1,-1,-1,-1,-1,-1,-1,-1,-1,-1,-1,-1,-1,-1,-1,-1,-1,-1],"loss_changes":[2.7539423E2,7.270558E1,5.50356E1,2.6616701E1,2.0824226E1,3.869326E1,1.7602768E1,1.9575188E1,1.6630726E1,1.956131E1,1.0268013E1,2.0345337E1,2.7261168E1,1.2000778E1,1.1937855E1,1.3792694E1,1.0297764E1,1.5283865E1,2.3055132E1,1.5169348E1,1.6155365E1,6.877228E0,1.8293274E1,1.3572891E1,1.8187843E1,1.2469979E1,2.2894913E1,5.5679665E0,5.801277E0,7.230894E0,8.75587E0,0E0,0E0,0E0,0E0,0E0,0E0,0E0,0E0,0E0,0E0,0E0,0E0,0E0,0E0,0E0,0E0,0E0,0E0,0E0,0E0,0E0,0E0,0E0,0E0,0E0,0E0,0E0,0E0,0E0,0E0,0E0,0E0],"parents":[2147483647,0,0,1,1,2,2,3,3,4,4,5,5,6,6,7,7,8,8,9,9,10,10,11,11,12,12,13,13,14,14,15,15,16,16,17,17,18,18,19,19,20,20,21,21,22,22,23,23,24,24,25,25,26,26,27,27,28,28,29,29,30,30],"right_children":[2,4,6,8,10,12,14,16,18,20,22,24,26,28,30,32,34,36,38,40,42,44,46,48,50,52,54,56,58,60,62,-1,-1,-1,-1,-1,-1,-1,-1,-1,-1,-1,-1,-1,-1,-1,-1,-1,-1,-1,-1,-1,-1,-1,-1,-1,-1,-1,-1,-1,-1,-1,-1],"split_conditions":[4E0,3.2E-1,6E0,4.9569893E0,7.8E-1,4.9166665E0,4.977778E0,7.600296E-1,3E0,3.0592632E-1,1.2830201E0,6.743738E-2,7.31065E-3,1.970775E-4,-1.3574076E-2,3.259E-1,3.0727297E-1,1.06E2,5.6E1,3.227E-1,1.9166666E1,3.184E-1,1.1764706E-1,-2.9333334E0,1.03935175E-1,1E0,4.8626643E-1,3.135035E-2,2.796155E-1,1.6638632E0,2.7015027E-1,1.6925251E-3,1.5261419E-2,2.9371126E-2,5.011942E-3,-4.5206966E-3,1.5738182E-2,1.5924426E-2,-3.653757E-4,-3.0331379E-3,3.431176E-3,-7.3533156E-3,-1.683997E-3,-5.6778393E-3,-1.2934081E-2,-5.8513954E-3,3.5E-2,3.0511914E-2,9.0351505E-3,2.7077977E-2,5.824714E-4,-2.993558E-3,4.389459E-3,6.2854225E-3,2.3152871E-2,1.7547648E-2,3.5E-2,3.5E-2,-1.359445E-2,3.5E-2,5.451038E-3,4.333708E-3,1.9890962E-2],"split_indices":[175,33,175,95,33,95,95,122,175,22,195,129,134,174,120,111,70,163,166,108,78,111,118,123,21,29,5,71,2,149,49,0,0,0,0,0,0,0,0,0,0,0,0,0,0,0,0,0,0,0,0,0,0,0,0,0,0,0,0,0,0,0,0],"split_type":[0,0,0,0,0,0,0,0,0,0,0,0,0,0,0,0,0,0,0,0,0,0,0,0,0,0,0,0,0,0,0,0,0,0,0,0,0,0,0,0,0,0,0,0,0,0,0,0,0,0,0,0,0,0,0,0,0,0,0,0,0,0,0],"sum_hessian":[3.4198484E4,2.6901994E4,7.2964893E3,1.316617E4,1.3735825E4,6.3683115E3,9.281777E2,7.08E3,6.0861694E3,1.0816676E4,2.9191494E3,2.6757258E3,3.6925857E3,4.4712372E2,4.8105396E2,6.9030825E3,1.7691756E2,3.834539E3,2.2516306E3,4.789527E3,6.0271484E3,1.7020261E3,1.2171232E3,2.2661653E3,4.095606E2,2.3020613E3,1.3905243E3,2.6499615E2,1.8212756E2,8.2403175E1,3.9865076E2,6.7113984E3,1.916839E2,1.0001088E2,7.690668E1,3.7400232E3,9.4515724E1,2.4253204E2,2.0090985E3,3.5741685E3,1.2153585E3,4.2405337E3,1.786615E3,4.4412762E2,1.2578986E3,1.1964384E3,2.068488E1,7.5341515E1,2.1908237E3,3.2891214E2,8.064847E1,1.248093E3,1.0539684E3,1.1471661E3,2.4335822E2,2.40283E2,2.4713146E1,1.7646707E2,5.6604795E0,5.946586E1,2.2937317E1,2.6045584E2,1.3819495E2],"tree_param":{"num_deleted":"0","num_feature":"204","num_nodes":"63","size_leaf_vector":"1"}},{"base_weights":[-2.22036E-3,-4.756036E-2,1.5914042E-1,1.6266253E-3,-1.047767E-1,1.2932011E-1,3.629219E-1,5.4765206E-2,-3.1972855E-2,-8.702172E-2,-1.75892E-1,6.1800316E-2,2.0031376E-1,5.015579E-1,2.2963563E-1,4.3861948E-2,3.7504476E-1,-5.974924E-2,2.3880986E-2,-1.0564337E-1,-2.9927115E-3,-7.663437E-2,-2.3647705E-1,1.723517E-2,2.1312034E-1,1.4654815E-1,3.2036442E-1,5.896329E-1,2.9651886E-1,1.6426802E-1,6.015115E-1,-7.874177E-5,5.9125023E-3,-2.4032972E-3,3.2467987E-2,-3.1678446E-3,3.5E-2,-1.309026E-3,6.3236575E-3,-5.456248E-3,1.882329E-2,-2.5780406E-3,6.4295395E-3,-8.6909905E-3,4.478525E-3,-1.2009725E-2,3.5E-2,6.8186275E-3,-2.071575E-3,8.635491E-3,3.5E-2,4.8473054E-3,1.3929707E-2,2.2190941E-2,7.951252E-3,3.5E-2,1.765762E-2,9.367777E-3,2.9333672E-2,3.3009052E-3,1.785439E-2,3.5E-2,3.740164E-3],"categories":[],"categories_nodes":[],"categories_segments":[],"categories_sizes":[],"default_left":[0,0,0,0,0,0,0,0,0,0,0,0,0,0,0,0,0,0,0,0,0,0,0,0,0,0,0,0,0,0,0,0,0,0,0,0,0,0,0,0,0,0,0,0,0,0,0,0,0,0,0,0,0,0,0,0,0,0,0,0,0,0,0],"id":7,"left_children":[1,3,5,7,9,11,13,15,17,19,21,23,25,27,29,31,33,35,37,39,41,43,45,47,49,51,53,55,57,59,61,-1,-1,-1,-1,-1,-1,-1,-1,-1,-1,-1,-1,-1,-1,-1,-1,-1,-1,-1,-1,-1,-1,-1,-1,-1,-1,-1,-1,-1,-1,-1,-1],"loss_changes":[2.486526E2,7.466896E1,4.5256393E1,2.5476278E1,1.5470978E1,3.1169044E1,1.7459938E1,1.9285486E1,1.3563433E1,1.5360207E1,1.4711243E1,2.248962E1,2.0417145E1,8.229027E0,1.1733704E1,1.807109E1,2.1136492E1,2.2262032E1,1.4918635E1,1.3529076E1,1.139386E1,1.5035351E1,5.4715347E0,1.8022503E1,1.6341827E1,1.4327469E1,1.9446342E1,8.22773E0,4.382865E0,7.845355E0,5.9881935E0,0E0,0E0,0E0,0E0,0E0,0E0,0E0,0E0,0E0,0E0,0E0,0E0,0E0,0E0,0E0,0E0,0E0,0E0,0E0,0E0,0E0,0E0,0E0,0E0,0E0,0E0,0E0,0E0,0E0,0E0,0E0,0E0],"parents":[2147483647,0,0,1,1,2,2,3,3,4,4,5,5,6,6,7,7,8,8,9,9,10,10,11,11,12,12,13,13,14,14,15,15,16,16,17,17,18,18,19,19,20,20,21,21,22,22,23,23,24,24,25,25,26,26,27,27,28,28,29,29,30,30],"right_children":[2,4,6,8,10,12,14,16,18,20,22,24,26,28,30,32,34,36,38,40,42,44,46,48,50,52,54,56,58,60,62,-1,-1,-1,-1,-1,-1,-1,-1,-1,-1,-1,-1,-1,-1,-1,-1,-1,-1,-1,-1,-1,-1,-1,-1,-1,-1,-1,-1,-1,-1,-1,-1],"split_conditions":[4E0,3.7E-1,6E0,4.770115E0,8E-1,1E0,4.977778E0,1.3797534E0,3.212879E-1,3.2824123E-1,-1.4E1,3.2422605E-1,7.96E1,4.4373885E-1,3.6842105E-1,8.5E1,1.0008E2,4.3E1,5E0,3.6782867E-1,8.07E1,8.5E-2,7.056E0,3.446015E-1,3.22E2,6.2271062E-2,1.5080461E3,6.0768584E-3,2.92E2,1.18701E0,1.0714286E-1,-7.874177E-5,5.9125023E-3,-2.4032972E-3,3.2467987E-2,-3.1678446E-3,3.5E-2,-1.309026E-3,6.3236575E-3,-5.456248E-3,1.882329E-2,-2.5780406E-3,6.4295395E-3,-8.6909905E-3,4.478525E-3,-1.2009725E-2,3.5E-2,6.8186275E-3,-2.071575E-3,8.635491E-3,3.5E-2,4.8473054E-3,1.3929707E-2,2.2190941E-2,7.951252E-3,3.5E-2,1.765762E-2,9.367777E-3,2.9333672E-2,3.3009052E-3,1.785439E-2,3.5E-2,3.740164E-3],"split_indices":[175,33,175,95,33,29,95,201,46,47,173,46,85,52,97,166,106,9,1,56,85,102,191,23,87,129,140,188,87,169,159,0,0,0,0,0,0,0,0,0,0,0,0,0,0,0,0,0,0,0,0,0,0,0,0,0,0,0,0,0,0,0,0],"split_type":[0,0,0,0,0,0,0,0,0,0,0,0,0,0,0,0,0,0,0,0,0,0,0,0,0,0,0,0,0,0,0,0,0,0,0,0,0,0,0,0,0,0,0,0,0,0,0,0,0,0,0,0,0,0,0,0,0,0,0,0,0,0,0],"sum_hessian":[3.398502E4,2.6530926E4,7.4540933E3,1.4267018E4,1.2263908E4,6.5039707E3,9.5012244E2,5.5263306E3,8.740687E3,9.815538E3,2.44837E3,3.3345024E3,3.1694685E3,4.6436066E2,4.8576178E2,5.345491E3,1.8083928E2,5.837567E3,2.90312E3,8.0347114E3,1.7808269E3,9.288624E2,1.5195076E3,2.576742E3,7.5776044E2,2.1906082E3,9.788603E2,3.2351727E2,1.4084338E2,4.1436688E2,7.139488E1,3.319125E3,2.0263665E3,7.1453026E1,1.0938625E2,5.8215557E3,1.6011168E1,1.9515664E3,9.515536E2,7.977872E3,5.6839207E1,1.3011678E3,4.796591E2,5.8610297E2,3.4275943E2,1.5142516E3,5.2560344E0,8.4976215E2,1.7269797E3,7.0645557E2,5.130487E1,1.5936865E3,5.9692163E2,5.535452E2,4.253151E2,2.1919467E2,1.0432259E2,1.0353621E2,3.730718E1,2.7538757E2,1.3897932E2,5.402457E1,1.737031E1],"tree_param":{"num_deleted":"0","num_feature":"204","num_nodes":"63","size_leaf_vector":"1"}},{"base_weights":[-1.4148175E-4,-4.33952E-2,1.5505536E-1,2.3058183E-3,-1.0176801E-1,2.4909185E-1,8.572689E-2,5.995352E-2,-2.5892295E-2,-7.99301E-2,-1.6541344E-1,2.1175422E-1,4.5712614E-1,2.7996626E-2,1.8238537E-1,-1.3234704E-2,1.1917417E-1,3.6322696E-3,-7.9763666E-2,-3.430211E-2,-1.19204484E-1,-8.981131E-2,-2.072492E-1,3.0924076E-1,1.18983254E-1,6.84336E-1,3.2750466E-1,-1.8133476E-3,2.3206124E-1,1.283296E-1,4.258634E-1,-1.6098265E-3,2.2642097E-2,3.7773885E-3,1.4714993E-2,-1.4633279E-3,3.252775E-3,-4.4074017E-3,1.0535799E-2,-1.9348748E-3,3.5E-2,-7.237752E-3,-1.84995E-3,-5.3586215E-3,2.3556491E-2,-1.1036335E-2,3.4980525E-3,2.9720073E-3,1.926151E-2,2.4692253E-3,1.2752347E-2,3.5E-2,2.956633E-4,9.743974E-3,2.4244493E-2,-7.0056072E-3,1.6497383E-3,8.05718E-3,3.5E-2,8.201423E-3,-8.841897E-3,3.5E-2,1.0685886E-2],"categories":[],"categories_nodes":[],"categories_segments":[],"categories_sizes":[],"default_left":[0,0,0,0,0,0,0,0,0,0,0,0,0,0,0,0,0,0,0,0,0,0,0,0,0,0,0,0,0,0,0,0,0,0,0,0,0,0,0,0,0,0,0,0,0,0,0,0,0,0,0,0,0,0,0,0,0,0,0,0,0,0,0],"id":8,"left_children":[1,3,5,7,9,11,13,15,17,19,21,23,25,27,29,31,33,35,37,39,41,43,45,47,49,51,53,55,57,59,61,-1,-1,-1,-1,-1,-1,-1,-1,-1,-1,-1,-1,-1,-1,-1,-1,-1,-1,-1,-1,-1,-1,-1,-1,-1,-1,-1,-1,-1,-1,-1,-1],"loss_changes":[2.3123712E2,7.186536E1,4.8926132E1,2.456453E1,1.6428444E1,2.4648056E1,2.4119286E1,2.1515556E1,1.6140652E1,1.578252E1,9.536667E0,2.4407066E1,1.4027222E1,1.6472795E1,2.1219582E1,1.964257E1,2.0940376E1,1.3250239E1,8.768433E0,1.7462875E1,9.937775E0,1.0548532E1,7.278778E0,2.4981949E1,1.3117535E1,8.571671E0,6.3769264E0,1.1383327E1,1.1562248E1,1.4454742E1,1.6922218E1,0E0,0E0,0E0,0E0,0E0,0E0,0E0,0E0,0E0,0E0,0E0,0E0,0E0,0E0,0E0,0E0,0E0,0E0,0E0,0E0,0E0,0E0,0E0,0E0,0E0,0E0,0E0,0E0,0E0,0E0,0E0,0E0],"parents":[2147483647,0,0,1,1,2,2,3,3,4,4,5,5,6,6,7,7,8,8,9,9,10,10,11,11,12,12,13,13,14,14,15,15,16,16,17,17,18,18,19,19,20,20,21,21,22,22,23,23,24,24,25,25,26,26,27,27,28,28,29,29,30,30],"right_children":[2,4,6,8,10,12,14,16,18,20,22,24,26,28,30,32,34,36,38,40,42,44,46,48,50,52,54,56,58,60,62,-1,-1,-1,-1,-1,-1,-1,-1,-1,-1,-1,-1,-1,-1,-1,-1,-1,-1,-1,-1,-1,-1,-1,-1,-1,-1,-1,-1,-1,-1,-1,-1],"split_conditions":[4E0,3.9E-1,4.9166665E0,4.6896553E0,7.7E-1,6E0,7.31065E-3,7.228878E0,7.668067E-1,3.0592632E-1,-1.6E1,1.9018038E-1,-1.548472E1,6E0,4.8626643E-1,1.0967716E-1,2E0,3E0,2.52588E-1,4E-1,1.9266666E1,1.1744966E-1,2.1683332E1,2.8660035E-1,8.576642E-2,5.6E1,1.3359388E0,4.65E0,4.3E0,4.1E0,2.744561E-1,-1.6098265E-3,2.2642097E-2,3.7773885E-3,1.4714993E-2,-1.4633279E-3,3.252775E-3,-4.4074017E-3,1.0535799E-2,-1.9348748E-3,3.5E-2,-7.237752E-3,-1.84995E-3,-5.3586215E-3,2.3556491E-2,-1.1036335E-2,3.4980525E-3,2.9720073E-3,1.926151E-2,2.4692253E-3,1.2752347E-2,3.5E-2,2.956633E-4,9.743974E-3,2.4244493E-2,-7.0056072E-3,1.6497383E-3,8.05718E-3,3.5E-2,8.201423E-3,-8.841897E-3,3.5E-2,1.0685886E-2],"split_indices":[175,33,95,95,33,175,134,141,116,22,173,20,141,175,5,50,40,175,43,102,78,118,78,66,119,28,196,94,191,191,65,0,0,0,0,0,0,0,0,0,0,0,0,0,0,0,0,0,0,0,0,0,0,0,0,0,0,0,0,0,0,0,0],"split_type":[0,0,0,0,0,0,0,0,0,0,0,0,0,0,0,0,0,0,0,0,0,0,0,0,0,0,0,0,0,0,0,0,0,0,0,0,0,0,0,0,0,0,0,0,0,0,0,0,0,0,0,0,0,0,0,0,0,0,0,0,0,0,0],"sum_hessian":[3.4444984E4,2.6938018E4,7.506967E3,1.5109504E4,1.1828514E4,3.1846904E3,4.3222764E3,4.9627085E3,1.0146796E4,8.808434E3,3.0200796E3,2.701795E3,4.8289542E2,2.706864E3,1.6154124E3,2.219948E3,2.7427605E3,6.55514E3,3.5916555E3,4.075498E3,4.7329355E3,1.0769857E3,1.9430939E3,1.3162776E3,1.3855175E3,1.7386058E2,3.0903482E2,2.3627083E3,3.441558E2,1.3231748E3,2.9223755E2,2.1340571E3,8.58909E1,2.1969092E3,5.458513E2,4.269097E3,2.2860427E3,3.491572E3,1.0008363E2,4.060031E3,1.5467138E1,3.6101064E3,1.1228293E3,1.0454384E3,3.1547373E1,1.8531982E3,8.989563E1,3.0743298E2,1.0088446E3,9.1754266E2,4.679748E2,1.5596185E2,1.7898731E1,1.6892418E2,1.4011064E2,4.7448203E2,1.8882262E3,3.0079086E2,4.336493E1,1.1850131E3,1.381617E2,1.2641214E2,1.658254E2],"tree_param":{"num_deleted":"0","num_feature":"204","num_nodes":"63","size_leaf_vector":"1"}},{"base_weights":[3.9675502E-5,-2.5167404E-2,2.6003143E-1,2.6899492E-2,-7.981565E-2,3.458803E-1,1.8563499E-1,-2.1076597E-2,8.331291E-2,-9.441349E-2,1.2963327E-2,2.4505043E-2,3.8046327E-1,1.6889644E-1,7E-1,2.623172E-2,-7.004585E-2,2.7064407E-2,1.2831925E-1,-7.793717E-2,-1.7046481E-1,2.3693728E-1,-2.4320683E-2,3.7743667E-1,-7.9739474E-2,4.2490014E-1,1.5605687E-1,1.5022883E-1,6.374852E-1,3.5E-2,2.099184E-2,-1.9851883E-3,3.7254987E-3,-2.3591358E-3,-1.0914608E-2,-1.2955022E-3,9.554236E-3,2.3569958E-3,9.842089E-3,-3.0926194E-3,-8.553207E-3,-1.1454772E-2,-3.80863E-3,2.1921601E-2,-2.7755534E-3,7.424743E-3,-2.9079316E-3,2.3705265E-2,-6.267145E-4,-8.082613E-3,1.4544557E-2,2.2607036E-2,2.4436119E-3,2.4525824E-3,2.2247706E-2,4.1223164E-3,1.4018448E-2,5.1202294E-3,3.5E-2],"categories":[],"categories_nodes":[],"categories_segments":[],"categories_sizes":[],"default_left":[0,0,0,0,0,0,0,0,0,0,0,0,0,0,0,0,0,0,0,0,0,0,0,0,0,0,0,0,0,0,0,0,0,0,0,0,0,0,0,0,0,0,0,0,0,0,0,0,0,0,0,0,0,0,0,0,0,0,0],"id":9,"left_children":[1,3,5,7,9,11,13,15,17,19,21,23,25,27,29,31,33,35,37,39,41,43,45,47,49,51,53,55,57,-1,-1,-1,-1,-1,-1,-1,-1,-1,-1,-1,-1,-1,-1,-1,-1,-1,-1,-1,-1,-1,-1,-1,-1,-1,-1,-1,-1,-1,-1],"loss_changes":[2.2398143E2,8.86523E1,1.9228394E1,4.3185417E1,2.058966E1,1.5564224E1,1.7746937E1,1.9979235E1,1.856075E1,1.6445366E1,1.7270803E1,5.0780582E0,1.2548492E1,1.3765076E1,4.946785E-1,1.3967254E1,1.4352461E1,2.8337336E1,2.2649567E1,1.6163818E1,1.290844E1,1.7416376E1,1.0378773E1,1.1919141E0,3.2877636E0,1.07881775E1,6.490935E0,1.3430679E1,7.9168816E0,0E0,0E0,0E0,0E0,0E0,0E0,0E0,0E0,0E0,0E0,0E0,0E0,0E0,0E0,0E0,0E0,0E0,0E0,0E0,0E0,0E0,0E0,0E0,0E0,0E0,0E0,0E0,0E0,0E0,0E0],"parents":[2147483647,0,0,1,1,2,2,3,3,4,4,5,5,6,6,7,7,8,8,9,9,10,10,11,11,12,12,13,13,14,14,15,15,16,16,17,17,18,18,19,19,20,20,21,21,22,22,23,23,24,24,25,25,26,26,27,27,28,28],"right_children":[2,4,6,8,10,12,14,16,18,20,22,24,26,28,30,32,34,36,38,40,42,44,46,48,50,52,54,56,58,-1,-1,-1,-1,-1,-1,-1,-1,-1,-1,-1,-1,-1,-1,-1,-1,-1,-1,-1,-1,-1,-1,-1,-1,-1,-1,-1,-1,-1,-1],"split_conditions":[5E0,3.3E-1,4.9259257E0,3E0,4E0,-2.5426395E-2,4.92712E-1,4.8850574E0,1E0,8E-1,-1.6622894E-2,-5.5555556E-2,4.5616668E-1,4.814815E-1,3.530287E-1,-2.3545502E-2,3.316004E-1,3.2652324E-1,9.98E-1,3.3800444E-1,1.3021203E0,3.0843723E-1,2.702531E-1,9.44E1,2.59E2,1.2825944E-1,3.408458E-1,1E0,-6.156666E-2,3.5E-2,2.099184E-2,-1.9851883E-3,3.7254987E-3,-2.3591358E-3,-1.0914608E-2,-1.2955022E-3,9.554236E-3,2.3569958E-3,9.842089E-3,-3.0926194E-3,-8.553207E-3,-1.1454772E-2,-3.80863E-3,2.1921601E-2,-2.7755534E-3,7.424743E-3,-2.9079316E-3,2.3705265E-2,-6.267145E-4,-8.082613E-3,1.4544557E-2,2.2607036E-2,2.4436119E-3,2.4525824E-3,2.2247706E-2,4.1223164E-3,1.4018448E-2,5.1202294E-3,3.5E-2],"split_indices":[175,33,95,175,175,120,62,95,29,33,120,45,52,97,23,126,57,46,74,22,195,57,47,8,87,37,100,29,71,0,0,0,0,0,0,0,0,0,0,0,0,0,0,0,0,0,0,0,0,0,0,0,0,0,0,0,0,0,0],"split_type":[0,0,0,0,0,0,0,0,0,0,0,0,0,0,0,0,0,0,0,0,0,0,0,0,0,0,0,0,0,0,0,0,0,0,0,0,0,0,0,0,0,0,0,0,0,0,0,0,0,0,0,0,0,0,0,0,0,0,0],"sum_hessian":[3.417468E4,3.1155E4,3.0196794E3,1.5954566E4,1.5200435E4,1.4002401E3,1.6194393E3,8.622389E3,7.3321777E3,1.3133925E4,2.0665093E3,1.3620573E2,1.2640343E3,1.5835613E3,3.5878044E1,4.3858057E3,4.2365835E3,3.259761E3,4.0724165E3,1.0796843E4,2.3370823E3,2.9414645E2,1.7723629E3,3.0459833E1,1.057459E2,1.0543575E3,2.0967683E2,1.5241624E3,5.9398876E1,2.4332968E1,1.1545076E1,1.8539591E3,2.5318464E3,3.6716458E3,5.649377E2,2.4645994E3,7.9516174E2,1.8648259E3,2.2075906E3,9.208095E3,1.5887478E3,1.4401633E3,8.9691907E2,1.7385942E2,1.20287025E2,2.8965625E2,1.4827067E3,2.4236244E1,6.223589E0,8.706711E1,1.8678791E1,9.829475E2,7.141001E1,1.5385863E2,5.5818214E1,1.003257E3,5.2090533E2,2.3201721E1,3.6197155E1],"tree_param":{"num_deleted":"0","num_feature":"204","num_nodes":"59","size_leaf_vector":"1"}},{"base_weights":[-8.964892E-4,-4.3318965E-2,1.4988701E-1,2.0685322E-3,-1.0182372E-1,8.916166E-2,2.4186881E-1,4.809806E-2,-3.9038643E-2,-8.017142E-2,-1.7028055E-1,4.892317E-2,2.0470668E-1,2.7661645E-1,7.26159E-2,3.4550633E-2,3.553865E-1,-2.8888261E-2,-1.8203574E-1,-3.906836E-2,-1.16910785E-1,4.936391E-2,-1.9469585E-1,3.7987277E-2,3.7378561E-1,7.8960635E-2,3.6614293E-1,1.6679499E-1,3.3256063E-1,5.5378866E-1,1.993424E-2,-1.7044134E-3,3.1611794E-3,7.5507755E-3,3.5E-2,-5.377731E-3,-5.182506E-4,-1.0713311E-2,7.2319E-3,-2.166994E-3,3.5E-2,-7.443303E-3,-8.757206E-4,-4.9470547E-3,2.3548553E-2,-1.4546873E-2,-7.855377E-3,6.3645295E-3,-7.674769E-4,-1.6421039E-3,2.8210541E-2,1.8655393E-2,-4.2881267E-4,2.187802E-2,-2.2100497E-3,3.474282E-3,1.49038015E-2,2.5940925E-2,1.3505444E-2,3.4003615E-2,-2.092771E-2,-1.7951854E-3,1.793168E-2],"categories":[],"categories_nodes":[],"categories_segments":[],"categories_sizes":[],"default_left":[0,0,0,0,0,0,0,0,0,0,0,0,0,0,0,0,0,0,0,0,0,0,0,0,0,0,0,0,0,0,0,0,0,0,0,0,0,0,0,0,0,0,0,0,0,0,0,0,0,0,0,0,0,0,0,0,0,0,0,0,0,0,0],"id":10,"left_children":[1,3,5,7,9,11,13,15,17,19,21,23,25,27,29,31,33,35,37,39,41,43,45,47,49,51,53,55,57,59,61,-1,-1,-1,-1,-1,-1,-1,-1,-1,-1,-1,-1,-1,-1,-1,-1,-1,-1,-1,-1,-1,-1,-1,-1,-1,-1,-1,-1,-1,-1,-1,-1],"loss_changes":[2.1745349E2,7.044957E1,4.1671494E1,2.8272816E1,1.7166382E1,2.090126E1,1.7433243E1,2.9332655E1,1.1451495E1,1.3295387E1,1.4940384E1,1.18419075E1,2.3547928E1,1.5069794E1,1.2836956E1,1.3291622E1,2.1647999E1,1.0739901E1,5.5371456E0,1.7017456E1,1.4766975E1,1.751172E1,9.01944E0,1.5385405E1,8.425378E0,1.6846874E1,1.4914505E1,1.0618847E1,1.8820068E1,6.42161E0,8.672158E0,0E0,0E0,0E0,0E0,0E0,0E0,0E0,0E0,0E0,0E0,0E0,0E0,0E0,0E0,0E0,0E0,0E0,0E0,0E0,0E0,0E0,0E0,0E0,0E0,0E0,0E0,0E0,0E0,0E0,0E0,0E0,0E0],"parents":[2147483647,0,0,1,1,2,2,3,3,4,4,5,5,6,6,7,7,8,8,9,9,10,10,11,11,12,12,13,13,14,14,15,15,16,16,17,17,18,18,19,19,20,20,21,21,22,22,23,23,24,24,25,25,26,26,27,27,28,28,29,29,30,30],"right_children":[2,4,6,8,10,12,14,16,18,20,22,24,26,28,30,32,34,36,38,40,42,44,46,48,50,52,54,56,58,60,62,-1,-1,-1,-1,-1,-1,-1,-1,-1,-1,-1,-1,-1,-1,-1,-1,-1,-1,-1,-1,-1,-1,-1,-1,-1,-1,-1,-1,-1,-1,-1,-1],"split_conditions":[4E0,3.9E-1,5E0,4.8690476E0,7.8E-1,5.8640575E1,5.383838E0,1.2318733E0,1.6857808E0,3.0592632E-1,-1.6007533E-2,7.958478E-2,3.218E-1,2.900979E-1,3.891213E-1,1E0,3.0878985E-1,2E0,3.5014516E-1,4E-1,1.9266666E1,3.3165786E-1,4.9E1,2.9659352E-1,-8.499029E-3,2.8435475E-1,1E2,6E0,-1.6339578E-2,3.181818E-1,2E0,-1.7044134E-3,3.1611794E-3,7.5507755E-3,3.5E-2,-5.377731E-3,-5.182506E-4,-1.0713311E-2,7.2319E-3,-2.166994E-3,3.5E-2,-7.443303E-3,-8.757206E-4,-4.9470547E-3,2.3548553E-2,-1.4546873E-2,-7.855377E-3,6.3645295E-3,-7.674769E-4,-1.6421039E-3,2.8210541E-2,1.8655393E-2,-4.2881267E-4,2.187802E-2,-2.2100497E-3,3.474282E-3,1.49038015E-2,2.5940925E-2,1.3505444E-2,3.4003615E-2,-2.092771E-2,-1.7951854E-3,1.793168E-2],"split_indices":[175,33,175,95,33,141,95,201,117,22,120,129,107,66,52,29,47,175,146,102,78,54,171,54,174,47,163,175,38,17,79,0,0,0,0,0,0,0,0,0,0,0,0,0,0,0,0,0,0,0,0,0,0,0,0,0,0,0,0,0,0,0,0],"split_type":[0,0,0,0,0,0,0,0,0,0,0,0,0,0,0,0,0,0,0,0,0,0,0,0,0,0,0,0,0,0,0,0,0,0,0,0,0,0,0,0,0,0,0,0,0,0,0,0,0,0,0,0,0,0,0,0,0,0,0,0,0,0,0],"sum_hessian":[3.39931E4,2.6529752E4,7.4633516E3,1.494022E4,1.1589531E4,4.49667E3,2.9666814E3,7.048043E3,7.8921763E3,8.806335E3,2.7831965E3,3.336247E3,1.160423E3,2.460837E3,5.0584464E2,6.751502E3,2.9654105E2,7.3702173E3,5.2195917E2,4.1573086E3,4.6490264E3,2.7832376E2,2.5048728E3,3.2286765E3,1.0757047E2,6.531556E2,5.0726733E2,8.3185046E2,1.6289863E3,4.8978947E1,4.568657E2,1.9892756E3,4.7622266E3,1.8969862E2,1.0684242E2,1.4037646E3,5.9664526E3,4.7539917E2,4.656001E1,4.14134E3,1.5968612E1,3.5176333E3,1.1313931E3,2.064633E2,7.186044E1,7.016409E2,1.8032318E3,1.2067667E3,2.0219099E3,3.457267E1,7.29978E1,1.49049E2,5.0410657E2,4.320123E2,7.525504E1,4.786158E2,3.5323465E2,4.0720862E2,1.2217777E3,4.3615005E1,5.3639417E0,3.9297403E2,6.3891678E1],"tree_param":{"num_deleted":"0","num_feature":"204","num_nodes":"63","size_leaf_vector":"1"}},{"base_weights":[-2.8126526E-3,-4.219805E-2,1.3631693E-1,9.459228E-3,-9.521746E-2,7.653353E-2,2.235087E-1,5.884586E-4,2.3479573E-1,-1.3180083E-1,-6.3267685E-2,3.5E-2,6.897276E-2,2.5350243E-1,-1.3655349E-2,8.928637E-3,-1.7668241E-1,7E-1,1.6499963E-1,-1.8064748E-1,-9.5138356E-2,-1.4597292E-1,-4.0229976E-2,1.6917585E-1,2.6022734E-2,2.425993E-1,7E-1,5.3615737E-1,-6.829717E-2,-1.1022849E-3,2.9968957E-3,1.3094457E-2,-1.0544128E-2,3.5E-2,8.247823E-3,3.5E-2,5.1365998E-3,3.968775E-3,-9.679902E-3,-7.894135E-3,-2.0167332E-3,3.5E-2,-7.641309E-3,8.9158537E-4,-4.0188646E-3,7.213313E-3,3.5E-2,-7.092093E-4,8.682064E-3,1.267682E-2,-9.931381E-3,3.5E-2,7.616551E-3,9.327485E-3,3.5E-2,4.884913E-4,-1.6789662E-2],"categories":[],"categories_nodes":[],"categories_segments":[],"categories_sizes":[],"default_left":[0,0,0,0,0,0,0,0,0,0,0,0,0,0,0,0,0,0,0,0,0,0,0,0,0,0,0,0,0,0,0,0,0,0,0,0,0,0,0,0,0,0,0,0,0,0,0,0,0,0,0,0,0,0,0,0,0],"id":11,"left_children":[1,3,5,7,9,11,13,15,17,19,21,-1,23,25,27,29,31,33,35,37,39,41,43,45,47,49,51,53,55,-1,-1,-1,-1,-1,-1,-1,-1,-1,-1,-1,-1,-1,-1,-1,-1,-1,-1,-1,-1,-1,-1,-1,-1,-1,-1,-1,-1],"loss_changes":[1.8814828E2,7.3292786E1,3.9470642E1,2.7095314E1,1.5427338E1,2.9469885E1,2.1918839E1,1.9284851E1,1.8839134E1,1.100663E1,1.3429438E1,0E0,1.9206247E1,1.5375061E1,1.0456475E1,1.9684078E1,8.846336E0,4.4849586E0,1.9364218E1,8.899254E0,1.2092474E1,1.0040356E1,1.2860574E1,2.0984482E1,1.8554169E1,1.29930725E1,1.5884018E0,1.9442549E0,6.609869E0,0E0,0E0,0E0,0E0,0E0,0E0,0E0,0E0,0E0,0E0,0E0,0E0,0E0,0E0,0E0,0E0,0E0,0E0,0E0,0E0,0E0,0E0,0E0,0E0,0E0,0E0,0E0,0E0],"parents":[2147483647,0,0,1,1,2,2,3,3,4,4,5,5,6,6,7,7,8,8,9,9,10,10,12,12,13,13,14,14,15,15,16,16,17,17,18,18,19,19,20,20,21,21,22,22,23,23,24,24,25,25,26,26,27,27,28,28],"right_children":[2,4,6,8,10,12,14,16,18,20,22,-1,24,26,28,30,32,34,36,38,40,42,44,46,48,50,52,54,56,-1,-1,-1,-1,-1,-1,-1,-1,-1,-1,-1,-1,-1,-1,-1,-1,-1,-1,-1,-1,-1,-1,-1,-1,-1,-1,-1,-1],"split_conditions":[4E0,3.3E-1,5E0,1.2666533E0,1.2047485E0,-4.4E0,7.6E-1,1.8682328E0,6.557377E-1,2.8637835E-1,2E0,3.5E-2,2.669284E-1,3.292E-1,-1.656311E0,3E0,6.8E1,2.820513E-1,7.7E1,9.62E-1,1.5187731E3,1.1111111E-1,1.0067054E0,3.9726743E-1,3.3445817E-1,5.416667E-1,3.2E1,5E0,1.0638298E-1,-1.1022849E-3,2.9968957E-3,1.3094457E-2,-1.0544128E-2,3.5E-2,8.247823E-3,3.5E-2,5.1365998E-3,3.968775E-3,-9.679902E-3,-7.894135E-3,-2.0167332E-3,3.5E-2,-7.641309E-3,8.9158537E-4,-4.0188646E-3,7.213313E-3,3.5E-2,-7.092093E-4,8.682064E-3,1.267682E-2,-9.931381E-3,3.5E-2,7.616551E-3,9.327485E-3,3.5E-2,4.884913E-4,-1.6789662E-2],"split_indices":[175,33,175,201,195,123,30,117,116,55,175,0,65,107,77,175,160,98,161,74,139,157,149,55,54,98,9,0,102,0,0,0,0,0,0,0,0,0,0,0,0,0,0,0,0,0,0,0,0,0,0,0,0,0,0,0,0],"split_type":[0,0,0,0,0,0,0,0,0,0,0,0,0,0,0,0,0,0,0,0,0,0,0,0,0,0,0,0,0,0,0,0,0,0,0,0,0,0,0,0,0,0,0,0,0,0,0,0,0,0,0,0,0,0,0,0,0],"sum_hessian":[3.433362E4,2.6759205E4,7.574414E3,1.3554124E4,1.3205082E4,4.4945713E3,3.079843E3,1.3041717E4,5.124076E2,6.15468E3,7.0504014E3,3.1844616E1,4.4627266E3,2.7340088E3,3.458341E2,1.2456612E4,5.851047E2,5.7688965E1,4.5471863E2,2.6371665E3,3.5175137E3,1.5348744E3,5.5155273E3,1.3380637E3,3.1246628E3,2.6810046E3,5.3004166E1,3.0466293E1,3.1536783E2,7.750717E3,4.7058955E3,4.1844666E1,5.4326E2,4.1310493E1,1.6378471E1,3.4411617E1,4.20307E2,1.248707E2,2.5122957E3,1.6390718E3,1.8784419E3,1.0106714E1,1.5247677E3,2.254945E3,3.260582E3,1.2902454E3,4.781837E1,2.4564915E3,6.681716E2,2.6165706E3,6.4434074E1,4.707479E1,5.9293756E0,1.1437637E1,1.9028656E1,2.4486812E2,7.0499695E1],"tree_param":{"num_deleted":"0","num_feature":"204","num_nodes":"57","size_leaf_vector":"1"}},{"base_weights":[-2.2787324E-4,-4.1470382E-2,1.4393868E-1,-9.846737E-3,-1.0654977E-1,8.310029E-2,2.3515277E-1,1.5043116E-2,-7.464693E-2,-7.803896E-2,-1.7596157E-1,1.3715784E-1,-3.5108943E-4,2.70278E-1,6.0058005E-2,-1.1223559E-2,7.307247E-2,-7.7915184E-2,3.5E-2,-6.8328097E-3,-1.1143335E-1,-8.701835E-2,-2.3014286E-1,2.4774443E-1,9.1217875E-2,2.2437079E-1,-3.7646215E-2,2.8820777E-1,5.0237514E-3,5.252008E-1,9.350223E-3,-3.3783398E-3,8.4818073E-4,2.9969495E-3,2.189537E-2,2.1291522E-2,-4.1860067E-3,5.8773477E-3,-2.9778113E-3,-6.468404E-3,6.8879063E-4,-5.2134134E-3,3.242737E-2,-1.1802634E-2,3.1082202E-2,4.561302E-3,2.1594131E-2,3.6918682E-3,2.5690792E-2,4.89226E-3,3.5E-2,2.8835205E-2,-2.473357E-3,9.196144E-3,1.6877148E-2,1.6277315E-2,-5.725525E-3,3.5E-2,-1.4448135E-2,1.056043E-2,-3.8511602E-3],"categories":[],"categories_nodes":[],"categories_segments":[],"categories_sizes":[],"default_left":[0,0,0,0,0,0,0,0,0,0,0,0,0,0,0,0,0,0,0,0,0,0,0,0,0,0,0,0,0,0,0,0,0,0,0,0,0,0,0,0,0,0,0,0,0,0,0,0,0,0,0,0,0,0,0,0,0,0,0,0,0],"id":12,"left_children":[1,3,5,7,9,11,13,15,17,19,21,23,25,27,29,31,33,35,-1,37,39,41,43,45,47,49,51,53,55,57,59,-1,-1,-1,-1,-1,-1,-1,-1,-1,-1,-1,-1,-1,-1,-1,-1,-1,-1,-1,-1,-1,-1,-1,-1,-1,-1,-1,-1,-1,-1],"loss_changes":[2.045867E2,5.506152E1,4.24543E1,2.9043346E1,1.7300812E1,2.0719893E1,1.8815125E1,1.983179E1,1.5228434E1,1.4750713E1,1.2252144E1,1.4138355E1,1.5149614E1,1.2126144E1,1.2092288E1,1.4226628E1,1.9399578E1,1.4601887E1,0E0,1.3001831E1,9.484905E0,1.2320169E1,8.110085E0,2.352206E1,1.4438204E1,1.724485E1,1.1287146E1,1.2226654E1,6.2620726E0,9.730738E0,8.097327E0,0E0,0E0,0E0,0E0,0E0,0E0,0E0,0E0,0E0,0E0,0E0,0E0,0E0,0E0,0E0,0E0,0E0,0E0,0E0,0E0,0E0,0E0,0E0,0E0,0E0,0E0,0E0,0E0,0E0,0E0],"parents":[2147483647,0,0,1,1,2,2,3,3,4,4,5,5,6,6,7,7,8,8,9,9,10,10,11,11,12,12,13,13,14,14,15,15,16,16,17,17,19,19,20,20,21,21,22,22,23,23,24,24,25,25,26,26,27,27,28,28,29,29,30,30],"right_children":[2,4,6,8,10,12,14,16,18,20,22,24,26,28,30,32,34,36,-1,38,40,42,44,46,48,50,52,54,56,58,60,-1,-1,-1,-1,-1,-1,-1,-1,-1,-1,-1,-1,-1,-1,-1,-1,-1,-1,-1,-1,-1,-1,-1,-1,-1,-1,-1,-1,-1,-1],"split_conditions":[4E0,5.2708335E0,5E0,4.1E-1,7.3E-1,4E-1,5.3809524E0,1.5302628E3,4E-1,3.0252543E-1,-1.4E1,2.1329558E-1,-1.6622894E-2,1.2825944E-1,1.8026772E-1,1E0,3.9041165E-2,6E0,3.5E-2,-2.4676E-1,4.1756164E-2,1.1815562E-1,4.925E0,3.5611417E-3,3.0097136E-1,3.364404E-1,4.142857E0,2.900979E-1,9.707E1,4.5968634E-3,2.6637235E-1,-3.3783398E-3,8.4818073E-4,2.9969495E-3,2.189537E-2,2.1291522E-2,-4.1860067E-3,5.8773477E-3,-2.9778113E-3,-6.468404E-3,6.8879063E-4,-5.2134134E-3,3.242737E-2,-1.1802634E-2,3.1082202E-2,4.561302E-3,2.1594131E-2,3.6918682E-3,2.5690792E-2,4.89226E-3,3.5E-2,2.8835205E-2,-2.473357E-3,9.196144E-3,1.6877148E-2,1.6277315E-2,-5.725525E-3,3.5E-2,-1.4448135E-2,1.056043E-2,-3.8511602E-3],"split_indices":[175,95,175,33,33,33,95,139,102,22,173,48,120,37,148,29,135,87,0,202,133,118,191,135,63,54,95,66,109,6,103,0,0,0,0,0,0,0,0,0,0,0,0,0,0,0,0,0,0,0,0,0,0,0,0,0,0,0,0,0,0],"split_type":[0,0,0,0,0,0,0,0,0,0,0,0,0,0,0,0,0,0,0,0,0,0,0,0,0,0,0,0,0,0,0,0,0,0,0,0,0,0,0,0,0,0,0,0,0,0,0,0,0,0,0,0,0,0,0,0,0,0,0,0,0],"sum_hessian":[3.4406656E4,2.6753773E4,7.6528843E3,1.8005578E4,8.748194E3,4.592001E3,3.0608833E3,1.3009412E4,4.996167E3,6.202606E3,2.5455881E3,2.7864014E3,1.8055997E3,2.5489937E3,5.1188962E2,8.9562295E3,4.0531824E3,4.98024E3,1.5926605E1,1.9806062E3,4.2219995E3,9.6464575E2,1.5809423E3,8.1650946E2,1.969892E3,2.5629248E2,1.5493073E3,2.3875234E3,1.6147032E2,4.9398598E1,4.6249103E2,2.9860427E3,5.970187E3,3.913468E3,1.3971442E2,5.5912064E1,4.9243286E3,5.892582E2,1.391348E3,3.6929895E3,5.290102E2,9.4338055E2,2.1265179E1,1.570767E3,1.0175333E1,4.4216357E2,3.7434586E2,1.8932035E3,7.668854E1,2.0843842E2,4.7854065E1,2.8345844E1,1.5209614E3,7.68273E2,1.6192504E3,4.339263E1,1.1807769E2,3.8373966E1,1.1024633E1,1.3815997E2,3.2433105E2],"tree_param":{"num_deleted":"0","num_feature":"204","num_nodes":"61","size_leaf_vector":"1"}},{"base_weights":[-2.447836E-4,-4.1941397E-2,1.4181092E-1,2.3227476E-3,-9.3699485E-2,8.8502906E-2,2.2168171E-1,-1.8524762E-2,8.170954E-2,-7.5595E-2,-1.6966933E-1,9.620806E-3,1.5282859E-1,2.4649514E-1,-6.9995085E-3,-1.0196247E-1,1.0474981E-3,1.6459647E-1,2.6496772E-2,-9.125882E-2,1.9562395E-2,3.3107243E-2,-1.9437256E-1,-5.8725882E-2,7.52209E-2,1.0363423E-1,3.6460328E-1,1.3491772E-1,2.8740996E-1,1.7354777E-1,-1.4106122E-1,-7.0764795E-3,3.611375E-3,1.1779839E-3,-3.4058404E-3,1.9962123E-2,5.8080475E-3,-2.1100687E-3,8.085794E-3,-4.6314048E-3,3.5E-2,2.3009297E-2,-5.0535873E-5,-5.1682587E-3,2.544996E-2,-1.2528743E-2,-6.0737375E-3,2.5065402E-3,-8.357944E-3,9.713771E-3,-1.0553596E-3,3.938218E-3,2.1729415E-2,9.0519665E-3,2.8430466E-2,1.1905762E-2,7.899296E-5,1.11894375E-2,1.9349236E-2,2.7831122E-3,2.610133E-2,6.5131835E-3,-1.1919337E-2],"categories":[],"categories_nodes":[],"categories_segments":[],"categories_sizes":[],"default_left":[0,0,0,0,0,0,0,0,0,0,0,0,0,0,0,0,0,0,0,0,0,0,0,0,0,0,0,0,0,0,0,0,0,0,0,0,0,0,0,0,0,0,0,0,0,0,0,0,0,0,0,0,0,0,0,0,0,0,0,0,0,0,0],"id":13,"left_children":[1,3,5,7,9,11,13,15,17,19,21,23,25,27,29,31,33,35,37,39,41,43,45,47,49,51,53,55,57,59,61,-1,-1,-1,-1,-1,-1,-1,-1,-1,-1,-1,-1,-1,-1,-1,-1,-1,-1,-1,-1,-1,-1,-1,-1,-1,-1,-1,-1,-1,-1,-1,-1],"loss_changes":[2.0282726E2,6.064913E1,3.3064163E1,2.3618866E1,1.6771393E1,2.3652592E1,1.7646515E1,1.8458559E1,1.3579378E1,1.4693203E1,1.1766556E1,9.397407E0,2.6712776E1,1.2767502E1,7.4153957E0,1.4811977E1,1.4258389E1,1.3438503E1,1.6566828E1,1.1005112E1,1.263684E1,1.6665983E1,8.544167E0,1.2125746E1,1.2268433E1,1.7127483E1,1.8008095E1,1.038225E1,1.2910828E1,5.3346734E0,4.6730366E0,0E0,0E0,0E0,0E0,0E0,0E0,0E0,0E0,0E0,0E0,0E0,0E0,0E0,0E0,0E0,0E0,0E0,0E0,0E0,0E0,0E0,0E0,0E0,0E0,0E0,0E0,0E0,0E0,0E0,0E0,0E0,0E0],"parents":[2147483647,0,0,1,1,2,2,3,3,4,4,5,5,6,6,7,7,8,8,9,9,10,10,11,11,12,12,13,13,14,14,15,15,16,16,17,17,18,18,19,19,20,20,21,21,22,22,23,23,24,24,25,25,26,26,27,27,28,28,29,29,30,30],"right_children":[2,4,6,8,10,12,14,16,18,20,22,24,26,28,30,32,34,36,38,40,42,44,46,48,50,52,54,56,58,60,62,-1,-1,-1,-1,-1,-1,-1,-1,-1,-1,-1,-1,-1,-1,-1,-1,-1,-1,-1,-1,-1,-1,-1,-1,-1,-1,-1,-1,-1,-1,-1,-1],"split_conditions":[4E0,3.7E-1,5E0,8.403337E1,8E-1,-5.512202E-1,7.6E-1,2E0,4.6507936E0,3.237E-1,-1.6007533E-2,9.96E-1,3.256E-1,5.5E0,4.938593E-1,5.3636976E-2,5.16E0,-3E0,3.4913942E-1,6.425E1,9E-2,3.3214077E-1,1.2830201E0,4.4444445E-1,2.6E-1,8.0267556E-2,1.82E2,0E0,4.383645E0,4E0,7.580574E-1,-7.0764795E-3,3.611375E-3,1.1779839E-3,-3.4058404E-3,1.9962123E-2,5.8080475E-3,-2.1100687E-3,8.085794E-3,-4.6314048E-3,3.5E-2,2.3009297E-2,-5.0535873E-5,-5.1682587E-3,2.544996E-2,-1.2528743E-2,-6.0737375E-3,2.5065402E-3,-8.357944E-3,9.713771E-3,-1.0553596E-3,3.938218E-3,2.1729415E-2,9.0519665E-3,2.8430466E-2,1.1905762E-2,7.899296E-5,1.11894375E-2,1.9349236E-2,2.7831122E-3,2.610133E-2,6.5131835E-3,-1.1919337E-2],"split_indices":[175,33,175,141,33,141,30,175,95,108,120,74,107,86,122,38,95,41,127,28,30,69,195,157,33,129,87,75,113,177,151,0,0,0,0,0,0,0,0,0,0,0,0,0,0,0,0,0,0,0,0,0,0,0,0,0,0,0,0,0,0,0,0],"split_type":[0,0,0,0,0,0,0,0,0,0,0,0,0,0,0,0,0,0,0,0,0,0,0,0,0,0,0,0,0,0,0,0,0,0,0,0,0,0,0,0,0,0,0,0,0,0,0,0,0,0,0,0,0,0,0,0,0,0,0,0,0,0,0],"sum_hessian":[3.4240605E4,2.6471357E4,7.7692476E3,1.4269157E4,1.2202201E4,4.6606846E3,3.108563E3,1.1301954E4,2.9672031E3,9.855514E3,2.3466875E3,2.0939897E3,2.5666946E3,2.8042097E3,3.0435318E2,2.1466116E3,9.155343E3,1.1855066E3,1.7816965E3,8.462539E3,1.3929742E3,2.5480232E2,2.0918853E3,1.0255774E3,1.0684122E3,2.0840647E3,4.8262994E2,7.5354364E2,2.0506663E3,1.2956598E2,1.747872E2,1.7494198E3,3.9719177E2,6.907644E3,2.2476987E3,2.016021E2,9.8390454E2,1.1819128E3,5.997836E2,8.451619E3,1.0919701E1,6.1184753E1,1.3317894E3,1.9862505E2,5.617728E1,1.1798302E3,9.1205505E2,5.120571E2,5.1352026E2,4.7738382E2,5.910285E2,1.9395531E3,1.4451163E2,2.550364E2,2.2759352E2,4.243387E2,3.292049E2,1.2532047E3,7.974614E2,9.768144E1,3.188454E1,4.605533E1,1.2873187E2],"tree_param":{"num_deleted":"0","num_feature":"204","num_nodes":"63","size_leaf_vector":"1"}},{"base_weights":[1.3498636E-4,-3.874515E-2,1.3266894E-1,1.2931128E-3,-9.192174E-2,1.0305383E-1,3.1606445E-1,2.363856E-2,-6.713397E-2,-7.400128E-2,-1.8800494E-1,4.306444E-2,1.6716193E-1,2.4288782E-1,4.4386923E-1,-2.6028253E-2,5.3953808E-2,2.4548034E-1,-7.716289E-2,-1.0256266E-1,-1.8633317E-2,-2.1570165E-1,8.126211E-3,-1.381762E-2,1.24860205E-1,1.1394129E-1,3.1612664E-1,2.2123662E-1,7E-1,3.57379E-1,7E-1,-1.4122505E-3,3.5E-2,2.1209714E-3,1.3479279E-2,5.345742E-3,3.5E-2,-4.018473E-3,3.5E-2,-5.487327E-3,7.747888E-3,-4.730938E-3,1.9103496E-3,-5.8089164E-3,-1.38500305E-2,-3.5538487E-3,1.85251E-2,-2.8439525E-3,7.1112528E-3,2.4294017E-3,1.4694722E-2,3.0739277E-3,1.1786169E-2,2.1495957E-2,9.094623E-3,1.4076603E-2,9.682203E-4,2.5528193E-2,3.5E-2,1.4721735E-2,3.5E-2,3.5E-2,-3.472086E-3],"categories":[],"categories_nodes":[],"categories_segments":[],"categories_sizes":[],"default_left":[0,0,0,0,0,0,0,0,0,0,0,0,0,0,0,0,0,0,0,0,0,0,0,0,0,0,0,0,0,0,0,0,0,0,0,0,0,0,0,0,0,0,0,0,0,0,0,0,0,0,0,0,0,0,0,0,0,0,0,0,0,0,0],"id":14,"left_children":[1,3,5,7,9,11,13,15,17,19,21,23,25,27,29,31,33,35,37,39,41,43,45,47,49,51,53,55,57,59,61,-1,-1,-1,-1,-1,-1,-1,-1,-1,-1,-1,-1,-1,-1,-1,-1,-1,-1,-1,-1,-1,-1,-1,-1,-1,-1,-1,-1,-1,-1,-1,-1],"loss_changes":[1.7551633E2,5.607121E1,4.1928467E1,2.297493E1,1.9463463E1,2.5579544E1,9.933258E0,1.7055805E1,1.1615669E1,1.5077183E1,9.657368E0,1.599931E1,2.545906E1,6.948162E0,8.791016E0,1.0542223E1,1.7483397E1,9.219969E0,1.08210335E1,1.1653923E1,1.4023787E1,9.4700775E0,6.3667855E0,1.364125E1,1.8169657E1,1.513323E1,1.2843216E1,7.989624E0,6.2164307E-2,6.5622215E0,7.128521E0,0E0,0E0,0E0,0E0,0E0,0E0,0E0,0E0,0E0,0E0,0E0,0E0,0E0,0E0,0E0,0E0,0E0,0E0,0E0,0E0,0E0,0E0,0E0,0E0,0E0,0E0,0E0,0E0,0E0,0E0,0E0,0E0],"parents":[2147483647,0,0,1,1,2,2,3,3,4,4,5,5,6,6,7,7,8,8,9,9,10,10,11,11,12,12,13,13,14,14,15,15,16,16,17,17,18,18,19,19,20,20,21,21,22,22,23,23,24,24,25,25,26,26,27,27,28,28,29,29,30,30],"right_children":[2,4,6,8,10,12,14,16,18,20,22,24,26,28,30,32,34,36,38,40,42,44,46,48,50,52,54,56,58,60,62,-1,-1,-1,-1,-1,-1,-1,-1,-1,-1,-1,-1,-1,-1,-1,-1,-1,-1,-1,-1,-1,-1,-1,-1,-1,-1,-1,-1,-1,-1,-1,-1],"split_conditions":[4E0,5.133333E0,6E0,4.1E-1,8E-1,1E0,1.0472037E-1,3.185E-1,1.1111111E-1,3E0,3.009239E-3,1.5123862E3,5E0,2.2E0,1.0073689E-1,5.849624E-1,1.2666533E0,1.2095359E-1,4E-1,3.7362073E-2,9.96E-1,-1.4E1,1.1118327E-1,2.8184265E-1,3.222E-1,2.8142178E-1,3.1674978E-1,3.1208074E-1,5.4646347E-2,8.220211E-1,1.0694438E-1,-1.4122505E-3,3.5E-2,2.1209714E-3,1.3479279E-2,5.345742E-3,3.5E-2,-4.018473E-3,3.5E-2,-5.487327E-3,7.747888E-3,-4.730938E-3,1.9103496E-3,-5.8089164E-3,-1.38500305E-2,-3.5538487E-3,1.85251E-2,-2.8439525E-3,7.1112528E-3,2.4294017E-3,1.4694722E-2,3.0739277E-3,1.1786169E-2,2.1495957E-2,9.094623E-3,1.4076603E-2,9.682203E-4,2.5528193E-2,3.5E-2,1.4721735E-2,3.5E-2,3.5E-2,-3.472086E-3],"split_indices":[175,95,175,33,33,29,183,107,97,175,192,139,175,121,51,19,201,186,102,76,74,173,183,53,107,53,70,47,3,114,3,0,0,0,0,0,0,0,0,0,0,0,0,0,0,0,0,0,0,0,0,0,0,0,0,0,0,0,0,0,0,0,0],"split_type":[0,0,0,0,0,0,0,0,0,0,0,0,0,0,0,0,0,0,0,0,0,0,0,0,0,0,0,0,0,0,0,0,0,0,0,0,0,0,0,0,0,0,0,0,0,0,0,0,0,0,0,0,0,0,0,0,0,0,0,0,0,0,0],"sum_hessian":[3.405941E4,2.6334604E4,7.7248066E3,1.5023745E4,1.1310857E4,6.6521626E3,1.072644E3,1.1325848E4,3.6978977E3,9.534374E3,1.7764838E3,3.437335E3,3.2148274E3,6.839425E2,3.8870154E2,4.29284E3,7.0330083E3,1.1421432E2,3.5836833E3,6.289239E3,3.2451348E3,1.5565723E3,2.1991151E2,2.0279191E3,1.4094158E3,2.3698984E3,8.4492896E2,6.558434E2,2.809912E1,2.958468E2,9.285472E1,4.287541E3,5.2987185E0,6.6770425E3,3.559655E2,9.4271866E1,1.994245E1,3.5728586E3,1.0824834E1,6.119112E3,1.7012695E2,1.3884106E3,1.8567241E3,5.9440594E2,9.6216626E2,1.8112708E2,3.8784447E1,1.589827E3,4.380921E2,9.7207874E2,4.373371E2,1.6574062E3,7.1249225E2,4.5609073E2,3.8883826E2,5.047034E2,1.5114E2,1.4386585E1,1.3712534E1,2.5373007E2,4.211674E1,8.098648E1,1.1868238E1],"tree_param":{"num_deleted":"0","num_feature":"204","num_nodes":"63","size_leaf_vector":"1"}},{"base_weights":[-1.4673221E-3,-1.9281467E-2,1.803542E-1,8.830559E-3,-9.453669E-2,1.4148982E-1,3.1519467E-1,-4.4424973E-2,3.0924428E-2,-1.0305237E-1,1.0475077E-1,9.7648166E-2,2.7495614E-1,4.1911307E-1,1.3017637E-1,1.3419987E-2,-7.964934E-2,1.5961522E-2,1.2919654E-1,-1.15294956E-1,-1.2788388E-2,4.0490666E-1,-1.0321067E-1,6.193267E-1,8.1985325E-2,4.4942495E-1,1.5860268E-1,5.8109105E-1,1.9660518E-1,2.3603545E-1,-9.637947E-2,1.3740172E-2,-3.0127994E-4,-4.124756E-3,3.5E-2,-3.1924876E-4,4.0077516E-3,3.5E-2,5.5674044E-3,-4.8907083E-3,-8.9215E-3,1.6160862E-3,-1.8570323E-2,3.5E-2,8.456232E-3,3.5E-2,-7.7081136E-3,3.5E-2,1.81749E-2,1.10239675E-2,1.5364505E-3,7.249319E-3,3.416783E-2,4.726003E-3,1.844765E-2,-2.5845233E-3,3.327122E-2,1.5724055E-2,-1.4520878E-2,-4.630066E-3,1.6168782E-2,3.3574568E-3,-1.2203616E-2],"categories":[],"categories_nodes":[],"categories_segments":[],"categories_sizes":[],"default_left":[0,0,0,0,0,0,0,0,0,0,0,0,0,0,0,0,0,0,0,0,0,0,0,0,0,0,0,0,0,0,0,0,0,0,0,0,0,0,0,0,0,0,0,0,0,0,0,0,0,0,0,0,0,0,0,0,0,0,0,0,0,0,0],"id":15,"left_children":[1,3,5,7,9,11,13,15,17,19,21,23,25,27,29,31,33,35,37,39,41,43,45,47,49,51,53,55,57,59,61,-1,-1,-1,-1,-1,-1,-1,-1,-1,-1,-1,-1,-1,-1,-1,-1,-1,-1,-1,-1,-1,-1,-1,-1,-1,-1,-1,-1,-1,-1,-1,-1],"loss_changes":[1.0994929E2,6.540678E1,1.5829224E1,2.6486141E1,1.4280037E1,1.3742432E1,1.2960136E1,1.3449987E1,2.3392063E1,8.9099045E0,2.1580685E1,1.4435259E1,1.1729122E1,1.5491623E1,5.8962855E0,1.2703393E1,1.1352594E1,1.9808786E1,2.2220486E1,7.81942E0,1.5610811E1,1.068891E1,9.175752E0,2.794716E0,1.22196045E1,1.6425125E1,4.686777E0,1.3379372E1,1.065027E1,4.829214E0,1.917175E0,0E0,0E0,0E0,0E0,0E0,0E0,0E0,0E0,0E0,0E0,0E0,0E0,0E0,0E0,0E0,0E0,0E0,0E0,0E0,0E0,0E0,0E0,0E0,0E0,0E0,0E0,0E0,0E0,0E0,0E0,0E0,0E0],"parents":[2147483647,0,0,1,1,2,2,3,3,4,4,5,5,6,6,7,7,8,8,9,9,10,10,11,11,12,12,13,13,14,14,15,15,16,16,17,17,18,18,19,19,20,20,21,21,22,22,23,23,24,24,25,25,26,26,27,27,28,28,29,29,30,30],"right_children":[2,4,6,8,10,12,14,16,18,20,22,24,26,28,30,32,34,36,38,40,42,44,46,48,50,52,54,56,58,60,62,-1,-1,-1,-1,-1,-1,-1,-1,-1,-1,-1,-1,-1,-1,-1,-1,-1,-1,-1,-1,-1,-1,-1,-1,-1,-1,-1,-1,-1,-1,-1,-1],"split_conditions":[3E0,5.3431373E0,4.8386993E0,3.167E-1,1.5978563E3,3.4112793E-1,1.6185966E-4,4.7849464E0,2E0,4.5266244E-1,-4.2425875E-2,-3.474298E0,2.9989764E-1,-8E0,8.135982E-2,-2.3333333E0,7.1213512E0,3.2776085E-1,2.1414773E-1,1.494669E-3,2.2694969E-1,-3.3514872E-3,2.2867289E-1,-4E-1,2.8989115E-1,2.8660035E-1,3.3870783E-1,2.4221803E-1,9.615385E-2,-1.32152E0,8.7E1,1.3740172E-2,-3.0127994E-4,-4.124756E-3,3.5E-2,-3.1924876E-4,4.0077516E-3,3.5E-2,5.5674044E-3,-4.8907083E-3,-8.9215E-3,1.6160862E-3,-1.8570323E-2,3.5E-2,8.456232E-3,3.5E-2,-7.7081136E-3,3.5E-2,1.81749E-2,1.10239675E-2,1.5364505E-3,7.249319E-3,3.416783E-2,4.726003E-3,1.844765E-2,-2.5845233E-3,3.327122E-2,1.5724055E-2,-1.4520878E-2,-4.630066E-3,1.6168782E-2,3.3574568E-3,-1.2203616E-2],"split_indices":[177,95,113,107,139,4,154,95,177,62,44,117,54,173,51,123,77,46,70,154,126,120,63,125,103,66,54,146,35,203,166,0,0,0,0,0,0,0,0,0,0,0,0,0,0,0,0,0,0,0,0,0,0,0,0,0,0,0,0,0,0,0,0],"split_type":[0,0,0,0,0,0,0,0,0,0,0,0,0,0,0,0,0,0,0,0,0,0,0,0,0,0,0,0,0,0,0,0,0,0,0,0,0,0,0,0,0,0,0,0,0,0,0,0,0,0,0,0,0,0,0,0,0,0,0,0,0,0,0],"sum_hessian":[3.3943426E4,3.0915357E4,3.028069E3,2.250818E4,8.407179E3,2.3521658E3,6.759033E2,6.5995273E3,1.5908652E4,8.063119E3,3.4405927E2,1.7718665E3,5.802994E2,4.319991E2,2.4390424E2,2.497987E3,4.10154E3,1.3807487E4,2.1011648E3,7.099879E3,9.632405E2,1.4042842E2,2.0363084E2,5.05243E1,1.7213422E3,2.3102347E2,3.492759E2,2.4907191E2,1.829272E2,1.6620326E2,7.7700966E1,1.7206006E2,2.325927E3,4.0910955E3,1.0444767E1,1.0242764E4,3.5647236E3,6.000595E1,2.0411589E3,5.562333E3,1.537546E3,8.564221E2,1.0681839E2,5.8063908E1,8.236452E1,1.0436592E1,1.9319426E2,1.9554623E1,3.0969677E1,4.640858E2,1.2572563E3,1.01087715E2,1.2993576E2,2.6882767E2,8.044825E1,2.9336575E1,2.1973534E2,1.4756563E2,3.536158E1,3.4884056E1,1.3131921E2,3.713247E1,4.0568497E1],"tree_param":{"num_deleted":"0","num_feature":"204","num_nodes":"63","size_leaf_vector":"1"}},{"base_weights":[4.8543E-3,-2.3596171E-2,1.1235231E-1,2.523451E-2,-7.6887704E-2,1.8987978E-1,6.1977744E-2,6.52841E-2,-2.0621719E-2,-4.7461405E-2,-1.10092536E-1,1.7855293E-1,6.253528E-1,-3.661787E-2,1.0223299E-1,5.5764038E-2,3.261091E-1,7.7140535E-4,-1.1466323E-1,-5.7225913E-2,1.1383624E-1,3.5E-2,-1.119039E-1,2.0501485E-1,-4.6082225E-2,3.054836E-1,3.5E-2,-1.150029E-1,7.587496E-2,1.583038E-1,-1.2530416E-3,1.4018881E-3,6.9426396E-3,-3.468933E-3,2.4511226E-2,-4.530513E-3,1.3649393E-3,3.5E-2,-6.218696E-3,-3.9097173E-3,8.460064E-4,3.5E-2,2.5126499E-3,1.2602097E-2,-5.8817784E-3,2.4856253E-2,9.506757E-3,-8.33427E-3,7.5745652E-3,8.753236E-3,1.8709993E-2,-4.050642E-3,-1.7560093E-2,2.709794E-2,8.2755013E-4,6.817979E-3,2.7764035E-2,-2.2390487E-3,1.5092323E-2],"categories":[],"categories_nodes":[],"categories_segments":[],"categories_sizes":[],"default_left":[0,0,0,0,0,0,0,0,0,0,0,0,0,0,0,0,0,0,0,0,0,0,0,0,0,0,0,0,0,0,0,0,0,0,0,0,0,0,0,0,0,0,0,0,0,0,0,0,0,0,0,0,0,0,0,0,0,0,0],"id":16,"left_children":[1,3,5,7,9,11,13,15,17,19,21,23,25,27,29,31,33,35,37,39,41,-1,43,45,47,49,-1,51,53,55,57,-1,-1,-1,-1,-1,-1,-1,-1,-1,-1,-1,-1,-1,-1,-1,-1,-1,-1,-1,-1,-1,-1,-1,-1,-1,-1,-1,-1],"loss_changes":[1.04313805E2,7.018483E1,2.7864433E1,2.585E1,1.2595581E1,1.3752586E1,1.7181787E1,1.863789E1,1.3202737E1,1.077767E1,1.3837387E1,1.630223E1,4.6449966E0,1.1079559E1,1.7834599E1,1.6698088E1,1.7193186E1,1.2964857E1,1.1217599E1,1.002799E1,1.696711E1,0E0,1.265641E1,1.0564186E1,6.9274726E0,2.528968E-1,0E0,5.9152193E0,1.426357E1,1.729004E1,1.4276598E1,0E0,0E0,0E0,0E0,0E0,0E0,0E0,0E0,0E0,0E0,0E0,0E0,0E0,0E0,0E0,0E0,0E0,0E0,0E0,0E0,0E0,0E0,0E0,0E0,0E0,0E0,0E0,0E0],"parents":[2147483647,0,0,1,1,2,2,3,3,4,4,5,5,6,6,7,7,8,8,9,9,10,10,11,11,12,12,13,13,14,14,15,15,16,16,17,17,18,18,19,19,20,20,22,22,23,23,24,24,25,25,27,27,28,28,29,29,30,30],"right_children":[2,4,6,8,10,12,14,16,18,20,22,24,26,28,30,32,34,36,38,40,42,-1,44,46,48,50,-1,52,54,56,58,-1,-1,-1,-1,-1,-1,-1,-1,-1,-1,-1,-1,-1,-1,-1,-1,-1,-1,-1,-1,-1,-1,-1,-1,-1,-1,-1,-1],"split_conditions":[2E0,3.3E-1,4.8817205E0,4.9139786E0,3.204E-1,3.5290588E-2,9.9E-1,2.3349437E-1,4.8257494E0,4.371393E-1,3E0,1E1,8E-2,9.7108114E-1,6.2E-1,1.1494163E-1,-1.0686126E0,4.621072E-2,-1.43E2,8.4E1,2.4382701E-2,3.5E-2,3.7914693E-2,-2.9333334E0,2.28E2,2.4917565E-1,3.5E-2,5.35E1,7.064555E-1,1.48E1,3.4131813E-1,1.4018881E-3,6.9426396E-3,-3.468933E-3,2.4511226E-2,-4.530513E-3,1.3649393E-3,3.5E-2,-6.218696E-3,-3.9097173E-3,8.460064E-4,3.5E-2,2.5126499E-3,1.2602097E-2,-5.8817784E-3,2.4856253E-2,9.506757E-3,-8.33427E-3,7.5745652E-3,8.753236E-3,1.8709993E-2,-4.050642E-3,-1.7560093E-2,2.709794E-2,8.2755013E-4,6.817979E-3,2.7764035E-2,-2.2390487E-3,1.5092323E-2],"split_indices":[177,33,95,95,111,135,74,43,113,103,87,92,33,150,13,184,144,132,162,85,3,0,119,123,87,57,0,10,116,86,128,0,0,0,0,0,0,0,0,0,0,0,0,0,0,0,0,0,0,0,0,0,0,0,0,0,0,0,0],"split_type":[0,0,0,0,0,0,0,0,0,0,0,0,0,0,0,0,0,0,0,0,0,0,0,0,0,0,0,0,0,0,0,0,0,0,0,0,0,0,0,0,0,0,0,0,0,0,0,0,0,0,0,0,0,0,0,0,0,0,0],"sum_hessian":[3.4105793E4,2.6968957E4,7.1368354E3,1.4073775E4,1.2895182E4,2.8097715E3,4.327064E3,7.5123057E3,6.5614697E3,6.8378623E3,6.0573193E3,2.739915E3,6.985648E1,1.2545162E3,3.0725476E3,7.2489346E3,2.6337103E2,5.3462617E3,1.2152078E3,6.4481543E3,3.89708E2,5.2672057E0,6.0520522E3,2.4512466E3,2.8866858E2,3.4528847E1,3.5327633E1,7.3932916E2,5.151871E2,1.992462E3,1.0800856E3,5.4362305E3,1.812704E3,7.7408394E1,1.8596265E2,1.2022676E3,4.143994E3,1.1256449E1,1.2039513E3,5.026586E3,1.4215684E3,3.1375854E1,3.5833215E2,9.316781E1,5.9588843E3,1.1724028E2,2.3340063E3,1.7934738E2,1.0932119E2,1.3139187E1,2.138966E1,6.474948E2,9.183438E1,5.725134E1,4.5793573E2,1.8893646E3,1.03097466E2,9.451985E2,1.3488712E2],"tree_param":{"num_deleted":"0","num_feature":"204","num_nodes":"59","size_leaf_vector":"1"}},{"base_weights":[-3.3113048E-3,-4.1901667E-2,1.2404746E-1,-1.5082113E-2,-1.0400266E-1,7.1065225E-2,1.9754682E-1,-5.262833E-2,1.7537206E-2,-1.7763074E-1,-8.317406E-2,3.5E-2,6.3973E-2,2.2561489E-1,3.554375E-2,-5.4176755E-2,3.5E-2,3.0614575E-3,1.6593672E-1,5.2128327E-1,-1.8412441E-1,-1.5362202E-2,-1.1372386E-1,9.660253E-2,-4.917128E-2,1.3099249E-1,2.7134088E-1,4.218885E-1,-2.4462108E-2,-3.1682828E-3,4.2543295E-3,9.694084E-3,-2.8919074E-4,5.96404E-4,1.5850123E-2,1.3127525E-2,3.5E-2,-1.0557449E-2,-1.9049004E-3,-1.5742345E-3,2.0932043E-2,-3.5762943E-3,-7.921107E-3,2.520113E-3,1.0049811E-2,6.54459E-3,-4.498018E-3,8.9377705E-3,-8.465025E-3,1.4589178E-2,-4.075422E-3,2.8435472E-2,-1.4387888E-2,-3.302512E-3,2.0897098E-2],"categories":[],"categories_nodes":[],"categories_segments":[],"categories_sizes":[],"default_left":[0,0,0,0,0,0,0,0,0,0,0,0,0,0,0,0,0,0,0,0,0,0,0,0,0,0,0,0,0,0,0,0,0,0,0,0,0,0,0,0,0,0,0,0,0,0,0,0,0,0,0,0,0,0,0],"id":17,"left_children":[1,3,5,7,9,11,13,15,17,19,21,-1,23,25,27,29,-1,31,33,35,37,39,41,43,45,47,49,51,53,-1,-1,-1,-1,-1,-1,-1,-1,-1,-1,-1,-1,-1,-1,-1,-1,-1,-1,-1,-1,-1,-1,-1,-1,-1,-1],"loss_changes":[1.6688173E2,4.3399864E1,3.073413E1,2.22914E1,1.2038292E1,2.6654388E1,1.5029297E1,1.2954515E1,2.0922665E1,7.957653E0,1.2693821E1,0E0,1.6822105E1,1.2159103E1,1.1359219E1,1.0819078E1,0E0,1.4981293E1,2.0135393E1,1.1341629E0,6.7677727E0,1.3339471E1,7.9573097E0,1.704393E1,7.505478E0,1.3228566E1,1.37235565E1,7.026331E0,7.8410077E0,0E0,0E0,0E0,0E0,0E0,0E0,0E0,0E0,0E0,0E0,0E0,0E0,0E0,0E0,0E0,0E0,0E0,0E0,0E0,0E0,0E0,0E0,0E0,0E0,0E0,0E0],"parents":[2147483647,0,0,1,1,2,2,3,3,4,4,5,5,6,6,7,7,8,8,9,9,10,10,12,12,13,13,14,14,15,15,17,17,18,18,19,19,20,20,21,21,22,22,23,23,24,24,25,25,26,26,27,27,28,28],"right_children":[2,4,6,8,10,12,14,16,18,20,22,-1,24,26,28,30,-1,32,34,36,38,40,42,44,46,48,50,52,54,-1,-1,-1,-1,-1,-1,-1,-1,-1,-1,-1,-1,-1,-1,-1,-1,-1,-1,-1,-1,-1,-1,-1,-1,-1,-1],"split_conditions":[4E0,5.320513E0,5E0,9.7840086E-2,2E0,-4.4E0,5.390805E0,4.3E1,8.97E1,2.8985508E-2,-2.7857183E-3,3.5E-2,7.9302585E-1,2.900979E-1,2.0663466E-1,2E0,3.5E-2,6.4965194E-1,0E0,6E0,2.0183332E1,3.8064462E-1,8.316729E-2,2.7979004E-1,6.160476E-2,9.5E1,1.2825944E-1,5.3767534E-4,1.18989736E-1,-3.1682828E-3,4.2543295E-3,9.694084E-3,-2.8919074E-4,5.96404E-4,1.5850123E-2,1.3127525E-2,3.5E-2,-1.0557449E-2,-1.9049004E-3,-1.5742345E-3,2.0932043E-2,-3.5762943E-3,-7.921107E-3,2.520113E-3,1.0049811E-2,6.54459E-3,-4.498018E-3,8.9377705E-3,-8.465025E-3,1.4589178E-2,-4.075422E-3,2.8435472E-2,-1.4387888E-2,-3.302512E-3,2.0897098E-2],"split_indices":[175,95,175,184,175,123,95,9,85,129,120,0,116,66,148,177,0,116,79,0,78,54,50,53,61,26,37,39,183,0,0,0,0,0,0,0,0,0,0,0,0,0,0,0,0,0,0,0,0,0,0,0,0,0,0],"split_type":[0,0,0,0,0,0,0,0,0,0,0,0,0,0,0,0,0,0,0,0,0,0,0,0,0,0,0,0,0,0,0,0,0,0,0,0,0,0,0,0,0,0,0,0,0,0,0,0,0,0,0,0,0,0,0],"sum_hessian":[3.395274E4,2.605777E4,7.8949683E3,1.8199287E4,7.858483E3,4.588966E3,3.3060022E3,8.460397E3,9.73889E3,1.7312109E3,6.127272E3,3.469208E1,4.554274E3,2.8174658E3,4.8853647E2,8.449326E3,1.1071646E1,8.874264E3,8.6462646E2,1.5206989E1,1.7160039E3,1.9035149E3,4.223757E3,3.5349736E3,1.0193001E3,9.191992E2,1.8982666E3,6.4866425E1,4.2367004E2,7.926841E3,5.224851E2,3.9220718E2,8.482056E3,4.2867715E2,4.3594928E2,1.0192444E1,5.014546E0,1.4476473E3,2.683566E2,1.8362295E3,6.72854E1,2.173982E3,2.0497751E3,2.4515176E3,1.0834562E3,1.8784607E2,8.3145404E2,7.9340875E2,1.2579044E2,1.794475E3,1.0379163E2,5.3911175E1,1.095525E1,3.8804285E2,3.5627213E1],"tree_param":{"num_deleted":"0","num_feature":"204","num_nodes":"55","size_leaf_vector":"1"}},{"base_weights":[4.2326192E-4,-3.7005156E-2,1.2383508E-1,2.7665505E-4,-8.664683E-2,1.9356237E-1,6.652191E-2,-3.753198E-2,3.982813E-2,-6.626036E-2,-1.6553798E-1,1.4895235E-1,3.040671E-1,4.9734246E-3,1.23249814E-1,-4.7968216E-2,1.8172517E-1,-3.4658276E-2,6.2052146E-2,-2.9196741E-2,-1.0219653E-1,-3.0897236E-1,-1.287106E-1,1.20988995E-1,3.3641097E-1,2.6159877E-1,6.060542E-1,-5.6623545E-2,1.1311601E-1,2.3198102E-1,5.8175724E-2,-7.393915E-4,-5.7051643E-3,3.5E-2,2.6053556E-3,-3.028002E-3,1.6507585E-2,2.8180957E-3,2.6515422E-2,-2.4671953E-3,6.4593083E-3,-6.3888156E-3,-9.7049365E-4,-1.6639037E-2,7.437706E-3,-6.6946964E-3,3.5E-2,1.9892917E-3,1.0926135E-2,2.0740733E-2,-6.681952E-3,3.197811E-2,1.0887771E-2,7.09884E-3,3.5E-2,-3.831297E-3,1.3417269E-2,4.254653E-3,3.5E-2,1.01092355E-2,3.43246E-2,5.1058833E-3,-9.312222E-3],"categories":[],"categories_nodes":[],"categories_segments":[],"categories_sizes":[],"default_left":[0,0,0,0,0,0,0,0,0,0,0,0,0,0,0,0,0,0,0,0,0,0,0,0,0,0,0,0,0,0,0,0,0,0,0,0,0,0,0,0,0,0,0,0,0,0,0,0,0,0,0,0,0,0,0,0,0,0,0,0,0,0,0],"id":18,"left_children":[1,3,5,7,9,11,13,15,17,19,21,23,25,27,29,31,33,35,37,39,41,43,45,47,49,51,53,55,57,59,61,-1,-1,-1,-1,-1,-1,-1,-1,-1,-1,-1,-1,-1,-1,-1,-1,-1,-1,-1,-1,-1,-1,-1,-1,-1,-1,-1,-1,-1,-1,-1,-1],"loss_changes":[1.580971E2,4.860395E1,3.1816635E1,2.2431E1,1.8104866E1,1.766536E1,1.5267963E1,1.7557152E1,1.2137944E1,1.1921104E1,1.2174774E1,1.3386208E1,1.3080322E1,1.3984724E1,1.6087708E1,1.6064255E1,3.1702637E1,1.594499E1,1.5015848E1,1.4073848E1,9.622311E0,5.18993E0,8.75856E0,1.7656933E1,1.22882805E1,1.4886951E1,8.876083E0,8.715227E0,1.6293575E1,1.139513E1,1.5323206E1,0E0,0E0,0E0,0E0,0E0,0E0,0E0,0E0,0E0,0E0,0E0,0E0,0E0,0E0,0E0,0E0,0E0,0E0,0E0,0E0,0E0,0E0,0E0,0E0,0E0,0E0,0E0,0E0,0E0,0E0,0E0,0E0],"parents":[2147483647,0,0,1,1,2,2,3,3,4,4,5,5,6,6,7,7,8,8,9,9,10,10,11,11,12,12,13,13,14,14,15,15,16,16,17,17,18,18,19,19,20,20,21,21,22,22,23,23,24,24,25,25,26,26,27,27,28,28,29,29,30,30],"right_children":[2,4,6,8,10,12,14,16,18,20,22,24,26,28,30,32,34,36,38,40,42,44,46,48,50,52,54,56,58,60,62,-1,-1,-1,-1,-1,-1,-1,-1,-1,-1,-1,-1,-1,-1,-1,-1,-1,-1,-1,-1,-1,-1,-1,-1,-1,-1,-1,-1,-1,-1,-1,-1],"split_conditions":[4E0,3.9E-1,4.9166665E0,1.5113888E1,8E-1,2.8142178E-1,-2.0469572E-2,1.1414E2,1.23E2,3.0592632E-1,1.12E2,2.886004E-1,7.8809105E-2,4.3094972E-1,-2.392569E-3,7.741117E-1,-2.4237096E-1,1.3797534E0,1.481016E0,9.7840086E-2,1.9266666E1,1.006E2,4.8319533E-1,5E0,1.4983326E0,6.958128E-1,6.88861E-1,7E0,9.5E-1,1.1374E2,7.777778E-1,-7.393915E-4,-5.7051643E-3,3.5E-2,2.6053556E-3,-3.028002E-3,1.6507585E-2,2.8180957E-3,2.6515422E-2,-2.4671953E-3,6.4593083E-3,-6.3888156E-3,-9.7049365E-4,-1.6639037E-2,7.437706E-3,-6.6946964E-3,3.5E-2,1.9892917E-3,1.0926135E-2,2.0740733E-2,-6.681952E-3,3.197811E-2,1.0887771E-2,7.09884E-3,3.5E-2,-3.831297E-3,1.3417269E-2,4.254653E-3,3.5E-2,1.01092355E-2,3.43246E-2,5.1058833E-3,-9.312222E-3],"split_indices":[175,33,95,141,33,53,126,106,87,22,160,63,129,62,76,116,197,201,150,184,78,85,49,175,77,114,136,175,31,106,157,0,0,0,0,0,0,0,0,0,0,0,0,0,0,0,0,0,0,0,0,0,0,0,0,0,0,0,0,0,0,0,0],"split_type":[0,0,0,0,0,0,0,0,0,0,0,0,0,0,0,0,0,0,0,0,0,0,0,0,0,0,0,0,0,0,0,0,0,0,0,0,0,0,0,0,0,0,0,0,0,0,0,0,0,0,0,0,0,0,0,0,0,0,0,0,0,0,0],"sum_hessian":[3.422476E4,2.6261006E4,7.9637554E3,1.4998129E4,1.1262877E4,3.5917043E3,4.372051E3,7.668036E3,7.330093E3,8.951529E3,2.311348E3,2.5604255E3,1.0312789E3,2.0974514E3,2.2745996E3,7.320381E3,3.4765536E2,1.6843237E3,5.645769E3,4.4075303E3,4.543999E3,4.706976E2,1.8406503E3,2.2294954E3,3.3093015E2,9.057674E2,1.25511505E2,1.3366085E3,7.6084283E2,8.506679E2,1.4239318E3,4.8755234E3,2.4448577E3,4.885791E1,2.9879745E2,1.5734423E3,1.10881516E2,5.5790923E3,6.667651E1,3.91075E3,4.967801E2,3.4709775E3,1.0730214E3,4.4768454E2,2.3013077E1,1.8311267E3,9.52355E0,1.2173665E3,1.0121289E3,2.8372305E2,4.7207092E1,9.2734825E1,8.1303253E2,3.2664047E1,9.284746E1,1.2598281E3,7.678036E1,7.373747E2,2.3468155E1,7.9968774E2,5.098019E1,1.20744E3,2.1649176E2],"tree_param":{"num_deleted":"0","num_feature":"204","num_nodes":"63","size_leaf_vector":"1"}},{"base_weights":[1.1508382E-3,-3.4863885E-2,1.17561415E-1,-7.926427E-3,-9.928601E-2,1.5140326E-1,6.5047815E-3,1.2730518E-2,-6.299273E-2,-1.0178292E-1,5.1293516E-1,9.7214095E-2,2.2353977E-1,2.418401E-1,-3.0829327E-2,-4.2215735E-4,1.0298138E-1,-1.03735E-3,-1.133808E-1,-4.650796E-2,-1.2888205E-1,-4.0387055E-3,7E-1,7E-1,8.939084E-2,1.0164453E-1,2.540423E-1,-9.18517E-2,3.915639E-1,-4.580028E-2,3.558984E-1,-4.0908877E-4,9.1705285E-3,4.1461587E-3,2.8848782E-2,-6.1190287E-3,2.8905848E-3,3.5E-2,-5.9453E-3,-4.247816E-3,5.618743E-3,-1.5958965E-2,-6.0090884E-3,3.5E-2,2.3574458E-2,1.5746776E-2,3.5E-2,3.275567E-3,1.3333112E-2,3.5E-2,4.247219E-3,8.742071E-3,1.7121967E-2,-1.0408358E-2,3.5E-2,2.6748457E-3,2.7410418E-2,-5.1292675E-3,1.7448005E-3,3.5E-2,-1.9042458E-3],"categories":[],"categories_nodes":[],"categories_segments":[],"categories_sizes":[],"default_left":[0,0,0,0,0,0,0,0,0,0,0,0,0,0,0,0,0,0,0,0,0,0,0,0,0,0,0,0,0,0,0,0,0,0,0,0,0,0,0,0,0,0,0,0,0,0,0,0,0,0,0,0,0,0,0,0,0,0,0,0,0],"id":19,"left_children":[1,3,5,7,9,11,13,15,17,19,21,23,25,27,29,31,33,35,37,39,41,-1,43,45,47,49,51,53,55,57,59,-1,-1,-1,-1,-1,-1,-1,-1,-1,-1,-1,-1,-1,-1,-1,-1,-1,-1,-1,-1,-1,-1,-1,-1,-1,-1,-1,-1,-1,-1],"loss_changes":[1.4224963E2,4.4967472E1,3.012909E1,2.0786913E1,1.1731644E1,2.3996796E1,1.6467344E1,1.5775085E1,1.556238E1,1.1393227E1,5.0105352E0,1.9130116E1,9.771225E0,1.2857235E1,9.382805E0,1.6548582E1,1.6023422E1,1.5980704E1,1.3987461E1,1.5312767E1,8.415375E0,0E0,7.617664E-2,6.970024E-1,1.468717E1,5.570112E0,1.4690796E1,1.0637178E1,9.361492E0,7.144635E0,8.393401E0,0E0,0E0,0E0,0E0,0E0,0E0,0E0,0E0,0E0,0E0,0E0,0E0,0E0,0E0,0E0,0E0,0E0,0E0,0E0,0E0,0E0,0E0,0E0,0E0,0E0,0E0,0E0,0E0,0E0,0E0],"parents":[2147483647,0,0,1,1,2,2,3,3,4,4,5,5,6,6,7,7,8,8,9,9,10,10,11,11,12,12,13,13,14,14,15,15,16,16,17,17,18,18,19,19,20,20,22,22,23,23,24,24,25,25,26,26,27,27,28,28,29,29,30,30],"right_children":[2,4,6,8,10,12,14,16,18,20,22,24,26,28,30,32,34,36,38,40,42,-1,44,46,48,50,52,54,56,58,60,-1,-1,-1,-1,-1,-1,-1,-1,-1,-1,-1,-1,-1,-1,-1,-1,-1,-1,-1,-1,-1,-1,-1,-1,-1,-1,-1,-1,-1,-1],"split_conditions":[4E0,5.3125E0,5.3E-1,4.2E-1,4.296426E-1,5E0,-1.6622894E-2,5.5318527E0,2.2488317E-1,-7.980593E-4,6.46763E-2,-4.4E0,2.7859503E-1,-2.436869E-2,1.2820514E-1,9.2E-1,3.9041165E-2,1.1410424E0,3.069E-1,8.762467E-1,5.3E1,-4.0387055E-3,7.1661115E-2,2E0,7.067138E-2,2.6481846E-1,-2.4172834E-3,3.0113605E-1,2.8567398E-1,-1.0438642E-2,1.875E-1,-4.0908877E-4,9.1705285E-3,4.1461587E-3,2.8848782E-2,-6.1190287E-3,2.8905848E-3,3.5E-2,-5.9453E-3,-4.247816E-3,5.618743E-3,-1.5958965E-2,-6.0090884E-3,3.5E-2,2.3574458E-2,1.5746776E-2,3.5E-2,3.275567E-3,1.3333112E-2,3.5E-2,4.247219E-3,8.742071E-3,1.7121967E-2,-1.0408358E-2,3.5E-2,2.6748457E-3,2.7410418E-2,-5.1292675E-3,1.7448005E-3,3.5E-2,-1.9042458E-3],"split_indices":[175,95,33,33,57,175,120,115,48,120,2,123,66,133,45,15,135,195,108,203,161,0,3,1,129,128,24,2,69,37,18,0,0,0,0,0,0,0,0,0,0,0,0,0,0,0,0,0,0,0,0,0,0,0,0,0,0,0,0,0,0],"split_type":[0,0,0,0,0,0,0,0,0,0,0,0,0,0,0,0,0,0,0,0,0,0,0,0,0,0,0,0,0,0,0,0,0,0,0,0,0,0,0,0,0,0,0,0,0,0,0,0,0,0,0,0,0,0,0,0,0,0,0,0,0],"sum_hessian":[3.3927613E4,2.5911803E4,8.015808E3,1.8272477E4,7.639327E3,6.143393E3,1.8724152E3,1.328839E4,4.9840864E3,7.6091274E3,3.019955E1,3.509439E3,2.633954E3,2.5562251E2,1.6167926E3,1.1599008E4,1.6893817E3,2.235911E3,2.7481758E3,2.5041174E3,5.1050103E3,9.814007E0,2.0385544E1,3.6753906E1,3.472685E3,5.280552E2,2.105899E3,7.929129E1,1.7633122E2,1.5573849E3,5.9407707E1,1.1130157E4,4.6885077E2,1.6219211E3,6.746056E1,7.298742E2,1.5060366E3,1.53840065E1,2.7327917E3,2.0165853E3,4.875321E2,2.2163387E2,4.8833765E3,1.0542797E1,9.842746E0,7.005445E0,2.974846E1,3.0616345E3,4.1105057E2,1.2320435E1,5.1573474E2,1.1122958E3,9.936032E2,7.353271E1,5.7585883E0,5.6257957E1,1.20073265E2,9.1396606E2,6.434189E2,3.097134E1,2.8436367E1],"tree_param":{"num_deleted":"0","num_feature":"204","num_nodes":"61","size_leaf_vector":"1"}},{"base_weights":[2.0860175E-3,-3.4507517E-2,1.205876E-1,3.5702598E-3,-8.6532295E-2,8.7047555E-2,2.1666512E-1,-1.7054699E-3,2.0759435E-1,-6.840925E-2,-1.5889488E-1,1.2556429E-1,9.932655E-3,3.2610366E-1,1.4775041E-1,5.688219E-3,-1.4454482E-1,3.434157E-1,-7.915497E-2,-1.2737271E-1,-4.0408734E-2,-2.2379242E-1,-6.992672E-2,4.275135E-2,1.7031382E-1,-6.5731935E-2,1.0665663E-1,6.663258E-2,3.8047656E-1,1.24323644E-1,6.642359E-1,-8.074408E-4,2.1379201E-3,-1.6894132E-2,-4.1882237E-3,3.5E-2,1.1488742E-2,1.6117854E-2,-1.6105808E-2,3.1143514E-2,-6.800201E-3,5.718389E-4,-4.1843853E-3,-1.1556509E-2,2.1525478E-2,6.29957E-3,-7.6696635E-3,4.5716823E-3,-6.137667E-3,7.00268E-3,1.6945865E-2,1.6875293E-2,-4.601785E-3,-1.4223292E-2,7.4804327E-3,-1.7270215E-2,8.753411E-3,2.9172206E-2,1.4284084E-2,4.7674007E-3,2.2054924E-2,3.5E-2,1.13455355E-2],"categories":[],"categories_nodes":[],"categories_segments":[],"categories_sizes":[],"default_left":[0,0,0,0,0,0,0,0,0,0,0,0,0,0,0,0,0,0,0,0,0,0,0,0,0,0,0,0,0,0,0,0,0,0,0,0,0,0,0,0,0,0,0,0,0,0,0,0,0,0,0,0,0,0,0,0,0,0,0,0,0,0,0],"id":20,"left_children":[1,3,5,7,9,11,13,15,17,19,21,23,25,27,29,31,33,35,37,39,41,43,45,47,49,51,53,55,57,59,61,-1,-1,-1,-1,-1,-1,-1,-1,-1,-1,-1,-1,-1,-1,-1,-1,-1,-1,-1,-1,-1,-1,-1,-1,-1,-1,-1,-1,-1,-1,-1,-1],"loss_changes":[1.4867345E2,5.189386E1,2.6048477E1,1.6281923E1,1.4507362E1,1.7813416E1,1.5733498E1,1.5574213E1,1.4877157E1,1.4614506E1,1.2782112E1,1.4815468E1,1.4636378E1,1.1370018E1,1.5475248E1,1.1350924E1,8.500198E0,1.4530811E1,1.2138387E1,1.8544346E1,1.3475865E1,6.250572E0,1.53308935E1,1.1327464E1,1.31989975E1,1.1933691E1,1.4788346E1,6.3668485E0,1.2677483E1,1.1259317E1,4.8515015E0,0E0,0E0,0E0,0E0,0E0,0E0,0E0,0E0,0E0,0E0,0E0,0E0,0E0,0E0,0E0,0E0,0E0,0E0,0E0,0E0,0E0,0E0,0E0,0E0,0E0,0E0,0E0,0E0,0E0,0E0,0E0,0E0],"parents":[2147483647,0,0,1,1,2,2,3,3,4,4,5,5,6,6,7,7,8,8,9,9,10,10,11,11,12,12,13,13,14,14,15,15,16,16,17,17,18,18,19,19,20,20,21,21,22,22,23,23,24,24,25,25,26,26,27,27,28,28,29,29,30,30],"right_children":[2,4,6,8,10,12,14,16,18,20,22,24,26,28,30,32,34,36,38,40,42,44,46,48,50,52,54,56,58,60,62,-1,-1,-1,-1,-1,-1,-1,-1,-1,-1,-1,-1,-1,-1,-1,-1,-1,-1,-1,-1,-1,-1,-1,-1,-1,-1,-1,-1,-1,-1,-1,-1],"split_conditions":[4E0,3.9E-1,2.8217E-1,3.8064462E-1,8E-1,2.3809524E-1,1.9E-1,1.6857808E0,2.7931863E-1,3.173E-1,1.3021203E0,4.8690476E0,4.74369E-3,9.281E1,4.347826E-1,3E0,2.884822E-1,2.559451E-1,6.280702E-2,6E0,3.038466E-1,6.25E-1,-2.7E1,1.4753759E0,3.254E-1,1.8383683E-1,6.692909E-1,-6.8965517E-3,9.844E1,4.4385776E-1,4.110278E-1,-8.074408E-4,2.1379201E-3,-1.6894132E-2,-4.1882237E-3,3.5E-2,1.1488742E-2,1.6117854E-2,-1.6105808E-2,3.1143514E-2,-6.800201E-3,5.718389E-4,-4.1843853E-3,-1.1556509E-2,2.1525478E-2,6.29957E-3,-7.6696635E-3,4.5716823E-3,-6.137667E-3,7.00268E-3,1.6945865E-2,1.6875293E-2,-4.601785E-3,-1.4223292E-2,7.4804327E-3,-1.7270215E-2,8.753411E-3,2.9172206E-2,1.4284084E-2,4.7674007E-3,2.2054924E-2,3.5E-2,1.13455355E-2],"split_indices":[175,33,53,54,33,34,33,117,146,107,195,94,134,106,97,175,4,57,21,87,22,5,173,195,107,59,137,104,106,19,62,0,0,0,0,0,0,0,0,0,0,0,0,0,0,0,0,0,0,0,0,0,0,0,0,0,0,0,0,0,0,0,0],"split_type":[0,0,0,0,0,0,0,0,0,0,0,0,0,0,0,0,0,0,0,0,0,0,0,0,0,0,0,0,0,0,0,0,0,0,0,0,0,0,0,0,0,0,0,0,0,0,0,0,0,0,0,0,0,0,0,0,0,0,0,0,0,0,0],"sum_hessian":[3.4283098E4,2.6194799E4,8.0883E3,1.5125287E4,1.1069512E4,5.9967715E3,2.091528E3,1.4744997E4,3.802899E2,8.853994E3,2.215517E3,3.9988364E3,1.9979352E3,8.06713E2,1.2848151E3,1.4020237E4,7.247591E2,2.579242E2,1.2236569E2,2.8496519E3,6.004343E3,1.2801792E3,9.353378E2,1.4034967E3,2.5953396E3,1.1211836E3,8.767516E2,1.4014713E2,6.6656586E2,1.2302539E3,5.456117E1,8.82326E3,5.1969775E3,1.722585E2,5.525006E2,4.209431E1,2.1582988E2,4.6007683E1,7.635801E1,3.1602085E1,2.8180498E3,2.732142E3,3.2722004E3,1.2666213E3,1.3557934E1,2.7928125E2,6.560566E2,1.0848435E3,3.186532E2,2.2019702E3,3.9336932E2,6.793321E1,1.0532504E3,8.61989E1,7.9055273E2,2.874306E1,1.1140407E2,2.1056516E2,4.5600073E2,1.1283444E3,1.01909515E2,3.137778E1,2.3183388E1],"tree_param":{"num_deleted":"0","num_feature":"204","num_nodes":"63","size_leaf_vector":"1"}},{"base_weights":[-1.0045817E-3,-3.495769E-2,1.0845342E-1,1.8909646E-3,-8.497638E-2,8.5431084E-2,2.4488612E-1,4.0076174E-2,-3.260179E-2,-6.688402E-2,-1.5709582E-1,1.1244363E-1,-1.8600054E-2,4.2159542E-1,1.8305546E-1,3.341301E-2,4.0484726E-1,-5.2957058E-2,3.969271E-2,-5.2887876E-2,-1.6485022E-1,-1.0028124E-1,-2.4674858E-1,1.7156713E-1,6.0751278E-2,-6.293854E-2,1.7991763E-1,5.995946E-1,2.3528388E-1,1.5117937E-1,4.3564442E-1,-5.1661986E-3,2.4108693E-3,5.2673207E-3,3.5E-2,1.599924E-4,-4.066841E-3,-8.309209E-3,3.95195E-3,-4.5329696E-3,-7.29856E-4,-8.846858E-3,3.3836573E-2,-8.394463E-3,-8.314589E-5,-1.290213E-2,3.277857E-2,5.913051E-3,1.529285E-2,-4.603654E-3,4.516334E-3,-1.0466615E-2,-1.6677608E-4,-6.226839E-3,1.3823907E-2,2.1537466E-2,3.5E-2,2.4146987E-2,4.908444E-3,9.606128E-3,-1.4804354E-3,1.1517115E-2,2.9662857E-2],"categories":[],"categories_nodes":[],"categories_segments":[],"categories_sizes":[],"default_left":[0,0,0,0,0,0,0,0,0,0,0,0,0,0,0,0,0,0,0,0,0,0,0,0,0,0,0,0,0,0,0,0,0,0,0,0,0,0,0,0,0,0,0,0,0,0,0,0,0,0,0,0,0,0,0,0,0,0,0,0,0,0,0],"id":21,"left_children":[1,3,5,7,9,11,13,15,17,19,21,23,25,27,29,31,33,35,37,39,41,43,45,47,49,51,53,55,57,59,61,-1,-1,-1,-1,-1,-1,-1,-1,-1,-1,-1,-1,-1,-1,-1,-1,-1,-1,-1,-1,-1,-1,-1,-1,-1,-1,-1,-1,-1,-1,-1,-1],"loss_changes":[1.2623336E2,4.7782303E1,2.5237839E1,1.9663809E1,1.4338608E1,1.9341805E1,1.2602776E1,1.7207897E1,1.1545158E1,1.2048218E1,1.12054405E1,1.6687637E1,1.2505661E1,9.809452E0,6.8703804E0,1.4093033E1,1.2822689E1,9.755592E0,1.3977677E1,1.1128752E1,1.1296448E1,9.008876E0,8.87767E0,1.8204086E1,1.3190631E1,1.0130278E1,7.6608534E0,4.8097725E0,4.986624E0,5.67918E0,2.9698277E0,0E0,0E0,0E0,0E0,0E0,0E0,0E0,0E0,0E0,0E0,0E0,0E0,0E0,0E0,0E0,0E0,0E0,0E0,0E0,0E0,0E0,0E0,0E0,0E0,0E0,0E0,0E0,0E0,0E0,0E0,0E0,0E0],"parents":[2147483647,0,0,1,1,2,2,3,3,4,4,5,5,6,6,7,7,8,8,9,9,10,10,11,11,12,12,13,13,14,14,15,15,16,16,17,17,18,18,19,19,20,20,21,21,22,22,23,23,24,24,25,25,26,26,27,27,28,28,29,29,30,30],"right_children":[2,4,6,8,10,12,14,16,18,20,22,24,26,28,30,32,34,36,38,40,42,44,46,48,50,52,54,56,58,60,62,-1,-1,-1,-1,-1,-1,-1,-1,-1,-1,-1,-1,-1,-1,-1,-1,-1,-1,-1,-1,-1,-1,-1,-1,-1,-1,-1,-1,-1,-1,-1,-1],"split_conditions":[4E0,3.9E-1,6E0,4.8690476E0,8E-1,2.6040956E-1,1E0,3.9041165E-2,2.8147763E-1,3.3800444E-1,4.07E1,4.9166665E0,3.141353E-2,3.5E-1,4E0,-1.4787187E-2,3.118939E-1,1E0,1.0399258E0,4.2328504E-1,2.84E2,1.3021203E0,3.2666667E0,2.8217E-1,9.13E1,-2.3076923E-1,4.347826E-2,6E-1,-5.1425713E-1,9.675354E-2,4.5454547E-2,-5.1661986E-3,2.4108693E-3,5.2673207E-3,3.5E-2,1.599924E-4,-4.066841E-3,-8.309209E-3,3.95195E-3,-4.5329696E-3,-7.29856E-4,-8.846858E-3,3.3836573E-2,-8.394463E-3,-8.314589E-5,-1.290213E-2,3.277857E-2,5.913051E-3,1.529285E-2,-4.603654E-3,4.516334E-3,-1.0466615E-2,-1.6677608E-4,-6.226839E-3,1.3823907E-2,2.1537466E-2,3.5E-2,2.4146987E-2,4.908444E-3,9.606128E-3,-1.4804354E-3,1.1517115E-2,2.9662857E-2],"split_indices":[175,33,175,95,33,20,72,135,63,22,10,95,133,12,40,76,64,11,196,62,161,195,123,53,106,123,18,31,77,60,18,0,0,0,0,0,0,0,0,0,0,0,0,0,0,0,0,0,0,0,0,0,0,0,0,0,0,0,0,0,0,0,0],"split_type":[0,0,0,0,0,0,0,0,0,0,0,0,0,0,0,0,0,0,0,0,0,0,0,0,0,0,0,0,0,0,0,0,0,0,0,0,0,0,0,0,0,0,0,0,0,0,0,0,0,0,0,0,0,0,0,0,0,0,0,0,0,0,0],"sum_hessian":[3.3964195E4,2.5923568E4,8.0406284E3,1.4927487E4,1.0996081E4,6.8811025E3,1.1595256E3,7.084466E3,7.843021E3,8.79231E3,2.203771E3,5.46261E3,1.4184927E3,2.9904614E2,8.604795E2,6.9584497E3,1.2601625E2,6.1201084E3,1.7229128E3,7.694552E3,1.097758E3,1.3502266E3,8.5354443E2,2.5470662E3,2.915544E3,1.1600754E3,2.5841733E2,1.5180028E2,1.4724586E2,7.6547675E2,9.5002716E1,6.7920056E2,6.279249E3,6.7939026E1,5.8077225E1,2.0548765E3,4.0652317E3,2.7592575E2,1.446987E3,3.872851E3,3.8217007E3,1.0829937E3,1.47643585E1,8.006421E2,5.495845E2,8.436982E2,9.846256E0,1.8246539E3,7.2241223E2,4.7240125E2,2.4431426E3,3.349289E2,8.251465E2,6.2154625E1,1.962627E2,9.335276E1,5.8447506E1,5.1573013E1,9.567286E1,6.240787E2,1.413981E2,4.2328365E1,5.267435E1],"tree_param":{"num_deleted":"0","num_feature":"204","num_nodes":"63","size_leaf_vector":"1"}},{"base_weights":[-1.6358295E-3,-3.4275077E-2,1.04422815E-1,7.1195187E-3,-7.061869E-2,1.6876343E-1,5.4001596E-2,-1.5464537E-3,2.079736E-1,-5.406285E-2,-1.5727434E-1,1.9616032E-1,2.4434142E-2,2.5770834E-1,3.5933502E-2,-4.7782116E-2,2.25967E-2,1.1667019E-1,5.805563E-1,-1.03924505E-1,-2.8586494E-2,-2.3163156E-1,-8.5024066E-2,1.7609966E-1,4.5019585E-1,3.7587202E-1,-1.1803714E-2,5.690892E-2,5.2109927E-1,-4.9985936E-3,1.1878138E-1,-3.2737073E-3,5.1748897E-3,2.0242396E-3,-3.7117358E-3,1.7263595E-2,-2.0773974E-3,3.5E-2,7.67001E-3,2.0893147E-2,-5.5619352E-3,5.376144E-3,-2.1764715E-3,5.2722227E-3,-1.3071771E-2,-7.183758E-3,8.141049E-3,1.4332435E-2,6.9394237E-3,3.1632688E-2,6.7962036E-3,3.4411397E-2,-8.433625E-3,1.1313586E-3,-1.7030662E-2,-5.1980233E-3,1.5207506E-2,3.5E-2,5.671616E-3,-2.3833413E-3,3.6834746E-3,1.9300133E-3,1.2002896E-2],"categories":[],"categories_nodes":[],"categories_segments":[],"categories_sizes":[],"default_left":[0,0,0,0,0,0,0,0,0,0,0,0,0,0,0,0,0,0,0,0,0,0,0,0,0,0,0,0,0,0,0,0,0,0,0,0,0,0,0,0,0,0,0,0,0,0,0,0,0,0,0,0,0,0,0,0,0,0,0,0,0,0,0],"id":22,"left_children":[1,3,5,7,9,11,13,15,17,19,21,23,25,27,29,31,33,35,37,39,41,43,45,47,49,51,53,55,57,59,61,-1,-1,-1,-1,-1,-1,-1,-1,-1,-1,-1,-1,-1,-1,-1,-1,-1,-1,-1,-1,-1,-1,-1,-1,-1,-1,-1,-1,-1,-1,-1,-1],"loss_changes":[1.167858E2,3.8811176E1,2.5746552E1,2.0994726E1,1.9699371E1,1.3785927E1,1.6378635E1,1.2909379E1,1.6903503E1,1.4649853E1,1.1815456E1,1.4857887E1,7.1050887E0,1.9147083E1,1.3873497E1,1.0624809E1,1.3162896E1,1.4552364E1,1.2590363E1,1.4931824E1,1.5534721E1,1.092849E1,1.6288177E1,1.1172035E1,1.2178127E1,8.985964E0,5.740838E0,8.259228E0,1.5642738E1,9.197594E0,1.31459255E1,0E0,0E0,0E0,0E0,0E0,0E0,0E0,0E0,0E0,0E0,0E0,0E0,0E0,0E0,0E0,0E0,0E0,0E0,0E0,0E0,0E0,0E0,0E0,0E0,0E0,0E0,0E0,0E0,0E0,0E0,0E0,0E0],"parents":[2147483647,0,0,1,1,2,2,3,3,4,4,5,5,6,6,7,7,8,8,9,9,10,10,11,11,12,12,13,13,14,14,15,15,16,16,17,17,18,18,19,19,20,20,21,21,22,22,23,23,24,24,25,25,26,26,27,27,28,28,29,29,30,30],"right_children":[2,4,6,8,10,12,14,16,18,20,22,24,26,28,30,32,34,36,38,40,42,44,46,48,50,52,54,56,58,60,62,-1,-1,-1,-1,-1,-1,-1,-1,-1,-1,-1,-1,-1,-1,-1,-1,-1,-1,-1,-1,-1,-1,-1,-1,-1,-1,-1,-1,-1,-1,-1,-1],"split_conditions":[4E0,2.8E-1,4.9139786E0,1.2666533E0,8E-1,4.492814E-1,-2.6844533E-2,1E0,7.3E-1,3.176E-1,1.88E2,3.278E-1,-2.5009315E-2,1.7383283E-2,4.1937333E-1,3.3687165E-1,5.266667E0,9.29E1,7.6E-1,6E0,4.375E0,-3.4E0,1.3071153E0,1.2E-1,9.388445E-2,1.1814921E-1,1.7972484E0,3.2608303E-1,1.2139534E-1,4.3094972E-1,3.221154E-1,-3.2737073E-3,5.1748897E-3,2.0242396E-3,-3.7117358E-3,1.7263595E-2,-2.0773974E-3,3.5E-2,7.67001E-3,2.0893147E-2,-5.5619352E-3,5.376144E-3,-2.1764715E-3,5.2722227E-3,-1.3071771E-2,-7.183758E-3,8.141049E-3,1.4332435E-2,6.9394237E-3,3.1632688E-2,6.7962036E-3,3.4411397E-2,-8.433625E-3,1.1313586E-3,-1.7030662E-2,-5.1980233E-3,1.5207506E-2,3.5E-2,5.671616E-3,-2.3833413E-3,3.6834746E-3,1.9300133E-3,1.2002896E-2],"split_indices":[175,33,95,201,33,52,120,29,14,107,87,107,135,71,203,56,95,8,12,87,83,125,77,31,3,25,195,127,126,62,130,0,0,0,0,0,0,0,0,0,0,0,0,0,0,0,0,0,0,0,0,0,0,0,0,0,0,0,0,0,0,0,0],"split_type":[0,0,0,0,0,0,0,0,0,0,0,0,0,0,0,0,0,0,0,0,0,0,0,0,0,0,0,0,0,0,0,0,0,0,0,0,0,0,0,0,0,0,0,0,0,0,0,0,0,0,0,0,0,0,0,0,0,0,0,0,0,0,0],"sum_hessian":[3.3734758E4,2.5796605E4,7.938155E3,1.2060621E4,1.3735984E4,3.4866396E3,4.451515E3,1.1562731E4,4.9788885E2,1.1534E4,2.201984E3,2.9300854E3,5.565542E2,3.6158636E2,4.089929E3,3.9662102E3,7.5965215E3,4.009476E2,9.6941246E1,3.8993042E3,7.634696E3,1.0840822E3,1.1179017E3,2.7172063E3,2.1287898E2,5.1147633E1,5.054066E2,2.0586139E2,1.5572496E2,2.7380825E3,1.3518463E3,3.5514402E3,4.1477005E2,6.412495E3,1.1840264E3,1.6351315E2,2.3743445E2,4.948388E1,4.7457367E1,5.3127266E1,3.846177E3,7.546537E2,6.880042E3,8.786037E1,9.962218E2,9.0431995E2,2.135818E2,6.8397614E2,2.0332302E3,1.3404367E2,7.883531E1,3.2335705E1,1.8811928E1,4.5834293E2,4.7063633E1,1.2506585E2,8.079554E1,9.525693E1,6.0468037E1,1.7754841E3,9.625983E2,8.145986E2,5.372478E2],"tree_param":{"num_deleted":"0","num_feature":"204","num_nodes":"63","size_leaf_vector":"1"}},{"base_weights":[2.663913E-4,-3.3605825E-2,1.0899259E-1,-3.7265725E-3,-8.857517E-2,8.0030985E-2,1.8993388E-1,7.209694E-3,-9.768677E-2,-2.9069817E-2,-1.1691716E-1,3.7260726E-2,1.3861316E-1,1.6767147E-1,4.493199E-1,-2.4578115E-2,4.0138062E-2,-2.260677E-1,-5.0367575E-2,-9.31983E-2,5.5609837E-2,-1.0552052E-1,-3.06573E-1,1.4218546E-1,-5.0498312E-3,1.5451129E-1,-9.0278365E-2,5.5417204E-1,1.5228243E-1,5.7015735E-1,-5.8686204E-2,1.6751891E-3,-3.0257609E-3,1.4291184E-2,1.5403003E-3,1.647101E-2,-1.2582454E-2,-2.9596032E-3,3.5E-2,9.476169E-3,-6.0235434E-3,7.438519E-4,2.2879189E-2,-5.445563E-3,2.2891834E-2,-3.002071E-3,-1.8463524E-2,1.7866012E-2,4.7128885E-3,-1.6391175E-3,1.027503E-2,9.078025E-3,8.77442E-5,-1.19181285E-2,6.6446266E-3,3.0120225E-3,3.5E-2,7.0054196E-3,3.2366157E-2,3.1321272E-2,-8.932604E-5,-8.726376E-3,1.2261524E-3],"categories":[],"categories_nodes":[],"categories_segments":[],"categories_sizes":[],"default_left":[0,0,0,0,0,0,0,0,0,0,0,0,0,0,0,0,0,0,0,0,0,0,0,0,0,0,0,0,0,0,0,0,0,0,0,0,0,0,0,0,0,0,0,0,0,0,0,0,0,0,0,0,0,0,0,0,0,0,0,0,0,0,0],"id":23,"left_children":[1,3,5,7,9,11,13,15,17,19,21,23,25,27,29,31,33,35,37,39,41,43,45,47,49,51,53,55,57,59,61,-1,-1,-1,-1,-1,-1,-1,-1,-1,-1,-1,-1,-1,-1,-1,-1,-1,-1,-1,-1,-1,-1,-1,-1,-1,-1,-1,-1,-1,-1,-1,-1],"loss_changes":[1.2520795E2,4.257558E1,1.8915894E1,1.7258667E1,1.5391716E1,1.4901398E1,1.2209419E1,1.5748693E1,1.0626116E1,1.600535E1,1.3331879E1,1.5272886E1,9.148548E0,1.1578392E1,1.0319374E1,1.5981515E1,1.69351E1,6.7802258E0,1.0380354E1,1.2953737E1,2.079376E1,1.1194092E1,5.3871117E0,1.0159819E1,1.4327182E1,9.699711E0,5.4403577E0,8.576998E0,1.1282356E1,4.360382E0,3.2337987E-1,0E0,0E0,0E0,0E0,0E0,0E0,0E0,0E0,0E0,0E0,0E0,0E0,0E0,0E0,0E0,0E0,0E0,0E0,0E0,0E0,0E0,0E0,0E0,0E0,0E0,0E0,0E0,0E0,0E0,0E0,0E0,0E0],"parents":[2147483647,0,0,1,1,2,2,3,3,4,4,5,5,6,6,7,7,8,8,9,9,10,10,11,11,12,12,13,13,14,14,15,15,16,16,17,17,18,18,19,19,20,20,21,21,22,22,23,23,24,24,25,25,26,26,27,27,28,28,29,29,30,30],"right_children":[2,4,6,8,10,12,14,16,18,20,22,24,26,28,30,32,34,36,38,40,42,44,46,48,50,52,54,56,58,60,62,-1,-1,-1,-1,-1,-1,-1,-1,-1,-1,-1,-1,-1,-1,-1,-1,-1,-1,-1,-1,-1,-1,-1,-1,-1,-1,-1,-1,-1,-1,-1,-1],"split_conditions":[4E0,5.2083335E0,2.8217E-1,8.775067E-1,-9.030025E-4,5E0,1.644687E0,1.0008235E-1,3.8902597E0,2.7174276E-1,3.1641436E-1,6.576368E-2,1.22054845E-1,6.213018E-1,1.0173331E-1,2.6411542E-1,3.0518848E-1,-1.9063511E0,4.6217108E-1,6.4E1,3.27E2,3.3322223E-2,3.8176724E-1,-1.2823839E-2,3.578014E-1,5.390805E0,2.6086956E-2,8.194549E-2,3.5290588E-2,3.5E-1,4.761905E-2,1.6751891E-3,-3.0257609E-3,1.4291184E-2,1.5403003E-3,1.647101E-2,-1.2582454E-2,-2.9596032E-3,3.5E-2,9.476169E-3,-6.0235434E-3,7.438519E-4,2.2879189E-2,-5.445563E-3,2.2891834E-2,-3.002071E-3,-1.8463524E-2,1.7866012E-2,4.7128885E-3,-1.6391175E-3,1.027503E-2,9.078025E-3,8.77442E-5,-1.19181285E-2,6.6446266E-3,3.0120225E-3,3.5E-2,7.0054196E-3,3.2366157E-2,3.1321272E-2,-8.932604E-5,-8.726376E-3,1.2261524E-3],"split_indices":[175,95,53,202,120,175,196,184,115,53,59,61,37,116,3,19,22,143,19,163,87,6,122,174,127,95,45,50,135,17,35,0,0,0,0,0,0,0,0,0,0,0,0,0,0,0,0,0,0,0,0,0,0,0,0,0,0,0,0,0,0,0,0],"split_type":[0,0,0,0,0,0,0,0,0,0,0,0,0,0,0,0,0,0,0,0,0,0,0,0,0,0,0,0,0,0,0,0,0,0,0,0,0,0,0,0,0,0,0,0,0,0,0,0,0,0,0,0,0,0,0,0,0,0,0,0,0,0,0],"sum_hessian":[3.399606E4,2.5921307E4,8.0747515E3,1.6793867E4,9.127441E3,5.948358E3,2.1263938E3,1.5043803E4,1.7500632E3,2.9454192E3,6.182022E3,3.439124E3,2.5092336E3,1.9598329E3,1.6656075E2,7.654596E3,7.3892065E3,4.7030606E2,1.2797572E3,1.6760411E3,1.269378E3,5.833063E3,3.4895935E2,9.876122E2,2.451512E3,2.3465728E3,1.6266096E2,7.3704765E1,1.8861282E3,1.344559E2,3.210485E1,2.92586E3,4.7287363E3,2.693146E2,7.119892E3,2.0182167E1,4.501239E2,1.2690164E3,1.0740846E1,1.4693077E2,1.5291104E3,1.153526E3,1.1585202E2,5.798967E3,3.40962E1,7.114987E1,2.7780948E2,1.7875827E2,8.0885394E2,2.1669392E3,2.8457272E2,1.9934038E3,3.5316888E2,9.773872E1,6.492223E1,2.5034328E1,4.8670437E1,1.8421101E3,4.40181E1,1.2232615E2,1.2129752E1,1.2962046E1,1.9142807E1],"tree_param":{"num_deleted":"0","num_feature":"204","num_nodes":"63","size_leaf_vector":"1"}},{"base_weights":[-2.2093442E-3,-3.488235E-2,1.0143327E-1,-1.2084771E-2,-9.5916145E-2,1.641523E-1,5.0282955E-2,-5.4079432E-2,1.5497128E-2,-1.8309213E-1,-7.190662E-2,1.5674758E-1,6.3807505E-1,2.3926665E-1,3.1082252E-2,4.3396566E-2,-7.4661516E-2,-9.18446E-2,2.9320547E-2,-1.9144785E-1,3.2295454E-1,3.7627548E-1,-7.702795E-2,1.3138594E-1,2.9272795E-1,2.8607313E-2,7E-1,-4.63474E-2,4.278381E-1,-3.5471283E-2,7.452264E-2,6.7741616E-4,2.2838246E-2,-8.923102E-3,-2.992493E-3,-5.745515E-3,1.43524185E-2,2.535628E-3,-2.6241757E-3,8.475843E-3,-1.0117173E-2,3.5E-2,-2.8162969E-3,3.5E-2,-2.0496345E-3,2.4917614E-4,-5.044371E-3,1.1239821E-2,4.592422E-3,9.213257E-3,2.0890776E-2,-4.6885395E-3,1.2609775E-2,3.5E-2,2.2146545E-2,-1.3606374E-2,8.7776985E-3,-1.1059813E-2,2.6477134E-2,1.9926417E-3,-6.0262363E-3,2.9995705E-3,2.2250788E-2],"categories":[],"categories_nodes":[],"categories_segments":[],"categories_sizes":[],"default_left":[0,0,0,0,0,0,0,0,0,0,0,0,0,0,0,0,0,0,0,0,0,0,0,0,0,0,0,0,0,0,0,0,0,0,0,0,0,0,0,0,0,0,0,0,0,0,0,0,0,0,0,0,0,0,0,0,0,0,0,0,0,0,0],"id":24,"left_children":[1,3,5,7,9,11,13,15,17,19,21,23,25,27,29,31,33,35,37,39,41,43,45,47,49,51,53,55,57,59,61,-1,-1,-1,-1,-1,-1,-1,-1,-1,-1,-1,-1,-1,-1,-1,-1,-1,-1,-1,-1,-1,-1,-1,-1,-1,-1,-1,-1,-1,-1,-1,-1],"loss_changes":[1.1508838E2,3.5953476E1,2.6125107E1,2.1793198E1,1.469471E1,1.2739601E1,1.627882E1,1.4967228E1,1.6853899E1,6.4753036E0,1.2678795E1,1.2390007E1,8.304533E0,2.2306614E1,1.17853E1,1.6045511E1,9.458038E0,1.1358266E1,1.7610138E1,5.9052124E0,4.395528E0,1.52586975E1,1.06643715E1,1.1203587E1,7.597744E0,5.70516E-1,1.0763931E-1,8.337494E0,1.6576073E1,1.0320823E1,1.3250921E1,0E0,0E0,0E0,0E0,0E0,0E0,0E0,0E0,0E0,0E0,0E0,0E0,0E0,0E0,0E0,0E0,0E0,0E0,0E0,0E0,0E0,0E0,0E0,0E0,0E0,0E0,0E0,0E0,0E0,0E0,0E0,0E0],"parents":[2147483647,0,0,1,1,2,2,3,3,4,4,5,5,6,6,7,7,8,8,9,9,10,10,11,11,12,12,13,13,14,14,15,15,16,16,17,17,18,18,19,19,20,20,21,21,22,22,23,23,24,24,25,25,26,26,27,27,28,28,29,29,30,30],"right_children":[2,4,6,8,10,12,14,16,18,20,22,24,26,28,30,32,34,36,38,40,42,44,46,48,50,52,54,56,58,60,62,-1,-1,-1,-1,-1,-1,-1,-1,-1,-1,-1,-1,-1,-1,-1,-1,-1,-1,-1,-1,-1,-1,-1,-1,-1,-1,-1,-1,-1,-1,-1,-1],"split_conditions":[4E0,5.3431373E0,4.9166665E0,9.502924E-2,2E0,5.984734E-1,-2.3854053E-2,1E-1,-3.9401397E-2,8.525755E-2,1E-1,6E0,1.82E2,-1.7788041E-3,3.192E-1,1E1,-1.3956667E0,8.7E-1,1.18871E0,5.13E1,1.0417223E-1,1.4956002E3,-8.798634E-3,6.831326E-2,1.0396149E-1,7E0,6E0,5.1660515E-2,-3.6022894E-2,4.5E-1,1.57E1,6.7741616E-4,2.2838246E-2,-8.923102E-3,-2.992493E-3,-5.745515E-3,1.43524185E-2,2.535628E-3,-2.6241757E-3,8.475843E-3,-1.0117173E-2,3.5E-2,-2.8162969E-3,3.5E-2,-2.0496345E-3,2.4917614E-4,-5.044371E-3,1.1239821E-2,4.592422E-3,9.213257E-3,2.0890776E-2,-4.6885395E-3,1.2609775E-2,3.5E-2,2.2146545E-2,-1.3606374E-2,8.7776985E-3,-1.1059813E-2,2.6477134E-2,1.9926417E-3,-6.0262363E-3,2.9995705E-3,2.2250788E-2],"split_indices":[175,95,95,184,175,5,120,14,133,132,157,175,87,24,108,41,203,15,169,85,7,140,120,51,183,0,0,129,68,30,86,0,0,0,0,0,0,0,0,0,0,0,0,0,0,0,0,0,0,0,0,0,0,0,0,0,0,0,0,0,0,0,0],"split_type":[0,0,0,0,0,0,0,0,0,0,0,0,0,0,0,0,0,0,0,0,0,0,0,0,0,0,0,0,0,0,0,0,0,0,0,0,0,0,0,0,0,0,0,0,0,0,0,0,0,0,0,0,0,0,0,0,0,0,0,0,0,0,0],"sum_hessian":[3.398426E4,2.58392E4,8.145062E3,1.8813213E4,7.025986E3,3.6577847E3,4.487278E3,7.4576504E3,1.1355563E4,1.5157686E3,5.5102173E3,3.6028237E3,5.4960876E1,4.1280142E2,4.074476E3,1.2999633E3,6.157687E3,1.2948829E3,1.0060681E4,1.4917587E3,2.4009869E1,6.1434452E1,5.448783E3,3.0381465E3,5.646773E2,1.8986164E1,3.5974712E1,1.644605E2,2.4834093E2,1.6092234E3,2.4652527E3,1.213381E3,8.6582275E1,7.6755927E2,5.390128E3,1.2212351E3,7.3647865E1,7.9754546E3,2.0852256E3,4.3282375E1,1.4484763E3,1.0253602E1,1.3756268E1,2.1835495E1,3.9598957E1,1.2281366E3,4.2206465E3,9.021232E2,2.1360232E3,3.037609E2,2.609164E2,1.264545E1,6.3407135E0,2.7931137E1,8.043575E0,8.140561E1,8.305488E1,3.3484253E1,2.1485667E2,8.5370544E2,7.5551794E2,2.3733296E3,9.19232E1],"tree_param":{"num_deleted":"0","num_feature":"204","num_nodes":"63","size_leaf_vector":"1"}},{"base_weights":[1.4203344E-3,-3.0303555E-2,1.02682345E-1,2.052733E-3,-7.4684195E-2,1.6827497E-1,5.1208083E-2,-9.374257E-3,