{"learner":{"attributes":{"best_iteration":"3","best_score":"0.6103498898947883"},"feature_names":["p_cover_poisson","bullpen_burn_delta","p_script_c","wind_vector_out","close_total","home_sp_k_pct_10d","away_sp_k_pct_10d","poisson_script_disagree"],"feature_types":[],"gradient_booster":{"model":{"cats":{"enc":[],"feature_segments":[],"sorted_idx":[]},"gbtree_model_param":{"num_parallel_tree":"1","num_trees":"34"},"iteration_indptr":[0,1,2,3,4,5,6,7,8,9,10,11,12,13,14,15,16,17,18,19,20,21,22,23,24,25,26,27,28,29,30,31,32,33,34],"tree_info":[0,0,0,0,0,0,0,0,0,0,0,0,0,0,0,0,0,0,0,0,0,0,0,0,0,0,0,0,0,0,0,0,0,0],"trees":[{"base_weights":[-1.8048374E-3,2.7534375E-1,-2.0580652E-1,1.8568158E-1,8.010203E-1,2.5444227E-1,-2.5836915E-1,-4.907079E-1,2.3215473E-1,3.8853258E-2,5.099844E-1,-7.288298E-3,3.6157513E-1,-2.878733E-1,3.4168082E-1,-6.1885496E-3,-2.0518001E-2,1.2985834E-2,2.4640635E-3,2.1444868E-2,7.0698216E-4,1.556571E-2,-4.2557423E-3,-6.1680656E-3,-1.6950874E-2,1.9210907E-2,-1.4892922E-3],"categories":[],"categories_nodes":[],"categories_segments":[],"categories_sizes":[],"default_left":[0,0,0,0,0,0,0,0,0,0,0,0,0,0,0,0,0,0,0,0,0,0,0,0,0,0,0],"id":0,"left_children":[1,3,5,7,9,11,13,15,17,-1,19,-1,21,23,25,-1,-1,-1,-1,-1,-1,-1,-1,-1,-1,-1,-1],"loss_changes":[4.8783936E1,1.7020035E1,1.2121958E1,1.0056336E1,6.609577E0,2.8865407E0,8.057703E0,9.259987E-1,8.837604E0,0E0,3.535489E0,0E0,3.5261593E0,9.554779E0,2.5752883E0,0E0,0E0,0E0,0E0,0E0,0E0,0E0,0E0,0E0,0E0,0E0,0E0],"parents":[2147483647,0,0,1,1,2,2,3,3,4,4,5,5,6,6,7,7,8,8,10,10,12,12,13,13,14,14],"right_children":[2,4,6,8,10,12,14,16,18,-1,20,-1,22,24,26,-1,-1,-1,-1,-1,-1,-1,-1,-1,-1,-1,-1],"split_conditions":[-6.1804987E-2,7.888228E-1,1.0344828E-1,-8.770965E-1,9.52381E-2,-7.4076624E0,7.548842E-1,-1.1347076E0,-3.005764E-1,3.8853258E-2,3.846154E-1,-7.288298E-3,8.0361074E-1,3.5618353E-1,2.0158103E-1,-6.1885496E-3,-2.0518001E-2,1.2985834E-2,2.4640635E-3,2.1444868E-2,7.0698216E-4,1.556571E-2,-4.2557423E-3,-6.1680656E-3,-1.6950874E-2,1.9210907E-2,-1.4892922E-3],"split_indices":[1,0,6,1,6,3,1,1,1,0,5,0,0,1,5,0,0,0,0,0,0,0,0,0,0,0,0],"split_type":[0,0,0,0,0,0,0,0,0,0,0,0,0,0,0,0,0,0,0,0,0,0,0,0,0,0,0],"sum_hessian":[8.598369E2,3.6433768E2,4.9549924E2,3.129834E2,5.1354263E1,5.0197636E1,4.453016E2,1.9200018E1,2.937834E2,1.7118088E1,3.4236176E1,8.559044E0,4.163859E1,4.2517627E2,2.0125319E1,9.021695E0,1.0178322E1,1.24453125E2,1.6933028E2,2.3595201E1,1.0640973E1,3.1691595E1,9.946997E0,3.2987018E2,9.530611E1,1.0872299E1,9.25302E0],"tree_param":{"num_deleted":"0","num_feature":"8","num_nodes":"27","size_leaf_vector":"1"}},{"base_weights":[6.1768754E-3,2.4450472E-1,-1.704306E-1,-2.3681795E-2,2.861604E-1,-2.114972E-1,6.0380346E-1,4.2983726E-1,1.8653907E-1,-1.3360107E-1,-4.7784793E-1,2.631109E-2,1.6892094E-3,2.0155566E-2,9.208805E-3,4.1273185E-3,2.6667198E-2,9.2213525E-4,-6.7128646E-3,-3.0096734E-2,-1.12099815E-2],"categories":[],"categories_nodes":[],"categories_segments":[],"categories_sizes":[],"default_left":[0,0,0,0,0,0,0,0,0,0,0,0,0,0,0,0,0,0,0,0,0],"id":1,"left_children":[1,3,5,-1,7,9,11,13,15,17,19,-1,-1,-1,-1,-1,-1,-1,-1,-1,-1],"loss_changes":[3.637316E1,1.6178974E1,1.5974196E1,0E0,4.955969E0,9.7073765E0,3.724411E0,3.9749165E0,7.110016E0,5.457917E0,5.2578297E0,0E0,0E0,0E0,0E0,0E0,0E0,0E0,0E0,0E0,0E0],"parents":[2147483647,0,0,1,1,2,2,4,4,5,5,6,6,7,7,8,8,9,9,10,10],"right_children":[2,4,6,-1,8,10,12,14,16,18,20,-1,-1,-1,-1,-1,-1,-1,-1,-1,-1],"split_conditions":[-5.5312876E-2,-9.895397E-1,7.548842E-1,-2.3681795E-2,-3.133721E-1,3.5618353E-1,2.413793E-1,4.255575E-1,6.456563E-1,4.6257016E-1,3.92069E-1,2.631109E-2,1.6892094E-3,2.0155566E-2,9.208805E-3,4.1273185E-3,2.6667198E-2,9.2213525E-4,-6.7128646E-3,-3.0096734E-2,-1.12099815E-2],"split_indices":[1,1,1,0,1,1,5,2,2,2,1,0,0,0,0,0,0,0,0,0,0],"split_type":[0,0,0,0,0,0,0,0,0,0,0,0,0,0,0,0,0,0,0,0,0],"sum_hessian":[8.6118097E2,3.66296E2,4.9488495E2,1.3143654E1,3.5315234E2,4.7099298E2,2.389197E1,1.4256653E2,2.1058582E2,3.661595E2,1.048335E2,1.5335701E1,8.556269E0,4.5752434E1,9.6814095E1,1.985395E2,1.2046305E1,1.3006865E2,2.3609082E2,1.5206195E1,8.9627304E1],"tree_param":{"num_deleted":"0","num_feature":"8","num_nodes":"21","size_leaf_vector":"1"}},{"base_weights":[-2.5502456E-2,2.1913172E-1,-2.1213245E-1,1.4041543E-1,6.7748755E-1,-2.4167149E-1,5.193446E-1,-4.532208E-1,1.8113647E-1,5.386927E-1,3.3179283E-2,-3.824609E-1,-1.1137981E-1,2.599859E-2,6.4318604E-4,-8.657754E-4,-2.4544526E-2,-3.2578623E-3,7.680094E-3,2.2116808E-2,1.3405879E-3,-1.277305E-2,9.883673E-3,1.0544933E-2,-4.76474E-3],"categories":[],"categories_nodes":[],"categories_segments":[],"categories_sizes":[],"default_left":[0,0,0,0,0,0,0,0,0,0,0,0,0,0,0,0,0,0,0,0,0,0,0,0,0],"id":2,"left_children":[1,3,5,7,9,11,13,15,17,19,-1,21,23,-1,-1,-1,-1,-1,-1,-1,-1,-1,-1,-1,-1],"loss_changes":[3.979037E1,1.3467787E1,1.0867956E1,7.9513173E0,2.371149E0,8.66963E0,3.371791E0,3.250142E0,6.638385E0,4.3042107E0,0E0,7.246662E0,5.5605836E0,0E0,0E0,0E0,0E0,0E0,0E0,0E0,0E0,0E0,0E0,0E0,0E0],"parents":[2147483647,0,0,1,1,2,2,3,3,4,4,5,5,6,6,7,7,8,8,9,9,11,11,12,12],"right_children":[2,4,6,8,10,12,14,16,18,20,-1,22,24,-1,-1,-1,-1,-1,-1,-1,-1,-1,-1,-1,-1],"split_conditions":[-5.2284658E-2,7.888228E-1,9.001815E-1,-8.770965E-1,8.911081E-1,5.344048E-1,6.518827E-1,-1.1347076E0,3.7958354E-1,8.452121E-1,3.3179283E-2,9.2E0,5.593365E-1,2.599859E-2,6.4318604E-4,-8.657754E-4,-2.4544526E-2,-3.2578623E-3,7.680094E-3,2.2116808E-2,1.3405879E-3,-1.277305E-2,9.883673E-3,1.0544933E-2,-4.76474E-3],"split_indices":[1,0,1,1,0,0,0,1,0,0,0,3,0,0,0,0,0,0,0,0,0,0,0,0,0],"split_type":[0,0,0,0,0,0,0,0,0,0,0,0,0,0,0,0,0,0,0,0,0,0,0,0,0],"sum_hessian":[8.684968E2,3.7572983E2,4.92767E2,3.2233307E2,5.3396744E1,4.7460556E2,1.8161446E1,1.9716002E1,3.0261707E2,4.288979E1,1.0506954E1,2.267178E2,2.4788777E2,1.0044727E1,8.116718E0,9.864091E0,9.851911E0,6.2000633E1,2.4061644E2,3.0067549E1,1.2822242E1,2.1428526E2,1.2432535E1,2.2152502E1,2.2573528E2],"tree_param":{"num_deleted":"0","num_feature":"8","num_nodes":"25","size_leaf_vector":"1"}},{"base_weights":[-2.1194708E-2,1.9355376E-1,-1.777884E-1,4.4037646E-1,3.5812173E-2,-2.1017794E-1,6.5586585E-1,2.3146658E-1,6.500977E-1,-3.8623103E-1,9.272799E-2,-6.2460467E-2,-3.5778773E-1,2.9313305E-2,7.570103E-3,-1.1825405E-2,1.1578491E-2,-4.7447733E-3,2.3280784E-2,-1.6270336E-2,-3.5291165E-3,3.014897E-2,1.0112075E-3,-3.3766972E-3,2.1426199E-2,-2.4732124E-2,-9.896321E-3],"categories":[],"categories_nodes":[],"categories_segments":[],"categories_sizes":[],"default_left":[0,0,0,0,0,0,0,0,0,0,0,0,0,0,0,0,0,0,0,0,0,0,0,0,0,0,0],"id":3,"left_children":[1,3,5,7,9,11,13,15,17,19,21,23,25,-1,-1,-1,-1,-1,-1,-1,-1,-1,-1,-1,-1,-1,-1],"loss_changes":[2.9407219E1,1.4336673E1,1.3859053E1,6.069231E0,5.498251E0,1.0603502E1,2.1286116E0,7.4101744E0,7.397476E0,1.0458612E0,1.07676735E1,9.678172E0,2.7657394E0,0E0,0E0,0E0,0E0,0E0,0E0,0E0,0E0,0E0,0E0,0E0,0E0,0E0,0E0],"parents":[2147483647,0,0,1,1,2,2,3,3,4,4,5,5,6,6,7,7,8,8,9,9,10,10,11,11,12,12],"right_children":[2,4,6,8,10,12,14,16,18,20,22,24,26,-1,-1,-1,-1,-1,-1,-1,-1,-1,-1,-1,-1,-1,-1],"split_conditions":[-6.1804987E-2,1.8170427E-1,9.001815E-1,1.25E-1,2.836754E-1,1.8534608E-1,2.0158103E-1,5.904167E-1,4.986952E-1,3.6956522E-1,3.13393E-1,1.7428184E-1,5.5555556E-2,2.9313305E-2,7.570103E-3,-1.1825405E-2,1.1578491E-2,-4.7447733E-3,2.3280784E-2,-1.6270336E-2,-3.5291165E-3,3.014897E-2,1.0112075E-3,-3.3766972E-3,2.1426199E-2,-2.4732124E-2,-9.896321E-3],"split_indices":[1,6,1,6,0,1,5,0,0,6,0,1,5,0,0,0,0,0,0,0,0,0,0,0,0,0,0],"split_type":[0,0,0,0,0,0,0,0,0,0,0,0,0,0,0,0,0,0,0,0,0,0,0,0,0,0,0],"sum_hessian":[8.7144446E2,3.673358E2,5.0410867E2,1.421781E2,2.2515768E2,4.8633517E2,1.7773506E1,7.280766E1,6.937044E1,2.5724667E1,1.9943303E2,2.4414589E2,2.4218929E2,8.70859E0,9.064917E0,1.3956663E1,5.8851E1,9.299404E0,6.0071033E1,1.5301975E1,1.042269E1,1.0658163E1,1.8877486E2,2.3055724E2,1.3588647E1,1.12528715E1,2.3093642E2],"tree_param":{"num_deleted":"0","num_feature":"8","num_nodes":"27","size_leaf_vector":"1"}},{"base_weights":[-2.1366752E-3,1.7898645E-1,-2.1290913E-1,3.50681E-1,-7.652951E-2,-2.5264564E-1,5.598713E-1,-1.7629458E-2,3.8587654E-1,-4.174756E-1,2.8157186E-2,-3.3261392E-1,-6.549687E-2,2.7979791E-2,3.6919885E-4,1.8499888E-2,7.2877635E-3,-1.9011403E-2,-3.21197E-3,1.6954465E-2,-1.4687983E-3,-1.0813751E-2,7.9079885E-3,6.9992165E-3,-7.788005E-3],"categories":[],"categories_nodes":[],"categories_segments":[],"categories_sizes":[],"default_left":[0,0,0,0,0,0,0,0,0,0,0,0,0,0,0,0,0,0,0,0,0,0,0,0,0],"id":4,"left_children":[1,3,5,7,9,11,13,-1,15,17,19,21,23,-1,-1,-1,-1,-1,-1,-1,-1,-1,-1,-1,-1],"loss_changes":[3.30706E1,2.0480282E1,1.2506252E1,9.551929E0,6.744999E0,5.681534E0,4.0747256E0,0E0,8.674839E0,2.8765936E0,6.0713534E0,4.577381E0,6.8287735E0,0E0,0E0,0E0,0E0,0E0,0E0,0E0,0E0,0E0,0E0,0E0,0E0],"parents":[2147483647,0,0,1,1,2,2,3,3,4,4,5,5,6,6,8,8,9,9,10,10,11,11,12,12],"right_children":[2,4,6,8,10,12,14,-1,16,18,20,22,24,-1,-1,-1,-1,-1,-1,-1,-1,-1,-1,-1,-1],"split_conditions":[3.3820365E-2,2.4E-1,9.001815E-1,-8.770965E-1,-6.7958574E0,6.518827E-1,6.381784E-1,-1.7629458E-2,-3.0357012E-1,3.0769232E-1,4.0131235E-1,9.454154E0,-4.1144967E0,2.7979791E-2,3.6919885E-4,1.8499888E-2,7.2877635E-3,-1.9011403E-2,-3.21197E-3,1.6954465E-2,-1.4687983E-3,-1.0813751E-2,7.9079885E-3,6.9992165E-3,-7.788005E-3],"split_indices":[1,6,1,1,3,0,0,0,1,6,2,3,3,0,0,0,0,0,0,0,0,0,0,0,0],"split_type":[0,0,0,0,0,0,0,0,0,0,0,0,0,0,0,0,0,0,0,0,0,0,0,0,0],"sum_hessian":[8.632748E2,4.6441513E2,3.9885968E2,2.77434E2,1.8698112E2,3.803135E2,1.854618E1,9.178757E0,2.6825525E2,4.287219E1,1.4410893E2,2.656401E2,1.1467338E2,1.040643E1,8.1397505E0,1.0070386E2,1.6755138E2,2.434834E1,1.852385E1,1.690453E1,1.2720441E2,2.5435435E2,1.1285762E1,4.5038227E1,6.963515E1],"tree_param":{"num_deleted":"0","num_feature":"8","num_nodes":"25","size_leaf_vector":"1"}},{"base_weights":[-1.1546271E-2,1.3816273E-1,-1.3433744E-1,-2.0286085E-1,1.9911355E-1,-2.5845346E-1,-4.371239E-2,1.3250538E-2,-3.158215E-1,4.1298735E-1,1.3128366E-1,-2.0493154E-1,-6.246151E-1,2.6942652E-1,-9.399948E-2,5.1220367E-3,-1.7147973E-2,7.841053E-3,2.502898E-2,-6.9178594E-3,6.532745E-3,-1.2214795E-3,-1.2451468E-2,-2.874886E-2,-8.336637E-3,-7.4320324E-3,1.6456796E-2,1.6451898E-3,-6.0553374E-3],"categories":[],"categories_nodes":[],"categories_segments":[],"categories_sizes":[],"default_left":[0,0,0,0,0,0,0,0,0,0,0,0,0,0,0,0,0,0,0,0,0,0,0,0,0,0,0,0,0],"id":5,"left_children":[1,3,5,7,9,11,13,-1,15,17,19,21,23,25,27,-1,-1,-1,-1,-1,-1,-1,-1,-1,-1,-1,-1,-1,-1],"loss_changes":[1.5997189E1,8.212435E0,5.3598137E0,4.592999E0,4.756426E0,3.755517E0,4.417036E0,0E0,6.630945E0,4.75747E0,8.06699E0,6.115516E0,2.4878073E0,5.814597E0,3.8805904E0,0E0,0E0,0E0,0E0,0E0,0E0,0E0,0E0,0E0,0E0,0E0,0E0,0E0,0E0],"parents":[2147483647,0,0,1,1,2,2,3,3,4,4,5,5,6,6,8,8,9,9,10,10,11,11,12,12,13,13,14,14],"right_children":[2,4,6,8,10,12,14,-1,16,18,20,22,24,26,28,-1,-1,-1,-1,-1,-1,-1,-1,-1,-1,-1,-1,-1,-1],"split_conditions":[2.0595534E-1,1.1764706E-1,1.923077E-1,-8.118233E0,9.52381E-2,1.8E-1,2.1052632E-1,1.3250538E-2,6.283503E-2,3.1325345E0,1.2416667E-1,-2.3735273E-1,-3.5508063E0,2.534113E-1,2.6666668E-1,5.1220367E-3,-1.7147973E-2,7.841053E-3,2.502898E-2,-6.9178594E-3,6.532745E-3,-1.2214795E-3,-1.2451468E-2,-2.874886E-2,-8.336637E-3,-7.4320324E-3,1.6456796E-2,1.6451898E-3,-6.0553374E-3],"split_indices":[6,5,5,3,6,5,5,0,7,3,6,3,3,6,6,0,0,0,0,0,0,0,0,0,0,0,0,0,0],"split_type":[0,0,0,0,0,0,0,0,0,0,0,0,0,0,0,0,0,0,0,0,0,0,0,0,0,0,0,0,0],"sum_hessian":[8.672046E2,3.90686E2,4.7651855E2,5.870962E1,3.3197638E2,1.9992812E2,2.7659045E2,8.10395E0,5.060567E1,7.80969E1,2.5387949E2,1.764726E2,2.3455517E1,3.7367226E1,2.3922324E2,1.7608473E1,3.29972E1,5.921688E1,1.8880018E1,4.84839E1,2.0539558E2,1.00061226E2,7.641137E1,1.06044E1,1.2851117E1,1.3157871E1,2.4209352E1,1.00818665E2,1.3840457E2],"tree_param":{"num_deleted":"0","num_feature":"8","num_nodes":"29","size_leaf_vector":"1"}},{"base_weights":[8.1223587E-4,2.425439E-1,-1.7351267E-1,-4.5279723E-1,2.888493E-1,-3.278918E-1,-4.2869397E-2,-8.487293E-4,-2.2916054E-2,5.195346E-1,2.0206669E-1,-1.4984609E-1,-5.0429803E-1,3.3746558E-1,-9.676862E-2,1.8662225E-2,6.2200897E-3,4.682271E-3,2.4318546E-2,-3.3858305E-4,-1.8767802E-2,-1.8370468E-2,-3.8082015E-3,-3.1932136E-3,1.862487E-2,-3.7563562E-3,1.3148522E-2],"categories":[],"categories_nodes":[],"categories_segments":[],"categories_sizes":[],"default_left":[0,0,0,0,0,0,0,0,0,0,0,0,0,0,0,0,0,0,0,0,0,0,0,0,0,0,0],"id":6,"left_children":[1,3,5,7,9,11,13,-1,-1,15,17,19,21,23,25,-1,-1,-1,-1,-1,-1,-1,-1,-1,-1,-1,-1],"loss_changes":[3.6400352E1,1.1849419E1,1.010107E1,3.028707E0,6.654003E0,7.1047783E0,5.6569295E0,0E0,0E0,2.7534103E0,6.7984934E0,7.6697197E0,4.5644436E0,4.4123545E0,3.7465336E0,0E0,0E0,0E0,0E0,0E0,0E0,0E0,0E0,0E0,0E0,0E0,0E0],"parents":[2147483647,0,0,1,1,2,2,3,3,4,4,5,5,6,6,9,9,10,10,11,11,12,12,13,13,14,14],"right_children":[2,4,6,8,10,12,14,-1,-1,16,18,20,22,24,26,-1,-1,-1,-1,-1,-1,-1,-1,-1,-1,-1,-1],"split_conditions":[-6.1804987E-2,-8.770965E-1,5.239851E-1,-1.1347076E0,-4.0480322E-1,2.1107662E-1,1.6216215E-1,-8.487293E-4,-2.2916054E-2,2.962963E-1,6.456563E-1,4.649453E-1,5.5511963E-1,6.283503E-2,9.001815E-1,1.8662225E-2,6.2200897E-3,4.682271E-3,2.4318546E-2,-3.3858305E-4,-1.8767802E-2,-1.8370468E-2,-3.8082015E-3,-3.1932136E-3,1.862487E-2,-3.7563562E-3,1.3148522E-2],"split_indices":[1,1,0,1,1,1,5,0,0,5,2,0,1,7,1,0,0,0,0,0,0,0,0,0,0,0,0],"split_type":[0,0,0,0,0,0,0,0,0,0,0,0,0,0,0,0,0,0,0,0,0,0,0,0,0,0,0],"sum_hessian":[8.608007E2,3.6042377E2,5.0037698E2,2.168125E1,3.3874252E2,2.2831543E2,2.7206152E2,9.860902E0,1.1820349E1,9.055349E1,2.4818904E2,1.1501036E2,1.1330507E2,3.2790035E1,2.392715E2,6.704435E1,2.3509144E1,2.3250247E2,1.568656E1,9.0258446E1,2.4751919E1,8.735746E1,2.5947613E1,1.3140772E1,1.9649263E1,2.2828491E2,1.0986593E1],"tree_param":{"num_deleted":"0","num_feature":"8","num_nodes":"27","size_leaf_vector":"1"}},{"base_weights":[-4.2284444E-2,2.5050104E-1,-1.330388E-1,4.361357E-1,7.072609E-2,2.479259E-2,-2.8929132E-1,1.1943643E-1,7.461362E-1,2.3548877E-1,-1.6018613E-1,-4.0336257E-1,8.614885E-2,-3.0844137E-1,1.1042839E-2,1.7606437E-2,-3.841371E-3,1.5072609E-2,4.4270832E-2,2.4855663E-3,2.6560228E-2,3.1822363E-3,-1.8393686E-2,-1.3708776E-3,-2.4023622E-2,-1.6895305E-2,3.5853528E-3,-3.1519632E-3,-1.0948627E-2],"categories":[],"categories_nodes":[],"categories_segments":[],"categories_sizes":[],"default_left":[0,0,0,0,0,0,0,0,0,0,0,0,0,0,0,0,0,0,0,0,0,0,0,0,0,0,0,0,0],"id":7,"left_children":[1,3,5,7,9,11,13,15,17,19,21,23,25,27,-1,-1,-1,-1,-1,-1,-1,-1,-1,-1,-1,-1,-1,-1,-1],"loss_changes":[2.3424244E1,6.917595E0,1.6595676E1,9.916895E0,4.157871E0,8.877313E0,4.4261227E0,6.1774383E0,8.035446E0,6.1903706E0,5.6187344E0,5.9680405E0,6.493182E0,3.7273197E0,0E0,0E0,0E0,0E0,0E0,0E0,0E0,0E0,0E0,0E0,0E0,0E0,0E0,0E0,0E0],"parents":[2147483647,0,0,1,1,2,2,3,3,4,4,5,5,6,6,7,7,8,8,9,9,10,10,11,11,12,12,13,13],"right_children":[2,4,6,8,10,12,14,16,18,20,22,24,26,28,-1,-1,-1,-1,-1,-1,-1,-1,-1,-1,-1,-1,-1,-1,-1],"split_conditions":[1.4814815E-1,-6.526422E-2,1.06709115E-2,-1.6797649E0,8.287115E-1,2.941279E-1,1.0246215E0,-8.2155075E0,1.3043478E-1,4.5224226E-1,3.3012444E-1,2.5102153E-1,-8.770965E-1,7.5677834E-2,1.1042839E-2,1.7606437E-2,-3.841371E-3,1.5072609E-2,4.4270832E-2,2.4855663E-3,2.6560228E-2,3.1822363E-3,-1.8393686E-2,-1.3708776E-3,-2.4023622E-2,-1.6895305E-2,3.5853528E-3,-3.1519632E-3,-1.0948627E-2],"split_indices":[6,1,1,3,3,0,1,3,6,1,1,0,1,7,0,0,0,0,0,0,0,0,0,0,0,0,0,0,0],"split_type":[0,0,0,0,0,0,0,0,0,0,0,0,0,0,0,0,0,0,0,0,0,0,0,0,0,0,0,0,0],"sum_hessian":[8.781719E2,2.0717094E2,6.710009E2,1.0087201E2,1.0629893E2,3.3444174E2,3.3655917E2,5.0924744E1,4.9947266E1,6.2017723E1,4.4281208E1,4.087154E1,2.935702E2,3.2780618E2,8.752983E0,1.6916225E1,3.400852E1,3.933877E1,1.0608494E1,5.1591267E1,1.0426457E1,2.8610891E1,1.5670315E1,2.239205E1,1.8479488E1,1.3182637E1,2.8038757E2,7.221412E1,2.5559207E2],"tree_param":{"num_deleted":"0","num_feature":"8","num_nodes":"29","size_leaf_vector":"1"}},{"base_weights":[-4.4523454E-3,2.1248592E-1,-1.6488716E-1,1.20063424E-1,7.1831006E-1,-1.1392704E-1,-4.2730996E-1,2.678598E-1,-6.0146984E-2,8.877418E-1,7.6226965E-3,-4.172753E-1,-7.38348E-2,-5.513502E-1,-1.5304352E-1,1.1367764E-2,-1.7260305E-4,-1.4161566E-2,1.6132926E-3,3.199144E-2,1.4597705E-2,-4.914776E-3,-2.0922948E-2,7.439846E-3,-3.3634983E-3,-2.2012532E-2,-1.685933E-3,8.251417E-3,-1.2903378E-2],"categories":[],"categories_nodes":[],"categories_segments":[],"categories_sizes":[],"default_left":[0,0,0,0,0,0,0,0,0,0,0,0,0,0,0,0,0,0,0,0,0,0,0,0,0,0,0,0,0],"id":8,"left_children":[1,3,5,7,9,11,13,15,17,19,-1,21,23,25,27,-1,-1,-1,-1,-1,-1,-1,-1,-1,-1,-1,-1,-1,-1],"loss_changes":[3.0311172E1,1.71803E1,6.62189E0,8.410375E0,4.1370907E0,5.0771427E0,2.6243868E0,5.268606E0,6.7530904E0,2.1658478E0,0E0,3.2975483E0,4.6483374E0,4.914959E0,3.410612E0,0E0,0E0,0E0,0E0,0E0,0E0,0E0,0E0,0E0,0E0,0E0,0E0,0E0,0E0],"parents":[2147483647,0,0,1,1,2,2,3,3,4,4,5,5,6,6,7,7,8,8,9,9,11,11,12,12,13,13,14,14],"right_children":[2,4,6,8,10,12,14,16,18,20,-1,22,24,26,28,-1,-1,-1,-1,-1,-1,-1,-1,-1,-1,-1,-1,-1,-1],"split_conditions":[-6.1804987E-2,7.888228E-1,3.3399257E-1,2.4E-1,-1.789745E-1,-9.490895E0,7.4372774E-1,1.8591096E-1,-6.973363E0,1.5789473E-1,7.6226965E-3,-1.1145046E1,1.0344828E-1,3.6813188E-1,8.2813215E-1,1.1367764E-2,-1.7260305E-4,-1.4161566E-2,1.6132926E-3,3.199144E-2,1.4597705E-2,-4.914776E-3,-2.0922948E-2,7.439846E-3,-3.3634983E-3,-2.2012532E-2,-1.685933E-3,8.251417E-3,-1.2903378E-2],"split_indices":[1,0,7,6,1,3,0,7,3,6,0,3,6,6,0,0,0,0,0,0,0,0,0,0,0,0,0,0,0],"split_type":[0,0,0,0,0,0,0,0,0,0,0,0,0,0,0,0,0,0,0,0,0,0,0,0,0,0,0,0,0],"sum_hessian":[8.678893E2,3.6876392E2,4.9912534E2,3.1336328E2,5.540065E1,4.1976248E2,7.936286E1,1.7176428E2,1.4159898E2,3.9584538E1,1.5816115E1,4.735447E1,3.7240802E2,5.3604286E1,2.575858E1,1.21761314E2,5.0002968E1,2.9656517E1,1.11942474E2,2.5667095E1,1.3917441E1,2.6110338E1,2.1244131E1,3.8715466E1,3.3369254E2,3.864551E1,1.4958774E1,1.01252775E1,1.5633302E1],"tree_param":{"num_deleted":"0","num_feature":"8","num_nodes":"29","size_leaf_vector":"1"}},{"base_weights":[1.6252747E-3,1.8811649E-1,-1.3523196E-1,3.668793E-1,-4.0396664E-2,-1.6224574E-1,3.3548826E-1,-1.0749219E-2,4.024434E-1,1.0434587E-1,-3.2008916E-1,-9.283939E-2,-3.41146E-1,1.9727487E-2,-2.3003095E-3,1.6762644E-2,8.02807E-3,-7.0762085E-3,8.425746E-3,-1.634915E-2,9.0004655E-4,-1.4565396E-2,-1.0960842E-3,-1.4334543E-2,7.168182E-3],"categories":[],"categories_nodes":[],"categories_segments":[],"categories_sizes":[],"default_left":[0,0,0,0,0,0,0,0,0,0,0,0,0,0,0,0,0,0,0,0,0,0,0,0,0],"id":9,"left_children":[1,3,5,7,9,11,13,-1,15,17,19,21,23,-1,-1,-1,-1,-1,-1,-1,-1,-1,-1,-1,-1],"loss_changes":[2.204654E1,1.4956816E1,6.416829E0,5.510538E0,6.601163E0,5.81546E0,3.7302086E0,0E0,3.91502E0,6.571117E0,4.3982205E0,7.5402994E0,1.0590607E1,0E0,0E0,0E0,0E0,0E0,0E0,0E0,0E0,0E0,0E0,0E0,0E0],"parents":[2147483647,0,0,1,1,2,2,3,3,4,4,5,5,6,6,8,8,9,9,10,10,11,11,12,12],"right_children":[2,4,6,8,10,12,14,-1,16,18,20,22,24,-1,-1,-1,-1,-1,-1,-1,-1,-1,-1,-1,-1],"split_conditions":[-6.1804987E-2,2.25E-1,7.548842E-1,-8.770965E-1,2.6086956E-1,3.166342E-1,6.337206E-1,-1.0749219E-2,-3.0357012E-1,1.4814815E-1,3.0769232E-1,-9.490895E0,3.043478E-1,1.9727487E-2,-2.3003095E-3,1.6762644E-2,8.02807E-3,-7.0762085E-3,8.425746E-3,-1.634915E-2,9.0004655E-4,-1.4565396E-2,-1.0960842E-3,-1.4334543E-2,7.168182E-3],"split_indices":[1,6,1,1,5,1,3,0,1,5,6,3,5,0,0,0,0,0,0,0,0,0,0,0,0],"split_type":[0,0,0,0,0,0,0,0,0,0,0,0,0,0,0,0,0,0,0,0,0,0,0,0,0],"sum_hessian":[8.6080707E2,3.640988E2,4.9670828E2,2.0377783E2,1.6032095E2,4.706798E2,2.6028473E1,8.889982E0,1.9488785E2,1.0626736E2,5.40536E1,3.4075754E2,1.2992226E2,1.4109316E1,1.1919156E1,8.807417E1,1.06813675E2,3.612794E1,7.013942E1,3.2403843E1,2.164976E1,4.12982E1,2.9945935E2,1.0536256E2,2.4559696E1],"tree_param":{"num_deleted":"0","num_feature":"8","num_nodes":"25","size_leaf_vector":"1"}},{"base_weights":[-9.2366645E-3,-1.3543415E-1,7.604181E-2,-2.412278E-1,-3.1052714E-2,1.4165644E-1,-8.613484E-2,1.2274E-2,-2.7981898E-1,-2.604012E-1,3.8100637E-2,1.1350769E-1,6.6946584E-1,3.0422577E-1,-1.9620532E-1,-3.9187716E-3,-1.2850686E-2,1.0704905E-2,-1.3984007E-2,1.0736757E-2,-2.1954945E-3,-1.0455962E-2,4.1512367E-3,2.5844604E-2,1.1248458E-2,-7.947103E-3,1.623064E-2,-9.638725E-3,2.9824045E-4],"categories":[],"categories_nodes":[],"categories_segments":[],"categories_sizes":[],"default_left":[0,0,0,0,0,0,0,0,0,0,0,0,0,0,0,0,0,0,0,0,0,0,0,0,0,0,0,0,0],"id":10,"left_children":[1,3,5,7,9,11,13,-1,15,17,19,21,23,25,27,-1,-1,-1,-1,-1,-1,-1,-1,-1,-1,-1,-1,-1,-1],"loss_changes":[9.288896E0,3.8319006E0,5.500319E0,4.5041456E0,2.8205605E0,5.343718E0,6.5056663E0,0E0,3.546895E0,5.477908E0,4.9228563E0,4.1000023E0,5.5000305E-1,4.7206006E0,3.0319014E0,0E0,0E0,0E0,0E0,0E0,0E0,0E0,0E0,0E0,0E0,0E0,0E0,0E0,0E0],"parents":[2147483647,0,0,1,1,2,2,3,3,4,4,5,5,6,6,8,8,9,9,10,10,11,11,12,12,13,13,14,14],"right_children":[2,4,6,8,10,12,14,-1,16,18,20,22,24,26,28,-1,-1,-1,-1,-1,-1,-1,-1,-1,-1,-1,-1,-1,-1],"split_conditions":[5.1082736E-1,1.5E-1,2.5397522E0,2.1906625E-2,6.387582E-2,1.9353752E0,1.923077E-1,1.2274E-2,-1.2593393E0,1.8667977E-2,1.15860954E-1,2.890505E-1,2.4E-1,5.9920274E-2,7.536285E-1,-3.9187716E-3,-1.2850686E-2,1.0704905E-2,-1.3984007E-2,1.0736757E-2,-2.1954945E-3,-1.0455962E-2,4.1512367E-3,2.5844604E-2,1.1248458E-2,-7.947103E-3,1.623064E-2,-9.638725E-3,2.9824045E-4],"split_indices":[0,5,3,7,7,3,5,0,3,7,7,2,5,7,0,0,0,0,0,0,0,0,0,0,0,0,0,0,0],"split_type":[0,0,0,0,0,0,0,0,0,0,0,0,0,0,0,0,0,0,0,0,0,0,0,0,0,0,0,0,0],"sum_hessian":[8.6019006E2,3.465191E2,5.1367096E2,1.7111873E2,1.7540039E2,3.6584464E2,1.4782631E2,8.778345E0,1.6234038E2,3.9673634E1,1.3572675E2,3.4905182E2,1.6792799E1,3.1932627E1,1.15893684E2,8.239778E1,7.99426E1,9.642591E0,3.0031042E1,3.4180298E1,1.0154645E2,1.6829367E1,3.3222244E2,8.41725E0,8.375548E0,9.330077E0,2.2602549E1,7.160651E1,4.428718E1],"tree_param":{"num_deleted":"0","num_feature":"8","num_nodes":"29","size_leaf_vector":"1"}},{"base_weights":[7.0044943E-3,3.6019427E-1,-3.1944267E-2,2.6061099E-2,2.261529E-1,-1.9058233E-1,9.639667E-3,6.488883E-2,2.3798177E-2,-2.5735205E-2,-1.2937672E-1,2.4272531E-2,-4.6506566E-1,-1.6922815E-2,5.87873E-3,-1.1691016E-2,-2.0110195E-3,7.387241E-3,-3.9288317E-4,-2.00551E-2,-4.976546E-3],"categories":[],"categories_nodes":[],"categories_segments":[],"categories_sizes":[],"default_left":[0,0,0,0,0,0,0,0,0,0,0,0,0,0,0,0,0,0,0,0,0],"id":11,"left_children":[1,3,5,-1,7,9,11,13,-1,-1,15,17,19,-1,-1,-1,-1,-1,-1,-1,-1],"loss_changes":[1.1963493E1,5.5928774E0,5.171621E0,0E0,6.360013E0,6.482481E0,4.339173E0,4.8184075E0,0E0,0E0,2.4097004E0,5.023572E0,9.706936E-1,0E0,0E0,0E0,0E0,0E0,0E0,0E0,0E0],"parents":[2147483647,0,0,1,1,2,2,4,4,5,5,6,6,7,7,10,10,11,11,12,12],"right_children":[2,4,6,-1,8,10,12,14,-1,-1,16,18,20,-1,-1,-1,-1,-1,-1,-1,-1],"split_conditions":[9.52381E-2,4.0131235E-1,3.662744E-1,2.6061099E-2,3.4727854E-1,9.7693674E-2,4.090909E-1,-7.4076624E0,2.3798177E-2,-2.5735205E-2,2.6666668E-1,4.392169E-1,4.916923E-1,-1.6922815E-2,5.87873E-3,-1.1691016E-2,-2.0110195E-3,7.387241E-3,-3.9288317E-4,-2.00551E-2,-4.976546E-3],"split_indices":[6,2,0,0,7,7,6,3,0,0,6,0,0,0,0,0,0,0,0,0,0],"split_type":[0,0,0,0,0,0,0,0,0,0,0,0,0,0,0,0,0,0,0,0,0],"sum_hessian":[8.669189E2,8.487702E1,7.820419E2,1.5991023E1,6.8885994E1,1.6130536E2,6.207365E2,5.4936172E1,1.3949821E1,1.1912528E1,1.4939282E2,6.035551E2,1.7181376E1,8.619E0,4.6317173E1,2.734253E1,1.2205029E2,8.575977E1,5.1779535E2,9.124922E0,8.056455E0],"tree_param":{"num_deleted":"0","num_feature":"8","num_nodes":"21","size_leaf_vector":"1"}},{"base_weights":[3.5147928E-2,2.1220942E-1,-9.5176734E-2,-5.266066E-1,2.5625762E-1,-1.2284627E-1,5.9635854E-1,-2.2651425E-3,-2.5336651E-2,4.737961E-1,1.0455489E-1,-2.1146711E-2,-2.786396E-1,2.7895404E-2,5.7672793E-3,1.2721955E-2,3.1635467E-2,5.05059E-3,-1.0022264E-2,1.9442482E-2,-1.9046343E-3,-1.1665433E-2,-1.4700225E-4],"categories":[],"categories_nodes":[],"categories_segments":[],"categories_sizes":[],"default_left":[0,0,0,0,0,0,0,0,0,0,0,0,0,0,0,0,0,0,0,0,0,0,0],"id":12,"left_children":[1,3,5,7,9,11,13,-1,-1,15,17,19,21,-1,-1,-1,-1,-1,-1,-1,-1,-1,-1],"loss_changes":[2.0034777E1,1.2178972E1,9.684746E0,2.9446611E0,1.1420628E1,7.6342177E0,2.3608832E0,0E0,0E0,3.4498405E0,5.8808374E0,8.377987E0,5.7412567E0,0E0,0E0,0E0,0E0,0E0,0E0,0E0,0E0,0E0,0E0],"parents":[2147483647,0,0,1,1,2,2,3,3,4,4,5,5,6,6,9,9,10,10,11,11,12,12],"right_children":[2,4,6,8,10,12,14,-1,-1,16,18,20,22,-1,-1,-1,-1,-1,-1,-1,-1,-1,-1],"split_conditions":[-6.1804987E-2,-8.770965E-1,9.001815E-1,-1.1347076E0,1.7857143E-1,2.4168916E-1,1.642057E-1,-2.2651425E-3,-2.5336651E-2,-9.244516E-2,3.75E-1,8.3333336E-2,2.580645E-1,2.7895404E-2,5.7672793E-3,1.2721955E-2,3.1635467E-2,5.05059E-3,-1.0022264E-2,1.9442482E-2,-1.9046343E-3,-1.1665433E-2,-1.4700225E-4],"split_indices":[1,1,1,1,6,1,7,0,0,1,6,6,5,0,0,0,0,0,0,0,0,0,0],"split_type":[0,0,0,0,0,0,0,0,0,0,0,0,0,0,0,0,0,0,0,0,0,0,0],"sum_hessian":[8.6541504E2,3.665165E2,4.9889856E2,1.9697609E1,3.468189E2,4.808908E2,1.8007744E1,8.910995E0,1.0786613E1,1.4118205E2,2.0563686E2,2.9198862E2,1.8890218E2,8.7968855E0,9.210858E0,1.3243602E2,8.74603E0,1.803321E2,2.5304747E1,1.6097502E1,2.758911E2,1.3423009E2,5.467209E1],"tree_param":{"num_deleted":"0","num_feature":"8","num_nodes":"23","size_leaf_vector":"1"}},{"base_weights":[1.475158E-2,1.12319306E-1,-2.2265899E-1,2.0902105E-1,-8.7805256E-2,-3.0074146E-2,-1.8140532E-1,3.1601697E-1,9.745911E-3,-3.9060408E-1,4.7791522E-2,-2.2628091E-1,3.5573632E-1,-1.5753604E-2,1.0715238E-2,2.1961791E-2,-1.8692296E-3,-1.3198938E-3,-1.7770516E-2,1.817369E-2,-1.2378393E-3,1.5347276E-2,-7.968933E-3,1.3864529E-2,5.395129E-3],"categories":[],"categories_nodes":[],"categories_segments":[],"categories_sizes":[],"default_left":[0,0,0,0,0,0,0,0,0,0,0,0,0,0,0,0,0,0,0,0,0,0,0,0,0],"id":13,"left_children":[1,3,5,7,9,-1,11,13,15,17,19,21,23,-1,-1,-1,-1,-1,-1,-1,-1,-1,-1,-1,-1],"loss_changes":[2.017381E1,1.1969986E1,7.8888607E0,8.8759365E0,8.325939E0,0E0,5.973012E0,9.661446E0,7.7218776E0,4.3434753E0,7.0403223E0,6.736203E0,2.366476E-1,0E0,0E0,0E0,0E0,0E0,0E0,0E0,0E0,0E0,0E0,0E0,0E0],"parents":[2147483647,0,0,1,1,2,2,3,3,4,4,6,6,7,7,8,8,9,9,10,10,11,11,12,12],"right_children":[2,4,6,8,10,-1,12,14,16,18,20,22,24,-1,-1,-1,-1,-1,-1,-1,-1,-1,-1,-1,-1],"split_conditions":[1.8534608E-1,2.6201373E-1,5.5555556E-2,-5.2284658E-2,3E-1,-3.0074146E-2,9.001815E-1,-8.770965E-1,8.3333336E-2,1.8426502E-1,4.0131235E-1,-1.1145046E1,2.413793E-1,-1.5753604E-2,1.0715238E-2,2.1961791E-2,-1.8692296E-3,-1.3198938E-3,-1.7770516E-2,1.817369E-2,-1.2378393E-3,1.5347276E-2,-7.968933E-3,1.3864529E-2,5.395129E-3],"split_indices":[1,6,5,1,6,0,1,1,6,5,2,3,5,0,0,0,0,0,0,0,0,0,0,0,0],"split_type":[0,0,0,0,0,0,0,0,0,0,0,0,0,0,0,0,0,0,0,0,0,0,0,0,0],"sum_hessian":[8.678073E2,6.1560486E2,2.5220245E2,4.1500467E2,2.0060016E2,1.0915623E1,2.4128683E2,2.6945087E2,1.4555382E2,6.117357E1,1.3942659E2,2.2348393E2,1.780291E1,1.1746655E1,2.577042E2,1.195626E1,1.3359756E2,2.3178757E1,3.7994812E1,1.7991205E1,1.2143539E2,1.0403664E1,2.1308026E2,9.571385E0,8.2315235E0],"tree_param":{"num_deleted":"0","num_feature":"8","num_nodes":"25","size_leaf_vector":"1"}},{"base_weights":[-3.0305358E-2,1.13601804E-1,-1.78278E-1,8.9395955E-2,3.2532357E-2,-2.2061922E-1,4.6826982E-1,-5.038472E-1,1.20518684E-1,-1.2215189E-1,-3.6775926E-1,2.4843635E-2,8.67081E-4,-6.284807E-3,-2.4257794E-2,5.958322E-3,-2.0990262E-3,-1.0086366E-2,-5.5028228E-5,-1.855768E-2,-7.18673E-3],"categories":[],"categories_nodes":[],"categories_segments":[],"categories_sizes":[],"default_left":[0,0,0,0,0,0,0,0,0,0,0,0,0,0,0,0,0,0,0,0,0],"id":14,"left_children":[1,3,5,7,-1,9,11,13,15,17,19,-1,-1,-1,-1,-1,-1,-1,-1,-1,-1],"loss_changes":[1.8625845E1,1.0279514E1,1.1957466E1,8.112855E0,0E0,5.80991E0,4.2296715E0,1.7145796E0,6.179636E0,6.3159847E0,4.98345E0,0E0,0E0,0E0,0E0,0E0,0E0,0E0,0E0,0E0,0E0],"parents":[2147483647,0,0,1,1,2,2,3,3,5,5,6,6,7,7,8,8,9,9,10,10],"right_children":[2,4,6,8,-1,10,12,14,16,18,20,-1,-1,-1,-1,-1,-1,-1,-1,-1,-1],"split_conditions":[6.5610153E-3,8.911081E-1,7.548842E-1,-8.770965E-1,3.2532357E-2,2.7183756E-1,2.0158103E-1,8.5E0,2.6666668E-1,8.5E0,4.1673633E-1,2.4843635E-2,8.67081E-4,-6.284807E-3,-2.4257794E-2,5.958322E-3,-2.0990262E-3,-1.0086366E-2,-5.5028228E-5,-1.855768E-2,-7.18673E-3],"split_indices":[1,0,1,1,0,1,5,4,6,4,0,0,0,0,0,0,0,0,0,0,0],"split_type":[0,0,0,0,0,0,0,0,0,0,0,0,0,0,0,0,0,0,0,0,0],"sum_hessian":[8.717593E2,4.421275E2,4.296318E2,4.329701E2,9.157401E0,4.0415274E2,2.5479053E1,2.044654E1,4.1252356E2,2.4376707E2,1.6038567E2,1.3277379E1,1.22016735E1,1.168814E1,8.758401E0,2.9253247E2,1.1999108E2,8.674505E1,1.5702203E2,5.2307274E1,1.0807839E2],"tree_param":{"num_deleted":"0","num_feature":"8","num_nodes":"21","size_leaf_vector":"1"}},{"base_weights":[-9.555832E-3,1.5552123E-1,-1.3640898E-1,3.165513E-1,-3.8404588E-2,-2.0262395E-1,-6.762277E-3,-1.8272702E-2,3.676266E-1,1.0595885E-1,-2.802007E-1,-2.404876E-1,1.7264023E-2,6.700596E-1,-9.2287034E-2,2.3410454E-2,8.648173E-3,-2.2727833E-3,1.4281439E-2,-2.1125466E-2,-2.6496656E-3,-3.7634305E-3,-1.4036295E-2,3.493837E-2,6.4531807E-4,-8.844507E-3,1.8053491E-3],"categories":[],"categories_nodes":[],"categories_segments":[],"categories_sizes":[],"default_left":[0,0,0,0,0,0,0,0,0,0,0,0,0,0,0,0,0,0,0,0,0,0,0,0,0,0,0],"id":15,"left_children":[1,3,5,7,9,11,13,-1,15,17,19,21,-1,23,25,-1,-1,-1,-1,-1,-1,-1,-1,-1,-1,-1,-1],"loss_changes":[1.8180044E1,1.1800223E1,4.211795E0,1.0088753E1,6.065915E0,9.778591E0,9.788401E0,0E0,6.096157E0,7.391316E0,5.186493E0,8.043388E0,0E0,6.047719E0,4.659225E0,0E0,0E0,0E0,0E0,0E0,0E0,0E0,0E0,0E0,0E0,0E0,0E0],"parents":[2147483647,0,0,1,1,2,2,3,3,4,4,5,5,6,6,8,8,9,9,10,10,11,11,13,13,14,14],"right_children":[2,4,6,8,10,12,14,-1,16,18,20,22,-1,24,26,-1,-1,-1,-1,-1,-1,-1,-1,-1,-1,-1,-1],"split_conditions":[-6.1804987E-2,2.2222222E-1,6.339013E-1,-8.770965E-1,-1.9858932E-1,7.548842E-1,6.858472E-2,-1.8272702E-2,-5.156479E-1,-3.0357012E-1,-5.786827E0,2.8452E-1,1.7264023E-2,2.992914E-1,8.5E0,2.3410454E-2,8.648173E-3,-2.2727833E-3,1.4281439E-2,-2.1125466E-2,-2.6496656E-3,-3.7634305E-3,-1.4036295E-2,3.493837E-2,6.4531807E-4,-8.844507E-3,1.8053491E-3],"split_indices":[1,6,0,1,1,1,7,0,1,1,3,1,0,1,4,0,0,0,0,0,0,0,0,0,0,0,0],"split_type":[0,0,0,0,0,0,0,0,0,0,0,0,0,0,0,0,0,0,0,0,0,0,0,0,0,0,0],"sum_hessian":[8.6515485E2,3.7579056E2,4.893643E2,2.0479037E2,1.7100017E2,3.2336597E2,1.659983E2,9.852097E0,1.9493828E2,1.07600426E2,6.3399746E1,3.0934875E2,1.4017208E1,1.7472578E1,1.4852573E2,2.9299677E1,1.656386E2,7.296611E1,3.4634315E1,1.8505169E1,4.4894577E1,2.0696779E2,1.02380974E2,9.236036E0,8.236543E0,6.3188164E1,8.5337555E1],"tree_param":{"num_deleted":"0","num_feature":"8","num_nodes":"27","size_leaf_vector":"1"}},{"base_weights":[-1.78013E-2,1.6215062E-1,-1.5435812E-1,7.7663384E-2,6.120924E-1,-1.9068985E-1,4.955649E-1,1.4448671E-1,-4.5610613E-1,5.0286347E-1,3.0018156E-2,-3.0788332E-1,-8.6891346E-2,2.1473775E-2,3.7399235E-3,-1.4067038E-2,5.4596593E-3,-1.7723097E-2,1.5664549E-4,2.1040259E-2,7.4813897E-3,4.6109594E-3,-1.067455E-2,7.4689435E-3,-3.7167415E-3],"categories":[],"categories_nodes":[],"categories_segments":[],"categories_sizes":[],"default_left":[0,0,0,0,0,0,0,0,0,0,0,0,0,0,0,0,0,0,0,0,0,0,0,0,0],"id":16,"left_children":[1,3,5,7,9,11,13,15,17,19,-1,21,23,-1,-1,-1,-1,-1,-1,-1,-1,-1,-1,-1,-1],"loss_changes":[2.1236105E1,1.41050415E1,1.1741139E1,1.1358764E1,1.7378464E0,5.63229E0,2.0245023E0,6.6080093E0,2.2090774E0,2.1959696E0,0E0,4.91506E0,3.1451902E0,0E0,0E0,0E0,0E0,0E0,0E0,0E0,0E0,0E0,0E0,0E0,0E0],"parents":[2147483647,0,0,1,1,2,2,3,3,4,4,5,5,6,6,7,7,8,8,9,9,11,11,12,12],"right_children":[2,4,6,8,10,12,14,16,18,20,-1,22,24,-1,-1,-1,-1,-1,-1,-1,-1,-1,-1,-1,-1],"split_conditions":[-6.1804987E-2,7.859719E-1,7.548842E-1,7.3087955E-1,5.111267E0,5.269186E-1,5.8143425E-1,-9.895397E-1,3.021423E-1,-2.9070032E-1,3.0018156E-2,3.3369534E-2,5.567794E-1,2.1473775E-2,3.7399235E-3,-1.4067038E-2,5.4596593E-3,-1.7723097E-2,1.5664549E-4,2.1040259E-2,7.4813897E-3,4.6109594E-3,-1.067455E-2,7.4689435E-3,-3.7167415E-3],"split_indices":[1,0,1,0,3,0,3,1,7,1,0,7,0,0,0,0,0,0,0,0,0,0,0,0,0],"split_type":[0,0,0,0,0,0,0,0,0,0,0,0,0,0,0,0,0,0,0,0,0,0,0,0,0],"sum_hessian":[8.611537E2,3.7142108E2,4.897326E2,3.1418442E2,5.7236668E1,4.6480893E2,2.4923662E1,2.801998E2,3.3984627E1,4.7362404E1,9.874263E0,2.1693253E2,2.478764E2,1.4763068E1,1.0160593E1,1.5149929E1,2.6504987E2,2.5980047E1,8.00458E0,2.5076906E1,2.22855E1,2.0097515E1,1.9683502E2,2.3745052E1,2.2413135E2],"tree_param":{"num_deleted":"0","num_feature":"8","num_nodes":"25","size_leaf_vector":"1"}},{"base_weights":[-1.8878385E-3,6.42686E-2,-2.4621007E-1,-1.9283663E-2,8.316354E-2,-3.2854584E-1,2.9222605E-1,3.6275047E-1,2.6891021E-2,-2.938048E-2,-2.7917805E-1,1.8912544E-2,-3.940006E-3,8.202439E-3,2.5813423E-2,1.1411313E-2,6.8584406E-5,1.2641947E-4,-1.2230258E-2],"categories":[],"categories_nodes":[],"categories_segments":[],"categories_sizes":[],"default_left":[0,0,0,0,0,0,0,0,0,0,0,0,0,0,0,0,0,0,0],"id":17,"left_children":[1,3,5,-1,7,9,11,13,15,-1,17,-1,-1,-1,-1,-1,-1,-1,-1],"loss_changes":[1.385628E1,9.09309E0,8.241852E0,0E0,1.0343976E1,4.7028522E0,3.7083213E0,4.5465317E0,4.7797403E0,0E0,5.46548E0,0E0,0E0,0E0,0E0,0E0,0E0,0E0,0E0],"parents":[2147483647,0,0,1,1,2,2,4,4,5,5,6,6,7,7,8,8,10,10],"right_children":[2,4,6,-1,8,10,12,14,16,-1,18,-1,-1,-1,-1,-1,-1,-1,-1],"split_conditions":[2.7183756E-1,-9.895397E-1,7.548842E-1,-1.9283663E-2,-3.783868E-1,7.1428575E-2,3.418067E-1,9.5E0,8.3333336E-2,-2.938048E-2,1.6216215E-1,1.8912544E-2,-3.940006E-3,8.202439E-3,2.5813423E-2,1.1411313E-2,6.8584406E-5,1.2641947E-4,-1.2230258E-2],"split_indices":[1,1,1,0,1,5,3,4,6,0,5,0,0,0,0,0,0,0,0],"split_type":[0,0,0,0,0,0,0,0,0,0,0,0,0,0,0,0,0,0,0],"sum_hessian":[8.542896E2,6.731284E2,1.8116116E2,1.6230927E1,6.568975E2,1.576401E2,2.3521055E1,1.0869296E2,5.482045E2,9.122584E0,1.4851752E2,1.2671163E1,1.0849893E1,9.4122215E1,1.4570747E1,3.4263832E1,5.1394073E2,4.6785675E1,1.0173185E2],"tree_param":{"num_deleted":"0","num_feature":"8","num_nodes":"19","size_leaf_vector":"1"}},{"base_weights":[-6.8618455E-3,1.4114088E-1,-1.5728228E-1,2.3820569E-1,-6.2062375E-2,-1.779633E-1,1.1058324E-2,-1.8406902E-2,2.7141207E-1,-2.875594E-1,7.322465E-2,1.521984E-1,-2.1285263E-1,1.5272333E-2,4.2144214E-3,-2.2410722E-2,-4.709832E-3,2.9207688E-2,-1.51925E-3,-6.3183852E-3,1.0688188E-2,-4.1007404E-3,-1.0359495E-2],"categories":[],"categories_nodes":[],"categories_segments":[],"categories_sizes":[],"default_left":[0,0,0,0,0,0,0,0,0,0,0,0,0,0,0,0,0,0,0,0,0,0,0],"id":18,"left_children":[1,3,5,7,9,11,-1,-1,13,15,17,19,21,-1,-1,-1,-1,-1,-1,-1,-1,-1,-1],"loss_changes":[1.9442616E1,8.705401E0,4.8087387E0,8.6851845E0,4.409371E0,4.8603525E0,0E0,0E0,8.857378E0,3.0704336E0,1.0210122E1,3.1332328E0,3.7469463E0,0E0,0E0,0E0,0E0,0E0,0E0,0E0,0E0,0E0,0E0],"parents":[2147483647,0,0,1,1,2,2,3,3,4,4,5,5,8,8,9,9,10,10,11,11,12,12],"right_children":[2,4,6,8,10,12,-1,-1,14,16,18,20,22,-1,-1,-1,-1,-1,-1,-1,-1,-1,-1],"split_conditions":[-2.7946622E-5,2.534113E-1,9.001815E-1,-8.770965E-1,3E-1,1.0344828E-1,1.1058324E-2,-1.8406902E-2,-3.1845045E-1,-7.724091E0,4.0131235E-1,1.170256E-1,2.8947452E-1,1.5272333E-2,4.2144214E-3,-2.2410722E-2,-4.709832E-3,2.9207688E-2,-1.51925E-3,-6.3183852E-3,1.0688188E-2,-4.1007404E-3,-1.0359495E-2],"split_indices":[1,6,1,1,6,6,0,0,1,3,2,7,1,0,0,0,0,0,0,0,0,0,0],"split_type":[0,0,0,0,0,0,0,0,0,0,0,0,0,0,0,0,0,0,0,0,0,0,0],"sum_hessian":[8.7033386E2,4.3873914E2,4.3159473E2,2.9673724E2,1.4200189E2,4.162191E2,1.5375632E1,1.0150603E1,2.8658664E2,5.2614872E1,8.9387024E1,3.929764E1,3.7692145E2,1.0026112E2,1.8632552E2,1.0075715E1,4.2539158E1,9.565668E0,7.982136E1,1.412955E1,2.5168093E1,2.4125667E2,1.356648E2],"tree_param":{"num_deleted":"0","num_feature":"8","num_nodes":"23","size_leaf_vector":"1"}},{"base_weights":[3.3551022E-2,2.2636357E-1,-1.1650854E-1,3.9064652E-1,6.477408E-2,-1.463894E-1,5.8604914E-1,2.7168122E-1,6.615882E-1,-5.018095E-1,1.256674E-1,-4.7209267E-2,-3.5615918E-1,2.2657188E-2,1.0921256E-2,1.0548333E-2,-8.353587E-3,1.3208542E-2,2.8805535E-2,-7.8123384E-3,-2.0871758E-2,7.459959E-3,-3.0421158E-3,-4.6119923E-3,4.781803E-3,-7.2269784E-3,-2.3015086E-2],"categories":[],"categories_nodes":[],"categories_segments":[],"categories_sizes":[],"default_left":[0,0,0,0,0,0,0,0,0,0,0,0,0,0,0,0,0,0,0,0,0,0,0,0,0,0,0],"id":19,"left_children":[1,3,5,7,9,11,13,15,17,19,21,23,25,-1,-1,-1,-1,-1,-1,-1,-1,-1,-1,-1,-1,-1,-1],"loss_changes":[2.4883448E1,9.951607E0,1.0286222E1,5.7353153E0,6.701774E0,9.655631E0,3.4029627E-1,5.951295E0,3.0529594E0,6.1226654E-1,4.900902E0,7.0279937E0,6.7883472E0,0E0,0E0,0E0,0E0,0E0,0E0,0E0,0E0,0E0,0E0,0E0,0E0,0E0,0E0],"parents":[2147483647,0,0,1,1,2,2,3,3,4,4,5,5,6,6,7,7,8,8,9,9,10,10,11,11,12,12],"right_children":[2,4,6,8,10,12,14,16,18,20,22,24,26,-1,-1,-1,-1,-1,-1,-1,-1,-1,-1,-1,-1,-1,-1],"split_conditions":[-6.1804987E-2,2.0595534E-1,9.001815E-1,9E0,-9.845767E0,2.8452E-1,-2.8689144E0,5.8159795E0,-1.1657189E0,2.7586207E-1,-2.0723514E-1,8.8E0,4.3398743E0,2.2657188E-2,1.0921256E-2,1.0548333E-2,-8.353587E-3,1.3208542E-2,2.8805535E-2,-7.8123384E-3,-2.0871758E-2,7.459959E-3,-3.0421158E-3,-4.6119923E-3,4.781803E-3,-7.2269784E-3,-2.3015086E-2],"split_indices":[1,6,1,4,3,1,3,3,3,6,1,4,3,0,0,0,0,0,0,0,0,0,0,0,0,0,0],"split_type":[0,0,0,0,0,0,0,0,0,0,0,0,0,0,0,0,0,0,0,0,0,0,0,0,0,0,0],"sum_hessian":[8.5715875E2,3.748057E2,4.8235306E2,1.8479951E2,1.9000616E2,4.638138E2,1.8539257E1,1.3050247E2,5.4297047E1,1.7385073E1,1.726211E2,3.1616644E2,1.4764737E2,8.476534E0,1.0062723E1,1.1441956E2,1.608291E1,3.331646E1,2.0980585E1,9.309905E0,8.075167E0,1.118776E2,6.0743492E1,2.0886172E2,1.073047E2,1.1716881E2,3.0478556E1],"tree_param":{"num_deleted":"0","num_feature":"8","num_nodes":"27","size_leaf_vector":"1"}},{"base_weights":[2.3341049E-2,1.7038943E-1,-1.3989249E-1,2.5342783E-1,-2.7105177E-2,-1.6225316E-1,3.3269054E-1,-1.2858465E-2,2.8172618E-1,4.1670457E-1,-9.574686E-2,2.532924E-1,-1.8412957E-1,2.013591E-2,-1.5673196E-3,1.8052928E-2,6.8385694E-3,3.297696E-2,-1.1743384E-2,-6.8918015E-3,1.4196527E-3,2.32001E-2,-1.2196942E-2,-1.6263995E-2,-4.816889E-3],"categories":[],"categories_nodes":[],"categories_segments":[],"categories_sizes":[],"default_left":[0,0,0,0,0,0,0,0,0,0,0,0,0,0,0,0,0,0,0,0,0,0,0,0,0],"id":20,"left_children":[1,3,5,7,9,11,13,-1,15,17,19,21,23,-1,-1,-1,-1,-1,-1,-1,-1,-1,-1,-1,-1],"loss_changes":[2.0830687E1,7.4957724E0,4.4283257E0,6.385889E0,4.217025E0,3.650035E0,2.538511E0,0E0,5.121952E0,1.0882367E1,2.3050709E0,7.446994E0,3.0332193E0,0E0,0E0,0E0,0E0,0E0,0E0,0E0,0E0,0E0,0E0,0E0,0E0],"parents":[2147483647,0,0,1,1,2,2,3,3,4,4,5,5,6,6,8,8,9,9,10,10,11,11,12,12],"right_children":[2,4,6,8,10,12,14,-1,16,18,20,22,24,-1,-1,-1,-1,-1,-1,-1,-1,-1,-1,-1,-1],"split_conditions":[1.06709115E-2,2.6666668E-1,9.001815E-1,-8.770965E-1,4.0131235E-1,8.3333336E-2,6.381784E-1,-1.2858465E-2,-5.0579345E-1,-1.9858932E-1,3.9373112E-1,2.3385711E-1,7.1428575E-2,2.013591E-2,-1.5673196E-3,1.8052928E-2,6.8385694E-3,3.297696E-2,-1.1743384E-2,-6.8918015E-3,1.4196527E-3,2.32001E-2,-1.2196942E-2,-1.6263995E-2,-4.816889E-3],"split_indices":[1,6,1,1,2,6,0,0,1,1,0,1,5,0,0,0,0,0,0,0,0,0,0,0,0],"split_type":[0,0,0,0,0,0,0,0,0,0,0,0,0,0,0,0,0,0,0,0,0,0,0,0,0],"sum_hessian":[8.6483905E2,4.549411E2,4.0989795E2,3.1997845E2,1.3496266E2,3.9231998E2,1.757796E1,1.1901857E1,3.0807657E2,1.7059118E1,1.17903534E2,1.882719E1,3.734928E2,8.759484E0,8.818476E0,4.211872E1,2.6595786E2,8.955465E0,8.103653E0,6.041654E1,5.7487E1,1.0384797E1,8.442393E0,2.1029179E1,3.524636E2],"tree_param":{"num_deleted":"0","num_feature":"8","num_nodes":"25","size_leaf_vector":"1"}},{"base_weights":[6.6040736E-4,2.080952E-1,-6.374287E-2,-2.7146712E-1,2.8481865E-1,5.7027177E-3,-2.3454271E-1,-1.6614394E-2,-7.038225E-2,4.7056866E-1,1.0664173E-1,-1.7843856E-2,1.8348664E-2,-2.7029553E-1,1.3426631E-2,3.3079912E-3,-6.8066735E-3,6.4083827E-3,2.1541694E-2,7.7187824E-3,-7.0364694E-3,-7.4972836E-3,5.157817E-4,-1.1615711E-2,-3.824456E-3],"categories":[],"categories_nodes":[],"categories_segments":[],"categories_sizes":[],"default_left":[0,0,0,0,0,0,0,0,0,0,0,0,0,0,0,0,0,0,0,0,0,0,0,0,0],"id":21,"left_children":[1,3,5,7,9,11,13,-1,15,17,19,21,-1,23,-1,-1,-1,-1,-1,-1,-1,-1,-1,-1,-1],"loss_changes":[1.1452439E1,7.588667E0,7.761256E0,1.575494E0,5.7436543E0,6.672594E0,4.7937346E0,0E0,5.613324E-1,5.2160645E0,4.802825E0,3.6697032E0,0E0,2.941679E0,0E0,0E0,0E0,0E0,0E0,0E0,0E0,0E0,0E0,0E0,0E0],"parents":[2147483647,0,0,1,1,2,2,3,3,4,4,5,5,6,6,8,8,9,9,10,10,11,11,13,13],"right_children":[2,4,6,8,10,12,14,-1,16,18,20,22,-1,24,-1,-1,-1,-1,-1,-1,-1,-1,-1,-1,-1],"split_conditions":[1.4814815E-1,1.0714286E-1,1.9195783E-1,5.5555556E-2,-5.7538293E-2,9.726953E0,1.0246215E0,-1.6614394E-2,5.394437E-1,-1.6216594E0,8.0361074E-1,2.941279E-1,1.8348664E-2,2.1363637E-1,1.3426631E-2,3.3079912E-3,-6.8066735E-3,6.4083827E-3,2.1541694E-2,7.7187824E-3,-7.0364694E-3,-7.4972836E-3,5.157817E-4,-1.1615711E-2,-3.824456E-3],"split_indices":[6,5,1,5,1,3,1,0,0,3,0,0,0,5,0,0,0,0,0,0,0,0,0,0,0],"split_type":[0,0,0,0,0,0,0,0,0,0,0,0,0,0,0,0,0,0,0,0,0,0,0,0,0],"sum_hessian":[8.542625E2,2.015971E2,6.526654E2,2.727934E1,1.7431776E2,4.650361E2,1.8762932E2,1.0252488E1,1.7026852E1,8.414E1,9.0177765E1,4.4904178E2,1.5994339E1,1.7914485E2,8.484469E0,8.109552E0,8.9173E0,4.2651493E1,4.148851E1,6.2812206E1,2.736556E1,5.769544E1,3.9134634E2,9.710028E1,8.204457E1],"tree_param":{"num_deleted":"0","num_feature":"8","num_nodes":"25","size_leaf_vector":"1"}},{"base_weights":[3.368736E-2,-1.7898092E-2,2.6960066E-1,-2.9379693E-1,1.9273367E-2,5.560459E-1,1.1482294E-1,6.693486E-2,-4.9017173E-1,2.1093076E-1,-4.2847786E-2,2.9009685E-1,7.346103E-1,-1.8635784E-1,2.3202251E-1,-6.402265E-3,2.0229416E-2,-8.310639E-3,-2.346164E-2,7.970334E-3,-7.3345196E-3,-5.437403E-4,-1.5582702E-2,1.6678078E-2,-2.3934012E-3,1.4624535E-2,2.5101578E-2,-1.0494412E-2,5.380892E-3,1.2794349E-2,-8.1263436E-4],"categories":[],"categories_nodes":[],"categories_segments":[],"categories_sizes":[],"default_left":[0,0,0,0,0,0,0,0,0,0,0,0,0,0,0,0,0,0,0,0,0,0,0,0,0,0,0,0,0,0,0],"id":22,"left_children":[1,3,5,7,9,11,13,15,17,19,21,23,25,27,29,-1,-1,-1,-1,-1,-1,-1,-1,-1,-1,-1,-1,-1,-1,-1,-1],"loss_changes":[1.0425477E1,7.2271986E0,6.718508E0,5.9759755E0,7.415697E0,2.2222347E0,3.6537247E0,5.4622173E0,3.056695E0,3.8981605E0,5.5327673E0,2.424498E0,1.7155647E-1,1.8464297E0,3.7387793E0,0E0,0E0,0E0,0E0,0E0,0E0,0E0,0E0,0E0,0E0,0E0,0E0,0E0,0E0,0E0,0E0],"parents":[2147483647,0,0,1,1,2,2,3,3,4,4,5,5,6,6,7,7,8,8,9,9,10,10,11,11,12,12,13,13,14,14],"right_children":[2,4,6,8,10,12,14,16,18,20,22,24,26,28,30,-1,-1,-1,-1,-1,-1,-1,-1,-1,-1,-1,-1,-1,-1,-1,-1],"split_conditions":[7.504778E-1,-9.490895E0,-4.4334292E0,4.6257016E-1,1.7391305E-1,1.2416667E-1,-9.1402006E-1,3.0769232E-1,2.6666668E-1,6.7103148E0,7.125095E-1,8.695652E-2,2.5872514E-1,8.496356E-1,8.258151E-1,-6.402265E-3,2.0229416E-2,-8.310639E-3,-2.346164E-2,7.970334E-3,-7.3345196E-3,-5.437403E-4,-1.5582702E-2,1.6678078E-2,-2.3934012E-3,1.4624535E-2,2.5101578E-2,-1.0494412E-2,5.380892E-3,1.2794349E-2,-8.1263436E-4],"split_indices":[0,3,3,2,6,6,3,6,6,3,0,6,7,0,0,0,0,0,0,0,0,0,0,0,0,0,0,0,0,0,0],"split_type":[0,0,0,0,0,0,0,0,0,0,0,0,0,0,0,0,0,0,0,0,0,0,0,0,0,0,0,0,0,0,0],"sum_hessian":[8.5458057E2,7.0238196E2,1.5219858E2,8.216565E1,6.202163E2,5.2025955E1,1.0017262E2,2.9311127E1,5.285452E1,1.5094002E2,4.692763E2,2.2480705E1,2.954525E1,2.781309E1,7.2359535E1,2.0720343E1,8.590784E0,3.223686E1,2.0617662E1,1.3530003E2,1.5639972E1,4.4761273E2,2.1663565E1,1.2640872E1,9.839833E0,1.1170778E1,1.8374472E1,1.9267075E1,8.546015E0,4.0783577E1,3.1575956E1],"tree_param":{"num_deleted":"0","num_feature":"8","num_nodes":"31","size_leaf_vector":"1"}},{"base_weights":[1.1405624E-2,1.4766897E-1,-1.4061245E-1,3.4027243E-1,6.728937E-2,-1.6628861E-1,3.925171E-1,7.732358E-1,1.599618E-1,-1.740099E-1,1.0061049E-1,-9.58382E-2,-2.4492784E-1,2.1624053E-2,1.8781044E-3,1.1901435E-2,2.8229143E-2,1.8438466E-2,-3.94971E-5,-1.1326351E-2,1.5426346E-2,5.662896E-3,-2.2939977E-3,6.384331E-3,-4.1966764E-3,-2.0086572E-2,-5.910881E-3],"categories":[],"categories_nodes":[],"categories_segments":[],"categories_sizes":[],"default_left":[0,0,0,0,0,0,0,0,0,0,0,0,0,0,0,0,0,0,0,0,0,0,0,0,0,0,0],"id":23,"left_children":[1,3,5,7,9,11,13,15,17,19,21,23,25,-1,-1,-1,-1,-1,-1,-1,-1,-1,-1,-1,-1,-1,-1],"loss_changes":[1.8051674E1,7.0789995E0,5.737259E0,1.0347614E1,2.6478553E0,2.148141E0,2.0308104E0,1.9206886E0,7.1244526E0,5.9099035E0,4.508585E0,2.9044304E0,3.5701036E0,0E0,0E0,0E0,0E0,0E0,0E0,0E0,0E0,0E0,0E0,0E0,0E0,0E0,0E0],"parents":[2147483647,0,0,1,1,2,2,3,3,4,4,5,5,6,6,7,7,8,8,9,9,10,10,11,11,12,12],"right_children":[2,4,6,8,10,12,14,16,18,20,22,24,26,-1,-1,-1,-1,-1,-1,-1,-1,-1,-1,-1,-1,-1,-1],"split_conditions":[1.06709115E-2,4.255575E-1,9.001815E-1,1.5293041E-1,3.554961E-2,2.4168916E-1,2.0158103E-1,-3.3437788E-1,-3.9075083E-1,3.043478E-1,2.534113E-1,1.1904762E-1,8.3333336E-2,2.1624053E-2,1.8781044E-3,1.1901435E-2,2.8229143E-2,1.8438466E-2,-3.94971E-5,-1.1326351E-2,1.5426346E-2,5.662896E-3,-2.2939977E-3,6.384331E-3,-4.1966764E-3,-2.0086572E-2,-5.910881E-3],"split_indices":[1,2,1,6,7,1,5,1,1,6,6,6,5,0,0,0,0,0,0,0,0,0,0,0,0,0,0],"split_type":[0,0,0,0,0,0,0,0,0,0,0,0,0,0,0,0,0,0,0,0,0,0,0,0,0,0,0],"sum_hessian":[8.6844794E2,4.579772E2,4.1047076E2,1.3342288E2,3.2455432E2,3.9259506E2,1.7875713E1,3.7777847E1,9.5645035E1,3.8611412E1,2.859429E2,2.0883467E2,1.8376039E2,8.069162E0,9.806551E0,1.3198486E1,2.4579363E1,2.3940088E1,7.170494E1,3.0321295E1,8.290114E0,1.9083981E2,9.5103096E1,2.5364988E1,1.8346968E2,1.665392E1,1.6710646E2],"tree_param":{"num_deleted":"0","num_feature":"8","num_nodes":"27","size_leaf_vector":"1"}},{"base_weights":[3.5677883E-3,2.762257E-1,-2.9836847E-2,-1.1901453E-2,3.5816708E-1,-2.906132E-1,-1.1785473E-2,1.6272233E-1,5.687246E-1,6.183819E-2,-4.9510676E-1,6.040576E-2,-7.748693E-2,-5.3959037E-3,1.2117684E-2,3.1903103E-2,9.764228E-3,-7.1332785E-3,9.9669E-3,-2.560507E-2,-4.643253E-3,8.732843E-4,1.0916968E-2,-3.809376E-3,5.940719E-3],"categories":[],"categories_nodes":[],"categories_segments":[],"categories_sizes":[],"default_left":[0,0,0,0,0,0,0,0,0,0,0,0,0,0,0,0,0,0,0,0,0,0,0,0,0],"id":24,"left_children":[1,3,5,-1,7,9,11,13,15,17,19,21,23,-1,-1,-1,-1,-1,-1,-1,-1,-1,-1,-1,-1],"loss_changes":[7.839678E0,5.3932734E0,3.605149E0,0E0,3.3399258E0,3.6199808E0,3.4165976E0,3.905177E0,4.3054647E0,1.7015684E0,3.6498342E0,3.245359E0,5.1783667E0,0E0,0E0,0E0,0E0,0E0,0E0,0E0,0E0,0E0,0E0,0E0,0E0],"parents":[2147483647,0,0,1,1,2,2,4,4,5,5,6,6,7,7,8,8,9,9,10,10,11,11,12,12],"right_children":[2,4,6,-1,8,10,12,14,16,18,20,22,24,-1,-1,-1,-1,-1,-1,-1,-1,-1,-1,-1,-1],"split_conditions":[9.52381E-2,-9.490895E0,2.890505E-1,-1.1901453E-2,7.692308E-2,1.6110896E-1,2.25E-1,1.9976076E-1,8.3333336E-2,4.2488423E-1,3.6739403E-16,3.6842105E-1,5.362311E0,-5.3959037E-3,1.2117684E-2,3.1903103E-2,9.764228E-3,-7.1332785E-3,9.9669E-3,-2.560507E-2,-4.643253E-3,8.732843E-4,1.0916968E-2,-3.809376E-3,5.940719E-3],"split_indices":[6,3,2,0,6,2,6,5,6,7,3,5,3,0,0,0,0,0,0,0,0,0,0,0,0],"split_type":[0,0,0,0,0,0,0,0,0,0,0,0,0,0,0,0,0,0,0,0,0,0,0,0,0],"sum_hessian":[8.5788544E2,9.244228E1,7.654432E2,9.409004E0,8.303328E1,4.808868E1,7.173545E2,4.4441128E1,3.859215E1,1.8040936E1,3.0047745E1,3.418541E2,3.755004E2,1.8519152E1,2.5921976E1,1.1053777E1,2.7538374E1,8.643848E0,9.397086E0,1.35338125E1,1.6513933E1,3.113876E2,3.0466486E1,3.190038E2,5.6496586E1],"tree_param":{"num_deleted":"0","num_feature":"8","num_nodes":"25","size_leaf_vector":"1"}},{"base_weights":[1.6295668E-2,1.5610294E-1,-8.86943E-2,2.7404642E-1,-3.3864014E-2,2.8712815E-1,-1.3197254E-1,6.643705E-1,2.2006845E-1,-3.8639787E-1,8.397887E-2,6.172659E-1,-2.7696034E-1,-1.5874085E-1,3.9358974E-1,3.0716253E-2,1.1167382E-2,4.6333848E-3,1.9003596E-2,-3.71453E-3,-2.0189656E-2,6.2178727E-3,-6.2623904E-3,5.6185853E-3,2.334738E-2,3.2042644E-3,-1.6558452E-2,-3.1733443E-3,-1.0458323E-2,1.9774776E-2,3.5899756E-3],"categories":[],"categories_nodes":[],"categories_segments":[],"categories_sizes":[],"default_left":[0,0,0,0,0,0,0,0,0,0,0,0,0,0,0,0,0,0,0,0,0,0,0,0,0,0,0,0,0,0,0],"id":25,"left_children":[1,3,5,7,9,11,13,15,17,19,21,23,25,27,29,-1,-1,-1,-1,-1,-1,-1,-1,-1,-1,-1,-1,-1,-1,-1,-1],"loss_changes":[1.2734943E1,8.349557E0,8.118512E0,4.620123E0,6.024392E0,9.876015E0,6.361086E0,2.2809153E0,5.3881016E0,2.6070223E0,3.9998732E0,2.0689774E0,2.2102425E0,4.2182026E0,1.4836583E0,0E0,0E0,0E0,0E0,0E0,0E0,0E0,0E0,0E0,0E0,0E0,0E0,0E0,0E0,0E0,0E0],"parents":[2147483647,0,0,1,1,2,2,3,3,4,4,5,5,6,6,7,7,8,8,9,9,10,10,11,11,12,12,13,13,14,14],"right_children":[2,4,6,8,10,12,14,16,18,20,22,24,26,28,30,-1,-1,-1,-1,-1,-1,-1,-1,-1,-1,-1,-1,-1,-1,-1,-1],"split_conditions":[-6.1804987E-2,2.4E-1,1.0344828E-1,-9.704627E0,7.728683E-2,2.2977786E-1,7.548842E-1,1.9976076E-1,3.478261E-1,-2.1661666E-1,2.580645E-1,-4.7531395E0,-2.2779474E0,3.5618353E-1,1.8E-1,3.0716253E-2,1.1167382E-2,4.6333848E-3,1.9003596E-2,-3.71453E-3,-2.0189656E-2,6.2178727E-3,-6.2623904E-3,5.6185853E-3,2.334738E-2,3.2042644E-3,-1.6558452E-2,-3.1733443E-3,-1.0458323E-2,1.9774776E-2,3.5899756E-3],"split_indices":[1,6,6,3,7,7,1,5,5,1,5,3,3,1,5,0,0,0,0,0,0,0,0,0,0,0,0,0,0,0,0],"split_type":[0,0,0,0,0,0,0,0,0,0,0,0,0,0,0,0,0,0,0,0,0,0,0,0,0,0,0,0,0,0,0],"sum_hessian":[8.6468494E2,3.7053754E2,4.9414737E2,2.2819548E2,1.4234207E2,5.0155148E1,4.4399225E2,2.5662594E1,2.0253288E2,3.480437E1,1.075377E2,3.154926E1,1.8605886E1,4.2347067E2,2.052156E1,9.820073E0,1.5842522E1,1.7656473E2,2.5968155E1,1.9284016E1,1.5520355E1,7.597722E1,3.1560478E1,9.478146E0,2.2071114E1,8.149687E0,1.04562E1,3.329364E2,9.053427E1,9.348571E0,1.117299E1],"tree_param":{"num_deleted":"0","num_feature":"8","num_nodes":"31","size_leaf_vector":"1"}},{"base_weights":[-2.1420468E-3,-3.8442403E-2,2.4946935E-1,-1.7896494E-2,-3.9337277E-1,4.7401592E-1,4.4090793E-2,-2.7990958E-1,1.4740122E-2,-4.1723093E-3,-6.904162E-1,2.7813414E-1,8.0093074E-1,-1.439165E-1,1.4762985E-2,-1.5875861E-2,-2.7220934E-3,1.793958E-3,-5.233068E-3,-1.1094375E-2,1.1524197E-2,-2.5530376E-2,-9.716522E-3,1.5556651E-2,-1.0594914E-3,1.4854037E-2,2.9598976E-2,-1.0405739E-2,7.6066274E-3],"categories":[],"categories_nodes":[],"categories_segments":[],"categories_sizes":[],"default_left":[0,0,0,0,0,0,0,0,0,0,0,0,0,0,0,0,0,0,0,0,0,0,0,0,0,0,0,0,0],"id":26,"left_children":[1,3,5,7,9,11,13,15,17,19,21,23,25,27,-1,-1,-1,-1,-1,-1,-1,-1,-1,-1,-1,-1,-1,-1,-1],"loss_changes":[7.845329E0,5.4629383E0,4.963124E0,6.0867844E0,4.7356524E0,2.9689837E0,5.0098753E0,3.6457872E0,5.4176455E0,2.947118E0,9.54772E-1,2.6313996E0,3.1941414E-1,3.5334353E0,0E0,0E0,0E0,0E0,0E0,0E0,0E0,0E0,0E0,0E0,0E0,0E0,0E0,0E0,0E0],"parents":[2147483647,0,0,1,1,2,2,3,3,4,4,5,5,6,6,7,7,8,8,9,9,10,10,11,11,12,12,13,13],"right_children":[2,4,6,8,10,12,14,16,18,20,22,24,26,28,-1,-1,-1,-1,-1,-1,-1,-1,-1,-1,-1,-1,-1,-1,-1],"split_conditions":[7.888228E-1,4.2105263E-1,8.3432573E-1,2.9929653E-1,-3.35E0,1.6957417E0,8.911081E-1,2.927715E-1,6.95498E-1,-6.7958574E0,2.8062102E-1,2.8645018E-1,8.135423E-1,3.6842105E-1,1.4762985E-2,-1.5875861E-2,-2.7220934E-3,1.793958E-3,-5.233068E-3,-1.1094375E-2,1.1524197E-2,-2.5530376E-2,-9.716522E-3,1.5556651E-2,-1.0594914E-3,1.4854037E-2,2.9598976E-2,-1.0405739E-2,7.6066274E-3],"split_indices":[0,6,0,0,3,3,0,7,0,3,7,7,0,5,0,0,0,0,0,0,0,0,0,0,0,0,0,0,0],"split_type":[0,0,0,0,0,0,0,0,0,0,0,0,0,0,0,0,0,0,0,0,0,0,0,0,0,0,0,0,0],"sum_hessian":[8.558791E2,7.490791E2,1.0679995E2,7.095792E2,3.949989E1,5.0081894E1,5.671806E1,7.7337105E1,6.322421E2,1.7756088E1,2.1743801E1,3.3053173E1,1.702872E1,4.0669296E1,1.6048763E1,3.2203857E1,4.5133247E1,5.114493E2,1.207928E2,9.18182E0,8.574267E0,1.3740639E1,8.003162E0,1.81502E1,1.4902973E1,8.511773E0,8.516948E0,2.7049374E1,1.3619922E1],"tree_param":{"num_deleted":"0","num_feature":"8","num_nodes":"29","size_leaf_vector":"1"}},{"base_weights":[-7.017155E-4,7.087986E-2,-1.7347929E-1,4.1463217E-1,2.9327877E-2,-4.2620525E-1,-6.277169E-2,-1.4803637E-2,5.5851394E-1,1.676378E-1,-4.7514E-2,-5.073483E-1,5.0415746E-3,-2.4768522E-3,-4.0170485E-1,-4.334284E-3,2.0847147E-2,-1.742966E-2,6.1311712E-3,-2.0216138E-3,1.746768E-2,5.8056447E-3,-1.8279597E-2,-1.7699949E-3,9.259943E-3,2.779422E-3,-2.1669446E-2],"categories":[],"categories_nodes":[],"categories_segments":[],"categories_sizes":[],"default_left":[0,0,0,0,0,0,0,0,0,0,0,0,0,0,0,0,0,0,0,0,0,0,0,0,0,0,0],"id":27,"left_children":[1,3,5,7,9,11,13,-1,15,17,19,21,-1,23,25,-1,-1,-1,-1,-1,-1,-1,-1,-1,-1,-1,-1],"loss_changes":[1.07615795E1,8.769778E0,7.0914264E0,9.067594E0,5.862837E0,3.859396E0,3.6566868E0,0E0,5.7002373E0,5.5943074E0,4.502701E0,5.069723E0,0E0,2.7265403E0,4.383834E0,0E0,0E0,0E0,0E0,0E0,0E0,0E0,0E0,0E0,0E0,0E0,0E0],"parents":[2147483647,0,0,1,1,2,2,3,3,4,4,5,5,6,6,8,8,9,9,10,10,11,11,13,13,14,14],"right_children":[2,4,6,8,10,12,14,-1,16,18,20,22,-1,24,26,-1,-1,-1,-1,-1,-1,-1,-1,-1,-1,-1,-1],"split_conditions":[1.8092275E-1,9.52381E-2,4.1673633E-1,1.1111111E-1,-2.2975357E-1,6.4647794E-1,5.9100804E0,-1.4803637E-2,8E0,1.0714286E-1,1.7428184E-1,1.8584852E-1,5.0415746E-3,6.303385E-1,5.816549E-1,-4.334284E-3,2.0847147E-2,-1.742966E-2,6.1311712E-3,-2.0216138E-3,1.746768E-2,5.8056447E-3,-1.8279597E-2,-1.7699949E-3,9.259943E-3,2.779422E-3,-2.1669446E-2],"split_indices":[1,6,0,5,1,1,3,0,4,6,1,0,0,1,0,0,0,0,0,0,0,0,0,0,0,0,0],"split_type":[0,0,0,0,0,0,0,0,0,0,0,0,0,0,0,0,0,0,0,0,0,0,0,0,0,0,0],"sum_hessian":[8.6714514E2,6.137527E2,2.5339249E2,6.473591E1,5.490168E2,7.588519E1,1.775073E2,8.355721E0,5.6380188E1,1.9544937E2,3.5356738E2,6.696132E1,8.923872E0,1.5198138E2,2.5525913E1,9.146769E0,4.7233418E1,8.102473E0,1.873469E2,3.4405E2,9.517403E0,8.333938E0,5.8627384E1,1.2964519E2,2.2336193E1,1.0461598E1,1.5064315E1],"tree_param":{"num_deleted":"0","num_feature":"8","num_nodes":"27","size_leaf_vector":"1"}},{"base_weights":[1.5406933E-2,1.3506877E-1,-1.14175014E-1,8.925251E-2,4.2564848E-1,-1.4597742E-1,2.1092996E-1,1.5596697E-1,-1.4889507E-1,7.3917645E-1,1.4103343E-1,-2.2547473E-1,2.7361799E-2,6.533811E-1,-2.8878117E-1,-9.251275E-3,5.8440543E-3,1.690547E-2,-8.180722E-3,3.0164683E-2,1.6733741E-2,-5.348713E-3,2.3849588E-2,-1.1751401E-2,-3.063152E-3,7.7181035E-3,-6.6465475E-3,2.9102027E-2,7.89556E-3,-1.5889784E-2,5.6762E-4],"categories":[],"categories_nodes":[],"categories_segments":[],"categories_sizes":[],"default_left":[0,0,0,0,0,0,0,0,0,0,0,0,0,0,0,0,0,0,0,0,0,0,0,0,0,0,0,0,0,0,0],"id":28,"left_children":[1,3,5,7,9,11,13,15,17,19,21,23,25,27,29,-1,-1,-1,-1,-1,-1,-1,-1,-1,-1,-1,-1,-1,-1,-1,-1],"loss_changes":[1.3444558E1,5.943222E0,4.351078E0,6.2503047E0,5.285637E0,5.2477884E0,8.621573E0,5.614073E0,7.8484116E0,5.433912E-1,7.275051E0,5.2884607E0,7.0023627E0,2.1456404E0,1.4048578E0,0E0,0E0,0E0,0E0,0E0,0E0,0E0,0E0,0E0,0E0,0E0,0E0,0E0,0E0,0E0,0E0],"parents":[2147483647,0,0,1,1,2,2,3,3,4,4,5,5,6,6,7,7,8,8,9,9,10,10,11,11,12,12,13,13,14,14],"right_children":[2,4,6,8,10,12,14,16,18,20,22,24,26,28,30,-1,-1,-1,-1,-1,-1,-1,-1,-1,-1,-1,-1,-1,-1,-1,-1],"split_conditions":[1.06709115E-2,7.859719E-1,6.4647794E-1,2.631579E-1,8.3432573E-1,6.518827E-1,6.337206E-1,-6.6616815E-1,5.394437E-1,8.008184E-1,8.911081E-1,-2.8689144E0,2.3171544E-1,2.0158103E-1,9.001815E-1,-9.251275E-3,5.8440543E-3,1.690547E-2,-8.180722E-3,3.0164683E-2,1.6733741E-2,-5.348713E-3,2.3849588E-2,-1.1751401E-2,-3.063152E-3,7.7181035E-3,-6.6465475E-3,2.9102027E-2,7.89556E-3,-1.5889784E-2,5.6762E-4],"split_indices":[1,0,1,5,0,0,3,1,0,0,0,3,7,5,1,0,0,0,0,0,0,0,0,0,0,0,0,0,0,0,0],"split_type":[0,0,0,0,0,0,0,0,0,0,0,0,0,0,0,0,0,0,0,0,0,0,0,0,0,0,0,0,0,0,0],"sum_hessian":[8.640627E2,4.491935E2,4.1486914E2,3.8970822E2,5.9485306E1,3.7865485E2,3.62143E1,3.048308E2,8.487741E1,2.7165028E1,3.232028E1,2.5928824E2,1.19366615E2,1.8962957E1,1.725134E1,2.2723076E1,2.8210773E2,1.1776846E1,7.310056E1,8.244782E0,1.8920244E1,2.2449352E1,9.870926E0,1.0906381E2,1.5022443E2,6.202604E1,5.7340576E1,9.23698E0,9.725977E0,9.069472E0,8.181869E0],"tree_param":{"num_deleted":"0","num_feature":"8","num_nodes":"31","size_leaf_vector":"1"}},{"base_weights":[-1.2639136E-2,6.4473726E-2,-1.9582449E-1,4.7595605E-2,2.1854702E-2,-2.3158245E-1,1.6770227E-2,-4.4900623E-1,6.59248E-2,1.0356514E-1,-2.7017742E-1,-2.101917E-2,-5.41E-3,1.1205945E-2,1.4870768E-4,1.3569044E-2,-3.4653926E-3,-9.2405E-3,2.585463E-3],"categories":[],"categories_nodes":[],"categories_segments":[],"categories_sizes":[],"default_left":[0,0,0,0,0,0,0,0,0,0,0,0,0,0,0,0,0,0,0],"id":29,"left_children":[1,3,5,7,-1,9,-1,11,13,15,17,-1,-1,-1,-1,-1,-1,-1,-1],"loss_changes":[1.2189171E1,6.755862E0,7.093273E0,5.4511223E0,0E0,3.2123995E0,0E0,1.2529054E0,1.0765071E1,2.0949879E0,3.0091991E0,0E0,0E0,0E0,0E0,0E0,0E0,0E0,0E0],"parents":[2147483647,0,0,1,1,2,2,3,3,5,5,7,7,8,8,9,9,10,10],"right_children":[2,4,6,8,-1,10,-1,12,14,16,18,-1,-1,-1,-1,-1,-1,-1,-1],"split_conditions":[1.8092275E-1,8.911081E-1,8.596557E-1,-8.770965E-1,2.1854702E-2,1.15384616E-1,1.6770227E-2,5.078875E-1,-4.0480322E-1,6.418946E-1,7.548842E-1,-2.101917E-2,-5.41E-3,1.1205945E-2,1.4870768E-4,1.3569044E-2,-3.4653926E-3,-9.2405E-3,2.585463E-3],"split_indices":[1,0,0,1,0,6,0,0,1,0,1,0,0,0,0,0,0,0,0],"split_type":[0,0,0,0,0,0,0,0,0,0,0,0,0,0,0,0,0,0,0],"sum_hessian":[8.6005164E2,6.05947E2,2.5410461E2,5.924944E2,1.34526415E1,2.4360437E2,1.0500243E1,1.9835526E1,5.726589E2,2.4895334E1,2.1870903E2,8.997248E0,1.0838278E1,9.345448E1,4.7920438E2,8.989186E0,1.5906147E1,1.9789905E2,2.080998E1],"tree_param":{"num_deleted":"0","num_feature":"8","num_nodes":"19","size_leaf_vector":"1"}},{"base_weights":[4.6951385E-4,-1.7825353E-1,4.9435332E-2,-5.7454157E-1,-1.2600453E-1,1.5762112E-1,1.3309355E-3,-6.556426E-3,-2.7523804E-2,-1.9572401E-2,-8.833019E-2,2.0053017E-1,-1.4448543E-1,-3.9386716E-2,2.4099183E-1,-5.7041943E-3,1.757728E-3,2.5614388E-3,1.0687579E-2,-1.7473191E-2,2.8590064E-3,8.468321E-3,-1.8859725E-3,1.4817804E-2,-5.214751E-3],"categories":[],"categories_nodes":[],"categories_segments":[],"categories_sizes":[],"default_left":[0,0,0,0,0,0,0,0,0,0,0,0,0,0,0,0,0,0,0,0,0,0,0,0,0],"id":30,"left_children":[1,3,5,7,9,11,13,-1,-1,-1,15,17,19,21,23,-1,-1,-1,-1,-1,-1,-1,-1,-1,-1],"loss_changes":[7.6339545E0,3.7757554E0,3.5630693E0,2.3155293E0,3.2387478E0,2.775227E0,4.654152E0,0E0,0E0,0E0,2.3831177E0,3.2744093E0,2.9271212E0,3.1058383E0,7.3958106E0,0E0,0E0,0E0,0E0,0E0,0E0,0E0,0E0,0E0,0E0],"parents":[2147483647,0,0,1,1,2,2,3,3,4,4,5,5,6,6,10,10,11,11,12,12,13,13,14,14],"right_children":[2,4,6,8,10,12,14,-1,-1,-1,16,18,20,22,24,-1,-1,-1,-1,-1,-1,-1,-1,-1,-1],"split_conditions":[3.8902032E-1,1.0153361E-1,1.4814815E-1,1.923077E-1,1.6024077E-1,5.8159795E0,3.0769232E-1,-6.556426E-3,-2.7523804E-2,-1.9572401E-2,2.8645018E-1,-9.742117E-1,7.1193495E0,4.1893393E-1,3.6813188E-1,-5.7041943E-3,1.757728E-3,2.5614388E-3,1.0687579E-2,-1.7473191E-2,2.8590064E-3,8.468321E-3,-1.8859725E-3,1.4817804E-2,-5.214751E-3],"split_indices":[0,7,6,5,0,3,6,0,0,0,7,3,3,0,6,0,0,0,0,0,0,0,0,0,0],"split_type":[0,0,0,0,0,0,0,0,0,0,0,0,0,0,0,0,0,0,0,0,0,0,0,0,0],"sum_hessian":[8.6931E2,1.8609845E2,6.8321155E2,1.9931503E1,1.6616695E2,2.092339E2,4.7397763E2,1.0984322E1,8.947181E0,9.463363E0,1.5670358E2,1.8365343E2,2.5580484E1,4.0621622E2,6.7761406E1,9.230157E1,6.4402016E1,1.0691651E2,7.673691E1,8.2920475E0,1.7288437E1,2.6508907E1,3.797073E2,4.191663E1,2.5844774E1],"tree_param":{"num_deleted":"0","num_feature":"8","num_nodes":"25","size_leaf_vector":"1"}},{"base_weights":[-2.6051218E-2,9.802425E-2,-1.1993409E-1,-4.6485406E-1,1.4577976E-1,2.4746765E-1,-1.4249265E-1,-6.802439E-1,2.51773E-3,1.1853424E-1,2.5715217E-2,1.6780088E-2,-3.6037455E-3,-9.412244E-2,-2.64145E-1,-2.606504E-2,-1.4015952E-2,6.4264983E-3,-5.952435E-4,8.758861E-3,-3.8134628E-3,-1.058381E-2,3.983748E-3],"categories":[],"categories_nodes":[],"categories_segments":[],"categories_sizes":[],"default_left":[0,0,0,0,0,0,0,0,0,0,0,0,0,0,0,0,0,0,0,0,0,0,0],"id":31,"left_children":[1,3,5,7,9,11,13,15,-1,17,-1,-1,-1,19,21,-1,-1,-1,-1,-1,-1,-1,-1],"loss_changes":[1.0036569E1,1.0082478E1,4.116507E0,3.560326E0,6.503606E0,3.415159E0,2.686492E0,2.459364E-1,0E0,4.408455E0,0E0,0E0,0E0,4.304186E0,4.674876E0,0E0,0E0,0E0,0E0,0E0,0E0,0E0,0E0],"parents":[2147483647,0,0,1,1,2,2,3,3,4,4,5,5,6,6,7,7,9,9,13,13,14,14],"right_children":[2,4,6,8,10,12,14,16,-1,18,-1,-1,-1,20,22,-1,-1,-1,-1,-1,-1,-1,-1],"split_conditions":[-6.1804987E-2,-6.9462305E-1,8.3333336E-2,-1.6797649E0,8.911081E-1,1.8534608E-1,2.8239503E0,1.15860954E-1,2.51773E-3,1.8591096E-1,2.5715217E-2,1.6780088E-2,-3.6037455E-3,2.3119475E-1,8.746197E0,-2.606504E-2,-1.4015952E-2,6.4264983E-3,-5.952435E-4,8.758861E-3,-3.8134628E-3,-1.058381E-2,3.983748E-3],"split_indices":[1,1,6,3,0,1,3,7,0,7,0,0,0,0,3,0,0,0,0,0,0,0,0],"split_type":[0,0,0,0,0,0,0,0,0,0,0,0,0,0,0,0,0,0,0,0,0,0,0],"sum_hessian":[8.586005E2,3.6980313E2,4.8879742E2,2.7896404E1,3.419067E2,2.7411009E1,4.613864E2,1.9775417E1,8.120987E0,3.309805E2,1.0926211E1,1.440622E1,1.3004788E1,3.3202887E2,1.2935756E2,8.040558E0,1.17348585E1,1.9519043E2,1.3579008E2,2.5212925E1,3.0681595E2,1.05878334E2,2.3479223E1],"tree_param":{"num_deleted":"0","num_feature":"8","num_nodes":"23","size_leaf_vector":"1"}},{"base_weights":[1.3177349E-2,-6.9387797E-3,3.4617364E-1,1.03264615E-1,-7.426439E-2,-5.418915E-3,5.350326E-1,-2.5815037E-1,1.7595533E-1,-3.459934E-1,-4.5673843E-2,3.1167877E-1,3.2228205E-2,-1.0966102E-2,7.895334E-3,1.1413903E-2,3.7951714E-3,7.9728095E-3,-1.7002085E-2,-8.473707E-3,-2.383622E-4,2.4644496E-2,4.6903966E-4],"categories":[],"categories_nodes":[],"categories_segments":[],"categories_sizes":[],"default_left":[0,0,0,0,0,0,0,0,0,0,0,0,0,0,0,0,0,0,0,0,0,0,0],"id":32,"left_children":[1,3,5,7,9,-1,11,13,15,17,19,21,-1,-1,-1,-1,-1,-1,-1,-1,-1,-1,-1],"loss_changes":[5.7531543E0,6.027951E0,5.0127335E0,8.163681E0,3.8937252E0,0E0,3.8810625E0,3.0670555E0,2.5312734E0,6.6776495E0,4.087887E0,4.183606E0,0E0,0E0,0E0,0E0,0E0,0E0,0E0,0E0,0E0,0E0,0E0],"parents":[2147483647,0,0,1,1,2,2,3,3,4,4,6,6,7,7,8,8,9,9,10,10,11,11],"right_children":[2,4,6,8,10,-1,12,14,16,18,20,22,-1,-1,-1,-1,-1,-1,-1,-1,-1,-1,-1],"split_conditions":[6.456563E-1,4.255575E-1,-4.6947155E0,1.0714286E-1,2.9052433E-1,-5.418915E-3,7.536285E-1,4.753799E0,1.5789473E-1,8.695652E-2,-9.129133E0,6.836134E-1,3.2228205E-2,-1.0966102E-2,7.895334E-3,1.1413903E-2,3.7951714E-3,7.9728095E-3,-1.7002085E-2,-8.473707E-3,-2.383622E-4,2.4644496E-2,4.6903966E-4],"split_indices":[2,2,3,5,0,0,0,3,5,5,3,3,0,0,0,0,0,0,0,0,0,0,0],"split_type":[0,0,0,0,0,0,0,0,0,0,0,0,0,0,0,0,0,0,0,0,0,0,0],"sum_hessian":[8.5682184E2,8.0939545E2,4.7426403E1,3.0664923E2,5.027462E2,1.2532771E1,3.489363E1,5.0707382E1,2.5594185E2,4.6276325E1,4.5646985E2,2.6347488E1,8.546143E0,4.24181E1,8.289287E0,4.7880825E1,2.0806104E2,1.2189405E1,3.4086918E1,6.1399254E1,3.950706E2,8.701214E0,1.7646275E1],"tree_param":{"num_deleted":"0","num_feature":"8","num_nodes":"23","size_leaf_vector":"1"}},{"base_weights":[-1.2335881E-2,1.3670734E-1,-7.270788E-2,5.773308E-2,5.264998E-1,-1.5266092E-1,2.0511782E-2,1.3548233E-1,-3.9428952E-1,2.50764E-2,3.4092194E-1,-1.7344745E-1,1.5683414E-2,1.4540476E-1,-4.972493E-2,-1.6808398E-2,5.8387127E-3,1.7631273E-3,-1.8019255E-2,-1.3024065E-3,1.9245163E-2,-2.8185311E-3,-1.0568575E-2,-5.5219494E-3,1.0366846E-2,4.0223165E-3,-4.790999E-3],"categories":[],"categories_nodes":[],"categories_segments":[],"categories_sizes":[],"default_left":[0,0,0,0,0,0,0,0,0,0,0,0,0,0,0,0,0,0,0,0,0,0,0,0,0,0,0],"id":33,"left_children":[1,3,5,7,9,11,13,15,17,-1,19,21,-1,23,25,-1,-1,-1,-1,-1,-1,-1,-1,-1,-1,-1,-1],"loss_changes":[7.8229194E0,7.6712914E0,4.614976E0,7.4651566E0,1.9867086E0,4.813516E0,2.527645E0,7.587183E0,2.9719725E0,0E0,3.3707426E0,4.5614023E0,0E0,6.9310246E0,3.7666943E0,0E0,0E0,0E0,0E0,0E0,0E0,0E0,0E0,0E0,0E0,0E0,0E0],"parents":[2147483647,0,0,1,1,2,2,3,3,4,4,5,5,6,6,7,7,8,8,10,10,11,11,13,13,14,14],"right_children":[2,4,6,8,10,12,14,16,18,-1,20,22,-1,24,26,-1,-1,-1,-1,-1,-1,-1,-1,-1,-1,-1,-1],"split_conditions":[-1.9858932E-1,7.859719E-1,5.7697064E-1,7.195383E-1,-4.6947155E0,1.0958384E1,-4.279754E0,-9.895397E-1,1.9452515E-1,2.50764E-2,9.046252E-1,2.1963778E0,1.5683414E-2,-8.98311E0,2.7554164E-2,-1.6808398E-2,5.8387127E-3,1.7631273E-3,-1.8019255E-2,-1.3024065E-3,1.9245163E-2,-2.8185311E-3,-1.0568575E-2,-5.5219494E-3,1.0366846E-2,4.0223165E-3,-4.790999E-3],"split_indices":[1,0,0,0,3,3,3,1,7,0,3,3,0,3,1,0,0,0,0,0,0,0,0,0,0,0,0],"split_type":[0,0,0,0,0,0,0,0,0,0,0,0,0,0,0,0,0,0,0,0,0,0,0,0,0,0,0],"sum_hessian":[8.6624603E2,2.4918199E2,6.17064E2,2.0863373E2,4.0548256E1,3.3165353E2,2.8541052E2,1.7891093E2,2.9722801E1,1.3232241E1,2.7316015E1,3.2283322E2,8.820296E0,1.02155365E2,1.8325516E2,1.3020653E1,1.6589027E2,9.6369705E0,2.008583E1,1.2551117E1,1.4764898E1,2.2507288E2,9.776035E1,3.865219E1,6.350317E1,6.8478226E1,1.1477693E2],"tree_param":{"num_deleted":"0","num_feature":"8","num_nodes":"27","size_leaf_vector":"1"}}]},"name":"gbtree"},"learner_model_param":{"base_score":"[3.6334532E-1]","boost_from_average":"1","num_class":"0","num_feature":"8","num_target":"1"},"objective":{"name":"binary:logistic","reg_loss_param":{"scale_pos_weight":"1"}}},"version":[3,2,0]}