{"learner":{"attributes":{"best_iteration":"12","best_score":"0.6634978229317852"},"feature_names":["sp_k_pct","sp_bb_pct","sp_whiff_pctl","sp_ff_velo","sp_k_pct_10d","sp_k_bb_ratio","sp_1st_k_pct","sp_xwoba_against","sp_gb_pct","opp_bat_k_rate","ump_k_above_avg","home_park_factor","temp_f","home_bullpen_vulnerability","away_bullpen_vulnerability","elo_diff","close_total"],"feature_types":["float","float","float","float","float","float","float","float","float","float","float","float","float","float","float","float","float"],"gradient_booster":{"model":{"cats":{"enc":[],"feature_segments":[],"sorted_idx":[]},"gbtree_model_param":{"num_parallel_tree":"1","num_trees":"53"},"iteration_indptr":[0,1,2,3,4,5,6,7,8,9,10,11,12,13,14,15,16,17,18,19,20,21,22,23,24,25,26,27,28,29,30,31,32,33,34,35,36,37,38,39,40,41,42,43,44,45,46,47,48,49,50,51,52,53],"tree_info":[0,0,0,0,0,0,0,0,0,0,0,0,0,0,0,0,0,0,0,0,0,0,0,0,0,0,0,0,0,0,0,0,0,0,0,0,0,0,0,0,0,0,0,0,0,0,0,0,0,0,0,0,0],"trees":[{"base_weights":[4.5697736E-3,-1.8568297E-1,3.9623556E-1,2.175742E-2,-4.57935E-1,-6.3240093E-1,4.4752643E-1,-8.427102E-2,4.9086848E-1,-4.9791518E-1,2.9135254E-1,-4.469813E-2,-1.4262115E-2,6.532901E-1,2.0411272E-1,6.0780733E-3,-1.4749261E-2,7.086927E-2,1.1391434E-2,-2.965766E-2,-1.4514679E-2,-1.9816332E-2,4.653513E-2,2.2127861E-2,5.4840278E-2,4.4434858E-3,4.991461E-2],"categories":[],"categories_nodes":[],"categories_segments":[],"categories_sizes":[],"default_left":[1,1,0,0,1,0,1,0,0,0,0,0,0,0,0,0,0,0,0,0,0,0,0,0,0,0,0],"id":0,"left_children":[1,3,5,7,9,11,13,15,17,19,21,-1,-1,23,25,-1,-1,-1,-1,-1,-1,-1,-1,-1,-1,-1,-1],"loss_changes":[5.2681217E1,2.6884573E1,1.2477779E1,1.352219E1,6.3109703E0,7.7945805E-1,1.0922855E1,9.660887E0,1.1889846E1,3.6988792E0,5.230271E0,0E0,0E0,1.0652611E1,9.299389E0,0E0,0E0,0E0,0E0,0E0,0E0,0E0,0E0,0E0,0E0,0E0,0E0],"parents":[2147483647,0,0,1,1,2,2,3,3,4,4,5,5,6,6,7,7,8,8,9,9,10,10,13,13,14,14],"right_children":[2,4,6,8,10,12,14,16,18,20,22,-1,-1,24,26,-1,-1,-1,-1,-1,-1,-1,-1,-1,-1,-1,-1],"split_conditions":[5.2E-1,1.2781376E0,9.203297E-2,2.6736248E-1,3.478261E-1,1.005E0,1.2130964E0,7.51E1,3.636142E-1,1.023E0,7.167184E-2,-4.469813E-2,-1.4262115E-2,3.8568132E0,8.8E-1,6.0780733E-3,-1.4749261E-2,7.086927E-2,1.1391434E-2,-2.965766E-2,-1.4514679E-2,-1.9816332E-2,4.653513E-2,2.2127861E-2,5.4840278E-2,4.4434858E-3,4.991461E-2],"split_indices":[2,13,4,9,4,11,13,12,8,11,1,0,0,5,2,0,0,0,0,0,0,0,0,0,0,0,0],"split_type":[0,0,0,0,0,0,0,0,0,0,0,0,0,0,0,0,0,0,0,0,0,0,0,0,0,0,0],"sum_hessian":[7.049962E2,4.7485834E2,2.3013785E2,2.7003064E2,2.0482771E2,1.0392241E1,2.197456E2,2.2091891E2,4.9111717E1,1.947707E2,1.0057007E1,5.0285034E0,5.363737E0,1.1816983E2,1.01575775E2,1.1196801E2,1.0895091E2,9.88939E0,3.922233E1,1.3224965E2,6.252106E1,5.0285034E0,5.0285034E0,8.1461754E1,3.6708076E1,8.967498E1,1.1900792E1],"tree_param":{"num_deleted":"0","num_feature":"17","num_nodes":"27","size_leaf_vector":"1"}},{"base_weights":[-2.1276036E-2,-1.8665144E-1,3.9614466E-1,6.2241923E-4,-4.3219566E-1,8.143877E-1,5.5195477E-2,-4.0715564E-2,8.0744404E-1,-5.0259125E-1,4.0087115E-2,9.509089E-1,1.4544849E-2,3.274947E-1,-2.4347286E-1,-1.7844427E-2,3.0492253E-3,-4.8560067E-3,6.735935E-2,-3.095052E-2,-1.2682768E-2,-1.6260467E-2,2.994158E-2,6.6507356E-3,5.5498805E-2,2.1903643E-2,-2.5246149E-2,6.6161915E-3,5.114333E-2,-3.364193E-2,2.8005396E-3],"categories":[],"categories_nodes":[],"categories_segments":[],"categories_sizes":[],"default_left":[1,1,0,1,0,0,1,0,0,0,1,0,0,1,0,0,0,0,0,0,0,0,0,0,0,0,0,0,0,0,0],"id":1,"left_children":[1,3,5,7,9,11,13,15,17,19,21,23,25,27,29,-1,-1,-1,-1,-1,-1,-1,-1,-1,-1,-1,-1,-1,-1,-1,-1],"loss_changes":[4.8761826E1,2.3261047E1,2.8540375E1,9.637427E0,7.296936E0,9.808548E0,9.148237E0,8.860758E0,7.0067644E0,5.3654327E0,6.1787806E0,9.84687E0,3.3300338E0,7.838596E0,6.949541E0,0E0,0E0,0E0,0E0,0E0,0E0,0E0,0E0,0E0,0E0,0E0,0E0,0E0,0E0,0E0,0E0],"parents":[2147483647,0,0,1,1,2,2,3,3,4,4,5,5,6,6,7,7,8,8,9,9,10,10,11,11,12,12,13,13,14,14],"right_children":[2,4,6,8,10,12,14,16,18,20,22,24,26,28,30,-1,-1,-1,-1,-1,-1,-1,-1,-1,-1,-1,-1,-1,-1,-1,-1],"split_conditions":[5.7E-1,1.2759802E0,2.9281232E-1,5.6345177E-1,2.6736248E-1,1.0305985E2,1.2130964E0,1.7E-1,1.198666E0,1.023E0,9.28E1,2.5097233E-1,3.2692307E-1,9.64E1,2.6666668E-1,-1.7844427E-2,3.0492253E-3,-4.8560067E-3,6.735935E-2,-3.095052E-2,-1.2682768E-2,-1.6260467E-2,2.994158E-2,6.6507356E-3,5.5498805E-2,2.1903643E-2,-2.5246149E-2,6.6161915E-3,5.114333E-2,-3.364193E-2,2.8005396E-3],"split_indices":[2,13,7,8,9,15,13,2,14,11,3,7,6,3,6,0,0,0,0,0,0,0,0,0,0,0,0,0,0,0,0],"split_type":[0,0,0,0,0,0,0,0,0,0,0,0,0,0,0,0,0,0,0,0,0,0,0,0,0,0,0,0,0,0,0],"sum_hessian":[7.043035E2,5.048449E2,1.9945863E2,2.86972E2,2.178729E2,8.89522E1,1.1050643E2,2.7388867E2,1.3083312E1,1.8955482E2,2.8318073E1,7.58217E1,1.3130506E1,5.7754498E1,5.2751934E1,6.604712E1,2.0784157E2,5.195742E0,7.8875704E0,1.2814093E2,6.1413902E1,1.7375963E1,1.0942109E1,1.2644125E1,6.317757E1,7.319513E0,5.8109927E0,4.602648E1,1.1728018E1,2.1163477E1,3.1588455E1],"tree_param":{"num_deleted":"0","num_feature":"17","num_nodes":"31","size_leaf_vector":"1"}},{"base_weights":[-2.0596538E-2,2.6226395E-1,-2.3226297E-1,1.3133158E-1,9.1829926E-1,1.9792572E-1,-3.3647358E-1,1.0540624E0,7.973093E-2,1.0970913E0,-7.2004064E-3,3.8425207E-1,-6.093121E-1,-4.9722323E-1,-5.5224624E-2,7.874305E-2,2.7570635E-2,-1.3009097E-3,2.6645401E-2,6.445219E-2,-4.29776E-3,-8.037742E-3,3.196252E-2,-5.310082E-2,-1.4319725E-2,-2.2511492E-2,-5.8363367E-2,3.0731491E-3,-3.8757086E-2],"categories":[],"categories_nodes":[],"categories_segments":[],"categories_sizes":[],"default_left":[1,1,0,0,0,0,0,1,1,0,0,1,0,0,0,0,0,0,0,0,0,0,0,0,0,0,0,0,0],"id":2,"left_children":[1,3,5,7,9,11,13,15,17,19,-1,21,23,25,27,-1,-1,-1,-1,-1,-1,-1,-1,-1,-1,-1,-1,-1,-1],"loss_changes":[4.2645237E1,2.6069149E1,1.8328438E1,1.2073526E1,9.761147E0,1.227684E1,1.4814732E1,2.650156E0,1.1654273E1,9.964924E0,0E0,9.22851E0,1.9473729E0,6.048126E0,1.0171968E1,0E0,0E0,0E0,0E0,0E0,0E0,0E0,0E0,0E0,0E0,0E0,0E0,0E0,0E0],"parents":[2147483647,0,0,1,1,2,2,3,3,4,4,5,5,6,6,7,7,8,8,9,9,11,11,12,12,13,13,14,14],"right_children":[2,4,6,8,10,12,14,16,18,20,-1,22,24,26,28,-1,-1,-1,-1,-1,-1,-1,-1,-1,-1,-1,-1,-1,-1],"split_conditions":[8.5E0,4.171478E0,2.9281232E-1,7E0,7.6286306E0,9.5E0,1.023E0,-1.1368033E-2,9.56E1,3.1828478E-1,-7.2004064E-3,1.1442714E0,5.692215E-2,1.05E1,1.1E1,7.874305E-2,2.7570635E-2,-1.3009097E-3,2.6645401E-2,6.445219E-2,-4.29776E-3,-8.037742E-3,3.196252E-2,-5.310082E-2,-1.4319725E-2,-2.2511492E-2,-5.8363367E-2,3.0731491E-3,-3.8757086E-2],"split_indices":[16,5,7,16,5,16,11,10,3,7,0,14,1,16,16,0,0,0,0,0,0,0,0,0,0,0,0,0,0],"split_type":[0,0,0,0,0,0,0,0,0,0,0,0,0,0,0,0,0,0,0,0,0,0,0,0,0,0,0,0,0],"sum_hessian":[7.1025525E2,3.0389972E2,4.0635553E2,2.5433867E2,4.956105E1,7.9066055E1,3.2728946E2,1.2440918E1,2.4189775E2,4.239329E1,7.16776E0,6.466426E1,1.4401792E1,2.0776953E2,1.1951993E2,5.062506E0,7.3784113E0,1.9689482E2,4.500293E1,3.6398018E1,5.995274E0,2.0729265E1,4.3934994E1,5.043042E0,9.358749E0,1.9571504E2,1.20545E1,1.03636635E2,1.5883296E1],"tree_param":{"num_deleted":"0","num_feature":"17","num_nodes":"29","size_leaf_vector":"1"}},{"base_weights":[-1.2184428E-2,-2.3896758E-1,2.4812594E-1,-2.7779236E-1,7.1221924E-1,4.303944E-1,1.6650163E-2,-1.17449604E-1,-4.6424368E-1,6.366609E-2,-1.39557645E-2,1.0201893E0,3.3425653E-1,5.199393E-1,-1.7571415E-1,4.544696E-2,-7.706146E-3,-4.850209E-2,-1.9991523E-2,7.2791025E-2,5.8480473E-3,1.867852E-2,-2.7551293E-2,6.5780155E-2,1.1964801E-2,1.1407717E-2,-2.5668506E-2],"categories":[],"categories_nodes":[],"categories_segments":[],"categories_sizes":[],"default_left":[1,1,1,1,1,0,0,0,0,0,0,1,0,0,0,0,0,0,0,0,0,0,0,0,0,0,0],"id":3,"left_children":[1,3,5,7,9,11,13,15,17,-1,-1,19,21,23,25,-1,-1,-1,-1,-1,-1,-1,-1,-1,-1,-1,-1],"loss_changes":[4.2193485E1,1.4302614E1,1.4033531E1,1.0937611E1,8.842964E0,1.0213711E1,1.4385692E1,7.631335E0,5.139679E0,0E0,0E0,9.9035E0,5.8281593E0,8.858282E0,1.4785737E1,0E0,0E0,0E0,0E0,0E0,0E0,0E0,0E0,0E0,0E0,0E0,0E0],"parents":[2147483647,0,0,1,1,2,2,3,3,4,4,5,5,6,6,7,7,8,8,11,11,12,12,13,13,14,14],"right_children":[2,4,6,8,10,12,14,16,18,-1,-1,20,22,24,26,-1,-1,-1,-1,-1,-1,-1,-1,-1,-1,-1,-1],"split_conditions":[3.9E-1,2.800976E-1,1.2116368E0,1.2781376E0,1.7E-1,4.7817953E-2,2.869705E-1,-1.0586792E2,6E-2,6.366609E-2,-1.39557645E-2,5.764661E-3,3.728848E-1,2.3076923E-1,7.62E1,4.544696E-2,-7.706146E-3,-4.850209E-2,-1.9991523E-2,7.2791025E-2,5.8480473E-3,1.867852E-2,-2.7551293E-2,6.5780155E-2,1.1964801E-2,1.1407717E-2,-2.5668506E-2],"split_indices":[2,0,13,13,2,1,7,15,2,0,0,10,7,4,12,0,0,0,0,0,0,0,0,0,0,0,0],"split_type":[0,0,0,0,0,0,0,0,0,0,0,0,0,0,0,0,0,0,0,0,0,0,0,0,0,0,0],"sum_hessian":[7.1272736E2,3.8093643E2,3.3179092E2,3.6667764E2,1.4258803E1,1.8514491E2,1.4664603E2,1.9801788E2,1.6865974E2,8.923554E0,5.335249E0,2.4602106E1,1.6054282E2,4.008014E1,1.0656588E2,6.0106606E0,1.9200722E2,1.7464212E1,1.5119554E2,1.6184467E1,8.41764E0,1.5426997E2,6.27284E0,9.48917E0,3.0590967E1,4.867285E1,5.7893032E1],"tree_param":{"num_deleted":"0","num_feature":"17","num_nodes":"27","size_leaf_vector":"1"}},{"base_weights":[2.2430278E-3,-2.5634995E-1,2.1459505E-1,-2.063837E-2,-4.8292854E-1,4.5009968E-1,-6.401528E-2,-1.1193243E-1,8.344464E-1,-5.688142E-1,-1.7058743E-3,4.8439497E-1,-2.8580314E-2,-1.0754849E-1,5.809889E-2,-2.8995593E-4,-2.5185585E-2,6.995689E-3,7.00272E-2,-3.5991866E-2,-1.4880121E-2,3.0503858E-2,-2.086008E-2,1.7676597E-2,4.8316486E-2,-8.129441E-3,3.876097E-2],"categories":[],"categories_nodes":[],"categories_segments":[],"categories_sizes":[],"default_left":[1,0,1,0,1,0,0,1,1,1,1,0,0,0,0,0,0,0,0,0,0,0,0,0,0,0,0],"id":4,"left_children":[1,3,5,7,9,11,13,15,17,19,21,23,-1,25,-1,-1,-1,-1,-1,-1,-1,-1,-1,-1,-1,-1,-1],"loss_changes":[3.895311E1,1.7072884E1,2.558557E1,1.241312E1,6.737709E0,7.677414E0,9.694328E0,5.9628105E0,5.8361893E0,5.4524803E0,6.786114E0,1.2580017E1,0E0,8.583458E0,0E0,0E0,0E0,0E0,0E0,0E0,0E0,0E0,0E0,0E0,0E0,0E0,0E0],"parents":[2147483647,0,0,1,1,2,2,3,3,4,4,5,5,6,6,7,7,8,8,9,9,10,10,11,11,13,13],"right_children":[2,4,6,8,10,12,14,16,18,20,22,24,-1,26,-1,-1,-1,-1,-1,-1,-1,-1,-1,-1,-1,-1,-1],"split_conditions":[2.0501094E-1,7.61E1,1.2130964E0,3.75E-1,1.5872316E-2,7.6286306E0,3.6106798E-1,1.0247567E-1,-6.6160294E-3,1.7975616E-1,1.2292086E0,4.171478E0,-2.8580314E-2,1.2680538E-1,5.809889E-2,-2.8995593E-4,-2.5185585E-2,6.995689E-3,7.00272E-2,-3.5991866E-2,-1.4880121E-2,3.0503858E-2,-2.086008E-2,1.7676597E-2,4.8316486E-2,-8.129441E-3,3.876097E-2],"split_indices":[0,12,13,6,10,5,0,1,10,0,13,5,0,1,0,0,0,0,0,0,0,0,0,0,0,0,0],"split_type":[0,0,0,0,0,0,0,0,0,0,0,0,0,0,0,0,0,0,0,0,0,0,0,0,0,0,0],"sum_hessian":[7.07362E2,3.188605E2,3.885015E2,1.5681532E2,1.6204518E2,2.1020404E2,1.7829745E2,1.4247313E2,1.4342201E1,1.3734981E2,2.4695374E1,2.0388615E2,6.31789E0,1.7306447E2,5.2329884E0,1.12902534E2,2.9570585E1,7.0005445E0,7.341656E0,8.716064E1,5.0189163E1,9.798938E0,1.4896436E1,1.6170961E2,4.2176544E1,1.6367519E2,9.389283E0],"tree_param":{"num_deleted":"0","num_feature":"17","num_nodes":"27","size_leaf_vector":"1"}},{"base_weights":[-6.8416176E-3,-2.914274E-1,2.3831478E-1,-1.2152339E-1,-4.590568E-1,4.3638194E-1,4.5422623E-3,-2.1199012E-1,7.19159E-1,-6.2227196E-1,-2.5120008E-1,7.2302294E-1,1.9675745E-1,2.6497826E-1,-2.3287931E-1,-7.7242553E-3,-3.7425816E-2,7.04019E-2,1.1935789E-2,-3.5336558E-2,1.226134E-2,-2.106691E-2,2.0185124E-2,4.204294E-2,-1.298323E-2,1.0177899E-3,3.4614332E-2,-5.787205E-3,2.947034E-2,-2.1763027E-2,9.003796E-3],"categories":[],"categories_nodes":[],"categories_segments":[],"categories_sizes":[],"default_left":[1,0,1,0,1,0,0,1,0,0,0,0,0,0,1,0,0,0,0,0,0,0,0,0,0,0,0,0,0,0,0],"id":5,"left_children":[1,3,5,7,9,11,13,15,17,19,21,23,25,27,29,-1,-1,-1,-1,-1,-1,-1,-1,-1,-1,-1,-1,-1,-1,-1,-1],"loss_changes":[4.9348354E1,9.266754E0,1.7592981E1,1.2619202E1,5.421219E0,1.3986393E1,1.0901084E1,4.474254E0,5.0101557E0,6.871147E0,8.414409E0,1.1020565E1,9.8994665E0,1.0451843E1,7.7868023E0,0E0,0E0,0E0,0E0,0E0,0E0,0E0,0E0,0E0,0E0,0E0,0E0,0E0,0E0,0E0,0E0],"parents":[2147483647,0,0,1,1,2,2,3,3,4,4,5,5,6,6,7,7,8,8,9,9,10,10,11,11,12,12,13,13,14,14],"right_children":[2,4,6,8,10,12,14,16,18,20,22,24,26,28,30,-1,-1,-1,-1,-1,-1,-1,-1,-1,-1,-1,-1,-1,-1,-1,-1],"split_conditions":[2.0604812E-1,7.61E1,1.2130964E0,3.75E-1,1.7E-1,1.2268951E0,7.62E1,2.4E-1,1.6416667E-1,1.751179E0,2.5523484E-1,3.1560278E-1,2.6459238E-1,5.2E-1,7.1E-1,-7.7242553E-3,-3.7425816E-2,7.04019E-2,1.1935789E-2,-3.5336558E-2,1.226134E-2,-2.106691E-2,2.0185124E-2,4.204294E-2,-1.298323E-2,1.0177899E-3,3.4614332E-2,-5.787205E-3,2.947034E-2,-2.1763027E-2,9.003796E-3],"split_indices":[0,12,13,6,2,14,12,4,4,13,9,0,9,2,2,0,0,0,0,0,0,0,0,0,0,0,0,0,0,0,0],"split_type":[0,0,0,0,0,0,0,0,0,0,0,0,0,0,0,0,0,0,0,0,0,0,0,0,0,0,0,0,0,0,0],"sum_hessian":[7.05325E2,3.2632602E2,3.78999E2,1.629201E2,1.6340591E2,2.046985E2,1.7430049E2,1.4776662E2,1.5153489E1,9.041536E1,7.2990555E1,9.2286835E1,1.1241167E2,8.306621E1,9.1234276E1,1.3462537E2,1.3141247E1,5.432888E0,9.720602E0,8.2562454E1,7.852907E0,5.82217E1,1.4768859E1,8.253432E1,9.752515E0,8.366805E1,2.8743612E1,3.8513363E1,4.455284E1,6.119151E1,3.0042768E1],"tree_param":{"num_deleted":"0","num_feature":"17","num_nodes":"31","size_leaf_vector":"1"}},{"base_weights":[3.0824093E-3,-1.606593E-1,3.1617546E-1,-1.3302764E-3,-3.3639947E-1,6.0875887E-1,8.791654E-2,-5.8719766E-1,6.699789E-2,-1.24626964E-1,-5.027461E-1,1.181558E0,4.96571E-1,-4.3574116E-1,2.1167013E-1,-4.6171192E-2,-3.5076533E-3,-5.461726E-3,1.423078E-2,-2.2103697E-2,1.5283887E-2,-3.1356055E-2,-4.1873115E-3,2.7004544E-2,9.283729E-2,9.67418E-3,3.6553796E-2,9.480874E-3,-3.9377656E-2,2.3054253E-2,-5.999993E-3],"categories":[],"categories_nodes":[],"categories_segments":[],"categories_sizes":[],"default_left":[1,0,0,0,0,0,0,1,0,0,0,0,0,0,1,0,0,0,0,0,0,0,0,0,0,0,0,0,0,0,0],"id":6,"left_children":[1,3,5,7,9,11,13,15,17,19,21,23,25,27,29,-1,-1,-1,-1,-1,-1,-1,-1,-1,-1,-1,-1,-1,-1,-1,-1],"loss_changes":[3.607862E1,1.2938543E1,1.608561E1,9.781728E0,7.67787E0,6.2081146E0,8.965317E0,4.3719616E0,8.4242E0,1.3521186E1,6.343508E0,6.183773E0,6.2656593E0,5.9794617E0,9.272476E0,0E0,0E0,0E0,0E0,0E0,0E0,0E0,0E0,0E0,0E0,0E0,0E0,0E0,0E0,0E0,0E0],"parents":[2147483647,0,0,1,1,2,2,3,3,4,4,5,5,6,6,7,7,8,8,9,9,10,10,11,11,12,12,13,13,14,14],"right_children":[2,4,6,8,10,12,14,16,18,20,22,24,26,28,30,-1,-1,-1,-1,-1,-1,-1,-1,-1,-1,-1,-1,-1,-1,-1,-1],"split_conditions":[5.2E-1,7.62E1,2.946622E-1,1.9101448E-1,3.2838142E-1,-6.9767204E1,2.0176926E-1,3.2838142E-1,3.9E-1,2.3911826E-1,2.7272728E-1,3.5555556E-1,4.1814977E-1,7.19E1,1.2546333E0,-4.6171192E-2,-3.5076533E-3,-5.461726E-3,1.423078E-2,-2.2103697E-2,1.5283887E-2,-3.1356055E-2,-4.1873115E-3,2.7004544E-2,9.283729E-2,9.67418E-3,3.6553796E-2,9.480874E-3,-3.9377656E-2,2.3054253E-2,-5.999993E-3],"split_indices":[2,12,7,9,7,15,9,7,2,9,6,6,8,12,14,0,0,0,0,0,0,0,0,0,0,0,0,0,0,0,0],"split_type":[0,0,0,0,0,0,0,0,0,0,0,0,0,0,0,0,0,0,0,0,0,0,0,0,0,0,0,0,0,0,0],"sum_hessian":[7.017572E2,4.610984E2,2.4065881E2,2.4236957E2,2.187288E2,1.04738075E2,1.3592075E2,2.4521416E1,2.1784816E2,9.69953E1,1.2173351E2,1.559295E1,8.914513E1,2.5499542E1,1.10421196E2,1.4382639E1,1.0138776E1,1.2064488E2,9.720328E1,5.5801632E1,4.1193665E1,9.348649E1,2.8247025E1,8.919154E0,6.673796E0,3.9682404E1,4.946272E1,9.346616E0,1.6152927E1,6.2803185E1,4.7618015E1],"tree_param":{"num_deleted":"0","num_feature":"17","num_nodes":"31","size_leaf_vector":"1"}},{"base_weights":[-7.792755E-4,-1.8598081E-1,2.929126E-1,9.228606E-2,-3.527747E-1,6.779287E-1,1.6012235E-1,3.4083802E-2,5.579716E-2,-4.1117734E-1,1.7591375E-1,8.6558735E-1,2.4378529E-1,-6.7046136E-1,2.396691E-1,-6.755491E-4,5.988608E-2,-2.701976E-2,-9.88214E-3,-6.7710862E-3,4.7046598E-2,2.1344248E-2,6.5748066E-2,4.8768293E-2,-1.0777696E-2,-4.107349E-2,-1.1514846E-2,5.31233E-3,3.0102719E-2],"categories":[],"categories_nodes":[],"categories_segments":[],"categories_sizes":[],"default_left":[1,0,1,1,0,0,1,0,0,0,1,0,0,0,0,0,0,0,0,0,0,0,0,0,0,0,0,0,0],"id":7,"left_children":[1,3,5,7,9,11,13,15,-1,17,19,21,23,25,27,-1,-1,-1,-1,-1,-1,-1,-1,-1,-1,-1,-1,-1,-1],"loss_changes":[3.8845287E1,2.0360527E1,1.4012083E1,9.788486E0,8.533993E0,5.5342445E0,1.3815521E1,8.716345E0,0E0,6.71085E0,6.7873116E0,9.067959E0,7.829914E0,1.0289688E0,9.09092E0,0E0,0E0,0E0,0E0,0E0,0E0,0E0,0E0,0E0,0E0,0E0,0E0,0E0,0E0],"parents":[2147483647,0,0,1,1,2,2,3,3,4,4,5,5,6,6,7,7,9,9,10,10,11,11,12,12,13,13,14,14],"right_children":[2,4,6,8,10,12,14,16,-1,18,20,22,24,26,28,-1,-1,-1,-1,-1,-1,-1,-1,-1,-1,-1,-1,-1,-1],"split_conditions":[4.7E-1,8.5E0,8E0,2.7929923E-1,2.7989537E-1,1.023E0,7.692308E-2,3.1943402E-1,5.579716E-2,1.023E0,2.0433912E-1,2.8846154E-1,6.7E-1,3.2996118E-1,1.034E0,-6.755491E-4,5.988608E-2,-2.701976E-2,-9.88214E-3,-6.7710862E-3,4.7046598E-2,2.1344248E-2,6.5748066E-2,4.8768293E-2,-1.0777696E-2,-4.107349E-2,-1.1514846E-2,5.31233E-3,3.0102719E-2],"split_indices":[2,16,16,0,9,11,4,9,0,11,0,6,2,7,11,0,0,0,0,0,0,0,0,0,0,0,0,0,0],"split_type":[0,0,0,0,0,0,0,0,0,0,0,0,0,0,0,0,0,0,0,0,0,0,0,0,0,0,0,0,0],"sum_hessian":[7.121688E2,4.3697803E2,2.7519077E2,1.6393217E2,2.7304587E2,6.9519264E1,2.0567151E2,1.5609059E2,7.841575E0,2.4608397E2,2.6961893E1,4.784462E1,2.1674643E1,1.732673E1,1.8834477E2,1.5090665E2,5.183952E0,1.5235654E2,9.372745E1,1.9748096E1,7.213797E0,2.5196465E1,2.2648155E1,7.9266353E0,1.3748008E1,1.2255815E1,5.070917E0,1.3860614E2,4.9738632E1],"tree_param":{"num_deleted":"0","num_feature":"17","num_nodes":"29","size_leaf_vector":"1"}},{"base_weights":[-3.712174E-2,-2.1972923E-1,2.1036337E-1,-2.8935188E-1,2.0827912E-1,2.83966E-1,-5.3571427E-1,7.8509666E-2,-3.7237418E-1,1.297974E0,-1.5232112E-1,1.4753497E-1,6.101932E-1,-7.210136E-1,1.0400427E-2,-5.79743E-3,3.9480433E-2,-2.4990533E-2,-7.5331093E-3,2.490798E-2,1.0562573E-1,-1.4935764E-2,2.9058421E-2,1.3201222E-2,-1.6221067E-2,3.7704572E-2,-2.4089685E-2,-3.909564E-3,-4.558198E-2],"categories":[],"categories_nodes":[],"categories_segments":[],"categories_sizes":[],"default_left":[1,0,1,0,0,0,0,1,0,0,0,1,0,0,0,0,0,0,0,0,0,0,0,0,0,0,0,0,0],"id":8,"left_children":[1,3,5,7,9,11,13,15,17,19,21,23,25,27,-1,-1,-1,-1,-1,-1,-1,-1,-1,-1,-1,-1,-1,-1,-1],"loss_changes":[3.2066437E1,1.2224007E1,1.669944E1,1.0764324E1,2.2866993E1,1.21464615E1,3.9266472E0,9.155551E0,8.0323105E0,8.361034E0,4.924204E0,1.0816063E1,1.3052612E1,2.6444826E0,0E0,0E0,0E0,0E0,0E0,0E0,0E0,0E0,0E0,0E0,0E0,0E0,0E0,0E0,0E0],"parents":[2147483647,0,0,1,1,2,2,3,3,4,4,5,5,6,6,7,7,8,8,9,9,10,10,11,11,12,12,13,13],"right_children":[2,4,6,8,10,12,14,16,18,20,22,24,26,28,-1,-1,-1,-1,-1,-1,-1,-1,-1,-1,-1,-1,-1,-1,-1],"split_conditions":[4.4E-1,2.7253285E-1,9.5E0,8E0,3.636142E-1,3.409091E-1,1.4334004E0,4.559031E-1,1.023E0,1.31422E-3,3.2456383E-1,1.3156403E0,1.0466996E2,2.0408164E-1,1.0400427E-2,-5.79743E-3,3.9480433E-2,-2.4990533E-2,-7.5331093E-3,2.490798E-2,1.0562573E-1,-1.4935764E-2,2.9058421E-2,1.3201222E-2,-1.6221067E-2,3.7704572E-2,-2.4089685E-2,-3.909564E-3,-4.558198E-2],"split_indices":[2,9,16,16,8,6,14,8,11,10,9,13,15,6,0,0,0,0,0,0,0,0,0,0,0,0,0,0,0],"split_type":[0,0,0,0,0,0,0,0,0,0,0,0,0,0,0,0,0,0,0,0,0,0,0,0,0,0,0,0,0],"sum_hessian":[7.075272E2,4.0719186E2,3.0033536E2,3.50501E2,5.6690845E1,2.7393073E2,2.6404644E1,6.454858E1,2.8595245E2,1.3449235E1,4.324161E1,1.9417662E2,7.9754105E1,2.1162516E1,5.242128E0,5.1344715E1,1.3203863E1,1.8078554E2,1.051669E2,7.599101E0,5.8501334E0,3.6541245E1,6.7003675E0,1.5609053E2,3.808609E1,7.074147E1,9.012633E0,5.16282E0,1.5999696E1],"tree_param":{"num_deleted":"0","num_feature":"17","num_nodes":"29","size_leaf_vector":"1"}},{"base_weights":[7.7086044E-3,-2.4025454E-1,2.0970768E-1,1.3195183E-2,-3.886706E-1,3.2958946E-1,-1.4828591E-1,-6.373732E-2,5.1835474E-2,-3.36045E-1,-9.3721056E-1,8.217285E-1,2.3287164E-1,-3.9608383E-1,2.4648994E-1,5.1498995E-3,-2.2681972E-2,2.7686308E-4,-2.2003012E-2,-5.687765E-2,-1.974192E-2,2.3531156E-2,6.3184366E-2,2.327404E-2,3.554587E-3,-3.2357316E-2,3.341008E-3,1.726559E-3,6.8143725E-2],"categories":[],"categories_nodes":[],"categories_segments":[],"categories_sizes":[],"default_left":[1,0,1,0,1,0,0,0,0,0,0,1,1,0,0,0,0,0,0,0,0,0,0,0,0,0,0,0,0],"id":9,"left_children":[1,3,5,7,9,11,13,15,-1,17,19,21,23,25,27,-1,-1,-1,-1,-1,-1,-1,-1,-1,-1,-1,-1,-1,-1],"loss_changes":[3.553971E1,1.1987511E1,1.6828959E1,9.405711E0,5.4854507E0,1.3765274E1,9.760267E0,7.279867E0,0E0,6.571991E0,1.4013968E0,6.8170357E0,9.24122E0,7.140397E0,9.112168E0,0E0,0E0,0E0,0E0,0E0,0E0,0E0,0E0,0E0,0E0,0E0,0E0,0E0,0E0],"parents":[2147483647,0,0,1,1,2,2,3,3,4,4,5,5,6,6,7,7,9,9,10,10,11,11,12,12,13,13,14,14],"right_children":[2,4,6,8,10,12,14,16,-1,18,20,22,24,26,28,-1,-1,-1,-1,-1,-1,-1,-1,-1,-1,-1,-1,-1,-1],"split_conditions":[2.0604812E-1,8.5E0,9E0,1.4345815E2,9.56E1,4.7817953E-2,1.034E0,4.425669E1,5.1835474E-2,3.2389832E-1,3.7518913E1,2.631579E-1,1.12796E0,7.1E-1,1.0411654E-1,5.1498995E-3,-2.2681972E-2,2.7686308E-4,-2.2003012E-2,-5.687765E-2,-1.974192E-2,2.3531156E-2,6.3184366E-2,2.327404E-2,3.554587E-3,-3.2357316E-2,3.341008E-3,1.726559E-3,6.8143725E-2],"split_indices":[0,16,16,15,3,1,11,15,0,7,15,4,13,2,1,0,0,0,0,0,0,0,0,0,0,0,0,0,0],"split_type":[0,0,0,0,0,0,0,0,0,0,0,0,0,0,0,0,0,0,0,0,0,0,0,0,0,0,0,0,0],"sum_hessian":[7.075349E2,3.1754477E2,3.8999017E2,1.1761131E2,1.9993346E2,2.922151E2,9.7775085E1,1.10261246E2,7.3500648E0,1.8390286E2,1.6030582E1,4.6764145E1,2.4545093E2,6.006771E1,3.770738E1,7.774899E1,3.2512257E1,4.3149208E1,1.4075366E2,1.0905078E1,5.1255045E0,2.721142E1,1.9552725E1,9.991486E1,1.4553607E2,3.868717E1,2.138054E1,3.2556984E1,5.150395E0],"tree_param":{"num_deleted":"0","num_feature":"17","num_nodes":"29","size_leaf_vector":"1"}},{"base_weights":[-2.6942436E-2,2.2822191E-1,-2.2092555E-1,-1.1452889E-1,3.9010507E-1,-3.122575E-1,2.8185865E-1,-2.6126219E-2,-7.890164E-1,1.2170963E0,3.3213255E-1,-4.8025852E-1,-7.502525E-2,-4.9641855E-2,4.5896804E-1,-6.6193067E-3,2.6978767E-2,-1.8991252E-2,-5.268799E-2,3.3372007E-2,7.7426665E-2,-7.087274E-3,2.2176554E-2,-1.6554419E-2,-3.211943E-2,4.021668E-3,-2.5517682E-2,3.1608712E-2,-2.1787098E-2],"categories":[],"categories_nodes":[],"categories_segments":[],"categories_sizes":[],"default_left":[1,0,1,0,0,0,1,0,0,0,1,1,1,0,0,0,0,0,0,0,0,0,0,0,0,0,0,0,0],"id":10,"left_children":[1,3,5,7,9,11,13,15,17,19,21,23,25,-1,27,-1,-1,-1,-1,-1,-1,-1,-1,-1,-1,-1,-1,-1,-1],"loss_changes":[3.465963E1,1.6827682E1,1.8352108E1,5.8111563E0,9.456156E0,1.3397854E1,1.4377968E1,5.331525E0,8.238125E-1,1.3525562E0,1.0281412E1,4.5551605E0,9.5782795E0,0E0,8.772299E0,0E0,0E0,0E0,0E0,0E0,0E0,0E0,0E0,0E0,0E0,0E0,0E0,0E0,0E0],"parents":[2147483647,0,0,1,1,2,2,3,3,4,4,5,5,6,6,7,7,8,8,9,9,10,10,11,11,12,12,14,14],"right_children":[2,4,6,8,10,12,14,16,18,20,22,24,26,-1,28,-1,-1,-1,-1,-1,-1,-1,-1,-1,-1,-1,-1,-1,-1],"split_conditions":[8.5E0,3.9E-1,7.3E-1,3.671986E-1,7E0,1.018E0,1.3142857E-1,8.46E1,1.4545454E-1,4.0531132E-1,9.15E1,2.5E-1,3.4871277E-1,-4.9641855E-2,8.5040634E1,-6.6193067E-3,2.6978767E-2,-1.8991252E-2,-5.268799E-2,3.3372007E-2,7.7426665E-2,-7.087274E-3,2.2176554E-2,-1.6554419E-2,-3.211943E-2,4.021668E-3,-2.5517682E-2,3.1608712E-2,-2.1787098E-2],"split_indices":[16,2,2,7,16,11,4,12,4,8,3,2,7,0,15,0,0,0,0,0,0,0,0,0,0,0,0,0,0],"split_type":[0,0,0,0,0,0,0,0,0,0,0,0,0,0,0,0,0,0,0,0,0,0,0,0,0,0,0,0,0],"sum_hessian":[6.9821014E2,3.0147504E2,3.967351E2,9.6805E1,2.0467004E2,3.3606674E2,6.0668365E1,8.650574E1,1.0299262E1,1.2097799E1,1.9257224E2,1.9614095E2,1.3992581E2,6.8392177E0,5.3829147E1,7.347109E1,1.3034641E1,5.002309E0,5.2969537E0,5.684454E0,6.4133453E0,3.6601353E1,1.5597089E2,1.0373766E2,9.240328E1,1.037067E2,3.6219105E1,4.5344395E1,8.484753E0],"tree_param":{"num_deleted":"0","num_feature":"17","num_nodes":"29","size_leaf_vector":"1"}},{"base_weights":[-7.2027664E-3,1.1538465E-1,-3.0019128E-1,-8.489629E-2,3.0045462E-1,-3.655799E-1,5.2963364E-1,3.7664242E-2,-3.3590505E-1,7.175153E-2,2.5428373E-1,-2.9792908E-1,-9.9855E-1,-2.2755159E-2,6.734834E-2,-1.4031228E-3,4.0441945E-2,-2.9048068E-2,-6.995945E-3,2.097143E-2,-2.3695384E-3,-1.8120026E-2,1.0412331E-2,-2.6195858E-2,-5.71958E-2],"categories":[],"categories_nodes":[],"categories_segments":[],"categories_sizes":[],"default_left":[1,1,1,1,1,0,0,0,0,0,1,0,0,0,0,0,0,0,0,0,0,0,0,0,0],"id":11,"left_children":[1,3,5,7,9,11,13,15,17,-1,19,21,23,-1,-1,-1,-1,-1,-1,-1,-1,-1,-1,-1,-1],"loss_changes":[2.5162628E1,1.8334843E1,1.140682E1,7.3348427E0,1.3095388E1,7.9305363E0,1.3090553E1,8.17441E0,3.6739082E0,0E0,1.2381222E1,5.7870903E0,6.5146255E-1,0E0,0E0,0E0,0E0,0E0,0E0,0E0,0E0,0E0,0E0,0E0,0E0],"parents":[2147483647,0,0,1,1,2,2,3,3,4,4,5,5,6,6,7,7,8,8,10,10,11,11,12,12],"right_children":[2,4,6,8,10,12,14,16,18,-1,20,22,24,-1,-1,-1,-1,-1,-1,-1,-1,-1,-1,-1,-1],"split_conditions":[9E0,3.9E-1,9.64E1,1.2994674E0,6.5E0,1.15E1,2.7063605E-1,1.2862127E0,9.96E-1,7.175153E-2,1.2130964E0,3.888889E-1,1.5112074E-1,-2.2755159E-2,6.734834E-2,-1.4031228E-3,4.0441945E-2,-2.9048068E-2,-6.995945E-3,2.097143E-2,-2.3695384E-3,-1.8120026E-2,1.0412331E-2,-2.6195858E-2,-5.71958E-2],"split_indices":[16,2,3,13,16,16,0,13,11,0,13,6,0,0,0,0,0,0,0,0,0,0,0,0,0],"split_type":[0,0,0,0,0,0,0,0,0,0,0,0,0,0,0,0,0,0,0,0,0,0,0,0,0],"sum_hessian":[6.9861847E2,4.9296597E2,2.0565251E2,2.3701349E2,2.5595248E2,1.9114973E2,1.4502788E1,1.5982526E2,7.718824E1,8.832283E0,2.471202E2,1.740213E2,1.712843E1,6.7787814E0,7.7240057E0,1.4816118E2,1.1664067E1,3.3427284E1,4.376096E1,1.594452E2,8.7674995E1,1.5461241E2,1.9408892E1,5.0954533E0,1.2032977E1],"tree_param":{"num_deleted":"0","num_feature":"17","num_nodes":"25","size_leaf_vector":"1"}},{"base_weights":[1.8953303E-3,-2.1274E-1,1.7284094E-1,-2.6845217E-2,-3.1793472E-1,6.3043535E-2,4.5611852E-1,1.3373113E-1,-3.701755E-1,-5.4217863E-1,-2.053922E-1,4.1221285E-1,-4.7942836E-2,-4.5445165E-1,5.5827457E-1,-2.8195126E-2,1.1983938E-2,-7.983639E-3,-5.5130627E-2,-1.7597595E-2,-3.961426E-2,-2.5965894E-2,-5.6921807E-3,6.0299706E-2,1.27947545E-2,2.2390136E-2,-6.4807194E-3,-2.8440414E-3,-3.782476E-2,5.973425E-2,1.9611536E-2],"categories":[],"categories_nodes":[],"categories_segments":[],"categories_sizes":[],"default_left":[1,1,0,1,0,0,0,0,0,0,0,0,0,1,0,0,0,0,0,0,0,0,0,0,0,0,0,0,0,0,0],"id":12,"left_children":[1,3,5,7,9,11,13,15,17,19,21,23,25,27,29,-1,-1,-1,-1,-1,-1,-1,-1,-1,-1,-1,-1,-1,-1,-1,-1],"loss_changes":[2.5815954E1,6.0915813E0,1.2153065E1,6.3246746E0,4.913847E0,1.1003046E1,1.0415377E1,5.9215364E0,5.457171E0,2.8578777E0,3.797461E0,8.186362E0,8.801689E0,1.346422E0,9.958143E0,0E0,0E0,0E0,0E0,0E0,0E0,0E0,0E0,0E0,0E0,0E0,0E0,0E0,0E0,0E0,0E0],"parents":[2147483647,0,0,1,1,2,2,3,3,4,4,5,5,6,6,7,7,8,8,9,9,10,10,11,11,12,12,13,13,14,14],"right_children":[2,4,6,8,10,12,14,16,18,20,22,24,26,28,30,-1,-1,-1,-1,-1,-1,-1,-1,-1,-1,-1,-1,-1,-1,-1,-1],"split_conditions":[2.0604812E-1,1.13489E0,3.409091E-1,3.4964284E-1,2.1406299E-1,2.0689656E-1,2.6E-1,8E-2,1.8320848E-1,1.014E0,-8.964281E1,2.1255465E-1,4.7817953E-2,-3.8355219E-3,-6.9767204E1,-2.8195126E-2,1.1983938E-2,-7.983639E-3,-5.5130627E-2,-1.7597595E-2,-3.961426E-2,-2.5965894E-2,-5.6921807E-3,6.0299706E-2,1.27947545E-2,2.2390136E-2,-6.4807194E-3,-2.8440414E-3,-3.782476E-2,5.973425E-2,1.9611536E-2],"split_indices":[0,13,6,7,9,4,2,2,0,11,15,0,1,10,15,0,0,0,0,0,0,0,0,0,0,0,0,0,0,0,0],"split_type":[0,0,0,0,0,0,0,0,0,0,0,0,0,0,0,0,0,0,0,0,0,0,0,0,0,0,0,0,0,0,0],"sum_hessian":[7.0160297E2,3.1094418E2,3.9065878E2,1.1282348E2,1.9812071E2,2.8241736E2,1.0824143E2,7.728677E1,3.5536705E1,6.492949E1,1.3319122E2,6.7462494E1,2.1495486E2,1.0570698E1,9.767073E1,9.61993E0,6.766684E1,2.8549555E1,6.987152E0,3.8246822E1,2.6682665E1,2.9017132E1,1.04174095E2,9.994654E0,5.7467842E1,2.9769758E1,1.851851E2,5.076704E0,5.493994E0,1.8928164E1,7.874257E1],"tree_param":{"num_deleted":"0","num_feature":"17","num_nodes":"31","size_leaf_vector":"1"}},{"base_weights":[9.795055E-3,2.2175041E-1,-1.5940516E-1,1.1226296E-1,5.9484535E-1,-2.432394E-1,2.7988023E-1,3.0751857E-1,-8.051478E-2,4.7377187E-1,6.570771E-2,-5.1998395E-1,-9.398083E-2,-4.0841404E-2,4.1461426E-1,-2.3170297E-3,2.7022181E-2,-3.518721E-2,-3.3567226E-4,3.47525E-2,6.682956E-4,-3.0799529E-2,-4.1961786E-3,-8.220121E-3,1.7520644E-2,2.8083513E-2,-2.3334036E-2],"categories":[],"categories_nodes":[],"categories_segments":[],"categories_sizes":[],"default_left":[1,0,1,1,0,0,1,0,0,1,0,0,0,0,0,0,0,0,0,0,0,0,0,0,0,0,0],"id":13,"left_children":[1,3,5,7,9,11,13,15,17,19,-1,21,23,-1,25,-1,-1,-1,-1,-1,-1,-1,-1,-1,-1,-1,-1],"loss_changes":[2.5246286E1,1.2697832E1,1.4485908E1,9.164682E0,5.5313396E0,1.3553104E1,9.678247E0,9.9851265E0,5.6516294E0,6.311818E0,0E0,4.769188E0,6.790393E0,0E0,7.6433287E0,0E0,0E0,0E0,0E0,0E0,0E0,0E0,0E0,0E0,0E0,0E0,0E0],"parents":[2147483647,0,0,1,1,2,2,3,3,4,4,5,5,6,6,7,7,8,8,9,9,11,11,12,12,14,14],"right_children":[2,4,6,8,10,12,14,16,18,20,-1,22,24,-1,26,-1,-1,-1,-1,-1,-1,-1,-1,-1,-1,-1,-1],"split_conditions":[8.5E0,3.409091E-1,7.3E-1,1.1332313E0,3.5602137E-1,9.96E-1,1.25E-1,4.4E-1,1.9323757E-1,7.2E-1,6.570771E-2,1.7099942E0,2.6736248E-1,-4.0841404E-2,1.0305985E2,-2.3170297E-3,2.7022181E-2,-3.518721E-2,-3.3567226E-4,3.47525E-2,6.682956E-4,-3.0799529E-2,-4.1961786E-3,-8.220121E-3,1.7520644E-2,2.8083513E-2,-2.3334036E-2],"split_indices":[16,6,2,13,0,11,4,2,9,2,0,13,9,0,15,0,0,0,0,0,0,0,0,0,0,0,0],"split_type":[0,0,0,0,0,0,0,0,0,0,0,0,0,0,0,0,0,0,0,0,0,0,0,0,0,0,0],"sum_hessian":[7.019812E2,3.1148126E2,3.9049994E2,2.4181868E2,6.9662575E1,3.2829385E2,6.2206078E1,1.19841545E2,1.21977135E2,6.104601E1,8.616564E0,1.1415397E2,2.1413988E2,6.2521663E0,5.595391E1,4.7889286E1,7.1952255E1,1.2011137E1,1.09966E2,4.0885956E1,2.0160053E1,9.321776E1,2.0936214E1,1.8539154E2,2.8748333E1,4.8263218E1,7.690693E0],"tree_param":{"num_deleted":"0","num_feature":"17","num_nodes":"27","size_leaf_vector":"1"}},{"base_weights":[-5.74601E-3,-1.8788612E-1,1.360725E-1,8.160641E-2,-3.378181E-1,6.077014E-2,4.9891904E-1,2.0575908E-1,-6.006811E-1,-9.0419906E-1,-2.962341E-1,-1.4627667E-2,5.344788E-1,1.1104405E0,3.0715442E-1,-5.129717E-3,2.845083E-2,-1.0108388E-2,-4.2383578E-2,-2.7829206E-2,-5.344949E-2,-7.999213E-3,-2.4555841E-2,-5.4967557E-3,1.4225188E-2,6.440414E-2,1.5021707E-2,3.2064743E-2,8.337953E-2,4.144307E-2,2.75344E-3],"categories":[],"categories_nodes":[],"categories_segments":[],"categories_sizes":[],"default_left":[1,0,1,1,0,0,0,1,0,0,0,0,0,0,0,0,0,0,0,0,0,0,0,0,0,0,0,0,0,0,0],"id":14,"left_children":[1,3,5,7,9,11,13,15,17,19,21,23,25,27,29,-1,-1,-1,-1,-1,-1,-1,-1,-1,-1,-1,-1,-1,-1,-1,-1],"loss_changes":[1.8296627E1,1.25560465E1,1.0851606E1,9.580865E0,4.42902E0,1.1828496E1,7.6694374E0,1.072218E1,1.5455427E0,1.584673E-1,4.8939476E0,8.198868E0,7.63295E0,3.0930767E0,6.9752154E0,0E0,0E0,0E0,0E0,0E0,0E0,0E0,0E0,0E0,0E0,0E0,0E0,0E0,0E0,0E0,0E0],"parents":[2147483647,0,0,1,1,2,2,3,3,4,4,5,5,6,6,7,7,8,8,9,9,10,10,11,11,12,12,13,13,14,14],"right_children":[2,4,6,8,10,12,14,16,18,20,22,24,26,28,30,-1,-1,-1,-1,-1,-1,-1,-1,-1,-1,-1,-1,-1,-1,-1,-1],"split_conditions":[2.0665008E-1,7.19E1,9.64E1,1.1178976E-1,6.896552E-2,2.7121186E-1,-6.9767204E1,1.2367204E0,1.2286246E0,1.5112074E-1,1.4259696E1,4.694514E-1,2.0833333E-1,2.9466042E-1,6.3786685E-2,-5.129717E-3,2.845083E-2,-1.0108388E-2,-4.2383578E-2,-2.7829206E-2,-5.344949E-2,-7.999213E-3,-2.4555841E-2,-5.4967557E-3,1.4225188E-2,6.440414E-2,1.5021707E-2,3.2064743E-2,8.337953E-2,4.144307E-2,2.75344E-3],"split_indices":[0,12,3,1,6,9,15,14,14,0,15,8,4,0,1,0,0,0,0,0,0,0,0,0,0,0,0,0,0,0,0],"split_type":[0,0,0,0,0,0,0,0,0,0,0,0,0,0,0,0,0,0,0,0,0,0,0,0,0,0,0,0,0,0,0],"sum_hessian":[7.063352E2,3.090683E2,3.972669E2,1.1064577E2,1.9842253E2,3.2995755E2,6.730935E1,9.420259E1,1.6443176E1,1.2152973E1,1.8626956E2,2.8548712E2,4.4470417E1,1.4924792E1,5.238456E1,5.1339935E1,4.2862656E1,6.9875107E0,9.455666E0,5.31624E0,6.8367333E0,1.10697624E2,7.5571945E1,2.1698512E2,6.850201E1,9.471005E0,3.4999413E1,9.270034E0,5.654759E0,1.632042E1,3.606414E1],"tree_param":{"num_deleted":"0","num_feature":"17","num_nodes":"31","size_leaf_vector":"1"}},{"base_weights":[-9.084793E-3,-1.4232317E-1,2.2680254E-1,6.869276E-2,-2.8058523E-1,6.43335E-1,7.8942485E-2,-1.522182E-1,3.0385697E-1,-1.1723499E-1,-4.6026048E-1,-1.2295751E-1,8.234649E-1,1.20516844E-1,-5.355459E-2,1.16202E-2,-1.7589394E-2,-2.0769548E-2,2.1923026E-2,-1.13070775E-2,1.9858819E-2,-9.960304E-3,-3.433901E-2,1.55121E-2,-2.8581465E-2,7.988375E-2,2.823338E-2,-1.07490225E-2,1.2604633E-2],"categories":[],"categories_nodes":[],"categories_segments":[],"categories_sizes":[],"default_left":[1,1,1,0,0,0,0,0,0,0,0,0,1,0,0,0,0,0,0,0,0,0,0,0,0,0,0,0,0],"id":15,"left_children":[1,3,5,7,9,11,13,15,17,19,21,23,25,27,-1,-1,-1,-1,-1,-1,-1,-1,-1,-1,-1,-1,-1,-1,-1],"loss_changes":[2.2058887E1,1.310379E1,1.5552992E1,9.31072E0,7.904091E0,9.243736E0,9.123513E0,7.191125E0,8.577174E0,8.12154E0,7.4783306E0,2.7966537E0,9.869003E0,8.108429E0,0E0,0E0,0E0,0E0,0E0,0E0,0E0,0E0,0E0,0E0,0E0,0E0,0E0,0E0,0E0],"parents":[2147483647,0,0,1,1,2,2,3,3,4,4,5,5,6,6,7,7,8,8,9,9,10,10,11,11,12,12,13,13],"right_children":[2,4,6,8,10,12,14,16,18,20,22,24,26,28,-1,-1,-1,-1,-1,-1,-1,-1,-1,-1,-1,-1,-1,-1,-1],"split_conditions":[5.2E-1,1.1501107E0,8E0,3.9E-1,7.72E1,2.2950819E-1,1.05E1,3.8359863E-1,2.0355952E-1,2.6459238E-1,2.9E-1,9.55E1,1.7391305E-1,2.3132068E-1,-5.355459E-2,1.16202E-2,-1.7589394E-2,-2.0769548E-2,2.1923026E-2,-1.13070775E-2,1.9858819E-2,-9.960304E-3,-3.433901E-2,1.55121E-2,-2.8581465E-2,7.988375E-2,2.823338E-2,-1.07490225E-2,1.2604633E-2],"split_indices":[2,13,16,2,12,6,16,8,9,9,2,3,4,0,0,0,0,0,0,0,0,0,0,0,0,0,0,0,0],"split_type":[0,0,0,0,0,0,0,0,0,0,0,0,0,0,0,0,0,0,0,0,0,0,0,0,0,0,0,0,0],"sum_hessian":[6.998316E2,4.4747623E2,2.5235538E2,1.7733313E2,2.701431E2,6.5234406E1,1.8712097E2,9.161944E1,8.5713684E1,1.4236533E2,1.2777776E2,1.2476288E1,5.2758114E1,1.8145644E2,5.6645427E0,3.1242521E1,6.0376915E1,1.31833E1,7.253039E1,1.1795363E2,2.44117E1,6.0236813E1,6.7540955E1,6.504564E0,5.971724E0,1.1921289E1,4.0836826E1,5.0938217E1,1.3051822E2],"tree_param":{"num_deleted":"0","num_feature":"17","num_nodes":"29","size_leaf_vector":"1"}},{"base_weights":[7.7680824E-3,4.2739034E-2,-8.959978E-1,3.506265E-1,-5.6375545E-2,-5.791883E-3,-5.531291E-2,9.019993E-2,5.5567926E-1,1.2864816E-1,-1.9667606E-1,-2.4504454E-3,4.9986646E-2,3.1209135E-2,-5.8759428E-3,4.6579153E-3,6.828168E-2,-2.4902567E-2,-5.0405804E-3],"categories":[],"categories_nodes":[],"categories_segments":[],"categories_sizes":[],"default_left":[1,0,0,0,0,0,0,0,1,0,0,0,0,0,0,0,0,0,0],"id":16,"left_children":[1,3,5,7,9,-1,-1,11,13,15,17,-1,-1,-1,-1,-1,-1,-1,-1],"loss_changes":[2.2105484E1,2.0561708E1,4.1459846E0,8.711218E0,1.3266526E1,0E0,0E0,9.351181E0,4.297531E0,9.556563E0,8.342636E0,0E0,0E0,0E0,0E0,0E0,0E0,0E0,0E0],"parents":[2147483647,0,0,1,1,2,2,3,3,4,4,7,7,8,8,9,9,10,10],"right_children":[2,4,6,8,10,-1,-1,12,14,16,18,-1,-1,-1,-1,-1,-1,-1,-1],"split_conditions":[1.1E1,2.9217935E-1,1.2994185E-1,4.1524726E-1,8.5E0,-5.791883E-3,-5.531291E-2,9.74E1,2.8209496E-2,3.2456383E-1,2.0891587E-1,-2.4504454E-3,4.9986646E-2,3.1209135E-2,-5.8759428E-3,4.6579153E-3,6.828168E-2,-2.4902567E-2,-5.0405804E-3],"split_indices":[16,7,0,8,16,0,0,3,10,9,9,0,0,0,0,0,0,0,0],"split_type":[0,0,0,0,0,0,0,0,0,0,0,0,0,0,0,0,0,0,0],"sum_hessian":[6.972061E2,6.7215015E2,2.505594E1,1.6306642E2,5.0908374E2,5.648477E0,1.9407463E1,7.2468254E1,9.0598175E1,2.1958513E2,2.894986E2,6.3669426E1,8.798826E0,8.229662E1,8.30155E0,2.1450612E2,5.0789995E0,6.885122E1,2.2064738E2],"tree_param":{"num_deleted":"0","num_feature":"17","num_nodes":"19","size_leaf_vector":"1"}},{"base_weights":[1.6149819E-2,5.2576996E-2,-6.661801E-1,1.6633155E-2,7.147941E-1,-5.0595947E-2,-3.5533094E-1,2.7174577E-1,-5.009718E-2,7.742359E-2,4.8572913E-1,1.4534389E-2,-6.841404E-1,-2.9566586E-2,1.6971087E-2,4.4941984E-2,-3.690663E-3,3.920442E-2,-5.08311E-3,-4.4470206E-2,-2.0379392E-2],"categories":[],"categories_nodes":[],"categories_segments":[],"categories_sizes":[],"default_left":[1,1,0,0,0,0,1,0,0,0,1,0,1,0,0,0,0,0,0,0,0],"id":17,"left_children":[1,3,5,7,9,-1,11,13,15,-1,17,-1,19,-1,-1,-1,-1,-1,-1,-1,-1],"loss_changes":[1.7365246E1,1.5765276E1,3.4460363E0,1.073401E1,5.760048E0,0E0,4.4869275E0,7.836197E0,1.1319072E1,0E0,5.0232735E0,0E0,4.138298E-1,0E0,0E0,0E0,0E0,0E0,0E0,0E0,0E0],"parents":[2147483647,0,0,1,1,2,2,3,3,4,4,6,6,7,7,8,8,10,10,12,12],"right_children":[2,4,6,8,10,-1,12,14,16,-1,18,-1,20,-1,-1,-1,-1,-1,-1,-1,-1],"split_conditions":[1.05E1,8.9E-1,1.04E0,2.8947428E-1,2.741152E-1,-5.0595947E-2,8.695652E-2,5.38E1,7E0,7.742359E-2,3.0949465E-3,1.4534389E-2,9E-2,-2.9566586E-2,1.6971087E-2,4.4941984E-2,-3.690663E-3,3.920442E-2,-5.08311E-3,-4.4470206E-2,-2.0379392E-2],"split_indices":[16,2,11,7,0,0,4,12,16,0,10,0,2,0,0,0,0,0,0,0,0],"split_type":[0,0,0,0,0,0,0,0,0,0,0,0,0,0,0,0,0,0,0,0,0],"sum_hessian":[6.962429E2,6.6183295E2,3.4409973E1,6.2873175E2,3.3101208E1,1.5223006E1,1.9186968E1,1.297231E2,4.9900867E2,5.893169E0,2.7208036E1,6.5108685E0,1.2676099E1,8.869678E0,1.20853424E2,1.1267541E1,4.8774112E2,1.782112E1,9.386917E0,6.003857E0,6.6722417E0],"tree_param":{"num_deleted":"0","num_feature":"17","num_nodes":"21","size_leaf_vector":"1"}},{"base_weights":[5.892728E-3,1.13165155E-1,-2.7227265E-1,-8.4424734E-2,2.4224716E-1,-3.1482866E-1,5.188281E-2,1.4267461E-1,-2.6457512E-1,6.449742E-1,1.713285E-1,-2.3323122E-1,-6.90896E-1,1.483908E-2,-1.9422704E-2,-4.0035803E-2,-8.451234E-3,4.375825E-2,1.2024497E-2,3.7578035E-3,1.9816948E-2,-1.4145982E-2,2.1224601E-2,-4.763217E-2,-1.2689446E-2],"categories":[],"categories_nodes":[],"categories_segments":[],"categories_sizes":[],"default_left":[1,1,0,0,0,0,0,0,0,0,0,1,1,0,0,0,0,0,0,0,0,0,0,0,0],"id":18,"left_children":[1,3,5,7,9,11,-1,13,15,17,19,21,23,-1,-1,-1,-1,-1,-1,-1,-1,-1,-1,-1,-1],"loss_changes":[2.1143213E1,1.3061907E1,1.1320183E1,8.334188E0,8.730116E0,5.7235775E0,0E0,7.5108457E0,5.6756573E0,4.071121E0,5.6950483E0,5.3193464E0,3.611784E0,0E0,0E0,0E0,0E0,0E0,0E0,0E0,0E0,0E0,0E0,0E0,0E0],"parents":[2147483647,0,0,1,1,2,2,3,3,4,4,5,5,7,7,8,8,9,9,10,10,11,11,12,12],"right_children":[2,4,6,8,10,12,-1,14,16,18,20,22,24,-1,-1,-1,-1,-1,-1,-1,-1,-1,-1,-1,-1],"split_conditions":[9E0,2.0665008E-1,5.416667E-1,7.19E1,2.1896558E-1,1.05E1,5.188281E-2,2.3119811E-2,1.4285715E-1,1.258768E0,3.409091E-1,9.64E1,1.5318916E0,1.483908E-2,-1.9422704E-2,-4.0035803E-2,-8.451234E-3,4.375825E-2,1.2024497E-2,3.7578035E-3,1.9816948E-2,-1.4145982E-2,2.1224601E-2,-4.763217E-2,-1.2689446E-2],"split_indices":[16,0,6,12,0,16,0,10,6,13,6,3,13,0,0,0,0,0,0,0,0,0,0,0,0],"split_type":[0,0,0,0,0,0,0,0,0,0,0,0,0,0,0,0,0,0,0,0,0,0,0,0,0],"sum_hessian":[7.065326E2,5.1032333E2,1.9620927E2,2.0178725E2,3.085361E2,1.9077129E2,5.4379797E0,8.935433E1,1.1243291E2,4.4984917E1,2.6355118E2,1.5808984E2,3.2681458E1,6.960087E1,1.9753466E1,1.5890435E1,9.654247E1,2.7927694E1,1.7057222E1,1.855701E2,7.7981094E1,1.4751547E2,1.0574367E1,1.9703325E1,1.2978129E1],"tree_param":{"num_deleted":"0","num_feature":"17","num_nodes":"25","size_leaf_vector":"1"}},{"base_weights":[-5.129716E-3,1.7859575E-1,-1.5608416E-1,7.2949834E-2,6.472746E-1,-1.1053261E-1,-8.744472E-1,4.0037077E-2,5.6173097E-2,3.723587E-1,1.063979E0,-2.2107658E-1,1.4934552E-1,-5.5233587E-2,-2.0999808E-2,8.331063E-3,-1.2160619E-2,3.0620405E-2,-1.975311E-2,1.8704778E-2,7.293966E-2,-4.910346E-3,-2.555877E-2,2.6691672E-3,3.212328E-2],"categories":[],"categories_nodes":[],"categories_segments":[],"categories_sizes":[],"default_left":[1,1,0,0,0,0,1,0,0,1,1,0,0,0,0,0,0,0,0,0,0,0,0,0,0],"id":19,"left_children":[1,3,5,7,9,11,13,15,-1,17,19,21,23,-1,-1,-1,-1,-1,-1,-1,-1,-1,-1,-1,-1],"loss_changes":[1.9412542E1,1.558532E1,1.247619E1,8.902076E0,6.2423744E0,1.0445734E1,1.9179878E0,9.074038E0,0E0,6.9572535E0,5.5816517E0,9.028231E0,5.112534E0,0E0,0E0,0E0,0E0,0E0,0E0,0E0,0E0,0E0,0E0,0E0,0E0],"parents":[2147483647,0,0,1,1,2,2,3,3,4,4,5,5,6,6,7,7,9,9,10,10,11,11,12,12],"right_children":[2,4,6,8,10,12,14,16,-1,18,20,22,24,-1,-1,-1,-1,-1,-1,-1,-1,-1,-1,-1,-1],"split_conditions":[8.5E0,4.171478E0,1.1E1,3.2456383E-1,7.5E1,1.034E0,4.2274478E-1,3.1330683E0,5.6173097E-2,3.5E-1,2.6923078E-1,3.4369662E-1,2.666E-1,-5.5233587E-2,-2.0999808E-2,8.331063E-3,-1.2160619E-2,3.0620405E-2,-1.975311E-2,1.8704778E-2,7.293966E-2,-4.910346E-3,-2.555877E-2,2.6691672E-3,3.212328E-2],"split_indices":[16,5,16,9,12,11,8,5,0,4,4,7,9,0,0,0,0,0,0,0,0,0,0,0,0],"split_type":[0,0,0,0,0,0,0,0,0,0,0,0,0,0,0,0,0,0,0,0,0,0,0,0,0],"sum_hessian":[6.979452E2,3.1471948E2,3.832257E2,2.577705E2,5.6948956E1,3.6145935E2,2.1766344E1,2.5094643E2,6.8240905E0,3.5452892E1,2.1496061E1,2.5369485E2,1.07764496E2,1.3497661E1,8.268684E0,1.7372188E2,7.722455E1,2.7159414E1,8.293478E0,8.533125E0,1.2962936E1,1.7915384E2,7.454102E1,9.113725E1,1.662724E1],"tree_param":{"num_deleted":"0","num_feature":"17","num_nodes":"25","size_leaf_vector":"1"}},{"base_weights":[-7.197558E-3,1.3832705E-1,-1.7210005E-1,-1.6975534E-1,2.306011E-1,2.9832665E-2,-3.5995173E-1,-2.5811687E-1,4.279911E-1,1.1017013E-1,5.9779006E-1,2.0599647E-1,-3.9442295E-1,-7.207993E-1,-2.6517978E-1,-2.1065539E-2,6.187838E-3,-1.928989E-2,5.8109116E-2,2.0111354E-2,-3.0171198E-3,7.540215E-3,5.152554E-2,4.0484676E-3,3.6890775E-2,2.7180899E-2,-2.6203884E-2,5.5163894E-3,-4.3209072E-2,-1.8796663E-3,-2.153851E-2],"categories":[],"categories_nodes":[],"categories_segments":[],"categories_sizes":[],"default_left":[1,0,0,0,0,0,1,1,0,0,1,0,0,1,0,0,0,0,0,0,0,0,0,0,0,0,0,0,0,0,0],"id":20,"left_children":[1,3,5,7,9,11,13,15,17,19,21,23,25,27,29,-1,-1,-1,-1,-1,-1,-1,-1,-1,-1,-1,-1,-1,-1,-1,-1],"loss_changes":[1.6822525E1,1.06261635E1,1.2475972E1,4.6744623E0,1.262576E1,1.1986502E1,5.6333733E0,4.782525E0,7.3221397E0,1.0848022E1,1.3511208E1,7.4679637E0,6.0107856E0,4.2477665E0,5.1268826E0,0E0,0E0,0E0,0E0,0E0,0E0,0E0,0E0,0E0,0E0,0E0,0E0,0E0,0E0,0E0,0E0],"parents":[2147483647,0,0,1,1,2,2,3,3,4,4,5,5,6,6,7,7,8,8,9,9,10,10,11,11,12,12,13,13,14,14],"right_children":[2,4,6,8,10,12,14,16,18,20,22,24,26,28,30,-1,-1,-1,-1,-1,-1,-1,-1,-1,-1,-1,-1,-1,-1,-1,-1],"split_conditions":[1.2130964E0,2.8E-1,7.62E1,8.84E1,1.034E0,1.5480326E-2,-1.9731963E-2,1.4334004E0,9E-2,8E0,-1.5840918E-3,3.7142858E-1,4.79E1,9.930064E-1,-1.5840918E-3,-2.1065539E-2,6.187838E-3,-1.928989E-2,5.8109116E-2,2.0111354E-2,-3.0171198E-3,7.540215E-3,5.152554E-2,4.0484676E-3,3.6890775E-2,2.7180899E-2,-2.6203884E-2,5.5163894E-3,-4.3209072E-2,-1.8796663E-3,-2.153851E-2],"split_indices":[13,2,12,12,11,10,10,14,2,16,10,6,12,14,10,0,0,0,0,0,0,0,0,0,0,0,0,0,0,0,0],"split_type":[0,0,0,0,0,0,0,0,0,0,0,0,0,0,0,0,0,0,0,0,0,0,0,0,0,0,0,0,0,0,0],"sum_hessian":[6.990233E2,3.7141495E2,3.2760837E2,8.54101E1,2.8600485E2,1.5829214E2,1.6931624E2,7.490543E1,1.0504669E1,2.1634715E2,6.96577E1,1.1221254E2,4.6079597E1,3.3844917E1,1.3547131E2,5.2406296E1,2.2499136E1,5.207321E0,5.2973475E0,7.924904E1,1.3709811E2,3.4927395E1,3.4730305E1,9.1786415E1,2.0426126E1,5.20792E0,4.0871677E1,5.01361E0,2.8831306E1,5.75719E1,7.789942E1],"tree_param":{"num_deleted":"0","num_feature":"17","num_nodes":"31","size_leaf_vector":"1"}},{"base_weights":[-1.27553465E-2,8.5729964E-2,-2.6400092E-1,-1.1922222E-1,2.0307966E-1,-3.4286156E-1,1.0074106E-1,3.882197E-2,-1.5333058E-1,3.7029243E-1,6.2326502E-2,-1.312148E-1,-4.5335123E-1,3.9857385E-1,-5.691082E-1,-9.912341E-3,2.1086497E-2,1.1857027E-2,3.9760802E-2,1.9482596E-2,-6.102284E-3,-5.0321486E-2,-1.0122268E-3,-2.9286852E-2,-6.334306E-3,-1.48815755E-2,3.4622222E-2,-4.6111632E-2,-5.1559154E-3],"categories":[],"categories_nodes":[],"categories_segments":[],"categories_sizes":[],"default_left":[1,1,1,0,1,0,0,0,0,0,0,1,0,1,0,0,0,0,0,0,0,0,0,0,0,0,0,0,0],"id":21,"left_children":[1,3,5,7,9,11,13,-1,15,17,19,21,23,25,27,-1,-1,-1,-1,-1,-1,-1,-1,-1,-1,-1,-1,-1,-1],"loss_changes":[1.719306E1,1.2032117E1,5.662346E0,5.6916733E0,7.457855E0,3.707817E0,7.3202205E0,0E0,4.6439652E0,8.019403E0,1.0535377E1,5.482924E0,4.485523E0,5.3619137E0,1.7734065E0,0E0,0E0,0E0,0E0,0E0,0E0,0E0,0E0,0E0,0E0,0E0,0E0,0E0,0E0],"parents":[2147483647,0,0,1,1,2,2,3,3,4,4,5,5,6,6,8,8,9,9,10,10,11,11,12,12,13,13,14,14],"right_children":[2,4,6,8,10,12,14,-1,16,18,20,22,24,26,28,-1,-1,-1,-1,-1,-1,-1,-1,-1,-1,-1,-1,-1,-1],"split_conditions":[9E0,2.6E-1,2.6310536E-1,7E0,1.1369122E0,1.9354838E-1,3.75E-1,3.882197E-2,1.3469702E2,8.17E1,2.0833333E-1,1.0033685E0,3E-1,1.1257641E0,1.024E0,-9.912341E-3,2.1086497E-2,1.1857027E-2,3.9760802E-2,1.9482596E-2,-6.102284E-3,-5.0321486E-2,-1.0122268E-3,-2.9286852E-2,-6.334306E-3,-1.48815755E-2,3.4622222E-2,-4.6111632E-2,-5.1559154E-3],"split_indices":[16,2,0,16,13,6,4,0,15,12,4,5,6,14,11,0,0,0,0,0,0,0,0,0,0,0,0,0,0],"split_type":[0,0,0,0,0,0,0,0,0,0,0,0,0,0,0,0,0,0,0,0,0,0,0,0,0,0,0,0,0],"sum_hessian":[6.9292285E2,4.9826688E2,1.9465598E2,1.8141252E2,3.1685437E2,1.601007E2,3.455529E1,5.8566675E0,1.7555585E2,1.440702E2,1.7278416E2,5.5663292E1,1.044374E2,2.4200212E1,1.0355077E1,1.6344492E2,1.2110929E1,1.1088266E2,3.3187546E1,6.1855507E1,1.1092866E2,5.3554964E0,5.0307793E1,7.37543E1,3.0683096E1,7.179218E0,1.7020994E1,5.3339543E0,5.0211225E0],"tree_param":{"num_deleted":"0","num_feature":"17","num_nodes":"29","size_leaf_vector":"1"}},{"base_weights":[4.3277267E-2,6.8484284E-2,-7.522441E-1,1.8207325E-1,-6.663285E-2,-5.265708E-2,-4.8549145E-1,-9.24614E-2,2.5553444E-1,-1.16318844E-1,4.9436444E-1,-4.4165105E-2,6.804836E-4,-2.471479E-2,3.2705718E-3,2.206309E-2,6.9734417E-3,4.035988E-2,-6.990382E-3,6.67629E-2,3.1091368E-3],"categories":[],"categories_nodes":[],"categories_segments":[],"categories_sizes":[],"default_left":[1,1,0,0,1,0,1,0,0,1,1,0,0,0,0,0,0,0,0,0,0],"id":22,"left_children":[1,3,5,7,9,-1,11,13,15,17,19,-1,-1,-1,-1,-1,-1,-1,-1,-1,-1],"loss_changes":[1.4018738E1,1.038801E1,1.2124681E0,7.43629E0,8.684335E0,0E0,2.6406076E0,5.001095E0,6.1947803E0,6.2978783E0,9.137472E0,0E0,0E0,0E0,0E0,0E0,0E0,0E0,0E0,0E0,0E0],"parents":[2147483647,0,0,1,1,2,2,3,3,4,4,6,6,7,7,8,8,9,9,10,10],"right_children":[2,4,6,8,10,-1,12,14,16,18,20,-1,-1,-1,-1,-1,-1,-1,-1,-1,-1],"split_conditions":[1.1E1,1.2130964E0,1.04E0,9.24E1,8.3E-1,-5.265708E-2,1.1704932E0,1.7741935E-1,1.0307961E1,6.5E0,-1.4444616E-2,-4.4165105E-2,6.804836E-4,-2.471479E-2,3.2705718E-3,2.206309E-2,6.9734417E-3,4.035988E-2,-6.990382E-3,6.67629E-2,3.1091368E-3],"split_indices":[16,13,11,3,2,0,14,6,15,16,10,0,0,0,0,0,0,0,0,0,0],"split_type":[0,0,0,0,0,0,0,0,0,0,0,0,0,0,0,0,0,0,0,0,0],"sum_hessian":[6.95525E2,6.750492E2,2.0475801E1,3.6655215E2,3.0849707E2,8.236737E0,1.2239064E1,7.732379E1,2.8922836E2,2.841255E2,2.4371561E1,6.3822665E0,5.856798E0,2.120913E1,5.6114662E1,1.101559E2,1.7907246E2,6.2196674E0,2.7790582E2,7.5642557E0,1.6807306E1],"tree_param":{"num_deleted":"0","num_feature":"17","num_nodes":"21","size_leaf_vector":"1"}},{"base_weights":[1.2456257E-2,-6.2568374E-2,3.0243114E-1,-3.5206623E-2,-8.053856E-1,2.4156353E-1,6.353497E-2,-4.4105437E-1,1.2733464E-2,-1.1537879E-2,-5.0813865E-2,7.774758E-1,1.3930139E-1,-2.8954014E-2,3.633415E-2,-6.3499477E-4,3.8594525E-2,5.258239E-2,-4.768271E-3,1.1020987E-2,-3.332347E-2],"categories":[],"categories_nodes":[],"categories_segments":[],"categories_sizes":[],"default_left":[0,1,1,0,1,1,0,1,1,0,0,0,0,0,0,0,0,0,0,0,0],"id":23,"left_children":[1,3,5,7,9,11,-1,13,15,-1,-1,17,19,-1,-1,-1,-1,-1,-1,-1,-1],"loss_changes":[1.52176285E1,1.1269192E1,8.166369E0,1.04565935E1,2.1530247E0,7.3725286E0,0E0,9.571656E0,9.304139E0,0E0,0E0,5.2825575E0,7.7190247E0,0E0,0E0,0E0,0E0,0E0,0E0,0E0,0E0],"parents":[2147483647,0,0,1,1,2,2,3,3,4,4,5,5,7,7,8,8,11,11,12,12],"right_children":[2,4,6,8,10,12,-1,14,16,-1,-1,18,20,-1,-1,-1,-1,-1,-1,-1,-1],"split_conditions":[3.409091E-1,1.1E1,3.5602137E-1,1.949621E-1,8.3333336E-2,3.262661E-1,6.353497E-2,9.63E1,5.8583343E-1,-1.1537879E-2,-5.0813865E-2,1.3060956E0,1.0787988E2,-2.8954014E-2,3.633415E-2,-6.3499477E-4,3.8594525E-2,5.258239E-2,-4.768271E-3,1.1020987E-2,-3.332347E-2],"split_indices":[6,16,0,9,4,8,0,3,8,0,0,13,15,0,0,0,0,0,0,0,0],"split_type":[0,0,0,0,0,0,0,0,0,0,0,0,0,0,0,0,0,0,0,0,0],"sum_hessian":[6.9762225E2,5.5485095E2,1.4277127E2,5.3614923E2,1.8701715E1,1.3550273E2,7.2685375E0,5.5774803E1,4.8037445E2,5.583166E0,1.311855E1,2.065515E1,1.1484758E2,5.0329933E1,5.444869E0,4.6575397E2,1.4620468E1,1.5562034E1,5.0931153E0,1.0500318E2,9.844404E0],"tree_param":{"num_deleted":"0","num_feature":"17","num_nodes":"21","size_leaf_vector":"1"}},{"base_weights":[-1.8404173E-2,-1.3579667E-1,1.8139945E-1,-6.3497275E-1,-1.0124225E-1,-3.8379425E-1,2.525033E-1,-5.1608887E-2,-2.879587E-1,-6.940632E-2,-6.417369E-1,2.0436594E-2,-6.3206655E-1,4.6147448E-1,7.868313E-2,2.1826876E-2,-3.2842033E-2,1.625865E-2,-5.4733153E-3,-6.9037476E-3,-4.9681555E-2,-1.9536654E-2,-5.1169194E-2,5.2556306E-2,1.7797958E-2,2.8484052E-2,-4.899733E-3],"categories":[],"categories_nodes":[],"categories_segments":[],"categories_sizes":[],"default_left":[1,0,1,1,0,1,0,0,0,1,0,0,0,0,0,0,0,0,0,0,0,0,0,0,0,0,0],"id":24,"left_children":[1,3,5,7,9,11,13,-1,15,17,19,-1,21,23,25,-1,-1,-1,-1,-1,-1,-1,-1,-1,-1,-1,-1],"loss_changes":[1.6375702E1,7.5197525E0,1.0482364E1,3.6002436E0,7.0518665E0,6.018541E0,8.323537E0,0E0,4.690676E0,6.209609E0,3.9071608E0,0E0,1.7423954E0,6.115261E0,1.1059678E1,0E0,0E0,0E0,0E0,0E0,0E0,0E0,0E0,0E0,0E0,0E0,0E0],"parents":[2147483647,0,0,1,1,2,2,3,3,4,4,5,5,6,6,8,8,9,9,10,10,12,12,13,13,14,14],"right_children":[2,4,6,8,10,12,14,-1,16,18,20,-1,22,24,26,-1,-1,-1,-1,-1,-1,-1,-1,-1,-1,-1,-1],"split_conditions":[5.2E-1,-1.4067487E2,9.52381E-2,7.389353E-2,8.177535E-2,-4.2216282E-2,2.9281232E-1,-5.1608887E-2,8.86667E-2,9.534554E-1,1.1452972E0,2.0436594E-2,7.6E-1,-7.755007E1,1.0929668E0,2.1826876E-2,-3.2842033E-2,1.625865E-2,-5.4733153E-3,-6.9037476E-3,-4.9681555E-2,-1.9536654E-2,-5.1169194E-2,5.2556306E-2,1.7797958E-2,2.8484052E-2,-4.899733E-3],"split_indices":[2,15,4,1,10,10,7,0,1,13,13,0,2,15,14,0,0,0,0,0,0,0,0,0,0,0,0],"split_type":[0,0,0,0,0,0,0,0,0,0,0,0,0,0,0,0,0,0,0,0,0,0,0,0,0,0,0],"sum_hessian":[6.961118E2,4.3868655E2,2.5742526E2,2.7276197E1,4.1141034E2,2.827489E1,2.2915039E2,1.1797685E1,1.5478513E1,3.8959125E2,2.1819084E1,6.5905294E0,2.168436E1,1.0330251E2,1.2584787E2,5.160235E0,1.0318278E1,3.5252007E1,3.5433926E2,9.546982E0,1.2272103E1,1.4648706E1,7.0356536E0,1.431942E1,8.898309E1,3.271277E1,9.31351E1],"tree_param":{"num_deleted":"0","num_feature":"17","num_nodes":"27","size_leaf_vector":"1"}},{"base_weights":[1.97932E-2,6.36126E-2,-2.8671774E-1,-4.4868907E-1,9.247361E-2,-3.6557963E-1,2.3752196E-1,-5.7770897E-2,-6.997465E-1,1.2458161E-1,-2.9951125E-1,1.5675945E-2,-4.4405875E-1,-2.2526188E-2,4.2276073E-2,2.1821253E-2,-1.9381277E-2,-4.684707E-2,-1.1140134E-2,-5.7890886E-3,8.931606E-3,-2.7370796E-2,1.2679583E-2,-1.8915338E-3,-3.0507747E-2],"categories":[],"categories_nodes":[],"categories_segments":[],"categories_sizes":[],"default_left":[1,0,0,0,0,0,1,1,0,0,0,0,1,0,0,0,0,0,0,0,0,0,0,0,0],"id":25,"left_children":[1,3,5,7,9,11,13,15,17,19,21,-1,23,-1,-1,-1,-1,-1,-1,-1,-1,-1,-1,-1,-1],"loss_changes":[9.461113E0,9.148479E0,3.7299533E0,3.200234E0,7.3864274E0,4.242489E0,5.4548E0,2.4518452E0,2.0557165E0,7.041649E0,6.240815E0,0E0,4.661542E0,0E0,0E0,0E0,0E0,0E0,0E0,0E0,0E0,0E0,0E0,0E0,0E0],"parents":[2147483647,0,0,1,1,2,2,3,3,4,4,5,5,6,6,7,7,8,8,9,9,10,10,12,12],"right_children":[2,4,6,8,10,12,14,16,18,20,22,-1,24,-1,-1,-1,-1,-1,-1,-1,-1,-1,-1,-1,-1],"split_conditions":[3.5825944E-1,1.840705E-1,2.7989537E-1,-1.0226426E-2,1.6542367E0,-3.0758156E-2,1.1704571E0,2.272726E0,4.4252312E-1,2.3E-1,7.98E1,1.5675945E-2,8E-2,-2.2526188E-2,4.2276073E-2,2.1821253E-2,-1.9381277E-2,-4.684707E-2,-1.1140134E-2,-5.7890886E-3,8.931606E-3,-2.7370796E-2,1.2679583E-2,-1.8915338E-3,-3.0507747E-2],"split_indices":[7,9,9,10,14,10,13,5,8,2,12,0,4,0,0,0,0,0,0,0,0,0,0,0,0],"split_type":[0,0,0,0,0,0,0,0,0,0,0,0,0,0,0,0,0,0,0,0,0,0,0,0,0],"sum_hessian":[7.02059E2,6.149386E2,8.712038E1,3.2019802E1,5.829188E2,7.599154E1,1.1128834E1,1.3003043E1,1.9016758E1,5.394167E2,4.3502155E1,7.5618773E0,6.8429665E1,5.3422527E0,5.786581E0,5.075591E0,7.9274526E0,1.2056379E1,6.960378E0,9.882012E1,4.4059656E2,3.0045727E1,1.34564295E1,2.021552E1,4.821414E1],"tree_param":{"num_deleted":"0","num_feature":"17","num_nodes":"25","size_leaf_vector":"1"}},{"base_weights":[-1.5832571E-2,1.3934149E-1,-1.483656E-1,-1.6293995E-1,2.3258224E-1,-2.5197777E-1,7.7315316E-2,-2.6243308E-1,4.202386E-2,2.8444475E-1,-2.7324203E-1,-1.960293E-1,-7.767593E-1,-3.4854546E-2,9.5566195E-1,-3.4168378E-2,-5.6654256E-4,2.9896883E-2,8.272913E-3,2.0357309E-2,-2.4237145E-2,-7.725663E-3,-4.598274E-2,-5.3359646E-2,-1.9227898E-2,-7.0968084E-3,2.8112901E-2,1.2136806E-2,8.11057E-2],"categories":[],"categories_nodes":[],"categories_segments":[],"categories_sizes":[],"default_left":[1,1,0,0,0,0,1,0,0,0,0,0,0,0,0,0,0,0,0,0,0,0,0,0,0,0,0,0,0],"id":26,"left_children":[1,3,5,7,9,11,13,15,-1,17,19,21,23,25,27,-1,-1,-1,-1,-1,-1,-1,-1,-1,-1,-1,-1,-1,-1],"loss_changes":[1.4278398E1,9.053577E0,8.774222E0,7.8074665E0,6.501731E0,7.388468E0,1.1715378E1,7.3807626E0,0E0,8.204252E0,3.547823E0,6.87047E0,2.3696423E0,6.8643374E0,6.0027475E0,0E0,0E0,0E0,0E0,0E0,0E0,0E0,0E0,0E0,0E0,0E0,0E0,0E0,0E0],"parents":[2147483647,0,0,1,1,2,2,3,3,4,4,5,5,6,6,7,7,9,9,10,10,11,11,12,12,13,13,14,14],"right_children":[2,4,6,8,10,12,14,16,-1,18,20,22,24,26,28,-1,-1,-1,-1,-1,-1,-1,-1,-1,-1,-1,-1,-1,-1],"split_conditions":[8.5E0,9.22E1,1.034E0,9.16E1,3.6133468E-1,1.6542367E0,2.9466042E-1,-1.3484663E1,4.202386E-2,1.923077E-1,6.02E1,1.05E1,8.0195636E-2,2.6736248E-1,1.2485374E0,-3.4168378E-2,-5.6654256E-4,2.9896883E-2,8.272913E-3,2.0357309E-2,-2.4237145E-2,-7.725663E-3,-4.598274E-2,-5.3359646E-2,-1.9227898E-2,-7.0968084E-3,2.8112901E-2,1.2136806E-2,8.11057E-2],"split_indices":[16,3,11,12,7,14,0,15,0,4,12,16,1,9,14,0,0,0,0,0,0,0,0,0,0,0,0,0,0],"split_type":[0,0,0,0,0,0,0,0,0,0,0,0,0,0,0,0,0,0,0,0,0,0,0,0,0,0,0,0,0],"sum_hessian":[6.922772E2,3.1887567E2,3.7340155E2,7.499581E1,2.4387985E2,2.558308E2,1.1757076E2,6.890231E1,6.0935E0,2.2159703E2,2.2282827E1,2.3242487E2,2.3405933E1,1.0510817E2,1.2462593E1,2.5101692E1,4.380062E1,5.9859726E1,1.617373E2,5.0647464E0,1.721808E1,2.2096133E2,1.1463532E1,1.2458853E1,1.0947081E1,8.977152E1,1.5336646E1,6.6804814E0,5.7821116E0],"tree_param":{"num_deleted":"0","num_feature":"17","num_nodes":"29","size_leaf_vector":"1"}},{"base_weights":[1.3582059E-2,4.3764096E-2,-6.3047785E-1,6.999849E-1,1.6814912E-2,-1.8831696E-1,-9.067595E-1,1.5628688E-3,9.2355317E-1,7.719883E-2,-2.1076566E-1,1.6066467E-2,-4.0582497E-2,-5.1143408E-2,-2.431963E-2,2.6102995E-2,6.832659E-2,2.1576232E-3,2.2318276E-2,-1.8738871E-2,1.2114469E-2],"categories":[],"categories_nodes":[],"categories_segments":[],"categories_sizes":[],"default_left":[1,1,0,0,0,0,0,0,1,0,0,0,0,0,0,0,0,0,0,0,0],"id":27,"left_children":[1,3,5,7,9,11,13,-1,15,17,19,-1,-1,-1,-1,-1,-1,-1,-1,-1,-1],"loss_changes":[1.3713445E1,1.18980875E1,3.6871834E0,3.939252E0,8.920084E0,4.5198464E0,4.3833828E-1,0E0,2.8181057E0,6.4258347E0,1.0206226E1,0E0,0E0,0E0,0E0,0E0,0E0,0E0,0E0,0E0,0E0],"parents":[2147483647,0,0,1,1,2,2,3,3,4,4,5,5,6,6,8,8,9,9,10,10],"right_children":[2,4,6,8,10,12,14,-1,16,18,20,-1,-1,-1,-1,-1,-1,-1,-1,-1,-1],"split_conditions":[1.05E1,7E0,1.923077E-1,4E-1,3.545756E-1,1.15E1,1.3577901E0,1.5628688E-3,7.144768E-2,9.3E-1,2.6923078E-1,1.6066467E-2,-4.0582497E-2,-5.1143408E-2,-2.431963E-2,2.6102995E-2,6.832659E-2,2.1576232E-3,2.2318276E-2,-1.8738871E-2,1.2114469E-2],"split_indices":[16,16,6,2,7,16,14,0,1,2,6,0,0,0,0,0,0,0,0,0,0],"split_type":[0,0,0,0,0,0,0,0,0,0,0,0,0,0,0,0,0,0,0,0,0],"sum_hessian":[7.0303955E2,6.7245874E2,3.0580818E1,2.5541489E1,6.4691724E2,1.2406724E1,1.8174095E1,6.6851053E0,1.8856382E1,5.1178592E2,1.3513132E2,7.0923834E0,5.31434E0,1.3117626E1,5.056468E0,1.1034131E1,7.8222513E0,4.695945E2,4.2191433E1,9.934127E1,3.579004E1],"tree_param":{"num_deleted":"0","num_feature":"17","num_nodes":"21","size_leaf_vector":"1"}},{"base_weights":[1.7270515E-3,-2.878301E-1,5.6798782E-2,-3.6479747E-1,3.5845557E-1,4.6291263E-3,3.5390034E-1,-4.3745622E-1,1.7829679E-2,-2.3106607E-2,5.5263925E-2,-4.3694922E-1,3.5576835E-2,5.403886E-1,-5.267294E-1,-1.1463297E-2,-3.522512E-2,-5.5400333E-3,-4.3818872E-2,3.0156025E-3,-2.871832E-2,-1.3526067E-2,3.235383E-2,2.7516072E-3,-4.1455556E-2],"categories":[],"categories_nodes":[],"categories_segments":[],"categories_sizes":[],"default_left":[0,1,1,1,0,0,0,0,0,0,0,0,0,0,1,0,0,0,0,0,0,0,0,0,0],"id":28,"left_children":[1,3,5,7,9,11,13,15,-1,-1,-1,17,19,21,23,-1,-1,-1,-1,-1,-1,-1,-1,-1,-1],"loss_changes":[1.1168159E1,5.6978827E0,9.118568E0,5.423914E0,8.118803E0,6.8694577E0,1.4716297E1,4.939787E0,0E0,0E0,0E0,4.6213837E0,7.11973E0,6.491701E0,2.836248E0,0E0,0E0,0E0,0E0,0E0,0E0,0E0,0E0,0E0,0E0],"parents":[2147483647,0,0,1,1,2,2,3,3,4,4,5,5,6,6,7,7,11,11,12,12,13,13,14,14],"right_children":[2,4,6,8,10,12,14,16,-1,-1,-1,18,20,22,24,-1,-1,-1,-1,-1,-1,-1,-1,-1,-1],"split_conditions":[2.0132335E-1,2.4158372E-2,2.8459135E-1,3.142193E-1,1.9101448E-1,-1.2523739E2,2.3119811E-2,7.76E1,1.7829679E-2,-2.3106607E-2,5.5263925E-2,2.350465E0,9.82E1,6.27E1,8E0,-1.1463297E-2,-3.522512E-2,-5.5400333E-3,-4.3818872E-2,3.0156025E-3,-2.871832E-2,-1.3526067E-2,3.235383E-2,2.7516072E-3,-4.1455556E-2],"split_indices":[9,10,0,0,9,15,10,12,0,0,0,5,12,12,16,0,0,0,0,0,0,0,0,0,0],"split_type":[0,0,0,0,0,0,0,0,0,0,0,0,0,0,0,0,0,0,0,0,0,0,0,0,0],"sum_hessian":[6.9833026E2,1.1091785E2,5.874124E2,9.950336E1,1.1414491E1,5.0053616E2,8.687625E1,9.075598E1,8.747378E0,5.620285E0,5.7942057E0,3.1922993E1,4.6861316E2,7.20127E1,1.4863545E1,5.20422E1,3.8713783E1,1.9041975E1,1.2881019E1,4.5121597E2,1.7397179E1,8.194287E0,6.3818417E1,5.3631735E0,9.500372E0],"tree_param":{"num_deleted":"0","num_feature":"17","num_nodes":"25","size_leaf_vector":"1"}},{"base_weights":[-1.0685042E-2,1.3264646E-1,-1.0631537E-1,2.2049944E-1,-2.3746851E-1,-1.5155612E-1,3.263026E-1,1.24903634E-1,6.024328E-1,-4.0112942E-1,1.6661194E-1,3.463254E-2,-1.7279705E-1,-2.746389E-1,6.495748E-1,-1.5490864E-2,1.1110487E-2,-2.3469394E-2,3.7738457E-2,-3.6390424E-2,-5.4708226E-3,3.931407E-2,-9.014989E-3,-1.1075754E-2,4.39603E-3,-4.918629E-2,1.3365234E-2,6.2314402E-2,-1.4047936E-3],"categories":[],"categories_nodes":[],"categories_segments":[],"categories_sizes":[],"default_left":[1,0,1,0,0,0,0,0,0,0,0,0,0,1,0,0,0,0,0,0,0,0,0,0,0,0,0,0,0],"id":29,"left_children":[1,3,5,7,9,11,13,15,17,19,21,-1,23,25,27,-1,-1,-1,-1,-1,-1,-1,-1,-1,-1,-1,-1,-1,-1],"loss_changes":[9.578061E0,9.146301E0,8.251526E0,8.196213E0,3.646752E0,6.9351835E0,7.947628E0,7.7868905E0,7.71649E0,3.619925E0,3.6481977E0,0E0,4.7388E0,5.908645E0,1.0670473E1,0E0,0E0,0E0,0E0,0E0,0E0,0E0,0E0,0E0,0E0,0E0,0E0,0E0,0E0],"parents":[2147483647,0,0,1,1,2,2,3,3,4,4,5,5,6,6,7,7,8,8,9,9,10,10,12,12,13,13,14,14],"right_children":[2,4,6,8,10,12,14,16,18,20,22,-1,24,26,28,-1,-1,-1,-1,-1,-1,-1,-1,-1,-1,-1,-1,-1,-1],"split_conditions":[1.1394011E0,3.572476E-1,8.2E-1,1.034E0,1.0732502E0,8.94E1,2.0755559E-1,2.7622795E-1,6.27E1,2.3436153E-1,2.2950819E-1,3.463254E-2,3.7142858E-1,9.59E1,2.4029905E-1,-1.5490864E-2,1.1110487E-2,-2.3469394E-2,3.7738457E-2,-3.6390424E-2,-5.4708226E-3,3.931407E-2,-9.014989E-3,-1.1075754E-2,4.39603E-3,-4.918629E-2,1.3365234E-2,6.2314402E-2,-1.4047936E-3],"split_indices":[13,7,2,11,13,3,9,7,12,9,6,0,6,3,9,0,0,0,0,0,0,0,0,0,0,0,0,0,0],"split_type":[0,0,0,0,0,0,0,0,0,0,0,0,0,0,0,0,0,0,0,0,0,0,0,0,0,0,0,0,0],"sum_hessian":[6.967509E2,2.786784E2,4.180725E2,2.2554562E2,5.3132782E1,3.790801E2,3.8992393E1,1.8145538E2,4.409024E1,3.7821568E1,1.53112135E1,8.528071E0,3.7055203E2,1.3691412E1,2.530098E1,3.2788193E1,1.4866718E2,5.2276745E0,3.8862568E1,1.7136293E1,2.0685274E1,5.040725E0,1.0270488E1,3.1233844E2,5.8213585E1,5.5779543E0,8.113458E0,1.3007945E1,1.22930355E1],"tree_param":{"num_deleted":"0","num_feature":"17","num_nodes":"29","size_leaf_vector":"1"}},{"base_weights":[8.237046E-3,1.0346429E-1,-9.5915064E-2,-2.7148956E-1,1.6059946E-1,-5.7856534E-3,-3.0588615E-1,-6.824008E-1,8.580622E-2,9.63907E-2,4.82737E-1,3.939329E-2,-3.1861793E-2,-1.6293602E-1,-7.552727E-1,-4.9071994E-2,-1.416418E-2,2.1741854E-2,-3.158509E-2,2.5345609E-2,7.658673E-4,3.279184E-2,-1.9188406E-2,-4.2369976E-3,2.041425E-2,2.9286904E-2,-1.3521612E-2,-5.2627057E-2,3.2481388E-4],"categories":[],"categories_nodes":[],"categories_segments":[],"categories_sizes":[],"default_left":[1,0,0,1,1,0,0,0,0,1,0,0,0,0,0,0,0,0,0,0,0,0,0,0,0,0,0,0,0],"id":30,"left_children":[1,3,5,7,9,11,13,15,17,19,21,-1,23,25,27,-1,-1,-1,-1,-1,-1,-1,-1,-1,-1,-1,-1,-1,-1],"loss_changes":[6.9765773E0,7.91466E0,6.3570023E0,7.2458916E0,6.561118E0,4.911536E0,6.3583374E0,2.4528074E0,7.054859E0,8.899054E0,8.177636E0,0E0,5.3774734E0,6.4213147E0,5.4583607E0,0E0,0E0,0E0,0E0,0E0,0E0,0E0,0E0,0E0,0E0,0E0,0E0,0E0,0E0],"parents":[2147483647,0,0,1,1,2,2,3,3,4,4,5,5,6,6,7,7,8,8,9,9,10,10,12,12,13,13,14,14],"right_children":[2,4,6,8,10,12,14,16,18,20,22,-1,24,26,28,-1,-1,-1,-1,-1,-1,-1,-1,-1,-1,-1,-1,-1,-1],"split_conditions":[1.2047485E0,9.18E1,8.17E1,1.0593584E0,4.171478E0,8.94E1,3.554323E-1,2.2727273E-1,2.7192983E-1,9.534554E-1,9.961631E1,3.939329E-2,3.4247443E-1,1.4285715E-1,1.038E0,-4.9071994E-2,-1.416418E-2,2.1741854E-2,-3.158509E-2,2.5345609E-2,7.658673E-4,3.279184E-2,-1.9188406E-2,-4.2369976E-3,2.041425E-2,2.9286904E-2,-1.3521612E-2,-5.2627057E-2,3.2481388E-4],"split_indices":[13,3,12,13,5,3,7,4,4,13,15,0,0,6,11,0,0,0,0,0,0,0,0,0,0,0,0,0,0],"split_type":[0,0,0,0,0,0,0,0,0,0,0,0,0,0,0,0,0,0,0,0,0,0,0,0,0,0,0,0,0],"sum_hessian":[7.0141693E2,3.6641077E2,3.3500613E2,4.7954433E1,3.1845633E2,2.3511244E2,9.989371E1,2.1880573E1,2.607386E1,2.6661383E2,5.1842487E1,6.5497804E0,2.2856265E2,7.681985E1,2.3073862E1,1.1674452E1,1.0206122E1,1.7806078E1,8.267782E0,4.3103466E1,2.2351038E2,4.3413074E1,8.429412E0,2.047696E2,2.3793045E1,9.086512E0,6.773334E1,1.632254E1,6.7513223E0],"tree_param":{"num_deleted":"0","num_feature":"17","num_nodes":"29","size_leaf_vector":"1"}},{"base_weights":[6.3155796E-3,-8.406207E-2,1.5590268E-1,-1.5299536E-1,2.4364193E-1,2.0120697E-1,-4.8796144E-1,-1.0539002E-1,-6.154463E-1,5.602091E-1,5.7499055E-3,-1.5310024E-1,2.721576E-1,8.088101E-3,-7.700028E-1,2.220388E-3,-1.0067063E-2,-6.0292548E-3,-4.4344217E-2,3.794878E-2,-1.613724E-2,-1.0037758E-2,3.9089423E-2,-2.1066377E-2,1.9762512E-2,1.7759219E-2,-5.145715E-3,-4.491062E-2,-2.459035E-2],"categories":[],"categories_nodes":[],"categories_segments":[],"categories_sizes":[],"default_left":[1,0,0,0,0,0,0,1,0,0,0,0,1,0,0,0,0,0,0,0,0,0,0,0,0,0,0,0,0],"id":31,"left_children":[1,3,5,7,9,11,13,15,17,19,21,23,25,-1,27,-1,-1,-1,-1,-1,-1,-1,-1,-1,-1,-1,-1,-1,-1],"loss_changes":[9.519687E0,9.954038E0,7.8337145E0,7.933546E0,5.7714934E0,6.287656E0,3.3726249E0,4.76091E0,4.420147E0,6.017127E0,7.334955E0,6.357856E0,6.4942865E0,0E0,5.2809715E-3,0E0,0E0,0E0,0E0,0E0,0E0,0E0,0E0,0E0,0E0,0E0,0E0,0E0,0E0],"parents":[2147483647,0,0,1,1,2,2,3,3,4,4,5,5,6,6,7,7,8,8,9,9,10,10,11,11,12,12,14,14],"right_children":[2,4,6,8,10,12,14,16,18,20,22,24,26,-1,28,-1,-1,-1,-1,-1,-1,-1,-1,-1,-1,-1,-1,-1,-1],"split_conditions":[5.2E-1,2.6736248E-1,1.2784703E2,3.4598902E-2,2.1052632E-1,2.0110363E-1,2.3079483E-1,1.1501107E0,1.1294606E0,1.08599946E-1,3.1943402E-1,1.024E0,1.429526E-2,8.088101E-3,2.7253285E-1,2.220388E-3,-1.0067063E-2,-6.0292548E-3,-4.4344217E-2,3.794878E-2,-1.613724E-2,-1.0037758E-2,3.9089423E-2,-2.1066377E-2,1.9762512E-2,1.7759219E-2,-5.145715E-3,-4.491062E-2,-2.459035E-2],"split_indices":[2,9,15,10,4,9,9,13,13,1,9,11,10,0,9,0,0,0,0,0,0,0,0,0,0,0,0,0,0],"split_type":[0,0,0,0,0,0,0,0,0,0,0,0,0,0,0,0,0,0,0,0,0,0,0,0,0,0,0,0,0],"sum_hessian":[7.021843E2,4.379945E2,2.641898E2,3.6231403E2,7.568047E1,2.474649E2,1.6724897E1,3.296113E2,3.2702747E1,3.1889568E1,4.379091E1,4.1094223E1,2.0637068E2,5.1916456E0,1.1533253E1,1.2890451E2,2.0070679E2,1.2095524E1,2.0607225E1,2.6144463E1,5.7451057E0,3.5172703E1,8.618203E0,2.7751257E1,1.3342965E1,1.6901103E2,3.7359642E1,6.3692203E0,5.1640325E0],"tree_param":{"num_deleted":"0","num_feature":"17","num_nodes":"29","size_leaf_vector":"1"}},{"base_weights":[-1.7242093E-2,1.8256652E-3,-4.6476122E-2,1.21122725E-1,-1.0332149E-1,-6.54705E-1,1.5044624E-1,-2.040373E-1,1.2140184E-1,-4.769895E-2,-1.0787074E-2,6.2700408E-3,4.53329E-2,-3.9973177E-2,-7.886202E-3,6.936236E-4,4.3221533E-2],"categories":[],"categories_nodes":[],"categories_segments":[],"categories_sizes":[],"default_left":[1,1,0,0,0,0,0,0,1,0,0,0,0,0,0,0,0],"id":32,"left_children":[1,3,-1,5,7,9,11,13,15,-1,-1,-1,-1,-1,-1,-1,-1],"loss_changes":[1.2079257E1,8.555934E0,0E0,7.3679376E0,8.230522E0,1.3475509E0,5.733191E0,6.7879305E0,9.0027485E0,0E0,0E0,0E0,0E0,0E0,0E0,0E0,0E0],"parents":[2147483647,0,0,1,1,3,3,4,4,5,5,6,6,7,7,8,8],"right_children":[2,4,-1,6,8,10,12,14,16,-1,-1,-1,-1,-1,-1,-1,-1],"split_conditions":[1.15E1,8.5E0,-4.6476122E-2,1.7486659E-1,1.034E0,3.25042E-1,3.2456383E-1,8.695652E-2,2.9466042E-1,-4.769895E-2,-1.0787074E-2,6.2700408E-3,4.53329E-2,-3.9973177E-2,-7.886202E-3,6.936236E-4,4.3221533E-2],"split_indices":[16,16,0,9,11,7,9,4,0,0,0,0,0,0,0,0,0],"split_type":[0,0,0,0,0,0,0,0,0,0,0,0,0,0,0,0,0],"sum_hessian":[6.933066E2,6.800899E2,1.3216699E1,3.1853592E2,3.61554E2,1.0824313E1,3.077116E2,2.4972505E2,1.11828926E2,5.7386184E0,5.085695E0,2.9897546E2,8.736117E0,1.6848627E1,2.3287642E2,9.858117E1,1.3247762E1],"tree_param":{"num_deleted":"0","num_feature":"17","num_nodes":"17","size_leaf_vector":"1"}},{"base_weights":[1.1841426E-2,3.1795453E-2,-7.1528345E-1,1.36901E-2,7.19892E-1,-5.213769E-2,-9.905989E-3,3.189797E-2,-6.3099384E-1,6.553355E-2,1.1950443E-2,3.168077E-2,4.487099E-4,-5.4131118E-3,-5.3714644E-2],"categories":[],"categories_nodes":[],"categories_segments":[],"categories_sizes":[],"default_left":[1,0,1,0,0,0,0,1,0,0,0,0,0,0,0],"id":33,"left_children":[1,3,5,7,9,-1,-1,11,13,-1,-1,-1,-1,-1,-1],"loss_changes":[1.0127959E1,8.447174E0,2.9510498E0,7.796137E0,4.6255255E0,0E0,0E0,8.894003E0,4.111255E0,0E0,0E0,0E0,0E0,0E0,0E0],"parents":[2147483647,0,0,1,1,2,2,3,3,4,4,7,7,8,8],"right_children":[2,4,6,8,10,-1,-1,12,14,-1,-1,-1,-1,-1,-1],"split_conditions":[1.1E1,3.1943402E-1,4.2274478E-1,3.003951E-1,6.57E1,-5.213769E-2,-9.905989E-3,7E0,2.25E-1,6.553355E-2,1.1950443E-2,3.168077E-2,4.487099E-4,-5.4131118E-3,-5.3714644E-2],"split_indices":[16,9,8,9,12,0,0,16,6,0,0,0,0,0,0],"split_type":[0,0,0,0,0,0,0,0,0,0,0,0,0,0,0],"sum_hessian":[6.954757E2,6.778307E2,1.7645008E1,6.614465E2,1.6384237E1,1.0181647E1,7.4633603E0,6.442027E2,1.7243755E1,6.5777407E0,9.806496E0,2.2663992E1,6.215387E2,8.483893E0,8.759862E0],"tree_param":{"num_deleted":"0","num_feature":"17","num_nodes":"15","size_leaf_vector":"1"}},{"base_weights":[-5.4487353E-3,-1.2596577E-1,1.4013582E-1,4.2854556E-1,-1.5629353E-1,5.8551963E-2,1.0216564E-1,-2.2092046E-2,8.69856E-1,-8.8395625E-1,-1.2549654E-1,-4.5971403E-1,1.6564895E-1,8.396814E-2,-4.9712732E-3,-5.4841544E-2,-2.6326338E-2,1.8083282E-3,-1.1690239E-2,-1.0275926E-4,-4.567064E-2,2.56281E-2,1.974163E-3],"categories":[],"categories_nodes":[],"categories_segments":[],"categories_sizes":[],"default_left":[1,0,1,0,0,0,1,0,0,1,0,0,0,0,0,0,0,0,0,0,0,0,0],"id":34,"left_children":[1,3,5,7,9,-1,11,-1,13,15,17,19,21,-1,-1,-1,-1,-1,-1,-1,-1,-1,-1],"loss_changes":[1.2109815E1,6.41685E0,1.211694E1,8.007968E0,7.928301E0,0E0,1.0869822E1,0E0,1.0764943E1,5.182228E-1,6.0550995E0,6.4313965E0,1.1911726E1,0E0,0E0,0E0,0E0,0E0,0E0,0E0,0E0,0E0,0E0],"parents":[2147483647,0,0,1,1,2,2,3,3,4,4,6,6,8,8,9,9,10,10,11,11,12,12],"right_children":[2,4,6,8,10,-1,12,-1,14,16,18,20,22,-1,-1,-1,-1,-1,-1,-1,-1,-1,-1],"split_conditions":[4.4E-1,2.691873E-1,6.5E0,6.57E1,2.8702176E-1,5.8551963E-2,8.695652E-2,-2.2092046E-2,7.45E1,-9.2261913E-4,8.5E0,8.5E0,1.9202898E-1,8.396814E-2,-4.9712732E-3,-5.4841544E-2,-2.6326338E-2,1.8083282E-3,-1.1690239E-2,-1.0275926E-4,-4.567064E-2,2.56281E-2,1.974163E-3],"split_indices":[2,7,16,12,8,0,4,0,12,10,16,16,4,0,0,0,0,0,0,0,0,0,0],"split_type":[0,0,0,0,0,0,0,0,0,0,0,0,0,0,0,0,0,0,0,0,0,0,0],"sum_hessian":[6.88192E2,3.7658453E2,3.1160748E2,1.8847483E1,3.5773706E2,1.0009344E1,3.0159814E2,6.3406878E0,1.2506795E1,1.340093E1,3.4433612E2,2.9982939E1,2.716152E2,6.415898E0,6.0908976E0,7.1023273E0,6.2986026E0,1.3840944E2,2.0592668E2,1.5426408E1,1.455653E1,7.1620476E1,1.9999472E2],"tree_param":{"num_deleted":"0","num_feature":"17","num_nodes":"23","size_leaf_vector":"1"}},{"base_weights":[-1.15719475E-2,-1.0886893E-1,1.2010821E-1,2.3441021E-1,-1.5041164E-1,3.4004563E-1,-1.8205386E-2,-2.6315603E-1,7.4146307E-1,-6.302237E-1,-1.2108304E-1,-3.573983E-2,4.1328764E-1,1.8245637E-1,-3.1598598E-1,6.0609584E-3,-3.266272E-2,7.674777E-2,2.0557055E-2,3.42889E-3,-4.5679446E-2,-2.935405E-3,-1.8878581E-2,2.6598943E-2,-8.230594E-3,1.432256E-3,2.479676E-2,-2.6429364E-2,1.6831845E-2],"categories":[],"categories_nodes":[],"categories_segments":[],"categories_sizes":[],"default_left":[1,1,0,1,0,0,1,1,0,1,1,0,0,0,0,0,0,0,0,0,0,0,0,0,0,0,0,0,0],"id":35,"left_children":[1,3,5,7,9,11,13,15,17,19,21,-1,23,25,27,-1,-1,-1,-1,-1,-1,-1,-1,-1,-1,-1,-1,-1,-1],"loss_changes":[9.027344E0,5.81281E0,9.115219E0,1.1327932E1,5.017974E0,9.231029E0,1.1098884E1,3.5293586E0,5.1659355E0,4.144843E0,5.455621E0,0E0,7.549139E0,5.3390875E0,1.0550027E1,0E0,0E0,0E0,0E0,0E0,0E0,0E0,0E0,0E0,0E0,0E0,0E0,0E0,0E0],"parents":[2147483647,0,0,1,1,2,2,3,3,4,4,5,5,6,6,7,7,8,8,9,9,10,10,12,12,13,13,14,14],"right_children":[2,4,6,8,10,12,14,16,18,20,22,-1,24,26,28,-1,-1,-1,-1,-1,-1,-1,-1,-1,-1,-1,-1,-1,-1],"split_conditions":[4.7E-1,9.534554E-1,2.3529412E-1,9.21E1,1.0029299E0,7.692308E-2,1.2130964E0,1.8469027E-1,1.4545454E-1,8.3333336E-2,3.545756E-1,-3.573983E-2,1.5071872E0,4.171478E0,8.3E-1,6.0609584E-3,-3.266272E-2,7.674777E-2,2.0557055E-2,3.42889E-3,-4.5679446E-2,-2.935405E-3,-1.8878581E-2,2.6598943E-2,-8.230594E-3,1.432256E-3,2.479676E-2,-2.6429364E-2,1.6831845E-2],"split_indices":[2,13,4,3,13,4,13,0,4,4,7,0,14,5,2,0,0,0,0,0,0,0,0,0,0,0,0,0,0],"split_type":[0,0,0,0,0,0,0,0,0,0,0,0,0,0,0,0,0,0,0,0,0,0,0,0,0,0,0,0,0],"sum_hessian":[7.025755E2,4.0413672E2,2.984388E2,4.312663E1,3.6101007E2,1.14658195E2,1.8378062E2,2.2009712E1,2.1116915E1,1.9615454E1,3.4139462E2,6.8755875E0,1.077826E2,1.10026024E2,7.37546E1,1.1433356E1,1.0576355E1,5.134966E0,1.598195E1,5.8779483E0,1.3737507E1,2.7560074E2,6.579391E1,8.948359E1,1.8299017E1,7.454246E1,3.5483562E1,5.5775116E1,1.7979488E1],"tree_param":{"num_deleted":"0","num_feature":"17","num_nodes":"29","size_leaf_vector":"1"}},{"base_weights":[-8.655574E-3,1.6111448E-2,-5.8985025E-1,5.551194E-4,7.275716E-1,2.221854E-3,-7.541353E-1,-1.4732812E-2,7.1374667E-1,6.208086E-2,-4.8905415E-3,-5.2041143E-2,-4.7057363E-1,2.6252827E-2,-1.5811542E-3,9.566742E-3,5.2956503E-2,-4.279887E-2,-1.63248E-3],"categories":[],"categories_nodes":[],"categories_segments":[],"categories_sizes":[],"default_left":[1,1,0,1,0,0,0,0,1,0,0,0,0,0,0,0,0,0,0],"id":36,"left_children":[1,3,5,7,9,-1,11,13,15,-1,-1,-1,17,-1,-1,-1,-1,-1,-1],"loss_changes":[1.0002598E1,7.3798814E0,2.9930515E0,7.136457E0,6.1750193E0,0E0,1.3486061E0,5.8591437E0,2.2757611E0,0E0,0E0,0E0,2.198954E0,0E0,0E0,0E0,0E0,0E0,0E0],"parents":[2147483647,0,0,1,1,2,2,3,3,4,4,6,6,7,7,8,8,12,12],"right_children":[2,4,6,8,10,-1,12,14,16,-1,-1,-1,18,-1,-1,-1,-1,-1,-1],"split_conditions":[1.05E1,1E1,1.3114753E-1,9.3E-1,-2.4083764E-3,2.221854E-3,1.04E0,7E0,-7.2035207E-3,6.208086E-2,-4.8905415E-3,-5.2041143E-2,2.1818182E-1,2.6252827E-2,-1.5811542E-3,9.566742E-3,5.2956503E-2,-4.279887E-2,-1.63248E-3],"split_indices":[16,16,6,2,10,0,11,16,10,0,0,0,6,0,0,0,0,0,0],"split_type":[0,0,0,0,0,0,0,0,0,0,0,0,0,0,0,0,0,0,0],"sum_hessian":[6.9323193E2,6.658305E2,2.7401417E1,6.525628E2,1.3267737E1,5.787193E0,2.1614223E1,6.3982684E2,1.2735948E1,7.8650904E0,5.402647E0,9.419924E0,1.2194301E1,1.8500196E1,6.2132666E2,5.687405E0,7.0485425E0,5.978329E0,6.2159715E0],"tree_param":{"num_deleted":"0","num_feature":"17","num_nodes":"19","size_leaf_vector":"1"}},{"base_weights":[6.1971364E-3,2.2447616E-2,-6.615098E-1,-2.8359968E-2,2.0644212E-1,-3.0968364E-3,-4.671112E-2,-5.28167E-1,-6.6976687E-3,-3.5110658E-1,2.728929E-1,-4.446762E-2,6.424287E-3,-3.4146754E-3,8.281046E-3,2.2300111E-2,-3.9101295E-2,3.1348318E-3,2.3090666E-2],"categories":[],"categories_nodes":[],"categories_segments":[],"categories_sizes":[],"default_left":[1,0,0,0,0,0,0,0,0,0,0,0,0,0,0,0,0,0,0],"id":37,"left_children":[1,3,5,7,9,-1,-1,11,13,15,17,-1,-1,-1,-1,-1,-1,-1,-1],"loss_changes":[7.501047E0,6.3114E0,2.6278672E0,5.7286563E0,5.5078173E0,0E0,0E0,5.3274393E0,5.40812E0,5.842241E0,5.176347E0,0E0,0E0,0E0,0E0,0E0,0E0,0E0,0E0],"parents":[2147483647,0,0,1,1,2,2,3,3,4,4,7,7,8,8,9,9,10,10],"right_children":[2,4,6,8,10,-1,-1,12,14,16,18,-1,-1,-1,-1,-1,-1,-1,-1],"split_conditions":[4.0752622E-1,3.409091E-1,2.0408164E-1,2.9061127E-1,9.2E1,-3.0968364E-3,-4.671112E-2,1.018E0,2.5523484E-1,1.12796E0,1E0,-4.446762E-2,6.424287E-3,-3.4146754E-3,8.281046E-3,2.2300111E-2,-3.9101295E-2,3.1348318E-3,2.3090666E-2],"split_indices":[7,6,6,8,3,0,0,11,9,13,11,0,0,0,0,0,0,0,0],"split_type":[0,0,0,0,0,0,0,0,0,0,0,0,0,0,0,0,0,0,0],"sum_hessian":[6.889367E2,6.7351135E2,1.54253645E1,5.284366E2,1.4507472E2,5.2062535E0,1.0219111E1,2.0980423E1,5.0745618E2,1.4993078E1,1.3008165E2,1.3306785E1,7.6736393E0,3.742743E2,1.3318188E2,5.248841E0,9.744238E0,6.220411E1,6.787754E1],"tree_param":{"num_deleted":"0","num_feature":"17","num_nodes":"19","size_leaf_vector":"1"}},{"base_weights":[1.8403811E-2,6.686006E-2,-3.3259973E-1,8.716533E-3,3.0014443E-1,3.5009584E-1,-4.737303E-1,4.1408733E-1,-4.9928542E-2,-2.9897377E-2,3.8567564E-1,-1.5117556E-2,4.862737E-2,-3.30745E-1,-8.617721E-1,2.9997287E-2,-1.4020569E-2,-1.5044935E-2,9.820521E-4,1.2254376E-2,6.295326E-2,-2.8533873E-3,-3.071698E-2,-5.2928478E-2,-1.993882E-2],"categories":[],"categories_nodes":[],"categories_segments":[],"categories_sizes":[],"default_left":[1,0,0,0,0,0,1,0,1,0,1,0,0,0,1,0,0,0,0,0,0,0,0,0,0],"id":38,"left_children":[1,3,5,7,9,11,13,15,17,-1,19,-1,-1,21,23,-1,-1,-1,-1,-1,-1,-1,-1,-1,-1],"loss_changes":[1.1801195E1,8.262802E0,8.276113E0,1.1641376E1,9.567168E0,6.3838778E0,3.608882E0,8.15657E0,7.477552E0,0E0,1.3392738E1,0E0,0E0,4.071182E0,1.2429342E0,0E0,0E0,0E0,0E0,0E0,0E0,0E0,0E0,0E0,0E0],"parents":[2147483647,0,0,1,1,2,2,3,3,4,4,5,5,6,6,7,7,8,8,10,10,13,13,14,14],"right_children":[2,4,6,8,10,12,14,16,18,-1,20,-1,-1,22,24,-1,-1,-1,-1,-1,-1,-1,-1,-1,-1],"split_conditions":[9.5E0,1.034E0,1.4285715E-1,4.75367E-2,4.0865473E-2,1.1873314E0,3.0819438E0,3.2594866E-1,5.9415698E-2,-2.9897377E-2,2.9466042E-1,-1.5117556E-2,4.862737E-2,2.2233202E-1,3.0769232E-1,2.9997287E-2,-1.4020569E-2,-1.5044935E-2,9.820521E-4,1.2254376E-2,6.295326E-2,-2.8533873E-3,-3.071698E-2,-5.2928478E-2,-1.993882E-2],"split_indices":[16,11,6,1,1,14,5,7,1,0,0,0,0,4,4,0,0,0,0,0,0,0,0,0,0],"split_type":[0,0,0,0,0,0,0,0,0,0,0,0,0,0,0,0,0,0,0,0,0,0,0,0,0],"sum_hessian":[6.9154114E2,6.083655E2,8.317569E1,4.878193E2,1.2054614E2,1.399527E1,6.918042E1,6.088748E1,4.2693182E2,9.961174E0,1.1058497E2,7.0840755E0,6.911194E0,5.1906357E1,1.7274065E1,4.8140495E1,1.2746986E1,9.193912E1,3.349927E2,9.635541E1,1.4229561E1,2.702635E1,2.4880009E1,1.1219037E1,6.055027E0],"tree_param":{"num_deleted":"0","num_feature":"17","num_nodes":"25","size_leaf_vector":"1"}},{"base_weights":[-8.299201E-3,2.6835222E-2,-2.8103393E-1,-6.848695E-2,1.3007139E-1,-7.074631E-1,-1.4931683E-1,4.1834453E-1,-1.1914323E-1,-5.7612514E-1,1.6151874E-1,-8.332209E-3,-5.1429786E-2,4.0906337E-1,-2.9801312E-1,4.9433573E-3,4.779987E-2,-2.7315458E-2,-6.180266E-4,-2.5746804E-3,-4.722466E-2,-2.0382801E-2,1.0180574E-2,6.2232684E-2,-1.9554377E-2,4.2314655E-3,-2.2354407E-2],"categories":[],"categories_nodes":[],"categories_segments":[],"categories_sizes":[],"default_left":[0,0,0,0,0,0,0,0,1,0,0,0,0,0,0,0,0,0,0,0,0,0,0,0,0,0,0],"id":39,"left_children":[1,3,5,7,9,11,13,15,17,19,21,-1,-1,23,25,-1,-1,-1,-1,-1,-1,-1,-1,-1,-1,-1,-1],"loss_changes":[6.480596E0,5.906817E0,4.229296E0,7.7507157E0,6.490519E0,2.9453087E0,5.1229334E0,4.9987183E0,1.2930113E1,2.367086E0,6.709107E0,0E0,0E0,9.237485E0,2.7840934E0,0E0,0E0,0E0,0E0,0E0,0E0,0E0,0E0,0E0,0E0,0E0,0E0],"parents":[2147483647,0,0,1,1,2,2,3,3,4,4,5,5,6,6,7,7,8,8,9,9,10,10,13,13,14,14],"right_children":[2,4,6,8,10,12,14,16,18,20,22,-1,-1,24,26,-1,-1,-1,-1,-1,-1,-1,-1,-1,-1,-1,-1],"split_conditions":[2.87825E-2,1.01E0,2.0634921E-1,4.8208643E-2,-1.3691118E2,1.1619112E0,2.8376645E-1,3.2125633E1,5.9415698E-2,1.9785576E-1,-3.6412016E-2,-8.332209E-3,-5.1429786E-2,2.9003808E-1,2.0689656E-1,4.9433573E-3,4.779987E-2,-2.7315458E-2,-6.180266E-4,-2.5746804E-3,-4.722466E-2,-2.0382801E-2,1.0180574E-2,6.2232684E-2,-1.9554377E-2,4.2314655E-3,-2.2354407E-2],"split_indices":[10,11,6,1,15,13,7,15,1,4,10,0,0,0,4,0,0,0,0,0,0,0,0,0,0,0,0],"split_type":[0,0,0,0,0,0,0,0,0,0,0,0,0,0,0,0,0,0,0,0,0,0,0,0,0,0,0],"sum_hessian":[6.7451654E2,5.9833856E2,7.617798E1,3.1126837E2,2.870702E2,1.6945732E1,5.923225E1,2.8651838E1,2.8261652E2,1.1500016E1,2.755702E2,6.879277E0,1.0066454E1,1.2088152E1,4.7144096E1,1.8715082E1,9.936755E0,5.5696426E1,2.269201E2,5.2139997E0,6.286016E0,1.837811E1,2.5719208E2,5.641383E0,6.4467688E0,1.3338763E1,3.3805332E1],"tree_param":{"num_deleted":"0","num_feature":"17","num_nodes":"27","size_leaf_vector":"1"}},{"base_weights":[-1.0130894E-3,-4.48407E-1,2.6331188E-2,-7.0066017E-1,1.1112426E-1,1.7562124E-1,-2.4106583E-2,-4.1738522E-1,-5.2640248E-2,3.880307E-2,-3.0832604E-2,-1.2106747E-1,2.8617832E-1,1.1879721E-1,-1.3148478E-1,-4.3416243E-2,-4.0265336E-3,-2.4952816E-2,1.5604639E-2,3.9319646E-2,9.771247E-3,7.914803E-3,-3.482365E-2,-1.4579793E-3,-1.567092E-2],"categories":[],"categories_nodes":[],"categories_segments":[],"categories_sizes":[],"default_left":[0,0,0,0,0,0,0,0,0,0,0,0,0,0,0,0,0,0,0,0,0,0,0,0,0],"id":40,"left_children":[1,3,5,7,9,11,13,15,-1,-1,-1,17,19,21,23,-1,-1,-1,-1,-1,-1,-1,-1,-1,-1],"loss_changes":[8.45949E0,5.6994553E0,4.9114313E0,2.3127222E0,6.885499E0,5.4368405E0,7.5039024E0,2.5042958E0,0E0,0E0,0E0,7.5912957E0,5.306674E0,6.8692584E0,5.186886E0,0E0,0E0,0E0,0E0,0E0,0E0,0E0,0E0,0E0,0E0],"parents":[2147483647,0,0,1,1,2,2,3,3,4,4,5,5,6,6,7,7,11,11,12,12,13,13,14,14],"right_children":[2,4,6,8,10,12,14,16,-1,-1,-1,18,20,22,24,-1,-1,-1,-1,-1,-1,-1,-1,-1,-1],"split_conditions":[-3.6412016E-2,3.0769232E-1,2.9281232E-1,1.2492545E0,2.3333333E-1,5.2E-1,2.0689656E-1,1.0777344E0,-5.2640248E-2,3.880307E-2,-3.0832604E-2,4.3334332E-1,-7.123532E1,4.0752622E-1,8.182948E-3,-4.3416243E-2,-4.0265336E-3,-2.4952816E-2,1.5604639E-2,3.9319646E-2,9.771247E-3,7.914803E-3,-3.482365E-2,-1.4579793E-3,-1.567092E-2],"split_indices":[10,4,7,13,6,2,4,13,0,0,0,8,15,7,10,0,0,0,0,0,0,0,0,0,0],"split_type":[0,0,0,0,0,0,0,0,0,0,0,0,0,0,0,0,0,0,0,0,0,0,0,0,0],"sum_hessian":[6.895276E2,3.8828922E1,6.5069867E2,2.6589407E1,1.2239515E1,1.6369582E2,4.8700287E2,1.5946704E1,1.0642702E1,6.3612113E0,5.8783045E0,4.4413525E1,1.1928229E2,2.0889265E2,2.7811023E2,6.144053E0,9.80265E0,2.3635948E1,2.0777576E1,1.7140745E1,1.0214154E2,2.0000833E2,8.884321E0,1.7874095E2,9.936926E1],"tree_param":{"num_deleted":"0","num_feature":"17","num_nodes":"25","size_leaf_vector":"1"}},{"base_weights":[-4.2041752E-2,6.8444455E-1,-5.397502E-2,5.665021E-2,6.8378807E-3,-3.640936E-2,-4.5359895E-1,-5.2312553E-2,7.546494E-1,-8.536925E-1,-7.271815E-2,7.674256E-3,-4.7139986E-3,6.0068633E-2,4.313231E-3,-5.1106334E-2,-2.3159644E-2,-2.2665385E-2,2.644573E-2],"categories":[],"categories_nodes":[],"categories_segments":[],"categories_sizes":[],"default_left":[0,0,1,0,0,1,0,0,0,1,0,0,0,0,0,0,0,0,0],"id":41,"left_children":[1,3,5,-1,-1,7,9,11,13,15,17,-1,-1,-1,-1,-1,-1,-1,-1],"loss_changes":[6.066477E0,2.6242614E0,4.7932634E0,0E0,0E0,8.310116E0,4.3209553E0,5.588689E0,3.7842178E0,4.430647E-1,3.863997E0,0E0,0E0,0E0,0E0,0E0,0E0,0E0,0E0],"parents":[2147483647,0,0,1,1,2,2,5,5,6,6,7,7,8,8,9,9,10,10],"right_children":[2,4,6,-1,-1,8,10,12,14,16,18,-1,-1,-1,-1,-1,-1,-1,-1],"split_conditions":[6E0,9.42E1,1.05E1,5.665021E-2,6.8378807E-3,1E1,1.281E0,-6.9767204E1,-3.007829E-3,1.31422E-3,1.2022325E0,7.674256E-3,-4.7139986E-3,6.0068633E-2,4.313231E-3,-5.1106334E-2,-2.3159644E-2,-2.2665385E-2,2.644573E-2],"split_indices":[16,3,16,0,0,16,11,15,10,10,14,0,0,0,0,0,0,0,0],"split_type":[0,0,0,0,0,0,0,0,0,0,0,0,0,0,0,0,0,0,0],"sum_hessian":[6.944997E2,1.0312755E1,6.841869E2,5.081918E0,5.2308364E0,6.5642456E2,2.776235E1,6.4440356E2,1.2021013E1,1.2934272E1,1.4828078E1,1.0870148E2,5.357021E2,6.727308E0,5.293706E0,7.9064846E0,5.027787E0,9.233533E0,5.594545E0],"tree_param":{"num_deleted":"0","num_feature":"17","num_nodes":"19","size_leaf_vector":"1"}},{"base_weights":[1.2561198E-2,2.8916774E-2,-6.1315614E-1,1.5612602E-2,6.015495E-1,-4.615098E-2,-5.764383E-3,4.388707E-2,-2.4390753E-1,3.302153E-3,5.550545E-2,6.6457647E-3,-3.839152E-3,1.6486326E-2,-2.1864345E-2],"categories":[],"categories_nodes":[],"categories_segments":[],"categories_sizes":[],"default_left":[1,0,1,1,1,0,0,0,1,0,0,0,0,0,0],"id":42,"left_children":[1,3,5,7,9,-1,-1,11,13,-1,-1,-1,-1,-1,-1],"loss_changes":[7.0570445E0,5.104628E0,2.6035776E0,4.8320518E0,4.070324E0,0E0,0E0,6.3846064E0,7.3218718E0,0E0,0E0,0E0,0E0,0E0,0E0],"parents":[2147483647,0,0,1,1,2,2,3,3,4,4,7,7,8,8],"right_children":[2,4,6,8,10,-1,-1,12,14,-1,-1,-1,-1,-1,-1],"split_conditions":[1.1E1,3.1943402E-1,4.2029935E-1,1.56349E0,-5.608423E-3,-4.615098E-2,-5.764383E-3,3.246648E-1,2.8303596E-1,3.302153E-3,5.550545E-2,6.6457647E-3,-3.839152E-3,1.6486326E-2,-2.1864345E-2],"split_indices":[16,9,8,14,10,0,0,7,7,0,0,0,0,0,0],"split_type":[0,0,0,0,0,0,0,0,0,0,0,0,0,0,0],"sum_hessian":[6.8683826E2,6.7027185E2,1.6566399E1,6.560567E2,1.4215126E1,9.684817E0,6.88158E0,5.923515E2,6.3705235E1,7.4744697E0,6.740656E0,3.4080804E2,2.5154344E2,1.5883595E1,4.7821636E1],"tree_param":{"num_deleted":"0","num_feature":"17","num_nodes":"15","size_leaf_vector":"1"}},{"base_weights":[1.0952674E-2,2.6432974E-2,-5.962304E-1,-3.2946506E-1,5.217358E-2,2.000445E-3,-4.346901E-2,-6.9478065E-1,-4.5910113E-2,2.7093127E-1,5.3488165E-3,-4.5071464E-2,-1.0947254E-2,-1.1210399E-2,2.9698992E-2,2.9411176E-2,5.358839E-3,1.238461E-2,-1.4414863E-3],"categories":[],"categories_nodes":[],"categories_segments":[],"categories_sizes":[],"default_left":[1,0,1,1,0,0,0,0,0,1,0,0,0,0,0,0,0,0,0],"id":43,"left_children":[1,3,5,7,9,-1,-1,11,13,15,17,-1,-1,-1,-1,-1,-1,-1,-1],"loss_changes":[6.4501944E0,6.1413217E0,2.9998927E0,4.652858E0,6.393151E0,0E0,0E0,1.7390251E0,3.1603174E0,5.65469E0,4.274742E0,0E0,0E0,0E0,0E0,0E0,0E0,0E0,0E0],"parents":[2147483647,0,0,1,1,2,2,3,3,4,4,7,7,8,8,9,9,10,10],"right_children":[2,4,6,8,10,-1,-1,12,14,16,18,-1,-1,-1,-1,-1,-1,-1,-1],"split_conditions":[1.1E1,9E-2,1.2994185E-1,-3.8355219E-3,-6.9767204E1,2.000445E-3,-4.346901E-2,8.110241E-2,2.689642E-1,1.2706401E0,4.7817953E-2,-4.5071464E-2,-1.0947254E-2,-1.1210399E-2,2.9698992E-2,2.9411176E-2,5.358839E-3,1.238461E-2,-1.4414863E-3],"split_indices":[16,2,0,10,15,0,0,1,9,13,1,0,0,0,0,0,0,0,0],"split_type":[0,0,0,0,0,0,0,0,0,0,0,0,0,0,0,0,0,0,0],"sum_hessian":[6.835597E2,6.674981E2,1.6061584E1,4.42253E1,6.232728E2,5.080729E0,1.0980855E1,1.8692598E1,2.55327E1,1.0904522E2,5.142276E2,1.2409092E1,6.2835064E0,2.0476717E1,5.055983E0,3.623801E1,7.2807205E1,6.2787197E1,4.5144043E2],"tree_param":{"num_deleted":"0","num_feature":"17","num_nodes":"19","size_leaf_vector":"1"}},{"base_weights":[-8.1218695E-3,6.3691363E-3,-5.828345E-1,-7.0882123E-3,5.1274484E-1,-4.508736E-2,-4.793578E-3,-3.8182218E-2,5.7541565E-3,9.0532684E-1,-1.383705E-2,-4.3586353E-4,2.969867E-2,1.23845255E-2,7.395788E-2],"categories":[],"categories_nodes":[],"categories_segments":[],"categories_sizes":[],"default_left":[1,1,1,0,0,0,0,0,0,0,0,0,0,0,0],"id":44,"left_children":[1,3,5,7,9,-1,-1,-1,11,13,-1,-1,-1,-1,-1],"loss_changes":[5.6642466E0,4.5281634E0,2.5112538E0,6.2979794E0,5.58212E0,0E0,0E0,0E0,5.4355354E0,4.0576086E0,0E0,0E0,0E0,0E0,0E0],"parents":[2147483647,0,0,1,1,2,2,3,3,4,4,8,8,9,9],"right_children":[2,4,6,8,10,-1,-1,-1,12,14,-1,-1,-1,-1,-1],"split_conditions":[1.1E1,3.5602137E-1,4.2029935E-1,2.5490835E-1,3.8515735E-1,-4.508736E-2,-4.793578E-3,-3.8182218E-2,3.1943402E-1,2.5097233E-1,-1.383705E-2,-4.3586353E-4,2.969867E-2,1.23845255E-2,7.395788E-2],"split_indices":[16,0,8,8,0,0,0,0,9,7,0,0,0,0,0],"split_type":[0,0,0,0,0,0,0,0,0,0,0,0,0,0,0],"sum_hessian":[6.786858E2,6.629586E2,1.5727155E1,6.4675653E2,1.6202084E1,8.988678E0,6.7384768E0,9.8194685E0,6.369371E2,1.0723135E1,5.478947E0,6.2260486E2,1.4332206E1,5.663802E0,5.059333E0],"tree_param":{"num_deleted":"0","num_feature":"17","num_nodes":"15","size_leaf_vector":"1"}},{"base_weights":[-3.4127023E-2,-4.782338E-2,5.092118E-1,-1.7876516E-1,4.456652E-3,5.1169045E-2,6.28011E-3,-3.0880395E-1,2.5651443E-1,4.8153475E-1,-2.671732E-2,-3.0797586E-2,-7.227182E-3,2.2137003E-2,-3.5227977E-2,-1.8613145E-2,4.4247027E-2,1.6777093E-2,-3.4518975E-3],"categories":[],"categories_nodes":[],"categories_segments":[],"categories_sizes":[],"default_left":[0,1,0,1,1,0,0,0,1,0,0,0,0,0,0,0,0,0,0],"id":45,"left_children":[1,3,5,7,9,-1,-1,11,13,15,17,-1,-1,-1,-1,-1,-1,-1,-1],"loss_changes":[5.1376014E0,4.5950546E0,3.220656E0,1.0919889E1,7.160569E0,0E0,0E0,7.3738165E0,8.294514E0,1.0500551E1,6.9538784E0,0E0,0E0,0E0,0E0,0E0,0E0,0E0,0E0],"parents":[2147483647,0,0,1,1,2,2,3,3,4,4,7,7,8,8,9,9,10,10],"right_children":[2,4,6,8,10,-1,-1,12,14,16,18,-1,-1,-1,-1,-1,-1,-1,-1],"split_conditions":[3.1943402E-1,9.24E1,6.57E1,1.4305025E0,9.445532E-1,5.1169045E-2,6.28011E-3,2.180845E-1,2.0369697E-2,2.9052746E-1,9.3E1,-3.0797586E-2,-7.227182E-3,2.2137003E-2,-3.5227977E-2,-1.8613145E-2,4.4247027E-2,1.6777093E-2,-3.4518975E-3],"split_indices":[9,3,12,14,13,0,0,9,10,7,3,0,0,0,0,0,0,0,0],"split_type":[0,0,0,0,0,0,0,0,0,0,0,0,0,0,0,0,0,0,0],"sum_hessian":[6.8610205E2,6.7012177E2,1.5980287E1,1.9052045E2,4.7960132E2,6.1155605E0,9.864726E0,1.4691922E2,4.3601223E1,2.8530561E1,4.5107077E2,5.023526E1,9.668396E1,3.697581E1,6.6254115E0,9.17953E0,1.935103E1,4.6459015E1,4.0461176E2],"tree_param":{"num_deleted":"0","num_feature":"17","num_nodes":"19","size_leaf_vector":"1"}},{"base_weights":[8.328257E-3,2.5128705E-2,-6.876994E-1,1.14478525E-2,8.1197125E-1,-1.4594659E-2,-4.5466535E-2,-2.8887752E-1,4.278466E-2,6.999578E-2,7.2711534E-3,-2.6658783E-2,1.30511215E-2,-7.9171004E-4,1.2477464E-2],"categories":[],"categories_nodes":[],"categories_segments":[],"categories_sizes":[],"default_left":[1,1,0,1,1,0,0,1,0,0,0,0,0,0,0],"id":46,"left_children":[1,3,5,7,9,-1,-1,11,13,-1,-1,-1,-1,-1,-1],"loss_changes":[8.104579E0,7.270494E0,1.1675658E0,6.277641E0,4.3200493E0,0E0,0E0,8.606496E0,7.3209085E0,0E0,0E0,0E0,0E0,0E0,0E0],"parents":[2147483647,0,0,1,1,2,2,3,3,4,4,7,7,8,8],"right_children":[2,4,6,8,10,-1,-1,12,14,-1,-1,-1,-1,-1,-1],"split_conditions":[1.1E1,9.82E1,1.7102994E-1,-3.725175E-2,-4.179628E-3,-1.4594659E-2,-4.5466535E-2,4.6304306E-1,3.409091E-1,6.999578E-2,7.2711534E-3,-2.6658783E-2,1.30511215E-2,-7.9171004E-4,1.2477464E-2],"split_indices":[16,3,0,10,10,0,0,8,6,0,0,0,0,0,0],"split_type":[0,0,0,0,0,0,0,0,0,0,0,0,0,0,0],"sum_hessian":[6.906018E2,6.752664E2,1.5335424E1,6.647234E2,1.0543014E1,6.3364058E0,8.999019E0,6.202929E1,6.026941E2,5.0172153E0,5.5257983E0,4.2969917E1,1.9059372E1,4.702883E2,1.324058E2],"tree_param":{"num_deleted":"0","num_feature":"17","num_nodes":"15","size_leaf_vector":"1"}},{"base_weights":[1.0425757E-3,3.838889E-2,-2.894988E-1,-8.586068E-2,1.2944326E-1,-1.4019519E-1,-8.204998E-1,-1.7391782E-1,3.4457353E-1,5.1303494E-1,9.00779E-2,1.2147452E-1,-4.7597635E-1,-5.137952E-2,-1.9597154E-2,-6.9726408E-3,-5.2268546E-2,3.0058457E-3,5.5125263E-2,7.330918E-3,4.7359582E-2,6.5166443E-3,-2.3133243E-2,-1.3306707E-2,3.2586217E-2,-4.1869994E-2,1.2326682E-2],"categories":[],"categories_nodes":[],"categories_segments":[],"categories_sizes":[],"default_left":[1,0,1,0,0,1,0,0,1,0,1,1,0,0,0,0,0,0,0,0,0,0,0,0,0,0,0],"id":47,"left_children":[1,3,5,7,9,11,13,15,17,19,21,23,25,-1,-1,-1,-1,-1,-1,-1,-1,-1,-1,-1,-1,-1,-1],"loss_changes":[7.5024166E0,6.9422846E0,6.1285825E0,9.903158E0,5.2985296E0,5.564763E0,1.1128874E0,6.3493905E0,9.515052E0,5.067869E0,7.2299337E0,7.5770283E0,7.42778E0,0E0,0E0,0E0,0E0,0E0,0E0,0E0,0E0,0E0,0E0,0E0,0E0,0E0,0E0],"parents":[2147483647,0,0,1,1,2,2,3,3,4,4,5,5,6,6,7,7,8,8,9,9,10,10,11,11,12,12],"right_children":[2,4,6,8,10,12,14,16,18,20,22,24,26,-1,-1,-1,-1,-1,-1,-1,-1,-1,-1,-1,-1,-1,-1],"split_conditions":[9.5E0,4.7E-1,3.1482744E0,2.6736248E-1,9.7E-1,3.3605996E-1,4.327799E0,3.9018166E-1,1.074968E-2,3.8568132E0,2.87825E-2,1.282005E0,3.7752765E-1,-5.137952E-2,-1.9597154E-2,-6.9726408E-3,-5.2268546E-2,3.0058457E-3,5.5125263E-2,7.330918E-3,4.7359582E-2,6.5166443E-3,-2.3133243E-2,-1.3306707E-2,3.2586217E-2,-4.1869994E-2,1.2326682E-2],"split_indices":[16,2,5,9,11,7,5,7,10,5,10,14,7,0,0,0,0,0,0,0,0,0,0,0,0,0,0],"split_type":[0,0,0,0,0,0,0,0,0,0,0,0,0,0,0,0,0,0,0,0,0,0,0,0,0,0,0],"sum_hessian":[6.894014E2,6.116478E2,7.775359E1,2.5869662E2,3.5295117E2,6.167595E1,1.6077648E1,2.1525604E2,4.3440586E1,3.1729897E1,3.2122128E2,3.5022007E1,2.6653942E1,9.897232E0,6.1804156E0,2.0818268E2,7.0733676E0,3.23709E1,1.1069689E1,1.7932804E1,1.3797093E1,3.0012787E2,2.1093418E1,2.0520079E1,1.4501927E1,1.7660538E1,8.993404E0],"tree_param":{"num_deleted":"0","num_feature":"17","num_nodes":"27","size_leaf_vector":"1"}},{"base_weights":[3.0779736E-2,1.2014258E-1,-7.13932E-2,-3.546284E-1,1.6943675E-1,-4.3023032E-1,1.6738504E-2,-5.2085084E-1,1.2286793E-2,5.4993983E-2,1.4966959E-1,-1.2520456E-1,-7.332585E-1,-8.22442E-2,3.5877356E-1,-4.008663E-3,-3.9359435E-2,4.060733E-2,6.294049E-3,-4.2038582E-2,1.1206412E-2,1.1300024E-3,-4.605186E-2,-2.5045169E-3,-5.353945E-2,4.7108937E-2,-4.3674742E-4],"categories":[],"categories_nodes":[],"categories_segments":[],"categories_sizes":[],"default_left":[0,0,1,0,0,1,1,1,0,0,0,0,0,0,1,0,0,0,0,0,0,0,0,0,0,0,0],"id":48,"left_children":[1,3,5,7,9,11,13,15,-1,-1,17,19,21,23,25,-1,-1,-1,-1,-1,-1,-1,-1,-1,-1,-1,-1],"loss_changes":[6.3639417E0,8.758684E0,1.0297363E1,3.6491218E0,6.040845E0,5.8418236E0,8.905974E0,3.2177968E0,0E0,0E0,5.12256E0,8.486968E0,4.5622845E0,6.4355216E0,1.2665068E1,0E0,0E0,0E0,0E0,0E0,0E0,0E0,0E0,0E0,0E0,0E0,0E0],"parents":[2147483647,0,0,1,1,2,2,3,3,4,4,5,5,6,6,7,7,10,10,11,11,12,12,13,13,14,14],"right_children":[2,4,6,8,10,12,14,16,-1,-1,18,20,22,24,26,-1,-1,-1,-1,-1,-1,-1,-1,-1,-1,-1,-1],"split_conditions":[7.62E1,1.9101448E-1,-1.9731963E-2,3.888889E-1,8.94E1,1.2219528E0,2.9166666E-1,1.5789473E-1,1.2286793E-2,5.4993983E-2,1.9552076E-1,1.1569985E0,1.5079366E-1,1.5888034E2,1.1492813E0,-4.008663E-3,-3.9359435E-2,4.060733E-2,6.294049E-3,-4.2038582E-2,1.1206412E-2,1.1300024E-3,-4.605186E-2,-2.5045169E-3,-5.353945E-2,4.7108937E-2,-4.3674742E-4],"split_indices":[12,9,10,6,3,13,4,4,0,0,9,14,4,15,14,0,0,0,0,0,0,0,0,0,0,0,0],"split_type":[0,0,0,0,0,0,0,0,0,0,0,0,0,0,0,0,0,0,0,0,0,0,0,0,0,0,0],"sum_hessian":[6.950615E2,3.7068015E2,3.243814E2,3.4283978E1,3.3639618E2,6.3194984E1,2.6118643E2,2.6953754E1,7.3302236E0,5.861322E0,3.3053485E2,3.2197956E1,3.0997026E1,2.031544E2,5.803201E1,1.0643781E1,1.6309973E1,1.0308849E1,3.2022598E2,1.01008215E1,2.2097134E1,6.343285E0,2.4653742E1,1.9777225E2,5.382161E0,2.182384E1,3.6208168E1],"tree_param":{"num_deleted":"0","num_feature":"17","num_nodes":"27","size_leaf_vector":"1"}},{"base_weights":[-7.588993E-3,-5.186371E-1,2.1258269E-2,-2.786945E-1,-4.9216937E-2,6.826488E-2,-1.4936373E-1,-5.1469624E-1,6.088547E-3,-4.9124914E-1,9.799022E-2,-3.7881476E-1,1.6731316E-2,5.5927956E-3,-4.2349298E-2,3.77111E-3,-3.684647E-2,4.0666866E-3,4.9556382E-2,-2.3660362E-2,2.3045864E-2,-3.7359956E-3,3.868125E-2],"categories":[],"categories_nodes":[],"categories_segments":[],"categories_sizes":[],"default_left":[0,1,0,0,0,0,0,0,0,0,0,0,1,0,0,0,0,0,0,0,0,0,0],"id":49,"left_children":[1,3,5,7,-1,9,11,13,-1,15,17,19,21,-1,-1,-1,-1,-1,-1,-1,-1,-1,-1],"loss_changes":[1.0191561E1,3.8530798E0,5.260544E0,2.4984183E0,0E0,8.595488E0,5.40699E0,3.510664E0,0E0,3.6880918E0,7.1914244E0,4.9381504E0,5.814156E0,0E0,0E0,0E0,0E0,0E0,0E0,0E0,0E0,0E0,0E0],"parents":[2147483647,0,0,1,1,2,2,3,3,5,5,6,6,7,7,9,9,10,10,11,11,12,12],"right_children":[2,4,6,8,-1,10,12,14,-1,16,18,20,22,-1,-1,-1,-1,-1,-1,-1,-1,-1,-1],"split_conditions":[1.840705E-1,9.041512E-3,4.988211E-1,1.2844961E0,-4.9216937E-2,-3.6412016E-2,9.98E-1,1.0239522E0,6.088547E-3,-5.609457E-2,4.9313247E-1,1.598442E0,5.987431E-1,5.5927956E-3,-4.2349298E-2,3.77111E-3,-3.684647E-2,4.0666866E-3,4.9556382E-2,-2.3660362E-2,2.3045864E-2,-3.7359956E-3,3.868125E-2],"split_indices":[9,10,8,14,0,10,11,14,0,10,8,14,8,0,0,0,0,0,0,0,0,0,0],"split_type":[0,0,0,0,0,0,0,0,0,0,0,0,0,0,0,0,0,0,0,0,0,0,0],"sum_hessian":[6.895644E2,3.5937065E1,6.536274E2,2.477218E1,1.1164885E1,5.1291766E2,1.4070967E2,1.5407191E1,9.364989E0,2.5091894E1,4.8782578E2,5.854807E1,8.2161606E1,5.5693064E0,9.837885E0,7.79815E0,1.7293745E1,4.7996576E2,7.8600187E0,5.3024208E1,5.52386E0,7.410874E1,8.052864E0],"tree_param":{"num_deleted":"0","num_feature":"17","num_nodes":"23","size_leaf_vector":"1"}},{"base_weights":[5.2389186E-3,3.584555E-2,-3.2961288E-1,5.31996E-2,-4.5205864E-1,-1.1500445E-1,-7.922917E-1,-4.3729443E-2,6.253699E-2,-4.999349E-2,-2.3309808E-2,3.0947654E-2,-2.5798726E-1,-5.1625993E-2,-7.7560144E-3,1.8105173E-2,1.2176279E-3,2.5078062E-2,-3.579418E-2,-3.0949622E-2,2.6808875E-3],"categories":[],"categories_nodes":[],"categories_segments":[],"categories_sizes":[],"default_left":[0,0,0,0,1,1,1,0,0,0,0,0,0,0,0,0,0,0,0,0,0],"id":50,"left_children":[1,3,5,7,9,11,13,-1,15,-1,17,-1,19,-1,-1,-1,-1,-1,-1,-1,-1],"loss_changes":[7.064801E0,5.370623E0,5.6414247E0,5.3449E0,5.095452E0,4.4213204E0,2.6139526E0,0E0,6.9174385E0,0E0,5.1753244E0,0E0,3.9359052E0,0E0,0E0,0E0,0E0,0E0,0E0,0E0,0E0],"parents":[2147483647,0,0,1,1,2,2,3,3,4,4,5,5,6,6,8,8,10,10,12,12],"right_children":[2,4,6,8,10,12,14,-1,16,-1,18,-1,20,-1,-1,-1,-1,-1,-1,-1,-1],"split_conditions":[3.624937E-2,9.82E1,1.024E0,2.1448484E-1,9.29E1,2.1932732E-2,3.8844762E0,-4.3729443E-2,2.691873E-1,-4.999349E-2,1.2485374E0,3.0947654E-2,9.88E-1,-5.1625993E-2,-7.7560144E-3,1.8105173E-2,1.2176279E-3,2.5078062E-2,-3.579418E-2,-3.0949622E-2,2.6808875E-3],"split_indices":[10,12,11,7,3,1,5,0,7,0,14,0,11,0,0,0,0,0,0,0,0],"split_type":[0,0,0,0,0,0,0,0,0,0,0,0,0,0,0,0,0,0,0,0,0],"sum_hessian":[6.871844E2,6.3045184E2,5.6732567E1,6.0965814E2,2.0793697E1,3.9608955E1,1.7123611E1,5.1512446E0,6.045069E2,8.544435E0,1.2249263E1,5.915374E0,3.3693584E1,1.1984652E1,5.1389594E0,6.738349E1,5.371234E2,7.1251945E0,5.1240683E0,1.5152465E1,1.8541119E1],"tree_param":{"num_deleted":"0","num_feature":"17","num_nodes":"21","size_leaf_vector":"1"}},{"base_weights":[4.1957326E-2,-2.3276561E-1,7.023825E-2,-5.1047695E-1,6.191304E-2,-2.9360324E-1,9.6916966E-2,-6.310058E-1,6.641523E-3,3.8473824E-1,-2.9980293E-1,4.5809153E-1,-5.5068296E-1,5.402975E-1,7.3162675E-2,-1.1418916E-2,-4.0490143E-2,3.306603E-2,-9.359422E-3,-2.9753748E-2,1.2922533E-2,-1.4637284E-2,5.671666E-2,-5.3144988E-2,-1.7159136E-2,6.3298563E-3,6.437425E-2,-9.941686E-3,5.91741E-3],"categories":[],"categories_nodes":[],"categories_segments":[],"categories_sizes":[],"default_left":[1,1,0,1,1,1,0,1,0,0,0,0,0,0,0,0,0,0,0,0,0,0,0,0,0,0,0,0,0],"id":51,"left_children":[1,3,5,7,9,11,13,15,-1,17,19,21,23,25,27,-1,-1,-1,-1,-1,-1,-1,-1,-1,-1,-1,-1,-1,-1],"loss_changes":[5.305824E0,5.250676E0,6.0275817E0,2.6379623E0,3.8326488E0,8.4593115E0,6.0329356E0,1.8247614E0,0E0,2.8539543E0,2.7210965E0,6.104644E0,3.0470448E0,8.851379E0,6.7635345E0,0E0,0E0,0E0,0E0,0E0,0E0,0E0,0E0,0E0,0E0,0E0,0E0,0E0,0E0],"parents":[2147483647,0,0,1,1,2,2,3,3,4,4,5,5,6,6,7,7,9,9,10,10,11,11,12,12,13,13,14,14],"right_children":[2,4,6,8,10,12,14,16,-1,18,20,22,24,26,28,-1,-1,-1,-1,-1,-1,-1,-1,-1,-1,-1,-1,-1,-1],"split_conditions":[-3.725175E-2,9.39E1,-1.2241293E2,1.07912816E-1,-5.9762005E-2,2.8989086E-1,-9.78373E1,9.12E1,6.641523E-3,9.0585805E-2,2.642524E-1,2.7372438E-1,-1.1103238E-2,2.9545453E-1,2.0132335E-1,-1.1418916E-2,-4.0490143E-2,3.306603E-2,-9.359422E-3,-2.9753748E-2,1.2922533E-2,-1.4637284E-2,5.671666E-2,-5.3144988E-2,-1.7159136E-2,6.3298563E-3,6.437425E-2,-9.941686E-3,5.91741E-3],"split_indices":[10,3,15,1,10,7,15,3,0,1,0,7,10,6,9,0,0,0,0,0,0,0,0,0,0,0,0,0,0],"split_type":[0,0,0,0,0,0,0,0,0,0,0,0,0,0,0,0,0,0,0,0,0,0,0,0,0,0,0,0,0],"sum_hessian":[6.79807E2,6.2775063E1,6.17032E2,3.1940937E1,3.0834126E1,4.1469543E1,5.7556244E2,2.691695E1,5.023988E0,1.625932E1,1.4574806E1,1.0368985E1,3.110056E1,2.816218E1,5.474002E2,8.977684E0,1.7939266E1,1.0854032E1,5.405287E0,9.489599E0,5.0852065E0,5.1822195E0,5.186766E0,7.7780232E0,2.3322536E1,1.8878838E1,9.283342E0,7.749785E1,4.6990237E2],"tree_param":{"num_deleted":"0","num_feature":"17","num_nodes":"29","size_leaf_vector":"1"}},{"base_weights":[-2.2751514E-2,2.4077919E-1,-5.1979378E-2,-4.258978E-2,3.423817E-1,-3.7244117E-1,-1.9564446E-2,-3.0039523E-2,4.772412E-1,-5.0431645E-1,3.434215E-2,-7.906247E-2,1.7741536E-1,4.166803E-2,4.287167E-3,-2.0991394E-3,-3.0221952E-2,-2.855669E-2,-2.6515783E-3,4.0939176E-3,3.435192E-2],"categories":[],"categories_nodes":[],"categories_segments":[],"categories_sizes":[],"default_left":[0,0,1,0,1,1,0,0,0,1,0,0,0,0,0,0,0,0,0,0,0],"id":52,"left_children":[1,3,5,-1,7,9,11,-1,13,15,-1,17,19,-1,-1,-1,-1,-1,-1,-1,-1],"loss_changes":[5.3153944E0,7.9413824E0,6.4388914E0,0E0,8.396928E0,8.3016815E0,6.631178E0,0E0,7.7838144E0,2.3456001E0,0E0,5.532959E0,6.335811E0,0E0,0E0,0E0,0E0,0E0,0E0,0E0,0E0],"parents":[2147483647,0,0,1,1,2,2,4,4,5,5,6,6,8,8,9,9,11,11,12,12],"right_children":[2,4,6,-1,8,10,12,-1,14,16,-1,18,20,-1,-1,-1,-1,-1,-1,-1,-1],"split_conditions":[4.3181118E-2,5E-2,-3.725175E-2,-4.258978E-2,1.007414E0,9.64E1,1.034E0,-3.0039523E-2,1.2460508E0,9.01E1,3.434215E-2,8.3333336E-2,2.6736248E-1,4.166803E-2,4.287167E-3,-2.0991394E-3,-3.0221952E-2,-2.855669E-2,-2.6515783E-3,4.0939176E-3,3.435192E-2],"split_indices":[1,2,10,0,14,3,11,0,14,3,0,4,9,0,0,0,0,0,0,0,0],"split_type":[0,0,0,0,0,0,0,0,0,0,0,0,0,0,0,0,0,0,0,0,0],"sum_hessian":[6.874674E2,6.791143E1,6.1955597E2,5.149804E0,6.2761627E1,5.594826E1,5.636077E2,7.4191422E0,5.5342484E1,5.022004E1,5.72822E0,4.333211E2,1.3028662E2,2.8389662E1,2.6952824E1,9.192297E0,4.1027744E1,2.0719152E1,4.1260196E2,1.1069562E2,1.9591003E1],"tree_param":{"num_deleted":"0","num_feature":"17","num_nodes":"21","size_leaf_vector":"1"}}]},"name":"gbtree"},"learner_model_param":{"base_score":"[2.1297522E-1]","boost_from_average":"1","num_class":"0","num_feature":"17","num_target":"1"},"objective":{"name":"binary:logistic","reg_loss_param":{"scale_pos_weight":"1"}}},"version":[3,2,0]}