{"learner":{"attributes":{"best_iteration":"12","best_score":"0.5597013682961129"},"feature_names":["home_park_factor","temp_f","air_density_rho","roof_closed_flag","wind_mph","home_lineup_wrc_plus","home_lineup_xwoba_vs_rhp","home_lineup_xwoba_vs_lhp","home_team_barrel_pct_15g","home_team_woba_15g","home_team_xwoba_off_15g","away_sp_k_pct","away_sp_xwoba_against","away_sp_gb_pct","away_sp_ff_velo","away_sp_whiff_pctl","away_sp_bb_pct","away_bullpen_vulnerability","away_bp_fatigue_72h","elo_diff","home_pyth_win_pct_15g","home_rolling_rd_15g","ump_rpg_above_avg","home_catcher_framing_runs"],"feature_types":["float","float","float","float","float","float","float","float","float","float","float","float","float","float","float","float","float","float","float","float","float","float","float","float"],"gradient_booster":{"model":{"cats":{"enc":[],"feature_segments":[],"sorted_idx":[]},"gbtree_model_param":{"num_parallel_tree":"1","num_trees":"53"},"iteration_indptr":[0,1,2,3,4,5,6,7,8,9,10,11,12,13,14,15,16,17,18,19,20,21,22,23,24,25,26,27,28,29,30,31,32,33,34,35,36,37,38,39,40,41,42,43,44,45,46,47,48,49,50,51,52,53],"tree_info":[0,0,0,0,0,0,0,0,0,0,0,0,0,0,0,0,0,0,0,0,0,0,0,0,0,0,0,0,0,0,0,0,0,0,0,0,0,0,0,0,0,0,0,0,0,0,0,0,0,0,0,0,0],"trees":[{"base_weights":[-1.0838242E-2,-3.643344E-1,1.5100543E-1,-4.4712162E-1,3.308348E-1,4.2771387E-1,-3.7333317E-2,-8.433976E-1,-3.0209267E-1,5.8903188E-2,-1.6201999E-2,-1.08599365E-1,5.5741936E-1,-1.2340719E-1,5.257709E-1,-4.9312647E-2,-1.2065051E-2,2.0444665E-2,-1.8564345E-2,1.5535458E-2,-3.0168176E-2,2.2723649E-2,8.202282E-2,4.9010657E-2,-8.874728E-3,-2.9940696E-3,6.4456455E-2],"categories":[],"categories_nodes":[],"categories_segments":[],"categories_sizes":[],"default_left":[0,1,1,0,0,0,0,0,0,0,0,0,0,0,0,0,0,0,0,0,0,0,0,0,0,0,0],"id":0,"left_children":[1,3,5,7,9,11,13,15,17,-1,-1,19,21,23,25,-1,-1,-1,-1,-1,-1,-1,-1,-1,-1,-1,-1],"loss_changes":[2.2394915E1,7.2223797E0,1.4011799E1,6.082531E0,7.9584446E0,7.631939E0,7.854474E0,2.2551498E0,4.199828E0,0E0,0E0,4.758577E0,9.044699E0,8.543698E0,9.688612E0,0E0,0E0,0E0,0E0,0E0,0E0,0E0,0E0,0E0,0E0,0E0,0E0],"parents":[2147483647,0,0,1,1,2,2,3,3,4,4,5,5,6,6,7,7,8,8,11,11,12,12,13,13,14,14],"right_children":[2,4,6,8,10,12,14,16,18,-1,-1,20,22,24,26,-1,-1,-1,-1,-1,-1,-1,-1,-1,-1,-1,-1],"split_conditions":[3.164E-1,1.475342E0,9.27E1,9.78E-1,3.120036E-1,-1.3195512E0,1.15570314E-1,1.0364077E-1,-1.9333333E0,5.8903188E-2,-1.6201999E-2,4.9852002E-1,3.271E-1,2.8256345E-1,4.3835813E-1,-4.9312647E-2,-1.2065051E-2,2.0444665E-2,-1.8564345E-2,1.5535458E-2,-3.0168176E-2,2.2723649E-2,8.202282E-2,4.9010657E-2,-8.874728E-3,-2.9940696E-3,6.4456455E-2],"split_indices":[6,17,14,0,9,22,16,16,21,0,0,23,6,10,13,0,0,0,0,0,0,0,0,0,0,0,0],"split_type":[0,0,0,0,0,0,0,0,0,0,0,0,0,0,0,0,0,0,0,0,0,0,0,0,0,0,0],"sum_hessian":[3.894818E2,1.2192474E2,2.6755707E2,1.09268814E2,1.26559305E1,1.0784279E2,1.5971428E2,2.798565E1,8.1283165E1,5.169324E0,7.486607E0,2.10338E1,8.680899E1,1.3921524E2,2.0499043E1,2.2103315E1,5.882334E0,6.773597E0,7.450957E1,1.1586415E1,9.447385E0,8.057015E1,6.238839E0,5.7040815E0,1.3351115E2,1.2121173E1,8.37787E0],"tree_param":{"num_deleted":"0","num_feature":"24","num_nodes":"27","size_leaf_vector":"1"}},{"base_weights":[1.6351406E-2,-3.1229857E-1,1.7895576E-1,-1.1910043E-1,-5.486238E-1,-6.249527E-4,4.2281365E-1,-2.3589769E-1,4.188349E-2,5.8638807E-2,-7.301084E-1,-1.1470187E-1,3.1721255E-1,5.2342457E-1,-3.6527455E-1,-2.505736E-2,9.672805E-3,2.9913533E-2,-2.0433912E-2,-4.9982637E-2,-2.3368875E-2,-8.819639E-3,2.6856778E-2,3.9475054E-2,-2.3107415E-2,4.522599E-2,1.625558E-2,1.3650744E-2,-4.334174E-2],"categories":[],"categories_nodes":[],"categories_segments":[],"categories_sizes":[],"default_left":[0,0,0,0,1,0,1,0,0,0,0,1,1,1,0,0,0,0,0,0,0,0,0,0,0,0,0,0,0],"id":1,"left_children":[1,3,5,7,9,11,13,15,-1,17,19,21,23,25,27,-1,-1,-1,-1,-1,-1,-1,-1,-1,-1,-1,-1,-1,-1],"loss_changes":[2.0860643E1,5.83479E0,1.1433767E1,8.285673E0,6.418165E0,5.524291E0,8.970854E0,7.531842E0,0E0,3.8345273E0,2.6920986E0,4.603182E0,1.5177263E1,7.157995E0,4.438397E0,0E0,0E0,0E0,0E0,0E0,0E0,0E0,0E0,0E0,0E0,0E0,0E0,0E0,0E0],"parents":[2147483647,0,0,1,1,2,2,3,3,4,4,5,5,6,6,7,7,9,9,10,10,11,11,12,12,13,13,14,14],"right_children":[2,4,6,8,10,12,14,16,-1,18,20,22,24,26,28,-1,-1,-1,-1,-1,-1,-1,-1,-1,-1,-1,-1,-1,-1],"split_conditions":[3.169E-1,-2E-1,1.2593791E0,3.23E-1,9E-2,3.263E-1,2.873381E-1,1.01E0,4.188349E-2,8E0,5.5045873E-2,2.4551117E0,2.513155E-1,3.1076738E-1,9.48E1,-2.505736E-2,9.672805E-3,2.9913533E-2,-2.0433912E-2,-4.9982637E-2,-2.3368875E-2,-8.819639E-3,2.6856778E-2,3.9475054E-2,-2.3107415E-2,4.522599E-2,1.625558E-2,1.3650744E-2,-4.334174E-2],"split_indices":[6,21,17,7,15,6,11,0,0,4,8,22,11,12,14,0,0,0,0,0,0,0,0,0,0,0,0,0,0],"split_type":[0,0,0,0,0,0,0,0,0,0,0,0,0,0,0,0,0,0,0,0,0,0,0,0,0,0,0,0,0],"sum_hessian":[3.8831116E2,1.2822562E2,2.6008554E2,7.1377655E1,5.6847954E1,1.5035744E2,1.09728096E2,6.42837E1,7.093958E0,1.3236017E1,4.361194E1,1.11115456E2,3.9241978E1,9.760343E1,1.2124663E1,3.96322E1,2.46515E1,6.0126815E0,7.223336E0,2.014236E1,2.3469576E1,1.02174866E2,8.940595E0,2.4426586E1,1.48153925E1,3.21877E1,6.541573E1,5.5356374E0,6.5890255E0],"tree_param":{"num_deleted":"0","num_feature":"24","num_nodes":"29","size_leaf_vector":"1"}},{"base_weights":[-1.2162738E-2,-3.5990328E-1,1.550926E-1,-4.3370157E-1,2.3552068E-1,1.1130108E0,1.0323143E-1,-5.0467473E-1,2.3542184E-2,6.472624E-2,-2.9155085E-2,1.9113183E-2,9.1519065E-2,-2.755679E-1,2.653995E-1,-2.054134E-2,-4.868653E-2,-2.3575038E-2,1.5655583E-2,1.0880858E-2,5.815236E-2],"categories":[],"categories_nodes":[],"categories_segments":[],"categories_sizes":[],"default_left":[0,1,0,0,0,0,0,0,0,0,0,0,0,0,1,0,0,0,0,0,0],"id":2,"left_children":[1,3,5,7,9,11,13,15,-1,-1,-1,-1,-1,17,19,-1,-1,-1,-1,-1,-1],"loss_changes":[2.2512047E1,5.6253643E0,1.2871432E1,7.439808E0,1.3333134E1,6.284605E0,1.5374081E1,4.2003555E0,0E0,0E0,0E0,0E0,0E0,8.81662E0,7.249672E0,0E0,0E0,0E0,0E0,0E0,0E0],"parents":[2147483647,0,0,1,1,2,2,3,3,4,4,5,5,6,6,7,7,13,13,14,14],"right_children":[2,4,6,8,10,12,14,16,-1,-1,-1,-1,-1,18,20,-1,-1,-1,-1,-1,-1],"split_conditions":[3.169E-1,1.461928E0,2.8574476E-1,3.370835E-1,3.120036E-1,1.73E2,1.0940813E0,1.841421E0,2.3542184E-2,6.472624E-2,-2.9155085E-2,1.9113183E-2,9.1519065E-2,5.7758147E-1,3.0516028E0,-2.054134E-2,-4.868653E-2,-2.3575038E-2,1.5655583E-2,1.0880858E-2,5.815236E-2],"split_indices":[6,17,10,10,9,18,17,22,0,0,0,0,0,20,22,0,0,0,0,0,0],"split_type":[0,0,0,0,0,0,0,0,0,0,0,0,0,0,0,0,0,0,0,0,0],"sum_hessian":[3.8510153E2,1.2469545E2,2.604061E2,1.1118635E2,1.3509099E1,1.2323302E1,2.480828E2,1.0350697E2,7.679378E0,5.636344E0,7.872755E0,6.8640885E0,5.4592133E0,7.4159195E1,1.739236E2,8.781329E1,1.5693677E1,5.578956E1,1.8369637E1,1.6631308E2,7.610517E0],"tree_param":{"num_deleted":"0","num_feature":"24","num_nodes":"21","size_leaf_vector":"1"}},{"base_weights":[1.15920175E-2,1.3398652E-1,-2.344111E-1,1.7758587E-2,4.5972657E-1,-3.965188E-1,1.1658632E-1,-1.1031509E-1,3.214403E-1,-1.7474782E-1,7.262165E-1,-1.9602014E-1,-6.328783E-1,2.5561965E-1,-2.898915E-2,-4.3720823E-2,-2.4778754E-3,1.8920026E-3,4.5254912E-2,-3.502276E-2,1.46206785E-2,6.5328144E-3,6.322821E-2,-2.920778E-2,6.375545E-3,-4.0675595E-2,-1.1269762E-3,-2.5462514E-2,2.0780953E-2],"categories":[],"categories_nodes":[],"categories_segments":[],"categories_sizes":[],"default_left":[1,0,0,0,1,0,1,1,0,0,1,0,0,0,0,0,0,0,0,0,0,0,0,0,0,0,0,0,0],"id":3,"left_children":[1,3,5,7,9,11,13,15,17,19,21,23,25,27,-1,-1,-1,-1,-1,-1,-1,-1,-1,-1,-1,-1,-1,-1,-1],"loss_changes":[1.1951067E1,1.0024376E1,7.5505824E0,7.671971E0,1.1902781E1,4.162219E0,4.257261E0,6.4025693E0,9.648634E0,5.4619884E0,1.56220665E1,6.401485E0,4.5087223E0,4.6260443E0,0E0,0E0,0E0,0E0,0E0,0E0,0E0,0E0,0E0,0E0,0E0,0E0,0E0,0E0,0E0],"parents":[2147483647,0,0,1,1,2,2,3,3,4,4,5,5,6,6,7,7,8,8,9,9,10,10,11,11,12,12,13,13],"right_children":[2,4,6,8,10,12,14,16,18,20,22,24,26,28,-1,-1,-1,-1,-1,-1,-1,-1,-1,-1,-1,-1,-1,-1,-1],"split_conditions":[5E-1,3.2811436E-1,3.227E-1,1E0,-1.7572687E0,7.925181E-2,6.8890744E-1,7.4E1,9.834382E-2,6.367041E-2,3.2343727E-1,9.98E-1,1.1345108E-1,2.619152E-1,-2.898915E-2,-4.3720823E-2,-2.4778754E-3,1.8920026E-3,4.5254912E-2,-3.502276E-2,1.46206785E-2,6.5328144E-3,6.322821E-2,-2.920778E-2,6.375545E-3,-4.0675595E-2,-1.1269762E-3,-2.5462514E-2,2.0780953E-2],"split_indices":[15,10,7,3,22,16,22,18,16,8,12,0,16,12,0,0,0,0,0,0,0,0,0,0,0,0,0,0,0],"split_type":[0,0,0,0,0,0,0,0,0,0,0,0,0,0,0,0,0,0,0,0,0,0,0,0,0,0,0,0,0],"sum_hessian":[3.9487796E2,2.6398984E2,1.3088812E2,1.9534348E2,6.8646355E1,8.94473E1,4.144081E1,1.3784566E2,5.7497814E1,2.040625E1,4.824011E1,4.938468E1,4.0062626E1,3.5071545E1,6.3692684E0,9.167035E0,1.2867862E2,3.94122E1,1.8085613E1,9.366512E0,1.1039738E1,2.3493052E1,2.4747057E1,2.2084578E1,2.7300104E1,3.06567E1,9.405927E0,5.6896424E0,2.93819E1],"tree_param":{"num_deleted":"0","num_feature":"24","num_nodes":"29","size_leaf_vector":"1"}},{"base_weights":[-1.4165082E-2,2.141643E-1,-1.5950592E-1,-4.5754784E-1,2.902036E-1,-2.6925078E-1,1.6395307E-1,3.5375E-3,-4.5546673E-2,4.74584E-1,-1.827371E-2,6.354789E-3,-3.9640617E-1,-1.371382E-1,6.5345305E-1,7.213338E-3,4.1180573E-2,-1.3966063E-2,2.5691647E-2,2.2237318E-2,-1.1698525E-2,-2.2572635E-2,2.8374353E-2,2.8572185E-2,-2.8096575E-2,-5.2919467E-3,5.109341E-2],"categories":[],"categories_nodes":[],"categories_segments":[],"categories_sizes":[],"default_left":[1,0,0,1,0,0,0,0,0,0,1,0,0,0,0,0,0,0,0,0,0,0,0,0,0,0,0],"id":4,"left_children":[1,3,5,7,9,11,13,-1,-1,15,17,19,21,23,25,-1,-1,-1,-1,-1,-1,-1,-1,-1,-1,-1,-1],"loss_changes":[1.3066225E1,7.9561934E0,8.582544E0,3.888211E0,7.869458E0,6.3097258E0,9.162033E0,0E0,0E0,9.858332E0,7.459181E0,6.194119E0,6.7915535E0,1.2041941E1,6.7145805E0,0E0,0E0,0E0,0E0,0E0,0E0,0E0,0E0,0E0,0E0,0E0,0E0],"parents":[2147483647,0,0,1,1,2,2,3,3,4,4,5,5,6,6,9,9,10,10,11,11,12,12,13,13,14,14],"right_children":[2,4,6,8,10,12,14,-1,-1,16,18,20,22,24,26,-1,-1,-1,-1,-1,-1,-1,-1,-1,-1,-1,-1],"split_conditions":[1.9499978E-1,3.113E-1,5.873482E-1,6.574079E-2,3.276106E-1,3.9771497E-1,1.1177638E0,3.5375E-3,-4.5546673E-2,1.7851439E-1,9.33E1,2.3080425E-1,1.1292E2,9.36E1,1.0049E2,7.213338E-3,4.1180573E-2,-1.3966063E-2,2.5691647E-2,2.2237318E-2,-1.1698525E-2,-2.2572635E-2,2.8374353E-2,2.8572185E-2,-2.8096575E-2,-5.2919467E-3,5.109341E-2],"split_indices":[11,6,20,16,9,20,23,0,0,11,14,11,5,14,5,0,0,0,0,0,0,0,0,0,0,0,0],"split_type":[0,0,0,0,0,0,0,0,0,0,0,0,0,0,0,0,0,0,0,0,0,0,0,0,0,0,0],"sum_hessian":[3.9170255E2,1.5217043E2,2.3953214E2,1.4964094E1,1.3720633E2,1.7897586E2,6.055627E1,7.300867E0,7.6632276E0,8.5539764E1,5.1666565E1,5.6804283E1,1.22171585E2,3.793952E1,2.2616749E1,4.467396E1,4.0865803E1,3.4980473E1,1.6686092E1,1.9812511E1,3.699177E1,1.1607438E2,6.0972037E0,1.4090484E1,2.384904E1,7.6215982E0,1.499515E1],"tree_param":{"num_deleted":"0","num_feature":"24","num_nodes":"27","size_leaf_vector":"1"}},{"base_weights":[8.496882E-3,-1.5371373E-1,2.775662E-1,-1.9343664E-1,4.428209E-2,-5.9088683E-1,3.7075472E-1,-2.5789607E-1,2.450248E-1,-5.327059E-3,-5.492688E-2,5.279786E-1,-2.4813592E-2,-1.7727612E-2,2.744534E-4,6.221363E-2,2.7496592E-4,1.1135594E-2,4.384723E-2,2.1807505E-2,-2.3224613E-2],"categories":[],"categories_nodes":[],"categories_segments":[],"categories_sizes":[],"default_left":[1,0,0,0,0,0,1,0,0,0,0,0,0,0,0,0,0,0,0,0,0],"id":5,"left_children":[1,3,5,7,-1,9,11,13,15,-1,-1,17,19,-1,-1,-1,-1,-1,-1,-1,-1],"loss_changes":[1.7255878E1,1.0356363E1,1.2252509E1,6.802021E0,0E0,3.5205894E0,8.402613E0,5.306342E0,7.4302874E0,0E0,0E0,1.0092455E1,8.172152E0,0E0,0E0,0E0,0E0,0E0,0E0,0E0,0E0],"parents":[2147483647,0,0,1,1,2,2,3,3,5,5,6,6,7,7,8,8,11,11,12,12],"right_children":[2,4,6,8,-1,10,12,14,16,-1,-1,18,20,-1,-1,-1,-1,-1,-1,-1,-1],"split_conditions":[1.2522289E0,3.262E-1,3.116E-1,9.76E1,4.428209E-2,4.0808013E-1,5E-1,5.945946E-2,3.1381375E-1,-5.327059E-3,-5.492688E-2,3.4E-1,3.2240573E-1,-1.7727612E-2,2.744534E-4,6.221363E-2,2.7496592E-4,1.1135594E-2,4.384723E-2,2.1807505E-2,-2.3224613E-2],"split_indices":[17,7,6,14,0,20,15,8,12,0,0,15,10,0,0,0,0,0,0,0,0],"split_type":[0,0,0,0,0,0,0,0,0,0,0,0,0,0,0,0,0,0,0,0,0],"sum_hessian":[3.9338333E2,2.4569363E2,1.4768968E2,2.3743312E2,8.260518E0,1.3794419E1,1.3389526E2,2.0736032E2,3.0072803E1,7.678394E0,6.116025E0,9.5573555E1,3.832171E1,1.5143945E2,5.5920868E1,5.0037045E0,2.5069098E1,5.1852497E1,4.3721054E1,1.871194E1,1.9609768E1],"tree_param":{"num_deleted":"0","num_feature":"24","num_nodes":"21","size_leaf_vector":"1"}},{"base_weights":[-1.6991397E-2,-2.8690374E-1,1.05630964E-1,-1.1072458E-1,-5.9445286E-1,5.2969974E-2,7.9640114E-1,-2.2254711E-1,3.1930637E-2,4.8461888E-2,-7.957241E-1,1.3577288E-1,-3.3550885E-1,-2.7696972E-3,1.2307659E0,-3.0522437E-3,-5.0298423E-2,-3.750074E-2,4.2667754E-2,-5.3914078E-2,-2.5193641E-2,5.0615396E-2,4.5551877E-3,-2.4528207E-2,1.9371917E-2,9.195928E-2,1.9553656E-2],"categories":[],"categories_nodes":[],"categories_segments":[],"categories_sizes":[],"default_left":[0,1,1,1,0,0,0,1,0,0,0,0,1,0,0,0,0,0,0,0,0,0,0,0,0,0,0],"id":6,"left_children":[1,3,5,7,9,11,13,15,-1,17,19,21,23,-1,25,-1,-1,-1,-1,-1,-1,-1,-1,-1,-1,-1,-1],"loss_changes":[1.2973098E1,6.5678186E0,9.765842E0,6.76742E0,5.7788773E0,8.138711E0,7.108198E0,8.737368E0,0E0,8.043251E0,2.2474365E0,8.055884E0,5.1775794E0,0E0,5.7407036E0,0E0,0E0,0E0,0E0,0E0,0E0,0E0,0E0,0E0,0E0,0E0,0E0],"parents":[2147483647,0,0,1,1,2,2,3,3,4,4,5,5,6,6,7,7,9,9,10,10,11,11,12,12,14,14],"right_children":[2,4,6,8,10,12,14,16,-1,18,20,22,24,-1,26,-1,-1,-1,-1,-1,-1,-1,-1,-1,-1,-1,-1],"split_conditions":[3.169E-1,2.3043351E-1,3.795115E-1,2.172307E-1,-1.3333334E0,1.04E0,3.7812662E-1,2.0314455E-1,3.1930637E-2,9.93E-1,-7.724678E-2,2.8061596E-1,1.96E2,-2.7696972E-3,4.621776E-1,-3.0522437E-3,-5.0298423E-2,-3.750074E-2,4.2667754E-2,-5.3914078E-2,-2.5193641E-2,5.0615396E-2,4.5551877E-3,-2.4528207E-2,1.9371917E-2,9.195928E-2,1.9553656E-2],"split_indices":[6,11,12,11,21,0,13,11,0,0,22,9,18,0,13,0,0,0,0,0,0,0,0,0,0,0,0],"split_type":[0,0,0,0,0,0,0,0,0,0,0,0,0,0,0,0,0,0,0,0,0,0,0,0,0,0,0],"sum_hessian":[3.9005292E2,1.21428566E2,2.6862433E2,7.8067635E1,4.336093E1,2.5059674E2,1.8027605E1,6.854219E1,9.525444E0,1.0519147E1,3.2841785E1,2.0710379E2,4.3492954E1,6.3829765E0,1.16446295E1,5.7720943E1,1.0821246E1,5.3148484E0,5.2042985E0,1.5317465E1,1.752432E1,8.992045E0,1.9811174E2,3.607677E1,7.416185E0,6.0619726E0,5.5826564E0],"tree_param":{"num_deleted":"0","num_feature":"24","num_nodes":"27","size_leaf_vector":"1"}},{"base_weights":[-2.0384934E-2,-5.7248358E-2,7.4681693E-1,-3.1421334E-1,5.9367634E-2,1.4794954E0,-2.3743236E-2,-5.3047996E-2,-2.395016E-1,-2.0556277E-1,1.7067787E-1,1.008957E-1,3.4042064E-2,-1.7465337E-3,-2.5498161E-2,-1.4954904E-2,3.9683793E-2,1.9442689E-2,9.392919E-4],"categories":[],"categories_nodes":[],"categories_segments":[],"categories_sizes":[],"default_left":[0,0,1,0,0,0,0,0,1,1,1,0,0,0,0,0,0,0,0],"id":7,"left_children":[1,3,5,7,9,11,-1,-1,13,15,17,-1,-1,-1,-1,-1,-1,-1,-1],"loss_changes":[1.1135699E1,1.1261296E1,1.6862267E1,6.2886534E0,7.6700244E0,3.5834255E0,0E0,0E0,5.9520693E0,7.438794E0,6.0523257E0,0E0,0E0,0E0,0E0,0E0,0E0,0E0,0E0],"parents":[2147483647,0,0,1,1,2,2,3,3,4,4,5,5,8,8,9,9,10,10],"right_children":[2,4,6,8,10,12,-1,-1,14,16,18,-1,-1,-1,-1,-1,-1,-1,-1],"split_conditions":[3.261E-1,3.164E-1,4.1657168E-1,9.11E1,1.0990696E0,5.5258468E-2,-2.3743236E-2,-5.3047996E-2,4.2E-1,8.8E-1,1.15131E0,1.008957E-1,3.4042064E-2,-1.7465337E-3,-2.5498161E-2,-1.4954904E-2,3.9683793E-2,1.9442689E-2,9.392919E-4],"split_indices":[7,6,13,14,17,8,0,0,15,15,2,0,0,0,0,0,0,0,0],"split_type":[0,0,0,0,0,0,0,0,0,0,0,0,0,0,0,0,0,0,0],"sum_hessian":[3.9123065E2,3.7417712E2,1.7053524E1,1.16273155E2,2.5790396E2,1.0528338E1,6.525186E0,9.374454E0,1.06898705E2,7.6049995E1,1.8185397E2,5.3768516E0,5.151487E0,6.150608E1,4.5392628E1,7.0181244E1,5.868752E0,7.400049E1,1.0785349E2],"tree_param":{"num_deleted":"0","num_feature":"24","num_nodes":"19","size_leaf_vector":"1"}},{"base_weights":[-1.0504952E-2,-4.7083402E-1,5.146398E-2,-8.868994E-1,-1.7196421E-1,-7.959053E-2,2.3179838E-1,-5.1593613E-2,-2.169287E-2,2.0906547E-1,-3.9325822E-2,-2.0289405E-1,1.5617202E-1,3.8417232E-1,-2.0262828E-1,-1.944103E-2,3.1550035E-2,-6.0007023E-3,-3.475129E-2,2.1605706E-3,6.503846E-2,9.354883E-3,3.528784E-2,2.1934897E-2,-2.621671E-2],"categories":[],"categories_nodes":[],"categories_segments":[],"categories_sizes":[],"default_left":[0,0,0,0,0,0,1,0,0,1,0,0,0,0,0,0,0,0,0,0,0,0,0,0,0],"id":8,"left_children":[1,3,5,7,9,11,13,-1,-1,15,-1,17,19,21,23,-1,-1,-1,-1,-1,-1,-1,-1,-1,-1],"loss_changes":[1.11681E1,5.6233263E0,8.176939E0,8.1181717E-1,6.7846336E0,5.8650503E0,9.7121105E0,0E0,0E0,4.847142E0,0E0,5.30836E0,8.926272E0,6.7186213E0,8.162495E0,0E0,0E0,0E0,0E0,0E0,0E0,0E0,0E0,0E0,0E0],"parents":[2147483647,0,0,1,1,2,2,3,3,4,4,5,5,6,6,9,9,11,11,12,12,13,13,14,14],"right_children":[2,4,6,8,10,12,14,-1,-1,16,-1,18,20,22,24,-1,-1,-1,-1,-1,-1,-1,-1,-1,-1],"split_conditions":[3.12E-1,5.133903E-1,1.2561994E0,1.16E1,-6.666667E-1,5.724508E-2,5E-1,-5.1593613E-2,-2.169287E-2,1.9249682E-1,-3.9325822E-2,8.71E1,3.271E-1,3.6E-1,1.31E2,-1.944103E-2,3.1550035E-2,-6.0007023E-3,-3.475129E-2,2.1605706E-3,6.503846E-2,9.354883E-3,3.528784E-2,2.1934897E-2,-2.621671E-2],"split_indices":[6,23,17,4,21,8,15,0,0,11,0,1,6,15,18,0,0,0,0,0,0,0,0,0,0],"split_type":[0,0,0,0,0,0,0,0,0,0,0,0,0,0,0,0,0,0,0,0,0,0,0,0,0],"sum_hessian":[3.896552E2,4.5448486E1,3.4420673E2,1.8176683E1,2.7271803E1,1.996637E2,1.4454305E2,1.280231E1,5.3743725E0,1.724161E1,1.0030193E1,1.3119058E2,6.84731E1,1.0709534E2,3.744771E1,7.165919E0,1.007569E1,1.13345856E2,1.7844734E1,6.3267014E1,5.206087E0,6.738314E1,3.97122E1,1.2388119E1,2.5059591E1],"tree_param":{"num_deleted":"0","num_feature":"24","num_nodes":"25","size_leaf_vector":"1"}},{"base_weights":[1.36767905E-2,-2.1566892E-1,1.4663696E-1,-1.6579302E-1,-4.2362418E-2,-2.5372071E-2,3.236357E-1,4.3427923E-1,-2.45132E-1,1.5987179E-1,-3.2637492E-1,7.160254E-2,6.353022E-1,4.4761408E-2,-2.1127095E-2,9.101162E-4,-1.9498149E-2,-1.0710972E-2,1.64483E-2,-2.3067035E-2,3.2630872E-2,-2.4106054E-2,1.9836728E-2,8.256995E-2,2.3950836E-2],"categories":[],"categories_nodes":[],"categories_segments":[],"categories_sizes":[],"default_left":[0,1,0,0,0,1,1,0,0,0,0,0,0,0,0,0,0,0,0,0,0,0,0,0,0],"id":9,"left_children":[1,3,5,7,-1,9,11,13,15,17,19,21,23,-1,-1,-1,-1,-1,-1,-1,-1,-1,-1,-1,-1],"loss_changes":[1.1859786E1,4.356327E0,7.501861E0,6.464553E0,0E0,7.0640793E0,9.488967E0,6.680105E0,4.5300703E0,5.037196E0,6.6746345E0,1.2476302E1,7.8068905E0,0E0,0E0,0E0,0E0,0E0,0E0,0E0,0E0,0E0,0E0,0E0,0E0],"parents":[2147483647,0,0,1,1,2,2,3,3,5,5,6,6,7,7,8,8,9,9,10,10,11,11,12,12],"right_children":[2,4,6,8,-1,10,12,14,16,18,20,22,24,-1,-1,-1,-1,-1,-1,-1,-1,-1,-1,-1,-1],"split_conditions":[3.18E-1,3.1646046E-1,3.2374442E-1,2.8282923E-1,-4.2362418E-2,-5.1618973E-3,-1.7918432E-1,4.904242E-1,1.938315E-1,-1.0100354E0,5.312521E-1,3.236E-1,2.9577735E-1,4.4761408E-2,-2.1127095E-2,9.101162E-4,-1.9498149E-2,-1.0710972E-2,1.64483E-2,-2.3067035E-2,3.2630872E-2,-2.4106054E-2,1.9836728E-2,8.256995E-2,2.3950836E-2],"split_indices":[6,11,12,12,0,22,22,22,11,22,13,6,9,0,0,0,0,0,0,0,0,0,0,0,0],"split_type":[0,0,0,0,0,0,0,0,0,0,0,0,0,0,0,0,0,0,0,0,0,0,0,0,0],"sum_hessian":[3.868869E2,1.4175272E2,2.451342E2,1.325479E2,9.204815E0,1.24753876E2,1.20380325E2,1.4955998E1,1.17591896E2,7.751704E1,4.7236843E1,6.723755E1,5.314278E1,9.695325E0,5.260674E0,4.203586E1,7.555604E1,2.404806E1,5.3468975E1,4.1978382E1,5.258461E0,2.4695854E1,4.2541695E1,5.8089676E0,4.7333813E1],"tree_param":{"num_deleted":"0","num_feature":"24","num_nodes":"25","size_leaf_vector":"1"}},{"base_weights":[2.482648E-2,-1.0612019E-1,2.1533789E-1,-4.0792808E-1,-2.7978385E-2,-4.4964615E-1,2.7706698E-1,1.09150246E-1,-6.710756E-1,-1.7234576E-1,1.8942153E-1,-1.205398E-3,-4.0945802E-2,5.2597845E-1,7.306887E-2,-2.341718E-2,4.3877836E-2,3.2533854E-3,-4.078288E-2,1.9787629E-4,-2.4290273E-2,4.082005E-3,3.9485697E-2,-1.5781965E-2,3.355419E-2,-3.2270185E-3,3.643717E-2],"categories":[],"categories_nodes":[],"categories_segments":[],"categories_sizes":[],"default_left":[0,0,0,0,0,0,0,0,0,0,1,0,0,0,0,0,0,0,0,0,0,0,0,0,0,0,0],"id":10,"left_children":[1,3,5,7,9,11,13,15,17,19,21,-1,-1,23,25,-1,-1,-1,-1,-1,-1,-1,-1,-1,-1,-1,-1],"loss_changes":[9.687334E0,5.419077E0,6.6160355E0,6.506969E0,5.8069515E0,2.1509824E0,7.34083E0,7.869257E0,3.403141E0,6.1408916E0,4.716617E0,0E0,0E0,8.1859455E0,7.3581004E0,0E0,0E0,0E0,0E0,0E0,0E0,0E0,0E0,0E0,0E0,0E0,0E0],"parents":[2147483647,0,0,1,1,2,2,3,3,4,4,5,5,6,6,7,7,8,8,9,9,10,10,13,13,14,14],"right_children":[2,4,6,8,10,12,14,16,18,20,22,-1,-1,24,26,-1,-1,-1,-1,-1,-1,-1,-1,-1,-1,-1,-1],"split_conditions":[1.2593791E0,9.383E1,3.115E-1,3.02376E-1,3.2128975E-1,8.037768E-2,1E0,2.941717E-1,1.6195215E-1,4.7732496E-1,2.06E2,-1.205398E-3,-4.0945802E-2,4.9E0,9.8E-1,-2.341718E-2,4.3877836E-2,3.2533854E-3,-4.078288E-2,1.9787629E-4,-2.4290273E-2,4.082005E-3,3.9485697E-2,-1.5781965E-2,3.355419E-2,-3.2270185E-3,3.643717E-2],"split_indices":[17,5,6,10,9,16,0,10,11,20,18,0,0,4,15,0,0,0,0,0,0,0,0,0,0,0,0],"split_type":[0,0,0,0,0,0,0,0,0,0,0,0,0,0,0,0,0,0,0,0,0,0,0,0,0,0,0],"sum_hessian":[3.8640314E2,2.2926347E2,1.5713966E2,4.628317E1,1.8298032E2,1.2814095E1,1.4432556E2,1.5807344E1,3.0475824E1,1.10084465E2,7.289584E1,6.4483957E0,6.365699E0,6.429575E1,8.0029816E1,9.247734E0,6.5596104E0,5.0932665E0,2.5382557E1,7.108856E1,3.8995903E1,6.2762882E1,1.0132963E1,9.282362E0,5.501339E1,6.689239E1,1.3137426E1],"tree_param":{"num_deleted":"0","num_feature":"24","num_nodes":"27","size_leaf_vector":"1"}},{"base_weights":[3.0176083E-2,-2.790918E-1,1.5640785E-1,-9.4165254E-1,-1.8887395E-1,-1.9835289E-1,2.6394695E-1,-2.809882E-2,-5.5415224E-2,-2.4984688E-1,3.6469217E-2,4.9581216E-3,-6.1633414E-1,-5.132919E-2,3.561812E-1,-1.6304057E-2,2.1770036E-2,-4.742575E-2,8.616203E-3,-4.352772E-2,5.645462E-4,-1.7413175E-2,2.7120516E-2,-1.5667325E-2,2.0598136E-2],"categories":[],"categories_nodes":[],"categories_segments":[],"categories_sizes":[],"default_left":[0,1,0,0,0,0,0,0,0,1,0,0,0,0,0,0,0,0,0,0,0,0,0,0,0],"id":11,"left_children":[1,3,5,7,9,11,13,-1,-1,15,-1,17,19,21,23,-1,-1,-1,-1,-1,-1,-1,-1,-1,-1],"loss_changes":[1.5214533E1,6.576579E0,1.0605057E1,2.1816349E-1,5.8206797E0,5.5194926E0,6.2031956E0,0E0,0E0,5.1141534E0,0E0,7.290869E0,3.4004517E0,8.830114E0,6.279354E0,0E0,0E0,0E0,0E0,0E0,0E0,0E0,0E0,0E0,0E0],"parents":[2147483647,0,0,1,1,2,2,3,3,4,4,5,5,6,6,9,9,11,11,12,12,13,13,14,14],"right_children":[2,4,6,8,10,12,14,-1,-1,16,-1,18,20,22,24,-1,-1,-1,-1,-1,-1,-1,-1,-1,-1],"split_conditions":[3.164E-1,8.6E1,1.0733334E0,9.38E1,3.25E-1,7.92E1,3.6677727E-1,-2.809882E-2,-5.5415224E-2,1.5014732E0,3.6469217E-2,9.448E1,1.82E2,3.332717E-1,3.148E-1,-1.6304057E-2,2.1770036E-2,-4.742575E-2,8.616203E-3,-4.352772E-2,5.645462E-4,-1.7413175E-2,2.7120516E-2,-1.5667325E-2,2.0598136E-2],"split_indices":[6,18,17,14,7,1,13,0,0,17,0,5,18,9,7,0,0,0,0,0,0,0,0,0,0],"split_type":[0,0,0,0,0,0,0,0,0,0,0,0,0,0,0,0,0,0,0,0,0,0,0,0,0],"sum_hessian":[3.8760403E2,1.11997986E2,2.7560605E2,1.2291507E1,9.970648E1,6.3914394E1,2.1169165E2,5.083085E0,7.2084217E0,9.418073E1,5.525749E0,4.36639E1,2.0250498E1,4.80138E1,1.6367786E2,8.522368E1,8.957048E0,5.8230486E0,3.784085E1,1.4137163E1,6.1133337E0,3.2282486E1,1.5731314E1,1.2232898E1,1.5144496E2],"tree_param":{"num_deleted":"0","num_feature":"24","num_nodes":"25","size_leaf_vector":"1"}},{"base_weights":[-5.669703E-2,-3.0905554E-1,6.5264225E-2,-3.7324926E-1,2.2101901E-2,-2.6585084E-1,1.4231846E-1,-4.5376736E-1,2.2263414E-1,2.5357345E-2,-3.6730322E-1,-5.827319E-1,1.8261363E-1,-1.2017621E-2,-3.399024E-2,4.2706538E-2,-2.3257757E-2,-4.4425327E-2,-1.0293006E-2,-5.461913E-3,-4.7319602E-2,6.7434767E-3,4.2487595E-2],"categories":[],"categories_nodes":[],"categories_segments":[],"categories_sizes":[],"default_left":[0,0,0,0,0,0,0,0,0,0,0,0,1,0,0,0,0,0,0,0,0,0,0],"id":12,"left_children":[1,3,5,7,-1,9,11,13,15,-1,17,19,21,-1,-1,-1,-1,-1,-1,-1,-1,-1,-1],"loss_changes":[1.1985116E1,6.2805176E0,6.74575E0,5.7334576E0,0E0,4.105942E0,6.356646E0,4.841364E0,6.758232E0,0E0,3.5836277E0,1.8771598E0,6.365014E0,0E0,0E0,0E0,0E0,0E0,0E0,0E0,0E0,0E0,0E0],"parents":[2147483647,0,0,1,1,2,2,3,3,5,5,6,6,7,7,8,8,10,10,11,11,12,12],"right_children":[2,4,6,8,-1,10,12,14,16,-1,18,20,22,-1,-1,-1,-1,-1,-1,-1,-1,-1,-1],"split_conditions":[3.173E-1,3.239E-1,5.6E0,1.5014732E0,2.2101901E-2,-1.2666667E0,3.143E-1,9.802E1,1.3333334E-1,2.5357345E-2,1.17E2,3.1890643E-1,2.5426428E0,-1.2017621E-2,-3.399024E-2,4.2706538E-2,-2.3257757E-2,-4.4425327E-2,-1.0293006E-2,-5.461913E-3,-4.7319602E-2,6.7434767E-3,4.2487595E-2],"split_indices":[6,7,4,17,0,21,7,5,21,0,18,12,22,0,0,0,0,0,0,0,0,0,0],"split_type":[0,0,0,0,0,0,0,0,0,0,0,0,0,0,0,0,0,0,0,0,0,0,0],"sum_hessian":[3.877504E2,1.2583741E2,2.61913E2,1.1639273E2,9.444677E0,4.8981415E1,2.1293158E2,1.02747574E2,1.3645162E1,5.218807E0,4.3762608E1,1.0502024E1,2.0242957E2,5.3910706E1,4.883687E1,6.987609E0,6.6575522E0,9.284614E0,3.4477993E1,5.126974E0,5.3750496E0,1.9003198E2,1.2397577E1],"tree_param":{"num_deleted":"0","num_feature":"24","num_nodes":"23","size_leaf_vector":"1"}},{"base_weights":[-3.0018566E-2,7.335486E-2,-2.4343917E-1,-5.000074E-2,2.8283957E-1,5.1282257E-2,-4.0705228E-1,-1.5352385E-1,4.5829436E-1,6.5400696E-1,4.037067E-2,-2.2675051E-1,8.5636646E-1,-6.432548E-1,-1.587923E-1,-2.1092469E-2,-9.6395053E-4,3.603528E-2,-2.2077708E-2,1.3403164E-2,5.556741E-2,-2.4660498E-2,1.3563986E-2,-2.0276088E-2,1.860654E-2,9.740945E-3,6.6537425E-2,-2.2956328E-3,-4.040703E-2,-2.8384214E-2,1.7919501E-2],"categories":[],"categories_nodes":[],"categories_segments":[],"categories_sizes":[],"default_left":[1,0,0,0,0,0,0,0,0,0,0,0,0,0,0,0,0,0,0,0,0,0,0,0,0,0,0,0,0,0,0],"id":13,"left_children":[1,3,5,7,9,11,13,15,17,19,21,23,25,27,29,-1,-1,-1,-1,-1,-1,-1,-1,-1,-1,-1,-1,-1,-1,-1,-1],"loss_changes":[8.627266E0,6.8275776E0,6.1723423E0,8.847293E0,8.781469E0,1.0586441E1,4.7146883E0,5.0104837E0,7.041811E0,6.516287E0,7.5587606E0,3.9302373E0,3.5465393E0,4.0765533E0,8.953522E0,0E0,0E0,0E0,0E0,0E0,0E0,0E0,0E0,0E0,0E0,0E0,0E0,0E0,0E0,0E0,0E0],"parents":[2147483647,0,0,1,1,2,2,3,3,4,4,5,5,6,6,7,7,8,8,9,9,10,10,11,11,12,12,13,13,14,14],"right_children":[2,4,6,8,10,12,14,16,18,20,22,24,26,28,30,-1,-1,-1,-1,-1,-1,-1,-1,-1,-1,-1,-1,-1,-1,-1,-1],"split_conditions":[5E-1,5.7142857E-2,1.31E2,1.4950175E0,6.2271062E-2,2.1730585E0,3.208E-1,3.167E-1,1.0485E2,8.145388E-2,2E-1,1.2E2,1.1461684E0,3.141E-1,7.5E0,-2.1092469E-2,-9.6395053E-4,3.603528E-2,-2.2077708E-2,1.3403164E-2,5.556741E-2,-2.4660498E-2,1.3563986E-2,-2.0276088E-2,1.860654E-2,9.740945E-3,6.6537425E-2,-2.2956328E-3,-4.040703E-2,-2.8384214E-2,1.7919501E-2],"split_indices":[15,8,18,17,8,22,7,6,5,16,15,18,17,7,4,0,0,0,0,0,0,0,0,0,0,0,0,0,0,0,0],"split_type":[0,0,0,0,0,0,0,0,0,0,0,0,0,0,0,0,0,0,0,0,0,0,0,0,0,0,0,0,0,0,0],"sum_hessian":[3.8923663E2,2.626665E2,1.2657012E2,1.6579752E2,9.686898E1,4.542722E1,8.114291E1,1.383235E2,2.7474016E1,3.7605625E1,5.9263355E1,3.4300148E1,1.1127073E1,4.076588E1,4.037702E1,4.5412216E1,9.291129E1,2.1425156E1,6.0488615E0,2.1254984E1,1.6350641E1,1.7556997E1,4.1706356E1,2.6663677E1,7.6364694E0,5.2359624E0,5.8911114E0,9.095065E0,3.1670815E1,2.2494719E1,1.7882305E1],"tree_param":{"num_deleted":"0","num_feature":"24","num_nodes":"31","size_leaf_vector":"1"}},{"base_weights":[7.3811255E-4,-2.0058103E-2,6.468635E-2,-4.723443E-2,5.270004E-1,-8.466282E-2,3.9774996E-1,7.1828924E-2,-2.6432449E-2,-2.05719E-2,-1.6361224E-3,4.557312E-2,4.246927E-3],"categories":[],"categories_nodes":[],"categories_segments":[],"categories_sizes":[],"default_left":[0,0,0,1,1,0,0,0,0,0,0,0,0],"id":14,"left_children":[1,3,-1,5,7,9,11,-1,-1,-1,-1,-1,-1],"loss_changes":[1.0553043E1,5.767815E0,0E0,6.1780853E0,1.8392157E1,5.7763615E0,4.550376E0,0E0,0E0,0E0,0E0,0E0,0E0],"parents":[2147483647,0,0,1,1,3,3,4,4,5,5,6,6],"right_children":[2,4,-1,6,8,10,12,-1,-1,-1,-1,-1,-1],"split_conditions":[1.073E2,3.261E-1,6.468635E-2,1.5640972E0,4.066732E-1,3.127E-1,3.2259843E-1,7.1828924E-2,-2.6432449E-2,-2.05719E-2,-1.6361224E-3,4.557312E-2,4.246927E-3],"split_indices":[1,7,0,17,13,6,10,0,0,0,0,0,0],"split_type":[0,0,0,0,0,0,0,0,0,0,0,0,0],"sum_hessian":[3.9049786E2,3.852855E2,5.21238E0,3.679218E2,1.7363665E1,3.4012323E2,2.77986E1,9.1333E0,8.230364E0,4.5698227E1,2.94425E2,9.796534E0,1.8002066E1],"tree_param":{"num_deleted":"0","num_feature":"24","num_nodes":"13","size_leaf_vector":"1"}},{"base_weights":[-8.556883E-3,-4.2282802E-1,4.2253852E-2,1.8253563E-1,-6.6986626E-1,-5.8981115E-1,7.24989E-2,-1.2935883E-2,3.745873E-2,-8.721792E-1,4.587064E-4,-4.9386196E-2,1.0887417E-2,-3.526906E-2,9.776631E-2,-2.2969596E-2,-5.290976E-2,-5.7521476E-3,9.544433E-3],"categories":[],"categories_nodes":[],"categories_segments":[],"categories_sizes":[],"default_left":[0,0,1,0,0,0,0,0,0,0,0,0,0,0,0,0,0,0,0],"id":15,"left_children":[1,3,5,7,9,11,13,-1,-1,15,-1,-1,-1,-1,17,-1,-1,-1,-1],"loss_changes":[8.235424E0,6.514224E0,6.707879E0,3.487497E0,4.2074957E0,5.366445E0,6.6262817E0,0E0,0E0,1.3230953E0,0E0,0E0,0E0,0E0,6.4428267E0,0E0,0E0,0E0,0E0],"parents":[2147483647,0,0,1,1,2,2,3,3,4,4,5,5,6,6,9,9,14,14],"right_children":[2,4,6,8,10,12,14,-1,-1,16,-1,-1,-1,-1,18,-1,-1,-1,-1],"split_conditions":[9.13E1,5.7E0,6.6E1,4.427984E-1,1.0699828E-1,8.664286E-2,2.3E0,-1.2935883E-2,3.745873E-2,1.1363E0,4.587064E-4,-4.9386196E-2,1.0887417E-2,-3.526906E-2,1.1038002E0,-2.2969596E-2,-5.290976E-2,-5.7521476E-3,9.544433E-3],"split_indices":[5,4,18,13,16,16,4,0,0,2,0,0,0,0,17,0,0,0,0],"split_type":[0,0,0,0,0,0,0,0,0,0,0,0,0,0,0,0,0,0,0],"sum_hessian":[3.8939352E2,4.17418E1,3.4765173E2,1.217304E1,2.9568758E1,1.5030993E1,3.3262076E2,7.149217E0,5.0238233E0,2.2562168E1,7.0065904E0,9.919977E0,5.1110163E0,9.6175995E0,3.2300314E2,8.086683E0,1.4475485E1,9.8247086E1,2.2475606E2],"tree_param":{"num_deleted":"0","num_feature":"24","num_nodes":"19","size_leaf_vector":"1"}},{"base_weights":[-2.9958235E-4,1.1217146E-1,-2.2625615E-1,-4.125328E-2,1.37543E-1,-4.2471495E-1,-6.567595E-2,7.743168E-2,5.134133E-1,-5.268573E-1,1.3831048E-2,-4.108489E-1,1.2931392E-1,-2.7621968E-2,5.780984E-3,-1.0955968E-3,5.2470654E-2,-3.1601004E-2,1.3087123E-2,-3.4061357E-2,9.088978E-3,1.7104728E-2,-3.1090906E-2],"categories":[],"categories_nodes":[],"categories_segments":[],"categories_sizes":[],"default_left":[1,0,0,0,0,0,0,1,1,0,0,0,0,0,0,0,0,0,0,0,0,0,0],"id":16,"left_children":[1,3,5,-1,7,9,11,13,15,17,-1,19,21,-1,-1,-1,-1,-1,-1,-1,-1,-1,-1],"loss_changes":[9.839087E0,6.2602553E0,4.0724936E0,0E0,5.666114E0,4.254985E0,4.9194875E0,5.329118E0,9.962775E0,4.3463926E0,0E0,4.344318E0,7.718694E0,0E0,0E0,0E0,0E0,0E0,0E0,0E0,0E0,0E0,0E0],"parents":[2147483647,0,0,1,1,2,2,4,4,5,5,6,6,7,7,8,8,9,9,11,11,12,12],"right_children":[2,4,6,-1,8,10,12,14,16,18,-1,20,22,-1,-1,-1,-1,-1,-1,-1,-1,-1,-1],"split_conditions":[4.9E-1,2.1E0,3.2E-1,-4.125328E-2,6.4690524E-1,1.062E0,6.650943E-2,7.4E1,9.24E1,2.90422E0,1.3831048E-2,1.023E0,9.64E1,-2.7621968E-2,5.780984E-3,-1.0955968E-3,5.2470654E-2,-3.1601004E-2,1.3087123E-2,-3.4061357E-2,9.088978E-3,1.7104728E-2,-3.1090906E-2],"split_indices":[15,4,7,0,20,0,16,18,14,23,0,0,14,0,0,0,0,0,0,0,0,0,0],"split_type":[0,0,0,0,0,0,0,0,0,0,0,0,0,0,0,0,0,0,0,0,0,0,0],"sum_hessian":[3.8516006E2,2.5749445E2,1.2766563E2,5.9560366E0,2.5153842E2,5.636278E1,7.130284E1,2.178971E2,3.364133E1,4.9414806E1,6.9479766E0,2.533953E1,4.596331E1,1.16858E1,2.0621129E2,1.7311115E1,1.6330214E1,4.3775703E1,5.6391006E0,1.7298044E1,8.041487E0,3.624141E1,9.721902E0],"tree_param":{"num_deleted":"0","num_feature":"24","num_nodes":"23","size_leaf_vector":"1"}},{"base_weights":[-8.202619E-3,-4.33968E-1,4.0634926E-2,-4.986563E-2,-4.8612453E-2,1.5198733E-2,4.1627552E-2,-3.867626E-2,3.677186E-1,1.0693578E-1,-1.790893E-1,4.0118355E-2,-1.6931249E-2,2.4470842E-2,2.0142274E-3,3.856429E-2,-1.2789877E-2],"categories":[],"categories_nodes":[],"categories_segments":[],"categories_sizes":[],"default_left":[0,0,0,0,0,1,0,0,1,0,0,0,0,0,0,0,0],"id":17,"left_children":[1,3,5,7,-1,9,-1,-1,11,13,15,-1,-1,-1,-1,-1,-1],"loss_changes":[8.029541E0,8.166906E0,6.9685493E0,7.6102195E0,0E0,6.0222435E0,0E0,0E0,5.1991763E0,5.8286047E0,8.099756E0,0E0,0E0,0E0,0E0,0E0,0E0],"parents":[2147483647,0,0,1,1,2,2,3,3,5,5,8,8,9,9,10,10],"right_children":[2,4,6,8,-1,10,-1,-1,12,14,16,-1,-1,-1,-1,-1,-1],"split_conditions":[3.116E-1,-6.666667E-1,1.017E2,4.9852002E-1,-4.8612453E-2,5E-1,4.1627552E-2,-3.867626E-2,3.5727326E-2,9.72E-1,9.17E1,4.0118355E-2,-1.6931249E-2,2.4470842E-2,2.0142274E-3,3.856429E-2,-1.2789877E-2],"split_indices":[6,21,1,23,0,15,0,0,22,0,14,0,0,0,0,0,0],"split_type":[0,0,0,0,0,0,0,0,0,0,0,0,0,0,0,0,0],"sum_hessian":[3.8431125E2,3.873488E1,3.455764E2,2.3242393E1,1.5492487E1,3.3580945E2,9.766943E0,8.192567E0,1.5049826E1,2.2841042E2,1.07399025E2,9.232601E0,5.8172245E0,3.2954815E1,1.954556E2,7.3448887E0,1.0005413E2],"tree_param":{"num_deleted":"0","num_feature":"24","num_nodes":"17","size_leaf_vector":"1"}},{"base_weights":[-3.0813273E-3,-2.543671E-1,9.568828E-2,-1.4911164E-1,-7.1210563E-1,1.3890506E-1,-4.7553277E-1,-4.4602346E-2,-8.9417055E-2,-9.508931E-1,-7.7924742E-3,4.8349634E-1,7.8751154E-2,-7.301404E-1,1.1259249E-2,6.544903E-3,-1.3642155E-2,-2.7544415E-2,-5.575747E-2,5.213628E-3,5.192243E-2,-1.8283114E-2,7.579458E-3,-1.0536169E-2,-5.136607E-2],"categories":[],"categories_nodes":[],"categories_segments":[],"categories_sizes":[],"default_left":[0,0,1,1,0,0,0,0,0,0,0,1,0,1,0,0,0,0,0,0,0,0,0,0,0],"id":18,"left_children":[1,3,5,7,9,11,13,-1,15,17,-1,19,21,23,-1,-1,-1,-1,-1,-1,-1,-1,-1,-1,-1],"loss_changes":[9.718115E0,5.2164464E0,7.005319E0,3.959822E0,2.5600376E0,5.3948717E0,3.732078E0,0E0,3.4877825E0,3.1008148E-1,0E0,8.0486355E0,7.3173904E0,2.0840163E0,0E0,0E0,0E0,0E0,0E0,0E0,0E0,0E0,0E0,0E0,0E0],"parents":[2147483647,0,0,1,1,2,2,3,3,4,4,5,5,6,6,8,8,9,9,11,11,12,12,13,13],"right_children":[2,4,6,8,10,12,14,-1,16,18,-1,20,22,24,-1,-1,-1,-1,-1,-1,-1,-1,-1,-1,-1],"split_conditions":[3.164E-1,3.155E-1,3.1646046E-1,7.4E1,9.528713E-2,2.9577735E-1,1.045E2,-4.4602346E-2,4.2121097E-1,3.179E-1,-7.7924742E-3,1.65E2,3.0635738E-1,6.2E-1,1.1259249E-2,6.544903E-3,-1.3642155E-2,-2.7544415E-2,-5.575747E-2,5.213628E-3,5.192243E-2,-1.8283114E-2,7.579458E-3,-1.0536169E-2,-5.136607E-2],"split_indices":[6,6,11,18,16,9,5,0,20,7,0,18,9,15,0,0,0,0,0,0,0,0,0,0,0],"split_type":[0,0,0,0,0,0,0,0,0,0,0,0,0,0,0,0,0,0,0,0,0,0,0,0,0],"sum_hessian":[3.8957248E2,1.0947502E2,2.8009744E2,9.008584E1,1.9389187E1,2.6110025E2,1.8997192E1,5.66299E0,8.4422844E1,1.3069367E1,6.319819E0,3.775921E1,2.2334105E2,1.3903376E1,5.0938168E0,3.848475E1,4.5938095E1,5.071889E0,7.997478E0,2.3136734E1,1.4622475E1,3.0884188E1,1.9245686E2,5.6817703E0,8.221605E0],"tree_param":{"num_deleted":"0","num_feature":"24","num_nodes":"25","size_leaf_vector":"1"}},{"base_weights":[6.318047E-2,-1.3715E-1,1.7257869E-1,-1.8733163E-1,3.95112E-2,1.2227745E-1,8.059027E-1,-2.7106166E-1,4.5221096E-1,7.7347025E-2,6.9802123E-1,-7.5079077E-3,1.1859616E0,1.3218868E-2,-1.6681794E-2,6.369965E-2,-1.0022769E-2,2.3271602E-3,4.582945E-2,5.3100348E-2,3.3495363E-3,1.8861435E-2,8.210851E-2],"categories":[],"categories_nodes":[],"categories_segments":[],"categories_sizes":[],"default_left":[0,0,1,0,0,1,1,0,0,0,0,0,0,0,0,0,0,0,0,0,0,0,0],"id":19,"left_children":[1,3,5,7,-1,9,11,13,15,17,19,-1,21,-1,-1,-1,-1,-1,-1,-1,-1,-1,-1],"loss_changes":[8.450146E0,6.4939666E0,7.8380017E0,7.093101E0,0E0,5.9469233E0,6.7738514E0,3.9656E0,8.538813E0,5.5493574E0,3.7573137E0,0E0,4.21422E0,0E0,0E0,0E0,0E0,0E0,0E0,0E0,0E0,0E0,0E0],"parents":[2147483647,0,0,1,1,2,2,3,3,5,5,6,6,7,7,8,8,9,9,10,10,12,12],"right_children":[2,4,6,8,-1,10,12,14,16,18,20,-1,22,-1,-1,-1,-1,-1,-1,-1,-1,-1,-1],"split_conditions":[3.18E-1,3.253E-1,2.4551117E0,1.5014732E0,3.95112E-2,3.795115E-1,3.6582237E-1,3.878193E-2,3.120036E-1,1.017E2,3.2786962E-1,-7.5079077E-3,3.201E-1,1.3218868E-2,-1.6681794E-2,6.369965E-2,-1.0022769E-2,2.3271602E-3,4.582945E-2,5.3100348E-2,3.3495363E-3,1.8861435E-2,8.210851E-2],"split_indices":[6,7,22,17,0,12,13,16,9,1,10,0,7,0,0,0,0,0,0,0,0,0,0],"split_type":[0,0,0,0,0,0,0,0,0,0,0,0,0,0,0,0,0,0,0,0,0,0,0],"sum_hessian":[3.834933E2,1.3536276E2,2.4813052E2,1.2917111E2,6.19165E0,2.3097833E2,1.715219E1,1.1472701E2,1.4444099E1,2.153101E2,1.5668227E1,5.051002E0,1.2101188E1,1.1667212E1,1.0305981E2,5.9723024E0,8.471797E0,2.0870518E2,6.6049275E0,9.503517E0,6.16471E0,5.023238E0,7.0779495E0],"tree_param":{"num_deleted":"0","num_feature":"24","num_nodes":"23","size_leaf_vector":"1"}},{"base_weights":[-4.226699E-3,-3.856333E-2,7.032034E-1,-6.1429E-2,5.4910105E-2,7.086493E-2,-1.9620989E-2,-5.8038604E-1,-1.8621039E-2,9.378495E-3,-3.8100127E-2,3.7616547E-3,-1.4269218E-2],"categories":[],"categories_nodes":[],"categories_segments":[],"categories_sizes":[],"default_left":[0,0,1,0,0,0,0,0,1,0,0,0,0],"id":20,"left_children":[1,3,5,7,-1,-1,-1,9,11,-1,-1,-1,-1],"loss_changes":[9.4704895E0,9.729441E0,1.46765585E1,8.105257E0,0E0,0E0,0E0,4.0211573E0,8.497122E0,0E0,0E0,0E0,0E0],"parents":[2147483647,0,0,1,1,2,2,3,3,7,7,8,8],"right_children":[2,4,6,8,-1,-1,-1,10,12,-1,-1,-1,-1],"split_conditions":[3.262E-1,1.073E2,4.1657168E-1,9.08E1,5.4910105E-2,7.086493E-2,-1.9620989E-2,8.91E1,5.8E-1,9.378495E-3,-3.8100127E-2,3.7616547E-3,-1.4269218E-2],"split_indices":[7,1,13,14,0,0,0,14,15,0,0,0,0],"split_type":[0,0,0,0,0,0,0,0,0,0,0,0,0],"sum_hessian":[3.8776392E2,3.7071594E2,1.7048002E1,3.6433344E2,6.382489E0,1.0143296E1,6.904705E0,2.6806217E1,3.3752722E2,5.120723E0,2.1685495E1,2.5021367E2,8.731356E1],"tree_param":{"num_deleted":"0","num_feature":"24","num_nodes":"13","size_leaf_vector":"1"}},{"base_weights":[7.752252E-4,-4.746789E-2,2.5831811E-2,1.3062793E-1,-2.0440839E-1,8.4595305E-1,8.2350135E-2,-9.842947E-2,-6.3988334E-1,7.959143E-3,6.954553E-2,2.0536077E-3,4.7269907E-2,-8.865946E-3,2.8132189E-2,-4.0205218E-2,-2.3537546E-3],"categories":[],"categories_nodes":[],"categories_segments":[],"categories_sizes":[],"default_left":[0,0,1,0,0,1,1,0,0,0,0,0,0,0,0,0,0],"id":21,"left_children":[1,-1,3,5,7,9,11,13,15,-1,-1,-1,-1,-1,-1,-1,-1],"loss_changes":[9.218929E0,0E0,9.129211E0,8.904537E0,5.4009247E0,5.8871517E0,8.672937E0,5.1272197E0,2.2003584E0,0E0,0E0,0E0,0E0,0E0,0E0,0E0,0E0],"parents":[2147483647,0,0,2,2,3,3,4,4,5,5,6,6,7,7,8,8],"right_children":[2,-1,4,6,8,10,12,14,16,-1,-1,-1,-1,-1,-1,-1,-1],"split_conditions":[2E0,-4.746789E-2,5E-1,2.8501993E-1,3.0986103E-1,5.7844236E-2,9.61E1,2.9543164E-1,1.11E1,7.959143E-3,6.954553E-2,2.0536077E-3,4.7269907E-2,-8.865946E-3,2.8132189E-2,-4.0205218E-2,-2.3537546E-3],"split_indices":[4,0,15,10,11,16,14,11,4,0,0,0,0,0,0,0,0],"split_type":[0,0,0,0,0,0,0,0,0,0,0,0,0,0,0,0,0],"sum_hessian":[3.852045E2,8.949653E0,3.7625485E2,2.5886328E2,1.1739156E2,1.5321672E1,2.4354161E2,9.5400536E1,2.1991026E1,7.3504896E0,7.9711833E0,2.3342491E2,1.0116691E1,8.588338E1,9.517158E0,1.694144E1,5.049586E0],"tree_param":{"num_deleted":"0","num_feature":"24","num_nodes":"17","size_leaf_vector":"1"}},{"base_weights":[2.623796E-3,-3.0966079E-2,6.536975E-1,1.3782422E-1,-1.423732E-1,1.0961512E0,-5.731738E-3,-4.320867E-2,1.9205786E-1,-2.4125442E-1,1.582258E-1,2.5590992E-2,7.859627E-2,3.517617E-2,5.0914846E-3,-1.1468682E-3,-2.523355E-2,3.6506142E-2,-3.2215235E-3],"categories":[],"categories_nodes":[],"categories_segments":[],"categories_sizes":[],"default_left":[0,1,1,0,0,0,0,0,0,0,1,0,0,0,0,0,0,0,0],"id":22,"left_children":[1,3,5,7,9,11,-1,-1,13,15,17,-1,-1,-1,-1,-1,-1,-1,-1],"loss_changes":[8.401422E0,6.890564E0,6.532707E0,8.088364E0,6.595244E0,2.546712E0,0E0,0E0,6.3485622E0,9.5574255E0,7.0770655E0,0E0,0E0,0E0,0E0,0E0,0E0,0E0,0E0],"parents":[2147483647,0,0,1,1,2,2,3,3,4,4,5,5,8,8,9,9,10,10],"right_children":[2,4,6,8,10,12,-1,-1,14,16,18,-1,-1,-1,-1,-1,-1,-1,-1],"split_conditions":[3.261E-1,1.9295883E-1,4.1657168E-1,3.0916178E-1,5.8264685E-1,5.1E-1,-5.731738E-3,-4.320867E-2,2.9577735E-1,-3.3333334E-1,3.4E-1,2.5590992E-2,7.859627E-2,3.517617E-2,5.0914846E-3,-1.1468682E-3,-2.523355E-2,3.6506142E-2,-3.2215235E-3],"split_indices":[7,11,13,20,20,15,0,0,9,21,15,0,0,0,0,0,0,0,0],"split_type":[0,0,0,0,0,0,0,0,0,0,0,0,0,0,0,0,0,0,0],"sum_hessian":[3.822362E2,3.6438925E2,1.7846954E1,1.447877E2,2.1960156E2,1.1054448E1,6.7925053E0,6.667502E0,1.3812021E2,1.6539331E2,5.420825E1,5.8928237E0,5.1616244E0,1.969281E1,1.1842739E2,9.103307E1,7.436024E1,1.4552E1,3.965625E1],"tree_param":{"num_deleted":"0","num_feature":"24","num_nodes":"19","size_leaf_vector":"1"}},{"base_weights":[1.4973176E-2,-2.086285E-1,1.0308772E-1,-4.428508E-1,-4.0472142E-2,8.652913E-1,5.8996566E-2,-7.9821005E-2,-7.666416E-1,3.1815168E-1,-2.733947E-1,6.935629E-2,1.4575957E-2,1.2742378E-1,-2.0910342E-1,1.5524904E-2,-3.4567956E-2,-5.4812054E-3,-4.7585066E-2,1.5288726E-5,6.911685E-2,-2.3535188E-2,2.6492445E-2,1.0637769E-2,-1.0576932E-2,-2.3682043E-3,-3.1705964E-2],"categories":[],"categories_nodes":[],"categories_segments":[],"categories_sizes":[],"default_left":[0,0,0,0,1,0,1,0,0,0,0,0,0,0,0,0,0,0,0,0,0,0,0,0,0,0,0],"id":23,"left_children":[1,3,5,7,9,11,13,15,17,19,21,-1,-1,23,25,-1,-1,-1,-1,-1,-1,-1,-1,-1,-1,-1,-1],"loss_changes":[7.7778378E0,4.3780217E0,9.461565E0,5.4096985E0,5.6058497E0,4.2082663E0,4.9551873E0,5.718504E0,2.8726988E0,8.955364E0,6.682744E0,0E0,0E0,6.2535515E0,3.7511013E0,0E0,0E0,0E0,0E0,0E0,0E0,0E0,0E0,0E0,0E0,0E0,0E0],"parents":[2147483647,0,0,1,1,2,2,3,3,4,4,5,5,6,6,7,7,8,8,9,9,10,10,13,13,14,14],"right_children":[2,4,6,8,10,12,14,16,18,20,22,-1,-1,24,26,-1,-1,-1,-1,-1,-1,-1,-1,-1,-1,-1,-1],"split_conditions":[3.164E-1,1E0,2.8574476E-1,4.3E-1,6.432584E-2,3.218E-1,1.18784E0,4.0969914E-1,6.9E0,1.12E1,1.18392E0,6.935629E-2,1.4575957E-2,1.034E0,1.0844E2,1.5524904E-2,-3.4567956E-2,-5.4812054E-3,-4.7585066E-2,1.5288726E-5,6.911685E-2,-2.3535188E-2,2.6492445E-2,1.0637769E-2,-1.0576932E-2,-2.3682043E-3,-3.1705964E-2],"split_indices":[6,0,10,15,16,6,2,22,4,4,2,0,0,0,5,0,0,0,0,0,0,0,0,0,0,0,0],"split_type":[0,0,0,0,0,0,0,0,0,0,0,0,0,0,0,0,0,0,0,0,0,0,0,0,0,0,0],"sum_hessian":[3.9267123E2,1.1061193E2,2.820593E2,4.5542686E1,6.5069244E1,1.4405552E1,2.6765375E2,2.2058037E1,2.348465E1,2.5477066E1,3.959218E1,6.801849E0,7.6037035E0,2.1364883E2,5.4004917E1,1.3764806E1,8.293231E0,5.51107E0,1.797358E1,2.038797E1,5.089096E0,3.2116955E1,7.4752235E0,1.7097845E2,4.2670383E1,3.9923508E1,1.4081409E1],"tree_param":{"num_deleted":"0","num_feature":"24","num_nodes":"27","size_leaf_vector":"1"}},{"base_weights":[-4.8082634E-3,-4.2307045E-2,1.7547442E-2,-1.360817E-2,5.247963E-1,6.5858252E-3,-3.8013536E-2,7.539282E-2,2.1968963E-2,-1.4627757E-2,2.4540408E-3,-2.8430304E-2,4.0651474E-2],"categories":[],"categories_nodes":[],"categories_segments":[],"categories_sizes":[],"default_left":[0,0,0,1,0,0,0,0,0,0,0,0,0],"id":24,"left_children":[1,-1,3,5,7,9,-1,-1,11,-1,-1,-1,-1],"loss_changes":[7.2727036E0,0E0,5.963087E0,5.3733845E0,1.07593975E1,4.4337306E0,0E0,0E0,7.6848154E0,0E0,0E0,0E0,0E0],"parents":[2147483647,0,0,2,2,3,3,4,4,5,5,8,8],"right_children":[2,-1,4,6,8,10,-1,-1,12,-1,-1,-1,-1],"split_conditions":[2.1E0,-4.2307045E-2,3.271E-1,3.806296E0,9.32E1,3.123E-1,-3.8013536E-2,7.539282E-2,1.73E2,-1.4627757E-2,2.4540408E-3,-2.8430304E-2,4.0651474E-2],"split_indices":[4,0,6,22,14,6,0,0,18,0,0,0,0],"split_type":[0,0,0,0,0,0,0,0,0,0,0,0,0],"sum_hessian":[3.8488E2,9.008434E0,3.7587155E2,3.5503802E2,2.0833534E1,3.4665372E2,8.384305E0,6.3737273E0,1.4459807E1,4.2387184E1,3.0426654E2,8.440023E0,6.0197835E0],"tree_param":{"num_deleted":"0","num_feature":"24","num_nodes":"13","size_leaf_vector":"1"}},{"base_weights":[1.52757E-3,6.620362E-2,-1.985001E-1,4.6766743E-2,4.9576577E-2,-4.2332155E-1,1.09845445E-1,2.128906E-2,6.327903E-1,-5.623624E-1,1.5793785E-2,3.700566E-1,-4.5033562E-1,-1.7125914E-2,3.2317967E-3,5.6068987E-2,-7.6527294E-4,-2.5919126E-3,-3.6298055E-2,3.5994E-2,-2.3267498E-2,3.249092E-3,-3.8833585E-2],"categories":[],"categories_nodes":[],"categories_segments":[],"categories_sizes":[],"default_left":[1,1,0,0,0,0,0,0,1,0,0,0,0,0,0,0,0,0,0,0,0,0,0],"id":25,"left_children":[1,3,5,7,-1,9,11,13,15,17,-1,19,21,-1,-1,-1,-1,-1,-1,-1,-1,-1,-1],"loss_changes":[5.0854974E0,5.2959027E0,6.7048616E0,4.3458104E0,0E0,5.9079304E0,6.1860366E0,4.4509797E0,3.8581338E0,3.9117975E0,0E0,8.735878E0,2.3289583E0,0E0,0E0,0E0,0E0,0E0,0E0,0E0,0E0,0E0,0E0],"parents":[2147483647,0,0,1,1,2,2,3,3,5,5,6,6,7,7,8,8,9,9,11,11,12,12],"right_children":[2,4,6,8,-1,10,12,14,16,18,-1,20,22,-1,-1,-1,-1,-1,-1,-1,-1,-1,-1],"split_conditions":[5.7E-1,9.67E1,8.5E0,2.3333333E0,4.9576577E-2,3.3851796E-1,3.1652302E-1,9.13E1,3.5E-1,4.570384E-2,1.5793785E-2,8.6E-1,3.1165755E-1,-1.7125914E-2,3.2317967E-3,5.6068987E-2,-7.6527294E-4,-2.5919126E-3,-3.6298055E-2,3.5994E-2,-2.3267498E-2,3.249092E-3,-3.8833585E-2],"split_indices":[15,14,4,21,0,12,12,14,15,8,0,15,9,0,0,0,0,0,0,0,0,0,0],"split_type":[0,0,0,0,0,0,0,0,0,0,0,0,0,0,0,0,0,0,0,0,0,0,0],"sum_hessian":[3.9108136E2,2.9603256E2,9.5048805E1,2.9097113E2,5.0614204E0,5.4753765E1,4.029504E1,2.7984122E2,1.1129916E1,4.6286613E1,8.467153E0,2.774605E1,1.2548991E1,2.9057959E1,2.5078326E2,5.9294944E0,5.200422E0,1.1552591E1,3.473402E1,1.9654211E1,8.09184E0,5.1761703E0,7.372821E0],"tree_param":{"num_deleted":"0","num_feature":"24","num_nodes":"23","size_leaf_vector":"1"}},{"base_weights":[-1.9861052E-2,-1.2627551E-1,1.2750867E-1,-4.1049105E-1,-6.730376E-2,-5.3761256E-1,1.9142795E-1,-5.410811E-1,1.741032E-2,-6.4193E-1,-2.5438001E-2,-9.021457E-3,-4.0775854E-2,3.3806694E-1,-2.13104E-2,-1.5952507E-2,-5.0911434E-2,-5.567628E-3,-4.980802E-2,2.4780974E-2,-4.5131813E-3,7.6089665E-2,1.1337362E-2,-4.277901E-2,1.04095545E-2],"categories":[],"categories_nodes":[],"categories_segments":[],"categories_sizes":[],"default_left":[0,1,0,1,0,0,1,1,0,0,0,0,0,0,0,0,0,0,0,0,0,0,0,0,0],"id":26,"left_children":[1,3,5,7,9,11,13,15,-1,17,19,-1,-1,21,23,-1,-1,-1,-1,-1,-1,-1,-1,-1,-1],"loss_changes":[6.0573816E0,3.7301412E0,6.991413E0,3.986042E0,4.479274E0,1.2890506E0,4.6416464E0,3.1810093E0,0E0,2.266437E0,5.9633822E0,0E0,0E0,1.1251076E1,1.1964516E1,0E0,0E0,0E0,0E0,0E0,0E0,0E0,0E0,0E0,0E0],"parents":[2147483647,0,0,1,1,2,2,3,3,4,4,5,5,6,6,7,7,9,9,10,10,13,13,14,14],"right_children":[2,4,6,8,10,12,14,16,-1,18,20,-1,-1,22,24,-1,-1,-1,-1,-1,-1,-1,-1,-1,-1],"split_conditions":[1.2522289E0,9.9E1,3.124E-1,1E0,9.08E1,4.0808013E-1,9.39E1,5.9E-1,1.741032E-2,4.7732496E-1,1.2E-1,-9.021457E-3,-4.0775854E-2,5.69E1,3.6677727E-1,-1.5952507E-2,-5.0911434E-2,-5.567628E-3,-4.980802E-2,2.4780974E-2,-4.5131813E-3,7.6089665E-2,1.1337362E-2,-4.277901E-2,1.04095545E-2],"split_indices":[17,18,6,3,14,20,14,15,0,20,15,0,0,1,13,0,0,0,0,0,0,0,0,0,0],"split_type":[0,0,0,0,0,0,0,0,0,0,0,0,0,0,0,0,0,0,0,0,0,0,0,0,0],"sum_hessian":[3.8423004E2,2.2320134E2,1.610287E2,3.7329624E1,1.8587172E2,1.3468587E1,1.4756012E2,3.2092556E1,5.2370696E0,1.1649132E1,1.7422258E2,6.6153283E0,6.8532586E0,8.7001495E1,6.0558617E1,2.3040014E1,9.052542E0,5.189895E0,6.4592366E0,1.854174E1,1.5568085E2,6.3893533E0,8.0612144E1,1.2476567E1,4.808205E1],"tree_param":{"num_deleted":"0","num_feature":"24","num_nodes":"25","size_leaf_vector":"1"}},{"base_weights":[1.21504795E-2,-2.1668471E-2,3.8134456E-1,4.9909838E-3,-5.24538E-1,-2.4420386E-2,6.1456215E-1,-5.132573E-2,2.0661499E-1,-4.5788832E-2,-6.111585E-4,-1.3800939E-2,9.351579E-1,1.104541E-2,-5.599668E-3,2.204681E-2,-1.1527832E-2,8.613844E-3,6.207481E-2],"categories":[],"categories_nodes":[],"categories_segments":[],"categories_sizes":[],"default_left":[0,1,0,0,0,0,1,0,0,0,0,0,0,0,0,0,0,0,0],"id":27,"left_children":[1,3,5,7,9,-1,11,13,15,-1,-1,-1,17,-1,-1,-1,-1,-1,-1],"loss_changes":[4.910065E0,4.836814E0,6.993561E0,3.9101799E0,3.6294932E0,0E0,7.813943E0,4.4715986E0,7.8030605E0,0E0,0E0,0E0,4.386898E0,0E0,0E0,0E0,0E0,0E0,0E0],"parents":[2147483647,0,0,1,1,2,2,3,3,4,4,6,6,7,7,8,8,12,12],"right_children":[2,4,6,8,10,-1,12,14,16,-1,-1,-1,18,-1,-1,-1,-1,-1,-1],"split_conditions":[3.4319296E-1,3.2571575E-1,6.4E0,8.4E-1,1E0,-2.4420386E-2,-1.7062814E0,1.14038E0,8.06E1,-4.5788832E-2,-6.111585E-4,-1.3800939E-2,1.14842E0,1.104541E-2,-5.599668E-3,2.204681E-2,-1.1527832E-2,8.613844E-3,6.207481E-2],"split_indices":[10,11,4,15,3,0,22,2,1,0,0,0,2,0,0,0,0,0,0],"split_type":[0,0,0,0,0,0,0,0,0,0,0,0,0,0,0,0,0,0,0],"sum_hessian":[3.9159152E2,3.5959332E2,3.1998192E1,3.424296E2,1.7163713E1,6.534496E0,2.5463697E1,2.6824896E2,7.418066E1,9.285297E0,7.8784165E0,6.776988E0,1.8686708E1,4.840406E1,2.198449E2,4.8289295E1,2.5891365E1,5.8014946E0,1.2885214E1],"tree_param":{"num_deleted":"0","num_feature":"24","num_nodes":"19","size_leaf_vector":"1"}},{"base_weights":[-1.2894296E-2,-3.3058036E-2,5.468538E-2,4.081102E-1,-6.403966E-2,-1.2936378E-1,9.0943813E-1,-2.458836E-1,1.1297578E-2,2.3829548E-2,-4.5128837E-2,7.60202E-2,1.6547237E-2,-1.7355943E-2,3.2215334E-2,4.987885E-3,-8.337381E-3],"categories":[],"categories_nodes":[],"categories_segments":[],"categories_sizes":[],"default_left":[0,0,0,0,0,1,0,1,1,0,0,0,0,0,0,0,0],"id":28,"left_children":[1,3,-1,5,7,9,11,13,15,-1,-1,-1,-1,-1,-1,-1,-1],"loss_changes":[8.630926E0,5.2099676E0,0E0,6.8599277E0,4.869465E0,6.498252E0,4.1166496E0,9.605606E0,3.9877465E0,0E0,0E0,0E0,0E0,0E0,0E0,0E0,0E0],"parents":[2147483647,0,0,1,1,3,3,4,4,5,5,6,6,7,7,8,8],"right_children":[2,4,-1,6,8,10,12,14,16,-1,-1,-1,-1,-1,-1,-1,-1],"split_conditions":[1.073E2,2.8574476E-1,5.468538E-2,2.8498203E-1,3.079749E-1,2.3473684E-1,2.9331502E-1,1.5014732E0,1.3180805E0,2.3829548E-2,-4.5128837E-2,7.60202E-2,1.6547237E-2,-1.7355943E-2,3.2215334E-2,4.987885E-3,-8.337381E-3],"split_indices":[1,10,0,9,9,11,9,17,17,0,0,0,0,0,0,0,0],"split_type":[0,0,0,0,0,0,0,0,0,0,0,0,0,0,0,0,0],"sum_hessian":[3.8418713E2,3.7826477E2,5.9223547E0,2.4022308E1,3.5424246E2,1.1951285E1,1.2071022E1,1.03106705E2,2.5113577E2,6.9154105E0,5.035875E0,5.0788593E0,6.9921627E0,9.312616E1,9.980538E0,1.6807097E2,8.3064804E1],"tree_param":{"num_deleted":"0","num_feature":"24","num_nodes":"17","size_leaf_vector":"1"}},{"base_weights":[-6.0693636E-3,-3.366348E-2,6.120863E-1,-1.2176778E-1,1.1529695E-1,-1.7683366E-2,1.0967203E0,-1.6113219E-1,3.598381E-2,2.7312436E-3,5.4842985E-1,7.6615915E-2,2.333246E-2,-1.5559129E-2,8.6850795E-4,7.0683095E-3,-1.4210536E-2,1.4038957E-2,7.551458E-2],"categories":[],"categories_nodes":[],"categories_segments":[],"categories_sizes":[],"default_left":[0,0,0,0,0,0,0,0,0,1,1,0,0,0,0,0,0,0,0],"id":29,"left_children":[1,3,5,7,9,-1,11,13,-1,15,17,-1,-1,-1,-1,-1,-1,-1,-1],"loss_changes":[6.6410117E0,4.902572E0,8.174794E0,7.8846E0,6.7729897E0,0E0,2.3923569E0,6.028528E0,0E0,4.4673247E0,6.953412E0,0E0,0E0,0E0,0E0,0E0,0E0,0E0,0E0],"parents":[2147483647,0,0,1,1,2,2,3,3,4,4,6,6,7,7,9,9,10,10],"right_children":[2,4,6,8,10,-1,12,14,-1,16,18,-1,-1,-1,-1,-1,-1,-1,-1],"split_conditions":[3.263E-1,1.0955213E0,6.2416907E-2,1.017E2,1.4950175E0,-1.7683366E-2,1.2993735E0,5.133903E-1,3.598381E-2,2.4413545E-1,1.18454E0,7.6615915E-2,2.333246E-2,-1.5559129E-2,8.6850795E-4,7.0683095E-3,-1.4210536E-2,1.4038957E-2,7.551458E-2],"split_indices":[7,22,16,1,17,0,17,23,0,11,2,0,0,0,0,0,0,0,0],"split_type":[0,0,0,0,0,0,0,0,0,0,0,0,0,0,0,0,0,0,0],"sum_hessian":[3.8712387E2,3.7148645E2,1.5637402E1,2.3353949E2,1.3794698E2,5.3153954E0,1.0322006E1,2.238747E2,9.664795E0,1.1029025E2,2.7656723E1,5.2561827E0,5.0658236E0,1.2122704E2,1.02647644E2,7.470442E1,3.558583E1,2.264685E1,5.009873E0],"tree_param":{"num_deleted":"0","num_feature":"24","num_nodes":"19","size_leaf_vector":"1"}},{"base_weights":[1.9156972E-3,-2.4849687E-2,5.321899E-1,-2.8740016E-1,3.2216176E-2,1.1553075E0,-1.7469216E-2,-4.152112E-1,2.3602171E-1,1.070423E-1,-1.6077429E-1,7.029916E-2,3.6112055E-2,-2.5795087E-2,2.1042848E-2,3.603975E-2,-1.6197251E-2,-1.4350205E-2,9.02369E-3,-1.6167307E-2,1.1605609E-2],"categories":[],"categories_nodes":[],"categories_segments":[],"categories_sizes":[],"default_left":[0,1,1,0,0,0,0,0,1,1,0,0,0,0,0,0,0,0,0,0,0],"id":30,"left_children":[1,3,5,7,9,11,-1,13,15,17,19,-1,-1,-1,-1,-1,-1,-1,-1,-1,-1],"loss_changes":[5.528568E0,5.5660286E0,1.0685023E1,4.5347123E0,4.429723E0,2.0016766E-1,0E0,4.734953E0,3.9398212E0,6.4404225E0,5.5534515E0,0E0,0E0,0E0,0E0,0E0,0E0,0E0,0E0,0E0,0E0],"parents":[2147483647,0,0,1,1,2,2,3,3,4,4,5,5,7,7,8,8,9,9,10,10],"right_children":[2,4,6,8,10,12,-1,14,16,18,20,-1,-1,-1,-1,-1,-1,-1,-1,-1,-1],"split_conditions":[3.264E-1,9.08E1,4.1657168E-1,3.263E-1,2.5304288E-1,3.171352E-1,-1.7469216E-2,1.5732603E0,4.6953537E-2,1E2,8E-1,7.029916E-2,3.6112055E-2,-2.5795087E-2,2.1042848E-2,3.603975E-2,-1.6197251E-2,-1.4350205E-2,9.02369E-3,-1.6167307E-2,1.1605609E-2],"split_indices":[7,14,13,6,11,10,0,17,16,18,21,0,0,0,0,0,0,0,0,0,0],"split_type":[0,0,0,0,0,0,0,0,0,0,0,0,0,0,0,0,0,0,0,0,0],"sum_hessian":[3.8759622E2,3.6987982E2,1.7716402E1,6.531949E1,3.0456033E2,1.0197828E1,7.5185733E0,5.2666042E1,1.2653448E1,2.1978917E2,8.477115E1,5.0361395E0,5.161689E0,4.7346844E1,5.3192E0,6.6281385E0,6.0253096E0,3.4067654E1,1.8572153E2,6.008548E1,2.4685675E1],"tree_param":{"num_deleted":"0","num_feature":"24","num_nodes":"21","size_leaf_vector":"1"}},{"base_weights":[3.5951233E-3,-3.268571E-2,2.1303972E-2,5.10733E-3,4.4403296E-2,-9.78846E-2,1.4220181E-1,-1.0446151E-2,6.8065114E-3,-9.205155E-3,1.1678598E-2],"categories":[],"categories_nodes":[],"categories_segments":[],"categories_sizes":[],"default_left":[0,0,0,0,0,0,0,0,0,0,0],"id":31,"left_children":[1,-1,3,5,-1,7,9,-1,-1,-1,-1],"loss_changes":[4.5456924E0,0E0,5.3312035E0,5.296202E0,0E0,5.594782E0,4.8399363E0,0E0,0E0,0E0,0E0],"parents":[2147483647,0,0,2,2,3,3,5,5,6,6],"right_children":[2,-1,4,6,-1,8,10,-1,-1,-1,-1],"split_conditions":[2.1E0,-3.268571E-2,1.073E2,7.3869765E-1,4.4403296E-2,1E0,1.0551115E0,-1.0446151E-2,6.8065114E-3,-9.205155E-3,1.1678598E-2],"split_indices":[4,0,1,23,0,3,17,0,0,0,0],"split_type":[0,0,0,0,0,0,0,0,0,0,0],"sum_hessian":[3.8832065E2,9.245243E0,3.790754E2,3.7310922E2,5.966168E0,2.1321667E2,1.5989256E2,1.446761E2,6.854057E1,3.4755905E1,1.2513666E2],"tree_param":{"num_deleted":"0","num_feature":"24","num_nodes":"11","size_leaf_vector":"1"}},{"base_weights":[2.4913702E-2,-3.3851545E-2,4.2521775E-2,-4.8870895E-2,1.539488E-1,-1.5022965E-1,2.2886834E-1,5.03727E-1,4.730033E-2,-1.0750755E-2,1.9419363E-2,-1.2102686E-2,2.5085736E-2,4.944234E-2,-6.1909393E-3,6.3915625E-3,-2.7674196E-2],"categories":[],"categories_nodes":[],"categories_segments":[],"categories_sizes":[],"default_left":[0,0,0,0,1,0,0,0,0,0,0,0,0,0,0,0,0],"id":32,"left_children":[1,-1,3,5,7,9,11,13,15,-1,-1,-1,-1,-1,-1,-1,-1],"loss_changes":[4.8088174E0,0E0,3.8591113E0,5.905225E0,6.3426647E0,5.436022E0,7.3367443E0,1.2231224E1,6.4519906E0,0E0,0E0,0E0,0E0,0E0,0E0,0E0,0E0],"parents":[2147483647,0,0,2,2,3,3,4,4,5,5,6,6,7,7,8,8],"right_children":[2,-1,4,6,8,10,12,14,16,-1,-1,-1,-1,-1,-1,-1,-1],"split_conditions":[3.071E-1,-3.3851545E-2,5.133903E-1,3.242E-1,6E-2,3.4014183E-1,3.130199E-1,3.240072E-1,3.6307138E-1,-1.0750755E-2,1.9419363E-2,-1.2102686E-2,2.5085736E-2,4.944234E-2,-6.1909393E-3,6.3915625E-3,-2.7674196E-2],"split_indices":[6,0,23,6,15,10,9,9,12,0,0,0,0,0,0,0,0],"split_type":[0,0,0,0,0,0,0,0,0,0,0,0,0,0,0,0,0],"sum_hessian":[3.8573715E2,8.522886E0,3.7721426E2,2.07546E2,1.6966826E2,1.5239114E2,5.5154854E1,3.877464E1,1.3089362E2,1.3656567E2,1.582547E1,2.0274584E1,3.4880272E1,2.1544264E1,1.7230375E1,1.16116264E2,1.4777348E1],"tree_param":{"num_deleted":"0","num_feature":"24","num_nodes":"17","size_leaf_vector":"1"}},{"base_weights":[-2.364422E-3,-3.719066E-2,3.1609806E-1,-1.9776468E-1,2.8267633E-2,-2.3234487E-2,7.7704614E-1,-2.3457112E-2,-7.5788873E-1,1.3379015E-1,-1.0037899E-1,2.3358665E-2,-3.7767756E-1,6.8641864E-2,3.4771485E-3,6.222092E-3,-2.7916102E-2,-2.9008058E-3,-4.6825737E-2,1.026981E-2,-1.7916944E-2,-3.85669E-2,2.2372133E-3,-3.5827335E-2,9.843462E-3],"categories":[],"categories_nodes":[],"categories_segments":[],"categories_sizes":[],"default_left":[1,0,0,1,1,0,0,0,0,1,0,0,0,0,0,0,0,0,0,0,0,0,0,0,0],"id":33,"left_children":[1,3,5,7,9,11,13,15,17,19,21,-1,23,-1,-1,-1,-1,-1,-1,-1,-1,-1,-1,-1,-1],"loss_changes":[4.3684273E0,3.736841E0,6.0913353E0,1.003155E1,3.4487472E0,4.232617E0,6.856638E0,6.360926E0,2.9956465E0,4.987858E0,1.1193951E1,0E0,2.885954E0,0E0,0E0,0E0,0E0,0E0,0E0,0E0,0E0,0E0,0E0,0E0,0E0],"parents":[2147483647,0,0,1,1,2,2,3,3,4,4,5,5,6,6,7,7,8,8,9,9,10,10,12,12],"right_children":[2,4,6,8,10,12,14,16,18,20,22,-1,24,-1,-1,-1,-1,-1,-1,-1,-1,-1,-1,-1,-1],"split_conditions":[1.15570314E-1,3.169E-1,4.427984E-1,3.4253827E-1,9.36E1,1.43E2,3.552731E-1,3.3204904E-1,1.493731E-1,3.6239302E-1,9.41E1,2.3358665E-2,3.7269354E-1,6.8641864E-2,3.4771485E-3,6.222092E-3,-2.7916102E-2,-2.9008058E-3,-4.6825737E-2,1.026981E-2,-1.7916944E-2,-3.85669E-2,2.2372133E-3,-3.5827335E-2,9.843462E-3],"split_indices":[16,6,13,12,14,18,12,9,11,12,14,0,12,0,0,0,0,0,0,0,0,0,0,0,0],"split_type":[0,0,0,0,0,0,0,0,0,0,0,0,0,0,0,0,0,0,0,0,0,0,0,0,0],"sum_hessian":[3.918167E2,3.5398865E2,3.7828068E1,1.0192873E2,2.5205992E2,2.2335278E1,1.5492792E1,7.8531906E1,2.3396826E1,1.384534E2,1.13606514E2,9.23696E0,1.3098317E1,7.899878E0,7.592914E0,6.21216E1,1.6410305E1,5.026672E0,1.8370153E1,1.2137558E2,1.7077826E1,1.9435213E1,9.41713E1,8.083499E0,5.014818E0],"tree_param":{"num_deleted":"0","num_feature":"24","num_nodes":"25","size_leaf_vector":"1"}},{"base_weights":[2.5361385E-2,9.800474E-3,3.9752495E-2,-1.3485998E-2,4.5967215E-1,-9.175809E-2,1.1958729E-1,6.424216E-2,-3.975117E-2,-2.6388666E-2,-1.5935645E-3,4.0587854E-2,2.6511578E-3,2.1452952E-2,-2.7795777E-2],"categories":[],"categories_nodes":[],"categories_segments":[],"categories_sizes":[],"default_left":[0,0,0,0,0,0,0,0,0,0,0,0,0,0,0],"id":34,"left_children":[1,3,-1,5,7,9,11,-1,13,-1,-1,-1,-1,-1,-1],"loss_changes":[4.6177664E0,3.982451E0,0E0,3.78E0,7.7610655E0,5.9472055E0,6.151415E0,0E0,3.2934895E0,0E0,0E0,0E0,0E0,0E0,0E0],"parents":[2147483647,0,0,1,1,3,3,4,4,5,5,6,6,8,8],"right_children":[2,4,-1,6,8,10,12,-1,14,-1,-1,-1,-1,-1,-1],"split_conditions":[1.073E2,3.262E-1,3.9752495E-2,1.018E0,1.0231E2,9.189E1,5.63E1,6.424216E-2,5.7251585E-1,-2.6388666E-2,-1.5935645E-3,4.0587854E-2,2.6511578E-3,2.1452952E-2,-2.7795777E-2],"split_indices":[1,7,0,0,5,5,1,0,20,0,0,0,0,0,0],"split_type":[0,0,0,0,0,0,0,0,0,0,0,0,0,0,0],"sum_hessian":[3.8520166E2,3.7856097E2,6.640692E0,3.608524E2,1.7708591E1,2.2740562E2,1.3344676E2,6.0838723E0,1.1624719E1,2.6518766E1,2.0088686E2,1.0725203E1,1.2272156E2,6.1802316E0,5.444487E0],"tree_param":{"num_deleted":"0","num_feature":"24","num_nodes":"15","size_leaf_vector":"1"}},{"base_weights":[-1.199067E-2,-2.7857676E-1,3.4000657E-2,-5.06576E-1,2.1303391E-1,-3.246201E-1,6.966688E-2,1.5519275E-2,-6.432741E-1,4.9705733E-2,-2.2605602E-1,2.8749729E-2,-5.4712665E-1,5.414619E-1,3.3069648E-2,-4.29077E-2,-1.159575E-2,-3.0069163E-2,1.0669132E-2,-4.3212898E-2,-6.0626497E-3,4.9300365E-2,-9.943209E-3,-3.7106436E-3,1.2408873E-2],"categories":[],"categories_nodes":[],"categories_segments":[],"categories_sizes":[],"default_left":[0,0,0,0,0,0,0,0,0,0,1,0,0,0,1,0,0,0,0,0,0,0,0,0,0],"id":35,"left_children":[1,3,5,7,9,11,13,-1,15,-1,17,-1,19,21,23,-1,-1,-1,-1,-1,-1,-1,-1,-1,-1],"loss_changes":[4.811561E0,6.579476E0,4.306586E0,4.6376905E0,6.740091E0,6.414504E0,5.256221E0,0E0,2.8389473E0,0E0,2.2684338E0,0E0,3.2640066E0,7.4113245E0,6.5846667E0,0E0,0E0,0E0,0E0,0E0,0E0,0E0,0E0,0E0,0E0],"parents":[2147483647,0,0,1,1,2,2,3,3,4,4,5,5,6,6,8,8,10,10,12,12,13,13,14,14],"right_children":[2,4,6,8,10,12,14,-1,16,-1,18,-1,20,22,24,-1,-1,-1,-1,-1,-1,-1,-1,-1,-1],"split_conditions":[4.6953537E-2,5.6146663E-1,9.13E1,9.19E1,3.9406022E-1,1.04E2,9.17E1,1.5519275E-2,3.1381375E-1,4.9705733E-2,9.43E1,2.8749729E-2,7.59E1,3.4801912E-1,4.4367605E-1,-4.29077E-2,-1.159575E-2,-3.0069163E-2,1.0669132E-2,-4.3212898E-2,-6.0626497E-3,4.9300365E-2,-9.943209E-3,-3.7106436E-3,1.2408873E-2],"split_indices":[16,20,14,14,13,18,14,0,12,0,14,0,1,12,13,0,0,0,0,0,0,0,0,0,0],"split_type":[0,0,0,0,0,0,0,0,0,0,0,0,0,0,0,0,0,0,0,0,0,0,0,0,0],"sum_hessian":[3.9066687E2,5.673699E1,3.339299E2,3.8739803E1,1.7997189E1,2.9473616E1,3.0445627E2,5.3708596E0,3.3368942E1,6.021584E0,1.1975605E1,5.5302267E0,2.3943388E1,2.0923594E1,2.8353268E2,2.1205683E1,1.2163261E1,6.2602024E0,5.7154026E0,1.3133795E1,1.0809593E1,1.2866036E1,8.057556E0,1.8961794E2,9.391475E1],"tree_param":{"num_deleted":"0","num_feature":"24","num_nodes":"25","size_leaf_vector":"1"}},{"base_weights":[6.3585984E-3,3.7368808E-2,-5.11501E-1,-4.3197528E-1,6.52104E-2,-4.4995625E-2,-1.7692995E-1,-8.4640443E-1,2.3438586E-2,1.1305474E-1,-1.9259256E-1,-3.021999E-2,1.1542468E-2,-2.357006E-2,-5.531037E-2,1.6891807E-3,1.9312471E-2,3.315326E-2,-1.8010763E-2],"categories":[],"categories_nodes":[],"categories_segments":[],"categories_sizes":[],"default_left":[1,1,0,1,0,0,0,1,0,0,0,0,0,0,0,0,0,0,0],"id":36,"left_children":[1,3,5,7,9,-1,11,13,-1,15,17,-1,-1,-1,-1,-1,-1,-1,-1],"loss_changes":[6.1926484E0,4.779985E0,2.6721196E0,8.047291E0,4.2666316E0,0E0,2.3968563E0,8.807869E-1,0E0,6.286959E0,8.018482E0,0E0,0E0,0E0,0E0,0E0,0E0,0E0,0E0],"parents":[2147483647,0,0,1,1,2,2,3,3,4,4,6,6,7,7,9,9,10,10],"right_children":[2,4,6,8,10,-1,12,14,-1,16,18,-1,-1,-1,-1,-1,-1,-1,-1],"split_conditions":[3.2571575E-1,7.4E1,1.009E2,2.449332E-1,1.0823E2,-4.4995625E-2,1.1085532E0,1.16081E0,2.3438586E-2,8.4E-1,2.8544325E-1,-3.021999E-2,1.1542468E-2,-2.357006E-2,-5.531037E-2,1.6891807E-3,1.9312471E-2,3.315326E-2,-1.8010763E-2],"split_indices":[11,18,5,11,5,0,17,2,0,15,12,0,0,0,0,0,0,0,0],"split_type":[0,0,0,0,0,0,0,0,0,0,0,0,0,0,0,0,0,0,0],"sum_hessian":[3.8342984E2,3.6264212E2,2.0787716E1,1.949453E1,3.431476E2,8.837871E0,1.1949845E1,1.3392869E1,6.1016603E0,2.8990677E2,5.324085E1,5.598664E0,6.3511815E0,6.633066E0,6.7598023E0,2.2557639E2,6.433037E1,8.237166E0,4.500368E1],"tree_param":{"num_deleted":"0","num_feature":"24","num_nodes":"19","size_leaf_vector":"1"}},{"base_weights":[1.2045283E-2,4.8382338E-2,-6.3339234E-3,-2.2598507E-1,7.206538E-2,1.2475876E-2,-5.032047E-1,7.406471E-1,3.3718485E-2,-6.7697554E-3,6.0627062E-2,-1.2364939E-2,-4.4687707E-2,6.21934E-4,6.33283E-2,-8.334517E-3,5.0819577E-3],"categories":[],"categories_nodes":[],"categories_segments":[],"categories_sizes":[],"default_left":[0,0,0,0,0,0,0,0,0,0,0,0,0,0,0,0,0],"id":37,"left_children":[1,-1,3,5,7,9,11,13,15,-1,-1,-1,-1,-1,-1,-1,-1],"loss_changes":[6.7888308E0,0E0,6.558256E0,6.6280804E0,7.172264E0,9.893112E0,4.4108257E0,5.797883E0,3.6451259E0,0E0,0E0,0E0,0E0,0E0,0E0,0E0,0E0],"parents":[2147483647,0,0,2,2,3,3,4,4,5,5,6,6,7,7,8,8],"right_children":[2,-1,4,6,8,10,12,14,16,-1,-1,-1,-1,-1,-1,-1,-1],"split_conditions":[-2.4E0,4.8382338E-2,3.164E-1,2.256766E-1,2.8574476E-1,2.172307E-1,3.1533253E-1,2.8267506E-1,3.079749E-1,-6.7697554E-3,6.0627062E-2,-1.2364939E-2,-4.4687707E-2,6.21934E-4,6.33283E-2,-8.334517E-3,5.0819577E-3],"split_indices":[21,0,6,11,10,11,10,9,9,0,0,0,0,0,0,0,0],"split_type":[0,0,0,0,0,0,0,0,0,0,0,0,0,0,0,0,0],"sum_hessian":[3.8518835E2,6.2939525E0,3.788944E2,9.9169365E1,2.7972504E2,5.3824867E1,4.5344494E1,1.4180056E1,2.6554498E2,4.8710037E1,5.1148305E0,2.8381098E1,1.6963394E1,6.3756824E0,7.8043733E0,6.684775E1,1.9869724E2],"tree_param":{"num_deleted":"0","num_feature":"24","num_nodes":"17","size_leaf_vector":"1"}},{"base_weights":[1.3284965E-2,-3.1955097E-2,2.7852077E-2,3.5506523E-1,-9.322256E-3,5.297709E-1,-2.0860082E-2,-7.5641865E-1,2.3385407E-2,4.7023557E-2,-7.0489617E-3,-1.2215492E-2,-5.0474096E-2,1.02955055E-4,3.340909E-2],"categories":[],"categories_nodes":[],"categories_segments":[],"categories_sizes":[],"default_left":[0,0,0,0,1,1,0,1,0,0,0,0,0,0,0],"id":38,"left_children":[1,-1,3,5,7,9,-1,11,13,-1,-1,-1,-1,-1,-1],"loss_changes":[3.687393E0,0E0,4.6092987E0,5.4364586E0,8.350378E0,8.938196E0,0E0,1.6108541E0,4.504466E0,0E0,0E0,0E0,0E0,0E0,0E0],"parents":[2147483647,0,0,2,2,3,3,4,4,5,5,7,7,8,8],"right_children":[2,-1,4,6,8,10,-1,12,14,-1,-1,-1,-1,-1,-1],"split_conditions":[2E0,-3.1955097E-2,-1.9063511E0,1.0686E2,6.6E1,9.46E1,-2.0860082E-2,9.31E1,3.262E-1,4.7023557E-2,-7.0489617E-3,-1.2215492E-2,-5.0474096E-2,1.02955055E-4,3.340909E-2],"split_indices":[4,0,23,5,18,14,0,14,7,0,0,0,0,0,0],"split_type":[0,0,0,0,0,0,0,0,0,0,0,0,0,0,0],"sum_hessian":[3.85135E2,7.475433E0,3.7765958E2,3.7655937E1,3.4000366E2,3.0964916E1,6.6910186E0,1.3332854E1,3.266708E2,1.8956026E1,1.200889E1,5.059553E0,8.273301E0,3.1718332E2,9.487481E0],"tree_param":{"num_deleted":"0","num_feature":"24","num_nodes":"15","size_leaf_vector":"1"}},{"base_weights":[2.4909658E-2,-1.4468307E-2,4.4887805E-1,1.2437403E-2,-5.072654E-1,-2.23276E-2,7.80351E-1,4.1732546E-2,-4.496163E-1,-3.933781E-2,1.9684588E-3,1.251916E0,2.2420864E-1,1.74441E-2,-7.753776E-4,-4.497663E-2,-6.715994E-3,3.5002965E-2,7.878818E-2,-1.9334873E-2,3.921866E-2],"categories":[],"categories_nodes":[],"categories_segments":[],"categories_sizes":[],"default_left":[0,1,0,0,0,0,0,0,0,0,0,0,1,0,0,0,0,0,0,0,0],"id":39,"left_children":[1,3,5,7,9,-1,11,13,15,-1,-1,17,19,-1,-1,-1,-1,-1,-1,-1,-1],"loss_changes":[6.2891283E0,4.5847273E0,9.850272E0,4.4640193E0,2.7658515E0,0E0,5.942153E0,5.451017E0,2.6687944E0,0E0,0E0,1.1526814E0,4.4460135E0,0E0,0E0,0E0,0E0,0E0,0E0,0E0,0E0],"parents":[2147483647,0,0,1,1,2,2,3,3,4,4,6,6,7,7,8,8,11,11,12,12],"right_children":[2,4,6,8,10,-1,12,14,16,-1,-1,18,20,-1,-1,-1,-1,-1,-1,-1,-1],"split_conditions":[6.848622E-1,3.2571575E-1,-7.496698E-1,7.2289154E-2,1.22721E0,-2.23276E-2,1.43E2,2.8755537E-1,7.5134166E-2,-3.933781E-2,1.9684588E-3,1.17032E0,7.480226E-2,1.74441E-2,-7.753776E-4,-4.497663E-2,-6.715994E-3,3.5002965E-2,7.878818E-2,-1.9334873E-2,3.921866E-2],"split_indices":[20,11,22,8,2,0,18,12,8,0,0,2,16,0,0,0,0,0,0,0,0],"split_type":[0,0,0,0,0,0,0,0,0,0,0,0,0,0,0,0,0,0,0,0,0],"sum_hessian":[3.7531802E2,3.4430502E2,3.1013E1,3.2740417E2,1.6900835E1,8.285001E0,2.2728E1,3.0873917E2,1.8665009E1,1.0892365E1,6.00847E0,1.1622209E1,1.1105791E1,4.7697906E1,2.6104126E2,6.9271913E0,1.1737818E1,5.467291E0,6.1549177E0,5.46042E0,5.6453714E0],"tree_param":{"num_deleted":"0","num_feature":"24","num_nodes":"21","size_leaf_vector":"1"}},{"base_weights":[-2.1817952E-2,6.343606E-2,-2.2045162E-1,7.3439604E-1,2.847893E-2,3.376254E-1,-3.202906E-1,6.8104655E-2,-6.609379E-4,4.052137E-3,5.1937845E-2,-1.2078042E-2,5.4407246E-2,1.7603794E-2,-3.6861208E-1,-4.388135E-3,1.3990882E-2,-3.512238E-2,-1.2274007E-2],"categories":[],"categories_nodes":[],"categories_segments":[],"categories_sizes":[],"default_left":[1,0,0,0,0,0,0,0,0,1,0,0,0,0,0,0,0,0,0],"id":40,"left_children":[1,3,5,7,9,11,13,-1,-1,15,-1,-1,-1,-1,17,-1,-1,-1,-1],"loss_changes":[6.477273E0,6.2609057E0,6.5068755E0,6.222983E0,6.303542E0,8.049946E0,3.3114223E0,0E0,0E0,6.3689213E0,0E0,0E0,0E0,0E0,3.6031437E0,0E0,0E0,0E0,0E0],"parents":[2147483647,0,0,1,1,2,2,3,3,4,4,5,5,6,6,9,9,14,14],"right_children":[2,4,6,8,10,12,14,-1,-1,16,-1,-1,-1,-1,18,-1,-1,-1,-1],"split_conditions":[5E-1,2.7695894E-1,9.28E1,3.2756153E-1,1.06E2,1E0,8.988E1,6.8104655E-2,-6.609379E-4,4.6356517E-1,5.1937845E-2,-1.2078042E-2,5.4407246E-2,1.7603794E-2,6.4E0,-4.388135E-3,1.3990882E-2,-3.512238E-2,-1.2274007E-2],"split_indices":[15,9,14,12,1,3,5,0,0,13,0,0,0,0,4,0,0,0,0],"split_type":[0,0,0,0,0,0,0,0,0,0,0,0,0,0,0,0,0,0,0],"sum_hessian":[3.8066806E2,2.6682626E2,1.1384179E2,1.2222458E1,2.546038E2,1.6914106E1,9.692768E1,6.1972938E0,6.025164E0,2.4957356E2,5.0302515E0,9.929509E0,6.984597E0,6.0774336E0,9.085025E1,1.8774611E2,6.1827442E1,2.3212269E1,6.763798E1],"tree_param":{"num_deleted":"0","num_feature":"24","num_nodes":"19","size_leaf_vector":"1"}},{"base_weights":[-5.041386E-2,-2.2954877E-1,1.5302304E-2,-5.794477E-1,-5.724987E-3,7.714565E-1,-2.9305426E-2,-8.8248986E-1,-2.0505501E-1,5.194836E-1,-2.3824279E-1,6.0012545E-2,1.1317782E-2,-2.961728E-1,4.375674E-2,-5.509559E-2,-3.2926407E-2,5.8032162E-3,-4.443438E-2,4.8251644E-2,8.818029E-3,2.6810735E-2,-2.4389064E-2,-2.2382455E-2,7.816597E-3,-2.5608068E-4,3.225605E-2],"categories":[],"categories_nodes":[],"categories_segments":[],"categories_sizes":[],"default_left":[0,0,0,0,0,0,0,1,1,0,1,0,0,0,1,0,0,0,0,0,0,0,0,0,0,0,0],"id":41,"left_children":[1,3,5,7,9,11,13,15,17,19,21,-1,-1,23,25,-1,-1,-1,-1,-1,-1,-1,-1,-1,-1,-1,-1],"loss_changes":[4.5396047E0,8.100895E0,9.563084E0,4.3982363E0,7.9541955E0,3.4197054E0,5.2394266E0,3.5564232E-1,4.352666E0,2.8859382E0,8.983238E0,0E0,0E0,4.0278463E0,6.214502E0,0E0,0E0,0E0,0E0,0E0,0E0,0E0,0E0,0E0,0E0,0E0,0E0],"parents":[2147483647,0,0,1,1,2,2,3,3,4,4,5,5,6,6,7,7,8,8,9,9,10,10,13,13,14,14],"right_children":[2,4,6,8,10,12,14,16,18,20,22,-1,-1,24,26,-1,-1,-1,-1,-1,-1,-1,-1,-1,-1,-1,-1],"split_conditions":[3.164E-1,9.98E-1,2.8574476E-1,7.66E1,3.909231E-1,3.218E-1,1.0699809E0,2E-1,7.721901E-1,3.3E-1,1.5729429E-1,6.0012545E-2,1.1317782E-2,5.5999404E-1,2.4551117E0,-5.509559E-2,-3.2926407E-2,5.8032162E-3,-4.443438E-2,4.8251644E-2,8.818029E-3,2.6810735E-2,-2.4389064E-2,-2.2382455E-2,7.816597E-3,-2.5608068E-4,3.225605E-2],"split_indices":[6,0,10,1,20,6,17,15,22,15,11,0,0,20,22,0,0,0,0,0,0,0,0,0,0,0,0],"split_type":[0,0,0,0,0,0,0,0,0,0,0,0,0,0,0,0,0,0,0,0,0,0,0,0,0,0,0],"sum_hessian":[3.8432703E2,1.0248134E2,2.8184567E2,3.9360718E1,6.3120617E1,1.4792971E1,2.670527E2,2.100315E1,1.8357567E1,1.899063E1,4.412999E1,7.607092E0,7.1858788E0,5.6742172E1,2.1031055E2,8.628986E0,1.2374165E1,1.3055361E1,5.3022056E0,7.473589E0,1.151704E1,1.0474117E1,3.3655872E1,4.2519474E1,1.4222696E1,1.9541858E2,1.4891965E1],"tree_param":{"num_deleted":"0","num_feature":"24","num_nodes":"27","size_leaf_vector":"1"}},{"base_weights":[4.238982E-3,-4.063387E-2,2.4946552E-2,3.918613E-2,5.1935655E-3,-3.925877E-1,3.4317758E-2,-3.2678805E-2,2.6641553E-2,2.7275268E-2,6.032141E-4],"categories":[],"categories_nodes":[],"categories_segments":[],"categories_sizes":[],"default_left":[0,0,0,0,1,0,0,0,0,0,0],"id":42,"left_children":[1,-1,3,-1,5,7,9,-1,-1,-1,-1],"loss_changes":[6.5754557E0,0E0,5.674859E0,0E0,4.303296E0,6.4689684E0,3.9288106E0,0E0,0E0,0E0,0E0],"parents":[2147483647,0,0,2,2,4,4,5,5,6,6],"right_children":[2,-1,4,-1,6,8,10,-1,-1,-1,-1],"split_conditions":[2.1E0,-4.063387E-2,2.7E0,3.918613E-2,8.249739E-1,3.7065497E-1,1.0735E0,-3.2678805E-2,2.6641553E-2,2.7275268E-2,6.032141E-4],"split_indices":[4,0,4,0,17,12,2,0,0,0,0],"split_type":[0,0,0,0,0,0,0,0,0,0,0],"sum_hessian":[3.8650568E2,8.60962E0,3.7789606E2,8.606752E0,3.692893E2,2.4342134E1,3.4494717E2,1.921643E1,5.125704E0,1.3409208E1,3.3153796E2],"tree_param":{"num_deleted":"0","num_feature":"24","num_nodes":"11","size_leaf_vector":"1"}},{"base_weights":[-3.3189442E-3,-6.695355E-2,1.9232234E-1,-9.928549E-2,5.237051E-1,-4.4548002E-1,3.904205E-1,5.7914253E-2,-2.1611695E-1,4.6964075E-2,-7.1865604E-3,-7.422306E-1,-2.360498E-4,-6.3925266E-2,5.85016E-1,1.2824965E-2,-8.774634E-3,-3.3887144E-2,-7.104441E-3,-1.961763E-2,-5.0413072E-2,2.4354713E-2,-2.1224244E-2,-8.22968E-3,3.4337305E-2],"categories":[],"categories_nodes":[],"categories_segments":[],"categories_sizes":[],"default_left":[0,0,0,0,0,0,1,0,0,0,0,0,0,1,0,0,0,0,0,0,0,0,0,0,0],"id":43,"left_children":[1,3,5,7,9,11,13,15,17,-1,-1,19,-1,21,23,-1,-1,-1,-1,-1,-1,-1,-1,-1,-1],"loss_changes":[4.8308644E0,5.6428795E0,1.22073345E1,5.1257067E0,4.3934846E0,3.0097518E0,6.509514E0,5.583313E0,5.368742E0,0E0,0E0,8.853297E-1,0E0,4.7469935E0,4.0288906E0,0E0,0E0,0E0,0E0,0E0,0E0,0E0,0E0,0E0,0E0],"parents":[2147483647,0,0,1,1,2,2,3,3,4,4,5,5,6,6,7,7,8,8,11,11,13,13,14,14],"right_children":[2,4,6,8,10,12,14,16,18,-1,-1,20,-1,22,24,-1,-1,-1,-1,-1,-1,-1,-1,-1,-1],"split_conditions":[2.1730585E0,1.6947197E0,3.734478E-1,4.101556E-1,1.03E1,5.5E-1,1.0604578E0,9.39E1,4.2594966E-1,4.6964075E-2,-7.1865604E-3,5.185185E-2,-2.360498E-4,9.25E1,9.16E1,1.2824965E-2,-8.774634E-3,-3.3887144E-2,-7.104441E-3,-1.961763E-2,-5.0413072E-2,2.4354713E-2,-2.1224244E-2,-8.22968E-3,3.4337305E-2],"split_indices":[22,17,13,13,4,15,17,14,13,0,0,8,0,14,14,0,0,0,0,0,0,0,0,0,0],"split_type":[0,0,0,0,0,0,0,0,0,0,0,0,0,0,0,0,0,0,0,0,0,0,0,0,0],"sum_hessian":[3.8600076E2,2.9176016E2,9.424061E1,2.7740714E2,1.4353026E1,2.203792E1,7.220269E1,1.1848576E2,1.5892137E2,8.594439E0,5.7585883E0,1.2761787E1,9.276134E0,2.18525E1,5.035019E1,6.3964863E1,5.45209E1,2.0836096E1,1.3808528E2,6.58119E0,6.1805973E0,8.504576E0,1.3347924E1,5.942711E0,4.440748E1],"tree_param":{"num_deleted":"0","num_feature":"24","num_nodes":"25","size_leaf_vector":"1"}},{"base_weights":[4.7077525E-2,1.8347117E-1,-4.559538E-2,3.0420095E-1,-1.9006681E-1,-1.3230473E-1,2.5155425E-1,3.9765292E-1,-2.0585246E-1,-4.862139E-1,4.8576897E-1,-4.0291333E-1,-2.874126E-3,6.117233E-1,-1.1408712E-1,4.6441615E-2,1.3568659E-2,-3.2269116E-2,1.6627908E-2,-4.030588E-2,3.0641368E-2,-6.132545E-3,5.332585E-2,-4.1891057E-2,-1.3695687E-2,3.4200117E-2,-2.7986085E-3,8.459398E-3,6.7210935E-2,-1.820395E-2,3.1917125E-2],"categories":[],"categories_nodes":[],"categories_segments":[],"categories_sizes":[],"default_left":[1,0,0,0,0,0,0,0,1,0,0,0,0,1,1,0,0,0,0,0,0,0,0,0,0,0,0,0,0,0,0],"id":44,"left_children":[1,3,5,7,9,11,13,15,17,19,21,23,25,27,29,-1,-1,-1,-1,-1,-1,-1,-1,-1,-1,-1,-1,-1,-1,-1,-1],"loss_changes":[4.7885103E0,6.966562E0,5.8557844E0,5.6187572E0,7.8488307E0,6.1488347E0,6.8375816E0,6.35606E0,4.627244E0,9.968004E0,4.402304E0,2.9573545E0,4.4070563E0,8.21562E0,5.1878366E0,0E0,0E0,0E0,0E0,0E0,0E0,0E0,0E0,0E0,0E0,0E0,0E0,0E0,0E0,0E0,0E0],"parents":[2147483647,0,0,1,1,2,2,3,3,4,4,5,5,6,6,7,7,8,8,9,9,10,10,11,11,12,12,13,13,14,14],"right_children":[2,4,6,8,10,12,14,16,18,20,22,24,26,28,30,-1,-1,-1,-1,-1,-1,-1,-1,-1,-1,-1,-1,-1,-1,-1,-1],"split_conditions":[1.15169E0,1.045E2,1.4328581E0,9.07E1,1.1011E2,3.0658844E-1,3.2240573E-1,3.182E-1,3.185441E-1,9.36E1,1.2107896E0,1.16761E0,3.090909E-1,8.6254805E-2,1.2177763E0,4.6441615E-2,1.3568659E-2,-3.2269116E-2,1.6627908E-2,-4.030588E-2,3.0641368E-2,-6.132545E-3,5.332585E-2,-4.1891057E-2,-1.3695687E-2,3.4200117E-2,-2.7986085E-3,8.459398E-3,6.7210935E-2,-1.820395E-2,3.1917125E-2],"split_indices":[2,5,17,1,5,9,10,7,12,1,17,2,9,16,22,0,0,0,0,0,0,0,0,0,0,0,0,0,0,0,0],"split_type":[0,0,0,0,0,0,0,0,0,0,0,0,0,0,0,0,0,0,0,0,0,0,0,0,0,0,0,0,0,0,0],"sum_hessian":[3.7717612E2,1.5219685E2,2.2497926E2,1.1516156E2,3.7035297E1,1.7458847E2,5.0390793E1,9.75152E1,1.7646366E1,2.5946342E1,1.1088954E1,5.580355E1,1.1878493E2,2.5046316E1,2.5344479E1,1.7509289E1,8.000591E1,9.605921E0,8.040444E0,2.0303131E1,5.6432114E0,5.8006825E0,5.2882714E0,1.1508652E1,4.42949E1,7.670998E0,1.1111393E2,1.6380842E1,8.665473E0,1.9411283E1,5.9331956E0],"tree_param":{"num_deleted":"0","num_feature":"24","num_nodes":"31","size_leaf_vector":"1"}},{"base_weights":[9.1749866E-4,1.02375746E-1,-1.3827902E-1,7.0627235E-2,5.485049E-2,-2.3507515E-2,-3.896176E-1,2.1135099E-1,-9.944499E-2,5.1568955E-1,-1.3027234E-1,1.4458192E-2,-4.9857357E-1,2.903687E-2,4.5276606E-3,-1.1197973E-2,2.6449332E-2,4.4862892E-2,-8.974626E-3,-2.9851696E-2,-1.9111083E-3,-2.9880194E-2,1.1005304E-2],"categories":[],"categories_nodes":[],"categories_segments":[],"categories_sizes":[],"default_left":[1,0,0,0,0,0,0,1,1,1,0,0,1,0,0,0,0,0,0,0,0,0,0],"id":45,"left_children":[1,3,5,7,-1,9,11,13,15,17,19,-1,21,-1,-1,-1,-1,-1,-1,-1,-1,-1,-1],"loss_changes":[5.4260874E0,6.940008E0,4.6635065E0,5.2006607E0,0E0,6.530135E0,3.8949828E0,5.2461042E0,7.83945E0,5.136613E0,4.0378704E0,0E0,3.2679186E0,0E0,0E0,0E0,0E0,0E0,0E0,0E0,0E0,0E0,0E0],"parents":[2147483647,0,0,1,1,2,2,3,3,5,5,6,6,7,7,8,8,9,9,10,10,12,12],"right_children":[2,4,6,8,-1,10,12,14,16,18,20,-1,22,-1,-1,-1,-1,-1,-1,-1,-1,-1,-1],"split_conditions":[3.9E-1,2.4E0,3.257514E-1,5.134536E-1,5.485049E-2,9.28E1,1.13575E0,-1.7572687E0,9.44E1,1.18154E0,2.5839084E-1,1.4458192E-2,9.62E1,2.903687E-2,4.5276606E-3,-1.1197973E-2,2.6449332E-2,4.4862892E-2,-8.974626E-3,-2.9851696E-2,-1.9111083E-3,-2.9880194E-2,1.1005304E-2],"split_indices":[15,21,12,20,0,14,2,22,14,2,12,0,14,0,0,0,0,0,0,0,0,0,0],"split_type":[0,0,0,0,0,0,0,0,0,0,0,0,0,0,0,0,0,0,0,0,0,0,0],"sum_hessian":[3.8220975E2,2.2122598E2,1.6098378E2,2.154208E2,5.805179E0,1.1126784E2,4.971593E1,1.1774868E2,9.767213E1,1.7757345E1,9.35105E1,6.6476984E0,4.3068233E1,2.8078915E1,8.966977E1,8.2057304E1,1.5614825E1,1.12769985E1,6.480346E0,1.4499828E1,7.9010666E1,3.8000443E1,5.0677915E0],"tree_param":{"num_deleted":"0","num_feature":"24","num_nodes":"23","size_leaf_vector":"1"}},{"base_weights":[-2.0781215E-3,-9.806871E-2,1.4750098E-1,-1.8516216E-1,1.5036708E-1,1.4053811E-3,3.7863308E-1,-2.213957E-1,2.4578549E-2,4.187146E-1,-3.4148324E-1,-7.929884E-2,3.7956413E-2,7.7680296E-1,9.183189E-2,-1.6823811E-2,-1.6408482E-4,-1.5356473E-2,3.519222E-2,-3.9164808E-2,1.9344268E-2,8.77185E-3,-2.184301E-2,5.3308036E-2,-2.4351364E-4,-3.3296745E-2,1.2847769E-2],"categories":[],"categories_nodes":[],"categories_segments":[],"categories_sizes":[],"default_left":[0,0,0,0,0,1,0,0,0,0,0,0,0,0,0,0,0,0,0,0,0,0,0,0,0,0,0],"id":46,"left_children":[1,3,5,7,9,11,13,15,-1,17,19,21,-1,23,25,-1,-1,-1,-1,-1,-1,-1,-1,-1,-1,-1,-1],"loss_changes":[5.5564356E0,5.127823E0,5.107621E0,4.399204E0,8.291045E0,5.789578E0,6.618599E0,4.1848965E0,0E0,8.575532E0,7.4929795E0,7.8714604E0,0E0,5.522932E0,4.5740314E0,0E0,0E0,0E0,0E0,0E0,0E0,0E0,0E0,0E0,0E0,0E0,0E0],"parents":[2147483647,0,0,1,1,2,2,3,3,4,4,5,5,6,6,7,7,9,9,10,10,11,11,13,13,14,14],"right_children":[2,4,6,8,10,12,14,16,-1,18,20,22,-1,24,26,-1,-1,-1,-1,-1,-1,-1,-1,-1,-1,-1,-1],"split_conditions":[7.49282E-1,3.233E-1,5.7866186E-2,3.263E-1,3.2954955E-1,2.1730585E0,2.07939E-1,5.703422E-2,2.4578549E-2,6.1296318E-2,7.56E1,3.1649306E-1,3.7956413E-2,4.743885E-1,-1.4232867E0,-1.6823811E-2,-1.6408482E-4,-1.5356473E-2,3.519222E-2,-3.9164808E-2,1.9344268E-2,8.77185E-3,-2.184301E-2,5.3308036E-2,-2.4351364E-4,-3.3296745E-2,1.2847769E-2],"split_indices":[23,7,8,6,9,22,11,8,0,16,1,9,0,13,22,0,0,0,0,0,0,0,0,0,0,0,0],"split_type":[0,0,0,0,0,0,0,0,0,0,0,0,0,0,0,0,0,0,0,0,0,0,0,0,0,0,0],"sum_hessian":[3.849799E2,2.3470508E2,1.502748E2,1.7397118E2,6.0733906E1,9.269167E1,5.758312E1,1.6576846E2,8.202707E0,3.9391228E1,2.1342678E1,8.457864E1,8.113031E0,2.339501E1,3.418811E1,1.08159225E2,5.760924E1,1.1087936E1,2.8303291E1,1.3237613E1,8.105066E0,4.9688583E1,3.489006E1,1.6808819E1,6.586191E0,5.5742807E0,2.861383E1],"tree_param":{"num_deleted":"0","num_feature":"24","num_nodes":"27","size_leaf_vector":"1"}},{"base_weights":[-5.5767866E-3,-1.5722966E-1,1.1700761E-1,-8.6694086E-1,-8.3605215E-2,-4.7990838E-1,1.6245687E-1,-5.2333888E-2,-2.3123488E-2,-4.055952E-2,-3.455724E-2,-4.8224907E-2,-3.7595567E-3,1.0324726E-1,6.254484E-1,7.41109E-3,-1.1972228E-2,3.0792195E-2,2.1674524E-3,4.7666196E-2,-1.4928999E-2],"categories":[],"categories_nodes":[],"categories_segments":[],"categories_sizes":[],"default_left":[0,0,0,1,1,0,0,0,0,0,0,0,0,0,1,0,0,0,0,0,0],"id":47,"left_children":[1,3,5,7,9,11,13,-1,-1,-1,15,-1,-1,17,19,-1,-1,-1,-1,-1,-1],"loss_changes":[7.129141E0,8.883724E0,5.831953E0,6.793518E-1,5.553367E0,2.9201415E0,5.3587847E0,0E0,0E0,0E0,5.5617657E0,0E0,0E0,5.395604E0,7.0207195E0,0E0,0E0,0E0,0E0,0E0,0E0],"parents":[2147483647,0,0,1,1,2,2,3,3,4,4,5,5,6,6,10,10,13,13,14,14],"right_children":[2,4,6,8,10,12,14,-1,-1,-1,16,-1,-1,18,20,-1,-1,-1,-1,-1,-1],"split_conditions":[3.198E-1,9.13E1,-2.058543E0,1.5E-1,7.5E1,1.2561994E0,1.8E0,-5.2333888E-2,-2.3123488E-2,-4.055952E-2,1.2023499E0,-4.8224907E-2,-3.7595567E-3,1.5142235E-1,7.01768E-1,7.41109E-3,-1.1972228E-2,3.0792195E-2,2.1674524E-3,4.7666196E-2,-1.4928999E-2],"split_indices":[6,14,22,15,18,17,21,0,0,0,17,0,0,11,22,0,0,0,0,0,0],"split_type":[0,0,0,0,0,0,0,0,0,0,0,0,0,0,0,0,0,0,0,0,0],"sum_hessian":[3.8149805E2,1.7040376E2,2.1109427E2,1.500323E1,1.5540053E2,1.4259207E1,1.9683507E2,9.2880745E0,5.7151556E0,8.832921E0,1.4656761E2,5.859806E0,8.399401E0,1.7560132E2,2.123375E1,7.760928E1,6.895833E1,1.7401484E1,1.5819983E2,1.5649198E1,5.5845513E0],"tree_param":{"num_deleted":"0","num_feature":"24","num_nodes":"21","size_leaf_vector":"1"}},{"base_weights":[-2.7068347E-2,-3.328309E-2,-1.1727531E-2,4.1446233E-1,-3.4220915E-2,7.4388564E-1,-2.1404795E-2,8.0645144E-2,-1.1957462E-1,5.9355535E-2,1.11744775E-4,1.276719E-2,-7.1518556E-3,-1.0894854E-2,1.0441472E-2],"categories":[],"categories_nodes":[],"categories_segments":[],"categories_sizes":[],"default_left":[0,0,0,1,0,1,0,1,1,0,0,0,0,0,0],"id":48,"left_children":[1,-1,3,5,7,9,-1,11,13,-1,-1,-1,-1,-1,-1],"loss_changes":[3.7943914E0,0E0,3.657316E0,5.6275606E0,3.5578127E0,4.6377487E0,0E0,6.0886045E0,6.762544E0,0E0,0E0,0E0,0E0,0E0,0E0],"parents":[2147483647,0,0,2,2,3,3,4,4,5,5,7,7,8,8],"right_children":[2,-1,4,6,8,10,-1,12,14,-1,-1,-1,-1,-1,-1],"split_conditions":[2.1E0,-3.328309E-2,2.7695894E-1,3.2973784E-1,1.43E2,8.672652E-2,-2.1404795E-2,-1.6698113E-1,1.0955213E0,5.9355535E-2,1.11744775E-4,1.276719E-2,-7.1518556E-3,-1.0894854E-2,1.0441472E-2],"split_indices":[4,0,9,12,18,22,0,22,22,0,0,0,0,0,0],"split_type":[0,0,0,0,0,0,0,0,0,0,0,0,0,0,0],"sum_hessian":[3.871163E2,8.086989E0,3.7902933E2,1.8127895E1,3.6090143E2,1.3116657E1,5.011238E0,1.5387584E2,2.070256E2,7.8341703E0,5.2824864E0,8.6318474E1,6.755736E1,1.595836E2,4.7442E1],"tree_param":{"num_deleted":"0","num_feature":"24","num_nodes":"15","size_leaf_vector":"1"}},{"base_weights":[-1.2888894E-2,-1.8749511E-1,6.309794E-2,1.0767748E-1,-3.6377376E-1,5.115993E-2,3.7462763E-2,6.520009E-2,-2.3112306E-1,-7.5600185E-2,-5.6539446E-1,-1.5170273E-3,4.510482E-1,6.1211567E-3,-2.9428093E-2,1.9895611E-2,-2.0156363E-2,-3.28585E-2,3.9487877E-3,7.834058E-3,-5.3325086E-3,5.8194693E-2,6.6086934E-3],"categories":[],"categories_nodes":[],"categories_segments":[],"categories_sizes":[],"default_left":[0,1,0,1,0,0,1,0,0,0,0,1,0,0,0,0,0,0,0,0,0,0,0],"id":49,"left_children":[1,3,5,7,9,-1,11,-1,13,15,17,19,21,-1,-1,-1,-1,-1,-1,-1,-1,-1,-1],"loss_changes":[5.119209E0,6.125855E0,6.5816007E0,1.8342182E1,4.2258606E0,0E0,4.2408104E0,0E0,4.562845E0,5.0296917E0,2.598998E0,4.030885E0,4.9962153E0,0E0,0E0,0E0,0E0,0E0,0E0,0E0,0E0,0E0,0E0],"parents":[2147483647,0,0,1,1,2,2,3,3,4,4,6,6,8,8,9,9,10,10,11,11,12,12],"right_children":[2,4,6,8,10,-1,12,-1,14,16,18,20,22,-1,-1,-1,-1,-1,-1,-1,-1,-1,-1],"split_conditions":[1.0990696E0,9.25E1,1.1072336E0,1.11788E0,9.489932E-2,5.115993E-2,1.1973726E-1,6.520009E-2,5.1146384E-2,5.8762733E-2,9E-1,1.9295883E-1,3.2723254E-1,6.1211567E-3,-2.9428093E-2,1.9895611E-2,-2.0156363E-2,-3.28585E-2,3.9487877E-3,7.834058E-3,-5.3325086E-3,5.8194693E-2,6.6086934E-3],"split_indices":[17,14,17,2,22,0,16,0,8,16,15,11,12,0,0,0,0,0,0,0,0,0,0],"split_type":[0,0,0,0,0,0,0,0,0,0,0,0,0,0,0,0,0,0,0,0,0,0,0],"sum_hessian":[3.8394614E2,1.1597825E2,2.679679E2,4.351052E1,7.246773E1,5.9568105E0,2.6201108E2,8.973985E0,3.4536537E1,3.0396875E1,4.207085E1,2.4035439E2,2.1656698E1,1.7693361E1,1.6843178E1,1.2340734E1,1.8056143E1,3.680848E1,5.2623715E0,9.5764E1,1.4459038E2,5.87441E0,1.5782288E1],"tree_param":{"num_deleted":"0","num_feature":"24","num_nodes":"23","size_leaf_vector":"1"}},{"base_weights":[-2.4114077E-3,-4.202881E-2,4.0480235E-1,1.2031674E-2,-2.2892141E-1,-1.2141432E-1,6.603275E-1,-1.4652887E-1,8.695238E-2,-3.62162E-1,9.091836E-2,1.21196695E-2,-2.3890996E-2,3.690181E-1,6.45585E-2,-1.0843947E-2,2.9172143E-2,4.3481614E-2,2.821768E-3,-3.3252433E-2,-3.1687517E-3,2.0175481E-2,-2.5502816E-2,-2.0116612E-3,3.8365856E-2],"categories":[],"categories_nodes":[],"categories_segments":[],"categories_sizes":[],"default_left":[1,1,0,0,0,0,0,1,0,0,0,0,0,0,0,0,0,0,0,0,0,0,0,0,0],"id":50,"left_children":[1,3,5,7,9,11,13,15,17,19,21,-1,-1,23,-1,-1,-1,-1,-1,-1,-1,-1,-1,-1,-1],"loss_changes":[6.2044797E0,3.5433767E0,4.66523E0,3.2529988E0,3.3856664E0,1.6705627E0,3.770238E0,4.640382E0,4.3902874E0,5.0020957E0,4.7023277E0,0E0,0E0,2.8359861E0,0E0,0E0,0E0,0E0,0E0,0E0,0E0,0E0,0E0,0E0,0E0],"parents":[2147483647,0,0,1,1,2,2,3,3,4,4,5,5,6,6,7,7,8,8,9,9,10,10,13,13],"right_children":[2,4,6,8,10,12,14,16,18,20,22,-1,-1,24,-1,-1,-1,-1,-1,-1,-1,-1,-1,-1,-1],"split_conditions":[1.1867814E-1,5.7E-1,1.1353368E0,3.0782917E-1,8.4E-1,5E-1,1E0,1.5014732E0,3.089416E-1,7.5E0,7.85E1,1.21196695E-2,-2.3890996E-2,4.5000777E-1,6.45585E-2,-1.0843947E-2,2.9172143E-2,4.3481614E-2,2.821768E-3,-3.3252433E-2,-3.1687517E-3,2.0175481E-2,-2.5502816E-2,-2.0116612E-3,3.8365856E-2],"split_indices":[16,15,17,9,15,15,21,17,9,4,1,0,0,13,0,0,0,0,0,0,0,0,0,0,0],"split_type":[0,0,0,0,0,0,0,0,0,0,0,0,0,0,0,0,0,0,0,0,0,0,0,0,0],"sum_hessian":[3.8253445E2,3.4943506E2,3.3099384E1,2.7176117E2,7.767391E1,1.0990631E1,2.2108753E1,8.689747E1,1.848637E2,5.4738377E1,2.2935532E1,5.5971403E0,5.3934913E0,1.6208828E1,5.8999257E0,7.99001E1,6.99737E0,5.9055495E0,1.7895815E2,2.6573963E1,2.8164413E1,1.5303919E1,7.631613E0,8.437897E0,7.7709317E0],"tree_param":{"num_deleted":"0","num_feature":"24","num_nodes":"25","size_leaf_vector":"1"}},{"base_weights":[-1.5454965E-4,-1.0327488E-1,1.18068084E-1,7.342417E-2,-2.670128E-1,6.23106E-1,5.6788277E-2,4.93696E-1,-5.437448E-2,-7.4646443E-1,-1.5009502E-1,1.172186E0,-2.2258697E-2,-2.3330055E-1,2.0329443E-1,-1.2849951E-2,4.282712E-2,-1.00766225E-2,1.6534878E-2,-1.31684765E-2,-4.601835E-2,-4.8090056E-2,-3.771751E-3,2.5141468E-2,8.236905E-2,-3.442533E-2,-4.049133E-3,2.9485285E-2,2.8809546E-3],"categories":[],"categories_nodes":[],"categories_segments":[],"categories_sizes":[],"default_left":[0,0,0,1,1,0,0,0,0,0,0,0,0,0,0,0,0,0,0,0,0,0,0,0,0,0,0,0,0],"id":51,"left_children":[1,3,5,7,9,11,13,15,17,19,21,23,-1,25,27,-1,-1,-1,-1,-1,-1,-1,-1,-1,-1,-1,-1,-1,-1],"loss_changes":[4.655167E0,5.9203534E0,5.4703054E0,5.3375397E0,5.834033E0,1.1754419E1,6.836692E0,6.527317E0,4.414187E0,1.4835224E0,5.171285E0,3.2823563E0,0E0,3.693351E0,5.970908E0,0E0,0E0,0E0,0E0,0E0,0E0,0E0,0E0,0E0,0E0,0E0,0E0,0E0,0E0],"parents":[2147483647,0,0,1,1,2,2,3,3,4,4,5,5,6,6,7,7,8,8,9,9,10,10,11,11,13,13,14,14],"right_children":[2,4,6,8,10,12,14,16,18,20,22,24,-1,26,28,-1,-1,-1,-1,-1,-1,-1,-1,-1,-1,-1,-1,-1,-1],"split_conditions":[3.209E-1,1.49E2,3.213E-1,-1.457312E0,1.62E2,3.3649898E-1,3.212E-1,9.88E-1,3.2460672E-1,2.6E-1,-1.9063511E0,7.59E1,-2.2258697E-2,1.8923435E-1,9.25E1,-1.2849951E-2,4.282712E-2,-1.00766225E-2,1.6534878E-2,-1.31684765E-2,-4.601835E-2,-4.8090056E-2,-3.771751E-3,2.5141468E-2,8.236905E-2,-3.442533E-2,-4.049133E-3,2.9485285E-2,2.8809546E-3],"split_indices":[7,18,7,22,18,12,6,0,10,15,23,1,0,11,14,0,0,0,0,0,0,0,0,0,0,0,0,0,0],"split_type":[0,0,0,0,0,0,0,0,0,0,0,0,0,0,0,0,0,0,0,0,0,0,0,0,0,0,0,0,0],"sum_hessian":[3.7984763E2,2.0294992E2,1.7689772E2,9.787689E1,1.0507302E2,1.8149586E1,1.5874812E2,2.2155247E1,7.572164E1,1.954386E1,8.552917E1,1.1923712E1,6.225875E0,5.3071575E1,1.0567655E2,7.3143196E0,1.4840927E1,5.5129974E1,2.059167E1,5.838682E0,1.3705176E1,6.20338E0,7.932578E1,5.8049912E0,6.11872E0,1.2423481E1,4.0648094E1,2.8097752E1,7.7578804E1],"tree_param":{"num_deleted":"0","num_feature":"24","num_nodes":"29","size_leaf_vector":"1"}},{"base_weights":[-8.080996E-3,-3.2403093E-2,4.5186928E-1,-1.8553836E-2,-4.0911004E-2,5.1982235E-2,2.8603794E-2,-4.8627634E-2,4.03151E-1,-2.2052376E-2,2.6628166E-2,-2.5159387E-2,-1.1699955E-3,-6.542969E-3,3.8832057E-2],"categories":[],"categories_nodes":[],"categories_segments":[],"categories_sizes":[],"default_left":[0,0,0,0,0,0,0,0,0,0,0,0,0,0,0],"id":52,"left_children":[1,3,5,7,-1,-1,9,11,13,-1,-1,-1,-1,-1,-1],"loss_changes":[4.320737E0,3.9736702E0,4.79649E0,4.600406E0,0E0,0E0,3.1475677E0,3.864771E0,4.9186225E0,0E0,0E0,0E0,0E0,0E0,0E0],"parents":[2147483647,0,0,1,1,2,2,3,3,6,6,7,7,8,8],"right_children":[2,4,6,8,-1,-1,10,12,14,-1,-1,-1,-1,-1,-1],"split_conditions":[3.274E-1,7.651815E-1,9.32E1,6.882909E-1,-4.0911004E-2,5.1982235E-2,1.62E2,2.9783946E-1,8.5100186E-1,-2.2052376E-2,2.6628166E-2,-2.5159387E-2,-1.1699955E-3,-6.542969E-3,3.8832057E-2],"split_indices":[6,20,14,20,0,0,18,13,23,0,0,0,0,0,0],"split_type":[0,0,0,0,0,0,0,0,0,0,0,0,0,0,0],"sum_hessian":[3.839211E2,3.6552194E2,1.8399189E1,3.6019742E2,5.3245163E0,7.093049E0,1.1306141E1,3.3704575E2,2.3151665E1,5.916891E0,5.3892493E0,1.6726013E1,3.2031973E2,9.795641E0,1.3356024E1],"tree_param":{"num_deleted":"0","num_feature":"24","num_nodes":"15","size_leaf_vector":"1"}}]},"name":"gbtree"},"learner_model_param":{"base_score":"[2.3214285E-1]","boost_from_average":"1","num_class":"0","num_feature":"24","num_target":"1"},"objective":{"name":"binary:logistic","reg_loss_param":{"scale_pos_weight":"1"}}},"version":[3,2,0]}