tree
version=v4
num_class=1
num_tree_per_iteration=1
label_index=0
max_feature_idx=111
objective=binary sigmoid:1
feature_names=game_month game_day_of_week home_sp_k_pct home_sp_bb_pct home_sp_xwoba_against home_sp_gb_pct home_sp_xrv_per_pitch home_sp_k_minus_bb home_sp_ff_velo home_sp_age_pit home_sp_arm_angle home_sp_p_throws_R home_sp_whiff_pctl home_sp_fb_spin_pctl home_sp_fb_velo_pctl home_sp_xera_pctl home_sp_il_return_flag home_sp_starts_since_il home_sp_k_pct_10d home_sp_bb_pct_10d home_sp_xwoba_10d away_sp_k_pct away_sp_bb_pct away_sp_xwoba_against away_sp_gb_pct away_sp_xrv_per_pitch away_sp_k_minus_bb away_sp_ff_velo away_sp_age_pit away_sp_arm_angle away_sp_p_throws_R away_sp_whiff_pctl away_sp_fb_spin_pctl away_sp_fb_velo_pctl away_sp_xera_pctl away_sp_il_return_flag away_sp_starts_since_il away_sp_k_pct_10d away_sp_bb_pct_10d away_sp_xwoba_10d sp_k_pct_diff sp_xwoba_diff sp_xrv_diff sp_velo_diff sp_age_diff sp_kminusbb_diff sp_k_pct_10d_diff sp_xwoba_10d_diff sp_bb_pct_10d_diff home_bat_xwoba_vs_rhp home_bat_xwoba_vs_lhp home_bat_k_vs_rhp home_bat_k_vs_lhp home_bat_bb_vs_rhp home_bat_bb_vs_lhp home_bat_gb_pct home_bat_fb_pct home_bat_xwoba_vs_rhp_10d home_bat_xwoba_vs_lhp_10d away_bat_xwoba_vs_rhp away_bat_xwoba_vs_lhp away_bat_k_vs_rhp away_bat_k_vs_lhp away_bat_bb_vs_rhp away_bat_bb_vs_lhp away_bat_gb_pct away_bat_fb_pct away_bat_xwoba_vs_rhp_10d away_bat_xwoba_vs_lhp_10d home_bat_vs_away_sp away_bat_vs_home_sp batting_matchup_edge home_bat_vs_away_sp_10d away_bat_vs_home_sp_10d batting_matchup_edge_10d home_bp_era home_bp_k9 home_bp_bb9 home_bp_hr9 home_bp_whip home_bp_gb_pct away_bp_era away_bp_k9 away_bp_bb9 away_bp_hr9 away_bp_whip away_bp_gb_pct bp_era_diff bp_k9_diff bp_whip_diff home_off_cluster away_off_cluster home_bp_cluster away_bp_cluster home_park_factor ump_k_above_avg ump_bb_above_avg ump_rpg_above_avg true_home_prob true_away_prob game_hour_et is_day_game away_game_local_hour home_game_local_hour circadian_edge mc_expected_runs home_rolling_rd_15g home_pyth_win_pct_15g away_rolling_rd_15g away_pyth_win_pct_15g rolling_rd_diff pyth_win_pct_diff
feature_infos=[3:10] [0:6] [0:0.63157894736842102] [0:0.36363636363636365] [0.094900000000000012:0.67543930217709014] [0:0.79056937847885145] [-0.10454895031760074:0.078170212765957453] [-0.25:0.57894736842105265] [85.700000000000003:99.099999999999994] [20:43] [8.5999999999999996:72.400000000000006] [0:1] [0.01:0.97999999999999998] [0.01:1] [0.01:0.98999999999999999] [0.01:1] [0:1] [0:3] [0:0.59259259259259256] [0:0.40000000000000002] [0.062:0.72210205532746818] [0:0.57958935538653433] [0:0.44318661495641054] [0.12768421052631579:0.67016469962785752] [0.06056818736468976:0.89401464567840783] [-0.12273684210526317:0.062544398346131291] [-0.39023812697279481:0.48714582445103533] [85.700000000000003:99.099999999999994] [20:43] [9.3000000000000007:71.799999999999997] [0:1] [0.01:0.97999999999999998] [0.01:1] [0.01:0.98999999999999999] [0.01:1] [0:1] [0:3] [0:0.69230769230769229] [0:0.5] [0.054315789473684213:0.7207251025641026] [-0.43668742361036861:0.38130895686072558] [-0.37244404234013084:0.36244093886230733] [-0.1079775248690132:0.1348996328029376] [-12.599999999999994:11.099999999999994] [-18:18] [-0.52857142857142858:0.512280701754386] [-0.58181818181818179:0.50333333333333341] [-0.585089579136992:0.39359250090579712] [-0.33333333333333331:0.35454545454545455] [0.13549510662867231:0.48003008895866034] [0:0.63300000000000001] [0:0.5752139944196033] [0:1] [0:0.21973341615186998] [0:0.33333333333333331] [0.2608695652173913:0.68000000000000005] [0.12121212121212122:0.35999999999999999] [0.12479999999999999:0.48003008895866034] [0:0.63300000000000001] [0.10932444444444443:0.4580233022032531] [0.052284185253416146:0.55778253383458642] [0:0.48275862068965519] [0:0.66666666666666663] [0:0.23529411764705882] [0:0.57154256733303632] [0.17944309682996176:0.66624758564431086] [0.058823529411764705:0.46476538342861107] [0.10932444444444443:0.4580233022032531] [0.03785714285714286:0.55778253383458642] [0:0.63300000000000001] [0.10561659020107027:0.55778253383458642] [-0.51158059999999994:0.4378333333333333] [0:0.63300000000000001] [0.10183333333333333:0.55778253383458642] [-0.51158059999999994:0.4378333333333333] [2.4637917125045838:5.8047743813682677] [7.1305718242975855:10.971498941697131] [2.7449399609047758:5.3028215767634848] [0.57330766409974321:1.4948835516739445] [1.0125559222588927:1.6155458515283843] [0.38413986298494923:0.6151252173654761] [2.4637917125045838:5.8047743813682677] [7.1305718242975855:10.971498941697131] [2.7449399609047758:5.3028215767634848] [0.57330766409974321:1.4948835516739445] [1.0125559222588927:1.6155458515283843] [0.38413986298494923:0.6151252173654761] [-2.9188399478267875:2.6790391399987996] [-3.8409271173995458:3.7951358083026721] [-0.57801333192679971:0.57801333192679971] [0:3] [0:3] [0:3] [0:3] [0.95999999999999996:1.2809999999999999] [-0.14677363962819168:0.25474151188695987] [-0.066893483056714872:0.10710691879178826] [-8.2296110414052706:17.198329853862212] [0.023832765886526514:0.98073151032652595] [0.019268489673474099:0.97616723411347361] [10.166666666666666:22.266666666666666] [0:1] [8.1666666666666661:22.266666666666666] [9.1666666666666661:20.166666666666668] [-3:3] [5.6490797996520996:18.189580917358398] [-4.666666666666667:5.333333333333333] [0.12905616589119115:0.91510999107252589] [-5.4000000000000004:4.5333333333333332] [0.1181090052534203:0.88398100923922496] [-6.5333333333333332:8.4666666666666668] [-0.65153731456752551:0.61735128041301546]
tree_sizes=6772 6787 6830 6819 6836

Tree=0
num_leaves=63
num_cat=0
split_feature=98 83 98 31 76 45 24 46 8 106 19 60 23 94 25 102 54 21 88 107 83 41 19 5 21 55 102 57 104 72 104 26 86 87 89 111 20 24 97 21 65 49 50 47 69 13 86 40 111 70 96 45 9 94 97 49 3 9 43 55 83 18
split_gain=216.639 58.8804 48.2069 29.2544 24.751 24.9572 24.4285 25.276 21.2387 19.8435 19.4251 18.5128 20.4284 17.7925 17.5133 16.8352 16.6458 16.4504 16.0982 15.5742 15.3752 16.0777 16.9138 15.4723 19.3468 15.2629 15.0697 14.2813 14.2011 16.1995 14.1133 15.8049 16.3806 15.1966 13.9473 24.6537 20.1652 14.0892 13.4108 13.2708 13.1693 13.1511 15.7032 15.3965 21.2652 18.735 14.6444 13.8159 13.057 14.9242 12.7252 12.6603 12.6146 14.7574 20.0391 13.8959 13.9227 12.4761 11.8845 11.804 11.5937 11.5105
threshold=0.50998630197516703 4.2153520214812508 0.33861506983906292 0.49500000000000005 9.1515140074627919 -0.0054332348768495525 0.38681109663330754 0.2312648221343874 91.950000000000017 -1.7666666666666664 0.12554575858923689 0.30359318140040858 0.31597886294112915 0.9860000000000001 -0.014091211530683665 10.29166666666667 0.060022840315149657 0.28766818078819362 -2.0089527452007903 0.48603227014601463 3.082221817129573 -0.088822255960191623 0.041456228956228962 0.40869786010446035 0.24208584525523499 0.40980103510031268 16.258333333333336 0.33343063806971718 1.5000000000000002 0.32903223100639761 2.5000000000000004 0.089219350915895654 0.46295603347871223 0.20738100995249356 -0.040052592496866206 -0.025396688047542856 0.37791096168935912 0.42422031878210659 -0.089950202256167816 0.32172173500832651 0.4132316125772561 0.31700882655682056 0.28681859810474514 -0.0086508670424634126 0.30576790058137387 0.68500000000000016 0.49455580899928947 0.025240185274153688 -0.092051266737356072 0.31987612851247499 -0.0051084012444056626 0.06305427822700109 28.500000000000004 1.0130000000000001 -0.19942977162346084 0.29651951969838347 0.076360970495947186 31.500000000000004 -0.24999999999999997 0.43663861137215282 3.5308743922965307 0.11457061457061458
decision_type=8 8 10 8 10 10 10 10 8 2 8 10 10 2 8 8 10 10 10 2 10 8 10 8 10 10 8 10 10 8 10 10 8 8 8 2 8 10 8 10 10 8 10 10 8 10 10 10 2 10 8 10 10 2 10 10 10 10 10 10 10 10
left_child=2 3 -1 4 5 8 9 10 -2 -4 13 18 28 16 -11 58 -8 52 -5 -7 23 -22 50 -20 -25 -18 38 -21 29 39 31 32 -12 57 59 40 -37 -38 -14 60 -36 43 -43 44 48 47 -46 -45 49 -15 -23 -17 53 54 -16 -56 -57 -33 -3 -6 -13 -10
right_child=1 15 6 11 34 19 7 -9 61 14 30 12 26 41 17 51 25 -19 20 27 21 22 -24 24 -26 -27 -28 -29 -30 -31 -32 33 -34 -35 35 36 37 -39 -40 -41 -42 42 -44 45 46 -47 -48 -49 -50 -51 -52 -53 -54 -55 55 56 -58 -59 -60 -61 -62 -63
leaf_value=-0.6283876227848465 -0.52806407825885993 -0.61777926248163773 -0.59870507943654194 -0.61127133990183946 -0.51457562714272276 -0.52323147173179341 -0.55972704360693526 -0.51783432527790407 -0.58224689704339483 -0.61426543972020509 -0.53075214396453285 -0.51684205964811403 -0.54356670090856629 -0.49997232168867145 -0.60965514809819021 -0.52865154528552782 -0.57012183841493047 -0.58967916703381285 -0.62056548868065542 -0.59124878134807668 -0.60317051008161993 -0.59753021853372601 -0.52515901435261547 -0.52410462769692934 -0.61340141900285294 -0.63639876229942571 -0.63610054261991977 -0.52396186137867895 -0.6107331499158235 -0.58966108954137864 -0.5511784675120891 -0.60710063156679983 -0.61522599879442064 -0.63385128454816231 -0.62072571503549168 -0.51610895314676608 -0.5422180981164153 -0.61077998449105364 -0.61104914691200096 -0.60205622389971014 -0.56255703203071217 -0.51314000493566148 -0.57362180562607179 -0.60598726683459947 -0.63659873540619638 -0.65263396179813327 -0.56223457675478294 -0.54513082236654409 -0.58128875063617436 -0.58809058143807968 -0.54787377374981683 -0.49899595604803654 -0.53098594406806776 -0.53468145161848646 -0.51218726972992779 -0.61781398894111372 -0.54563720213603295 -0.53679931170120998 -0.53815385458919651 -0.54819007843363354 -0.57071488441455853 -0.63694058219597072
leaf_weight=46.871200516819954 8.1010833531618101 6.9986560195684433 33.207520022988319 9.0728517770767194 124.31169989705086 39.064375370740891 13.959682524204252 11.339454844594 17.225378602743149 11.07212759554386 9.917674735188486 34.277053818106651 11.875334203243254 17.661905050277714 25.35301399230957 142.74656569957733 9.9900968819856626 26.41941724717617 12.609355807304381 25.067519336938858 8.7720657438039762 16.032890453934669 94.758018389344215 14.51468798518181 7.7283458709716788 30.559260159730911 18.123881921172142 9.0068717598915082 11.555257439613341 23.58242854475975 9.178907096385954 23.767401859164242 8.9332433342933637 56.551940277218819 11.858753889799116 57.941006034612656 15.139474108815195 11.127939283847807 13.39651779830456 6.6894205808639517 29.766286268830299 17.207706600427628 30.409286677837372 23.007085680961609 12.303883969783785 11.279944658279417 10.133462712168692 12.739106029272078 17.00842159986496 7.1429695188999167 43.830597370862961 77.659126102924347 65.630707263946533 31.244170650839806 11.356422051787375 10.271470308303835 12.397508308291433 6.3392173051834098 7.5671627223491651 49.087033480405807 18.00788925588131 17.039699599146843
leaf_count=170 19 26 113 32 315 99 41 28 53 39 26 90 35 42 87 397 30 85 38 75 30 56 257 33 23 109 68 22 38 81 25 81 32 206 41 160 42 41 48 23 89 43 99 76 42 43 33 35 52 24 141 192 177 88 26 33 35 16 22 145 59 60
internal_value=-0.557345 -0.542949 -0.580803 -0.549984 -0.540897 -0.561699 -0.576695 -0.585313 -0.591695 -0.564055 -0.588135 -0.561197 -0.57596 -0.579163 -0.557944 -0.520831 -0.60319 -0.554153 -0.551738 -0.544368 -0.548688 -0.542279 -0.538522 -0.580288 -0.555659 -0.619388 -0.603518 -0.571566 -0.562944 -0.555591 -0.604488 -0.609966 -0.570709 -0.618995 -0.533181 -0.547688 -0.532359 -0.571672 -0.579288 -0.541965 -0.580421 -0.570684 -0.549106 -0.58067 -0.564925 -0.601756 -0.602592 -0.583815 -0.544419 -0.522493 -0.56144 -0.517379 -0.548049 -0.56165 -0.577538 -0.553066 -0.579082 -0.589223 -0.576842 -0.523381 -0.533599 -0.609929
internal_weight=1607.79 994.535 613.254 759.564 414.737 115.505 566.383 339.431 42.3662 226.952 328.091 344.827 137.508 213.403 193.745 234.972 54.509 182.673 207.319 73.1388 198.246 163.394 154.622 34.8524 22.243 40.5494 43.3957 34.0744 94.112 82.5568 114.688 105.509 18.8509 86.6586 299.232 125.833 84.2084 26.2674 25.2719 58.9744 41.625 158.894 47.617 111.277 64.2506 47.0261 22.4373 35.7462 41.8133 24.8049 59.8635 220.406 156.253 90.6226 59.3784 34.0254 22.669 30.1066 14.5658 173.399 52.2849 34.2651
internal_count=4786 2850 1936 2213 1161 328 1766 1083 132 683 1055 1052 442 669 570 637 180 531 610 196 578 484 454 94 56 139 151 97 291 253 386 361 58 303 833 373 243 83 83 172 130 489 142 347 193 154 75 111 118 66 197 589 446 269 181 94 68 97 48 460 149 113
is_linear=0
shrinkage=1


Tree=1
num_leaves=63
num_cat=0
split_feature=98 83 99 34 15 79 79 109 34 13 2 20 94 12 3 102 55 34 16 79 86 61 96 52 49 62 55 50 71 62 62 64 18 51 53 65 10 97 37 13 109 5 53 5 68 58 111 87 68 34 103 97 82 24 38 80 45 8 26 62 106 96
split_gain=190.978 50.9728 46.2614 30.127 22.8188 20.7402 20.4826 20.7512 19.1491 19.2099 18.9635 18.5142 17.9976 17.8301 17.6908 16.8221 16.8042 16.7373 15.9135 15.3635 15.2556 15.0542 15.0149 16.5091 14.9944 17.5353 22.3997 17.4108 27.1986 20.1134 15.8924 16.5249 15.1073 17.3696 14.7217 15.5861 16.7341 19.2558 16.1515 14.5796 14.4409 14.0288 13.5149 19.1564 13.4869 13.3829 13.3632 13.1148 16.8371 15.8669 13.0845 14.9814 14.0673 16.5833 13.4975 12.9648 12.858 12.2967 11.8549 11.701 14.0649 11.6739
threshold=0.50998630197516703 4.2153520214812508 0.6625044041043221 0.71500000000000008 0.93500000000000016 1.2908104372110303 1.2765368462670048 0.57215960999618243 0.49500000000000005 0.045000000000000005 0.30110179194300934 0.32971941237243846 0.9890000000000001 0.075000000000000025 0.098290421164702532 16.175000000000004 0.41714062154205106 0.21500000000000002 1.0000000180025095e-35 1.3091555730802387 0.50010806915066697 0.2380678690722326 -0.015765793251095939 0.30888201856448638 0.3114964567848047 0.24380937038393222 0.42381400965803318 0.31983511541368709 0.038212897945205056 0.28251249508109849 0.2614675407181391 0.068382992405596574 0.31686212814645315 0.20461797703016993 0.068751818208802537 0.41211753068516394 39.325000000000003 0.60543083086844496 0.30028490028490035 0.35500000000000004 0.46520424147494749 0.44462900637404473 0.088612186427645873 0.41720210113648626 0.2535124330546929 0.31573450839048434 -0.006642022791049528 0.56066130100257106 0.35529134325854356 0.39500000000000007 18.641666666666669 -0.12019335307031549 9.6204283397967334 0.37357050182014967 0.12581168831168835 0.48052003225862944 0.011733673565886204 95.050000000000011 0.18975056123005388 0.27955566378043822 -1.2333333333333332 0.0022001542676944479
decision_type=8 8 10 10 10 8 8 2 8 10 10 10 2 10 8 10 8 10 10 10 10 10 8 10 8 10 10 10 10 10 10 10 8 10 8 10 10 8 8 8 2 10 10 10 10 10 2 8 10 8 10 10 10 8 8 8 10 10 10 10 2 10
left_child=2 6 3 4 5 18 8 50 9 15 19 56 47 16 22 -2 -3 -15 34 20 -5 40 -14 59 25 26 -10 32 -29 -30 -27 -32 33 -26 -1 38 37 -37 -36 -28 -19 -13 43 -35 -16 -23 -20 -7 49 -49 52 -52 53 -8 -55 -18 -9 58 -38 -24 -61 -51
right_child=1 13 -4 10 -6 12 7 11 24 -11 -12 41 14 17 44 -17 55 21 46 -21 -22 45 23 -25 27 30 39 28 29 -31 31 -33 -34 42 35 36 57 -39 -40 -41 -42 -43 -44 -45 -46 -47 -48 48 -50 61 51 -53 -54 54 -56 -57 -58 -59 -60 60 -62 -63
leaf_value=0.068643075006987672 -0.028365212707035115 0.06480554501820919 -0.040154744731204145 -0.054766288370309529 0.085354664098017813 -0.046357515473663215 -0.013778598087179803 -0.04346296535865149 -0.048257410992871994 0.054646283925077532 0.050943697497003483 -0.00069115363944753823 -0.02506362797894205 0.083306668285554553 0.040043243449759874 0.042478236047950174 0.042484734726059792 -0.028799014841528744 0.0200644989843719 0.0015303493403935377 0.0052647194994193515 0.079298073913655509 0.041663818323209451 -0.013219484938060331 -0.020764244118815368 0.079186978912002839 0.070017355981146986 -0.010502353409500684 0.076616476008825818 -0.016762406854198757 -0.035611610493680473 0.03762691233235016 0.075139381194131397 0.0080285267132938765 -0.031316495118842658 0.035256247903176607 0.07907590933959073 -0.031494564929233602 0.036882683525516442 -0.010208511368293486 0.044616246357163526 0.076856398156770603 0.015596435348479083 0.095593401710342377 -0.021285007711473205 0.023860108326450261 -0.053028547409760735 0.015020426907646687 0.048244727601870291 -0.062931242138602336 -0.019370269031623092 0.034488241420121225 0.063885020428626052 0.054893486384747142 -0.00047379843409626462 -0.024790776546464208 0.010088990655129561 0 0.011623244128125994 0.038210432323533328 -0.042327481719480059 0
leaf_weight=25.06338307261467 13.191860124468805 18.595798715949059 45.24966561794281 36.382982552051544 9.9920488297939283 19.851433783769608 17.838950991630554 23.861801326274872 19.069061815738678 266.25913685560226 8.2403981983661634 11.465755850076677 12.628437876701353 112.46897095441818 8.9534852504730207 16.389022722840309 10.253625303506853 9.7989016175270098 12.814177617430689 41.37301704287529 13.154386878013609 40.070546060800552 99.496688395738602 18.836726784706116 10.407243132591246 11.582406014204023 7.7051773518323925 36.790277883410454 20.176838248968128 6.4027920216321936 9.8974919468164462 19.381927967071533 41.927315130829811 10.444735795259477 19.517415061593059 27.922046050429344 33.177580133080482 14.740298971533774 12.459074646234511 11.545501857995985 13.187830299139021 8.6294515579938871 25.988148152828217 18.733076795935631 45.072306677699089 19.785807132720947 8.651303827762602 23.854397520422935 11.652324005961416 16.535888418555263 22.204385086894035 25.220709145069122 43.380636170506477 37.157675251364708 14.030507072806357 15.064443081617354 17.58588582277298 8.5807060152292234 10.06296071410179 8.819317892193796 8.8198753595352155 12.24858322739601
leaf_count=66 47 47 167 124 21 73 63 86 65 710 21 37 42 286 28 44 28 32 36 135 46 96 281 67 31 27 18 123 51 25 33 55 108 31 66 81 82 51 35 39 36 20 81 42 164 57 30 68 30 65 77 75 125 102 46 55 52 28 31 25 33 40
internal_value=0.0293777 0.0427704 0.00732116 0.0112686 0.0165712 0.014659 0.0362314 0.022804 0.0415278 0.0503948 -0.0134379 -0.00147608 0.00621944 0.0631651 0.0143127 0.0102978 0.0311948 0.0698375 0.0282757 -0.0205137 -0.0387546 0.0497242 0.0231876 0.0281485 0.0306215 0.011775 -0.0117929 0.0389731 0.0168406 0.0536487 0.0339789 0.0113764 0.0512456 0.0338262 0.0339721 0.0259442 0.0359995 0.0112558 -0.00340119 0.0242934 0.0125197 0.035421 0.0449284 0.0675756 -0.00960846 0.0627409 -0.0103379 -0.0128598 -0.00105288 -0.0137896 0.0322101 0.00900249 0.0414543 0.0256036 0.0398003 0.0026558 -0.0207475 0.0547302 0.0651387 0.035121 -0.000996337 -0.037902
internal_weight=1620.64 1006.49 614.151 568.901 469.75 459.758 767.268 221.376 545.892 295.84 99.1508 61.5429 286.769 239.226 202.627 29.5809 43.9139 195.312 172.989 90.9104 49.5374 82.8431 148.601 135.973 250.052 79.1816 38.3197 170.87 63.3699 26.5796 40.8618 29.2794 107.501 65.5732 151.523 126.46 94.4836 42.6623 31.9765 19.2507 22.9867 20.0952 55.166 29.1778 54.0258 59.8564 21.4655 84.1426 64.2912 52.6389 159.833 47.4251 112.408 69.0271 51.1882 25.3181 41.4477 51.8212 43.2405 117.136 17.6392 28.7845
internal_count=4786 2850 1936 1769 1443 1422 2213 683 1530 801 326 195 916 637 640 91 130 507 506 305 170 221 448 406 729 237 122 492 199 76 115 88 293 185 440 374 273 132 101 57 68 57 154 73 192 153 66 276 203 173 488 152 336 211 148 83 138 141 113 339 58 105
is_linear=0
shrinkage=0.05


Tree=2
num_leaves=63
num_cat=0
split_feature=99 89 99 34 21 6 57 87 24 19 94 48 97 104 24 56 2 37 53 73 15 9 44 59 46 43 13 79 13 54 21 70 23 20 97 45 42 98 95 12 13 76 39 45 70 61 55 45 96 56 39 104 44 107 95 21 63 39 63 76 66 94
split_gain=169.587 45.2806 42.2641 27.1186 21.6442 21.9778 22.9437 21.1038 22.8888 27.1999 23 20.5895 20.9534 18.0188 17.4771 15.6652 15.45 15.1855 15.1766 14.9378 17.9307 17.2651 18.2025 17.3626 16.4271 19.1933 15.2465 14.3507 15.8642 15.1787 13.9728 14.7449 15.8717 13.8261 14.1405 15.819 18.5008 15.7358 18.1733 14.5858 13.7369 13.5812 13.4654 15.9664 13.8829 13.2833 13.0068 13.4402 12.8835 12.8136 12.5339 12.3995 12.0759 11.9736 11.9544 11.7964 12.8899 11.5829 11.4123 11.3211 10.9942 10.8911
threshold=0.4900136980248333 -0.20427872688284518 0.6625044041043221 0.71500000000000008 0.32172173500832651 0.020983760993216083 0.31068156882670667 -0.22961464587921696 0.38458081349522916 0.13049516908212563 1.0360000000000003 1.0000000180025095e-35 0.19476309588263244 2.5000000000000004 0.37014858831444025 0.21453184193089989 0.24346582087977209 0.20929487179487183 0.095992011855824649 0.26785330502293042 0.28500000000000009 28.500000000000004 -1.4999999999999998 0.30965996761277109 0.031911506368028121 4.1999999999999966 0.80500000000000016 1.2765368462670048 0.8650000000000001 0.088552187269309843 0.28311477457512696 0.29526002963360765 0.34269927788551235 0.41125025044574814 1.9670735245979898 -0.085054117305630714 0.0079502513926557241 0.5756925538294424 0.014260511282147243 0.22500000000000003 0.42500000000000004 8.062924079164377 0.4022974619279725 -0.089791173670592417 0.31648521255850054 0.22685958490506233 0.41009368333545015 -0.007468646091598626 -0.0029005348676839652 0.26885320883062186 0.34191220693444846 2.5000000000000004 9.5000000000000018 0.51595604049233057 -0.0085305720356240924 0.22673331321534657 0.074201022206284731 0.44019722769423569 0.091030317261474439 9.8726320373620755 0.28294156464186243 1.0235000000000001
decision_type=10 10 10 10 10 8 8 8 10 8 2 10 10 10 10 10 8 8 10 8 10 8 8 10 10 8 10 8 8 10 10 10 10 10 10 8 10 10 8 8 10 10 10 8 10 10 10 8 8 10 10 10 10 2 8 10 10 8 10 10 10 2
left_child=1 41 3 7 5 15 -7 30 14 10 11 51 -13 42 17 -3 -6 45 27 55 33 22 23 46 25 59 -26 -19 29 53 31 -2 -33 34 35 48 37 -37 -39 -38 -27 57 43 44 -5 -9 -22 -48 -21 -14 -35 -10 -23 -29 -46 -17 -57 -1 -34 -24 -25 -45
right_child=2 4 -4 13 16 6 -8 8 9 -11 -12 12 49 -15 -16 19 -18 18 -20 20 21 52 24 60 26 40 -28 28 -30 -31 -32 32 58 50 -36 36 39 38 -40 -41 -42 -43 -44 61 54 -47 47 -49 -50 -51 -52 -53 -54 -55 -56 56 -58 -59 -60 -61 -62 -63
leaf_value=-0.0033417691816535243 -0.0078568881548215144 -0.024245018016823543 -0.038707372767123972 -0.03381342808485073 -0.035975575725653609 -0.026893765679873356 0.030202473812386235 -0.049103698933317175 -0.024410442313903945 -0.025464353938898582 0.04352505833101513 0.052098060497820099 -0.038012519152301444 0.035120870287206889 0.059046341288035958 0.07196419781417572 0.029240545132984359 0.066130332369289835 -0.02071922603356743 -0.0080978050735704046 -0.021295247981857307 0.055782743419435454 -0.050807938446783552 0.069346358302848743 0.0053179326921618773 0.060258755632004536 0.085582651716202968 0.052451707922949703 -0.043455961216076588 -0.021984553055576849 -0.025709855940609729 0.062379962777494836 0.033925114782091925 0.068850965532734995 0.055524827099665879 -0.030217199119597828 -0.0098931512382088131 -0.014005505656219865 0.058512059984444614 0.055267921154705496 -0.010863248588627248 0.063796768601624407 0.037829417072763757 -0.063222785745119012 0.066771644237811137 0.018061342046215647 -0.02080624605173757 0.051495439880082497 0.065646464642597893 0.035091738065944185 -0.0030213147950635681 0.035391030047428149 0.0017146126910166006 -0.014631904187699593 -0.0077192120093277769 -0.0058775657675263042 0.054381200777289411 0.06198224487847355 -0.043122809039427355 0.013661663396016445 0.011797174091113282 -0.0072101863347187713
leaf_weight=16.494635432958606 11.230980575084685 8.0157841145992261 44.683932542800903 15.566391199827192 17.230025365948677 26.024429425597191 44.654596135020256 13.068563118577005 62.932852700352669 69.120237931609154 39.903191968798637 27.816481664776802 14.136319831013681 14.382183283567427 29.444744825363159 62.300440162420273 15.036873146891592 22.653008177876472 13.374050751328467 7.1175243854522705 13.100470855832098 191.43092074990273 20.312978848814968 52.934289142489433 13.952933117747309 12.034742057323458 9.7557099759578687 35.98930461704731 6.8505818396806708 10.042705133557318 6.4329695999622336 58.128624066710472 10.902271121740343 23.755614116787914 17.996087253093719 46.063783228397369 11.934599205851553 20.318986609578133 11.940376147627829 21.013148322701454 11.201853320002554 213.1391187608242 6.5532948076724997 30.278881594538689 7.8286300152540207 12.15969544649124 6.7446981072425842 23.992969021201137 17.501896187663082 7.3914753496646872 6.8686978369951239 7.8994263112545005 12.05709834396839 6.4890205264091483 9.9858795404434222 13.294765055179594 19.603722929954529 8.6165737211704236 5.5731957852840415 8.0038367360830289 12.157594129443167 14.106745302677153
leaf_count=48 38 25 167 56 59 93 142 46 213 242 111 77 51 39 73 152 45 56 51 25 41 513 66 137 42 28 21 94 27 34 24 155 30 59 48 151 38 65 31 56 37 555 18 112 21 36 22 64 43 19 24 22 40 21 34 43 52 21 23 26 38 46
internal_value=0.0277739 0.0402979 0.00696515 0.0107105 0.0342168 0.0359515 0.00867378 0.0157161 0.0102971 0.000206233 0.0116221 0.000285432 0.0247265 -0.0127922 0.0253388 0.038735 -0.00492148 0.0160782 0.0252139 0.039599 0.0361725 0.0423987 0.0303865 0.0433744 0.010629 -0.00503621 0.0434065 0.0333157 0.018641 0.0284962 0.0370347 0.0425001 0.0504145 0.0226419 0.0158862 0.00972635 0.00118981 -0.011818 0.0139551 0.031734 0.0268381 0.0596104 -0.0218786 -0.0280459 -0.00085435 -0.0168641 0.0171256 0.0345649 0.0443811 -0.0110006 0.0527675 -0.0166092 0.0527486 0.0414448 0.0271898 0.0587689 0.0303721 0.02107 0.00466205 -0.0320617 0.0596423 -0.0470381
internal_weight=1631.53 1016.6 614.926 570.242 778.351 746.085 70.679 471.54 379.272 229.2 160.08 120.177 49.3443 98.702 150.072 675.406 32.2669 120.627 95.3987 667.39 572.191 387.68 184.192 108.93 75.2621 51.5534 23.7086 82.0246 59.3716 52.521 92.268 85.8351 74.6041 184.511 153.886 135.89 111.271 78.3231 32.2594 32.9477 23.2366 238.25 84.3198 77.7665 33.3809 25.2283 43.8381 30.7377 24.6194 21.5278 30.6243 70.8323 203.488 42.4783 17.8145 95.1989 32.8985 25.1112 16.4755 28.3168 65.0919 44.3856
internal_count=4786 2850 1936 1769 2226 2122 235 1443 1173 735 493 382 147 326 438 1887 104 365 283 1862 1615 1075 522 302 220 157 63 232 176 149 270 246 208 540 457 409 341 247 96 94 65 624 287 269 111 82 127 86 68 70 83 235 553 115 55 247 95 69 53 92 175 158
is_linear=0
shrinkage=0.05


Tree=3
num_leaves=63
num_cat=0
split_feature=99 89 99 34 15 31 47 60 43 77 111 70 27 59 48 103 2 58 18 63 42 5 103 19 53 95 66 3 24 48 78 99 67 79 15 105 50 34 56 43 58 111 49 47 77 20 108 20 66 53 51 70 59 67 86 12 17 88 74 12 33 24
split_gain=151.059 39.5526 38.5978 24.4193 20.1291 20.0086 24.0878 23.1588 17.5057 17.1581 22.4229 22.013 22.005 18.9354 17.8578 18.2287 16.9852 16.6886 19.631 15.9859 15.8329 24.1084 17.5836 16.2433 16.0866 15.6474 15.1873 15.0297 19.0194 14.6019 14.5401 14.0873 14.0329 13.9161 13.8034 13.4203 14.5784 14.3395 14.4002 13.4051 13.3463 13.1413 15.6263 13.5574 13.2076 18.6408 21.6415 14.104 13.0514 13.2947 12.9088 12.7025 12.6676 12.0357 14.454 11.9674 11.869 16.4535 14.779 13.0946 11.7603 11.481
threshold=0.4900136980248333 -0.20427872688284518 0.6625044041043221 0.71500000000000008 0.92500000000000016 0.49500000000000005 -0.077022626137477831 0.30837580040674717 -3.1499999999999981 3.7219366353196754 0.025508242351406866 0.29503580773675814 90.550000000000011 0.31642835008357667 0.10566188197767146 13.641666666666667 0.30110179194300934 0.33619929983881364 0.18412878787878792 0.085447508479297565 -0.018089267118863547 0.35133800744338295 13.09166666666667 0.03826812555260832 0.07140453767507364 0.013715444940648863 0.27104176187927154 0.062943965566416946 0.38561606146809629 -0.06354427736006682 1.0824488674544448 0.61027921601040502 0.31499410946964601 1.2765368462670048 0.45000000000000007 10.112329959869387 0.31803779604404503 0.59500000000000008 0.2856635791301913 2.5499999999999976 0.37613359101352878 -0.12214321134322471 0.30393682835990216 -0.029160961724266073 3.3700540984661562 0.29715232212121218 -0.65151515151515138 0.38389190711779458 0.25699166722624983 0.086480032584774699 0.25943875772033431 0.331254228831171 0.34051004375764671 0.30187837284167657 0.49785647741416827 0.48500000000000004 1.0000000180025095e-35 -0.86792023614091274 0.0082828304056223063 0.085000000000000006 0.18500000000000003 0.4190195278431828
decision_type=10 10 10 10 10 10 8 10 10 8 2 10 8 10 8 10 10 8 10 10 10 8 8 10 8 8 10 8 10 8 10 10 8 10 8 2 10 8 10 8 10 2 10 10 8 8 2 10 10 10 10 10 10 10 10 8 8 10 10 8 8 8
left_child=1 56 3 4 9 20 34 8 -8 11 14 30 -13 48 35 -16 31 18 26 39 21 23 -23 -3 -24 -17 -15 -12 -29 -19 61 53 -33 41 -7 37 -37 38 -11 -20 60 42 -22 -44 45 -43 -47 -48 49 55 -10 -35 -28 -5 -55 -14 59 58 -58 -1 -26 -2
right_child=2 5 -4 16 -6 6 7 -9 50 10 27 12 13 17 15 25 -18 29 19 -21 33 22 24 -25 40 -27 52 28 -30 -31 -32 32 -34 51 -36 36 -38 -39 -40 -41 -42 44 43 -45 -46 46 47 -49 -50 -51 -52 -53 -54 54 -56 -57 57 -59 -60 -61 -62 -63
leaf_value=0.01514163946099073 0.0017089455984778787 0.024208728562773691 -0.037321377519705316 -0.056553404220719722 0.07257660602690956 0.01855182367581518 -0.01073260744893189 -0.012832075956468313 0.041572903276378637 -0.037370827890204392 0.077239164083881651 -0.040333092787901398 -0.048902015062274234 -0.055860123221572591 -0.051443268170949547 -0.025923941370802717 0.048293081847417672 -0.014273180453132379 -0.044509595806733304 0.053703094271330624 0.055456804275857509 -0.027827729871305707 -0.0012899393725146055 -0.054437740236008531 0.0013573887317882879 0.035767425000135668 -0.023587703143915797 0.049037605531782227 -0.017954353451976341 0.064724351013371886 0.034373202945053583 0.054391242497248429 -0.032185753063767399 0.033070386625921357 0.069774851755417408 0.037646286961214886 -0.024809680531892829 0.031705134414458741 0.037312860432825133 0.034565368291050592 -0.0073990606244084406 0.060790586773808934 0.021272396524130967 -0.053667601038280978 0.062839969260081702 -0.033439151703784392 0.0062156150766239041 0.076105695859467914 0.062225126478321319 0.054564022176687099 -0.0077522992724613424 -0.018062307731218506 0.047067422592629679 -0.032262288591424153 0.020818532324779388 0.030611783668282329 0.027847720205036505 0.051684040358514899 -0.053999305513216904 0.066381865484070213 0.059634891817716695 -0.06511509593984309
leaf_weight=16.318018034100533 10.163460016250616 9.2501293420791644 44.115108251571655 23.600236311554909 12.93546289205551 27.803213998675346 26.700745865702629 65.11258938908577 78.943568050861359 34.516881108283997 11.820434123277662 9.1148481369018537 8.2723086327314377 15.442182764410971 31.826740145683289 23.474697902798653 8.3512213081121427 6.1265895664691925 9.3316901624202711 23.132159650325775 14.399116873741148 9.5200638025999051 20.726410299539566 13.639741510152815 10.923127248883246 15.203066572546957 13.092203557491304 18.117465153336525 20.07843479514122 23.73798352479935 8.2247489094734174 9.8900948315858805 5.6570704728364953 110.08389747142792 31.096447199583054 42.679070070385933 9.8100077360868436 13.155793011188505 5.8331048488616934 8.0237279236316699 9.1616975516080839 37.291171580553055 13.024661004543303 7.9488420039415386 156.20035786926746 14.959036797285078 18.773694008588794 11.195993930101393 60.344276323914528 10.832195371389387 14.20322699844837 11.691884890198706 8.8143350481986982 32.652980357408524 18.081973552703857 6.605653479695321 11.779160276055338 35.38580022752285 7.1216581910848609 170.6658221334219 71.42120648920536 12.393013045191763
leaf_count=46 28 28 167 85 28 82 83 219 213 127 32 30 27 54 124 87 21 21 30 61 35 34 67 50 36 48 41 52 75 63 22 27 21 312 78 127 34 40 15 20 33 88 35 28 408 45 52 23 145 27 43 40 23 111 61 19 32 93 25 428 194 43
internal_value=0.026274 0.0380158 0.00661197 0.0101662 0.014894 0.0323349 0.0199602 0.0106719 0.0236477 0.0129114 0.00292959 0.0223752 0.0283727 0.0321115 -0.0053957 -0.0246227 -0.0121968 0.0172775 0.00432722 0.0280501 0.0377807 0.0227389 0.0316238 -0.0222597 0.0372846 -0.000494009 -0.0208726 0.0318667 0.0140589 0.0478551 -0.0157089 -0.019018 0.0213863 0.0430759 0.0474092 0.00738113 0.0250325 -0.00976248 -0.0247318 -0.00686604 0.0461299 0.0495527 0.0185998 -0.0082408 0.053848 0.0353818 0.0120676 0.0362347 0.049579 0.0166464 0.0337841 0.0277465 0.0053547 -0.028135 -0.0127981 -0.0126735 0.0559568 0.032395 -0.00401157 0.06225 0.0524162 -0.0363006
internal_weight=1640.79 1025.34 615.451 571.336 473.103 784.071 243.86 184.96 119.848 460.167 226.516 233.651 202.87 193.755 176.499 70.5045 98.2336 107.701 77.8363 40.4876 540.211 144.642 121.753 22.8899 112.232 38.6778 37.3487 50.0163 38.1959 29.8646 30.7812 89.8824 15.5472 395.569 58.8997 105.995 52.4891 53.5058 40.35 17.3554 91.506 273.793 35.3726 20.9735 238.42 82.2199 44.9287 29.9697 86.0544 25.7102 93.1468 121.776 21.9065 74.3352 50.735 14.878 241.27 54.2866 18.9008 186.984 82.3443 22.5565
internal_count=4786 2850 1936 1769 1443 2226 718 558 339 1415 761 654 561 531 602 259 326 313 229 111 1508 442 364 78 330 135 118 159 127 84 93 305 48 1066 160 343 161 182 142 50 263 714 98 63 616 208 120 75 218 73 256 352 64 257 172 46 624 150 57 474 230 71
is_linear=0
shrinkage=0.05


Tree=4
num_leaves=63
num_cat=0
split_feature=98 99 89 15 45 21 51 23 94 43 49 89 89 55 10 62 80 77 39 43 47 16 89 70 42 5 10 84 95 65 98 87 61 56 96 73 31 28 110 59 41 52 65 84 110 2 87 51 107 99 41 24 96 66 60 63 20 71 97 73 23 20
split_gain=134.307 35.3142 35.204 19.405 25.0495 17.908 15.9662 16.3377 15.2848 23.9213 15.2016 14.6802 14.7776 14.6691 14.464 17.6348 15.4132 14.299 14.2266 14.2184 15.0103 13.2823 14.9367 15.5364 12.7465 15.9765 12.6646 12.184 13.1368 13.788 11.8989 11.9803 11.6364 11.3564 15.3808 10.8714 14.1592 11.3414 10.4798 10.2593 10.0468 10.6666 10.3635 11.2814 9.98454 24.9983 22.798 17.1786 16.3983 13.8093 19.6324 14.4508 12.6063 13.5074 24.6137 22.903 21.8414 20.9887 17.8162 13.6381 13.2009 12.9291
threshold=0.50998630197516703 0.6625044041043221 -0.18491855833311341 0.085000000000000006 0.077469308860156724 0.32172173500832651 0.27456762493580478 0.37329259906283568 0.97650000000000003 -1.4500000000000026 0.29537971521027018 0.027163514326595365 -0.023422518590865745 0.48302851149087561 47.225000000000009 0.27048697600056903 0.49849216622147635 3.453898775561886 0.38939113121439478 1.7500000000000002 -0.070025340331262911 1.0000000180025095e-35 -0.199448798100025 0.29108847331763438 0.0009560522224566914 0.37176146794092901 58.350000000000001 0.87730837935327455 -0.010502157379052874 0.41471943039962694 0.41729675365765068 -0.20969755952625288 0.20474280964839456 0.29983806493827098 -0.0029005348676839652 0.30645556653459383 0.32500000000000007 32.500000000000007 -3.0333333333333328 0.3158371708821166 -0.028355515209615736 0.23744347958566805 0.43243286562295902 1.0156844673370757 -0.20000000000000009 0.3071836017614174 0.42027192360161264 0.21696149998728068 0.37544099431939498 0.39810314570998684 -0.010087157624360214 0.44070840287766161 0.032188575680545582 0.26239755915418589 0.34519270512788874 0.091811729282660806 0.29798969554163796 0.0082854495254959266 -1.5712910837845879 0.28561138269719338 0.31480507781576722 0.36692954063147004
decision_type=8 10 10 10 8 10 10 10 2 10 10 8 10 10 8 8 10 8 8 8 8 8 8 10 10 10 10 10 10 10 10 10 10 10 8 10 8 10 2 10 8 10 10 10 2 8 10 10 2 10 10 10 10 8 10 8 8 10 8 8 10 8
left_child=1 3 21 6 8 13 7 11 9 -5 -11 12 -1 26 15 16 18 -12 27 20 39 -2 -23 -24 25 -16 33 -10 -29 -30 -17 -32 -18 44 -35 36 -6 -37 -3 -7 41 -13 -42 -44 45 46 48 -48 -4 -50 -51 -52 53 55 -55 56 58 60 -46 -59 -58 -61
right_child=2 38 5 4 35 19 -8 -9 14 10 17 40 -14 -15 24 30 32 -19 -20 -21 -22 22 23 -25 -26 -27 -28 28 29 -31 31 -33 -34 34 -36 37 -38 -39 -40 -41 42 -43 43 -45 52 -47 47 -49 49 50 51 -53 -54 54 -56 -57 57 59 -60 61 -62 -63
leaf_value=-0.018226814231701114 0.057359519734073695 0.0072628719295792718 0.069492704750839879 -0.05425500262649318 0.046166361903034601 -0.029035928491638375 0.032110372156493865 0.040009613449352645 -0.01748844116463048 -0.028708014724045317 -0.01942489563232357 0.020226473557669405 0.043060864018183556 -0.021330870843610183 0.01342509214724656 0.033134559732488328 0.00033200869315950219 0.057255402175897724 -0.022010009906123514 0.048768440498203065 -0.063873630488891983 0.045227041871668892 -0.054528475370580837 0.0264351481732167 0.016650617964994775 -0.057952822009977603 -0.015123767892954609 0.06000471511493051 -0.023789336568212242 0.033044874331812767 0.028501329585564963 -0.035209412934034769 0.056531196115795004 -0.043789693136685862 0.025661320104325976 0.057390264685464404 -0.015493309313510589 0 -0.048411269695892926 0.046441549867223382 -0.0630046027672857 -0.031630163523772833 -0.040787330210548201 0.032094224986279667 -0.011434970528124498 -0.015561687898525377 0.033734639121642748 -0.020046824638792676 0.057144376684874224 0.04495384097171598 -0.028426567398236742 0.028015229977014097 -0.014663524167373466 0.055060511767322032 -0.029468903669850562 0.062076697922294449 0.012056183330700854 0.0017085842088060896 0.056339177950352128 0.07533686377409525 -0.041877040656688187 0.015819635049511515
leaf_weight=20.979589655995369 216.45770506560802 9.4502910971641523 40.614032253623009 21.308789938688278 14.642014935612677 6.7557478398084623 21.621160000562668 11.270775765180586 13.079402878880499 13.916164249181746 7.2384259104728725 15.715481758117674 14.979845583438872 11.008962661027907 11.045220434665682 11.731339588761328 12.276370376348494 16.503301978111267 19.516114965081215 6.7524320781230953 10.789206847548487 42.268198877573013 7.7169738709926632 12.982883825898169 23.275388821959496 18.052899062633514 11.903537780046461 24.683015376329422 14.208574414253233 28.426566436886787 7.5629486739635459 29.461009651422501 50.797254353761673 9.4683558046817762 23.773561522364616 55.271495968103409 18.716464310884476 9.5780215561389905 34.095879852771759 7.0543973743915558 28.284824654459953 19.997356280684471 11.073284700512888 6.7765943408012381 10.181257769465445 29.826428443193436 25.019917175173759 30.665767654776573 33.126836806535721 33.853904128074646 25.155377790331841 17.293152496218681 8.8629497438669187 180.47334975004196 7.450615167617797 49.478964999318123 18.341771215200424 35.750920668244362 56.909249737858772 17.289467766880989 23.212724640965462 22.516482874751091
leaf_count=70 545 33 99 77 38 22 64 32 39 49 23 48 43 38 32 35 40 45 66 18 42 110 29 34 68 68 37 61 48 81 22 106 138 34 68 145 58 29 134 19 106 71 43 24 33 103 67 103 84 88 82 49 27 464 28 129 55 111 144 42 78 68
internal_value=0.0248761 0.00630932 0.0358822 0.00968748 0.0151925 0.0300287 -0.00553588 -0.0124263 0.00826005 -0.014214 0.00940638 -0.0182357 0.00756919 0.0316377 0.0134407 0.0192658 0.0271118 0.0332129 0.0140675 -0.00596015 -0.0244601 0.0512532 0.0287579 -0.00479197 -0.00949245 -0.030934 0.0325502 0.0234502 0.0320401 0.013327 -0.00650543 -0.0207608 0.0463234 0.0334383 0.00380762 0.0371292 0.0119444 0.0489653 -0.0359917 0.00893534 -0.0297813 -0.0082852 -0.0448664 -0.011413 0.0348639 0.0258272 0.0320401 0.00401594 0.0420867 0.0306261 0.0176283 -0.00464429 0.0396087 0.0408725 0.0513025 0.0320145 0.0232252 0.00961252 0.045659 0.0252144 -0.0180369 0.044636
internal_weight=1648.49 615.536 1032.96 571.99 421.291 753.529 150.699 129.078 323.083 58.9667 37.6579 117.807 35.9594 722.178 264.116 211.743 162.987 23.7417 99.9137 31.3518 24.5994 279.426 62.9681 20.6999 52.3735 29.0981 711.169 80.3976 67.3182 42.6351 48.7553 37.024 63.0736 699.265 33.2419 98.208 33.3585 64.8495 43.5462 13.8101 81.8475 35.7128 46.1347 17.8499 666.023 235.555 205.729 55.6857 150.043 109.429 76.3024 42.4485 430.468 421.605 187.924 233.681 184.202 117.111 67.0905 75.5569 41.5545 39.806
internal_count=4786 1936 2850 1769 1268 2132 501 437 998 194 117 405 113 2031 804 636 473 68 295 101 83 718 173 63 168 100 1993 229 190 129 163 128 178 1956 102 270 96 174 167 41 292 119 173 67 1854 675 572 170 402 303 219 131 1179 1152 492 660 531 354 177 221 133 110
is_linear=0
shrinkage=0.05


end of trees

feature_importances:
away_sp_gb_pct=8
true_away_prob=8
home_sp_xwoba_10d=7
away_sp_k_pct=7
away_sp_xera_pctl=7
sp_kminusbb_diff=7
bp_whip_diff=7
ump_rpg_above_avg=7
home_sp_fb_spin_pctl=6
sp_velo_diff=6
home_bat_gb_pct=6
away_bat_vs_home_sp=6
home_park_factor=6
ump_bb_above_avg=6
true_home_prob=6
home_sp_gb_pct=5
home_sp_xera_pctl=5
home_bat_xwoba_vs_rhp=5
home_bat_bb_vs_rhp=5
away_bat_k_vs_lhp=5
home_bp_whip=5
bp_era_diff=5
pyth_win_pct_diff=5
home_sp_k_pct=4
home_sp_whiff_pctl=4
home_sp_bb_pct_10d=4
away_sp_xwoba_against=4
away_sp_xwoba_10d=4
sp_xwoba_10d_diff=4
home_bat_k_vs_rhp=4
home_bat_fb_pct=4
away_bat_xwoba_vs_rhp=4
away_bat_bb_vs_rhp=4
away_bat_gb_pct=4
away_bat_fb_pct=4
away_bp_bb9=4
away_bp_gb_pct=4
ump_k_above_avg=4
circadian_edge=4
home_sp_bb_pct=3
home_sp_age_pit=3
home_sp_arm_angle=3
home_sp_k_pct_10d=3
away_sp_whiff_pctl=3
sp_xwoba_diff=3
sp_xrv_diff=3
sp_bb_pct_10d_diff=3
home_bat_xwoba_vs_lhp=3
home_bat_xwoba_vs_lhp_10d=3
away_bat_xwoba_vs_lhp=3
away_bat_k_vs_rhp=3
away_bat_vs_home_sp_10d=3
home_bp_k9=3
home_bp_bb9=3
away_game_local_hour=3
home_game_local_hour=3
home_pyth_win_pct_15g=3
home_sp_ff_velo=2
home_sp_il_return_flag=2
away_sp_k_minus_bb=2
away_sp_k_pct_10d=2
sp_age_diff=2
sp_k_pct_10d_diff=2
home_bat_k_vs_lhp=2
home_bat_bb_vs_lhp=2
home_bat_xwoba_vs_rhp_10d=2
away_bat_xwoba_vs_rhp_10d=2
away_bat_xwoba_vs_lhp_10d=2
batting_matchup_edge=2
home_bp_gb_pct=2
away_bp_hr9=2
bp_k9_diff=2
home_rolling_rd_15g=2
away_pyth_win_pct_15g=2
rolling_rd_diff=2
home_sp_xrv_per_pitch=1
home_sp_starts_since_il=1
away_sp_xrv_per_pitch=1
away_sp_ff_velo=1
away_sp_age_pit=1
away_sp_fb_velo_pctl=1
away_sp_bb_pct_10d=1
sp_k_pct_diff=1
away_bat_bb_vs_lhp=1
home_bat_vs_away_sp=1
home_bat_vs_away_sp_10d=1
batting_matchup_edge_10d=1
home_bp_hr9=1
away_bp_k9=1
mc_expected_runs=1
away_rolling_rd_15g=1

parameters:
[boosting: gbdt]
[objective: binary]
[metric: auc]
[tree_learner: serial]
[device_type: gpu]
[data_sample_strategy: bagging]
[data: ]
[valid: ]
[num_iterations: 600]
[learning_rate: 0.05]
[num_leaves: 63]
[num_threads: 16]
[seed: 42]
[deterministic: 0]
[force_col_wise: 1]
[force_row_wise: 0]
[histogram_pool_size: -1]
[max_depth: -1]
[min_data_in_leaf: 20]
[min_sum_hessian_in_leaf: 0.001]
[bagging_fraction: 0.8]
[pos_bagging_fraction: 1]
[neg_bagging_fraction: 1]
[bagging_freq: 0]
[bagging_seed: 400]
[bagging_by_query: 0]
[feature_fraction: 0.75]
[feature_fraction_bynode: 1]
[feature_fraction_seed: 30056]
[extra_trees: 0]
[extra_seed: 12879]
[early_stopping_round: 0]
[early_stopping_min_delta: 0]
[first_metric_only: 0]
[max_delta_step: 0]
[lambda_l1: 0.5]
[lambda_l2: 2]
[linear_lambda: 0]
[min_gain_to_split: 0]
[drop_rate: 0.1]
[max_drop: 50]
[skip_drop: 0.5]
[xgboost_dart_mode: 0]
[uniform_drop: 0]
[drop_seed: 17869]
[top_rate: 0.2]
[other_rate: 0.1]
[min_data_per_group: 100]
[max_cat_threshold: 32]
[cat_l2: 10]
[cat_smooth: 10]
[max_cat_to_onehot: 4]
[top_k: 20]
[monotone_constraints: ]
[monotone_constraints_method: basic]
[monotone_penalty: 0]
[feature_contri: ]
[forcedsplits_filename: ]
[refit_decay_rate: 0.9]
[cegb_tradeoff: 1]
[cegb_penalty_split: 0]
[cegb_penalty_feature_lazy: ]
[cegb_penalty_feature_coupled: ]
[path_smooth: 0]
[interaction_constraints: ]
[verbosity: -1]
[saved_feature_importance_type: 0]
[use_quantized_grad: 0]
[num_grad_quant_bins: 4]
[quant_train_renew_leaf: 0]
[stochastic_rounding: 1]
[linear_tree: 0]
[max_bin: 255]
[max_bin_by_feature: ]
[min_data_in_bin: 3]
[bin_construct_sample_cnt: 200000]
[data_random_seed: 175]
[is_enable_sparse: 1]
[enable_bundle: 1]
[use_missing: 1]
[zero_as_missing: 0]
[feature_pre_filter: 1]
[pre_partition: 0]
[two_round: 0]
[header: 0]
[label_column: ]
[weight_column: ]
[group_column: ]
[ignore_column: ]
[categorical_feature: ]
[forcedbins_filename: ]
[precise_float_parser: 0]
[parser_config_file: ]
[objective_seed: 16083]
[num_class: 1]
[is_unbalance: 0]
[scale_pos_weight: 1.80211]
[sigmoid: 1]
[boost_from_average: 1]
[reg_sqrt: 0]
[alpha: 0.9]
[fair_c: 1]
[poisson_max_delta_step: 0.7]
[tweedie_variance_power: 1.5]
[lambdarank_truncation_level: 30]
[lambdarank_norm: 1]
[label_gain: ]
[lambdarank_position_bias_regularization: 0]
[eval_at: ]
[multi_error_top_k: 1]
[auc_mu_weights: ]
[num_machines: 1]
[local_listen_port: 12400]
[time_out: 120]
[machine_list_filename: ]
[machines: ]
[gpu_platform_id: -1]
[gpu_device_id: -1]
[gpu_use_dp: 0]
[num_gpu: 1]

end of parameters

pandas_categorical:[]
