{"learner":{"attributes":{"best_iteration":"10","best_score":"0.6111555451004992"},"feature_names":["sp_k_pct","sp_bb_pct","sp_whiff_pctl","sp_ff_velo","sp_k_pct_10d","sp_k_bb_ratio","sp_1st_k_pct","sp_xwoba_against","sp_gb_pct","opp_bat_k_rate","ump_k_above_avg","home_park_factor","temp_f","home_bullpen_vulnerability","away_bullpen_vulnerability","elo_diff","close_total"],"feature_types":["float","float","float","float","float","float","float","float","float","float","float","float","float","float","float","float","float"],"gradient_booster":{"model":{"cats":{"enc":[],"feature_segments":[],"sorted_idx":[]},"gbtree_model_param":{"num_parallel_tree":"1","num_trees":"51"},"iteration_indptr":[0,1,2,3,4,5,6,7,8,9,10,11,12,13,14,15,16,17,18,19,20,21,22,23,24,25,26,27,28,29,30,31,32,33,34,35,36,37,38,39,40,41,42,43,44,45,46,47,48,49,50,51],"tree_info":[0,0,0,0,0,0,0,0,0,0,0,0,0,0,0,0,0,0,0,0,0,0,0,0,0,0,0,0,0,0,0,0,0,0,0,0,0,0,0,0,0,0,0,0,0,0,0,0,0,0,0],"trees":[{"base_weights":[1.0359864E-4,1.4701462E-1,-3.0311477E-1,-2.862257E-1,2.55283E-1,-3.8460147E-1,4.3276586E-2,-7.4045306E-1,9.408566E-2,-5.444236E-1,3.2741472E-1,-4.3994966E-1,1.0204888E-2,-9.546105E-3,-4.5636017E-2,3.6893126E-2,-2.0304864E-2,-3.886153E-2,-6.5040938E-3,-1.5687618E-2,2.043776E-2,6.6546756E-3,-2.510038E-2],"categories":[],"categories_nodes":[],"categories_segments":[],"categories_sizes":[],"default_left":[1,0,1,1,0,1,0,0,0,1,1,0,0,0,0,0,0,0,0,0,0,0,0],"id":0,"left_children":[1,3,5,7,9,11,-1,13,15,17,19,21,-1,-1,-1,-1,-1,-1,-1,-1,-1,-1,-1],"loss_changes":[1.6201466E1,1.1564982E1,1.1636875E1,8.613057E0,1.1515608E1,3.7279968E0,0E0,1.9699774E0,9.253144E0,1.5036769E0,9.562967E0,3.7076092E0,0E0,0E0,0E0,0E0,0E0,0E0,0E0,0E0,0E0,0E0,0E0],"parents":[2147483647,0,0,1,1,2,2,3,3,4,4,5,5,7,7,8,8,9,9,10,10,11,11],"right_children":[2,4,6,8,10,12,-1,14,16,18,20,22,-1,-1,-1,-1,-1,-1,-1,-1,-1,-1,-1],"split_conditions":[1.2753109E0,9.2E1,8.4E-1,1.0602821E0,9E-2,3.5E-1,4.3276586E-2,9.01E1,7.59E1,5.7154885E-3,-3.5476796E-2,5.68E1,1.0204888E-2,-9.546105E-3,-4.5636017E-2,3.6893126E-2,-2.0304864E-2,-3.886153E-2,-6.5040938E-3,-1.5687618E-2,2.043776E-2,6.6546756E-3,-2.510038E-2],"split_indices":[13,3,2,13,2,4,0,3,12,10,10,12,0,0,0,0,0,0,0,0,0,0,0],"split_type":[0,0,0,0,0,0,0,0,0,0,0,0,0,0,0,0,0,0,0,0,0,0,0],"sum_hessian":[3.6170062E2,2.4399756E2,1.1770305E2,4.8455853E1,1.955417E2,1.1065805E2,7.045E0,2.1650488E1,2.6805367E1,1.5636463E1,1.7990524E2,1.01379265E2,9.278781E0,5.670366E0,1.5980122E1,1.1512561E1,1.5292805E1,9.45061E0,6.1858535E0,1.9932196E1,1.5997305E2,9.794269E0,9.1585E1],"tree_param":{"num_deleted":"0","num_feature":"17","num_nodes":"23","size_leaf_vector":"1"}},{"base_weights":[-3.3611178E-3,-3.3930954E-1,1.7335324E-1,-8.0008715E-2,-5.6001365E-1,1.3306202E0,1.15454264E-1,-5.2898604E-1,1.5643108E-1,1.819188E-2,-6.645966E-1,1.915754E-2,1.039839E-1,-2.0486938E-2,4.6467242E-1,-4.5584623E-2,-1.6810012E-4,2.379038E-2,-1.9513248E-2,-4.466136E-2,-1.1270318E-2,2.2113796E-2,-5.501987E-3,-4.411823E-3,4.2418107E-2],"categories":[],"categories_nodes":[],"categories_segments":[],"categories_sizes":[],"default_left":[1,0,0,1,0,0,1,0,0,0,0,0,0,0,0,0,0,0,0,0,0,0,0,0,0],"id":1,"left_children":[1,3,5,7,9,11,13,15,17,-1,19,-1,-1,21,23,-1,-1,-1,-1,-1,-1,-1,-1,-1,-1],"loss_changes":[2.1463133E1,7.0868654E0,1.5721491E1,6.289164E0,6.7299595E0,7.1475105E0,1.0773205E1,4.0998197E0,7.0071793E0,0E0,5.891371E0,0E0,0E0,6.851728E0,1.356144E1,0E0,0E0,0E0,0E0,0E0,0E0,0E0,0E0,0E0,0E0],"parents":[2147483647,0,0,1,1,2,2,3,3,4,4,5,5,6,6,7,7,8,8,10,10,13,13,14,14],"right_children":[2,4,6,8,10,12,14,16,18,-1,20,-1,-1,22,24,-1,-1,-1,-1,-1,-1,-1,-1,-1,-1],"split_conditions":[9.24E1,7.6E1,9.5194966E-1,1.0407417E0,9.68E-1,7.04E1,2.857143E-1,3E-1,1.3115705E0,1.819188E-2,1.023E0,1.915754E-2,1.039839E-1,9.3E1,7.49E1,-4.5584623E-2,-1.6810012E-4,2.379038E-2,-1.9513248E-2,-4.466136E-2,-1.1270318E-2,2.2113796E-2,-5.501987E-3,-4.411823E-3,4.2418107E-2],"split_indices":[3,12,13,13,11,12,4,4,13,0,11,0,0,3,12,0,0,0,0,0,0,0,0,0,0],"split_type":[0,0,0,0,0,0,0,0,0,0,0,0,0,0,0,0,0,0,0,0,0,0,0,0,0],"sum_hessian":[3.595428E2,1.2361689E2,2.359259E2,5.7464977E1,6.615192E1,1.019379E1,2.2573212E2,1.9396162E1,3.8068813E1,6.4749947E0,5.967692E1,5.1681743E0,5.0256157E0,1.6315976E2,6.2572353E1,1.0798956E1,8.597206E0,2.411225E1,1.3956564E1,3.8566456E1,2.1110466E1,2.5816196E1,1.3734357E2,2.5949028E1,3.662333E1],"tree_param":{"num_deleted":"0","num_feature":"17","num_nodes":"25","size_leaf_vector":"1"}},{"base_weights":[3.6586795E-3,3.1256348E-1,-2.6567435E-1,2.1925782E-1,1.186411E0,-2.0865463E-1,-5.1343746E-2,6.376206E-1,7.837246E-2,8.766037E-2,1.7309852E-3,3.5340175E-1,-2.7895808E-1,-3.3895206E-3,5.075979E-2,-3.7021507E-2,6.160926E-3,2.8035406E-3,4.590597E-2,-3.3043154E-2,-7.239508E-3],"categories":[],"categories_nodes":[],"categories_segments":[],"categories_sizes":[],"default_left":[1,1,0,0,0,0,0,0,0,0,0,0,0,0,0,0,0,0,0,0,0],"id":2,"left_children":[1,3,5,7,9,11,-1,13,15,-1,-1,17,19,-1,-1,-1,-1,-1,-1,-1,-1],"loss_changes":[2.9774801E1,1.3330738E1,8.084124E0,8.899263E0,1.0289558E1,7.1765475E0,0E0,1.0219141E1,4.303897E0,0E0,0E0,3.3663554E0,8.09072E0,0E0,0E0,0E0,0E0,0E0,0E0,0E0,0E0],"parents":[2147483647,0,0,1,1,2,2,3,3,4,4,5,5,7,7,8,8,11,11,12,12],"right_children":[2,4,6,8,10,12,-1,14,16,-1,-1,18,20,-1,-1,-1,-1,-1,-1,-1,-1],"split_conditions":[8.5E0,9.64E1,1.1E1,9.75E-1,2.4555875E-1,1.2280702E-1,-5.1343746E-2,2.0531756E-1,-3.5476796E-2,8.766037E-2,1.7309852E-3,8.695652E-2,9.24E1,-3.3895206E-3,5.075979E-2,-3.7021507E-2,6.160926E-3,2.8035406E-3,4.590597E-2,-3.3043154E-2,-7.239508E-3],"split_indices":[16,3,16,11,9,6,0,0,10,0,0,6,3,0,0,0,0,0,0,0,0],"split_type":[0,0,0,0,0,0,0,0,0,0,0,0,0,0,0,0,0,0,0,0,0],"sum_hessian":[3.5587958E2,1.6568768E2,1.9019188E2,1.5083328E2,1.4854414E1,1.781232E2,1.2068673E1,3.710958E1,1.13723694E2,9.605427E0,5.2489862E0,1.9355398E1,1.587678E2,1.3224029E1,2.3885553E1,5.0998473E0,1.0862385E2,1.3399619E1,5.9557786E0,4.0255653E1,1.1851215E2],"tree_param":{"num_deleted":"0","num_feature":"17","num_nodes":"21","size_leaf_vector":"1"}},{"base_weights":[-3.0697124E-2,-2.599579E-1,1.7046343E-1,-7.6536E-1,-1.7608872E-1,4.383652E-1,-8.88587E-2,-5.02788E-2,-1.2870598E-2,-1.15672044E-1,-4.816028E-2,-2.8440336E-2,5.510434E-1,-2.0973185E-1,4.6039373E-2,2.0218098E-3,-2.0646323E-2,6.685556E-2,1.9207966E-2,1.725465E-2,-1.9904818E-2],"categories":[],"categories_nodes":[],"categories_segments":[],"categories_sizes":[],"default_left":[1,0,1,1,0,0,1,0,0,1,0,0,0,1,0,0,0,0,0,0,0],"id":3,"left_children":[1,3,5,7,9,11,13,-1,-1,15,-1,-1,17,19,-1,-1,-1,-1,-1,-1,-1],"loss_changes":[1.6988571E1,7.1604557E0,1.3676593E1,2.6935654E0,6.9700294E0,1.1290085E1,1.2467758E1,0E0,0E0,6.48688E0,0E0,0E0,1.0964523E1,9.61013E0,0E0,0E0,0E0,0E0,0E0,0E0,0E0],"parents":[2147483647,0,0,1,1,2,2,3,3,4,4,5,5,6,6,9,9,12,12,13,13],"right_children":[2,4,6,8,10,12,14,-1,-1,16,-1,-1,18,20,-1,-1,-1,-1,-1,-1,-1],"split_conditions":[2.069661E-1,8E-2,1.1636035E0,1.2802975E0,4.2596906E-2,-2.899026E-2,8.4E-1,-5.02788E-2,-1.2870598E-2,1.3115705E0,-4.816028E-2,-2.8440336E-2,4.743236E-2,1.0445136E0,4.6039373E-2,2.0218098E-3,-2.0646323E-2,6.685556E-2,1.9207966E-2,1.725465E-2,-1.9904818E-2],"split_indices":[0,2,13,14,10,10,2,0,0,13,0,0,1,14,0,0,0,0,0,0,0],"split_type":[0,0,0,0,0,0,0,0,0,0,0,0,0,0,0,0,0,0,0,0,0],"sum_hessian":[3.664091E2,1.7110735E2,1.9530173E2,2.3196692E1,1.4791066E2,9.5722176E1,9.957955E1,1.5083707E1,8.112985E0,1.3843199E2,9.478661E0,9.224161E0,8.649802E1,8.964024E1,9.939308E0,9.1331604E1,4.710039E1,1.3919822E1,7.257819E1,2.2508814E1,6.713143E1],"tree_param":{"num_deleted":"0","num_feature":"17","num_nodes":"21","size_leaf_vector":"1"}},{"base_weights":[-1.4182107E-2,-1.5241146E-1,2.8944388E-1,-6.2486436E-2,-5.244361E-1,6.395862E-2,1.8585242E-1,6.012755E-1,-1.0913538E-1,-7.1197695E-1,-5.9155717E-2,3.1364992E-1,-4.9993664E-1,5.595545E-2,-3.3124466E-3,-1.8267198E-2,2.4465134E-3,-4.552622E-2,-6.4205797E-3,3.191705E-2,-2.921985E-2,-4.3544555E-3,2.7309025E-2,3.446681E-4,-3.969191E-2],"categories":[],"categories_nodes":[],"categories_segments":[],"categories_sizes":[],"default_left":[1,1,0,0,0,0,0,1,1,0,0,0,0,0,0,0,0,0,0,0,0,0,0,0,0],"id":4,"left_children":[1,3,5,7,9,-1,11,13,15,17,19,21,23,-1,-1,-1,-1,-1,-1,-1,-1,-1,-1,-1,-1],"loss_changes":[1.5264891E1,8.326122E0,1.1429719E1,6.3313417E0,4.1902523E0,0E0,9.287892E0,4.7203484E0,7.709013E0,3.8779907E0,5.8773584E0,8.288306E0,2.5006657E0,0E0,0E0,0E0,0E0,0E0,0E0,0E0,0E0,0E0,0E0,0E0,0E0],"parents":[2147483647,0,0,1,1,2,2,3,3,4,4,6,6,7,7,8,8,9,9,10,10,11,11,12,12],"right_children":[2,4,6,8,10,-1,12,14,16,18,20,22,24,-1,-1,-1,-1,-1,-1,-1,-1,-1,-1,-1,-1],"split_conditions":[2.4165294E-1,3.5760054E-1,2.1136544E0,5.78E1,4.5497122E-1,6.395862E-2,4.5454547E-1,-6.672225E-4,-9.045344E-3,1.5172205E0,8.972226E-2,2.2259979E-1,2.2540088E-1,5.595545E-2,-3.3124466E-3,-1.8267198E-2,2.4465134E-3,-4.552622E-2,-6.4205797E-3,3.191705E-2,-2.921985E-2,-4.3544555E-3,2.7309025E-2,3.446681E-4,-3.969191E-2],"split_indices":[0,7,5,12,8,0,4,10,10,13,1,9,9,0,0,0,0,0,0,0,0,0,0,0,0],"split_type":[0,0,0,0,0,0,0,0,0,0,0,0,0,0,0,0,0,0,0,0,0,0,0,0,0],"sum_hessian":[3.6165826E2,2.4885986E2,1.1279839E2,2.0135637E2,4.7503487E1,9.612345E0,1.0318605E2,1.2441302E1,1.8891507E2,3.347891E1,1.4024575E1,8.7435074E1,1.5750972E1,6.6252465E0,5.816056E0,7.15799E1,1.1733517E2,2.4561895E1,8.917015E0,5.931922E0,8.092653E0,3.2334995E1,5.5100082E1,6.1396894E0,9.611282E0],"tree_param":{"num_deleted":"0","num_feature":"17","num_nodes":"25","size_leaf_vector":"1"}},{"base_weights":[2.2048455E-2,-2.2083686E-1,2.2874717E-1,-5.793309E-1,-1.6053675E-1,4.6851167E-1,-3.1240802E-2,-8.701969E-1,-1.7563511E-1,-5.61234E-1,-9.025449E-2,-1.257524E-1,6.333537E-1,5.051145E-1,-2.482591E-1,-3.0524796E-2,-5.3075086E-2,-2.8437063E-2,1.2287542E-2,-3.722955E-4,-3.7623014E-2,1.1755428E-2,-9.08981E-3,2.398958E-2,-2.8118283E-2,4.986179E-2,1.7154688E-2,3.9729502E-2,-2.1349423E-2,-1.8805932E-2,4.18974E-2],"categories":[],"categories_nodes":[],"categories_segments":[],"categories_sizes":[],"default_left":[1,0,1,0,1,0,1,0,1,0,1,0,0,0,1,0,0,0,0,0,0,0,0,0,0,0,0,0,0,0,0],"id":5,"left_children":[1,3,5,7,9,11,13,15,17,19,21,23,25,27,29,-1,-1,-1,-1,-1,-1,-1,-1,-1,-1,-1,-1,-1,-1,-1,-1],"loss_changes":[1.8401237E1,3.5507927E0,1.2354817E1,2.6519785E0,4.0517745E0,1.0174332E1,1.1289611E1,2.9157639E-2,2.0043314E0,2.2761488E0,3.769545E0,6.4067526E0,8.19595E0,7.883075E0,9.89175E0,0E0,0E0,0E0,0E0,0E0,0E0,0E0,0E0,0E0,0E0,0E0,0E0,0E0,0E0,0E0,0E0],"parents":[2147483647,0,0,1,1,2,2,3,3,4,4,5,5,6,6,7,7,8,8,9,9,10,10,11,11,12,12,13,13,14,14],"right_children":[2,4,6,8,10,12,14,16,18,20,22,24,26,28,30,-1,-1,-1,-1,-1,-1,-1,-1,-1,-1,-1,-1,-1,-1,-1,-1],"split_conditions":[2.069661E-1,8E-2,1.1722727E0,1.2367421E0,9.925269E-1,6.61E1,1.0469314E0,9.25E1,1.0615582E0,2.4E-1,1.0360236E0,4.077581E-1,1.1952298E0,8.22E1,8.4E-1,-3.0524796E-2,-5.3075086E-2,-2.8437063E-2,1.2287542E-2,-3.722955E-4,-3.7623014E-2,1.1755428E-2,-9.08981E-3,2.398958E-2,-2.8118283E-2,4.986179E-2,1.7154688E-2,3.9729502E-2,-2.1349423E-2,-1.8805932E-2,4.18974E-2],"split_indices":[0,2,13,14,14,12,14,3,13,2,13,8,14,12,2,0,0,0,0,0,0,0,0,0,0,0,0,0,0,0,0],"split_type":[0,0,0,0,0,0,0,0,0,0,0,0,0,0,0,0,0,0,0,0,0,0,0,0,0,0,0,0,0,0,0],"sum_hessian":[3.6452246E2,1.6755975E2,1.969627E2,2.2886759E1,1.4467299E2,1.0204935E2,9.491336E1,1.2630681E1,1.0256078E1,2.0546526E1,1.24126465E2,2.2211803E1,7.983755E1,2.6958523E1,6.795484E1,7.1354103E0,5.4952707E0,5.1251717E0,5.130906E0,5.54044E0,1.5006085E1,2.6910658E1,9.7215805E1,9.264235E0,1.2947569E1,3.4345245E1,4.54923E1,2.0682775E1,6.275748E0,6.1383053E1,6.5717864E0],"tree_param":{"num_deleted":"0","num_feature":"17","num_nodes":"31","size_leaf_vector":"1"}},{"base_weights":[-1.6898327E-2,-1.571659E-1,2.9971045E-1,-3.681414E-1,-1.8977307E-2,-4.2129006E-2,3.7583277E-1,4.7153082E-1,-4.9799514E-1,1.1384632E-1,-3.3809417E-1,1.1409985E0,2.4805802E-1,-6.3835843E-3,4.873948E-2,1.6400298E-2,-2.8876973E-2,-1.2666299E-2,1.4740387E-2,-8.651337E-3,-4.6521183E-2,7.972037E-2,2.1189108E-2,2.8122712E-2,-5.6268997E-3],"categories":[],"categories_nodes":[],"categories_segments":[],"categories_sizes":[],"default_left":[1,1,0,0,0,0,0,1,1,1,1,1,1,0,0,0,0,0,0,0,0,0,0,0,0],"id":6,"left_children":[1,3,5,7,9,-1,11,13,15,17,19,21,23,-1,-1,-1,-1,-1,-1,-1,-1,-1,-1,-1,-1],"loss_changes":[1.6173326E1,7.3485055E0,1.0040506E1,1.1116042E1,6.5447044E0,0E0,1.003476E1,4.3099813E0,5.900152E0,7.3259664E0,4.274491E0,4.144745E0,1.0460377E1,0E0,0E0,0E0,0E0,0E0,0E0,0E0,0E0,0E0,0E0,0E0,0E0],"parents":[2147483647,0,0,1,1,2,2,3,3,4,4,6,6,7,7,8,8,9,9,10,10,11,11,12,12],"right_children":[2,4,6,8,10,-1,12,14,16,18,20,22,24,-1,-1,-1,-1,-1,-1,-1,-1,-1,-1,-1,-1],"split_conditions":[2.427835E-1,-8.915502E-3,1.7769979E-1,5.96E1,3.5673448E-1,-4.2129006E-2,2.3387992E0,1.1481148E0,9.1934496E-1,1.7E-1,1.7772602E-1,7E-1,1.1722727E0,-6.3835843E-3,4.873948E-2,1.6400298E-2,-2.8876973E-2,-1.2666299E-2,1.4740387E-2,-8.651337E-3,-4.6521183E-2,7.972037E-2,2.1189108E-2,2.8122712E-2,-5.6268997E-3],"split_indices":[0,10,9,12,7,0,5,14,13,2,0,2,13,0,0,0,0,0,0,0,0,0,0,0,0],"split_type":[0,0,0,0,0,0,0,0,0,0,0,0,0,0,0,0,0,0,0,0,0,0,0,0,0],"sum_hessian":[3.6212192E2,2.512943E2,1.1082762E2,9.87961E1,1.524982E2,6.2950726E0,1.0453255E2,1.2879866E1,8.591624E1,1.0813374E2,4.4364456E1,1.3823312E1,9.0709236E1,6.220166E0,6.659699E0,7.2726164E0,7.8643616E1,3.5567364E1,7.256638E1,3.5706154E1,8.6583E0,7.7199044E0,6.1034074E0,4.815986E1,4.2549377E1],"tree_param":{"num_deleted":"0","num_feature":"17","num_nodes":"25","size_leaf_vector":"1"}},{"base_weights":[-3.7531487E-3,2.7986088E-1,-2.3281202E-1,4.7815597E-1,-9.800314E-5,-5.2456146E-1,-7.567044E-2,-2.6199803E-1,6.6459477E-1,-3.252996E-1,2.4407353E-1,-2.6703268E-1,-7.4671423E-1,-8.274317E-1,1.4136645E-2,-2.9316071E-2,2.9313609E-2,1.3074239E-2,4.218449E-2,2.293132E-4,-4.1030843E-2,4.9914505E-2,-1.3110102E-3,-2.7281929E-2,1.7349238E-2,-4.638433E-2,-1.1298495E-2,-5.1030137E-2,-2.0395897E-2,-9.865322E-3,1.7413225E-2],"categories":[],"categories_nodes":[],"categories_segments":[],"categories_sizes":[],"default_left":[0,0,1,0,1,0,1,1,1,1,1,1,1,0,0,0,0,0,0,0,0,0,0,0,0,0,0,0,0,0,0],"id":7,"left_children":[1,3,5,7,9,11,13,15,17,19,21,23,25,27,29,-1,-1,-1,-1,-1,-1,-1,-1,-1,-1,-1,-1,-1,-1,-1,-1],"loss_changes":[2.3754057E1,9.069723E0,9.2335615E0,1.3371288E1,5.537602E0,3.8419266E0,8.966048E0,5.835047E0,5.3150177E0,4.8904824E0,8.14633E0,6.05212E0,3.3119183E0,7.320118E-1,8.508463E0,0E0,0E0,0E0,0E0,0E0,0E0,0E0,0E0,0E0,0E0,0E0,0E0,0E0,0E0,0E0,0E0],"parents":[2147483647,0,0,1,1,2,2,3,3,4,4,5,5,6,6,7,7,8,8,9,9,10,10,11,11,12,12,13,13,14,14],"right_children":[2,4,6,8,10,12,14,16,18,20,22,24,26,28,30,-1,-1,-1,-1,-1,-1,-1,-1,-1,-1,-1,-1,-1,-1,-1,-1],"split_conditions":[8.5E0,1.1829835E0,1.7E-1,2.2E-1,2.1087046E-1,9E0,-4.0391378E-2,1.4086248E0,2.8089693E-1,1.3779603E0,1.0445136E0,7.591302E-3,1.5118034E0,1.2898855E0,1.023E0,-2.9316071E-2,2.9313609E-2,1.3074239E-2,4.218449E-2,2.293132E-4,-4.1030843E-2,4.9914505E-2,-1.3110102E-3,-2.7281929E-2,1.7349238E-2,-4.638433E-2,-1.1298495E-2,-5.1030137E-2,-2.0395897E-2,-9.865322E-3,1.7413225E-2],"split_indices":[16,13,2,2,0,16,10,14,7,13,14,10,13,13,11,0,0,0,0,0,0,0,0,0,0,0,0,0,0,0,0],"split_type":[0,0,0,0,0,0,0,0,0,0,0,0,0,0,0,0,0,0,0,0,0,0,0,0,0,0,0,0,0,0,0],"sum_hessian":[3.6364487E2,1.6237503E2,2.0126984E2,9.463619E1,6.773883E1,6.963926E1,1.3163057E2,1.8960108E1,7.567609E1,2.890682E1,3.8832012E1,3.3271538E1,3.6367725E1,1.3170332E1,1.18460236E2,1.3939393E1,5.0207143E0,2.4035847E1,5.164024E1,1.7945616E1,1.0961205E1,9.534363E0,2.929765E1,2.2963419E1,1.0308118E1,2.6408585E1,9.95914E0,8.036834E0,5.1334977E0,7.2800224E1,4.5660015E1],"tree_param":{"num_deleted":"0","num_feature":"17","num_nodes":"31","size_leaf_vector":"1"}},{"base_weights":[-2.1237306E-2,2.5065514E-1,-2.5402918E-1,-1.9444074E-2,5.1376206E-1,-2.9987308E-1,3.2036487E-2,-2.4840158E-1,3.4338817E-1,1.1050763E0,2.0143794E-1,-3.656135E-1,3.2217267E-1,-2.0511111E-2,2.0100748E-2,5.203903E-3,3.978069E-2,4.1453198E-2,1.0079849E-1,2.7912086E-2,-8.766038E-3,-3.8757034E-2,-1.3172132E-2,3.959328E-2,-2.2486812E-2],"categories":[],"categories_nodes":[],"categories_segments":[],"categories_sizes":[],"default_left":[1,1,1,0,1,1,0,1,1,0,1,0,0,0,0,0,0,0,0,0,0,0,0,0,0],"id":8,"left_children":[1,3,5,7,9,11,-1,13,15,17,19,21,23,-1,-1,-1,-1,-1,-1,-1,-1,-1,-1,-1,-1],"loss_changes":[2.2956396E1,1.1901701E1,8.205278E0,7.024751E0,1.543869E1,7.7448826E0,0E0,5.616478E0,3.4602032E0,5.6416206E0,7.7219486E0,6.873417E0,7.012293E0,0E0,0E0,0E0,0E0,0E0,0E0,0E0,0E0,0E0,0E0,0E0,0E0],"parents":[2147483647,0,0,1,1,2,2,3,3,4,4,5,5,7,7,8,8,9,9,10,10,11,11,12,12],"right_children":[2,4,6,8,10,12,-1,14,16,18,20,22,24,-1,-1,-1,-1,-1,-1,-1,-1,-1,-1,-1,-1],"split_conditions":[8.5E0,3.9E-1,8.6E-1,1.2715722E0,2E-1,1.1659482E-1,3.2036487E-2,4.7335362E-1,8.337228E-2,9.64E1,8E0,2.0542784E-1,9.39E1,-2.0511111E-2,2.0100748E-2,5.203903E-3,3.978069E-2,4.1453198E-2,1.0079849E-1,2.7912086E-2,-8.766038E-3,-3.8757034E-2,-1.3172132E-2,3.959328E-2,-2.2486812E-2],"split_indices":[16,2,2,14,4,1,0,8,1,3,16,9,3,0,0,0,0,0,0,0,0,0,0,0,0],"split_type":[0,0,0,0,0,0,0,0,0,0,0,0,0,0,0,0,0,0,0,0,0,0,0,0,0],"sum_hessian":[3.6068665E2,1.6633577E2,1.9435088E2,8.2534225E1,8.380155E1,1.855109E2,8.839985E0,5.0795925E1,3.1738298E1,2.8087E1,5.5714554E1,1.681521E2,1.7358782E1,4.097166E1,9.8242655E0,2.1559515E1,1.0178782E1,2.3021389E1,5.0656104E0,2.8367672E1,2.734688E1,3.22598E1,1.358923E2,1.0775952E1,6.5828304E0],"tree_param":{"num_deleted":"0","num_feature":"17","num_nodes":"25","size_leaf_vector":"1"}},{"base_weights":[3.4351118E-2,2.0958006E-1,-4.6932295E-1,-8.6017706E-2,4.1329557E-1,-6.660166E-1,-1.5546171E-1,2.651075E-1,-2.4908131E-1,4.9067542E-1,-4.1355413E-1,-8.7572825E-1,-5.0588578E-2,-4.0028018E-1,5.1638704E-2,5.3169638E-2,2.6336015E-4,-3.6490194E-3,-3.1137565E-2,1.7757326E-3,2.956431E-2,4.1077938E-4,-4.1609768E-2,-9.235493E-3,-5.009011E-2,-2.1681122E-2,2.4311647E-2,2.0986728E-3,-3.4138586E-2],"categories":[],"categories_nodes":[],"categories_segments":[],"categories_sizes":[],"default_left":[1,1,0,0,1,1,0,0,0,0,0,0,1,0,0,0,0,0,0,0,0,0,0,0,0,0,0,0,0],"id":9,"left_children":[1,3,5,7,9,11,13,15,17,19,21,23,25,27,-1,-1,-1,-1,-1,-1,-1,-1,-1,-1,-1,-1,-1,-1,-1],"loss_changes":[3.1857248E1,1.615314E1,5.649229E0,6.365799E0,1.0352058E1,7.309799E0,1.1236323E1,7.3326416E0,4.932662E0,6.6424522E0,2.4995046E0,3.5121117E0,3.4068441E0,3.9727192E0,0E0,0E0,0E0,0E0,0E0,0E0,0E0,0E0,0E0,0E0,0E0,0E0,0E0,0E0,0E0],"parents":[2147483647,0,0,1,1,2,2,3,3,4,4,5,5,6,6,7,7,8,8,9,9,10,10,11,11,12,12,13,13],"right_children":[2,4,6,8,10,12,14,16,18,20,22,24,26,28,-1,-1,-1,-1,-1,-1,-1,-1,-1,-1,-1,-1,-1,-1,-1],"split_conditions":[9E0,2.0456631E-1,1.038E0,1.4814815E-1,1.4570016E0,3.1045618E0,2.6567665E-1,3.2397348E-1,1.3083165E0,9.24E1,9.43E1,9.14E1,1.1961215E0,2.1259283E-1,5.1638704E-2,5.3169638E-2,2.6336015E-4,-3.6490194E-3,-3.1137565E-2,1.7757326E-3,2.956431E-2,4.1077938E-4,-4.1609768E-2,-9.235493E-3,-5.009011E-2,-2.1681122E-2,2.4311647E-2,2.0986728E-3,-3.4138586E-2],"split_indices":[16,0,11,4,13,5,9,7,13,3,3,3,13,9,0,0,0,0,0,0,0,0,0,0,0,0,0,0,0],"split_type":[0,0,0,0,0,0,0,0,0,0,0,0,0,0,0,0,0,0,0,0,0,0,0,0,0,0,0,0,0],"sum_hessian":[3.5884033E2,2.6665466E2,9.218565E1,1.0902853E2,1.5762614E2,5.5980953E1,3.62047E1,3.437753E1,7.4651E1,1.44509E2,1.31171465E1,4.1437767E1,1.4543187E1,3.0569447E1,5.635253E0,7.682562E0,2.6694967E1,5.1551453E1,2.3099548E1,2.6405254E1,1.18103745E2,7.022522E0,6.094625E0,6.774029E0,3.466374E1,8.599498E0,5.943689E0,1.2247239E1,1.8322208E1],"tree_param":{"num_deleted":"0","num_feature":"17","num_nodes":"29","size_leaf_vector":"1"}},{"base_weights":[9.067165E-3,2.827719E-1,-2.2936101E-1,-2.2462232E-1,3.8520733E-1,-3.2941765E-1,1.0230739E-1,-4.7323468E-1,1.2159424E-2,4.2823106E-1,-3.0301366E-2,-4.3569377E-1,1.1794705E-1,-1.2958835E-1,5.2406408E-2,-4.641809E-2,1.0932417E-3,4.259844E-2,1.53666455E-2,-1.124969E-2,-3.0638412E-2,-1.3856939E-2,4.828888E-2,-2.0585267E-2,5.5736553E-2],"categories":[],"categories_nodes":[],"categories_segments":[],"categories_sizes":[],"default_left":[1,0,1,0,0,0,0,1,0,0,0,0,0,0,0,0,0,0,0,0,0,0,0,0,0],"id":10,"left_children":[1,3,5,7,9,11,13,15,-1,17,-1,19,21,23,-1,-1,-1,-1,-1,-1,-1,-1,-1,-1,-1],"loss_changes":[2.3486336E1,8.794307E0,6.4173994E0,3.4615533E0,6.2199764E0,7.0887966E0,1.0081466E1,4.330482E0,0E0,6.630308E0,0E0,4.332485E0,1.0048768E1,1.3555167E1,0E0,0E0,0E0,0E0,0E0,0E0,0E0,0E0,0E0,0E0,0E0],"parents":[2147483647,0,0,1,1,2,2,3,3,4,4,5,5,6,6,7,7,9,9,11,11,12,12,13,13],"right_children":[2,4,6,8,10,12,14,16,-1,18,-1,20,22,24,-1,-1,-1,-1,-1,-1,-1,-1,-1,-1,-1],"split_conditions":[8.5E0,9.2E1,2.857143E-1,1.3202564E0,9.35E1,1.17654875E-1,3.7254903E-1,1.9E-1,1.2159424E-2,1.6818182E-1,-3.0301366E-2,2.31E-1,2.7450982E-1,7.30565E1,5.2406408E-2,-4.641809E-2,1.0932417E-3,4.259844E-2,1.53666455E-2,-1.124969E-2,-3.0638412E-2,-1.3856939E-2,4.828888E-2,-2.0585267E-2,5.5736553E-2],"split_indices":[16,3,4,14,12,1,6,2,0,4,0,6,6,15,0,0,0,0,0,0,0,0,0,0,0],"split_type":[0,0,0,0,0,0,0,0,0,0,0,0,0,0,0,0,0,0,0,0,0,0,0,0,0],"sum_hessian":[3.5790082E2,1.6653741E2,1.9136339E2,2.7773571E1,1.3876385E2,1.470182E2,4.4345184E1,1.8128046E1,9.645524E0,1.3353581E2,5.228029E0,1.1881787E2,2.820033E1,3.6306553E1,8.0386305E0,8.989355E0,9.138691E0,2.8299936E1,1.05235886E2,5.52942E1,6.352367E1,1.9695448E1,8.504883E0,3.0141815E1,6.164738E0],"tree_param":{"num_deleted":"0","num_feature":"17","num_nodes":"25","size_leaf_vector":"1"}},{"base_weights":[-3.6658747E-3,1.5023343E-1,-4.5137784E-1,-2.9816976E-1,2.7845272E-1,2.5070107E-2,-5.236017E-1,-7.4087924E-1,-1.0838009E-1,1.0042564E0,2.0299807E-1,-6.1297035E-1,8.2882985E-2,-5.2123826E-2,-1.2561885E-2,4.691544E-3,-3.4579713E-2,-8.505235E-3,7.4110694E-2,5.349917E-2,7.769679E-3,-3.4143172E-2,-7.114171E-4,3.6877837E-2,-2.9950717E-2],"categories":[],"categories_nodes":[],"categories_segments":[],"categories_sizes":[],"default_left":[1,0,0,0,1,0,0,0,1,1,1,1,0,0,0,0,0,0,0,0,0,0,0,0,0],"id":11,"left_children":[1,3,5,7,9,-1,11,13,15,17,19,21,23,-1,-1,-1,-1,-1,-1,-1,-1,-1,-1,-1,-1],"loss_changes":[2.4813086E1,1.5492193E1,6.6016636E0,4.9676547E0,1.1238495E1,0E0,4.718504E0,2.3749943E0,5.1622763E0,1.1153635E1,7.6966386E0,3.1363068E0,5.7725754E0,0E0,0E0,0E0,0E0,0E0,0E0,0E0,0E0,0E0,0E0,0E0,0E0],"parents":[2147483647,0,0,1,1,2,2,3,3,4,4,6,6,7,7,8,8,9,9,10,10,11,11,12,12],"right_children":[2,4,6,8,10,-1,12,14,16,18,20,22,24,-1,-1,-1,-1,-1,-1,-1,-1,-1,-1,-1,-1],"split_conditions":[9E0,9.24E1,1.2639882E-1,2.1580465E-1,9.4499385E-1,2.5070107E-2,3.8709676E-1,-1.0604548E1,1.2557136E0,3.0216163E-1,7E0,3.478261E-1,-2.5887877E1,-5.2123826E-2,-1.2561885E-2,4.691544E-3,-3.4579713E-2,-8.505235E-3,7.4110694E-2,5.349917E-2,7.769679E-3,-3.4143172E-2,-7.114171E-4,3.6877837E-2,-2.9950717E-2],"split_indices":[16,3,0,9,13,0,6,15,13,8,16,4,15,0,0,0,0,0,0,0,0,0,0,0,0],"split_type":[0,0,0,0,0,0,0,0,0,0,0,0,0,0,0,0,0,0,0,0,0,0,0,0,0],"sum_hessian":[3.5813428E2,2.6701376E2,9.112053E1,5.9079144E1,2.079346E2,6.0018277E0,8.5118706E1,1.6856184E1,4.222296E1,1.8422066E1,1.8951254E2,7.417756E1,1.0941142E1,9.732401E0,7.1237836E0,3.1975565E1,1.02473955E1,5.515169E0,1.2906896E1,8.74629E0,1.8076625E2,6.62979E1,7.8796616E0,5.540354E0,5.400789E0],"tree_param":{"num_deleted":"0","num_feature":"17","num_nodes":"25","size_leaf_vector":"1"}},{"base_weights":[-3.9961208E-2,-1.3222536E-1,3.4488168E-1,-2.1106516E-1,1.087039E-1,6.135392E-1,-1.6864917E-1,2.6565788E-2,-2.9001853E-1,-1.4833795E-1,4.7265893E-1,9.062853E-2,9.257621E-1,2.70662E-1,-5.917139E-1,-2.9249221E-2,1.0395254E-2,-1.6661573E-2,3.568122E-2,4.2184513E-2,-1.7383384E-2,1.1605888E-2,6.492558E-2,-2.339301E-2,3.4778345E-2,7.830586E-2,2.3832671E-2,-1.069059E-2,4.157376E-2,-5.3106057E-3,-4.8750136E-2],"categories":[],"categories_nodes":[],"categories_segments":[],"categories_sizes":[],"default_left":[0,1,0,0,0,1,0,0,0,0,1,0,0,1,0,0,0,0,0,0,0,0,0,0,0,0,0,0,0,0,0],"id":12,"left_children":[1,3,5,7,9,11,13,15,17,19,21,23,25,27,29,-1,-1,-1,-1,-1,-1,-1,-1,-1,-1,-1,-1,-1,-1,-1,-1],"loss_changes":[1.2846332E1,5.560257E0,9.760066E0,4.1349716E0,6.855815E0,7.4538E0,4.774062E0,6.3072834E0,7.402796E0,8.84999E0,5.7102094E0,6.531452E0,7.535921E0,3.6731412E0,2.3081741E0,0E0,0E0,0E0,0E0,0E0,0E0,0E0,0E0,0E0,0E0,0E0,0E0,0E0,0E0,0E0,0E0],"parents":[2147483647,0,0,1,1,2,2,3,3,4,4,5,5,6,6,7,7,8,8,9,9,10,10,11,11,12,12,13,13,14,14],"right_children":[2,4,6,8,10,12,14,16,18,20,22,24,26,28,30,-1,-1,-1,-1,-1,-1,-1,-1,-1,-1,-1,-1,-1,-1,-1,-1],"split_conditions":[3.409091E-1,1.3635303E0,1.2620975E0,2.9901874E-1,8.746907E-2,5.3E-1,6.9E-1,2.0730223E-1,3.6302502E0,9.908581E-1,2.4817465E-1,3.294041E-1,6.9E-1,3.5833707E-3,2.9576167E-1,-2.9249221E-2,1.0395254E-2,-1.6661573E-2,3.568122E-2,4.2184513E-2,-1.7383384E-2,1.1605888E-2,6.492558E-2,-2.339301E-2,3.4778345E-2,7.830586E-2,2.3832671E-2,-1.069059E-2,4.157376E-2,-5.3106057E-3,-4.8750136E-2],"split_indices":[6,14,14,7,1,2,2,9,13,13,0,7,2,10,7,0,0,0,0,0,0,0,0,0,0,0,0,0,0,0,0],"split_type":[0,0,0,0,0,0,0,0,0,0,0,0,0,0,0,0,0,0,0,0,0,0,0,0,0,0,0,0,0,0,0],"sum_hessian":[3.5951074E2,2.9051712E2,6.8993614E1,2.1898286E2,7.153426E1,4.5168583E1,2.382503E1,5.4777905E1,1.6420496E2,4.2272152E1,2.9262115E1,1.73691E1,2.7799482E1,1.1864818E1,1.1960212E1,1.2019004E1,4.27589E1,1.5806718E2,6.137772E0,6.5318193E0,3.5740334E1,2.3653706E1,5.6084094E0,9.149102E0,8.219998E0,1.0434474E1,1.736501E1,6.6976323E0,5.1671853E0,5.8399754E0,6.1202364E0],"tree_param":{"num_deleted":"0","num_feature":"17","num_nodes":"31","size_leaf_vector":"1"}},{"base_weights":[-1.8139161E-2,9.999375E-2,-3.7413132E-1,-2.0838884E-1,2.5468868E-1,4.128663E-1,-5.038078E-1,1.0555596E-1,-4.0786785E-1,9.717931E-2,6.5825224E-1,-1.7635826E-2,6.7034885E-2,-6.071737E-1,1.6989903E-1,-5.054749E-3,2.827529E-2,-4.2664707E-2,-9.571092E-3,1.7133344E-2,-1.0405123E-2,2.0760605E-2,8.9255475E-2,-3.6887407E-2,-1.5950283E-2,-1.135965E-2,2.7036091E-2],"categories":[],"categories_nodes":[],"categories_segments":[],"categories_sizes":[],"default_left":[1,0,0,0,1,0,0,0,0,1,0,0,0,0,1,0,0,0,0,0,0,0,0,0,0,0,0],"id":13,"left_children":[1,3,5,7,9,11,13,15,17,19,21,-1,-1,23,25,-1,-1,-1,-1,-1,-1,-1,-1,-1,-1,-1,-1],"loss_changes":[1.5272762E1,1.3067129E1,9.441527E0,5.784649E0,1.1512489E1,9.954885E0,5.5438023E0,3.5183997E0,5.2613506E0,9.976269E0,1.3213404E1,0E0,0E0,2.3215618E0,1.768199E0,0E0,0E0,0E0,0E0,0E0,0E0,0E0,0E0,0E0,0E0,0E0,0E0],"parents":[2147483647,0,0,1,1,2,2,3,3,4,4,5,5,6,6,7,7,8,8,9,9,10,10,13,13,14,14],"right_children":[2,4,6,8,10,12,14,16,18,20,22,-1,-1,24,26,-1,-1,-1,-1,-1,-1,-1,-1,-1,-1,-1,-1],"split_conditions":[9E0,2.069661E-1,1.2280702E-1,1.4814815E-1,8.6591825E-2,1.9221967E-1,3.8709676E-1,9.41E1,2.2160545E-1,1.1482642E0,8.9E-1,-1.7635826E-2,6.7034885E-2,1.05E0,2.0833333E-1,-5.054749E-3,2.827529E-2,-4.2664707E-2,-9.571092E-3,1.7133344E-2,-1.0405123E-2,2.0760605E-2,8.9255475E-2,-3.6887407E-2,-1.5950283E-2,-1.135965E-2,2.7036091E-2],"split_indices":[16,0,6,4,1,4,6,3,9,13,2,0,0,11,4,0,0,0,0,0,0,0,0,0,0,0,0],"split_type":[0,0,0,0,0,0,0,0,0,0,0,0,0,0,0,0,0,0,0,0,0,0,0,0,0,0,0],"sum_hessian":[3.6127734E2,2.7180148E2,8.947586E1,9.068162E1,1.8111987E2,1.2348691E1,7.712717E1,3.5415188E1,5.5266426E1,1.3116678E2,4.9953102E1,7.105538E0,5.2431536E0,6.695336E1,1.0173801E1,2.4974566E1,1.0440622E1,1.7111078E1,3.8155346E1,7.263556E1,5.8531208E1,4.2216362E1,7.7367396E0,4.5001972E1,2.1951393E1,5.099924E0,5.0738773E0],"tree_param":{"num_deleted":"0","num_feature":"17","num_nodes":"27","size_leaf_vector":"1"}},{"base_weights":[-1.0106124E-2,-3.801587E-1,9.564618E-2,-1.1188373E-1,-6.1015654E-1,7.1346276E-2,5.8091905E-2,-5.3150976E-1,1.7033347E-1,-2.0466627E-1,-8.510937E-1,-1.14831485E-1,1.7611998E-1,-4.5738775E-2,3.20546E-3,-1.7018078E-2,2.8551582E-2,-3.902201E-2,8.180203E-3,-5.5182483E-2,-3.3204354E-2,-9.413606E-3,5.2063283E-2,3.2538038E-2,4.5804135E-3],"categories":[],"categories_nodes":[],"categories_segments":[],"categories_sizes":[],"default_left":[0,0,0,0,0,1,0,0,0,0,0,0,0,0,0,0,0,0,0,0,0,0,0,0,0],"id":14,"left_children":[1,3,5,7,9,11,-1,13,15,17,19,21,23,-1,-1,-1,-1,-1,-1,-1,-1,-1,-1,-1,-1],"loss_changes":[1.4168407E1,4.8965483E0,7.2143717E0,4.634021E0,4.0363655E0,5.412724E0,0E0,3.6357718E0,5.0433445E0,3.812963E0,5.2894974E-1,8.699689E0,7.051982E0,0E0,0E0,0E0,0E0,0E0,0E0,0E0,0E0,0E0,0E0,0E0,0E0],"parents":[2147483647,0,0,1,1,2,2,3,3,4,4,5,5,7,7,8,8,9,9,10,10,11,11,12,12],"right_children":[2,4,6,8,10,12,-1,14,16,18,20,22,24,-1,-1,-1,-1,-1,-1,-1,-1,-1,-1,-1,-1],"split_conditions":[9.24E1,7.59E1,3.210066E-1,2.1733399E-1,3.785561E-1,2.0144522E-1,5.8091905E-2,6.88E1,7.8039266E-2,1.724138E-1,9.13E1,1.4635661E2,2E-1,-4.5738775E-2,3.20546E-3,-1.7018078E-2,2.8551582E-2,-3.902201E-2,8.180203E-3,-5.5182483E-2,-3.3204354E-2,-9.413606E-3,5.2063283E-2,3.2538038E-2,4.5804135E-3],"split_indices":[3,12,9,9,8,0,0,12,1,4,3,15,6,0,0,0,0,0,0,0,0,0,0,0,0],"split_type":[0,0,0,0,0,0,0,0,0,0,0,0,0,0,0,0,0,0,0,0,0,0,0,0,0],"sum_hessian":[3.6012024E2,7.946354E1,2.806567E2,3.7365723E1,4.2097816E1,2.7544583E2,5.210854E0,1.4669882E1,2.269584E1,1.638008E1,2.5717737E1,9.915546E1,1.7629039E2,8.600097E0,6.069785E0,1.0044532E1,1.2651309E1,5.9532456E0,1.0426833E1,8.855951E0,1.6861786E1,9.402002E1,5.135437E0,2.5632282E1,1.5065811E2],"tree_param":{"num_deleted":"0","num_feature":"17","num_nodes":"25","size_leaf_vector":"1"}},{"base_weights":[-6.679995E-3,1.0666751E-1,-3.5505003E-1,-1.4868337E-1,2.3758112E-1,2.0932177E-1,-4.4098893E-1,3.079605E-1,-3.2016465E-1,6.646223E-1,1.2297833E-1,-2.3298666E-2,4.245329E-2,-5.140295E-1,2.3162669E-2,-5.0288117E-3,5.4943323E-2,1.0271879E-3,-3.0896816E-2,4.523837E-3,5.1311355E-2,1.5013679E-2,-1.1961569E-2,-9.600091E-3,-3.905676E-2],"categories":[],"categories_nodes":[],"categories_segments":[],"categories_sizes":[],"default_left":[1,0,0,1,0,1,1,0,0,0,1,0,0,0,0,0,0,0,0,0,0,0,0,0,0],"id":15,"left_children":[1,3,5,7,9,11,13,15,17,19,21,-1,-1,23,-1,-1,-1,-1,-1,-1,-1,-1,-1,-1,-1],"loss_changes":[1.4317948E1,9.182489E0,4.409459E0,7.408805E0,8.789929E0,5.7703204E0,5.361327E0,8.510181E0,6.947896E0,7.8230286E0,9.328741E0,0E0,0E0,6.0643177E0,0E0,0E0,0E0,0E0,0E0,0E0,0E0,0E0,0E0,0E0,0E0],"parents":[2147483647,0,0,1,1,2,2,3,3,4,4,5,5,6,6,7,7,8,8,9,9,10,10,13,13],"right_children":[2,4,6,8,10,12,14,16,18,20,22,-1,-1,24,-1,-1,-1,-1,-1,-1,-1,-1,-1,-1,-1],"split_conditions":[9E0,2.069661E-1,1.2280702E-1,1.0360236E0,2.4000618E0,4.387076E-1,8.5E-1,9.9E-1,1.6E-1,5.2E-1,1.2147146E0,-2.3298666E-2,4.245329E-2,2.1087046E-1,2.3162669E-2,-5.0288117E-3,5.4943323E-2,1.0271879E-3,-3.0896816E-2,4.523837E-3,5.1311355E-2,1.5013679E-2,-1.1961569E-2,-9.600091E-3,-3.905676E-2],"split_indices":[16,0,6,13,5,8,2,11,4,2,13,0,0,0,0,0,0,0,0,0,0,0,0,0,0],"split_type":[0,0,0,0,0,0,0,0,0,0,0,0,0,0,0,0,0,0,0,0,0,0,0,0,0],"sum_hessian":[3.6064108E2,2.7263043E2,8.801066E1,9.235451E1,1.8027592E2,1.1440926E1,7.656973E1,2.4995958E1,6.735854E1,3.7127903E1,1.4314803E2,5.6979556E0,5.74297E0,7.1246315E1,5.3234186E0,1.7057741E1,7.938218E0,3.1848597E1,3.550995E1,1.4830565E1,2.2297337E1,9.622069E1,4.6927334E1,3.308148E1,3.8164837E1],"tree_param":{"num_deleted":"0","num_feature":"17","num_nodes":"25","size_leaf_vector":"1"}},{"base_weights":[7.0373216E-3,1.2356276E-1,-3.6288017E-1,-2.9666346E-1,2.3958588E-1,-2.587984E-1,-4.8259135E-2,-7.3585266E-1,-1.074254E-1,2.0507935E-1,4.6909437E-2,4.0443102E-1,-3.747773E-1,-4.954062E-2,-5.948046E-3,3.6936615E-2,-1.499094E-2,7.3813014E-3,3.2885015E-2,4.680569E-2,-1.1312173E-2,2.5772212E-2,-2.3143543E-2],"categories":[],"categories_nodes":[],"categories_segments":[],"categories_sizes":[],"default_left":[1,0,0,0,1,0,0,0,0,1,0,0,0,0,0,0,0,0,0,0,0,0,0],"id":16,"left_children":[1,3,5,7,9,11,-1,13,15,17,-1,19,21,-1,-1,-1,-1,-1,-1,-1,-1,-1,-1],"loss_changes":[1.5415003E1,1.332812E1,5.1207867E0,4.8474984E0,4.957431E0,5.8755274E0,0E0,2.6627264E0,7.1561565E0,5.230051E0,0E0,4.0870247E0,5.246421E0,0E0,0E0,0E0,0E0,0E0,0E0,0E0,0E0,0E0,0E0],"parents":[2147483647,0,0,1,1,2,2,3,3,4,4,5,5,7,7,8,8,9,9,11,11,12,12],"right_children":[2,4,6,8,10,12,-1,14,16,18,-1,20,22,-1,-1,-1,-1,-1,-1,-1,-1,-1,-1],"split_conditions":[9E0,9.24E1,1.1E1,-1.1961495E-2,1.2984946E-1,1.388889E-1,-4.8259135E-2,3.0021381E0,9.01E1,9.64E1,4.6909437E-2,3.3565646E-1,2.6925784E-1,-4.954062E-2,-5.948046E-3,3.6936615E-2,-1.499094E-2,7.3813014E-3,3.2885015E-2,4.680569E-2,-1.1312173E-2,2.5772212E-2,-2.3143543E-2],"split_indices":[16,3,16,10,1,6,0,5,3,3,0,7,7,0,0,0,0,0,0,0,0,0,0],"split_type":[0,0,0,0,0,0,0,0,0,0,0,0,0,0,0,0,0,0,0,0,0,0,0],"sum_hessian":[3.5557663E2,2.7090613E2,8.46705E1,5.82765E1,2.1262964E2,7.34138E1,1.1256702E1,1.6678967E1,4.1597534E1,2.038541E2,8.7755375E0,1.05568695E1,6.285693E1,1.1372574E1,5.3063917E0,7.1799564E0,3.441758E1,1.8206932E2,2.1784767E1,5.4651947E0,5.091675E0,5.223203E0,5.7633728E1],"tree_param":{"num_deleted":"0","num_feature":"17","num_nodes":"23","size_leaf_vector":"1"}},{"base_weights":[2.5285639E-2,2.2894454E-1,-1.6324022E-1,8.873616E-1,1.6317189E-1,-8.500654E-1,-9.786697E-2,1.9338517E-2,7.189995E-2,-3.7469942E-2,2.0815346E-1,-1.11442795E-2,-5.6001097E-2,-4.6936077E-1,2.296855E-2,1.275529E-2,-3.5978984E-2,-4.1730955E-2,-4.934005E-3,-9.711755E-3,1.8315451E-2],"categories":[],"categories_nodes":[],"categories_segments":[],"categories_sizes":[],"default_left":[1,1,1,1,0,0,1,0,0,0,0,0,0,0,0,0,0,0,0,0,0],"id":17,"left_children":[1,3,5,7,9,11,13,-1,-1,-1,15,-1,-1,17,19,-1,-1,-1,-1,-1,-1],"loss_changes":[1.3726599E1,7.2954073E0,8.256126E0,3.6828232E0,6.618207E0,2.4613247E0,7.67431E0,0E0,0E0,0E0,6.7529497E0,0E0,0E0,5.5970716E0,9.748867E0,0E0,0E0,0E0,0E0,0E0,0E0],"parents":[2147483647,0,0,1,1,2,2,3,3,4,4,5,5,6,6,10,10,13,13,14,14],"right_children":[2,4,6,8,10,12,14,-1,-1,-1,16,-1,-1,18,20,-1,-1,-1,-1,-1,-1],"split_conditions":[8.5E0,7E0,-4.185314E-2,3.132001E-1,1.7441995E-1,6.07E1,8E-2,1.9338517E-2,7.189995E-2,-3.7469942E-2,9.35E1,-1.11442795E-2,-5.6001097E-2,2.9503107E-1,1.023E0,1.275529E-2,-3.5978984E-2,-4.1730955E-2,-4.934005E-3,-9.711755E-3,1.8315451E-2],"split_indices":[16,16,10,7,9,12,2,0,0,0,12,0,0,4,11,0,0,0,0,0,0],"split_type":[0,0,0,0,0,0,0,0,0,0,0,0,0,0,0,0,0,0,0,0,0],"sum_hessian":[3.5553696E2,1.7080595E2,1.84731E2,1.4378514E1,1.5642744E2,1.5011697E1,1.6971931E2,8.423244E0,5.9552703E0,6.612625E0,1.4981482E2,5.066508E0,9.9451885E0,4.094738E1,1.2877193E2,1.4328807E2,6.5267515E0,1.9994135E1,2.0953245E1,7.914046E1,4.963147E1],"tree_param":{"num_deleted":"0","num_feature":"17","num_nodes":"21","size_leaf_vector":"1"}},{"base_weights":[-9.837481E-4,1.0531926E-1,-3.4140074E-1,-1.5498845E-1,2.3806758E-1,2.2817826E-1,-4.3594846E-1,1.3650124E-1,-3.3750457E-1,9.292342E-1,1.5558445E-1,-2.106706E-2,4.755601E-2,-1.7362109E-1,-6.2814176E-1,-1.6042385E-2,2.4041563E-2,-1.0233767E-2,-4.6983715E-2,6.8032086E-2,-3.6089395E-3,4.030048E-3,3.546228E-2,8.81387E-3,-3.4253784E-2,-4.421298E-2,-2.0849032E-3],"categories":[],"categories_nodes":[],"categories_segments":[],"categories_sizes":[],"default_left":[1,0,0,1,0,1,0,0,1,0,1,0,0,0,1,0,0,0,0,0,0,0,0,0,0,0,0],"id":18,"left_children":[1,3,5,7,9,11,13,15,17,19,21,-1,-1,23,25,-1,-1,-1,-1,-1,-1,-1,-1,-1,-1,-1,-1],"loss_changes":[1.31082945E1,9.575669E0,4.741433E0,5.0382214E0,1.0300042E1,6.4712286E0,3.6354465E0,5.9562874E0,4.4461703E0,8.44985E0,6.7877507E0,0E0,0E0,5.9882126E0,6.3440247E0,0E0,0E0,0E0,0E0,0E0,0E0,0E0,0E0,0E0,0E0,0E0,0E0],"parents":[2147483647,0,0,1,1,2,2,3,3,4,4,5,5,6,6,7,7,8,8,9,9,10,10,13,13,14,14],"right_children":[2,4,6,8,10,12,14,16,18,20,22,-1,-1,24,26,-1,-1,-1,-1,-1,-1,-1,-1,-1,-1,-1,-1],"split_conditions":[9E0,2.069661E-1,1.2280702E-1,1.0795621E0,2.1607839E-1,1.1607094E0,2.12305E-1,9.26E1,2.1028738E-2,1.2984309E0,3.3565646E-1,-2.106706E-2,4.755601E-2,2.161595E0,9.49E1,-1.6042385E-2,2.4041563E-2,-1.0233767E-2,-4.6983715E-2,6.8032086E-2,-3.6089395E-3,4.030048E-3,3.546228E-2,8.81387E-3,-3.4253784E-2,-4.421298E-2,-2.0849032E-3],"split_indices":[16,0,6,13,0,14,0,3,10,13,7,0,0,15,3,0,0,0,0,0,0,0,0,0,0,0,0],"split_type":[0,0,0,0,0,0,0,0,0,0,0,0,0,0,0,0,0,0,0,0,0,0,0,0,0,0,0],"sum_hessian":[3.6024057E2,2.750428E2,8.51978E1,9.283467E1,1.8220811E2,1.1927887E1,7.326991E1,3.58431E1,5.6991566E1,1.8331736E1,1.6387637E2,6.5027475E0,5.425139E0,3.1786892E1,4.148302E1,1.5424303E1,2.04188E1,4.7789783E1,9.201783E0,1.2561525E1,5.7702107E0,1.4533846E2,1.8537918E1,1.9263561E1,1.2523331E1,2.8519745E1,1.2963274E1],"tree_param":{"num_deleted":"0","num_feature":"17","num_nodes":"27","size_leaf_vector":"1"}},{"base_weights":[-1.060871E-2,5.8025863E-2,-5.898872E-1,9.3117106E-1,2.6716297E-2,2.5798146E-2,-8.092587E-1,1.8178608E-2,6.710812E-2,5.2293843E-1,-1.9523833E-2,-5.6459673E-2,-5.336355E-1,-3.215591E-3,4.268799E-2,5.053652E-3,-1.3926742E-2,-9.339671E-3,-4.7617756E-2],"categories":[],"categories_nodes":[],"categories_segments":[],"categories_sizes":[],"default_left":[1,0,0,0,0,0,0,0,0,0,1,0,1,0,0,0,0,0,0],"id":19,"left_children":[1,3,5,7,9,-1,11,-1,-1,13,15,-1,17,-1,-1,-1,-1,-1,-1],"loss_changes":[1.42014065E1,8.709392E0,9.596326E0,2.0851812E0,7.110974E0,0E0,2.2159119E0,0E0,0E0,5.1866894E0,8.900677E0,0E0,2.5910912E0,0E0,0E0,0E0,0E0,0E0,0E0],"parents":[2147483647,0,0,1,1,2,2,3,3,4,4,6,6,9,9,10,10,12,12],"right_children":[2,4,6,8,10,-1,12,-1,-1,14,16,-1,18,-1,-1,-1,-1,-1,-1],"split_conditions":[9.5E0,7E0,1.1764706E-1,6.94E1,2.6364967E-1,2.5798146E-2,1.024E0,1.8178608E-2,6.710812E-2,4.081386E0,1.2557136E0,-5.6459673E-2,3.344053E-1,-3.215591E-3,4.268799E-2,5.053652E-3,-1.3926742E-2,-9.339671E-3,-4.7617756E-2],"split_indices":[16,16,6,12,7,0,11,0,0,5,13,0,7,0,0,0,0,0,0],"split_type":[0,0,0,0,0,0,0,0,0,0,0,0,0,0,0,0,0,0,0],"sum_hessian":[3.5533054E2,3.1849423E2,3.6836277E1,1.0030413E1,3.0846384E2,5.873914E0,3.0962362E1,5.0041122E0,5.0263004E0,2.5415058E1,2.8304877E2,1.2896102E1,1.8066261E1,9.448451E0,1.5966608E1,1.9354362E2,8.950515E1,1.0672178E1,7.3940825E0],"tree_param":{"num_deleted":"0","num_feature":"17","num_nodes":"19","size_leaf_vector":"1"}},{"base_weights":[-5.0908895E-3,4.555015E-2,-5.267794E-1,-6.860708E-1,8.316828E-2,-7.6230323E-1,5.829982E-3,-4.7925007E-2,-4.2628557E-3,1.855817E-1,-1.5144563E-1,-9.664942E-1,-1.0664751E-2,8.595705E-4,1.7669668E-2,-1.1734126E-2,3.3572834E-2,-3.3409163E-2,-5.7187416E-2],"categories":[],"categories_nodes":[],"categories_segments":[],"categories_sizes":[],"default_left":[0,0,0,0,1,0,0,0,0,0,1,0,0,0,0,0,0,0,0],"id":20,"left_children":[1,3,5,7,9,11,-1,-1,-1,13,15,17,-1,-1,-1,-1,-1,-1,-1],"loss_changes":[9.544497E0,9.122932E0,4.9326897E0,2.5726485E0,7.577224E0,2.4318943E0,0E0,0E0,0E0,6.186979E0,6.7347503E0,1.277771E-1,0E0,0E0,0E0,0E0,0E0,0E0,0E0],"parents":[2147483647,0,0,1,1,2,2,3,3,4,4,5,5,9,9,10,10,11,11],"right_children":[2,4,6,8,10,12,-1,-1,-1,14,16,18,-1,-1,-1,-1,-1,-1,-1],"split_conditions":[3.6965758E-2,-4.0391378E-2,1.4062685E0,4.6958145E-1,1.2753109E0,8.4E-1,5.829982E-3,-4.7925007E-2,-4.2628557E-3,1E0,9.72E1,1.1505545E0,-1.0664751E-2,8.595705E-4,1.7669668E-2,-1.1734126E-2,3.3572834E-2,-3.3409163E-2,-5.7187416E-2],"split_indices":[10,10,14,8,13,2,0,0,0,11,3,14,0,0,0,0,0,0,0],"split_type":[0,0,0,0,0,0,0,0,0,0,0,0,0,0,0,0,0,0,0],"sum_hessian":[3.5936777E2,3.28402E2,3.0965757E1,1.5216881E1,3.1318512E2,2.2532406E1,8.433352E0,1.00599985E1,5.156883E0,2.1816219E2,9.5022934E1,1.5869625E1,6.6627793E0,1.09443634E2,1.0871855E2,8.694339E1,8.079547E0,7.69273E0,8.176896E0],"tree_param":{"num_deleted":"0","num_feature":"17","num_nodes":"19","size_leaf_vector":"1"}},{"base_weights":[1.5525648E-4,1.1659094E-1,-3.6689815E-1,-8.8817865E-2,2.5096354E-1,2.4664663E-1,-4.6668398E-1,-3.2373E-1,1.5848939E-1,7.977722E-1,1.5715888E-1,-2.4171375E-2,4.7527395E-2,5.622477E-3,-5.3962284E-1,-8.934163E-3,-4.739107E-2,-1.4010097E-2,1.9019324E-2,-4.575242E-3,5.4374468E-2,2.9400904E-2,1.3202182E-3,-3.77993E-2,-1.387053E-2],"categories":[],"categories_nodes":[],"categories_segments":[],"categories_sizes":[],"default_left":[1,1,0,1,0,0,0,1,0,0,0,0,0,0,1,0,0,0,0,0,0,0,0,0,0],"id":21,"left_children":[1,3,5,7,9,11,13,15,17,19,21,-1,-1,-1,23,-1,-1,-1,-1,-1,-1,-1,-1,-1,-1],"loss_changes":[1.5245428E1,7.497012E0,5.374545E0,6.3160543E0,8.285426E0,6.971357E0,3.196453E0,4.866608E0,5.2856045E0,6.22241E0,7.9397635E0,0E0,0E0,0E0,3.5405369E0,0E0,0E0,0E0,0E0,0E0,0E0,0E0,0E0,0E0,0E0],"parents":[2147483647,0,0,1,1,2,2,3,3,4,4,5,5,6,6,7,7,8,8,9,9,10,10,14,14],"right_children":[2,4,6,8,10,12,14,16,18,20,22,-1,-1,-1,24,-1,-1,-1,-1,-1,-1,-1,-1,-1,-1],"split_conditions":[9E0,2.0531756E-1,1.2280702E-1,-6.672225E-4,2.1787438E-1,1.9221967E-1,6.41E1,1.952502E-1,1.7794217E0,6.1560296E-2,2.4000618E0,-2.4171375E-2,4.7527395E-2,5.622477E-3,2.5241797E0,-8.934163E-3,-4.739107E-2,-1.4010097E-2,1.9019324E-2,-4.575242E-3,5.4374468E-2,2.9400904E-2,1.3202182E-3,-3.77993E-2,-1.387053E-2],"split_indices":[16,0,6,10,0,4,12,0,5,1,5,0,0,0,5,0,0,0,0,0,0,0,0,0,0],"split_type":[0,0,0,0,0,0,0,0,0,0,0,0,0,0,0,0,0,0,0,0,0,0,0,0,0],"sum_hessian":[3.547165E2,2.6981033E2,8.490614E1,1.0683537E2,1.6297496E2,1.1671404E1,7.323473E1,5.463227E1,5.2203102E1,2.2765438E1,1.4020953E2,5.8829393E0,5.788465E0,8.131225E0,6.5103516E1,4.5373257E1,9.259012E0,1.7447187E1,3.4755913E1,5.762327E0,1.700311E1,3.1829292E1,1.0838023E2,3.4638565E1,3.0464949E1],"tree_param":{"num_deleted":"0","num_feature":"17","num_nodes":"25","size_leaf_vector":"1"}},{"base_weights":[7.254416E-2,1.7332566E-1,-2.6079738E-1,-1.6768052E-1,2.6526242E-1,4.6547636E-1,-3.8797212E-1,-6.611731E-2,-4.6263795E-2,8.026575E-1,2.0426562E-1,-8.054019E-3,5.818641E-2,-5.123732E-1,2.829663E-1,-3.6246117E-2,2.6214216E-3,9.486409E-2,1.55922E-2,-2.5265401E-2,1.1953252E-2,-1.2981621E-2,-3.5170596E-2,3.6502447E-2,-1.1932498E-2],"categories":[],"categories_nodes":[],"categories_segments":[],"categories_sizes":[],"default_left":[1,0,0,1,1,0,0,1,0,0,0,0,0,0,1,0,0,0,0,0,0,0,0,0,0],"id":22,"left_children":[1,3,5,7,9,11,13,15,-1,17,19,-1,-1,21,23,-1,-1,-1,-1,-1,-1,-1,-1,-1,-1],"loss_changes":[1.1974832E1,8.611714E0,7.8316956E0,4.450967E0,6.9041367E0,5.7866497E0,6.074239E0,4.160577E0,0E0,1.1033712E1,4.935586E0,0E0,0E0,2.7280273E0,2.9156787E0,0E0,0E0,0E0,0E0,0E0,0E0,0E0,0E0,0E0,0E0],"parents":[2147483647,0,0,1,1,2,2,3,3,4,4,5,5,6,6,7,7,9,9,10,10,13,13,14,14],"right_children":[2,4,6,8,10,12,14,16,-1,18,20,-1,-1,22,24,-1,-1,-1,-1,-1,-1,-1,-1,-1,-1],"split_conditions":[9E0,9.24E1,1.2280702E-1,2.8489718E-2,9.5194966E-1,1.8518518E-1,3.8709676E-1,-2.8669704E-2,-4.6263795E-2,2.2222222E-1,9E-2,-8.054019E-3,5.818641E-2,2.2446352E-1,-4.102434E-3,-3.6246117E-2,2.6214216E-3,9.486409E-2,1.55922E-2,-2.5265401E-2,1.1953252E-2,-1.2981621E-2,-3.5170596E-2,3.6502447E-2,-1.1932498E-2],"split_indices":[16,3,6,10,13,4,6,10,0,4,2,0,0,9,10,0,0,0,0,0,0,0,0,0,0],"split_type":[0,0,0,0,0,0,0,0,0,0,0,0,0,0,0,0,0,0,0,0,0,0,0,0,0],"sum_hessian":[3.5410495E2,2.7226822E2,8.183674E1,5.7642048E1,2.1462617E2,1.1798326E1,7.0038414E1,5.1786785E1,5.8552623E0,2.0638397E1,1.9398778E2,6.6238804E0,5.1744447E0,5.928289E1,1.075552E1,7.1174126E0,4.4669373E1,5.502036E0,1.5136362E1,8.436835E0,1.8555095E2,2.65357E1,3.274719E1,5.5763674E0,5.1791525E0],"tree_param":{"num_deleted":"0","num_feature":"17","num_nodes":"25","size_leaf_vector":"1"}},{"base_weights":[3.8395505E-4,3.3002432E-2,-5.025492E-2,1.7309956E-1,-1.1081081E-1,-1.7110904E-1,2.6882732E-1,-8.006294E-1,-4.73472E-2,7.541501E-3,-2.7904565E-2,3.7520166E-2,6.9808224E-3,-1.149606E-2,-5.3976048E-2,3.1311363E-2,-5.613708E-3],"categories":[],"categories_nodes":[],"categories_segments":[],"categories_sizes":[],"default_left":[1,1,0,0,1,0,0,0,0,0,0,0,0,0,0,0,0],"id":23,"left_children":[1,3,-1,5,7,9,11,13,15,-1,-1,-1,-1,-1,-1,-1,-1],"loss_changes":[1.1923065E1,7.113304E0,0E0,5.935753E0,7.5951686E0,5.0059366E0,8.621719E0,2.079855E0,7.0995617E0,0E0,0E0,0E0,0E0,0E0,0E0,0E0,0E0],"parents":[2147483647,0,0,1,1,3,3,4,4,5,5,6,6,7,7,8,8],"right_children":[2,4,-1,6,8,10,12,14,16,-1,-1,-1,-1,-1,-1,-1,-1],"split_conditions":[1.1E1,8.5E0,-5.025492E-2,2.2E-1,-4.185314E-2,2.3529412E-1,1.6818182E-1,6.45E1,3.273527E-1,7.541501E-3,-2.7904565E-2,3.7520166E-2,6.9808224E-3,-1.149606E-2,-5.3976048E-2,3.1311363E-2,-5.613708E-3],"split_indices":[16,16,0,2,10,6,4,12,8,0,0,0,0,0,0,0,0],"split_type":[0,0,0,0,0,0,0,0,0,0,0,0,0,0,0,0,0],"sum_hessian":[3.6152658E2,3.5110373E2,1.0422849E1,1.7774652E2,1.7335721E2,3.850533E1,1.392412E2,1.3626644E1,1.5973058E2,2.1352203E1,1.7153128E1,2.843919E1,1.10802E2,5.071999E0,8.554646E0,1.3283008E1,1.4644757E2],"tree_param":{"num_deleted":"0","num_feature":"17","num_nodes":"17","size_leaf_vector":"1"}},{"base_weights":[2.7997303E-3,-4.8706986E-2,5.440901E-1,-6.273761E-1,1.3457907E-3,1.1080085E0,1.1617275E-1,-8.284001E-1,-8.995827E-3,-2.0494863E-1,1.05084956E-1,2.0042108E-2,9.118084E-2,4.4530928E-2,-3.2738033E-1,-1.87072E-2,-4.92072E-2,-6.004284E-3,-3.8433965E-2,5.856656E-2,1.8090348E-3,-3.6049817E-2,5.046205E-3],"categories":[],"categories_nodes":[],"categories_segments":[],"categories_sizes":[],"default_left":[1,1,0,0,1,1,1,1,0,0,1,0,0,0,1,0,0,0,0,0,0,0,0],"id":24,"left_children":[1,3,5,7,9,11,13,15,-1,17,19,-1,-1,-1,21,-1,-1,-1,-1,-1,-1,-1,-1],"loss_changes":[9.962812E0,9.453132E0,7.363591E0,2.1881018E0,6.470959E0,5.9886036E0,6.7392244E0,8.805437E-1,0E0,4.747986E0,1.4738566E1,0E0,0E0,0E0,2.20807E0,0E0,0E0,0E0,0E0,0E0,0E0,0E0,0E0],"parents":[2147483647,0,0,1,1,2,2,3,3,4,4,5,5,6,6,7,7,9,9,10,10,14,14],"right_children":[2,4,6,8,10,12,14,16,-1,18,20,-1,-1,-1,22,-1,-1,-1,-1,-1,-1,-1,-1],"split_conditions":[9.64E1,-4.0391378E-2,-3.1719875E1,9.52E1,9.24E1,1.1065173E0,1.1353436E0,1.9E-1,-8.995827E-3,2.8489718E-2,9.5194966E-1,2.0042108E-2,9.118084E-2,4.4530928E-2,2.9166666E-1,-1.87072E-2,-4.92072E-2,-6.004284E-3,-3.8433965E-2,5.856656E-2,1.8090348E-3,-3.6049817E-2,5.046205E-3],"split_indices":[3,10,15,3,3,14,14,2,0,10,13,0,0,0,4,0,0,0,0,0,0,0,0],"split_type":[0,0,0,0,0,0,0,0,0,0,0,0,0,0,0,0,0,0,0,0,0,0,0],"sum_hessian":[3.5539456E2,3.2534613E2,3.0048433E1,2.4982674E1,3.0036343E2,1.22783985E1,1.7770035E1,1.6650839E1,8.331836E0,1.00177025E2,2.0018642E2,6.9603252E0,5.3180733E0,6.104183E0,1.1665852E1,5.119925E0,1.1530913E1,8.812402E1,1.2053005E1,1.1180253E1,1.8900616E2,5.722992E0,5.9428596E0],"tree_param":{"num_deleted":"0","num_feature":"17","num_nodes":"23","size_leaf_vector":"1"}},{"base_weights":[3.923606E-3,4.914024E-2,-4.6088853E-1,-2.518218E-1,1.08920224E-1,-6.63633E-1,1.1620605E-2,-4.8457515E-1,2.7544606E-1,-2.600397E-1,1.6796663E-1,-8.5742235E-1,2.787281E-3,-3.468265E-3,-4.0341765E-2,3.2710712E-2,-1.565599E-2,-2.0118332E-2,1.7374223E-2,3.9404415E-2,6.0534277E-3,-5.271402E-2,-1.1345933E-2],"categories":[],"categories_nodes":[],"categories_segments":[],"categories_sizes":[],"default_left":[0,0,0,0,1,1,0,0,0,1,0,1,0,0,0,0,0,0,0,0,0,0,0],"id":25,"left_children":[1,3,5,7,9,11,-1,13,15,17,19,21,-1,-1,-1,-1,-1,-1,-1,-1,-1,-1,-1],"loss_changes":[7.63707E0,5.9840293E0,4.682545E0,6.9036636E0,6.0764203E0,3.558876E0,0E0,5.113511E0,4.113261E0,3.476959E0,6.8645525E0,2.2309818E0,0E0,0E0,0E0,0E0,0E0,0E0,0E0,0E0,0E0,0E0,0E0],"parents":[2147483647,0,0,1,1,2,2,3,3,4,4,5,5,7,7,8,8,9,9,10,10,11,11],"right_children":[2,4,6,8,10,12,-1,14,16,18,20,22,-1,-1,-1,-1,-1,-1,-1,-1,-1,-1,-1],"split_conditions":[3.6965758E-2,1.7E-1,2.736694E-1,1.3354102E0,1.007554E0,1.3779603E0,1.1620605E-2,7.52E1,4.3976966E-1,3.0769232E-1,1.0373744E0,1.3571187E0,2.787281E-3,-3.468265E-3,-4.0341765E-2,3.2710712E-2,-1.565599E-2,-2.0118332E-2,1.7374223E-2,3.9404415E-2,6.0534277E-3,-5.271402E-2,-1.1345933E-2],"split_indices":[10,2,9,14,14,13,0,12,8,4,14,14,0,0,0,0,0,0,0,0,0,0,0],"split_type":[0,0,0,0,0,0,0,0,0,0,0,0,0,0,0,0,0,0,0,0,0,0,0],"sum_hessian":[3.6129404E2,3.300785E2,3.1215551E1,5.4166264E1,2.7591223E2,2.4185646E1,7.0299053E0,3.763424E1,1.6532022E1,3.7594387E1,2.3831786E2,1.8901882E1,5.2837644E0,1.6976475E1,2.0657764E1,9.990898E0,6.541125E0,3.073231E1,6.862077E0,1.5644906E1,2.2267294E2,1.3892266E1,5.0096154E0],"tree_param":{"num_deleted":"0","num_feature":"17","num_nodes":"23","size_leaf_vector":"1"}},{"base_weights":[-2.9550832E-2,-2.6053748E-1,7.34141E-2,-3.7090614E-1,1.4813444E-2,1.2600376E-1,-4.9788803E-1,-1.0515844E-1,-5.9086365E-1,-2.5708273E-1,6.0705014E-2,4.1308427E-1,2.9776128E-2,-7.9728836E-1,-3.2420259E-3,4.5291088E-3,-4.6762004E-2,-1.15835285E-2,-4.2529684E-2,1.0675355E-2,-2.2130778E-2,5.12796E-2,1.1872203E-2,2.42317E-2,-2.947511E-3,-1.7671347E-2,-5.2775603E-2],"categories":[],"categories_nodes":[],"categories_segments":[],"categories_sizes":[],"default_left":[1,0,1,0,0,0,0,1,1,0,0,0,0,0,0,0,0,0,0,0,0,0,0,0,0,0,0],"id":26,"left_children":[1,3,5,7,9,11,13,15,17,19,-1,21,23,25,-1,-1,-1,-1,-1,-1,-1,-1,-1,-1,-1,-1,-1],"loss_changes":[8.441731E0,3.330421E0,7.445529E0,4.5054464E0,1.0833899E1,6.225797E0,2.6600404E0,6.0320816E0,3.7713823E0,2.463139E0,0E0,5.8468046E0,6.897533E0,1.0341082E0,0E0,0E0,0E0,0E0,0E0,0E0,0E0,0E0,0E0,0E0,0E0,0E0,0E0],"parents":[2147483647,0,0,1,1,2,2,3,3,4,4,5,5,6,6,7,7,8,8,9,9,11,11,12,12,13,13],"right_children":[2,4,6,8,10,12,14,16,18,20,-1,22,24,26,-1,-1,-1,-1,-1,-1,-1,-1,-1,-1,-1,-1,-1],"split_conditions":[9.24E1,1.3688984E0,9.5E0,7.59E1,1.038E0,1.6818182E-1,8.09E1,1.0332334E-1,1.6687109E-1,2.1E-1,6.0705014E-2,3.0545178E-1,4.743236E-2,2.1773912E-1,-3.2420259E-3,4.5291088E-3,-4.6762004E-2,-1.15835285E-2,-4.2529684E-2,1.0675355E-2,-2.2130778E-2,5.12796E-2,1.1872203E-2,2.42317E-2,-2.947511E-3,-1.7671347E-2,-5.2775603E-2],"split_indices":[3,14,16,12,11,4,12,1,0,2,0,7,1,9,0,0,0,0,0,0,0,0,0,0,0,0,0],"split_type":[0,0,0,0,0,0,0,0,0,0,0,0,0,0,0,0,0,0,0,0,0,0,0,0,0,0,0],"sum_hessian":[3.5313608E2,1.0840812E2,2.4472797E2,7.71408E1,3.1267315E1,2.2481287E2,1.9915087E1,3.560352E1,4.153728E1,2.6129095E1,5.1382184E0,5.5611534E1,1.6920134E2,1.1277168E1,8.637918E0,2.9530777E1,6.0727434E0,1.8225008E1,2.3312275E1,7.345929E0,1.8783167E1,1.13147135E1,4.4296818E1,2.6889503E1,1.4231184E2,5.0188828E0,6.2582855E0],"tree_param":{"num_deleted":"0","num_feature":"17","num_nodes":"27","size_leaf_vector":"1"}},{"base_weights":[1.1622181E-2,4.0425286E-2,-4.5036606E-2,7.318201E-1,9.945079E-3,3.2441423E-3,6.0317624E-2,4.472524E-2,-4.4042444E-1,-4.928995E-3,1.0342996E-2,-3.32348E-2,1.4714035E-2],"categories":[],"categories_nodes":[],"categories_segments":[],"categories_sizes":[],"default_left":[1,1,0,1,0,0,0,0,1,0,0,0,0],"id":27,"left_children":[1,3,-1,5,7,-1,-1,9,11,-1,-1,-1,-1],"loss_changes":[9.557909E0,7.414868E0,0E0,4.6238036E0,5.3194237E0,0E0,0E0,7.339147E0,4.2074466E0,0E0,0E0,0E0,0E0],"parents":[2147483647,0,0,1,1,3,3,4,4,7,7,8,8],"right_children":[2,4,-1,6,8,-1,-1,10,12,-1,-1,-1,-1],"split_conditions":[1.1E1,7E0,-4.5036606E-2,6.736085E-2,3.6965758E-2,3.2441423E-3,6.0317624E-2,1.01E0,9.6E1,-4.928995E-3,1.0342996E-2,-3.32348E-2,1.4714035E-2],"split_indices":[16,16,0,1,10,0,0,11,3,0,0,0,0],"split_type":[0,0,0,0,0,0,0,0,0,0,0,0,0],"sum_hessian":[3.613285E2,3.5119687E2,1.0131624E1,1.3857264E1,3.373396E2,6.233311E0,7.623953E0,3.13992E2,2.33476E1,1.6688245E2,1.4710954E2,1.7960405E1,5.387195E0],"tree_param":{"num_deleted":"0","num_feature":"17","num_nodes":"13","size_leaf_vector":"1"}},{"base_weights":[-8.774109E-3,7.064629E-2,-2.8945383E-1,-5.5601376E-1,9.653023E-2,-3.8732773E-1,1.986839E-2,-5.2551315E-3,-4.568701E-2,-2.5349898E-2,1.2089786E-1,2.147493E-2,-4.602931E-1,4.6207397E-3,3.5006475E-2,-1.7133208E-2,-4.676673E-2],"categories":[],"categories_nodes":[],"categories_segments":[],"categories_sizes":[],"default_left":[1,0,1,0,0,0,0,0,0,0,1,0,0,0,0,0,0],"id":28,"left_children":[1,3,5,7,9,11,-1,-1,-1,-1,13,-1,15,-1,-1,-1,-1],"loss_changes":[7.9339223E0,4.554931E0,5.4302235E0,1.7033796E0,3.9930909E0,4.3224535E0,0E0,0E0,0E0,0E0,4.188261E0,0E0,3.2565536E0,0E0,0E0,0E0,0E0],"parents":[2147483647,0,0,1,1,2,2,3,3,4,4,5,5,10,10,12,12],"right_children":[2,4,6,8,10,12,-1,-1,-1,-1,14,-1,16,-1,-1,-1,-1],"split_conditions":[9E0,2.832152E-1,3.3333334E-1,6.99E1,1.7441995E-1,1.2924597E-1,1.986839E-2,-5.2551315E-3,-4.568701E-2,-2.5349898E-2,5.659822E-1,2.147493E-2,2.480088E-2,4.6207397E-3,3.5006475E-2,-1.7133208E-2,-4.676673E-2],"split_indices":[16,8,4,12,9,0,0,0,0,0,8,0,10,0,0,0,0],"split_type":[0,0,0,0,0,0,0,0,0,0,0,0,0,0,0,0,0],"sum_hessian":[3.5399646E2,2.765055E2,7.749097E1,1.0155517E1,2.6634998E2,6.8207306E1,9.283662E0,5.0649705E0,5.090546E0,9.567969E0,2.56782E2,5.1924953E0,6.301481E1,2.4585205E2,1.0929953E1,5.188778E1,1.1127029E1],"tree_param":{"num_deleted":"0","num_feature":"17","num_nodes":"17","size_leaf_vector":"1"}},{"base_weights":[-5.7743033E-3,3.2995783E-2,-4.9839643E-1,-4.696695E-2,3.0117947E-1,-4.6507075E-2,-1.4982554E-1,-1.3377424E-1,2.5122485E-1,6.005159E-2,2.1699643E-1,1.950117E-2,-2.4016397E-2,2.031534E-2,-9.530888E-3,2.8587354E-2,-6.948414E-3,1.6843157E-2,-2.4476629E-2],"categories":[],"categories_nodes":[],"categories_segments":[],"categories_sizes":[],"default_left":[0,0,1,0,0,0,0,0,0,0,0,0,0,0,0,0,0,0,0],"id":29,"left_children":[1,3,5,7,9,-1,11,13,15,-1,17,-1,-1,-1,-1,-1,-1,-1,-1],"loss_changes":[6.8859687E0,7.1847296E0,3.8192482E0,6.723405E0,5.5673623E0,0E0,2.996754E0,6.2426953E0,7.410692E0,0E0,6.2264214E0,0E0,0E0,0E0,0E0,0E0,0E0,0E0,0E0],"parents":[2147483647,0,0,1,1,2,2,3,3,4,4,6,6,7,7,8,8,10,10],"right_children":[2,4,6,8,10,-1,12,14,16,-1,18,-1,-1,-1,-1,-1,-1,-1,-1],"split_conditions":[1.6047627E0,1.346347E0,6.1560296E-2,3.409091E-1,2.6500377E-1,-4.6507075E-2,3.1202376E-1,4.288082E-2,1.1815243E0,6.005159E-2,1.3696918E0,1.950117E-2,-2.4016397E-2,2.031534E-2,-9.530888E-3,2.8587354E-2,-6.948414E-3,1.6843157E-2,-2.4476629E-2],"split_indices":[14,14,1,6,7,0,7,1,13,0,13,0,0,0,0,0,0,0,0],"split_type":[0,0,0,0,0,0,0,0,0,0,0,0,0,0,0,0,0,0,0],"sum_hessian":[3.586797E2,3.3337555E2,2.5304129E1,2.5744083E2,7.593474E1,1.0558174E1,1.47459545E1,1.9982167E2,5.7619152E1,5.361156E0,7.057358E1,5.5311594E0,9.214795E0,1.8443043E1,1.8137863E2,3.1378305E1,2.6240847E1,6.0784378E1,9.789203E0],"tree_param":{"num_deleted":"0","num_feature":"17","num_nodes":"19","size_leaf_vector":"1"}},{"base_weights":[-7.710352E-3,-2.4487467E-1,5.655213E-2,-1.1910058E-1,-6.813939E-1,6.864317E-1,2.6323266E-2,-3.839416E-1,3.0268824E-1,-5.0963234E-2,-4.2353562E-1,7.263856E-2,-5.5619716E-3,-3.1037891E-2,4.9448855E-2,3.6995623E-3,-2.9195888E-2,-2.4028813E-2,2.9607033E-2,-4.676445E-3,-3.454764E-2,-2.070026E-2,4.0336675E-3],"categories":[],"categories_nodes":[],"categories_segments":[],"categories_sizes":[],"default_left":[0,0,0,0,0,0,0,0,0,0,1,0,0,0,1,0,0,0,0,0,0,0,0],"id":30,"left_children":[1,3,5,7,9,11,13,15,17,-1,19,-1,-1,-1,21,-1,-1,-1,-1,-1,-1,-1,-1],"loss_changes":[5.4975996E0,4.1406884E0,5.3877587E0,6.920083E0,1.0483885E0,8.084801E0,4.1001897E0,3.509894E0,5.7376204E0,0E0,9.3665886E-1,0E0,0E0,0E0,3.846429E0,0E0,0E0,0E0,0E0,0E0,0E0,0E0,0E0],"parents":[2147483647,0,0,1,1,2,2,3,3,4,4,5,5,6,6,7,7,8,8,10,10,14,14],"right_children":[2,4,6,8,10,12,14,16,18,-1,20,-1,-1,-1,22,-1,-1,-1,-1,-1,-1,-1,-1],"split_conditions":[9.24E1,2.1028738E-2,9.3622863E-1,1.110962E-3,9.95E-1,2.5177664E-1,1.7441995E-1,1.0830163E0,2.1386829E-1,-5.0963234E-2,2.9080378E-2,7.263856E-2,-5.5619716E-3,-3.1037891E-2,-4.438989E-2,3.6995623E-3,-2.9195888E-2,-2.4028813E-2,2.9607033E-2,-4.676445E-3,-3.454764E-2,-2.070026E-2,4.0336675E-3],"split_indices":[3,10,13,10,11,0,9,14,9,0,10,0,0,0,10,0,0,0,0,0,0,0,0],"split_type":[0,0,0,0,0,0,0,0,0,0,0,0,0,0,0,0,0,0,0,0,0,0,0],"sum_hessian":[3.5880807E2,7.589665E1,2.829114E2,5.9908176E1,1.5988474E1,1.1961501E1,2.7094992E2,3.6856026E1,2.3052153E1,5.642422E0,1.0346052E1,5.6817036E0,6.2797976E0,8.457457E0,2.6249246E2,1.1394146E1,2.546188E1,6.0420213E0,1.7010132E1,5.235241E0,5.1108108E0,1.5794929E1,2.4669753E2],"tree_param":{"num_deleted":"0","num_feature":"17","num_nodes":"23","size_leaf_vector":"1"}},{"base_weights":[-4.63375E-3,-5.1343304E-1,4.1628726E-2,9.454616E-3,-7.470421E-1,1.4527689E-1,-1.7365697E-1,-1.6784752E-2,-9.430682E-1,-2.8785676E-2,3.2473943E-1,-2.281204E-1,2.028361E-2,-5.424443E-2,-2.802508E-2,5.8592197E-2,-6.159128E-3,-3.2187987E-2,2.0466393E-2,-4.7688945E-3,-2.509935E-2],"categories":[],"categories_nodes":[],"categories_segments":[],"categories_sizes":[],"default_left":[1,0,1,0,0,0,1,0,1,0,0,0,0,0,0,0,0,0,0,0,0],"id":31,"left_children":[1,3,5,-1,7,9,11,-1,13,15,17,19,-1,-1,-1,-1,-1,-1,-1,-1,-1],"loss_changes":[8.476007E0,5.0667043E0,7.3927226E0,0E0,1.5158043E0,6.9884014E0,3.4925048E0,0E0,1.9694424E-1,1.3102434E1,9.282001E0,3.556117E0,0E0,0E0,0E0,0E0,0E0,0E0,0E0,0E0,0E0],"parents":[2147483647,0,0,1,1,2,2,4,4,5,5,6,6,8,8,9,9,10,10,11,11],"right_children":[2,4,6,-1,8,10,12,-1,14,16,18,20,-1,-1,-1,-1,-1,-1,-1,-1,-1],"split_conditions":[-3.7786428E-2,9.78E-1,1.2659328E0,9.454616E-3,6.39E1,1.01E0,1.240319E-1,-1.6784752E-2,3.0467372E0,-8.327651E1,1.0030717E0,9.044386E-2,2.028361E-2,-5.424443E-2,-2.802508E-2,5.8592197E-2,-6.159128E-3,-3.2187987E-2,2.0466393E-2,-4.7688945E-3,-2.509935E-2],"split_indices":[10,11,13,0,12,11,1,0,5,15,14,1,0,0,0,0,0,0,0,0,0],"split_type":[0,0,0,0,0,0,0,0,0,0,0,0,0,0,0,0,0,0,0,0,0],"sum_hessian":[3.5818604E2,2.9011911E1,3.2917413E2,7.287375E0,2.1724537E1,2.2241756E2,1.0675657E2,7.8869095E0,1.3837626E1,1.13333664E2,1.09083885E2,9.813684E1,8.61973E0,8.755924E0,5.0817027E0,7.429113E0,1.0590455E2,8.231094E0,1.008528E2,6.700697E1,3.112987E1],"tree_param":{"num_deleted":"0","num_feature":"17","num_nodes":"21","size_leaf_vector":"1"}},{"base_weights":[1.6377477E-2,-2.867736E-1,9.693441E-2,-1.7473763E-1,-5.978847E-1,2.7036908E-1,-8.2668334E-2,-3.0465232E-2,-5.9821695E-1,3.4473135E-4,-8.4956515E-1,4.124779E-2,4.171681E-1,5.639533E-1,-1.585148E-1,-2.1547219E-2,1.0509855E-2,-4.172414E-2,-1.3201246E-2,-2.4403652E-2,-5.260066E-2,2.9244715E-2,-7.5513977E-3,4.4791814E-2,7.8005414E-3,7.846825E-2,-5.661832E-3,-3.143261E-2,-2.6425666E-3],"categories":[],"categories_nodes":[],"categories_segments":[],"categories_sizes":[],"default_left":[0,0,1,0,0,0,0,0,0,0,0,0,0,0,0,0,0,0,0,0,0,0,0,0,0,0,0,0,0],"id":32,"left_children":[1,3,5,7,9,11,13,15,17,-1,19,21,23,25,27,-1,-1,-1,-1,-1,-1,-1,-1,-1,-1,-1,-1,-1,-1],"loss_changes":[8.723995E0,2.510138E0,8.809068E0,3.4376683E0,2.9660625E0,4.817461E0,6.9233475E0,4.2585025E0,9.1036224E-1,0E0,4.9215794E-1,6.071746E0,1.0798293E1,1.028705E1,6.2009277E0,0E0,0E0,0E0,0E0,0E0,0E0,0E0,0E0,0E0,0E0,0E0,0E0,0E0,0E0],"parents":[2147483647,0,0,1,1,2,2,3,3,4,4,5,5,6,6,7,7,8,8,10,10,11,11,12,12,13,13,14,14],"right_children":[2,4,6,8,10,12,14,16,18,-1,20,22,24,26,28,-1,-1,-1,-1,-1,-1,-1,-1,-1,-1,-1,-1,-1,-1],"split_conditions":[9.24E1,1.7857002E-2,8.5E0,5.7218536E1,1.5E-1,-7.3541095E-3,9.3E1,-1.1961495E-2,7.5599834E-2,3.4473135E-4,2.8489718E-2,2.325839E0,5.976918E-3,2.434267E0,1.8101685E0,-2.1547219E-2,1.0509855E-2,-4.172414E-2,-1.3201246E-2,-2.4403652E-2,-5.260066E-2,2.9244715E-2,-7.5513977E-3,4.4791814E-2,7.8005414E-3,7.846825E-2,-5.661832E-3,-3.143261E-2,-2.6425666E-3],"split_indices":[3,10,16,15,2,10,3,10,1,0,10,5,10,5,5,0,0,0,0,0,0,0,0,0,0,0,0,0,0],"split_type":[0,0,0,0,0,0,0,0,0,0,0,0,0,0,0,0,0,0,0,0,0,0,0,0,0,0,0,0,0],"sum_hessian":[3.5509616E2,7.4012634E1,2.8108353E2,5.5564613E1,1.8448025E1,1.4274013E2,1.383434E2,4.2244537E1,1.3320075E1,5.706972E0,1.2741052E1,5.6241062E1,8.649906E1,1.3848018E1,1.24495384E2,1.5560352E1,2.6684185E1,6.926317E0,6.3937573E0,5.79835E0,6.942702E0,1.4160698E1,4.2080364E1,2.9676165E1,5.68229E1,5.043121E0,8.804897E0,2.1937489E1,1.025579E2],"tree_param":{"num_deleted":"0","num_feature":"17","num_nodes":"29","size_leaf_vector":"1"}},{"base_weights":[-4.5631252E-2,-2.1753926E-2,-4.317985E-2,-3.229464E-1,3.826567E-2,2.3643681E-1,-5.151842E-1,-4.0666133E-2,5.8876414E-2,-2.3927236E-2,4.2400144E-2,9.132818E-3,-3.3239733E-2,2.3282481E-2,1.4083829E-3],"categories":[],"categories_nodes":[],"categories_segments":[],"categories_sizes":[],"default_left":[1,1,0,0,0,0,0,0,0,0,0,0,0,0,0],"id":33,"left_children":[1,3,-1,5,7,9,11,-1,13,-1,-1,-1,-1,-1,-1],"loss_changes":[7.0326543E0,6.3724937E0,0E0,6.419691E0,5.2127156E0,7.255263E0,4.704935E0,0E0,3.5874312E0,0E0,0E0,0E0,0E0,0E0,0E0],"parents":[2147483647,0,0,1,1,3,3,4,4,5,5,6,6,8,8],"right_children":[2,4,-1,6,8,10,12,-1,14,-1,-1,-1,-1,-1,-1],"split_conditions":[1.1E1,-2.5372023E-2,-4.317985E-2,9.78E-1,2.6801503E-1,9.49E1,1.8101685E0,-4.0666133E-2,9.7173756E-1,-2.3927236E-2,4.2400144E-2,9.132818E-3,-3.3239733E-2,2.3282481E-2,1.4083829E-3],"split_indices":[16,10,0,11,8,3,5,0,13,0,0,0,0,0,0],"split_type":[0,0,0,0,0,0,0,0,0,0,0,0,0,0,0],"sum_hessian":[3.6004147E2,3.5082706E2,9.214436E0,5.75661E1,2.9326096E2,1.4664547E1,4.2901554E1,6.021119E0,2.872398E2,6.860938E0,7.8036094E0,7.534917E0,3.536664E1,1.9168419E1,2.680714E2],"tree_param":{"num_deleted":"0","num_feature":"17","num_nodes":"15","size_leaf_vector":"1"}},{"base_weights":[-3.2589033E-2,4.9499247E-2,-3.1030235E-1,-2.249288E-1,1.1899107E-1,3.3938766E-1,-4.6166912E-1,-7.206365E-1,1.4837105E-4,4.938698E-2,7.771771E-2,-1.5335738E-2,4.2693213E-2,-7.5346565E-1,-2.6742545E-1,-4.9925096E-2,-2.8050903E-3,1.17072975E-2,-3.1554632E-2,3.2660466E-2,2.1560008E-3,-8.453842E-3,-4.441351E-2,2.2451557E-2,-2.1222105E-2],"categories":[],"categories_nodes":[],"categories_segments":[],"categories_sizes":[],"default_left":[1,0,0,0,0,0,1,1,0,0,1,0,0,0,0,0,0,0,0,0,0,0,0,0,0],"id":34,"left_children":[1,3,5,7,9,11,13,15,17,-1,19,-1,-1,21,23,-1,-1,-1,-1,-1,-1,-1,-1,-1,-1],"loss_changes":[8.071596E0,5.2449694E0,8.099045E0,6.2073927E0,7.775466E0,5.526257E0,3.5351572E0,3.1519327E0,5.947043E0,0E0,4.1559753E0,0E0,0E0,1.8820381E0,4.8174314E0,0E0,0E0,0E0,0E0,0E0,0E0,0E0,0E0,0E0,0E0],"parents":[2147483647,0,0,1,1,2,2,3,3,4,4,5,5,6,6,7,7,8,8,10,10,13,13,14,14],"right_children":[2,4,6,8,10,12,14,16,18,-1,20,-1,-1,22,24,-1,-1,-1,-1,-1,-1,-1,-1,-1,-1],"split_conditions":[9E0,9.24E1,1.388889E-1,1.764706E-1,9.1934496E-1,1.1283808E0,2.108549E0,1.2343525E0,1.253809E0,4.938698E-2,7E0,-1.5335738E-2,4.2693213E-2,6.68E1,-2.3392987E-2,-4.9925096E-2,-2.8050903E-3,1.17072975E-2,-3.1554632E-2,3.2660466E-2,2.1560008E-3,-8.453842E-3,-4.441351E-2,2.2451557E-2,-2.1222105E-2],"split_indices":[16,3,6,6,13,14,5,13,13,0,16,0,0,12,10,0,0,0,0,0,0,0,0,0,0],"split_type":[0,0,0,0,0,0,0,0,0,0,0,0,0,0,0,0,0,0,0,0,0,0,0,0,0],"sum_hessian":[3.5239005E2,2.7262698E2,7.976307E1,5.4634556E1,2.1799243E2,1.4837221E1,6.492584E1,1.637303E1,3.8261524E1,8.846836E0,2.0914558E2,6.756253E0,8.080969E0,2.4796741E1,4.0129105E1,1.1191084E1,5.1819453E0,2.8372911E1,9.888614E0,1.0846517E1,1.9829907E2,5.070395E0,1.9726345E1,6.879344E0,3.324976E1],"tree_param":{"num_deleted":"0","num_feature":"17","num_nodes":"25","size_leaf_vector":"1"}},{"base_weights":[-1.1753462E-2,-2.0741796E-1,7.3987186E-2,-2.715586E-1,3.4266436E-1,3.740339E-1,-3.4649003E-2,-6.193069E-1,-1.3036942E-1,4.260413E-2,-1.2864632E-2,2.0252335E-1,6.3020974E-2,3.045566E-1,-1.197819E-1,-4.0850658E-2,-9.240304E-3,1.1952914E-2,-2.048551E-2,3.8112592E-2,-2.596299E-3,2.91212E-3,4.589423E-2,1.6050693E-2,-9.798482E-3],"categories":[],"categories_nodes":[],"categories_segments":[],"categories_sizes":[],"default_left":[1,0,1,0,1,0,0,0,0,0,0,1,0,0,0,0,0,0,0,0,0,0,0,0,0],"id":35,"left_children":[1,3,5,7,9,11,13,15,17,-1,-1,19,-1,21,23,-1,-1,-1,-1,-1,-1,-1,-1,-1,-1],"loss_changes":[6.0718513E0,3.9832892E0,8.219122E0,4.794878E0,3.8733377E0,9.931306E0,5.4004292E0,2.2894335E0,7.5171647E0,0E0,0E0,8.205271E0,0E0,5.618964E0,5.0735292E0,0E0,0E0,0E0,0E0,0E0,0E0,0E0,0E0,0E0,0E0],"parents":[2147483647,0,0,1,1,2,2,3,3,4,4,5,5,6,6,7,7,8,8,11,11,13,13,14,14],"right_children":[2,4,6,8,10,12,14,16,18,-1,-1,20,-1,22,24,-1,-1,-1,-1,-1,-1,-1,-1,-1,-1],"split_conditions":[9.24E1,3.8709676E-1,1.0650468E0,1.0602821E0,2.9903197E-1,1.034E0,1.0445136E0,2.496915E-1,9.17E1,4.260413E-2,-1.2864632E-2,9.5194966E-1,6.3020974E-2,1.0240502E0,9.3E1,-4.0850658E-2,-9.240304E-3,1.1952914E-2,-2.048551E-2,3.8112592E-2,-2.596299E-3,2.91212E-3,4.589423E-2,1.6050693E-2,-9.798482E-3],"split_indices":[3,6,13,13,8,11,14,0,3,0,0,13,0,14,3,0,0,0,0,0,0,0,0,0,0],"split_type":[0,0,0,0,0,0,0,0,0,0,0,0,0,0,0,0,0,0,0,0,0,0,0,0,0],"sum_hessian":[3.6001337E2,1.092592E2,2.5075417E2,9.830319E1,1.0956009E1,6.6006134E1,1.8474803E2,2.7408884E1,7.089431E1,5.6978097E0,5.258199E0,5.633426E1,9.671875E0,3.654797E1,1.4820006E2,1.823243E1,9.176455E0,3.0587109E1,4.0307198E1,1.6982056E1,3.9352203E1,2.6857061E1,9.690908E0,2.1366644E1,1.2683342E2],"tree_param":{"num_deleted":"0","num_feature":"17","num_nodes":"25","size_leaf_vector":"1"}},{"base_weights":[-1.1472826E-2,-2.9971924E-2,5.1523622E-2,8.414303E-3,-4.567382E-1,3.9846864E-1,-3.104905E-2,-7.39348E-1,1.7308703E-2,-3.127606E-2,3.192173E-2,2.0010686E-2,-3.9892155E-3,-1.949696E-2,-5.2409012E-2],"categories":[],"categories_nodes":[],"categories_segments":[],"categories_sizes":[],"default_left":[1,0,0,1,1,0,0,0,0,0,0,0,0,0,0],"id":36,"left_children":[1,3,-1,5,7,9,11,13,-1,-1,-1,-1,-1,-1,-1],"loss_changes":[6.8637967E0,5.725777E0,0E0,4.9602604E0,6.8005724E0,7.674147E0,6.1866465E0,1.927742E0,0E0,0E0,0E0,0E0,0E0,0E0,0E0],"parents":[2147483647,0,0,1,1,3,3,4,4,5,5,6,6,7,7],"right_children":[2,4,-1,6,8,10,12,14,-1,-1,-1,-1,-1,-1,-1],"split_conditions":[9.3E-1,3.6965758E-2,5.1523622E-2,9.1934496E-1,1.3867047E0,6.74E1,5.96E1,1.1505545E0,1.7308703E-2,-3.127606E-2,3.192173E-2,2.0010686E-2,-3.9892155E-3,-1.949696E-2,-5.2409012E-2],"split_indices":[2,10,0,13,14,12,12,14,0,0,0,0,0,0,0],"split_type":[0,0,0,0,0,0,0,0,0,0,0,0,0,0,0],"sum_hessian":[3.5349524E2,3.4828293E2,5.212315E0,3.204406E2,2.7842299E1,2.8605703E1,2.918349E2,2.0652264E1,7.190036E0,5.125844E0,2.347986E1,2.8898392E1,2.6293652E2,1.07511635E1,9.9011E0],"tree_param":{"num_deleted":"0","num_feature":"17","num_nodes":"15","size_leaf_vector":"1"}},{"base_weights":[2.436332E-2,-5.564481E-1,4.694785E-2,-9.326863E-4,-4.752333E-2,9.370048E-2,-2.4930915E-1,1.2035591E-1,-5.7676613E-1,-4.1057834E-1,1.6796045E-2,2.5902404E-2,4.314823E-3,-6.1808564E-3,-4.5566004E-2,-1.2488607E-2,-5.38368E-2],"categories":[],"categories_nodes":[],"categories_segments":[],"categories_sizes":[],"default_left":[0,0,1,0,0,1,0,0,1,0,0,0,0,0,0,0,0],"id":37,"left_children":[1,3,5,-1,-1,7,9,11,13,15,-1,-1,-1,-1,-1,-1,-1],"loss_changes":[4.655413E0,2.7978015E0,4.741306E0,0E0,0E0,5.3401985E0,4.545539E0,3.8085709E0,1.6231258E0,3.701223E0,0E0,0E0,0E0,0E0,0E0,0E0,0E0],"parents":[2147483647,0,0,1,1,2,2,5,5,6,6,7,7,8,8,9,9],"right_children":[2,4,6,-1,-1,8,10,12,14,16,-1,-1,-1,-1,-1,-1,-1],"split_conditions":[1.7441995E-1,6.58E1,3.58368E-1,-9.326863E-4,-4.752333E-2,1.6047627E0,2.688507E-1,5.83E1,3.0796698E-1,2.5283736E-1,1.6796045E-2,2.5902404E-2,4.314823E-3,-6.1808564E-3,-4.5566004E-2,-1.2488607E-2,-5.38368E-2],"split_indices":[9,12,7,0,0,14,9,12,7,9,0,0,0,0,0,0,0],"split_type":[0,0,0,0,0,0,0,0,0,0,0,0,0,0,0,0,0],"sum_hessian":[3.519134E2,1.2287016E1,3.3962637E2,5.638454E0,6.6485615E0,2.939254E2,4.5700962E1,2.834759E2,1.044953E1,3.6061962E1,9.638999E0,2.124148E1,2.622344E2,5.0197887E0,5.429741E0,3.015716E1,5.9048014E0],"tree_param":{"num_deleted":"0","num_feature":"17","num_nodes":"17","size_leaf_vector":"1"}},{"base_weights":[1.3585553E-2,5.6452077E-2,-3.3487794E-1,8.213039E-2,-5.990539E-1,2.0720532E-2,-5.258118E-1,2.138569E-2,3.5464212E-1,-4.8187595E-2,-5.1890966E-3,-1.4706255E-1,-7.370244E-1,-4.271117E-3,1.1728887E-2,4.062696E-2,2.2636952E-3,1.4330027E-2,-2.869614E-2,-1.3010385E-2,-4.7863945E-2],"categories":[],"categories_nodes":[],"categories_segments":[],"categories_sizes":[],"default_left":[0,1,0,0,0,0,1,1,0,0,0,1,0,0,0,0,0,0,0,0,0],"id":38,"left_children":[1,3,5,7,9,-1,11,13,15,-1,-1,17,19,-1,-1,-1,-1,-1,-1,-1,-1],"loss_changes":[5.295105E0,5.3578353E0,5.7739897E0,5.030925E0,2.0691862E0,0E0,2.4027367E0,5.711751E0,7.813385E0,0E0,0E0,2.4760685E0,1.8411436E0,0E0,0E0,0E0,0E0,0E0,0E0,0E0,0E0],"parents":[2147483647,0,0,1,1,2,2,3,3,4,4,6,6,7,7,8,8,11,11,12,12],"right_children":[2,4,6,8,10,-1,12,14,16,-1,-1,18,20,-1,-1,-1,-1,-1,-1,-1,-1],"split_conditions":[9.5E0,1.6047627E0,1.2903225E-1,3.6363637E-1,4.4616917E-1,2.0720532E-2,1.0906421E0,8.5344724E-2,7.21E1,-4.8187595E-2,-5.1890966E-3,4.0407717E-1,-7.966754E-3,-4.271117E-3,1.1728887E-2,4.062696E-2,2.2636952E-3,1.4330027E-2,-2.869614E-2,-1.3010385E-2,-4.7863945E-2],"split_indices":[16,14,6,6,8,0,14,1,12,0,0,8,10,0,0,0,0,0,0,0,0],"split_type":[0,0,0,0,0,0,0,0,0,0,0,0,0,0,0,0,0,0,0,0,0],"sum_hessian":[3.5222034E2,3.1438412E2,3.7836227E1,3.0337463E2,1.1009468E1,7.445833E0,3.0390394E1,2.4895859E2,5.441606E1,5.7957854E0,5.2136827E0,1.1487371E1,1.8903023E1,1.6626172E2,8.269687E1,2.1285246E1,3.3130817E1,5.861273E0,5.6260986E0,6.66207E0,1.22409525E1],"tree_param":{"num_deleted":"0","num_feature":"17","num_nodes":"21","size_leaf_vector":"1"}},{"base_weights":[1.5049474E-2,-3.9132732E-1,5.410303E-2,2.6945189E-2,-5.976859E-1,3.663542E-2,4.4428196E-2,-1.7272241E-1,-8.856349E-1,-7.509077E-2,1.5976012E-1,-2.6386177E-2,1.0080327E-2,-1.9206583E-2,-5.597772E-2,2.5038447E-3,-2.0610064E-2,-8.550906E-3,1.6419273E-2],"categories":[],"categories_nodes":[],"categories_segments":[],"categories_sizes":[],"default_left":[1,0,0,0,0,0,0,0,1,0,1,0,0,0,0,0,0,0,0],"id":39,"left_children":[1,3,5,-1,7,9,-1,11,13,15,17,-1,-1,-1,-1,-1,-1,-1,-1],"loss_changes":[5.5020704E0,6.1578226E0,4.57277E0,0E0,2.9496908E0,4.2835402E0,0E0,1.6323858E0,1.314578E0,6.918482E0,8.313613E0,0E0,0E0,0E0,0E0,0E0,0E0,0E0,0E0],"parents":[2147483647,0,0,1,1,2,2,4,4,5,5,7,7,8,8,9,9,10,10],"right_children":[2,4,6,-1,8,10,-1,12,14,16,18,-1,-1,-1,-1,-1,-1,-1,-1],"split_conditions":[-3.5476796E-2,9.7E-1,3.210066E-1,2.6945189E-2,2.8063233E0,1.01E0,4.4428196E-2,4.9E-1,2.0205007E-1,4.486222E1,2E-1,-2.6386177E-2,1.0080327E-2,-1.9206583E-2,-5.597772E-2,2.5038447E-3,-2.0610064E-2,-8.550906E-3,1.6419273E-2],"split_indices":[10,11,9,0,15,11,0,2,0,15,2,0,0,0,0,0,0,0,0],"split_type":[0,0,0,0,0,0,0,0,0,0,0,0,0,0,0,0,0,0,0],"sum_hessian":[3.443522E2,2.9400566E1,3.1495166E2,5.0453677E0,2.4355198E1,3.095165E2,5.435146E0,1.0483373E1,1.3871826E1,1.6247398E2,1.4704253E2,5.1702724E0,5.3131003E0,5.252683E0,8.6191435E0,1.19103004E2,4.337097E1,4.9644627E1,9.73979E1],"tree_param":{"num_deleted":"0","num_feature":"17","num_nodes":"19","size_leaf_vector":"1"}},{"base_weights":[-7.33739E-3,-4.989226E-2,2.221865E-2,1.7049752E-1,-6.3539945E-2,5.7105845E-1,2.0748766E-2,2.6244877E-3,-4.4890362E-1,1.1421732E-2,7.54967E-2,-1.1832069E-2,1.636283E-2,4.9019433E-3,-2.2977099E-2,2.1286046E-2,-3.475999E-2],"categories":[],"categories_nodes":[],"categories_segments":[],"categories_sizes":[],"default_left":[0,0,0,0,0,0,0,0,1,0,0,0,0,0,0,0,0],"id":40,"left_children":[1,-1,3,5,7,9,11,13,15,-1,-1,-1,-1,-1,-1,-1,-1],"loss_changes":[1.02956E1,0E0,4.356373E0,7.5156612E0,5.540222E0,1.0627981E1,7.365644E0,8.264834E0,7.1545987E0,0E0,0E0,0E0,0E0,0E0,0E0,0E0,0E0],"parents":[2147483647,0,0,2,2,3,3,4,4,5,5,6,6,7,7,8,8],"right_children":[2,-1,4,6,8,10,12,14,16,-1,-1,-1,-1,-1,-1,-1,-1],"split_conditions":[-4.438989E-2,-4.989226E-2,7.18E1,1.7391305E-1,8.40445E1,4.7786707E-1,6.3E-1,9.1E-1,4.743236E-2,1.1421732E-2,7.54967E-2,-1.1832069E-2,1.636283E-2,4.9019433E-3,-2.2977099E-2,2.1286046E-2,-3.475999E-2],"split_indices":[10,0,12,4,15,8,2,2,1,0,0,0,0,0,0,0,0],"split_type":[0,0,0,0,0,0,0,0,0,0,0,0,0,0,0,0,0],"sum_hessian":[3.499225E2,9.189654E0,3.4073285E2,1.2449302E2,2.1623982E2,3.311111E1,9.138191E1,1.854009E2,3.0838936E1,2.5169363E1,7.941748E0,4.9794712E1,4.15872E1,1.5432776E2,3.1073133E1,6.6160674E0,2.4222868E1],"tree_param":{"num_deleted":"0","num_feature":"17","num_nodes":"17","size_leaf_vector":"1"}},{"base_weights":[1.0690337E-2,-1.8121289E-1,9.5633365E-2,-4.937429E-1,-5.160608E-2,-4.1100107E-2,1.251459E-1,-2.2947347E-1,-9.01194E-1,1.2707646E-1,-4.9772418E-1,-2.616164E-2,1.5579267E-1,-2.3327237E-2,2.0996284E-2,-5.3092964E-2,-2.8346127E-2,-2.5381267E-3,3.782326E-2,-4.1362133E-2,-8.3576515E-4,2.3528503E-2,4.038404E-3],"categories":[],"categories_nodes":[],"categories_segments":[],"categories_sizes":[],"default_left":[1,0,0,0,1,0,0,1,0,0,1,0,0,0,0,0,0,0,0,0,0,0,0],"id":41,"left_children":[1,3,5,7,9,-1,11,13,15,17,19,-1,21,-1,-1,-1,-1,-1,-1,-1,-1,-1,-1],"loss_changes":[5.7680974E0,4.373057E0,6.743313E0,3.208169E0,6.270918E0,0E0,4.8192415E0,3.3641667E0,4.9768448E-2,6.351297E0,3.5483718E0,0E0,5.3567715E0,0E0,0E0,0E0,0E0,0E0,0E0,0E0,0E0,0E0,0E0],"parents":[2147483647,0,0,1,1,2,2,3,3,4,4,6,6,7,7,8,8,9,9,10,10,12,12],"right_children":[2,4,6,8,10,-1,12,14,16,18,20,-1,22,-1,-1,-1,-1,-1,-1,-1,-1,-1,-1],"split_conditions":[9.24E1,1.0602821E0,-4.438989E-2,1.019627E0,9.17E1,-4.1100107E-2,8E-2,2.1864642E-1,2.65625E-1,1.3712516E0,1.2348068E0,-2.616164E-2,9.34E1,-2.3327237E-2,2.0996284E-2,-5.3092964E-2,-2.8346127E-2,-2.5381267E-3,3.782326E-2,-4.1362133E-2,-8.3576515E-4,2.3528503E-2,4.038404E-3],"split_indices":[3,13,10,13,3,0,2,0,6,14,14,0,3,0,0,0,0,0,0,0,0,0,0],"split_type":[0,0,0,0,0,0,0,0,0,0,0,0,0,0,0,0,0,0,0,0,0,0,0],"sum_hessian":[3.5178964E2,1.0758971E2,2.4419992E2,3.0714975E1,7.687473E1,6.772404E0,2.3742752E2,1.9579235E1,1.113574E1,5.540047E1,2.1474258E1,9.990496E0,2.2743703E2,1.4549378E1,5.029857E0,6.0508184E0,5.084922E0,4.3912094E1,1.14883795E1,1.2316766E1,9.157493E0,4.2759724E1,1.846773E2],"tree_param":{"num_deleted":"0","num_feature":"17","num_nodes":"23","size_leaf_vector":"1"}},{"base_weights":[9.459066E-3,3.418519E-2,-6.8056023E-1,5.6724783E-2,-3.6966737E-2,-7.073114E-3,-5.2127548E-2,-5.715365E-1,7.928091E-2,-4.6200037E-2,-3.9446983E-3,2.7471298E-2,2.3618059E-3],"categories":[],"categories_nodes":[],"categories_segments":[],"categories_sizes":[],"default_left":[1,1,1,0,0,0,0,0,0,0,0,0,0],"id":42,"left_children":[1,3,5,7,-1,-1,-1,9,11,-1,-1,-1,-1],"loss_changes":[6.1108027E0,6.0640755E0,2.270616E0,4.8147154E0,0E0,0E0,0E0,1.9736581E0,4.882019E0,0E0,0E0,0E0,0E0],"parents":[2147483647,0,0,1,1,2,2,3,3,7,7,8,8],"right_children":[2,4,6,8,-1,-1,-1,10,12,-1,-1,-1,-1],"split_conditions":[1.6047627E0,1.1E1,8.5E0,2.832152E-1,-3.6966737E-2,-7.073114E-3,-5.2127548E-2,7.5171776E-2,3.2871628E-1,-4.6200037E-2,-3.9446983E-3,2.7471298E-2,2.3618059E-3],"split_indices":[14,16,16,8,0,0,0,1,8,0,0,0,0],"split_type":[0,0,0,0,0,0,0,0,0,0,0,0,0],"sum_hessian":[3.5579962E2,3.4440857E2,1.1391066E1,3.3555743E2,8.85114E0,5.134803E0,6.256263E0,1.0786277E1,3.2477115E2,5.777282E0,5.0089946E0,1.969344E1,3.050777E2],"tree_param":{"num_deleted":"0","num_feature":"17","num_nodes":"13","size_leaf_vector":"1"}},{"base_weights":[-1.921773E-2,5.4848466E-2,-2.8890792E-1,-1.4398004E-1,1.509276E-1,3.0567938E-1,-4.0837574E-1,-2.8586444E-1,1.6434492E-1,2.6723725E-1,-1.5194117E-1,-1.0978141E-2,4.3800622E-2,-5.0826323E-1,9.026462E-3,-7.473419E-3,-3.4366507E-2,2.182166E-2,-1.7832348E-2,4.7557395E-2,9.470932E-3,-3.8425203E-2,-2.8003564E-3,-6.963263E-3,-3.37194E-2],"categories":[],"categories_nodes":[],"categories_segments":[],"categories_sizes":[],"default_left":[1,0,0,0,0,0,0,0,1,0,0,0,0,0,0,0,0,0,0,0,0,0,0,0,0],"id":43,"left_children":[1,3,5,7,9,11,13,15,17,19,21,-1,-1,23,-1,-1,-1,-1,-1,-1,-1,-1,-1,-1,-1],"loss_changes":[7.130096E0,5.3756313E0,5.5872097E0,4.0637455E0,6.713988E0,4.2177596E0,3.8835897E0,3.3605762E0,4.347646E0,7.123868E0,3.103826E0,0E0,0E0,3.3005257E0,0E0,0E0,0E0,0E0,0E0,0E0,0E0,0E0,0E0,0E0,0E0],"parents":[2147483647,0,0,1,1,2,2,3,3,4,4,5,5,6,6,7,7,8,8,9,9,10,10,13,13],"right_children":[2,4,6,8,10,12,14,16,18,20,22,-1,-1,24,-1,-1,-1,-1,-1,-1,-1,-1,-1,-1,-1],"split_conditions":[9E0,2.0531756E-1,1.2280702E-1,2.5663114E-1,2.9624933E-1,1.4570016E0,2.650866E-1,3.0357143E-1,3.3E-1,5.83E1,2.9453635E0,-1.0978141E-2,4.3800622E-2,9.27E1,9.026462E-3,-7.473419E-3,-3.4366507E-2,2.182166E-2,-1.7832348E-2,4.7557395E-2,9.470932E-3,-3.8425203E-2,-2.8003564E-3,-6.963263E-3,-3.37194E-2],"split_indices":[16,0,6,9,0,13,9,6,2,12,5,0,0,3,0,0,0,0,0,0,0,0,0,0,0],"split_type":[0,0,0,0,0,0,0,0,0,0,0,0,0,0,0,0,0,0,0,0,0,0,0,0,0],"sum_hessian":[3.5515897E2,2.7926093E2,7.5898026E1,9.0819115E1,1.8844182E2,1.2437639E1,6.346039E1,6.2247173E1,2.8571941E1,1.3623978E2,5.220204E1,6.794939E0,5.6427E0,5.437455E1,9.085838E0,4.748625E1,1.47609215E1,1.887616E1,9.695781E0,1.277181E1,1.2346797E2,6.084774E0,4.6117268E1,1.7450857E1,3.692369E1],"tree_param":{"num_deleted":"0","num_feature":"17","num_nodes":"25","size_leaf_vector":"1"}},{"base_weights":[-4.613029E-2,1.1696825E-3,-4.46328E-1,-8.557137E-2,1.3284057E-1,1.9832224E-2,-6.528496E-1,4.5220402E-1,-1.3783374E-1,1.937407E-1,-5.111076E-1,-4.684811E-2,-4.268872E-1,5.5691358E-2,-4.277804E-3,-4.249069E-3,-4.680777E-2,2.7624581E-2,2.3542661E-3,-3.5641156E-2,-1.1227668E-2,2.5270565E-3,-3.1919762E-2],"categories":[],"categories_nodes":[],"categories_segments":[],"categories_sizes":[],"default_left":[0,0,0,0,0,0,1,0,0,0,1,0,0,0,0,0,0,0,0,0,0,0,0],"id":44,"left_children":[1,3,5,7,9,-1,11,13,15,17,19,-1,21,-1,-1,-1,-1,-1,-1,-1,-1,-1,-1],"loss_changes":[6.595026E0,3.581078E0,6.6699595E0,5.3751063E0,4.982224E0,0E0,1.5232105E0,6.1355815E0,7.222123E0,5.99738E0,4.7769737E-1,0E0,1.902704E0,0E0,0E0,0E0,0E0,0E0,0E0,0E0,0E0,0E0,0E0],"parents":[2147483647,0,0,1,1,2,2,3,3,4,4,6,6,7,7,8,8,9,9,10,10,12,12],"right_children":[2,4,6,8,10,-1,12,14,16,18,20,-1,22,-1,-1,-1,-1,-1,-1,-1,-1,-1,-1],"split_conditions":[9.5E0,8.6591825E-2,1.1764706E-1,-9.8909996E1,3.536908E-2,1.9832224E-2,1.2330543E0,2.9800728E-1,1.506069E0,6.88E1,1.1722727E0,-4.684811E-2,3.8214484E-1,5.5691358E-2,-4.277804E-3,-4.249069E-3,-4.680777E-2,2.7624581E-2,2.3542661E-3,-3.5641156E-2,-1.1227668E-2,2.5270565E-3,-3.1919762E-2],"split_indices":[16,1,6,15,10,0,13,7,13,12,13,0,8,0,0,0,0,0,0,0,0,0,0],"split_type":[0,0,0,0,0,0,0,0,0,0,0,0,0,0,0,0,0,0,0,0,0,0,0],"sum_hessian":[3.4737476E2,3.1154935E2,3.582541E1,1.8803036E2,1.23518974E2,6.868641E0,2.8956768E1,1.5976893E1,1.7205347E2,1.1348544E2,1.0033525E1,1.1433888E1,1.7522879E1,6.683159E0,9.293735E0,1.6240782E2,9.645655E0,3.212745E1,8.1357994E1,5.0154257E0,5.0181003E0,5.613286E0,1.1909593E1],"tree_param":{"num_deleted":"0","num_feature":"17","num_nodes":"23","size_leaf_vector":"1"}},{"base_weights":[-1.4967073E-2,-3.6103234E-2,4.7853507E-2,-3.9775487E-2,-1.3130816E-2,-2.147642E-1,6.665865E-2,2.4118414E-3,-2.4506409E-2,1.8609192E-2,-1.5203143E-3],"categories":[],"categories_nodes":[],"categories_segments":[],"categories_sizes":[],"default_left":[0,0,0,0,1,0,1,0,0,0,0],"id":45,"left_children":[1,3,-1,-1,5,7,9,-1,-1,-1,-1],"loss_changes":[7.2755394E0,6.0240245E0,0E0,0E0,5.432285E0,6.95559E0,7.1894646E0,0E0,0E0,0E0,0E0],"parents":[2147483647,0,0,1,1,4,4,5,5,6,6],"right_children":[2,4,-1,-1,6,8,10,-1,-1,-1,-1],"split_conditions":[3.210066E-1,-4.2928077E-2,4.7853507E-2,-3.9775487E-2,9.24E1,7.6E1,1.0531601E0,2.4118414E-3,-2.4506409E-2,1.8609192E-2,-1.5203143E-3],"split_indices":[9,10,0,0,3,12,13,0,0,0,0],"split_type":[0,0,0,0,0,0,0,0,0,0,0],"sum_hessian":[3.5144284E2,3.44906E2,6.5368433E0,9.139801E0,3.357662E2,9.471737E1,2.4104883E2,4.8868107E1,4.5849262E1,5.7433777E1,1.8361505E2],"tree_param":{"num_deleted":"0","num_feature":"17","num_nodes":"11","size_leaf_vector":"1"}},{"base_weights":[9.412197E-3,-6.071E-1,3.124454E-2,-4.47102E-2,-8.63927E-3,-3.3147804E-2,2.4908689E-1,2.5793296E-1,-9.677391E-2,-3.210829E-2,5.3431815E-1,3.3901777E-2,-8.876036E-3,2.8482415E-3,-1.1337667E-2,1.9653877E-2,-1.3229163E-2,3.7492633E-2,-2.5465688E-2],"categories":[],"categories_nodes":[],"categories_segments":[],"categories_sizes":[],"default_left":[0,0,0,0,0,0,0,0,0,0,1,0,0,0,0,0,0,0,0],"id":46,"left_children":[1,3,5,-1,-1,7,9,11,13,15,17,-1,-1,-1,-1,-1,-1,-1,-1],"loss_changes":[4.7661376E0,1.3557148E0,4.799703E0,0E0,0E0,4.9241276E0,6.277137E0,8.850608E0,4.365305E0,4.082114E0,9.110243E0,0E0,0E0,0E0,0E0,0E0,0E0,0E0,0E0],"parents":[2147483647,0,0,1,1,2,2,5,5,6,6,7,7,8,8,9,9,10,10],"right_children":[2,4,6,-1,-1,8,10,12,14,16,18,-1,-1,-1,-1,-1,-1,-1,-1],"split_conditions":[-4.0391378E-2,1.2127069E0,3.9730737E0,-4.47102E-2,-8.63927E-3,1.0394084E0,2.7272728E-1,3.2734168E-3,4.950422E0,4.288082E-2,3.6842105E-1,3.3901777E-2,-8.876036E-3,2.8482415E-3,-1.1337667E-2,1.9653877E-2,-1.3229163E-2,3.7492633E-2,-2.5465688E-2],"split_indices":[10,13,5,0,0,14,6,10,15,1,4,0,0,0,0,0,0,0,0],"split_type":[0,0,0,0,0,0,0,0,0,0,0,0,0,0,0,0,0,0,0],"sum_hessian":[3.5168964E2,1.1111462E1,3.4057816E2,6.0519385E0,5.0595226E0,2.6352905E2,7.704911E1,4.6723145E1,2.1680591E2,3.924594E1,3.780317E1,2.349721E1,2.3225935E1,9.958236E1,1.1722356E2,1.3628754E1,2.5617186E1,3.1565626E1,6.2375455E0],"tree_param":{"num_deleted":"0","num_feature":"17","num_nodes":"19","size_leaf_vector":"1"}},{"base_weights":[-1.2179791E-3,2.3011276E-2,-4.593851E-2,-3.962685E-2,2.8927824E-1,-1.446387E-1,1.5693879E-1,1.8482227E-2,7.46268E-1,-8.912193E-3,4.1827243E-2,-8.9485006E-4,2.7775822E-2,3.705504E-2,-9.202135E-3,-1.3710826E-3,5.046208E-2],"categories":[],"categories_nodes":[],"categories_segments":[],"categories_sizes":[],"default_left":[1,0,0,0,0,1,0,0,0,0,0,0,0,0,0,0,0],"id":47,"left_children":[1,3,-1,5,7,9,11,13,15,-1,-1,-1,-1,-1,-1,-1,-1],"loss_changes":[7.8026376E0,5.7153316E0,0E0,5.7557206E0,8.06103E0,6.135277E0,6.782748E0,6.282641E0,4.962223E0,0E0,0E0,0E0,0E0,0E0,0E0,0E0,0E0],"parents":[2147483647,0,0,1,1,3,3,4,4,5,5,6,6,7,7,8,8],"right_children":[2,4,-1,6,8,10,12,14,16,-1,-1,-1,-1,-1,-1,-1,-1],"split_conditions":[1.1E1,3.6363637E-1,-4.593851E-2,1.2887354E0,3.2123145E-1,8.9E-1,7.6E-1,-7.3484055E1,2.0392127E0,-8.912193E-3,4.1827243E-2,-8.9485006E-4,2.7775822E-2,3.705504E-2,-9.202135E-3,-1.3710826E-3,5.046208E-2],"split_indices":[16,6,0,14,7,2,2,15,5,0,0,0,0,0,0,0,0],"split_type":[0,0,0,0,0,0,0,0,0,0,0,0,0,0,0,0,0],"sum_hessian":[3.4901944E2,3.4099002E2,8.0294E0,2.7673947E2,6.4250565E1,1.8054861E2,9.619085E1,4.09974E1,2.3253168E1,1.7536092E2,5.187702E0,6.75258E1,2.8665049E1,8.392664E0,3.2604733E1,6.125925E0,1.7127243E1],"tree_param":{"num_deleted":"0","num_feature":"17","num_nodes":"17","size_leaf_vector":"1"}},{"base_weights":[5.246137E-2,1.728901E-1,-7.191984E-2,1.141531E-1,7.8369856E-1,-1.926017E-1,2.6665226E-1,-1.0864273E-1,2.838524E-1,3.7706222E-3,6.259799E-2,8.841E-2,-3.2731646E-1,7.631611E-1,-1.8345818E-1,8.133927E-3,-2.0220397E-2,4.0327784E-2,8.275987E-3,-2.0019172E-2,2.6211554E-2,-2.4531541E-2,4.4870027E-3,-2.9383093E-2,5.9364505E-2,-5.061257E-2,1.2404963E-2],"categories":[],"categories_nodes":[],"categories_segments":[],"categories_sizes":[],"default_left":[0,0,1,1,1,1,1,1,0,0,0,0,0,1,0,0,0,0,0,0,0,0,0,0,0,0,0],"id":48,"left_children":[1,3,5,7,9,11,13,15,17,-1,-1,19,21,23,25,-1,-1,-1,-1,-1,-1,-1,-1,-1,-1,-1,-1],"loss_changes":[5.3350673E0,6.3982315E0,7.2224765E0,6.312235E0,5.110448E0,4.949063E0,1.0540654E1,5.888113E0,5.716751E0,0E0,0E0,9.349377E0,6.0422535E0,1.3486863E1,9.270224E0,0E0,0E0,0E0,0E0,0E0,0E0,0E0,0E0,0E0,0E0,0E0,0E0],"parents":[2147483647,0,0,1,1,2,2,3,3,4,4,5,5,6,6,7,7,8,8,11,11,12,12,13,13,14,14],"right_children":[2,4,6,8,10,12,14,16,18,-1,-1,20,22,24,26,-1,-1,-1,-1,-1,-1,-1,-1,-1,-1,-1,-1],"split_conditions":[7.59E1,7.47E1,2.857143E-1,6.736085E-2,1.1427482E0,1.0795621E0,1.1607094E0,4.6759184E-2,7.4397355E-2,3.7706222E-3,6.259799E-2,2.39632E-1,1.038E0,-1.8338677E-2,9.37E1,8.133927E-3,-2.0220397E-2,4.0327784E-2,8.275987E-3,-2.0019172E-2,2.6211554E-2,-2.4531541E-2,4.4870027E-3,-2.9383093E-2,5.9364505E-2,-5.061257E-2,1.2404963E-2],"split_indices":[12,12,4,1,13,13,14,1,1,0,0,9,11,10,3,0,0,0,0,0,0,0,0,0,0,0,0],"split_type":[0,0,0,0,0,0,0,0,0,0,0,0,0,0,0,0,0,0,0,0,0,0,0,0,0,0,0],"sum_hessian":[3.5433798E2,1.7983127E2,1.7450673E2,1.6513805E2,1.469323E1,1.2896803E2,4.5538692E1,7.155469E1,9.358335E1,6.30994E0,8.38329E0,4.1903038E1,8.7064995E1,2.1322605E1,2.4216087E1,3.755419E1,3.4000496E1,1.6201504E1,7.738185E1,1.9789507E1,2.2113531E1,6.243843E1,2.462656E1,5.0029535E0,1.6319653E1,7.831105E0,1.6384983E1],"tree_param":{"num_deleted":"0","num_feature":"17","num_nodes":"27","size_leaf_vector":"1"}},{"base_weights":[-2.898876E-3,-5.9001535E-2,2.3893403E-1,-1.5480307E-1,1.8371342E-1,6.502813E-1,-1.5961138E-3,-6.300767E-1,-9.581688E-2,-1.8922986E-2,8.3512294E-1,2.9858825E-1,9.803092E-1,-3.035265E-2,1.8048579E-1,-9.226751E-3,-4.622909E-2,-2.2710925E-2,-3.5258086E-4,2.4081247E-2,-7.3313066E-3,7.325392E-2,2.303103E-3,-4.8836223E-3,3.8912695E-2,7.140556E-2,1.5424135E-2,2.7504284E-2,-1.2398436E-2],"categories":[],"categories_nodes":[],"categories_segments":[],"categories_sizes":[],"default_left":[0,0,1,1,0,0,1,0,0,0,0,0,0,0,0,0,0,0,0,0,0,0,0,0,0,0,0,0,0],"id":49,"left_children":[1,3,5,7,9,11,13,15,17,19,21,23,25,-1,27,-1,-1,-1,-1,-1,-1,-1,-1,-1,-1,-1,-1,-1,-1],"loss_changes":[4.8166256E0,6.727958E0,6.6155643E0,5.746267E0,1.0839302E1,2.5706892E0,4.8701825E0,2.8064613E0,5.8961697E0,4.1308794E0,9.614116E0,2.6193628E0,3.256527E0,0E0,5.51575E0,0E0,0E0,0E0,0E0,0E0,0E0,0E0,0E0,0E0,0E0,0E0,0E0,0E0,0E0],"parents":[2147483647,0,0,1,1,2,2,3,3,4,4,5,5,6,6,7,7,8,8,9,9,10,10,11,11,12,12,14,14],"right_children":[2,4,6,8,10,12,14,16,18,20,22,24,26,-1,28,-1,-1,-1,-1,-1,-1,-1,-1,-1,-1,-1,-1,-1,-1],"split_conditions":[3.5714287E-1,1.3615099E0,3.7373123E-1,2.9391786E-1,1.034E0,2.3463562E-1,1.0323962E0,1.1282729E0,-1.8855749E-2,2.2406416E-1,2.31E-1,5.4002013E-3,7.59E1,-3.035265E-2,2.2816162E-1,-9.226751E-3,-4.622909E-2,-2.2710925E-2,-3.5258086E-4,2.4081247E-2,-7.3313066E-3,7.325392E-2,2.303103E-3,-4.8836223E-3,3.8912695E-2,7.140556E-2,1.5424135E-2,2.7504284E-2,-1.2398436E-2],"split_indices":[6,14,8,8,11,9,13,13,10,9,6,10,12,0,9,0,0,0,0,0,0,0,0,0,0,0,0,0,0],"split_type":[0,0,0,0,0,0,0,0,0,0,0,0,0,0,0,0,0,0,0,0,0,0,0,0,0,0,0,0,0],"sum_hessian":[3.5297375E2,2.8712082E2,6.585295E1,2.0612416E2,8.099665E1,2.366989E1,4.218306E1,2.1688673E1,1.8443549E2,6.2519444E1,1.8477207E1,1.238093E1,1.12889595E1,9.213262E0,3.29698E1,9.2784195E0,1.2410254E1,3.579427E1,1.4864122E2,1.2144838E1,5.0374607E1,9.798071E0,8.679135E0,7.2160177E0,5.164912E0,6.098396E0,5.190564E0,1.7548212E1,1.5421586E1],"tree_param":{"num_deleted":"0","num_feature":"17","num_nodes":"29","size_leaf_vector":"1"}},{"base_weights":[-1.1739365E-2,2.4399111E-2,-3.6562175E-1,4.8879814E-1,-6.994211E-4,-4.5460887E-2,-1.6133238E-1,6.42907E-3,4.543447E-2,3.7305787E-1,-3.741521E-2,4.8035394E-2,-4.0909845E-2,3.877642E-3,6.188933E-2,9.0147846E-4,-1.5771998E-2,2.2451691E-2,-2.1731649E-2],"categories":[],"categories_nodes":[],"categories_segments":[],"categories_sizes":[],"default_left":[1,1,0,1,0,0,0,0,0,1,0,1,0,0,0,0,0,0,0],"id":50,"left_children":[1,3,5,7,9,-1,11,-1,-1,13,15,17,-1,-1,-1,-1,-1,-1,-1],"loss_changes":[4.4954414E0,3.7214203E0,3.4700756E0,2.3592446E0,4.1840143E0,0E0,3.4620483E0,0E0,0E0,6.87294E0,4.2849855E0,4.0307484E0,0E0,0E0,0E0,0E0,0E0,0E0,0E0],"parents":[2147483647,0,0,1,1,2,2,3,3,4,4,6,6,9,9,10,10,11,11],"right_children":[2,4,6,8,10,-1,12,-1,-1,14,16,18,-1,-1,-1,-1,-1,-1,-1],"split_conditions":[9.5E0,7E0,1E0,7.260182E-2,2.6364967E-1,-4.5460887E-2,1.7430767E-2,6.42907E-3,4.543447E-2,1.346347E0,8.26718E1,3.232039E-1,-4.0909845E-2,3.877642E-3,6.188933E-2,9.0147846E-4,-1.5771998E-2,2.2451691E-2,-2.1731649E-2],"split_indices":[16,16,11,1,7,0,10,0,0,14,15,7,0,0,0,0,0,0,0],"split_type":[0,0,0,0,0,0,0,0,0,0,0,0,0,0,0,0,0,0,0],"sum_hessian":[3.4981723E2,3.1824872E2,3.156851E1,1.537061E1,3.0287808E2,7.6805663E0,2.3887943E1,8.976267E0,6.3943424E0,2.6272285E1,2.766058E2,1.8817091E1,5.070853E0,2.039303E1,5.8792553E0,2.3139522E2,4.521059E1,1.0316161E1,8.50093E0],"tree_param":{"num_deleted":"0","num_feature":"17","num_nodes":"19","size_leaf_vector":"1"}}]},"name":"gbtree"},"learner_model_param":{"base_score":"[2.204097E-1]","boost_from_average":"1","num_class":"0","num_feature":"17","num_target":"1"},"objective":{"name":"binary:logistic","reg_loss_param":{"scale_pos_weight":"1"}}},"version":[3,2,0]}