{"learner":{"attributes":{"best_iteration":"3","best_score":"0.5364147178291251"},"feature_names":["pull_side_wind_vector","projected_total_adj","bias_offset","wind_mph","wind_bearing","temp_f","velocity_decay_risk","lineup_fragility","platoon_same_hand","batting_order","exp_pa_heuristic","ba","est_ba","slg","est_slg","woba","est_woba","avg_hit_angle","anglesweetspotpercent","max_hit_speed","avg_hit_speed","ev50","fbld","ev95percent","brl_percent","brl_pa","stand_L","stand_R","stand_S"],"feature_types":["float","float","float","float","float","float","float","float","float","float","float","float","float","float","float","float","float","float","float","float","float","float","float","float","float","float","int","int","int"],"gradient_booster":{"model":{"cats":{"enc":[],"feature_segments":[],"sorted_idx":[]},"gbtree_model_param":{"num_parallel_tree":"1","num_trees":"44"},"iteration_indptr":[0,1,2,3,4,5,6,7,8,9,10,11,12,13,14,15,16,17,18,19,20,21,22,23,24,25,26,27,28,29,30,31,32,33,34,35,36,37,38,39,40,41,42,43,44],"tree_info":[0,0,0,0,0,0,0,0,0,0,0,0,0,0,0,0,0,0,0,0,0,0,0,0,0,0,0,0,0,0,0,0,0,0,0,0,0,0,0,0,0,0,0,0],"trees":[{"base_weights":[-2.6245147E-3,1.516336E-1,-8.614914E-1,3.2952484E-1,-7.1247794E-2,-1.040481E0,-5.126268E-1,3.6958E-1,1.7009172E-1,4.3484505E-2,-1.8569581E-1,-1.0455425E0,-2.5916183E-2,-5.780975E-1,3.3892848E-2,3.445553E-1,5.301006E-1,1.4856867E-1,5.520722E-1,7.792622E-3,2.1473481E-1,-2.1434125E-1,-9.35863E-3,-1.0656992E0,-9.617677E-1,-5.7064176E-1,-4.7232762E-2,-1.4315669E-1,3.476487E-1,1.46420775E-2,2.0738991E-2,2.3981621E-2,3.854045E-2,5.0071892E-3,1.4837185E-2,5.039078E-2,2.041037E-2,-7.402144E-4,8.161219E-3,9.509691E-3,5.3244412E-2,-1.4530878E-2,-7.6609747E-3,-1.8805516E-3,3.197249E-2,-3.351938E-2,-5.3437006E-2,-2.2648904E-2,-4.9448315E-2,-2.8859753E-2,-5.9414646E-3,-6.8680337E-4,-3.804009E-2,2.80719E-2,-4.8421826E-3],"categories":[],"categories_nodes":[],"categories_segments":[],"categories_sizes":[],"default_left":[0,0,0,0,0,1,1,1,1,1,1,0,0,1,0,1,0,0,0,1,1,0,0,0,0,1,0,0,0,0,0,0,0,0,0,0,0,0,0,0,0,0,0,0,0,0,0,0,0,0,0,0,0,0,0],"id":0,"left_children":[1,3,5,7,9,11,13,15,17,19,21,23,-1,25,27,29,31,33,35,37,39,41,43,45,47,49,-1,51,53,-1,-1,-1,-1,-1,-1,-1,-1,-1,-1,-1,-1,-1,-1,-1,-1,-1,-1,-1,-1,-1,-1,-1,-1,-1,-1],"loss_changes":[2.526918E3,6.410985E2,1.8080371E2,5.7362244E1,9.425794E1,4.5283203E0,3.5324677E1,2.8682495E1,1.4777206E1,2.1912077E1,1.8149696E1,2.1813965E0,0E0,1.8692322E0,5.965967E0,2.2465088E1,1.1381165E1,1.2257004E1,5.885414E0,1.0426522E1,1.2697748E1,1.4367462E1,9.248317E0,1.1124268E0,4.7904053E0,2.4959717E0,0E0,5.488452E0,3.7329211E0,0E0,0E0,0E0,0E0,0E0,0E0,0E0,0E0,0E0,0E0,0E0,0E0,0E0,0E0,0E0,0E0,0E0,0E0,0E0,0E0,0E0,0E0,0E0,0E0,0E0,0E0],"parents":[2147483647,0,0,1,1,2,2,3,3,4,4,5,5,6,6,7,7,8,8,9,9,10,10,11,11,13,13,14,14,15,15,16,16,17,17,18,18,19,19,20,20,21,21,22,22,23,23,24,24,25,25,27,27,28,28],"right_children":[2,4,6,8,10,12,14,16,18,20,22,24,-1,26,28,30,32,34,36,38,40,42,44,46,48,50,-1,52,54,-1,-1,-1,-1,-1,-1,-1,-1,-1,-1,-1,-1,-1,-1,-1,-1,-1,-1,-1,-1,-1,-1,-1,-1,-1,-1],"split_conditions":[1.800001E1,6E0,1.063E2,5E0,8E0,3.49E-1,3.7E-1,2.73E-1,2.67E-1,8.6E1,3.35E-1,8.48E1,-2.5916183E-2,2.99E-1,3.35E-1,7.83E1,3.1E-1,8.35E1,3.191668E-1,3.13E-1,2.65E-1,7.46E1,8.3807737E-1,2.73E-1,8.51E1,2.09E-1,-4.7232762E-2,2.63E-1,2.82E-1,1.46420775E-2,2.0738991E-2,2.3981621E-2,3.854045E-2,5.0071892E-3,1.4837185E-2,5.039078E-2,2.041037E-2,-7.402144E-4,8.161219E-3,9.509691E-3,5.3244412E-2,-1.4530878E-2,-7.6609747E-3,-1.8805516E-3,3.197249E-2,-3.351938E-2,-5.3437006E-2,-2.2648904E-2,-4.9448315E-2,-2.8859753E-2,-5.9414646E-3,-6.8680337E-4,-3.804009E-2,2.80719E-2,-4.8421826E-3],"split_indices":[9,9,5,9,9,15,14,11,12,5,14,5,0,15,15,5,11,5,7,16,12,5,7,16,5,12,0,12,11,0,0,0,0,0,0,0,0,0,0,0,0,0,0,0,0,0,0,0,0,0,0,0,0,0,0],"split_type":[0,0,0,0,0,0,0,0,0,0,0,0,0,0,0,0,0,0,0,0,0,0,0,0,0,0,0,0,0,0,0,0,0,0,0,0,0,0,0,0,0,0,0,0,0,0,0,0,0,0,0,0,0,0,0],"sum_hessian":[1.9070938E4,1.61679E4,2.9030376E3,8.991177E3,7.176724E3,1.9173389E3,9.856987E2,7.184789E3,1.8063878E3,3.5842205E3,3.5925034E3,1.8979387E3,1.9400085E1,8.8019714E2,1.0550159E2,6.21849E3,9.6629865E2,1.7113491E3,9.503862E1,2.9669053E3,6.1731506E2,3.090281E3,5.0222244E2,1.5204E3,3.7753876E2,8.651566E2,1.5040516E1,6.779131E1,3.7710278E1,3.5842205E3,2.63427E3,8.0128894E2,1.6500972E2,1.2910867E3,4.2026254E2,2.1361893E1,7.367673E1,2.5911104E3,3.7579492E2,6.011847E2,1.613041E1,1.3730465E3,1.7172346E3,4.8216843E2,2.0054022E1,1.3296688E1,1.5071033E3,2.0054022E1,3.5748474E2,8.5251385E2,1.2642753E1,5.6892387E1,1.0898925E1,2.5285505E1,1.2424774E1],"tree_param":{"num_deleted":"0","num_feature":"29","num_nodes":"55","size_leaf_vector":"1"}},{"base_weights":[-3.0042725E-3,1.4416431E-1,-8.362306E-1,3.169567E-1,-7.332839E-2,-1.0183287E0,-4.9253473E-1,3.7651438E-1,2.2695963E-1,3.600175E-2,-1.8280089E-1,-1.0307395E0,-8.094333E-1,-5.450392E-1,-7.609066E-2,3.4558553E-1,5.2433157E-1,9.065346E-2,2.5075826E-1,1.2107132E-2,2.9523215E-1,-2.0959437E-1,-1.9939773E-2,-1.0550373E0,-9.256393E-1,-1.0436743E0,-6.63504E-1,-1.0130369E-2,-5.495525E-1,-1.7142372E-1,3.1970512E-2,1.666071E-2,3.086637E-2,2.537851E-2,5.9083015E-2,6.7220703E-3,-1.4953892E-2,1.56085435E-2,9.458789E-3,-4.760837E-4,6.9706016E-3,9.675375E-3,2.964949E-2,-1.6787125E-2,-8.914991E-3,-1.4280721E-4,-3.735959E-2,-6.759942E-2,-5.244581E-2,-2.413764E-2,-4.758325E-2,-3.5113852E-2,-5.6845564E-2,-4.684758E-2,-1.987872E-2,-4.6536095E-2,-2.7131885E-2,1.5258242E-2,-1.2049106E-2],"categories":[],"categories_nodes":[],"categories_segments":[],"categories_sizes":[],"default_left":[0,0,0,0,0,1,1,1,0,1,1,0,0,0,0,0,1,0,0,1,0,0,0,0,0,0,0,0,0,0,0,0,0,0,0,0,0,0,0,0,0,0,0,0,0,0,0,0,0,0,0,0,0,0,0,0,0,0,0],"id":1,"left_children":[1,3,5,7,9,11,13,15,17,19,21,23,25,27,29,31,33,35,37,39,41,43,45,47,49,51,53,-1,55,57,-1,-1,-1,-1,-1,-1,-1,-1,-1,-1,-1,-1,-1,-1,-1,-1,-1,-1,-1,-1,-1,-1,-1,-1,-1,-1,-1,-1,-1],"loss_changes":[2.3444587E3,6.1067865E2,1.7912E2,4.8450684E1,8.6118546E1,4.0269775E0,2.1733948E1,2.4724304E1,1.1683197E1,2.2299145E1,1.5683998E1,3.5338135E0,3.0611954E0,1.255249E0,7.7945733E0,1.4949036E1,9.764404E0,9.220848E0,1.1557724E1,9.081509E0,9.088093E0,1.21276245E1,6.3219957E0,1.1763916E0,3.457428E0,4.877472E-1,4.747257E0,0E0,1.7936707E0,3.3954716E0,0E0,0E0,0E0,0E0,0E0,0E0,0E0,0E0,0E0,0E0,0E0,0E0,0E0,0E0,0E0,0E0,0E0,0E0,0E0,0E0,0E0,0E0,0E0,0E0,0E0,0E0,0E0,0E0,0E0],"parents":[2147483647,0,0,1,1,2,2,3,3,4,4,5,5,6,6,7,7,8,8,9,9,10,10,11,11,12,12,13,13,14,14,15,15,16,16,17,17,18,18,19,19,20,20,21,21,22,22,23,23,24,24,25,25,26,26,28,28,29,29],"right_children":[2,4,6,8,10,12,14,16,18,20,22,24,26,28,30,32,34,36,38,40,42,44,46,48,50,52,54,-1,56,58,-1,-1,-1,-1,-1,-1,-1,-1,-1,-1,-1,-1,-1,-1,-1,-1,-1,-1,-1,-1,-1,-1,-1,-1,-1,-1,-1,-1,-1],"split_conditions":[1.800001E1,6E0,1.053E2,4E0,8E0,3.26E-1,3.7E-1,8.6E1,1.0268349E-1,2.53E-1,3.35E-1,8.48E1,1.6838712E-1,3.37E-1,5.14E-1,8.113579E-1,4.07E-1,9.3503416E-2,5E0,1.2E1,8.23E1,1.4206877E-1,3.47E-1,7.388611E-3,8.51E1,4.6E0,6.9E0,-1.0130369E-2,2.54E-1,2.26E-1,3.1970512E-2,1.666071E-2,3.086637E-2,2.537851E-2,5.9083015E-2,6.7220703E-3,-1.4953892E-2,1.56085435E-2,9.458789E-3,-4.760837E-4,6.9706016E-3,9.675375E-3,2.964949E-2,-1.6787125E-2,-8.914991E-3,-1.4280721E-4,-3.735959E-2,-6.759942E-2,-5.244581E-2,-2.413764E-2,-4.758325E-2,-3.5113852E-2,-5.6845564E-2,-4.684758E-2,-1.987872E-2,-4.6536095E-2,-2.7131885E-2,1.5258242E-2,-1.2049106E-2],"split_indices":[9,9,5,9,9,16,14,5,7,11,14,5,7,14,14,7,16,7,9,3,5,7,16,7,5,3,3,0,12,11,0,0,0,0,0,0,0,0,0,0,0,0,0,0,0,0,0,0,0,0,0,0,0,0,0,0,0,0,0],"split_type":[0,0,0,0,0,0,0,0,0,0,0,0,0,0,0,0,0,0,0,0,0,0,0,0,0,0,0,0,0,0,0,0,0,0,0,0,0,0,0,0,0,0,0,0,0,0,0,0,0,0,0,0,0,0,0,0,0,0,0],"sum_hessian":[1.9116988E4,1.6248011E4,2.8689778E3,9.054213E3,7.1937974E3,1.874082E3,9.9489575E2,5.4466084E3,3.6076045E3,3.5995745E3,3.594223E3,1.7652697E3,1.08812386E2,8.83231E2,1.1166476E2,4.5069287E3,9.396793E2,5.3696387E2,3.0706406E3,3.2967432E3,3.0283133E2,3.086202E3,5.0802103E2,1.426456E3,3.3881354E2,3.9406452E1,6.940593E1,1.208672E1,8.711443E2,9.920689E1,1.2457871E1,4.31281E3,1.9411876E2,9.180421E2,2.1637186E1,4.8331628E2,5.3647575E1,1.5354034E3,1.5352372E3,2.8187666E3,4.7797668E2,2.2694777E2,7.588356E1,6.1150433E2,2.4746978E3,4.9734207E2,1.0678964E1,2.436858E1,1.4020875E3,1.9889906E1,3.189236E2,1.02837105E1,2.9122744E1,3.29752E1,3.643073E1,1.3141406E1,8.5800287E2,1.22037945E1,8.700309E1],"tree_param":{"num_deleted":"0","num_feature":"29","num_nodes":"59","size_leaf_vector":"1"}},{"base_weights":[-2.0882355E-3,1.3583447E-1,-7.995625E-1,2.9696742E-1,-6.784196E-2,-9.805856E-1,-4.472793E-1,3.5586253E-1,2.0849323E-1,3.8953274E-2,-1.7595664E-1,-9.880363E-1,-4.0941206E-1,-4.7905153E-1,2.4813607E-1,3.3870053E-1,6.098348E-1,1.4375414E-1,2.8590694E-1,5.83562E-3,1.5710944E-1,-1.9987452E-1,-3.4907848E-2,-9.979404E-1,-6.528518E-1,-3.8606748E-5,-3.9951492E-2,6.1243378E-2,-4.9172017E-1,3.968114E-1,-7.2824447E-3,1.241584E-2,1.924065E-2,1.2358934E-2,3.335279E-2,5.92203E-3,1.7122552E-2,1.1112628E-2,2.136982E-2,-1.2717838E-3,5.904115E-3,6.615722E-3,3.7834067E-2,-9.730383E-3,-3.9935004E-2,8.005406E-3,-4.210466E-3,-4.963925E-2,-6.0315084E-2,-4.2938273E-2,-2.8242735E-2,-1.6523074E-2,2.384497E-2,-2.5183637E-2,-1.4337407E-2,-2.1965402E-4,3.8321823E-2],"categories":[],"categories_nodes":[],"categories_segments":[],"categories_sizes":[],"default_left":[0,0,0,0,0,1,1,1,1,1,1,0,0,0,0,1,0,1,0,1,1,1,1,0,0,0,0,0,1,0,0,0,0,0,0,0,0,0,0,0,0,0,0,0,0,0,0,0,0,0,0,0,0,0,0,0,0],"id":2,"left_children":[1,3,5,7,9,11,13,15,17,19,21,23,25,27,29,31,33,35,37,39,41,43,45,47,49,-1,-1,51,53,55,-1,-1,-1,-1,-1,-1,-1,-1,-1,-1,-1,-1,-1,-1,-1,-1,-1,-1,-1,-1,-1,-1,-1,-1,-1,-1,-1],"loss_changes":[2.0990579E3,5.339917E2,1.7900891E2,4.7259705E1,8.299138E1,7.5023193E0,2.1263336E1,2.3557861E1,1.8165222E1,1.4150602E1,1.20425415E1,5.4344482E0,4.080238E0,6.2966003E0,2.5443184E0,2.1199402E1,6.970749E0,9.920036E0,1.4796417E1,9.921795E0,1.1669624E1,9.475616E0,5.0040464E0,7.1325684E-1,5.2072144E-1,0E0,0E0,3.7173758E0,2.047409E0,4.6152554E0,0E0,0E0,0E0,0E0,0E0,0E0,0E0,0E0,0E0,0E0,0E0,0E0,0E0,0E0,0E0,0E0,0E0,0E0,0E0,0E0,0E0,0E0,0E0,0E0,0E0,0E0,0E0],"parents":[2147483647,0,0,1,1,2,2,3,3,4,4,5,5,6,6,7,7,8,8,9,9,10,10,11,11,12,12,13,13,14,14,15,15,16,16,17,17,18,18,19,19,20,20,21,21,22,22,23,23,24,24,27,27,28,28,29,29],"right_children":[2,4,6,8,10,12,14,16,18,20,22,24,26,28,30,32,34,36,38,40,42,44,46,48,50,-1,-1,52,54,56,-1,-1,-1,-1,-1,-1,-1,-1,-1,-1,-1,-1,-1,-1,-1,-1,-1,-1,-1,-1,-1,-1,-1,-1,-1,-1,-1],"split_conditions":[1.800001E1,6E0,2.24E1,4E0,8E0,4.72E-1,3.33E-1,5.24E-1,8.261949E0,1.9251213E1,3.32E-1,4.6046333E1,5.06E-1,2.26E-1,2.82E-1,-1.208368E0,3.8E0,2.62E-1,1.8907575E-1,2.83E-1,2.6E-1,3.57E2,-7.4339217E-1,3.52E2,1.72E2,-3.8606748E-5,-3.9951492E-2,2.18E-1,2.41E-1,2.51E-1,-7.2824447E-3,1.241584E-2,1.924065E-2,1.2358934E-2,3.335279E-2,5.92203E-3,1.7122552E-2,1.1112628E-2,2.136982E-2,-1.2717838E-3,5.904115E-3,6.615722E-3,3.7834067E-2,-9.730383E-3,-3.9935004E-2,8.005406E-3,-4.210466E-3,-4.963925E-2,-6.0315084E-2,-4.2938273E-2,-2.8242735E-2,-1.6523074E-2,2.384497E-2,-2.5183637E-2,-1.4337407E-2,-2.1965402E-4,3.8321823E-2],"split_indices":[9,9,3,9,9,13,15,13,6,6,13,6,13,11,11,6,3,11,0,15,12,4,0,4,4,0,0,11,12,12,0,0,0,0,0,0,0,0,0,0,0,0,0,0,0,0,0,0,0,0,0,0,0,0,0,0,0],"split_type":[0,0,0,0,0,0,0,0,0,0,0,0,0,0,0,0,0,0,0,0,0,0,0,0,0,0,0,0,0,0,0,0,0,0,0,0,0,0,0,0,0,0,0,0,0,0,0,0,0,0,0,0,0,0,0,0,0],"sum_hessian":[1.9082125E4,1.6269205E4,2.81292E3,9.082991E3,7.186214E3,1.8569368E3,9.5598315E2,5.4512227E3,3.6317688E3,3.6154885E3,3.570725E3,1.8323053E3,2.463136E1,9.145119E2,4.1471207E1,5.108363E3,3.4286005E2,1.979348E3,1.6524208E3,2.8247866E3,7.9070197E2,3.0526628E3,5.180623E2,1.7777971E3,5.4508213E1,1.2511255E1,1.2120105E1,2.086402E1,8.936479E2,3.009937E1,1.1371839E1,1.7279132E3,3.3804495E3,4.7450073E1,2.9540997E2,1.7570942E3,2.222538E2,1.1414618E3,5.1095895E2,2.2098955E3,6.148911E2,7.6047363E2,3.0228329E1,3.0273613E3,2.530163E1,1.0408765E2,4.1397467E2,1.7404972E3,3.729991E1,1.3697352E1,4.081086E1,1.0847008E1,1.0017012E1,8.430308E2,5.061707E1,1.4906944E1,1.5192424E1],"tree_param":{"num_deleted":"0","num_feature":"29","num_nodes":"57","size_leaf_vector":"1"}},{"base_weights":[2.0578309E-4,1.3068911E-1,-7.656814E-1,2.8533268E-1,-6.715793E-2,-9.37344E-1,-4.3450525E-1,3.4189788E-1,1.9971468E-1,3.9166987E-2,-1.7480588E-1,-9.4370604E-1,-1.6086575E-2,-4.8606315E-1,-2.8877158E-2,3.3313066E-1,8.5913146E-1,1.8132712E-1,4.2865324E-1,2.500901E-2,4.3616188E-1,-2.959464E-1,-1.4080176E-1,-9.610641E-1,-7.170466E-1,-2.454974E-3,-4.9128288E-1,-1.6825402E-1,4.3537587E-1,1.4491192E-2,2.1331554E-2,5.912159E-2,3.748815E-2,-3.995874E-3,9.740403E-3,6.084188E-4,2.5544813E-2,-1.473532E-3,5.870126E-3,1.4794692E-2,4.218578E-2,-1.586377E-2,-3.1423708E-4,1.0047463E-3,-7.946611E-3,-2.4469914E-2,-4.819969E-2,-5.1386036E-2,-3.1083986E-2,-5.249064E-2,-2.414683E-2,8.492137E-3,-1.7382104E-2,3.5649527E-2,5.621593E-3],"categories":[],"categories_nodes":[],"categories_segments":[],"categories_sizes":[],"default_left":[0,0,0,0,0,1,1,1,1,1,0,0,0,0,0,1,0,0,0,1,0,1,0,0,0,0,0,0,0,0,0,0,0,0,0,0,0,0,0,0,0,0,0,0,0,0,0,0,0,0,0,0,0,0,0],"id":3,"left_children":[1,3,5,7,9,11,13,15,17,19,21,23,-1,25,27,29,31,33,35,37,39,41,43,45,47,-1,49,51,53,-1,-1,-1,-1,-1,-1,-1,-1,-1,-1,-1,-1,-1,-1,-1,-1,-1,-1,-1,-1,-1,-1,-1,-1,-1,-1],"loss_changes":[1.9031688E3,4.9786624E2,1.5719385E2,4.4164062E1,8.172319E1,6.843994E0,1.98172E1,2.4647156E1,1.5228134E1,2.0182056E1,1.4572968E1,6.415283E0,0E0,1.8946228E0,7.0615377E0,2.1775757E1,2.3315048E0,1.1874733E1,9.227722E0,1.7469893E1,6.819088E0,4.796623E0,8.089943E0,1.841919E0,3.2835388E0,0E0,3.3678436E0,5.1406193E0,2.1805325E0,0E0,0E0,0E0,0E0,0E0,0E0,0E0,0E0,0E0,0E0,0E0,0E0,0E0,0E0,0E0,0E0,0E0,0E0,0E0,0E0,0E0,0E0,0E0,0E0,0E0,0E0],"parents":[2147483647,0,0,1,1,2,2,3,3,4,4,5,5,6,6,7,7,8,8,9,9,10,10,11,11,13,13,14,14,15,15,16,16,17,17,18,18,19,19,20,20,21,21,22,22,23,23,24,24,26,26,27,27,28,28],"right_children":[2,4,6,8,10,12,14,16,18,20,22,24,-1,26,28,30,32,34,36,38,40,42,44,46,48,-1,50,52,54,-1,-1,-1,-1,-1,-1,-1,-1,-1,-1,-1,-1,-1,-1,-1,-1,-1,-1,-1,-1,-1,-1,-1,-1,-1,-1],"split_conditions":[1.800001E1,6E0,2.36E1,4E0,8E0,3.49E-1,3E-1,5.88E-1,3.264E1,2.64E-1,1.6317154E-1,3.3661293E1,-1.6086575E-2,3.37E-1,3.48E-1,1.4551077E1,2.1236743E-1,3.403691E-2,4.42E-1,7.98E1,8.23E1,3.02E-1,2.42E-1,2.72E-1,4.4E0,-2.454974E-3,3.78E-1,3.12E-1,2.72E-1,1.4491192E-2,2.1331554E-2,5.912159E-2,3.748815E-2,-3.995874E-3,9.740403E-3,6.084188E-4,2.5544813E-2,-1.473532E-3,5.870126E-3,1.4794692E-2,4.218578E-2,-1.586377E-2,-3.1423708E-4,1.0047463E-3,-7.946611E-3,-2.4469914E-2,-4.819969E-2,-5.1386036E-2,-3.1083986E-2,-5.249064E-2,-2.414683E-2,8.492137E-3,-1.7382104E-2,3.5649527E-2,5.621593E-3],"split_indices":[9,9,3,9,9,15,16,13,6,12,7,6,0,14,16,6,7,7,14,5,5,16,12,16,3,0,14,15,12,0,0,0,0,0,0,0,0,0,0,0,0,0,0,0,0,0,0,0,0,0,0,0,0,0,0],"split_type":[0,0,0,0,0,0,0,0,0,0,0,0,0,0,0,0,0,0,0,0,0,0,0,0,0,0,0,0,0,0,0,0,0,0,0,0,0,0,0,0,0,0,0,0,0,0,0,0,0,0,0,0,0,0,0],"sum_hessian":[1.9041967E4,1.6270765E4,2.7712024E3,9.132259E3,7.138506E3,1.8239445E3,9.4725793E2,5.4973403E3,3.6349182E3,3.5916423E3,3.5468635E3,1.8047603E3,1.9184284E1,8.402576E2,1.0700033E2,5.407329E3,9.0011154E1,3.3663374E3,2.6858072E2,3.4689912E3,1.2265118E2,7.7570215E2,2.7711614E3,1.6733701E3,1.3139008E2,1.0041627E1,8.30216E2,8.278454E1,2.4215784E1,3.6984216E3,1.7089073E3,2.0272589E1,6.973856E1,1.6494624E2,3.201391E3,4.4479763E1,2.2410094E2,2.182667E3,1.2863241E3,9.253081E1,3.0120369E1,7.2241254E2,5.3289597E1,2.8063046E2,2.490531E3,1.1367206E1,1.6620029E3,2.856341E1,1.0282667E2,1.0386255E1,8.198297E2,2.8716017E1,5.4068527E1,1.2372307E1,1.1843478E1],"tree_param":{"num_deleted":"0","num_feature":"29","num_nodes":"55","size_leaf_vector":"1"}},{"base_weights":[5.6517455E-3,1.3052067E-1,-7.4389136E-1,2.7591395E-1,-5.6991734E-2,-9.246643E-1,-4.2624465E-1,3.2990947E-1,1.9403447E-1,3.8211875E-2,-1.5396354E-1,-9.3048006E-1,-4.5397574E-1,-4.7529304E-1,-3.4736875E-2,3.2137844E-1,8.3539605E-1,7.463324E-2,2.301443E-1,-3.4292493E-2,9.136536E-2,-1.7886685E-1,9.049981E-3,-2.5015209E-2,-9.33131E-1,-3.317516E-2,-9.591726E-3,-4.6749845E-1,-4.7097974E-2,-1.2379473E-1,2.7693411E-2,1.3919348E-2,2.0204155E-2,3.505552E-2,7.7079974E-2,9.328768E-4,1.378535E-2,1.0606638E-2,2.1576779E-2,-5.540853E-3,1.5613064E-3,1.496619E-2,2.7621274E-3,-1.399775E-2,-7.1720416E-3,-1.989535E-2,2.5155505E-3,-5.5137426E-2,-4.619724E-2,2.7297726E-3,-2.3702318E-2,7.870873E-3,-1.05898185E-2],"categories":[],"categories_nodes":[],"categories_segments":[],"categories_sizes":[],"default_left":[0,0,0,0,0,1,1,1,0,1,1,0,0,1,0,1,0,1,0,0,1,1,0,0,0,0,0,0,0,0,0,0,0,0,0,0,0,0,0,0,0,0,0,0,0,0,0,0,0,0,0,0,0],"id":4,"left_children":[1,3,5,7,9,11,13,15,17,19,21,23,25,27,29,31,33,35,37,39,41,43,45,-1,47,-1,-1,49,-1,51,-1,-1,-1,-1,-1,-1,-1,-1,-1,-1,-1,-1,-1,-1,-1,-1,-1,-1,-1,-1,-1,-1,-1],"loss_changes":[1.7858792E3,4.4593362E2,1.5607092E2,4.066748E1,6.5961685E1,4.3289795E0,1.8996796E1,2.3666504E1,1.5778473E1,1.3899273E1,1.4370224E1,1.4873047E0,1.1435332E0,2.7599335E0,5.903577E0,1.9300598E1,7.5957108E0,9.586155E0,1.0110046E1,7.6543674E0,1.56145E1,1.0955513E1,7.9121537E0,0E0,1.6328125E0,0E0,0E0,2.9910278E0,0E0,2.4462247E0,0E0,0E0,0E0,0E0,0E0,0E0,0E0,0E0,0E0,0E0,0E0,0E0,0E0,0E0,0E0,0E0,0E0,0E0,0E0,0E0,0E0,0E0,0E0],"parents":[2147483647,0,0,1,1,2,2,3,3,4,4,5,5,6,6,7,7,8,8,9,9,10,10,11,11,12,12,13,13,14,14,15,15,16,16,17,17,18,18,19,19,20,20,21,21,22,22,24,24,27,27,29,29],"right_children":[2,4,6,8,10,12,14,16,18,20,22,24,26,28,30,32,34,36,38,40,42,44,46,-1,48,-1,-1,50,-1,52,-1,-1,-1,-1,-1,-1,-1,-1,-1,-1,-1,-1,-1,-1,-1,-1,-1,-1,-1,-1,-1,-1,-1],"split_conditions":[1.800001E1,6E0,4.6046333E1,4E0,8E0,4.73E-1,3.7E-1,5.88E-1,-8.026076E0,2.7622757E0,3.41E-1,2.72E-1,7.5E0,3.67E-1,5.11E-1,1.32E1,4.2858365E-1,3.24E-1,1.1404362E0,1E0,-1.0188391E0,-6.222216E0,-2.5439716E1,-2.5015209E-2,3.7E-1,-3.317516E-2,-9.591726E-3,3.5E-1,-4.7097974E-2,3.11E-1,2.7693411E-2,1.3919348E-2,2.0204155E-2,3.505552E-2,7.7079974E-2,9.328768E-4,1.378535E-2,1.0606638E-2,2.1576779E-2,-5.540853E-3,1.5613064E-3,1.496619E-2,2.7621274E-3,-1.399775E-2,-7.1720416E-3,-1.989535E-2,2.5155505E-3,-5.5137426E-2,-4.619724E-2,2.7297726E-3,-2.3702318E-2,7.870873E-3,-1.05898185E-2],"split_indices":[9,9,6,9,9,13,14,13,6,6,13,16,3,13,14,6,0,16,0,27,0,6,6,0,14,0,0,14,0,16,0,0,0,0,0,0,0,0,0,0,0,0,0,0,0,0,0,0,0,0,0,0,0],"split_type":[0,0,0,0,0,0,0,0,0,0,0,0,0,0,0,0,0,0,0,0,0,0,0,0,0,0,0,0,0,0,0,0,0,0,0,0,0,0,0,0,0,0,0,0,0,0,0,0,0,0,0,0,0],"sum_hessian":[1.907896E4,1.635513E4,2.7238308E3,9.211923E3,7.1432075E3,1.7347006E3,9.891302E2,5.5493613E3,3.662561E3,3.6047715E3,3.5384358E3,1.7125636E3,2.2136963E1,8.7881726E2,1.1031289E2,5.4588687E3,9.049279E1,8.511626E2,2.8113984E3,1.5249746E3,2.0797969E3,3.0694272E3,4.6900873E2,1.1651079E1,1.7009126E3,1.145221E1,1.0684752E1,8.6634875E2,1.2468543E1,9.650157E1,1.3811317E1,3.5946597E3,1.864209E3,7.7709076E1,1.2783718E1,6.666662E2,1.8449637E2,2.5824858E3,2.2891257E2,7.030885E2,8.218861E2,3.0672128E2,1.7730756E3,7.947384E2,2.2746887E3,4.237924E1,4.266295E2,8.126999E1,1.6196426E3,1.06398945E1,8.557088E2,2.2813013E1,7.368856E1],"tree_param":{"num_deleted":"0","num_feature":"29","num_nodes":"53","size_leaf_vector":"1"}},{"base_weights":[-1.708293E-3,1.1299672E-1,-4.625493E-1,7.3397174E-2,2.803669E-1,-5.77212E-1,1.824061E-1,2.9303081E-2,1.0772297E-1,2.0895766E-1,3.8268086E-1,-6.823231E-1,1.9108878E-1,4.5284003E-2,4.9477157E-1,-2.8499112E-1,3.7604004E-2,1.0458321E-1,6.646613E-1,1.8927412E-1,5.135269E-1,3.5477242E-1,7.962589E-1,-8.538319E-1,-3.9487845E-1,-4.495605E-1,2.8195098E-1,-2.0350388E-1,1.2517168E-1,6.560547E-1,1.4673749E-1,-3.462401E-3,-2.4264349E-2,-8.0667064E-4,4.1666212E-3,3.719261E-3,7.799001E-3,4.977427E-2,7.188678E-3,3.864929E-3,1.2862258E-2,-8.765246E-3,3.465653E-2,1.5202704E-2,2.2818236E-2,4.566114E-2,2.2462117E-3,-4.478754E-2,4.851841E-3,-2.2584653E-2,-1.3520208E-3,-6.543562E-3,-3.5597604E-2,-3.6449467E-3,1.6700065E-2,4.9125464E-3,-2.2387056E-2,8.491309E-3,-1.3050774E-2,1.7735867E-2,4.531861E-2,2.097308E-2,-8.723716E-3],"categories":[],"categories_nodes":[],"categories_segments":[],"categories_sizes":[],"default_left":[0,1,0,0,0,0,1,0,0,0,0,0,0,1,0,0,0,0,0,0,0,0,0,0,1,0,0,0,0,0,0,0,0,0,0,0,0,0,0,0,0,0,0,0,0,0,0,0,0,0,0,0,0,0,0,0,0,0,0,0,0,0,0],"id":5,"left_children":[1,3,5,7,9,11,13,15,17,19,21,23,25,27,29,31,33,35,37,39,41,43,45,47,49,51,53,55,57,59,61,-1,-1,-1,-1,-1,-1,-1,-1,-1,-1,-1,-1,-1,-1,-1,-1,-1,-1,-1,-1,-1,-1,-1,-1,-1,-1,-1,-1,-1,-1,-1,-1],"loss_changes":[1.00781903E3,1.0115805E2,2.811032E2,1.8683884E1,2.1257385E1,2.606847E2,2.457694E1,1.4113569E1,1.2069229E1,1.0227402E1,1.3559708E1,1.395907E2,2.277446E1,7.979801E0,9.732601E0,5.982086E0,1.2945047E1,1.0704025E1,6.530632E0,1.2304302E1,1.2983257E1,5.659195E0,6.5505295E0,7.090918E1,2.2193192E1,3.9801588E0,6.329132E0,7.241295E0,5.279201E0,8.682251E0,5.0434804E0,0E0,0E0,0E0,0E0,0E0,0E0,0E0,0E0,0E0,0E0,0E0,0E0,0E0,0E0,0E0,0E0,0E0,0E0,0E0,0E0,0E0,0E0,0E0,0E0,0E0,0E0,0E0,0E0,0E0,0E0,0E0,0E0],"parents":[2147483647,0,0,1,1,2,2,3,3,4,4,5,5,6,6,7,7,8,8,9,9,10,10,11,11,12,12,13,13,14,14,15,15,16,16,17,17,18,18,19,19,20,20,21,21,22,22,23,23,24,24,25,25,26,26,27,27,28,28,29,29,30,30],"right_children":[2,4,6,8,10,12,14,16,18,20,22,24,26,28,30,32,34,36,38,40,42,44,46,48,50,52,54,56,58,60,62,-1,-1,-1,-1,-1,-1,-1,-1,-1,-1,-1,-1,-1,-1,-1,-1,-1,-1,-1,-1,-1,-1,-1,-1,-1,-1,-1,-1,-1,-1,-1,-1],"split_conditions":[5.099233E0,3.18E-1,1E0,7.42E1,2.63E-1,1E0,9.88E1,1.4E1,1.94E1,7.092097E-1,3.0112387E1,9.81E1,6.26E1,6.9E1,2.69E2,3.7131107E-1,7.9E0,4.3200415E-1,1.140039E1,1.77E2,-2.268E1,7.88E1,2.83E2,1E0,2.25E-1,8.1E0,6.1034642E-2,6.3E1,9.39E1,7.1E0,4.2878208E-1,-3.462401E-3,-2.4264349E-2,-8.0667064E-4,4.1666212E-3,3.719261E-3,7.799001E-3,4.977427E-2,7.188678E-3,3.864929E-3,1.2862258E-2,-8.765246E-3,3.465653E-2,1.5202704E-2,2.2818236E-2,4.566114E-2,2.2462117E-3,-4.478754E-2,4.851841E-3,-2.2584653E-2,-1.3520208E-3,-6.543562E-3,-3.5597604E-2,-3.6449467E-3,1.6700065E-2,4.9125464E-3,-2.2387056E-2,8.491309E-3,-1.3050774E-2,1.7735867E-2,4.531861E-2,2.097308E-2,-8.723716E-3],"split_indices":[0,16,27,5,12,26,5,4,3,0,6,5,5,4,4,7,3,7,6,4,6,5,4,28,12,3,7,5,5,3,7,0,0,0,0,0,0,0,0,0,0,0,0,0,0,0,0,0,0,0,0,0,0,0,0,0,0,0,0,0,0,0,0],"split_type":[0,0,0,0,0,0,0,0,0,0,0,0,0,0,0,0,0,0,0,0,0,0,0,0,0,0,0,0,0,0,0,0,0,0,0,0,0,0,0,0,0,0,0,0,0,0,0,0,0,0,0,0,0,0,0,0,0,0,0,0,0,0,0],"sum_hessian":[1.906355E4,1.5264832E4,3.7987178E3,1.2345373E4,2.9194592E3,3.225399E3,5.7331885E2,5.4046035E3,6.9407695E3,1.7212019E3,1.1982572E3,2.8373352E3,3.880636E2,3.992161E2,1.7410277E2,1.3821199E2,5.266391E3,6.903041E3,3.7728355E1,1.6182407E3,1.0296127E2,1.1242501E3,7.400714E1,1.775802E3,1.0615333E3,4.771164E1,3.4035196E2,9.6657104E1,3.02559E2,1.18365685E2,5.573709E1,6.718802E1,7.102397E1,2.421468E3,2.8449233E3,4.349788E3,2.5532532E3,2.2516584E1,1.521177E1,6.120636E2,1.0061771E3,2.1298668E1,8.1662605E1,7.525464E2,3.7170377E2,6.385159E1,1.0155551E1,1.700877E3,7.492497E1,9.1931256E2,1.4222075E2,2.2221336E1,2.5490301E1,4.3486267E1,2.968657E2,4.3504753E1,5.3152348E1,2.7170248E2,3.0856495E1,5.4806076E1,6.355961E1,2.9978252E1,2.5758837E1],"tree_param":{"num_deleted":"0","num_feature":"29","num_nodes":"63","size_leaf_vector":"1"}},{"base_weights":[-1.5221954E-3,1.0846661E-1,-4.510351E-1,7.4780464E-2,2.8196302E-1,-5.568238E-1,1.1466122E-1,4.0458515E-3,9.640654E-2,2.1946882E-1,3.8296354E-1,-6.5452516E-1,1.5541106E-1,3.526243E-1,-5.601823E-3,-5.101791E-1,1.04645165E-2,6.43078E-2,1.3859488E-1,1.7834572E-1,4.1406396E-1,1.0439281E-1,4.2512465E-1,-8.372875E-1,-3.718097E-1,-3.5701826E-1,2.3295635E-1,-1.577255E-1,4.855011E-1,3.1754456E-2,-3.6336165E-2,-4.938158E-2,-1.1245562E-2,-1.3378989E-4,8.909823E-3,-4.7119595E-3,3.7404918E-3,5.028624E-3,1.0920234E-2,-1.9802872E-2,9.532335E-3,3.382025E-3,2.5288919E-2,1.1065434E-2,-2.1533439E-2,-8.543892E-3,2.2451246E-2,-4.406893E-2,8.738541E-3,-2.0339109E-2,8.417083E-3,-8.158143E-3,-3.950424E-2,9.241256E-3,4.1256186E-2,-2.4746088E-2,1.1681206E-2,5.65019E-3,3.209961E-2,-8.02415E-3,3.371669E-3],"categories":[],"categories_nodes":[],"categories_segments":[],"categories_sizes":[],"default_left":[0,1,0,0,0,0,0,0,0,0,0,0,1,1,0,0,0,0,0,0,0,0,0,0,0,0,0,0,0,0,0,0,0,0,0,0,0,0,0,0,0,0,0,0,0,0,0,0,0,0,0,0,0,0,0,0,0,0,0,0,0],"id":6,"left_children":[1,3,5,7,9,11,13,15,17,19,21,23,25,27,29,31,33,35,37,39,41,43,45,47,49,51,53,55,57,-1,59,-1,-1,-1,-1,-1,-1,-1,-1,-1,-1,-1,-1,-1,-1,-1,-1,-1,-1,-1,-1,-1,-1,-1,-1,-1,-1,-1,-1,-1,-1],"loss_changes":[9.415324E2,8.939743E1,2.2409802E2,1.9600632E1,1.5615387E1,2.1957721E2,1.69043E1,9.911573E0,1.328009E1,1.2240746E1,1.1106018E1,1.4300671E2,1.523353E1,1.3523754E1,7.768011E0,4.8202286E0,6.5361214E0,9.289612E0,1.284256E1,9.064224E0,8.471569E0,7.985333E0,1.1818024E1,7.529309E1,2.0675308E1,4.111389E0,9.303305E0,5.620865E0,9.113041E0,0E0,4.8580656E0,0E0,0E0,0E0,0E0,0E0,0E0,0E0,0E0,0E0,0E0,0E0,0E0,0E0,0E0,0E0,0E0,0E0,0E0,0E0,0E0,0E0,0E0,0E0,0E0,0E0,0E0,0E0,0E0,0E0,0E0],"parents":[2147483647,0,0,1,1,2,2,3,3,4,4,5,5,6,6,7,7,8,8,9,9,10,10,11,11,12,12,13,13,14,14,15,15,16,16,17,17,18,18,19,19,20,20,21,21,22,22,23,23,24,24,25,25,26,26,27,27,28,28,30,30],"right_children":[2,4,6,8,10,12,14,16,18,20,22,24,26,28,30,32,34,36,38,40,42,44,46,48,50,52,54,56,58,-1,60,-1,-1,-1,-1,-1,-1,-1,-1,-1,-1,-1,-1,-1,-1,-1,-1,-1,-1,-1,-1,-1,-1,-1,-1,-1,-1,-1,-1,-1,-1],"split_conditions":[5.099233E0,3.2E-1,1E0,-8.026076E0,7.88E1,1E0,4.2878208E-1,3.32E-1,3.9320543E-1,5.16E-1,2.44E-1,9.39E1,6.28E1,7.56E1,3.65E-1,5.71E1,7.525788E-1,3.02E-1,9.3E0,2.94E-1,9E1,3.53E-1,3.9E-1,1E0,1E0,1E0,1.43E1,3.1131607E-1,5.4E0,3.1754456E-2,8.2E0,-4.938158E-2,-1.1245562E-2,-1.3378989E-4,8.909823E-3,-4.7119595E-3,3.7404918E-3,5.028624E-3,1.0920234E-2,-1.9802872E-2,9.532335E-3,3.382025E-3,2.5288919E-2,1.1065434E-2,-2.1533439E-2,-8.543892E-3,2.2451246E-2,-4.406893E-2,8.738541E-3,-2.0339109E-2,8.417083E-3,-8.158143E-3,-3.950424E-2,9.241256E-3,4.1256186E-2,-2.4746088E-2,1.1681206E-2,5.65019E-3,3.209961E-2,-8.02415E-3,3.371669E-3],"split_indices":[0,15,27,6,5,26,7,13,7,13,11,5,5,5,13,5,7,16,3,16,4,16,14,28,28,8,3,7,3,0,3,0,0,0,0,0,0,0,0,0,0,0,0,0,0,0,0,0,0,0,0,0,0,0,0,0,0,0,0,0,0],"split_type":[0,0,0,0,0,0,0,0,0,0,0,0,0,0,0,0,0,0,0,0,0,0,0,0,0,0,0,0,0,0,0,0,0,0,0,0,0,0,0,0,0,0,0,0,0,0,0,0,0,0,0,0,0,0,0,0,0,0,0,0,0],"sum_hessian":[1.9041416E4,1.5298798E4,3.7426187E3,1.281254E4,2.4862578E3,3.1530034E3,5.896153E2,3.0003096E3,9.81223E3,1.5378713E3,9.483866E2,2.7727327E3,3.8027075E2,1.9729596E2,3.9231934E2,3.602122E1,2.9642883E3,5.5738926E3,4.238338E3,1.2711584E3,2.6671286E2,1.2512496E2,8.232616E2,1.6828726E3,1.0898601E3,4.950846E1,3.307623E2,4.0718487E1,1.5657747E2,1.7058224E1,3.752611E2,1.2551564E1,2.3469658E1,2.7498462E3,2.1444208E2,3.4577808E2,5.2281143E3,2.872231E3,1.3661068E3,2.5997324E1,1.2451611E3,5.619412E1,2.1051874E2,1.0316816E2,2.1956802E1,3.1503656E1,7.9175793E2,1.6127415E3,7.013115E1,1.0238191E3,6.6040985E1,3.5150608E1,1.4357854E1,3.0711237E2,2.3649923E1,2.1730398E1,1.8988089E1,4.6829887E1,1.0974758E2,1.7060628E2,2.0465483E2],"tree_param":{"num_deleted":"0","num_feature":"29","num_nodes":"61","size_leaf_vector":"1"}},{"base_weights":[2.7288527E-3,1.0801682E-1,-6.6644216E-1,-6.1576292E-2,2.3936298E-1,-8.39466E-1,-3.500206E-1,-1.507367E-1,2.5360359E-2,1.1598126E-1,2.69857E-1,-8.45028E-1,-4.3367416E-1,-3.910704E-1,5.203872E-2,-1.7582138E-1,-6.1377804E-3,1.9860733E-2,6.6348886E-1,-7.3293015E-2,1.4281352E-1,2.4247135E-1,3.6365855E-1,-8.537159E-1,-5.909128E-1,-3.5077386E-2,-7.4382224E-3,5.7776682E-2,-4.0246737E-1,-1.013837E-1,2.9498756E-1,-1.2121658E-2,-5.334262E-3,6.309205E-4,-2.6187113E-2,4.5509054E-4,1.5692826E-2,4.4954E-2,1.3842051E-2,-1.2082956E-2,8.426028E-3,2.6554107E-3,1.1002104E-2,1.185954E-2,3.3281185E-2,3.543539E-3,1.9440148E-2,-4.990714E-2,-4.2260602E-2,-4.7841903E-2,-2.3712113E-2,-1.6196635E-2,2.1388112E-2,-1.9680122E-2,-3.429397E-2,1.8711088E-2,-1.6585244E-2,2.7925601E-2,2.5840127E-3],"categories":[],"categories_nodes":[],"categories_segments":[],"categories_sizes":[],"default_left":[0,0,0,0,0,1,1,1,1,0,1,0,0,0,0,0,0,1,0,1,0,1,0,0,0,0,0,0,1,0,0,0,0,0,0,0,0,0,0,0,0,0,0,0,0,0,0,0,0,0,0,0,0,0,0,0,0,0,0],"id":7,"left_children":[1,3,5,7,9,11,13,15,17,19,21,23,25,27,29,31,33,35,37,39,41,43,45,47,49,-1,-1,51,53,55,57,-1,-1,-1,-1,-1,-1,-1,-1,-1,-1,-1,-1,-1,-1,-1,-1,-1,-1,-1,-1,-1,-1,-1,-1,-1,-1,-1,-1],"loss_changes":[1.3441495E3,3.6720868E2,1.4170483E2,5.5777763E1,3.4920837E1,3.4163818E0,1.5181313E1,1.2884323E1,1.2775321E1,9.369167E0,1.9044617E1,3.1434326E0,1.7820005E0,4.287628E0,3.2347753E0,1.39153595E1,5.115093E0,1.1428169E1,2.5845785E0,9.3828125E0,1.1171818E1,1.2730591E1,1.2348694E1,1.1159668E0,2.0169659E0,0E0,0E0,3.1773827E0,1.7728882E0,5.9786325E0,2.1214132E0,0E0,0E0,0E0,0E0,0E0,0E0,0E0,0E0,0E0,0E0,0E0,0E0,0E0,0E0,0E0,0E0,0E0,0E0,0E0,0E0,0E0,0E0,0E0,0E0,0E0,0E0,0E0,0E0],"parents":[2147483647,0,0,1,1,2,2,3,3,4,4,5,5,6,6,7,7,8,8,9,9,10,10,11,11,12,12,13,13,14,14,15,15,16,16,17,17,18,18,19,19,20,20,21,21,22,22,23,23,24,24,27,27,28,28,29,29,30,30],"right_children":[2,4,6,8,10,12,14,16,18,20,22,24,26,28,30,32,34,36,38,40,42,44,46,48,50,-1,-1,52,54,56,58,-1,-1,-1,-1,-1,-1,-1,-1,-1,-1,-1,-1,-1,-1,-1,-1,-1,-1,-1,-1,-1,-1,-1,-1,-1,-1,-1,-1],"split_conditions":[9.20001E0,3.8E0,2.24E1,3.4E0,4E0,4.72E-1,2.43E-1,3.32E-1,5.9752365E1,-1.840784E1,8.41E1,4.4776558E1,7.4E0,2.26E-1,4.6E-1,3.2E0,3.36E-1,2.64E-1,4.2878208E-1,1E0,-1.9521591E-1,5.88E-1,4.01E-1,3.7E-1,4.7E0,-3.5077386E-2,-7.4382224E-3,2.17E-1,3.65E-1,3.11E-1,2.64E-1,-1.2121658E-2,-5.334262E-3,6.309205E-4,-2.6187113E-2,4.5509054E-4,1.5692826E-2,4.4954E-2,1.3842051E-2,-1.2082956E-2,8.426028E-3,2.6554107E-3,1.1002104E-2,1.185954E-2,3.3281185E-2,3.543539E-3,1.9440148E-2,-4.990714E-2,-4.2260602E-2,-4.7841903E-2,-2.3712113E-2,-1.6196635E-2,2.1388112E-2,-1.9680122E-2,-3.429397E-2,1.8711088E-2,-1.6585244E-2,2.7925601E-2,2.5840127E-3],"split_indices":[10,10,3,10,10,13,11,13,6,6,5,6,3,11,14,10,15,12,7,8,0,13,14,14,3,0,0,11,13,15,12,0,0,0,0,0,0,0,0,0,0,0,0,0,0,0,0,0,0,0,0,0,0,0,0,0,0,0,0],"split_type":[0,0,0,0,0,0,0,0,0,0,0,0,0,0,0,0,0,0,0,0,0,0,0,0,0,0,0,0,0,0,0,0,0,0,0,0,0,0,0,0,0,0,0,0,0,0,0,0,0,0,0,0,0,0,0,0,0,0,0],"sum_hessian":[1.907593E4,1.6483275E4,2.5926548E3,7.1944233E3,9.288851E3,1.6750568E3,9.1759796E2,3.5514236E3,3.643E3,1.8417516E3,7.4470996E3,1.6513402E3,2.371661E1,8.3261615E2,8.4981804E1,3.0262253E3,5.2519824E2,3.6128938E3,3.0106115E1,2.284609E2,1.6132906E3,5.766993E3,1.6801063E3,1.5944675E3,5.6872665E1,1.1470056E1,1.2246554E1,2.0517256E1,8.120989E2,5.2445267E1,3.253654E1,1.5399741E3,1.4862512E3,5.0777386E2,1.7424343E1,3.4863403E3,1.2655341E2,1.7883858E1,1.2222259E1,1.3468513E2,9.377577E1,7.4713684E2,8.661538E2,5.6974546E3,6.9538536E1,1.3317714E2,1.5469292E3,8.21908E1,1.5122767E3,1.2008386E1,4.4864277E1,1.0159895E1,1.0357362E1,7.8978375E2,2.2315174E1,1.690736E1,3.5537907E1,1.4997429E1,1.7539112E1],"tree_param":{"num_deleted":"0","num_feature":"29","num_nodes":"59","size_leaf_vector":"1"}},{"base_weights":[-8.7805634E-4,1.0044357E-1,-6.512699E-1,2.2828364E-1,-6.599389E-2,-8.122571E-1,-3.615678E-1,2.588598E-1,1.0345635E-1,2.2559155E-2,-1.5704747E-1,-8.2007223E-1,-4.3173096E-1,-4.1174465E-1,-7.4235545E-3,2.2061828E-1,3.100211E-1,8.627587E-2,5.1653445E-1,-1.0352845E-2,1.4662068E-1,-1.7543402E-1,3.1503662E-2,-8.4682244E-1,-7.163433E-1,-4.2831335E-2,-1.7357183E-1,-3.910663E-2,-2.0213619E-2,-7.033936E-2,2.1398274E-2,1.0689178E-2,2.4800774E-2,3.665795E-2,1.5019928E-2,1.3520385E-3,9.224581E-3,5.5140086E-2,1.700119E-2,6.732765E-3,-1.9396925E-3,6.4166957E-3,4.786135E-2,-1.1821467E-2,-6.0606017E-3,-1.032733E-2,7.1058213E-3,-4.191008E-2,-5.3978194E-2,-3.699874E-2,2.56359E-3,2.3169063E-2,-4.086428E-2,7.560335E-3,-8.6853495E-3],"categories":[],"categories_nodes":[],"categories_segments":[],"categories_sizes":[],"default_left":[0,0,0,0,0,1,1,1,1,1,1,0,0,0,0,1,0,0,0,1,0,1,0,0,0,0,0,0,0,0,0,0,0,0,0,0,0,0,0,0,0,0,0,0,0,0,0,0,0,0,0,0,0,0,0],"id":8,"left_children":[1,3,5,7,9,11,13,15,17,19,21,23,25,27,29,31,33,35,37,39,41,43,45,47,49,-1,51,-1,-1,53,-1,-1,-1,-1,-1,-1,-1,-1,-1,-1,-1,-1,-1,-1,-1,-1,-1,-1,-1,-1,-1,-1,-1,-1,-1],"loss_changes":[1.2557983E3,3.5083447E2,1.1950049E2,3.55661E1,5.7762978E1,4.553711E0,1.6332832E1,1.4585602E1,1.2988724E1,1.4833291E1,1.2250252E1,3.8771973E0,3.7258692E0,1.9122925E0,3.183165E0,7.968216E0,1.2814484E1,1.025968E1,7.1928196E0,1.1849022E1,1.1167677E1,1.061525E1,8.314983E0,1.6618042E0,6.1652985E0,0E0,9.901972E0,0E0,0E0,2.349105E0,0E0,0E0,0E0,0E0,0E0,0E0,0E0,0E0,0E0,0E0,0E0,0E0,0E0,0E0,0E0,0E0,0E0,0E0,0E0,0E0,0E0,0E0,0E0,0E0,0E0],"parents":[2147483647,0,0,1,1,2,2,3,3,4,4,5,5,6,6,7,7,8,8,9,9,10,10,11,11,12,12,13,13,14,14,15,15,16,16,17,17,18,18,19,19,20,20,21,21,22,22,23,23,24,24,26,26,29,29],"right_children":[2,4,6,8,10,12,14,16,18,20,22,24,26,28,30,32,34,36,38,40,42,44,46,48,50,-1,52,-1,-1,54,-1,-1,-1,-1,-1,-1,-1,-1,-1,-1,-1,-1,-1,-1,-1,-1,-1,-1,-1,-1,-1,-1,-1,-1,-1],"split_conditions":[1.800001E1,6E0,2.24E1,5E0,8E0,2.7E-1,2.97E-1,7.83E1,2.71E-1,2.85E-1,3.63E-1,8.48E1,1.6317154E-1,2.42E-1,5.11E-1,3.1E-1,8.524663E0,7.95E1,2.9782662E-1,-1.0054711E0,9.88E1,7.53E1,6.74E1,8.39E1,6.126229E-1,-4.2831335E-2,2.578772E-1,-3.910663E-2,-2.0213619E-2,3.1E-1,2.1398274E-2,1.0689178E-2,2.4800774E-2,3.665795E-2,1.5019928E-2,1.3520385E-3,9.224581E-3,5.5140086E-2,1.700119E-2,6.732765E-3,-1.9396925E-3,6.4166957E-3,4.786135E-2,-1.1821467E-2,-6.0606017E-3,-1.032733E-2,7.1058213E-3,-4.191008E-2,-5.3978194E-2,-3.699874E-2,2.56359E-3,2.3169063E-2,-4.086428E-2,7.560335E-3,-8.6853495E-3],"split_indices":[9,9,3,9,9,11,16,5,12,15,14,5,7,11,14,11,6,5,7,0,5,5,5,5,7,0,7,0,0,15,0,0,0,0,0,0,0,0,0,0,0,0,0,0,0,0,0,0,0,0,0,0,0,0,0],"split_type":[0,0,0,0,0,0,0,0,0,0,0,0,0,0,0,0,0,0,0,0,0,0,0,0,0,0,0,0,0,0,0,0,0,0,0,0,0,0,0,0,0,0,0,0,0,0,0,0,0,0,0,0,0,0,0],"sum_hessian":[1.9054484E4,1.6486908E4,2.5675762E3,9.324455E3,7.162454E3,1.649273E3,9.1830316E2,7.488973E3,1.8354816E3,3.6314673E3,3.530987E3,1.6149503E3,3.4322548E1,8.041979E2,1.1410528E2,4.288649E3,3.2003242E3,1.7633502E3,7.2131256E1,2.8707966E3,7.6067065E2,3.2173196E3,3.1366736E2,1.2781664E3,3.3678397E2,1.209597E1,2.222658E1,1.3853057E1,7.903448E2,1.0043096E2,1.3674311E1,4.1865254E3,1.0212377E2,6.948819E1,3.130836E3,1.10075E3,6.6260034E2,1.5477174E1,5.6654083E1,4.7012128E2,2.4006755E3,7.450217E2,1.5648897E1,1.5125094E3,1.7048102E3,9.9235306E1,2.1443205E2,1.2369503E3,4.1216045E1,3.2676044E2,1.0023508E1,1.1312768E1,1.0913811E1,3.1803743E1,6.862722E1],"tree_param":{"num_deleted":"0","num_feature":"29","num_nodes":"55","size_leaf_vector":"1"}},{"base_weights":[2.6523045E-3,9.314532E-2,-3.8066494E-1,5.9334226E-2,2.4940854E-1,-4.8454097E-1,1.646987E-1,5.5113668E-3,7.885897E-2,1.7905742E-1,3.4395185E-1,-6.481939E-1,-2.7896357E-1,4.5400735E-2,4.34979E-1,-5.6075975E-2,4.2556345E-2,7.545476E-2,6.31557E-1,7.656793E-1,1.6958159E-1,3.1894916E-1,6.35118E-1,-7.194198E-1,-2.893401E-1,-3.3316016E-1,1.3336504E-1,6.60959E-1,8.722716E-3,5.879627E-1,6.5770656E-2,6.892393E-3,-4.9388097E-3,3.2319643E-3,-8.144873E-3,-2.7977384E-3,4.2409515E-3,4.4312377E-2,2.45363E-2,2.6271781E-2,4.748947E-2,-2.9156022E-4,1.0111206E-2,-7.2690763E-4,1.6926771E-2,5.6778867E-2,2.450045E-2,-3.6882516E-2,-2.0875556E-3,-1.766909E-2,2.1450384E-2,-1.880867E-2,-1.1831509E-3,4.1471343E-2,1.6735118E-3,4.0692523E-2,2.1325711E-2,-4.5905607E-3,9.501314E-3,2.583829E-2,6.221273E-2,-4.027875E-3,3.0057454E-2],"categories":[],"categories_nodes":[],"categories_segments":[],"categories_sizes":[],"default_left":[0,1,0,0,0,0,1,0,0,0,0,0,1,0,0,0,0,0,0,0,0,0,0,0,0,1,0,0,1,1,0,0,0,0,0,0,0,0,0,0,0,0,0,0,0,0,0,0,0,0,0,0,0,0,0,0,0,0,0,0,0,0,0],"id":9,"left_children":[1,3,5,7,9,11,13,15,17,19,21,23,25,27,29,31,33,35,37,39,41,43,45,47,49,51,53,55,57,59,61,-1,-1,-1,-1,-1,-1,-1,-1,-1,-1,-1,-1,-1,-1,-1,-1,-1,-1,-1,-1,-1,-1,-1,-1,-1,-1,-1,-1,-1,-1,-1,-1],"loss_changes":[6.594787E2,8.12489E1,2.0578223E2,1.3289143E1,1.8134079E1,1.0244446E2,1.8736816E1,7.685159E0,1.7412205E1,8.600758E0,8.286423E0,4.3182495E1,3.0296913E1,9.131167E0,1.0016201E1,1.0490126E1,9.552934E0,1.1355476E1,1.5977821E0,5.926924E-1,8.858765E0,7.0322723E0,6.066963E0,1.7460388E1,1.3162363E1,1.5923325E1,1.0957253E1,4.6813965E-1,6.9975095E0,5.232239E0,4.222308E0,0E0,0E0,0E0,0E0,0E0,0E0,0E0,0E0,0E0,0E0,0E0,0E0,0E0,0E0,0E0,0E0,0E0,0E0,0E0,0E0,0E0,0E0,0E0,0E0,0E0,0E0,0E0,0E0,0E0,0E0,0E0,0E0],"parents":[2147483647,0,0,1,1,2,2,3,3,4,4,5,5,6,6,7,7,8,8,9,9,10,10,11,11,12,12,13,13,14,14,15,15,16,16,17,17,18,18,19,19,20,20,21,21,22,22,23,23,24,24,25,25,26,26,27,27,28,28,29,29,30,30],"right_children":[2,4,6,8,10,12,14,16,18,20,22,24,26,28,30,32,34,36,38,40,42,44,46,48,50,52,54,56,58,60,62,-1,-1,-1,-1,-1,-1,-1,-1,-1,-1,-1,-1,-1,-1,-1,-1,-1,-1,-1,-1,-1,-1,-1,-1,-1,-1,-1,-1,-1,-1,-1,-1],"split_conditions":[5.099233E0,4.08E-1,1E0,-5.967052E0,2.67E-1,2.6140415E1,3.9482178E1,7.5E0,1.94E1,4.13E-1,5.88E-1,4.834115E-1,3.17E-1,3.67E-1,2.7E2,3.5E0,9.659258E-1,3.02E-1,2E1,-1.1854173E-1,4.01E-1,2.9E1,2.1236743E-1,1E0,1E0,2.43E2,2.32E-1,6.6E0,2.27E2,2.56E-1,9.2E0,6.892393E-3,-4.9388097E-3,3.2319643E-3,-8.144873E-3,-2.7977384E-3,4.2409515E-3,4.4312377E-2,2.45363E-2,2.6271781E-2,4.748947E-2,-2.9156022E-4,1.0111206E-2,-7.2690763E-4,1.6926771E-2,5.6778867E-2,2.450045E-2,-3.6882516E-2,-2.0875556E-3,-1.766909E-2,2.1450384E-2,-1.880867E-2,-1.1831509E-3,4.1471343E-2,1.6735118E-3,4.0692523E-2,2.1325711E-2,-4.5905607E-3,9.501314E-3,2.583829E-2,6.221273E-2,-4.027875E-3,3.0057454E-2],"split_indices":[0,14,27,6,11,6,6,3,3,14,13,7,15,13,4,3,0,16,3,0,13,4,7,28,28,4,11,3,4,12,3,0,0,0,0,0,0,0,0,0,0,0,0,0,0,0,0,0,0,0,0,0,0,0,0,0,0,0,0,0,0,0,0],"split_type":[0,0,0,0,0,0,0,0,0,0,0,0,0,0,0,0,0,0,0,0,0,0,0,0,0,0,0,0,0,0,0,0,0,0,0,0,0,0,0,0,0,0,0,0,0,0,0,0,0,0,0,0,0,0,0,0,0,0,0,0,0,0,0],"sum_hessian":[1.9009957E4,1.5379858E4,3.6300989E3,1.2645169E4,2.7346892E3,3.04939E3,5.807091E2,3.3664187E3,9.278751E3,1.5696113E3,1.165078E3,1.6966185E3,1.3527714E3,4.0369275E2,1.7701637E2,1.2641888E3,2.1022297E3,9.22308E3,5.5670837E1,2.368263E1,1.5459287E3,1.074873E3,9.02049E1,1.4148016E3,2.8181683E2,1.1957885E3,1.5698283E2,2.174422E1,3.8194852E2,1.2473796E2,5.2278416E1,2.2772827E2,1.0364606E3,1.8988228E3,2.0340715E2,6.131879E2,8.609892E3,1.7937744E1,3.7733093E1,1.1947006E1,1.1735624E1,2.4267505E2,1.3032537E3,5.9641315E1,1.01523175E3,1.8741741E1,7.146316E1,1.3776517E3,3.7149975E1,2.5921548E2,2.2601347E1,1.0496895E3,1.4609897E2,1.878524E1,1.3819759E2,1.1665352E1,1.0078868E1,2.4602162E2,1.359269E2,1.1414274E2,1.0595218E1,4.1724045E1,1.055437E1],"tree_param":{"num_deleted":"0","num_feature":"29","num_nodes":"63","size_leaf_vector":"1"}},{"base_weights":[-2.838364E-3,8.8170305E-2,-6.108615E-1,-7.006549E-2,2.0900118E-1,-7.801448E-1,-3.1346294E-1,-1.5009327E-1,7.6697813E-3,1.0057643E-1,2.357E-1,-7.878694E-1,-1.9819853E-1,-3.5704705E-1,-3.4221426E-2,-2.5362542E-1,-1.2447742E-1,-1.1209177E-1,3.3649024E-2,5.4967057E-2,2.8062356E-1,1.9682376E-1,2.8864017E-1,-7.96345E-1,-5.731953E-1,1.6816327E-3,-2.1248495E-2,-2.3520986E-2,-1.7747179E-2,2.9420052E-2,-9.547359E-2,-1.0777566E-2,-2.4639986E-2,8.533543E-4,-7.2782794E-3,-4.096117E-3,-3.4257807E-2,8.935347E-3,4.4743993E-4,1.673296E-3,1.3486129E-2,2.5814638E-2,9.9008195E-3,-5.3953094E-4,1.0508352E-2,1.2438352E-3,1.530839E-2,-3.9497405E-2,-5.3352583E-2,-2.2778276E-2,-4.1916408E-2,-1.067797E-2,6.385244E-3],"categories":[],"categories_nodes":[],"categories_segments":[],"categories_sizes":[],"default_left":[0,0,0,0,0,1,1,0,1,1,1,0,0,0,0,0,0,0,1,1,0,1,0,0,0,0,0,0,0,0,0,0,0,0,0,0,0,0,0,0,0,0,0,0,0,0,0,0,0,0,0,0,0],"id":10,"left_children":[1,3,5,7,9,11,13,15,17,19,21,23,25,27,29,31,33,35,37,39,41,43,45,47,49,-1,-1,-1,-1,-1,51,-1,-1,-1,-1,-1,-1,-1,-1,-1,-1,-1,-1,-1,-1,-1,-1,-1,-1,-1,-1,-1,-1],"loss_changes":[1.0506635E3,3.1578204E2,1.24206665E2,4.44908E1,2.7085266E1,6.9224243E0,1.0921219E1,9.31395E0,1.12937565E1,1.519368E1,1.5407013E1,2.3703613E0,1.1689731E0,1.8318176E-2,4.723816E0,6.249794E0,8.440495E0,1.1131041E1,1.0685015E1,6.8202195E0,7.1807175E0,1.2012405E1,1.4690338E1,1.7409668E0,1.5697956E0,0E0,0E0,0E0,0E0,0E0,2.9865782E0,0E0,0E0,0E0,0E0,0E0,0E0,0E0,0E0,0E0,0E0,0E0,0E0,0E0,0E0,0E0,0E0,0E0,0E0,0E0,0E0,0E0,0E0],"parents":[2147483647,0,0,1,1,2,2,3,3,4,4,5,5,6,6,7,7,8,8,9,9,10,10,11,11,12,12,13,13,14,14,15,15,16,16,17,17,18,18,19,19,20,20,21,21,22,22,23,23,24,24,30,30],"right_children":[2,4,6,8,10,12,14,16,18,20,22,24,26,28,30,32,34,36,38,40,42,44,46,48,50,-1,-1,-1,-1,-1,52,-1,-1,-1,-1,-1,-1,-1,-1,-1,-1,-1,-1,-1,-1,-1,-1,-1,-1,-1,-1,-1,-1],"split_conditions":[9.20001E0,3.8E0,2.24E1,3.4E0,4E0,4.73E-1,2.81E-1,1.4529975E-1,6.42E1,2.77E2,7.84E1,4.309658E1,5.01E-1,2.44E-1,3.61E-1,6.819984E-1,3.13E-1,-1.1366728E1,-1.0054711E0,3.3E-1,2.95E2,2.8E1,3.86E-1,3.52E2,2.51E2,1.6816327E-3,-2.1248495E-2,-2.3520986E-2,-1.7747179E-2,2.9420052E-2,3.33E-1,-1.0777566E-2,-2.4639986E-2,8.533543E-4,-7.2782794E-3,-4.096117E-3,-3.4257807E-2,8.935347E-3,4.4743993E-4,1.673296E-3,1.3486129E-2,2.5814638E-2,9.9008195E-3,-5.3953094E-4,1.0508352E-2,1.2438352E-3,1.530839E-2,-3.9497405E-2,-5.3352583E-2,-2.2778276E-2,-4.1916408E-2,-1.067797E-2,6.385244E-3],"split_indices":[10,10,3,10,10,13,15,7,5,4,5,6,13,11,13,0,15,6,0,15,4,4,13,4,4,0,0,0,0,0,15,0,0,0,0,0,0,0,0,0,0,0,0,0,0,0,0,0,0,0,0,0,0],"split_type":[0,0,0,0,0,0,0,0,0,0,0,0,0,0,0,0,0,0,0,0,0,0,0,0,0,0,0,0,0,0,0,0,0,0,0,0,0,0,0,0,0,0,0,0,0,0,0,0,0,0,0,0,0],"sum_hessian":[1.8985219E4,1.651423E4,2.4709885E3,7.1505483E3,9.363683E3,1.5736324E3,8.9735626E2,3.522862E3,3.6276863E3,1.8510952E3,7.5125874E3,1.5526688E3,2.0963507E1,7.759648E2,1.2139145E2,6.969765E2,2.8258855E3,6.460678E2,2.9816187E3,1.4779958E3,3.730993E2,4.3343823E3,3.1782053E3,1.4910891E3,6.1579803E1,1.0787252E1,1.0176254E1,1.0079264E1,7.6588556E2,1.0101765E1,1.1128969E2,6.029019E2,9.407459E1,3.6645013E2,2.4594353E3,6.148419E2,3.1225887E1,4.3292557E2,2.5486929E3,1.3445377E3,1.3345813E2,9.547361E1,2.776257E2,2.617579E2,4.0726243E3,1.981893E2,2.9800159E3,1.4604949E3,3.0594202E1,4.4538124E1,1.7041681E1,7.2808914E1,3.8480774E1],"tree_param":{"num_deleted":"0","num_feature":"29","num_nodes":"53","size_leaf_vector":"1"}},{"base_weights":[1.6116898E-3,8.994034E-2,-5.981489E-1,2.0176975E-1,-5.5944204E-2,-7.618746E-1,-3.140598E-1,2.4477911E-1,1.3634767E-1,2.9237319E-2,-1.433049E-1,-7.70032E-1,-1.764786E-1,-3.3699626E-1,2.3384523E-1,2.1718268E-1,3.6107877E-1,1.0347235E-2,1.6557404E-1,7.6931936E-4,1.6500124E-1,-1.7052819E-1,1.3758592E-2,-7.953586E-1,-6.717808E-1,-2.1614218E-2,3.8106106E-3,1.4736629E-2,-3.450349E-1,4.0098333E-1,-9.089402E-3,1.0335355E-2,2.2074364E-2,-2.1814583E-2,1.8822161E-2,1.1647616E-2,-3.0848326E-3,1.8177653E-3,9.438963E-3,-4.820358E-4,1.5474613E-2,6.6190856E-3,3.308299E-2,-1.2752958E-2,-6.119041E-3,1.3179851E-2,-2.5276793E-3,-2.2366898E-2,-4.012644E-2,-1.1846032E-2,-3.50731E-2,-4.1870777E-2,-1.6561452E-2,1.1023723E-2,3.0434951E-2],"categories":[],"categories_nodes":[],"categories_segments":[],"categories_sizes":[],"default_left":[0,0,0,0,0,1,1,1,0,1,1,0,0,0,0,0,0,0,0,0,1,1,1,0,0,0,0,0,0,0,0,0,0,0,0,0,0,0,0,0,0,0,0,0,0,0,0,0,0,0,0,0,0,0,0],"id":11,"left_children":[1,3,5,7,9,11,13,15,17,19,21,23,25,27,29,31,33,35,37,39,41,43,45,47,49,-1,-1,-1,51,53,-1,-1,-1,-1,-1,-1,-1,-1,-1,-1,-1,-1,-1,-1,-1,-1,-1,-1,-1,-1,-1,-1,-1,-1,-1],"loss_changes":[1.00198224E3,2.689657E2,1.12690674E2,2.6225891E1,5.3244484E1,7.2160034E0,1.1255661E1,1.7989075E1,1.3638283E1,1.4003503E1,1.5105438E1,3.243225E0,1.4844928E0,4.438774E0,2.5963748E0,1.0605499E1,1.3372345E1,1.1215753E1,9.008308E0,9.632241E0,1.008733E1,1.2221428E1,8.412141E0,2.6392822E0,3.9326477E0,0E0,0E0,0E0,5.4584427E0,8.488841E-1,0E0,0E0,0E0,0E0,0E0,0E0,0E0,0E0,0E0,0E0,0E0,0E0,0E0,0E0,0E0,0E0,0E0,0E0,0E0,0E0,0E0,0E0,0E0,0E0,0E0],"parents":[2147483647,0,0,1,1,2,2,3,3,4,4,5,5,6,6,7,7,8,8,9,9,10,10,11,11,12,12,13,13,14,14,15,15,16,16,17,17,18,18,19,19,20,20,21,21,22,22,23,23,24,24,28,28,29,29],"right_children":[2,4,6,8,10,12,14,16,18,20,22,24,26,28,30,32,34,36,38,40,42,44,46,48,50,-1,-1,-1,52,54,-1,-1,-1,-1,-1,-1,-1,-1,-1,-1,-1,-1,-1,-1,-1,-1,-1,-1,-1,-1,-1,-1,-1,-1,-1],"split_conditions":[1.800001E1,6E0,2.24E1,4E0,8E0,4.72E-1,4.56E-1,8.54E1,-1.1012174E1,8.61E1,3.32E-1,8.48E1,5.918811E0,3.43E-1,2.82E-1,8.113579E-1,1.6804873E1,2.56E-1,1.0268349E-1,8.606573E-1,2.6E-1,1.9165812E-1,-7.4339217E-1,1.2E1,8.52E1,-2.1614218E-2,3.8106106E-3,1.4736629E-2,3E-1,2.67E-1,-9.089402E-3,1.0335355E-2,2.2074364E-2,-2.1814583E-2,1.8822161E-2,1.1647616E-2,-3.0848326E-3,1.8177653E-3,9.438963E-3,-4.820358E-4,1.5474613E-2,6.6190856E-3,3.308299E-2,-1.2752958E-2,-6.119041E-3,1.3179851E-2,-2.5276793E-3,-2.2366898E-2,-4.012644E-2,-1.1846032E-2,-3.50731E-2,-4.1870777E-2,-1.6561452E-2,1.1023723E-2,3.0434951E-2],"split_indices":[9,9,3,9,9,13,13,5,6,5,13,5,6,13,11,7,6,11,7,7,11,6,0,4,5,0,0,0,16,11,0,0,0,0,0,0,0,0,0,0,0,0,0,0,0,0,0,0,0,0,0,0,0,0,0],"split_type":[0,0,0,0,0,0,0,0,0,0,0,0,0,0,0,0,0,0,0,0,0,0,0,0,0,0,0,0,0,0,0,0,0,0,0,0,0,0,0,0,0,0,0,0,0,0,0,0,0,0,0,0,0,0,0],"sum_hessian":[1.8911861E4,1.6484924E4,2.4269373E3,9.33143E3,7.153494E3,1.5385569E3,8.8838043E2,5.6284614E3,3.702968E3,3.6222578E3,3.5312366E3,1.5171008E3,2.1455948E1,8.530547E2,3.5325718E1,4.551351E3,1.0771105E3,6.9745654E2,3.0055117E3,2.995206E3,6.2705164E2,3.0095208E3,5.217157E2,1.2005382E3,3.1656274E2,1.0309071E1,1.1146876E1,1.0270442E1,8.4278424E2,2.5219484E1,1.0106235E1,4.350112E3,2.0123946E2,1.9844484E1,1.057266E3,1.6998726E2,5.274693E2,4.5795334E2,2.5475583E3,2.8984404E3,9.6765686E1,5.895948E2,3.7456856E1,1.0905594E3,1.9189613E3,1.0617006E2,4.1554565E2,2.5514605E1,1.1750236E3,2.080023E1,2.957625E2,2.1359213E1,8.2142505E2,1.4596377E1,1.0623108E1],"tree_param":{"num_deleted":"0","num_feature":"29","num_nodes":"55","size_leaf_vector":"1"}},{"base_weights":[-4.7691166E-4,8.222571E-2,-5.695714E-1,1.8734312E-1,-5.6241177E-2,-7.272788E-1,-2.9945898E-1,2.2917798E-1,1.2369758E-1,2.1052336E-2,-1.3598889E-1,-7.3232675E-1,-3.6280245E-1,-3.250421E-1,2.4053559E-1,1.9744998E-3,2.4097519E-1,3.206455E-2,1.5637363E-1,9.142591E-3,3.4158036E-1,-2.2279344E-1,-1.0610118E-1,-7.554493E-1,-6.4567065E-1,-3.4233653E-3,-3.1553295E-2,-3.4220722E-1,-1.22425854E-1,9.3312345E-2,2.912482E-2,2.2145672E-2,-2.9240984E-3,1.1360319E-2,2.2252958E-2,9.696096E-3,-1.1694027E-3,-2.3112989E-3,9.094228E-3,-1.007036E-2,1.1599952E-3,8.702977E-3,2.9924078E-2,-1.25302775E-2,8.0108485E-4,-6.1494187E-3,8.224236E-3,-2.8154641E-2,-3.8300034E-2,-1.9706702E-2,-3.5214357E-2,-1.6522428E-2,-3.8308684E-2,1.47781065E-2,-1.3517347E-2,2.0657225E-2,-2.1410437E-2],"categories":[],"categories_nodes":[],"categories_segments":[],"categories_sizes":[],"default_left":[0,0,0,0,0,1,1,1,0,1,1,0,0,1,0,0,1,0,0,1,0,0,1,0,0,0,0,1,0,0,0,0,0,0,0,0,0,0,0,0,0,0,0,0,0,0,0,0,0,0,0,0,0,0,0,0,0],"id":12,"left_children":[1,3,5,7,9,11,13,15,17,19,21,23,25,27,29,31,33,35,37,39,41,43,45,47,49,-1,-1,51,53,55,-1,-1,-1,-1,-1,-1,-1,-1,-1,-1,-1,-1,-1,-1,-1,-1,-1,-1,-1,-1,-1,-1,-1,-1,-1,-1,-1],"loss_changes":[8.925229E2,2.410058E2,1.0228113E2,2.5032806E1,4.4050358E1,2.5281372E0,1.235508E1,1.5218872E1,1.1178947E1,1.38528385E1,9.10154E0,2.5112305E0,1.7511413E0,2.9105453E0,1.9983411E0,7.524192E0,1.506662E1,8.828253E0,1.4237862E1,1.0365835E1,5.4908695E0,5.9814262E0,1.1984484E1,1.9547119E0,4.4720917E0,0E0,0E0,3.6455536E0,4.2754855E0,5.129645E0,0E0,0E0,0E0,0E0,0E0,0E0,0E0,0E0,0E0,0E0,0E0,0E0,0E0,0E0,0E0,0E0,0E0,0E0,0E0,0E0,0E0,0E0,0E0,0E0,0E0,0E0,0E0],"parents":[2147483647,0,0,1,1,2,2,3,3,4,4,5,5,6,6,7,7,8,8,9,9,10,10,11,11,12,12,13,13,14,14,15,15,16,16,17,17,18,18,19,19,20,20,21,21,22,22,23,23,24,24,27,27,28,28,29,29],"right_children":[2,4,6,8,10,12,14,16,18,20,22,24,26,28,30,32,34,36,38,40,42,44,46,48,50,-1,-1,52,54,56,-1,-1,-1,-1,-1,-1,-1,-1,-1,-1,-1,-1,-1,-1,-1,-1,-1,-1,-1,-1,-1,-1,-1,-1,-1,-1,-1],"split_conditions":[1.800001E1,6E0,2.24E1,4E0,8E0,4.72E-1,3.33E-1,2.8E1,-5.967052E0,2.64E-1,-6.36E0,8.48E1,5.06E-1,2.97E-1,5.2E-1,6.642271E-2,3.81E-1,4.48E-1,4.07E-1,-3.0473057E1,8.932259E0,1E0,3.07E-1,2.7E0,2.0317074E1,-3.4233653E-3,-3.1553295E-2,3.41E-1,3.09E-1,4.68E-1,2.912482E-2,2.2145672E-2,-2.9240984E-3,1.1360319E-2,2.2252958E-2,9.696096E-3,-1.1694027E-3,-2.3112989E-3,9.094228E-3,-1.007036E-2,1.1599952E-3,8.702977E-3,2.9924078E-2,-1.25302775E-2,8.0108485E-4,-6.1494187E-3,8.224236E-3,-2.8154641E-2,-3.8300034E-2,-1.9706702E-2,-3.5214357E-2,-1.6522428E-2,-3.8308684E-2,1.47781065E-2,-1.3517347E-2,2.0657225E-2,-2.1410437E-2],"split_indices":[9,9,3,9,9,13,15,4,6,12,6,5,13,16,14,7,16,13,14,6,6,28,16,3,6,0,0,13,16,14,0,0,0,0,0,0,0,0,0,0,0,0,0,0,0,0,0,0,0,0,0,0,0,0,0,0,0],"split_type":[0,0,0,0,0,0,0,0,0,0,0,0,0,0,0,0,0,0,0,0,0,0,0,0,0,0,0,0,0,0,0,0,0,0,0,0,0,0,0,0,0,0,0,0,0,0,0,0,0,0,0,0,0,0,0,0,0],"sum_hessian":[1.8961385E4,1.6556236E4,2.4051497E3,9.411286E3,7.1449497E3,1.5174692E3,8.8768036E2,5.6770815E3,3.7342046E3,3.6286785E3,3.5162715E3,1.4957443E3,2.1724962E1,8.479074E2,3.9772915E1,2.802814E2,5.3968003E3,9.820987E2,2.752106E3,3.499671E3,1.290075E2,8.989491E2,2.6173223E3,1.1746057E3,3.2113855E2,1.0957624E1,1.0767337E1,7.8104987E2,6.685756E1,2.8692783E1,1.10801325E1,3.3032547E1,2.4724887E2,5.05769E3,3.391106E2,2.4997223E2,7.3212646E2,3.0769324E2,2.4444126E3,2.1819713E2,3.2814736E3,7.91032E1,4.9904305E1,8.051348E2,9.3814316E1,2.464085E3,1.5323743E2,6.390746E1,1.1106982E3,6.2152428E1,2.5898615E2,7.617035E2,1.9346342E1,1.7214785E1,4.9642776E1,1.7914316E1,1.0778466E1],"tree_param":{"num_deleted":"0","num_feature":"29","num_nodes":"57","size_leaf_vector":"1"}},{"base_weights":[4.050843E-4,7.797581E-2,-5.431351E-1,1.5364935E-1,-8.219135E-2,-7.0270747E-1,-2.9228732E-1,1.9244018E-1,7.3436975E-2,-3.879925E-2,-1.7055118E-1,-7.119975E-1,-9.093563E-2,-3.2620165E-1,-3.445991E-2,4.1194886E-2,2.0452438E-1,5.5874664E-2,2.9119018E-1,-5.8691215E-2,1.8044624E-1,-2.1544985E-1,-5.5025287E-2,-7.355258E-1,-6.046596E-1,1.1028167E-2,-2.0997062E-2,-3.1619346E-1,-3.589083E-2,2.4202067E-2,-1.0879854E-1,3.2579636E-3,-3.0442372E-2,9.361605E-3,1.5518516E-2,-3.3625567E-3,4.553975E-3,6.26983E-3,2.3316028E-2,-8.420001E-3,-1.5449974E-3,6.0488735E-3,2.9295012E-2,-1.157418E-2,6.4346874E-3,1.3043816E-2,-4.8680836E-3,-3.4677505E-2,-3.8631342E-2,-3.509932E-4,-3.2141585E-2,-1.5348001E-2,-3.053965E-2,-1.2984055E-2,4.522093E-3],"categories":[],"categories_nodes":[],"categories_segments":[],"categories_sizes":[],"default_left":[0,0,0,0,0,1,1,1,1,0,1,0,0,1,0,0,0,0,0,0,1,1,0,0,0,0,0,0,0,0,0,0,0,0,0,0,0,0,0,0,0,0,0,0,0,0,0,0,0,0,0,0,0,0,0],"id":13,"left_children":[1,3,5,7,9,11,13,15,17,19,21,23,25,27,29,31,33,35,37,39,41,43,45,47,49,-1,-1,51,-1,-1,53,-1,-1,-1,-1,-1,-1,-1,-1,-1,-1,-1,-1,-1,-1,-1,-1,-1,-1,-1,-1,-1,-1,-1,-1],"loss_changes":[7.962235E2,2.0031465E2,9.420117E1,3.4908478E1,2.0326881E1,8.123901E0,8.021904E0,1.3817139E1,1.3981049E1,1.55277E1,9.046303E0,3.1391602E0,2.418858E0,2.954712E0,4.212207E0,8.777733E0,1.2762604E1,1.4692766E1,7.8661957E0,9.942795E0,7.0711727E0,6.9671097E0,6.5800104E0,1.2696533E0,5.9441757E0,0E0,0E0,1.9705353E0,0E0,0E0,2.885363E0,0E0,0E0,0E0,0E0,0E0,0E0,0E0,0E0,0E0,0E0,0E0,0E0,0E0,0E0,0E0,0E0,0E0,0E0,0E0,0E0,0E0,0E0,0E0,0E0],"parents":[2147483647,0,0,1,1,2,2,3,3,4,4,5,5,6,6,7,7,8,8,9,9,10,10,11,11,12,12,13,13,14,14,15,15,16,16,17,17,18,18,19,19,20,20,21,21,22,22,23,23,24,24,27,27,30,30],"right_children":[2,4,6,8,10,12,14,16,18,20,22,24,26,28,30,32,34,36,38,40,42,44,46,48,50,-1,-1,52,-1,-1,54,-1,-1,-1,-1,-1,-1,-1,-1,-1,-1,-1,-1,-1,-1,-1,-1,-1,-1,-1,-1,-1,-1,-1,-1],"split_conditions":[1.800001E1,7E0,4.6046333E1,5E0,9E0,4.72E-1,3.7E-1,-2.751159E1,2.63E-1,7.104403E-1,8.22E1,8.48E1,5.01E-1,3.5E-1,2.26E-1,6.03E1,6.329187E-1,-8.647111E0,3.35E-1,1.2727349E-1,2.43E-1,3.06E-1,3.98E-1,3.727872E-1,1.6804873E1,1.1028167E-2,-2.0997062E-2,1.7616236E-1,-3.589083E-2,2.4202067E-2,4.58E-1,3.2579636E-3,-3.0442372E-2,9.361605E-3,1.5518516E-2,-3.3625567E-3,4.553975E-3,6.26983E-3,2.3316028E-2,-8.420001E-3,-1.5449974E-3,6.0488735E-3,2.9295012E-2,-1.157418E-2,6.4346874E-3,1.3043816E-2,-4.8680836E-3,-3.4677505E-2,-3.8631342E-2,-3.509932E-4,-3.2141585E-2,-1.5348001E-2,-3.053965E-2,-1.2984055E-2,4.522093E-3],"split_indices":[9,9,6,9,9,13,14,6,11,7,5,5,13,13,11,5,7,6,16,7,11,16,13,6,6,0,0,7,0,0,14,0,0,0,0,0,0,0,0,0,0,0,0,0,0,0,0,0,0,0,0,0,0,0,0],"split_type":[0,0,0,0,0,0,0,0,0,0,0,0,0,0,0,0,0,0,0,0,0,0,0,0,0,0,0,0,0,0,0,0,0,0,0,0,0,0,0,0,0,0,0,0,0,0,0,0,0,0,0,0,0,0,0],"sum_hessian":[1.8882496E4,1.6525006E4,2.357491E3,1.1222701E4,5.302304E3,1.4397917E3,9.1769916E2,7.5635537E3,3.6591477E3,3.5569714E3,1.7453326E3,1.4180934E3,2.169831E1,8.107843E2,1.0691489E2,5.5992804E2,7.003626E3,3.3872173E3,2.719305E2,3.2617664E3,2.9520514E2,1.2562365E3,4.8909625E2,1.158336E3,2.5975732E2,1.1314999E1,1.0383313E1,7.923424E2,1.8441868E1,1.2715412E1,9.419947E1,5.408875E2,1.9040533E1,6.0224873E3,9.8113837E2,7.529457E2,2.6342715E3,1.4057039E2,1.3136012E2,6.582398E2,2.6035266E3,2.5857745E2,3.6627705E1,1.2006263E3,5.5610157E1,5.7191097E1,4.3190515E2,5.5270526E2,6.056308E2,1.5666058E1,2.4409128E2,7.7024316E2,2.209928E1,5.3432373E1,4.07671E1],"tree_param":{"num_deleted":"0","num_feature":"29","num_nodes":"55","size_leaf_vector":"1"}},{"base_weights":[-5.6788074E-3,6.815311E-2,-5.313269E-1,1.6148703E-1,-5.5503912E-2,-6.853561E-1,-2.9407397E-1,1.8431291E-1,6.8506315E-2,5.4155886E-3,-1.1892141E-1,-6.934442E-1,-1.4469217E-1,-3.3582148E-1,6.0011577E-2,1.65949E-1,2.7092677E-1,5.5720933E-2,3.3871818E-1,-1.8952848E-2,1.1983927E-1,-1.2371031E-1,5.220887E-1,-4.658082E-1,-6.991135E-1,1.2874417E-2,-2.8380275E-2,9.530929E-3,-3.433079E-1,1.4645015E-1,-2.1585694E-2,1.6609682E-3,8.774097E-3,1.5704948E-2,4.8737135E-3,1.3936835E-3,8.2862815E-3,2.236241E-2,-6.7069107E-3,-2.185851E-3,3.6461446E-3,5.27686E-3,3.6225483E-2,-1.03504695E-2,-4.688465E-3,4.2598892E-2,1.1759135E-2,-3.0232752E-2,-1.8165842E-2,-4.286879E-2,-3.4207705E-2,-1.6544828E-2,-3.4556713E-2,-6.822698E-4,2.3450237E-2],"categories":[],"categories_nodes":[],"categories_segments":[],"categories_sizes":[],"default_left":[0,0,0,0,0,1,1,1,1,1,1,0,0,0,0,1,0,0,1,1,1,0,0,0,0,0,0,0,1,0,0,0,0,0,0,0,0,0,0,0,0,0,0,0,0,0,0,0,0,0,0,0,0,0,0],"id":14,"left_children":[1,3,5,7,9,11,13,15,17,19,21,23,25,27,29,31,33,35,37,39,41,43,45,47,49,-1,-1,-1,51,53,-1,-1,-1,-1,-1,-1,-1,-1,-1,-1,-1,-1,-1,-1,-1,-1,-1,-1,-1,-1,-1,-1,-1,-1,-1],"loss_changes":[7.3404486E2,1.9141861E2,8.4925476E1,2.0046646E1,2.756286E1,6.072937E0,1.3601196E1,1.2024078E1,6.42249E0,1.0151083E1,1.079488E1,1.4689941E0,3.9001176E0,3.305069E0,4.2178245E0,7.918869E0,9.89724E0,5.452549E0,4.3727417E0,6.8324265E0,5.4512396E0,8.635956E0,2.2710967E0,3.0384827E-1,2.6210327E0,0E0,0E0,0E0,3.2716522E0,4.337881E0,0E0,0E0,0E0,0E0,0E0,0E0,0E0,0E0,0E0,0E0,0E0,0E0,0E0,0E0,0E0,0E0,0E0,0E0,0E0,0E0,0E0,0E0,0E0,0E0,0E0],"parents":[2147483647,0,0,1,1,2,2,3,3,4,4,5,5,6,6,7,7,8,8,9,9,10,10,11,11,12,12,13,13,14,14,15,15,16,16,17,17,18,18,19,19,20,20,21,21,22,22,23,23,24,24,28,28,29,29],"right_children":[2,4,6,8,10,12,14,16,18,20,22,24,26,28,30,32,34,36,38,40,42,44,46,48,50,-1,-1,-1,52,54,-1,-1,-1,-1,-1,-1,-1,-1,-1,-1,-1,-1,-1,-1,-1,-1,-1,-1,-1,-1,-1,-1,-1,-1,-1],"split_conditions":[1.800001E1,6E0,4.6046333E1,5E0,8E0,4.72E-1,3.9E-1,8.6E1,2.69E-1,8.6E1,2.75E-1,1.4E1,5.01E-1,3.5E-1,2.84E-1,-3.2742474E1,2.64E2,2.77E2,4.1987777E-1,2.85E-1,2.67E-1,-5.967052E0,1.55E2,6.74E1,5.1E1,1.2874417E-2,-2.8380275E-2,9.530929E-3,2.26E-1,3.42E-1,-2.1585694E-2,1.6609682E-3,8.774097E-3,1.5704948E-2,4.8737135E-3,1.3936835E-3,8.2862815E-3,2.236241E-2,-6.7069107E-3,-2.185851E-3,3.6461446E-3,5.27686E-3,3.6225483E-2,-1.03504695E-2,-4.688465E-3,4.2598892E-2,1.1759135E-2,-3.0232752E-2,-1.8165842E-2,-4.286879E-2,-3.4207705E-2,-1.6544828E-2,-3.4556713E-2,-6.822698E-4,2.3450237E-2],"split_indices":[9,9,6,9,9,13,14,5,12,5,12,4,13,13,11,6,4,4,0,15,12,6,4,5,4,0,0,0,11,16,0,0,0,0,0,0,0,0,0,0,0,0,0,0,0,0,0,0,0,0,0,0,0,0,0],"split_type":[0,0,0,0,0,0,0,0,0,0,0,0,0,0,0,0,0,0,0,0,0,0,0,0,0,0,0,0,0,0,0,0,0,0,0,0,0,0,0,0,0,0,0,0,0,0,0,0,0,0,0,0,0,0,0],"sum_hessian":[1.8912066E4,1.6583621E4,2.3284458E3,9.450364E3,7.133257E3,1.4107019E3,9.1774396E2,7.586876E3,1.863488E3,3.63875E3,3.4945068E3,1.3896311E3,2.1070793E1,8.20998E2,9.6745995E1,6.262099E3,1.3247767E3,1.7804502E3,8.3037834E1,3.0005642E3,6.38186E2,3.4693943E3,2.511242E1,3.578904E1,1.353842E3,1.1000621E1,1.0070173E1,1.1168603E1,8.0982935E2,8.287915E1,1.3866842E1,4.1992004E2,5.842179E3,1.0601063E3,2.6467044E2,1.4217843E3,3.5866586E2,6.758083E1,1.5457003E1,2.3639182E3,6.36646E2,6.2458734E2,1.3598616E1,9.1575446E2,2.55364E3,1.0765053E1,1.4347365E1,1.3118122E1,2.267092E1,1.12054695E2,1.2417874E3,7.838122E2,2.6017145E1,5.602808E1,2.6851072E1],"tree_param":{"num_deleted":"0","num_feature":"29","num_nodes":"55","size_leaf_vector":"1"}},{"base_weights":[-3.554141E-3,6.74901E-2,-5.164613E-1,1.775749E-1,-2.5824768E-2,-6.778474E-1,-2.5214466E-1,1.863197E-1,6.3940685E-4,3.3444736E-2,-1.1859001E-1,-6.853803E-1,-1.8381226E-1,-2.9583114E-1,7.08974E-2,1.3361084E-1,2.1843779E-1,-9.087272E-2,3.086395E-1,2.165675E-2,3.0771923E-1,-1.4009014E-1,6.0205543E-3,-6.946351E-1,-5.1001596E-1,-2.759564E-2,1.0495801E-2,6.894562E-3,-3.0346635E-1,-4.994671E-2,3.3710748E-1,9.27738E-3,4.0168543E-3,2.0301577E-3,1.1508176E-2,-2.9799221E-2,-2.6309039E-3,3.1533238E-2,7.1565183E-3,-1.403754E-3,2.3368457E-3,1.1951933E-2,2.703367E-2,-4.204022E-3,-9.729459E-3,-6.1309226E-3,6.512206E-3,-3.690992E-2,-3.3174645E-2,-7.571073E-3,-3.084955E-2,-1.4738935E-2,-4.254655E-2,1.0755672E-2,-1.1917999E-2,3.1669628E-2,-8.191459E-3],"categories":[],"categories_nodes":[],"categories_segments":[],"categories_sizes":[],"default_left":[0,0,0,0,0,1,1,0,1,1,1,1,0,0,0,0,0,1,0,1,0,0,0,0,0,0,0,0,1,0,0,0,0,0,0,0,0,0,0,0,0,0,0,0,0,0,0,0,0,0,0,0,0,0,0,0,0],"id":15,"left_children":[1,3,5,7,9,11,13,15,17,19,21,23,25,27,29,31,33,35,37,39,41,43,45,47,49,-1,-1,-1,51,53,55,-1,-1,-1,-1,-1,-1,-1,-1,-1,-1,-1,-1,-1,-1,-1,-1,-1,-1,-1,-1,-1,-1,-1,-1,-1,-1],"loss_changes":[6.8906744E2,1.7062677E2,9.796692E1,1.1790314E1,4.9434258E1,5.187866E0,1.23521385E1,1.2263519E1,1.0171606E1,1.7731388E1,9.391338E0,1.9276733E0,3.421892E0,2.591339E0,3.391288E0,7.599308E0,9.395859E0,5.3446608E0,4.3154635E0,6.563655E0,3.4866734E0,9.108437E0,8.273205E0,1.3182983E0,2.7547035E0,0E0,0E0,0E0,3.3489838E0,3.69775E0,4.9836283E0,0E0,0E0,0E0,0E0,0E0,0E0,0E0,0E0,0E0,0E0,0E0,0E0,0E0,0E0,0E0,0E0,0E0,0E0,0E0,0E0,0E0,0E0,0E0,0E0,0E0,0E0],"parents":[2147483647,0,0,1,1,2,2,3,3,4,4,5,5,6,6,7,7,8,8,9,9,10,10,11,11,12,12,13,13,14,14,15,15,16,16,17,17,18,18,19,19,20,20,21,21,22,22,23,23,24,24,28,28,29,29,30,30],"right_children":[2,4,6,8,10,12,14,16,18,20,22,24,26,28,30,32,34,36,38,40,42,44,46,48,50,-1,-1,-1,52,54,56,-1,-1,-1,-1,-1,-1,-1,-1,-1,-1,-1,-1,-1,-1,-1,-1,-1,-1,-1,-1,-1,-1,-1,-1,-1,-1],"split_conditions":[1.800001E1,5E0,2.24E1,3.41E2,8E0,4.72E-1,3.7E-1,1.6E2,4.33E-1,2.65E-1,3.36E-1,2.49E-1,7.3E0,2.96E-1,3.43E-1,1E0,3.1E-1,3.42E2,3.48E2,1.52E2,9.3E0,9E0,3.9320543E-1,1.7E2,2.52E-1,-2.759564E-2,1.0495801E-2,6.894562E-3,3.62E-1,4.06E-1,2.75E-1,9.27738E-3,4.0168543E-3,2.0301577E-3,1.1508176E-2,-2.9799221E-2,-2.6309039E-3,3.1533238E-2,7.1565183E-3,-1.403754E-3,2.3368457E-3,1.1951933E-2,2.703367E-2,-4.204022E-3,-9.729459E-3,-6.1309226E-3,6.512206E-3,-3.690992E-2,-3.3174645E-2,-7.571073E-3,-3.084955E-2,-1.4738935E-2,-4.254655E-2,1.0755672E-2,-1.1917999E-2,3.1669628E-2,-8.191459E-3],"split_indices":[9,9,3,4,9,13,14,4,14,12,13,12,3,15,16,27,15,4,4,4,3,9,7,4,12,0,0,0,13,14,12,0,0,0,0,0,0,0,0,0,0,0,0,0,0,0,0,0,0,0,0,0,0,0,0,0,0],"split_type":[0,0,0,0,0,0,0,0,0,0,0,0,0,0,0,0,0,0,0,0,0,0,0,0,0,0,0,0,0,0,0,0,0,0,0,0,0,0,0,0,0,0,0,0,0,0,0,0,0,0,0,0,0,0,0,0,0],"sum_hessian":[1.8908154E4,1.6608527E4,2.2996265E3,7.619178E3,8.98935E3,1.4268549E3,8.7277167E2,7.2602954E3,3.588826E2,5.4853154E3,3.5040344E3,1.4050438E3,2.1811018E1,7.688771E2,1.038946E2,2.750926E3,4.5093696E3,2.7722058E2,8.166203E1,5.2603125E3,2.2500293E2,2.988311E3,5.1572314E2,1.3317976E3,7.3246216E1,1.106473E1,1.0746287E1,1.3005928E1,7.5587115E2,7.201589E1,3.1878706E1,1.3916852E3,1.3592407E3,2.7921436E2,4.2301553E3,1.8490736E1,2.5872983E2,2.6768696E1,5.4893337E1,1.7634406E3,3.4968718E3,1.7533577E2,4.966716E1,1.4749843E3,1.5133268E3,2.533652E2,2.6235797E2,5.4571576E2,7.8608185E2,1.7384966E1,5.5861256E1,7.455781E2,1.0293038E1,2.986294E1,4.215295E1,1.9864933E1,1.2013774E1],"tree_param":{"num_deleted":"0","num_feature":"29","num_nodes":"57","size_leaf_vector":"1"}},{"base_weights":[5.013571E-3,7.405023E-2,-5.0115013E-1,-6.870384E-2,1.4055979E-1,-6.5870434E-1,-2.4192442E-1,-1.7928363E-1,-4.459141E-2,8.770406E-2,1.9158116E-1,-6.6544527E-1,-7.7200816E-3,-2.861806E-1,7.2357096E-2,-1.9302608E-1,2.111452E-1,-8.2629114E-2,2.953969E-2,5.1727824E-2,1.3965866E-1,2.9051378E-3,2.0149642E-1,-6.948099E-1,-5.566065E-1,-2.792497E-1,-3.4888335E-2,9.655021E-3,2.283974E-2,-1.23375235E-2,-4.348435E-3,3.1469967E-2,-9.893179E-3,3.3688496E-3,-5.2696494E-3,-2.9729554E-4,9.829985E-3,1.0768442E-3,6.3797496E-3,5.09656E-3,1.1295503E-2,2.6161924E-2,-2.7991969E-3,9.494044E-3,1.7096529E-2,-2.3944143E-2,-3.5328146E-2,-1.215261E-3,-2.9653264E-2,-1.4323475E-2,1.0381027E-2,4.1288896E-3,-1.1229028E-2],"categories":[],"categories_nodes":[],"categories_segments":[],"categories_sizes":[],"default_left":[0,0,0,0,0,1,1,1,0,0,1,0,0,1,0,0,0,0,1,1,0,0,1,0,0,1,0,0,0,0,0,0,0,0,0,0,0,0,0,0,0,0,0,0,0,0,0,0,0,0,0,0,0],"id":16,"left_children":[1,3,5,7,9,11,13,15,17,19,21,23,-1,25,27,29,31,33,35,37,39,41,43,45,47,49,-1,51,-1,-1,-1,-1,-1,-1,-1,-1,-1,-1,-1,-1,-1,-1,-1,-1,-1,-1,-1,-1,-1,-1,-1,-1,-1],"loss_changes":[6.586362E2,1.5748685E2,9.223468E1,1.4049488E1,3.049701E1,4.678589E0,1.1937332E1,5.102995E0,1.2211221E1,1.0384048E1,1.0768585E1,4.0480347E0,0E0,1.9480972E0,2.5640526E0,5.1746063E0,5.6941605E0,9.779045E0,8.709645E0,7.5247736E0,7.3766823E0,8.867254E0,8.856384E0,2.4246216E0,5.804947E0,2.6621895E0,0E0,1.6008141E0,0E0,0E0,0E0,0E0,0E0,0E0,0E0,0E0,0E0,0E0,0E0,0E0,0E0,0E0,0E0,0E0,0E0,0E0,0E0,0E0,0E0,0E0,0E0,0E0,0E0],"parents":[2147483647,0,0,1,1,2,2,3,3,4,4,5,5,6,6,7,7,8,8,9,9,10,10,11,11,13,13,14,14,15,15,16,16,17,17,18,18,19,19,20,20,21,21,22,22,23,23,24,24,25,25,27,27],"right_children":[2,4,6,8,10,12,14,16,18,20,22,24,-1,26,28,30,32,34,36,38,40,42,44,46,48,50,-1,52,-1,-1,-1,-1,-1,-1,-1,-1,-1,-1,-1,-1,-1,-1,-1,-1,-1,-1,-1,-1,-1,-1,-1,-1,-1],"split_conditions":[9.20001E0,3.6E0,2.24E1,1.2919973E-1,4.2E0,3.49E-1,3.73E-1,3.19E-1,3.4E0,7.88E1,2.8E1,8.48E1,-7.7200816E-3,2.96E-1,3.64E-1,8.11E1,2.51E-1,3.13E-1,8.6E1,2.24E-1,1.984589E-1,5.084918E-2,5.11E-1,2.7E0,8.52E1,2.09E-1,-3.4888335E-2,2.63E-1,2.283974E-2,-1.23375235E-2,-4.348435E-3,3.1469967E-2,-9.893179E-3,3.3688496E-3,-5.2696494E-3,-2.9729554E-4,9.829985E-3,1.0768442E-3,6.3797496E-3,5.09656E-3,1.1295503E-2,2.6161924E-2,-2.7991969E-3,9.494044E-3,1.7096529E-2,-2.3944143E-2,-3.5328146E-2,-1.215261E-3,-2.9653264E-2,-1.4323475E-2,1.0381027E-2,4.1288896E-3,-1.1229028E-2],"split_indices":[10,10,3,7,10,15,14,15,10,5,4,5,0,15,15,5,12,15,5,12,0,7,14,3,5,12,0,12,0,0,0,0,0,0,0,0,0,0,0,0,0,0,0,0,0,0,0,0,0,0,0,0,0],"split_type":[0,0,0,0,0,0,0,0,0,0,0,0,0,0,0,0,0,0,0,0,0,0,0,0,0,0,0,0,0,0,0,0,0,0,0,0,0,0,0,0,0,0,0,0,0,0,0,0,0,0,0,0,0],"sum_hessian":[1.8846355E4,1.658513E4,2.2612249E3,5.271186E3,1.1313944E4,1.4054615E3,8.5576337E2,9.42489E2,4.3286973E3,5.558411E3,5.755533E3,1.3866073E3,1.885416E1,7.5021045E2,1.05552925E2,9.1093134E2,3.1557657E1,2.8607114E3,1.4679857E3,3.285408E3,2.273003E3,2.8742688E2,5.4681064E3,1.0877494E3,2.9885797E2,7.394372E2,1.0773247E1,9.163268E1,1.3920244E1,6.037629E2,3.0716843E2,1.5336079E1,1.6221579E1,3.7666418E2,2.484047E3,1.2115929E3,2.5639282E2,2.3510886E3,9.3431946E2,1.5828333E3,6.901696E2,2.8420778E1,2.590061E2,5.052553E3,4.1555313E2,5.8304916E1,1.0294445E3,1.9264301E1,2.7959366E2,7.2903796E2,1.0399284E1,7.037182E1,2.126086E1],"tree_param":{"num_deleted":"0","num_feature":"29","num_nodes":"53","size_leaf_vector":"1"}},{"base_weights":[-4.1799103E-3,5.9538126E-2,-4.812716E-1,-5.863219E-2,1.4758852E-1,-6.3286287E-1,-2.3835677E-1,-1.5199417E-1,-2.8406532E-2,1.3218647E-1,2.6590765E-1,-6.4165723E-1,-8.495863E-2,-2.7383363E-1,1.4660377E-2,-2.4143896E-1,-9.473361E-2,-4.320607E-2,1.1146611E-1,6.1357148E-2,1.5359801E-1,2.0975392E-1,3.597848E-1,-7.6889807E-1,-6.297345E-1,1.5198106E-2,-2.4789875E-2,7.670698E-3,-2.7987525E-1,2.3352483E-1,-1.10039786E-1,-1.07000265E-2,-3.5959728E-2,-6.0655605E-3,5.6818677E-3,-1.9803839E-3,-3.5507254E-2,3.0580044E-3,2.0185215E-2,-5.147133E-4,6.1886804E-3,2.685727E-3,8.464607E-3,4.2247972E-3,1.3011484E-2,1.661026E-2,5.4219496E-2,-4.2158607E-2,-2.4852568E-2,-2.2720566E-2,-3.2513555E-2,-1.3592474E-2,-3.8088005E-2,-6.9811107E-3,2.8103251E-2,-2.9810432E-2,-5.5095035E-4],"categories":[],"categories_nodes":[],"categories_segments":[],"categories_sizes":[],"default_left":[0,0,0,0,1,1,1,1,1,1,0,0,0,0,0,0,1,1,0,1,0,0,0,0,0,0,0,0,1,0,0,0,0,0,0,0,0,0,0,0,0,0,0,0,0,0,0,0,0,0,0,0,0,0,0,0,0],"id":17,"left_children":[1,3,5,7,9,11,13,15,17,19,21,23,25,27,29,31,33,35,37,39,41,43,45,47,49,-1,-1,-1,51,53,55,-1,-1,-1,-1,-1,-1,-1,-1,-1,-1,-1,-1,-1,-1,-1,-1,-1,-1,-1,-1,-1,-1,-1,-1,-1,-1],"loss_changes":[5.7277313E2,1.7295724E2,8.1594666E1,2.0024988E1,1.7322845E1,6.5289307E0,7.675289E0,8.866558E0,1.1106674E1,1.2775101E1,5.7027206E0,1.555542E0,3.7836258E0,1.9777985E0,2.9198923E0,8.71814E0,5.883277E0,1.1612984E1,7.523518E0,8.760008E0,1.0137024E1,4.329487E0,7.81044E0,1.8154297E0,4.150757E0,0E0,0E0,0E0,2.652832E0,4.836336E0,3.2782664E0,0E0,0E0,0E0,0E0,0E0,0E0,0E0,0E0,0E0,0E0,0E0,0E0,0E0,0E0,0E0,0E0,0E0,0E0,0E0,0E0,0E0,0E0,0E0,0E0,0E0,0E0],"parents":[2147483647,0,0,1,1,2,2,3,3,4,4,5,5,6,6,7,7,8,8,9,9,10,10,11,11,12,12,13,13,14,14,15,15,16,16,17,17,18,18,19,19,20,20,21,21,22,22,23,23,24,24,28,28,29,29,30,30],"right_children":[2,4,6,8,10,12,14,16,18,20,22,24,26,28,30,32,34,36,38,40,42,44,46,48,50,-1,-1,-1,52,54,56,-1,-1,-1,-1,-1,-1,-1,-1,-1,-1,-1,-1,-1,-1,-1,-1,-1,-1,-1,-1,-1,-1,-1,-1,-1,-1],"split_conditions":[9.20001E0,3.8E0,2.25E1,3.2E0,2.73E-1,4.72E-1,3.7E-1,1.68E2,4.06E-1,-8.026076E0,1.176E1,-2.436E1,5.06E-1,3.5E-1,4.05E-1,1.35E1,2.86E-1,3.27E-1,2.3457983E1,2.05E2,4.17E-1,1.18E2,1.24E1,3.05E2,-1.1693662E1,1.5198106E-2,-2.4789875E-2,7.670698E-3,2.96E-1,2.97E-1,4.23E-1,-1.07000265E-2,-3.5959728E-2,-6.0655605E-3,5.6818677E-3,-1.9803839E-3,-3.5507254E-2,3.0580044E-3,2.0185215E-2,-5.147133E-4,6.1886804E-3,2.685727E-3,8.464607E-3,4.2247972E-3,1.3011484E-2,1.661026E-2,5.4219496E-2,-4.2158607E-2,-2.4852568E-2,-2.2720566E-2,-3.2513555E-2,-1.3592474E-2,-3.8088005E-2,-6.9811107E-3,2.8103251E-2,-2.9810432E-2,-5.5095035E-4],"split_indices":[10,10,3,10,11,13,14,4,14,6,6,6,13,13,13,3,15,15,6,4,13,4,3,4,6,0,0,0,15,15,13,0,0,0,0,0,0,0,0,0,0,0,0,0,0,0,0,0,0,0,0,0,0,0,0,0,0],"split_type":[0,0,0,0,0,0,0,0,0,0,0,0,0,0,0,0,0,0,0,0,0,0,0,0,0,0,0,0,0,0,0,0,0,0,0,0,0,0,0,0,0,0,0,0,0,0,0,0,0,0,0,0,0,0,0,0,0],"sum_hessian":[1.8839684E4,1.662077E4,2.2189136E3,7.09674E3,9.524029E3,1.3652947E3,8.536189E2,1.7346547E3,5.3620854E3,8.428921E3,1.0951078E3,1.3435582E3,2.1736494E1,7.485751E2,1.0504386E2,6.7579755E2,1.0588572E3,4.8496484E3,5.124368E2,1.9574724E3,6.471449E3,6.872535E2,4.078543E2,1.09668724E2,1.2338895E3,1.1299737E1,1.0436757E1,1.0097736E1,7.384773E2,3.780995E1,6.723391E1,6.4046246E2,3.5335083E1,9.394488E2,1.1940838E2,4.8246772E3,2.4971605E1,4.3821207E2,7.4224754E1,9.11707E2,1.0457654E3,8.793506E2,5.5920986E3,1.981669E2,4.8908658E2,3.943049E2,1.3549408E1,8.448426E1,2.5184458E1,1.3180235E2,1.1020872E3,7.27918E2,1.0559283E1,1.7972404E1,1.983755E1,1.0527128E1,5.6706783E1],"tree_param":{"num_deleted":"0","num_feature":"29","num_nodes":"57","size_leaf_vector":"1"}},{"base_weights":[-2.0232634E-3,5.475521E-2,-2.6722762E-1,4.1358378E-2,2.13125E-1,-3.30143E-1,1.4805566E-1,1.4653798E-2,6.865706E-2,-2.2916395E-2,2.2465152E-1,-3.7759012E-1,1.4555782E-1,-2.0085584E-1,2.544456E-1,9.665572E-3,2.110934E-1,-1.535959E-1,7.5672686E-2,2.0931362E-1,6.310408E-1,-5.406887E-1,-2.0356926E-1,-4.5829046E-1,2.7245304E-1,-3.721676E-2,-6.376403E-1,2.180103E-1,4.0329676E-2,-3.321262E-3,1.0572885E-3,-1.742097E-2,1.3411087E-2,-2.0717245E-2,-4.3951834E-4,-6.3605593E-3,4.131158E-3,9.768742E-3,2.9187579E-2,5.0917137E-2,2.333175E-2,-2.8698787E-2,3.739719E-3,1.455379E-3,-1.3090079E-2,-1.16916625E-2,-4.4988822E-2,3.9720037E-3,2.3348434E-2,5.218729E-3,-2.2392252E-2,-4.1030884E-2,-1.965548E-2,-1.5934069E-3,1.4203019E-2],"categories":[],"categories_nodes":[],"categories_segments":[],"categories_sizes":[],"default_left":[0,1,1,0,0,0,0,0,0,0,0,0,0,0,1,0,0,0,0,0,0,0,0,0,1,0,0,0,0,0,0,0,0,0,0,0,0,0,0,0,0,0,0,0,0,0,0,0,0,0,0,0,0,0,0],"id":18,"left_children":[1,3,5,7,9,11,13,15,17,-1,19,21,23,25,27,29,31,33,35,37,39,41,43,45,47,49,51,53,-1,-1,-1,-1,-1,-1,-1,-1,-1,-1,-1,-1,-1,-1,-1,-1,-1,-1,-1,-1,-1,-1,-1,-1,-1,-1,-1],"loss_changes":[2.8387817E2,3.2936302E1,8.690889E1,1.0436935E1,9.474415E0,6.522452E1,1.6312883E1,7.091464E0,1.1051147E1,0E0,7.2921906E0,7.4415985E1,2.0246109E1,7.3327875E0,6.586796E0,6.169361E0,5.822174E0,8.189058E0,9.689812E0,5.884239E0,2.2515411E0,2.7799896E1,1.7241695E1,4.3452406E0,8.133226E0,4.4617352E0,9.2973423E-1,5.2362814E0,0E0,0E0,0E0,0E0,0E0,0E0,0E0,0E0,0E0,0E0,0E0,0E0,0E0,0E0,0E0,0E0,0E0,0E0,0E0,0E0,0E0,0E0,0E0,0E0,0E0,0E0,0E0],"parents":[2147483647,0,0,1,1,2,2,3,3,4,4,5,5,6,6,7,7,8,8,10,10,11,11,12,12,13,13,14,14,15,15,16,16,17,17,18,18,19,19,20,20,21,21,22,22,23,23,24,24,25,25,26,26,27,27],"right_children":[2,4,6,8,10,12,14,16,18,-1,20,22,24,26,28,30,32,34,36,38,40,42,44,46,48,50,52,54,-1,-1,-1,-1,-1,-1,-1,-1,-1,-1,-1,-1,-1,-1,-1,-1,-1,-1,-1,-1,-1,-1,-1,-1,-1,-1,-1],"split_conditions":[5.099233E0,2.72E-1,9.81E1,7.61E1,2.3E-1,1E0,1.0749107E-1,9.231282E-1,1.9E0,-2.2916395E-2,8.113579E-1,1E0,6.26E1,2.72E2,3.43E-1,6.3E1,-3.2742474E1,8.14E1,2.86E-1,3.6243942E1,-4.148291E-1,1E0,2.00001E0,1.18E1,8E0,7.7442594E-2,5.5185337E1,4.8E0,4.0329676E-2,-3.321262E-3,1.0572885E-3,-1.742097E-2,1.3411087E-2,-2.0717245E-2,-4.3951834E-4,-6.3605593E-3,4.131158E-3,9.768742E-3,2.9187579E-2,5.0917137E-2,2.333175E-2,-2.8698787E-2,3.739719E-3,1.455379E-3,-1.3090079E-2,-1.16916625E-2,-4.4988822E-2,3.9720037E-3,2.3348434E-2,5.218729E-3,-2.2392252E-2,-4.1030884E-2,-1.965548E-2,-1.5934069E-3,1.4203019E-2],"split_indices":[0,11,5,5,12,26,7,7,3,0,7,8,5,4,16,4,6,5,15,6,0,28,8,3,3,7,6,3,0,0,0,0,0,0,0,0,0,0,0,0,0,0,0,0,0,0,0,0,0,0,0,0,0,0,0],"split_type":[0,0,0,0,0,0,0,0,0,0,0,0,0,0,0,0,0,0,0,0,0,0,0,0,0,0,0,0,0,0,0,0,0,0,0,0,0,0,0,0,0,0,0,0,0,0,0,0,0,0,0,0,0,0,0],"sum_hessian":[1.885047E4,1.5527031E4,3.32344E3,1.4317173E4,1.2098586E3,2.8863613E3,4.3707855E2,7.2381177E3,7.0790557E3,1.9764355E1,1.1900944E3,2.6247693E3,2.615922E2,1.01924355E2,3.351542E2,7.0598936E3,1.7822395E2,2.159798E2,6.8630757E3,1.1482715E3,4.1822876E1,1.3538167E3,1.2709525E3,4.497256E1,2.1661963E2,7.4935394E1,2.698896E1,3.157155E2,1.9438696E1,9.248955E2,6.134998E3,1.6039066E1,1.6218489E2,7.645219E1,1.3952762E2,2.2675673E2,6.636319E3,1.1085273E3,3.9744152E1,1.09151745E1,3.09077E1,1.2844192E3,6.939752E1,2.5451117E2,1.01644135E3,3.0828566E1,1.4143992E1,1.0943672E2,1.0718291E2,5.6276245E1,1.8659151E1,1.4089891E1,1.289907E1,6.611373E1,2.4960178E2],"tree_param":{"num_deleted":"0","num_feature":"29","num_nodes":"55","size_leaf_vector":"1"}},{"base_weights":[-3.422384E-4,8.022984E-2,-3.1008294E-1,1.3549146E-1,-1.786345E-2,-1.5348096E-1,-4.3444994E-1,1.2818708E-1,3.0647925E-1,-2.4026264E-2,2.6285827E-1,-7.77238E-2,-2.242718E-1,-5.8636826E-1,-1.9680749E-1,8.589381E-2,1.5229586E-1,3.3603612E-1,-1.2417427E-2,-2.6899916E-1,-1.8784769E-2,6.782047E-1,6.0518283E-2,-9.087023E-2,4.0230993E-2,-2.570085E-2,-2.5415713E-1,-5.9411526E-1,-1.1741281E-1,-2.2689573E-1,7.55447E-2,4.650081E-3,-1.7072E-2,2.4252629E-2,7.3260064E-3,9.823993E-3,2.4290722E-2,3.0403573E-3,-2.0527245E-2,7.786198E-3,-1.5974644E-3,1.1208681E-2,4.530467E-2,8.29424E-3,-2.3072636E-2,-5.4316204E-3,5.1705106E-3,-7.0514306E-3,1.8799089E-2,-1.1702361E-2,-3.1432696E-2,-3.83217E-2,-2.9168114E-2,-2.1064108E-2,9.430456E-3,6.8815686E-3,-1.1807589E-2,-1.5242944E-3,1.693482E-2],"categories":[],"categories_nodes":[],"categories_segments":[],"categories_sizes":[],"default_left":[0,0,0,1,1,0,0,1,0,0,0,0,0,1,1,1,0,0,0,0,0,0,0,1,0,0,0,0,0,0,0,0,0,0,0,0,0,0,0,0,0,0,0,0,0,0,0,0,0,0,0,0,0,0,0,0,0,0,0],"id":19,"left_children":[1,3,5,7,9,11,13,15,17,19,21,23,25,27,29,31,33,35,-1,37,39,41,43,45,-1,47,49,51,53,55,57,-1,-1,-1,-1,-1,-1,-1,-1,-1,-1,-1,-1,-1,-1,-1,-1,-1,-1,-1,-1,-1,-1,-1,-1,-1,-1,-1,-1],"loss_changes":[4.6845535E2,8.075082E1,7.540076E1,1.1861252E1,9.294338E0,9.189098E0,7.783533E1,9.306122E0,6.4732246E0,6.7415643E0,9.658419E0,9.710047E0,5.2567024E0,4.713623E0,6.929474E0,1.0117994E1,1.1114532E1,7.646042E0,0E0,5.159667E0,1.1825362E1,3.6985474E0,4.405155E0,2.8391857E0,0E0,5.479221E0,5.6576614E0,1.9524536E0,2.1850772E0,2.5963058E0,2.3727417E0,0E0,0E0,0E0,0E0,0E0,0E0,0E0,0E0,0E0,0E0,0E0,0E0,0E0,0E0,0E0,0E0,0E0,0E0,0E0,0E0,0E0,0E0,0E0,0E0,0E0,0E0,0E0,0E0],"parents":[2147483647,0,0,1,1,2,2,3,3,4,4,5,5,6,6,7,7,8,8,9,9,10,10,11,11,12,12,13,13,14,14,15,15,16,16,17,17,19,19,20,20,21,21,22,22,23,23,25,25,26,26,27,27,28,28,29,29,30,30],"right_children":[2,4,6,8,10,12,14,16,18,20,22,24,26,28,30,32,34,36,-1,38,40,42,44,46,-1,48,50,52,54,56,58,-1,-1,-1,-1,-1,-1,-1,-1,-1,-1,-1,-1,-1,-1,-1,-1,-1,-1,-1,-1,-1,-1,-1,-1,-1,-1,-1,-1],"split_conditions":[9E0,6E0,1.800001E1,5.24E-1,2.7E-1,-1.311123E-1,2.36E1,1.6E2,4E0,3.43E-1,5.7E0,-1.4466248E-1,3.75E-1,4.72E-1,2.43E-1,5.06E-1,1.63E2,2.07E2,-1.2417427E-2,1.47E2,3E-1,3.13E-1,2.95E2,2.93E-1,4.0230993E-2,7.2819275E-1,3.5E2,2.34E-1,7.4E0,2.26E-1,3.48E-1,4.650081E-3,-1.7072E-2,2.4252629E-2,7.3260064E-3,9.823993E-3,2.4290722E-2,3.0403573E-3,-2.0527245E-2,7.786198E-3,-1.5974644E-3,1.1208681E-2,4.530467E-2,8.29424E-3,-2.3072636E-2,-5.4316204E-3,5.1705106E-3,-7.0514306E-3,1.8799089E-2,-1.1702361E-2,-3.1432696E-2,-3.83217E-2,-2.9168114E-2,-2.1064108E-2,9.430456E-3,6.8815686E-3,-1.1807589E-2,-1.5242944E-3,1.693482E-2],"split_indices":[9,9,9,13,12,0,3,4,9,13,3,0,14,13,11,13,4,4,0,4,15,15,4,16,0,0,4,11,3,11,16,0,0,0,0,0,0,0,0,0,0,0,0,0,0,0,0,0,0,0,0,0,0,0,0,0,0,0,0],"split_type":[0,0,0,0,0,0,0,0,0,0,0,0,0,0,0,0,0,0,0,0,0,0,0,0,0,0,0,0,0,0,0,0,0,0,0,0,0,0,0,0,0,0,0,0,0,0,0,0,0,0,0,0,0,0,0,0,0,0,0],"sum_hessian":[1.8768914E4,1.4895045E4,3.8738699E3,9.527354E3,5.367691E3,1.7157032E3,2.1581665E3,9.138709E3,3.8864447E2,5.253278E3,1.1441318E2,8.297937E2,8.859096E2,1.3156439E3,8.425225E2,3.3196729E3,5.8190366E3,3.693621E2,1.9282375E1,1.0899159E2,5.144286E3,3.6708748E1,7.770443E1,8.184956E2,1.1298116E1,1.1613283E2,7.697768E2,1.2940006E3,2.1643337E1,7.5885455E2,8.366795E1,3.26613E3,5.354293E1,9.7863335E1,5.7211733E3,1.9240248E2,1.7695961E2,3.2901173E1,7.6090416E1,3.600913E2,4.784195E3,1.29305105E1,2.3778238E1,6.522094E1,1.2483485E1,7.5033655E2,6.8159004E1,9.073163E1,2.5401201E1,7.320896E2,3.7687157E1,7.1877075E1,1.2221235E3,1.0670879E1,1.0972459E1,1.8448162E1,7.4040643E2,6.026841E1,2.3399542E1],"tree_param":{"num_deleted":"0","num_feature":"29","num_nodes":"59","size_leaf_vector":"1"}},{"base_weights":[-1.5634273E-3,5.341361E-2,-4.28985E-1,-7.03827E-2,1.1075497E-1,-5.7681733E-1,-2.2126995E-1,-1.1906163E-1,-3.5390697E-2,6.709447E-2,1.5318753E-1,-5.8403814E-1,-1.3414007E-1,-2.5521666E-1,1.730828E-2,-1.3809375E-1,7.312928E-2,-3.9086703E-2,3.3466477E-2,-1.0853678E-2,8.076693E-2,1.4671694E-1,5.288749E-1,-5.998478E-1,-4.4328287E-1,6.726242E-3,-1.9240826E-2,-2.4359909E-1,-5.7548726E-1,-2.113371E-1,8.2951546E-2,1.0584089E-3,-8.010618E-3,-6.0770703E-3,9.597478E-3,-7.863888E-3,-9.598094E-4,-2.27898E-2,2.0794764E-4,3.0690979E-3,7.798621E-3,3.0276803E-3,8.499105E-3,4.434977E-2,2.0519938E-2,-2.8768081E-2,-3.9840873E-2,9.622873E-3,-2.5491027E-2,-1.2654227E-2,7.289439E-3,-3.718482E-2,-1.4215775E-2,4.5633293E-3,-2.1549113E-2,2.3026625E-2,-3.2659385E-3],"categories":[],"categories_nodes":[],"categories_segments":[],"categories_sizes":[],"default_left":[0,0,0,1,0,1,1,0,0,0,1,0,0,0,0,0,0,0,0,0,1,1,0,0,0,0,0,1,0,0,0,0,0,0,0,0,0,0,0,0,0,0,0,0,0,0,0,0,0,0,0,0,0,0,0,0,0],"id":20,"left_children":[1,3,5,7,9,11,13,15,17,19,21,23,25,27,29,31,33,35,-1,37,39,41,43,45,47,-1,-1,49,51,53,55,-1,-1,-1,-1,-1,-1,-1,-1,-1,-1,-1,-1,-1,-1,-1,-1,-1,-1,-1,-1,-1,-1,-1,-1,-1,-1],"loss_changes":[4.4139355E2,1.1815265E2,6.5608E1,8.971287E0,2.1063416E1,3.917328E0,7.226372E0,8.069077E0,8.014681E0,5.9777584E0,1.3943619E1,2.470459E0,1.4903802E0,2.7646294E0,1.6987195E0,7.066498E0,4.6304E0,7.1717854E0,0E0,5.598097E0,6.946432E0,1.1359001E1,3.7632751E0,4.8597107E0,5.512619E0,0E0,0E0,2.8259087E0,1.0910759E0,1.7187123E0,4.942395E0,0E0,0E0,0E0,0E0,0E0,0E0,0E0,0E0,0E0,0E0,0E0,0E0,0E0,0E0,0E0,0E0,0E0,0E0,0E0,0E0,0E0,0E0,0E0,0E0,0E0,0E0],"parents":[2147483647,0,0,1,1,2,2,3,3,4,4,5,5,6,6,7,7,8,8,9,9,10,10,11,11,12,12,13,13,14,14,15,15,16,16,17,17,19,19,20,20,21,21,22,22,23,23,24,24,27,27,28,28,29,29,30,30],"right_children":[2,4,6,8,10,12,14,16,18,20,22,24,26,28,30,32,34,36,-1,38,40,42,44,46,48,-1,-1,50,52,54,56,-1,-1,-1,-1,-1,-1,-1,-1,-1,-1,-1,-1,-1,-1,-1,-1,-1,-1,-1,-1,-1,-1,-1,-1,-1,-1],"split_conditions":[9.20001E0,3.6E0,4.309658E1,2.7622757E0,4.2E0,4.72E-1,3.7E-1,7.525788E-1,1.94E1,1.0268349E-1,5.88E-1,8.77E1,5E-1,1.7616236E-1,3.04E-1,3.88E-1,3.2E0,9.79459E-2,3.3466477E-2,-4.3739594E1,4.07E-1,-9.220167E0,2.4338792E-1,1.8400002E1,3.403691E-2,6.726242E-3,-1.9240826E-2,4.7E0,1.053E2,3.73E-1,3.22E-1,1.0584089E-3,-8.010618E-3,-6.0770703E-3,9.597478E-3,-7.863888E-3,-9.598094E-4,-2.27898E-2,2.0794764E-4,3.0690979E-3,7.798621E-3,3.0276803E-3,8.499105E-3,4.434977E-2,2.0519938E-2,-2.8768081E-2,-3.9840873E-2,9.622873E-3,-2.5491027E-2,-1.2654227E-2,7.289439E-3,-3.718482E-2,-1.4215775E-2,4.5633293E-3,-2.1549113E-2,2.3026625E-2,-3.2659385E-3],"split_indices":[10,10,6,6,10,13,14,7,3,7,13,5,13,7,15,14,10,7,0,6,14,6,7,6,7,0,0,3,5,13,15,0,0,0,0,0,0,0,0,0,0,0,0,0,0,0,0,0,0,0,0,0,0,0,0,0,0],"split_type":[0,0,0,0,0,0,0,0,0,0,0,0,0,0,0,0,0,0,0,0,0,0,0,0,0,0,0,0,0,0,0,0,0,0,0,0,0,0,0,0,0,0,0,0,0,0,0,0,0,0,0,0,0,0,0,0,0],"sum_hessian":[1.878203E4,1.6642291E4,2.1397373E3,5.26825E3,1.1374042E4,1.2490221E3,8.907153E2,2.202229E3,3.066021E3,5.607179E3,5.7668623E3,1.2286613E3,2.0360893E1,7.797035E2,1.1101182E2,2.0040543E3,1.9817451E2,3.0509644E3,1.5056686E1,8.367854E2,4.770394E3,5.6705864E3,9.627597E1,1.1016609E3,1.2700028E2,1.0051478E1,1.0309415E1,7.541093E2,2.5594141E1,2.426694E1,8.674488E1,2.4439134E2,1.7596631E3,7.510402E1,1.230705E2,4.3849347E2,2.612471E3,2.6353811E1,8.104316E2,3.7942134E3,9.7618066E2,1.2063673E3,4.4642188E3,2.2320515E1,7.395545E1,9.833385E2,1.1832242E2,1.1853403E1,1.1514688E2,7.365179E2,1.7591448E1,1.52373905E1,1.03567505E1,1.0451902E1,1.3815036E1,2.3864979E1,6.28799E1],"tree_param":{"num_deleted":"0","num_feature":"29","num_nodes":"57","size_leaf_vector":"1"}},{"base_weights":[2.762513E-3,5.454988E-2,-4.062491E-1,-1.9854965E-2,1.4123513E-1,-5.5111766E-1,-2.0252436E-1,-9.291806E-2,2.592311E-2,-4.4090077E-2,1.4269657E-1,-5.624045E-1,-3.1791076E-1,-2.3572102E-1,3.5360247E-2,-1.6755027E-1,-4.9589492E-2,1.4385235E-2,1.8294857E-1,1.3152847E-1,2.656405E-1,-4.5697637E-2,-5.5545485E-1,-5.795048E-1,-2.2896356E-3,-2.268427E-1,-3.8390305E-2,1.4718923E-1,-2.597478E-1,5.079343E-3,-9.657264E-3,-2.72856E-3,3.9044265E-2,7.961991E-3,2.9104922E-5,-5.218051E-4,1.701476E-2,1.1986558E-3,7.1669417E-3,1.468457E-2,-1.0428003E-2,-1.7036876E-2,-2.8493881E-2,-8.050071E-3,-3.8582005E-2,-2.3901941E-2,2.344361E-2,-1.1613165E-2,4.7632433E-3,-1.4367067E-4,2.9161483E-2,-5.6964937E-3,-2.2070864E-2],"categories":[],"categories_nodes":[],"categories_segments":[],"categories_sizes":[],"default_left":[0,0,0,0,0,1,1,1,0,0,1,0,0,1,0,0,0,0,1,0,0,0,0,0,0,1,0,0,0,0,0,0,0,0,0,0,0,0,0,0,0,0,0,0,0,0,0,0,0,0,0,0,0],"id":21,"left_children":[1,3,5,7,9,11,13,15,17,-1,19,21,23,25,27,29,31,33,35,37,39,-1,41,43,45,47,-1,49,51,-1,-1,-1,-1,-1,-1,-1,-1,-1,-1,-1,-1,-1,-1,-1,-1,-1,-1,-1,-1,-1,-1,-1,-1],"loss_changes":[3.9798166E2,1.0756828E2,6.220932E1,3.0021732E1,1.1642822E1,3.0679626E0,6.950798E0,1.1172258E1,9.995846E0,0E0,1.0527924E1,2.363617E0,4.8901014E0,3.4708862E0,3.6198294E0,8.765137E0,9.098659E0,1.0281174E1,1.14951935E1,8.957451E0,8.569679E0,0E0,3.3826904E0,2.480257E0,6.4675703E0,1.3497276E0,0E0,5.193291E0,7.493532E-1,0E0,0E0,0E0,0E0,0E0,0E0,0E0,0E0,0E0,0E0,0E0,0E0,0E0,0E0,0E0,0E0,0E0,0E0,0E0,0E0,0E0,0E0,0E0,0E0],"parents":[2147483647,0,0,1,1,2,2,3,3,4,4,5,5,6,6,7,7,8,8,10,10,11,11,12,12,13,13,14,14,15,15,16,16,17,17,18,18,19,19,20,20,22,22,23,23,24,24,25,25,27,27,28,28],"right_children":[2,4,6,8,10,12,14,16,18,-1,20,22,24,26,28,30,32,34,36,38,40,-1,42,44,46,48,-1,50,52,-1,-1,-1,-1,-1,-1,-1,-1,-1,-1,-1,-1,-1,-1,-1,-1,-1,-1,-1,-1,-1,-1,-1,-1],"split_conditions":[9.20001E0,4E0,4.6046333E1,3.4E0,2.02E-1,3.28E-1,3.7E-1,1.9165812E-1,5.099233E0,-4.4090077E-2,3.1252625E1,7.388611E-3,7.4E0,2.99E-1,2.64E-1,2.88E-1,1.94E1,3E-1,7.4E0,3.22E-1,1.099E2,-4.5697637E-2,3.204959E-2,3.36E-1,7.43E1,1.063E2,-3.8390305E-2,2.52E-1,2.81E-1,5.079343E-3,-9.657264E-3,-2.72856E-3,3.9044265E-2,7.961991E-3,2.9104922E-5,-5.218051E-4,1.701476E-2,1.1986558E-3,7.1669417E-3,1.468457E-2,-1.0428003E-2,-1.7036876E-2,-2.8493881E-2,-8.050071E-3,-3.8582005E-2,-2.3901941E-2,2.344361E-2,-1.1613165E-2,4.7632433E-3,-1.4367067E-4,2.9161483E-2,-5.6964937E-3,-2.2070864E-2],"split_indices":[10,10,6,10,11,15,14,6,0,0,6,7,3,15,12,15,3,15,3,16,5,0,7,15,5,5,0,12,11,0,0,0,0,0,0,0,0,0,0,0,0,0,0,0,0,0,0,0,0,0,0,0,0],"split_type":[0,0,0,0,0,0,0,0,0,0,0,0,0,0,0,0,0,0,0,0,0,0,0,0,0,0,0,0,0,0,0,0,0,0,0,0,0,0,0,0,0,0,0,0,0,0,0,0,0,0,0,0,0],"sum_hessian":[1.878695E4,1.6676328E4,2.1106213E3,8.974224E3,7.702104E3,1.232492E3,8.781293E2,3.4565085E3,5.517715E3,1.0127752E1,7.6919766E3,1.1742483E3,5.8243656E1,7.706014E2,1.0752789E2,1.2685687E3,2.1879397E3,5.141053E3,3.7666138E2,7.0533286E3,6.386477E2,2.0233425E1,1.1540149E3,3.1390453E1,2.6853205E1,7.593572E2,1.1244241E1,7.834201E1,2.9185883E1,1.0990671E2,1.158662E3,2.1758223E3,1.2117657E1,4.4635214E2,4.694701E3,1.6939836E2,2.0726302E2,6.981747E2,6.355154E3,6.033385E2,3.5309242E1,7.418703E1,1.0798279E3,1.0455201E1,2.0935251E1,1.3354294E1,1.3498911E1,7.470641E2,1.2293079E1,5.9022808E1,1.93192E1,1.7093126E1,1.2092756E1],"tree_param":{"num_deleted":"0","num_feature":"29","num_nodes":"53","size_leaf_vector":"1"}},{"base_weights":[-6.417974E-4,4.9263828E-2,-4.021114E-1,1.127474E-1,-3.6425356E-2,-5.478381E-1,-1.8135238E-1,1.00543685E-1,2.057499E-1,-1.0292661E-2,-1.18492365E-1,-7.7789664E-1,-5.339983E-1,-2.1428795E-1,9.005573E-2,3.8784117E-2,1.1905809E-1,2.1457379E-1,-2.2960968E-1,-1.6020497E-2,2.633733E-1,-1.07725754E-1,-5.5902725E-1,-2.3957035E-2,-8.797291E-1,-5.9868276E-2,-5.4252094E-1,-2.063192E-1,-3.0493323E-2,2.3680992E-2,-9.580233E-3,2.8994784E-3,-5.4304036E-3,4.622942E-3,8.616867E-3,9.76067E-3,2.1039067E-2,-2.2656564E-2,1.9306267E-3,-1.4231167E-3,5.128729E-3,1.6624095E-2,-1.7266138E-2,-5.8238753E-3,1.0125621E-2,-1.7000059E-2,-4.5460846E-2,-4.709172E-2,-3.0082254E-2,5.244628E-3,-1.1117461E-2,-2.7436892E-2,-3.87697E-3,-1.0642353E-2,2.6420313E-3,-1.3924743E-2,1.2081494E-2],"categories":[],"categories_nodes":[],"categories_segments":[],"categories_sizes":[],"default_left":[0,0,0,1,0,0,1,1,0,0,0,0,0,1,0,0,0,0,0,1,1,1,0,0,0,0,1,1,0,0,0,0,0,0,0,0,0,0,0,0,0,0,0,0,0,0,0,0,0,0,0,0,0,0,0,0,0],"id":22,"left_children":[1,3,5,7,9,11,13,15,17,19,21,23,25,27,29,31,33,35,37,39,41,43,45,-1,47,49,51,53,-1,-1,55,-1,-1,-1,-1,-1,-1,-1,-1,-1,-1,-1,-1,-1,-1,-1,-1,-1,-1,-1,-1,-1,-1,-1,-1,-1,-1],"loss_changes":[3.76045E2,9.0815475E1,6.665915E1,1.0863281E1,1.52366295E1,3.5629883E0,7.408636E0,9.690819E0,4.3188553E0,8.453369E0,8.0786495E0,1.66893E0,4.7429504E0,2.198906E0,3.4502356E0,5.54639E0,9.228455E0,4.268852E0,1.3701597E0,7.794657E0,4.765677E0,4.574827E0,2.812459E0,0E0,2.9772186E-1,6.120574E-1,3.3130493E0,1.2368069E0,0E0,0E0,4.9683876E0,0E0,0E0,0E0,0E0,0E0,0E0,0E0,0E0,0E0,0E0,0E0,0E0,0E0,0E0,0E0,0E0,0E0,0E0,0E0,0E0,0E0,0E0,0E0,0E0,0E0,0E0],"parents":[2147483647,0,0,1,1,2,2,3,3,4,4,5,5,6,6,7,7,8,8,9,9,10,10,11,11,12,12,13,13,14,14,15,15,16,16,17,17,18,18,19,19,20,20,21,21,22,22,24,24,25,25,26,26,27,27,30,30],"right_children":[2,4,6,8,10,12,14,16,18,20,22,24,26,28,30,32,34,36,38,40,42,44,46,-1,48,50,52,54,-1,-1,56,-1,-1,-1,-1,-1,-1,-1,-1,-1,-1,-1,-1,-1,-1,-1,-1,-1,-1,-1,-1,-1,-1,-1,-1,-1,-1],"split_conditions":[1.800001E1,6E0,2.24E1,2.73E-1,9E0,3.7E-1,3.9E-1,-8.026076E0,3.54E2,1.035E2,3.51E2,2.16E-1,3.88E-1,2.46E-1,4.07E-1,9.659258E-1,1.8355723E-1,3.12E2,7E0,4.06E-1,2.91E2,3.11E-1,8.9E0,-2.3957035E-2,2.69E-1,2.12E2,3.52E-1,2.19E-1,-3.0493323E-2,2.3680992E-2,3.33E-1,2.8994784E-3,-5.4304036E-3,4.622942E-3,8.616867E-3,9.76067E-3,2.1039067E-2,-2.2656564E-2,1.9306267E-3,-1.4231167E-3,5.128729E-3,1.6624095E-2,-1.7266138E-2,-5.8238753E-3,1.0125621E-2,-1.7000059E-2,-4.5460846E-2,-4.709172E-2,-3.0082254E-2,5.244628E-3,-1.1117461E-2,-2.7436892E-2,-3.87697E-3,-1.0642353E-2,2.6420313E-3,-1.3924743E-2,1.2081494E-2],"split_indices":[9,9,3,11,9,14,14,6,4,5,4,11,14,11,14,0,0,4,3,14,4,16,3,0,11,4,15,11,0,0,15,0,0,0,0,0,0,0,0,0,0,0,0,0,0,0,0,0,0,0,0,0,0,0,0,0,0],"split_type":[0,0,0,0,0,0,0,0,0,0,0,0,0,0,0,0,0,0,0,0,0,0,0,0,0,0,0,0,0,0,0,0,0,0,0,0,0,0,0,0,0,0,0,0,0,0,0,0,0,0,0,0,0,0,0,0,0],"sum_hessian":[1.876686E4,1.6692709E4,2.0741492E3,9.588598E3,7.1041113E3,1.2485074E3,8.256418E2,8.478179E3,1.110419E3,5.38916E3,1.7149512E3,6.771251E1,1.1807949E3,7.3647986E2,8.916193E1,1.9561226E3,6.5220566E3,1.088857E3,2.1561892E1,5.2795996E3,1.0956072E2,1.6752528E3,3.9698402E1,1.8663305E1,4.9049202E1,2.099192E1,1.159803E3,7.234283E2,1.3051583E1,1.7611235E1,7.155069E1,1.7311565E3,2.2496603E2,4.3520596E3,2.169997E3,9.9718054E2,9.1676476E1,1.1384932E1,1.017696E1,4.778994E3,5.0060526E2,9.879748E1,1.0763241E1,1.6298983E3,4.5354496E1,2.5635553E1,1.406285E1,3.8143623E1,1.0905579E1,1.0598816E1,1.03931055E1,1.144323E3,1.5479995E1,7.058281E2,1.760013E1,3.450513E1,3.7045563E1],"tree_param":{"num_deleted":"0","num_feature":"29","num_nodes":"57","size_leaf_vector":"1"}},{"base_weights":[-4.073368E-3,4.434809E-2,-3.9453027E-1,-2.420305E-2,1.23895414E-1,-5.437651E-1,-1.9233738E-1,-9.644309E-2,2.083521E-2,8.5186765E-2,1.5198831E-1,-5.5072963E-1,-2.509745E-3,-2.2555491E-1,3.8752865E-2,-1.6652487E-1,-5.5447243E-2,4.74113E-3,1.5230566E-1,1.5098028E-1,4.1985422E-2,2.1229768E-1,1.1134539E-1,-5.726631E-1,-4.5378345E-1,-2.170239E-1,-3.9395925E-2,2.3985015E-2,-2.2836782E-2,-8.900893E-3,1.8634548E-2,2.530869E-2,-3.242821E-3,-4.147276E-3,1.2628033E-3,6.944494E-3,4.302555E-2,3.0128655E-3,1.395417E-2,-1.0566363E-2,2.7645908E-3,-8.288082E-3,1.1944372E-2,-5.6246936E-4,7.5659784E-3,-2.7089491E-2,-3.5800897E-2,1.210874E-2,-2.5115598E-2,-3.4009214E-2,-1.0492782E-2,-1.3850934E-2,4.909056E-3],"categories":[],"categories_nodes":[],"categories_segments":[],"categories_sizes":[],"default_left":[0,0,0,0,1,1,1,0,1,0,0,0,0,1,0,1,0,1,0,0,1,0,0,0,0,0,0,0,0,0,0,0,0,0,0,0,0,0,0,0,0,0,0,0,0,0,0,0,0,0,0,0,0],"id":23,"left_children":[1,3,5,7,9,11,13,15,17,19,21,23,-1,25,27,29,31,33,35,37,39,41,43,45,47,49,-1,-1,51,-1,-1,-1,-1,-1,-1,-1,-1,-1,-1,-1,-1,-1,-1,-1,-1,-1,-1,-1,-1,-1,-1,-1,-1],"loss_changes":[3.5465826E2,9.100905E1,6.234494E1,2.9169907E1,8.387619E0,4.0635986E0,6.7670784E0,9.8826065E0,1.1685251E1,9.234207E0,1.0945442E1,2.2355652E0,0E0,3.5227165E0,3.039119E0,7.9380646E0,1.1519781E1,8.855522E0,5.603257E0,1.4954353E1,6.631078E0,1.8139603E1,1.3113514E1,3.8308105E0,7.5971107E0,2.3798141E0,0E0,0E0,3.0660841E0,0E0,0E0,0E0,0E0,0E0,0E0,0E0,0E0,0E0,0E0,0E0,0E0,0E0,0E0,0E0,0E0,0E0,0E0,0E0,0E0,0E0,0E0,0E0,0E0],"parents":[2147483647,0,0,1,1,2,2,3,3,4,4,5,5,6,6,7,7,8,8,9,9,10,10,11,11,13,13,14,14,15,15,16,16,17,17,18,18,19,19,20,20,21,21,22,22,23,23,24,24,25,25,28,28],"right_children":[2,4,6,8,10,12,14,16,18,20,22,24,-1,26,28,30,32,34,36,38,40,42,44,46,48,50,-1,-1,52,-1,-1,-1,-1,-1,-1,-1,-1,-1,-1,-1,-1,-1,-1,-1,-1,-1,-1,-1,-1,-1,-1,-1,-1],"split_conditions":[9.20001E0,4E0,4.4776558E1,3.4E0,1.77E2,4.76E-1,3.7E-1,7.22E1,2.53E-1,8.4E1,2.38E2,8.48E1,-2.509745E-3,3.68E-1,2.26E-1,2.58E-1,9.00026E-1,6.49E1,1.053E2,5.4E1,2.5E0,3.82E-1,4.2E0,1.284E1,8.51E1,1.75E2,-3.9395925E-2,2.3985015E-2,2.44E-1,-8.900893E-3,1.8634548E-2,2.530869E-2,-3.242821E-3,-4.147276E-3,1.2628033E-3,6.944494E-3,4.302555E-2,3.0128655E-3,1.395417E-2,-1.0566363E-2,2.7645908E-3,-8.288082E-3,1.1944372E-2,-5.6246936E-4,7.5659784E-3,-2.7089491E-2,-3.5800897E-2,1.210874E-2,-2.5115598E-2,-3.4009214E-2,-1.0492782E-2,-1.3850934E-2,4.909056E-3],"split_indices":[10,10,6,10,4,13,14,5,11,4,4,5,0,13,11,12,6,5,5,4,3,13,10,6,5,4,0,0,12,0,0,0,0,0,0,0,0,0,0,0,0,0,0,0,0,0,0,0,0,0,0,0,0],"split_type":[0,0,0,0,0,0,0,0,0,0,0,0,0,0,0,0,0,0,0,0,0,0,0,0,0,0,0,0,0,0,0,0,0,0,0,0,0,0,0,0,0,0,0,0,0,0,0,0,0,0,0,0,0],"sum_hessian":[1.875662E4,1.668799E4,2.0686296E3,8.963902E3,7.724087E3,1.1892078E3,8.7942175E2,3.4419597E3,5.521943E3,3.2500032E3,4.4740835E3,1.1725469E3,1.6660965E1,7.689192E2,1.1050257E2,1.2692072E3,2.1727524E3,4.920617E3,6.013259E2,1.2871866E3,1.9628167E3,1.7995447E3,2.6745388E3,9.52208E2,2.2033884E2,7.5879425E2,1.0124962E1,1.271091E1,9.7791664E1,1.2433754E3,2.5831741E1,3.4931667E1,2.1378208E3,9.3236816E2,3.988249E3,5.9132043E2,1.0005469E1,7.543935E2,5.327931E2,9.72173E1,1.8655994E3,1.1790541E2,1.6816393E3,6.5782056E2,2.0167183E3,7.8740875E2,1.6479922E2,1.4102427E1,2.062364E2,1.0133783E1,7.4866046E2,3.1126194E1,6.666547E1],"tree_param":{"num_deleted":"0","num_feature":"29","num_nodes":"53","size_leaf_vector":"1"}},{"base_weights":[-4.560693E-4,4.4395752E-2,-3.677048E-1,9.220009E-2,-6.0164932E-2,-5.0449157E-1,-1.644142E-1,1.1807917E-1,3.8519245E-2,-1.735238E-1,-3.5896048E-2,-5.2035904E-1,-2.6046175E-1,-1.7234747E-1,1.8816767E-2,1.0474681E-1,2.6612958E-1,2.8515032E-2,2.8737196E-1,-2.0151795E-1,8.748033E-2,3.2547798E-2,-7.1475856E-2,-5.378089E-1,-3.3506706E-1,-1.21025644E-1,-3.3928964E-2,5.201129E-3,-1.7928363E-1,-3.4860135E-3,5.5406746E-3,1.8044358E-2,4.0841307E-3,4.936819E-4,7.057166E-3,5.6688096E-3,2.3619622E-2,-8.948973E-3,-2.6844576E-2,-2.492968E-2,8.788743E-3,-2.2371765E-4,1.4871982E-2,-3.8503527E-3,2.9859325E-2,-2.6291022E-2,-4.632477E-2,-3.984818E-2,-9.311031E-3,-1.6363246E-2,1.2349774E-2,-1.9357529E-2,-8.565615E-3],"categories":[],"categories_nodes":[],"categories_segments":[],"categories_sizes":[],"default_left":[0,0,0,0,0,1,1,1,1,1,0,0,0,0,0,0,0,1,0,0,0,0,1,0,0,0,0,0,0,0,0,0,0,0,0,0,0,0,0,0,0,0,0,0,0,0,0,0,0,0,0,0,0],"id":24,"left_children":[1,3,5,7,9,11,13,15,17,19,21,23,25,27,-1,29,31,33,35,37,39,41,43,45,47,49,-1,-1,51,-1,-1,-1,-1,-1,-1,-1,-1,-1,-1,-1,-1,-1,-1,-1,-1,-1,-1,-1,-1,-1,-1,-1,-1],"loss_changes":[3.0875977E2,8.3503044E1,5.6647797E1,1.5921349E1,1.4414099E1,4.5848083E0,3.591465E0,1.5238998E1,9.279081E0,6.7692146E0,1.0519138E1,3.517517E0,4.3737454E0,1.57304E0,0E0,7.5196533E0,1.112701E1,7.530528E0,4.5842505E0,6.2142754E0,4.7555203E0,1.449405E1,1.055646E1,4.375519E0,6.801304E0,4.5234656E0,0E0,0E0,1.2449799E0,0E0,0E0,0E0,0E0,0E0,0E0,0E0,0E0,0E0,0E0,0E0,0E0,0E0,0E0,0E0,0E0,0E0,0E0,0E0,0E0,0E0,0E0,0E0,0E0],"parents":[2147483647,0,0,1,1,2,2,3,3,4,4,5,5,6,6,7,7,8,8,9,9,10,10,11,11,12,12,13,13,15,15,16,16,17,17,18,18,19,19,20,20,21,21,22,22,23,23,24,24,25,25,28,28],"right_children":[2,4,6,8,10,12,14,16,18,20,22,24,26,28,-1,30,32,34,36,38,40,42,44,46,48,50,-1,-1,52,-1,-1,-1,-1,-1,-1,-1,-1,-1,-1,-1,-1,-1,-1,-1,-1,-1,-1,-1,-1,-1,-1,-1,-1],"split_conditions":[1.800001E1,7E0,2.36E1,5E0,1.2727349E-1,3.25E-1,3.78E-1,3.1252625E1,2.7E-1,3.01E-1,8E0,3.1868547E1,2.55E2,2.26E-1,1.8816767E-2,2.3385901E-2,4.6046333E1,1.2E1,6.9E0,1.178432E-1,-1.4275891E1,6.7866457E-1,2.75E-1,2.8030592E1,5E0,7.8E0,-3.3928964E-2,5.201129E-3,2.43E-1,-3.4860135E-3,5.5406746E-3,1.8044358E-2,4.0841307E-3,4.936819E-4,7.057166E-3,5.6688096E-3,2.3619622E-2,-8.948973E-3,-2.6844576E-2,-2.492968E-2,8.788743E-3,-2.2371765E-4,1.4871982E-2,-3.8503527E-3,2.9859325E-2,-2.6291022E-2,-4.632477E-2,-3.984818E-2,-9.311031E-3,-1.6363246E-2,1.2349774E-2,-1.9357529E-2,-8.565615E-3],"split_indices":[9,9,3,9,7,15,16,6,12,16,9,6,4,11,0,7,6,3,3,7,6,7,12,6,3,3,0,0,11,0,0,0,0,0,0,0,0,0,0,0,0,0,0,0,0,0,0,0,0,0,0,0,0],"split_type":[0,0,0,0,0,0,0,0,0,0,0,0,0,0,0,0,0,0,0,0,0,0,0,0,0,0,0,0,0,0,0,0,0,0,0,0,0,0,0,0,0,0,0,0,0,0,0,0,0,0,0,0,0],"sum_hessian":[1.8742787E4,1.670366E4,2.0391268E3,1.1462988E4,5.2406724E3,1.2180586E3,8.2106824E2,7.7335234E3,3.7294648E3,9.230407E2,4.3176313E3,1.1426294E3,7.542915E1,8.0986804E2,1.1200197E1,7.096198E3,6.3732526E2,3.5864014E3,1.4306357E2,8.338351E2,8.9205605E1,1.4768134E3,2.840818E3,1.0425452E3,1.0008431E2,5.753239E1,1.789676E1,1.9485245E1,7.9038275E2,2.3810884E2,6.8580894E3,4.203953E2,2.1693E2,3.0780354E3,5.0836584E2,7.455954E1,6.850403E1,7.827638E2,5.107131E1,1.10712E1,7.813441E1,1.296582E3,1.8023143E2,2.8183892E3,2.2428968E1,1.01363385E3,2.8911259E1,2.333073E1,7.6753586E1,3.694124E1,2.059115E1,2.7433592E1,7.6294916E2],"tree_param":{"num_deleted":"0","num_feature":"29","num_nodes":"53","size_leaf_vector":"1"}},{"base_weights":[-4.3159523E-3,3.890241E-2,-3.628857E-1,1.0924045E-1,-2.2128213E-2,-4.8966676E-1,-1.7993754E-1,9.352408E-2,2.067865E-1,1.2766752E-2,-7.800104E-2,-5.0537467E-1,-2.6988444E-1,-1.9058485E-1,2.2198051E-2,-1.505126E-2,1.0635604E-1,4.0736553E-1,1.8171963E-1,8.823779E-3,4.4485587E-1,-1.359092E-1,-4.460521E-2,-4.354915E-2,-4.97155E-1,-3.8342346E-2,-1.4177856E-1,4.357606E-2,-2.0876394E-1,-1.7854294E-3,2.3874547E-2,2.8603042E-2,5.1938156E-3,1.6600363E-3,3.3265136E-2,6.7996974E-3,1.7674765E-2,-5.915165E-4,4.0712864E-3,3.0249521E-2,-5.0103036E-3,4.7170636E-3,-7.7154413E-3,-2.4452717E-3,3.4982715E-2,-3.1803053E-2,-2.4066808E-2,-2.5426358E-2,1.8630583E-3,-1.1932694E-2,9.859136E-3,-2.853556E-2,-1.0080033E-2],"categories":[],"categories_nodes":[],"categories_segments":[],"categories_sizes":[],"default_left":[0,0,0,0,0,1,1,0,0,1,0,0,0,0,0,1,0,1,0,1,1,0,1,0,0,0,0,0,0,0,0,0,0,0,0,0,0,0,0,0,0,0,0,0,0,0,0,0,0,0,0,0,0],"id":25,"left_children":[1,3,5,7,9,11,13,15,17,19,21,23,25,27,-1,29,31,33,35,37,39,41,43,-1,45,-1,47,49,51,-1,-1,-1,-1,-1,-1,-1,-1,-1,-1,-1,-1,-1,-1,-1,-1,-1,-1,-1,-1,-1,-1,-1,-1],"loss_changes":[2.9005493E2,7.170839E1,4.660919E1,1.1877853E1,1.7439913E1,3.967102E0,5.569504E0,9.31588E0,5.336025E0,9.377955E0,6.6441727E0,2.8972778E0,5.075458E0,3.4678974E0,0E0,7.215335E0,6.8451385E0,1.1436453E1,7.4788036E0,8.185301E0,4.4052486E0,5.341137E0,7.019222E0,0E0,2.0805054E0,0E0,4.350606E0,2.6206114E0,1.8402939E0,0E0,0E0,0E0,0E0,0E0,0E0,0E0,0E0,0E0,0E0,0E0,0E0,0E0,0E0,0E0,0E0,0E0,0E0,0E0,0E0,0E0,0E0,0E0,0E0],"parents":[2147483647,0,0,1,1,2,2,3,3,4,4,5,5,6,6,7,7,8,8,9,9,10,10,11,11,12,12,13,13,15,15,16,16,17,17,18,18,19,19,20,20,21,21,22,22,24,24,26,26,27,27,28,28],"right_children":[2,4,6,8,10,12,14,16,18,20,22,24,26,28,-1,30,32,34,36,38,40,42,44,-1,46,-1,48,50,52,-1,-1,-1,-1,-1,-1,-1,-1,-1,-1,-1,-1,-1,-1,-1,-1,-1,-1,-1,-1,-1,-1,-1,-1],"split_conditions":[1.800001E1,5E0,2.25E1,6.384612E-1,8E0,2.48E-1,5.11E-1,4.08E-1,3.9E0,5.9752365E1,1.9165812E-1,3.47E-1,9.59939E-2,4.05E-1,2.2198051E-2,8E-1,4.11E-1,-4.925292E-2,1.12E1,3.73E-1,-6.5775275E-1,3.65E-1,1.94E1,-4.354915E-2,-2.0984638E1,-3.8342346E-2,-4.207851E0,3.7E-1,4.22E-1,-1.7854294E-3,2.3874547E-2,2.8603042E-2,5.1938156E-3,1.6600363E-3,3.3265136E-2,6.7996974E-3,1.7674765E-2,-5.915165E-4,4.0712864E-3,3.0249521E-2,-5.0103036E-3,4.7170636E-3,-7.7154413E-3,-2.4452717E-3,3.4982715E-2,-3.1803053E-2,-2.4066808E-2,-2.5426358E-2,1.8630583E-3,-1.1932694E-2,9.859136E-3,-2.853556E-2,-1.0080033E-2],"split_indices":[9,9,3,7,9,12,14,13,3,6,6,13,7,13,0,0,13,0,3,14,0,13,3,0,6,0,6,14,14,0,0,0,0,0,0,0,0,0,0,0,0,0,0,0,0,0,0,0,0,0,0,0,0],"split_type":[0,0,0,0,0,0,0,0,0,0,0,0,0,0,0,0,0,0,0,0,0,0,0,0,0,0,0,0,0,0,0,0,0,0,0,0,0,0,0,0,0,0,0,0,0,0,0,0,0,0,0,0,0],"sum_hessian":[1.871518E4,1.6702875E4,2.0123037E3,7.7593745E3,8.943501E3,1.1876198E3,8.246839E2,6.684365E3,1.075009E3,5.505717E3,3.437784E3,1.1071892E3,8.043057E1,8.1152905E2,1.315486E1,7.064754E2,5.97789E3,1.1772783E2,9.572812E2,5.456941E3,4.8776184E1,1.2562993E3,2.1814846E3,2.2036753E1,1.0851525E3,1.5462129E1,6.4968445E1,5.8363564E1,7.531655E2,6.789285E2,2.7546911E1,3.0445251E1,5.947445E3,4.8500908E1,6.922692E1,7.574453E2,1.9983588E2,4.2490034E3,1.2079375E3,3.761521E1,1.1160975E1,9.265835E1,1.163641E3,2.1698816E3,1.1602975E1,1.06935814E2,9.782166E2,2.0708479E1,4.4259968E1,2.0374573E1,3.798899E1,1.3089845E1,7.400757E2],"tree_param":{"num_deleted":"0","num_feature":"29","num_nodes":"53","size_leaf_vector":"1"}},{"base_weights":[5.0622565E-3,4.676662E-2,-3.468073E-1,8.8818595E-2,-4.5175057E-2,-4.836521E-1,-1.5170299E-1,5.5646878E-2,1.2669131E-1,-1.52650215E-2,-1.08193554E-1,-5.148037E-1,-3.7204814E-1,5.493555E-2,-9.447847E-3,-4.9694244E-2,7.341192E-2,1.11629464E-1,2.631168E-1,-5.620832E-2,6.8138495E-2,-1.841755E-1,-5.8459733E-2,-5.26034E-1,-1.0923923E-1,9.135886E-2,-4.178067E-1,1.1131674E-2,2.4421092E-2,-1.4040809E-3,-2.0293577E-2,3.4569844E-3,2.539293E-2,-2.1983301E-2,5.7552173E-3,1.1843256E-2,5.9610028E-2,-3.0386427E-3,4.224339E-2,4.270847E-3,-1.1228914E-2,-7.5394833E-3,-2.137379E-2,1.0024812E-3,-7.2730444E-3,-2.4990601E-2,-3.3628117E-2,-2.41864E-2,1.9140793E-2,2.1903858E-2,-1.4354861E-2,-3.954176E-2,-1.8042615E-2,1.2491423E-2,-2.0972106E-3],"categories":[],"categories_nodes":[],"categories_segments":[],"categories_sizes":[],"default_left":[0,0,0,1,0,0,0,1,0,0,1,1,0,0,0,1,1,0,1,0,1,0,0,0,0,0,0,0,0,0,0,0,0,0,0,0,0,0,0,0,0,0,0,0,0,0,0,0,0,0,0,0,0,0,0],"id":26,"left_children":[1,3,5,7,9,11,13,15,17,19,21,23,25,27,-1,29,31,33,35,37,39,41,43,45,47,49,51,53,-1,-1,-1,-1,-1,-1,-1,-1,-1,-1,-1,-1,-1,-1,-1,-1,-1,-1,-1,-1,-1,-1,-1,-1,-1,-1,-1],"loss_changes":[2.7396426E2,6.453705E1,5.2744537E1,1.4381554E1,9.873085E0,3.8493042E0,6.299675E0,1.1432737E1,1.0957466E1,1.2139644E1,6.3605366E0,4.069214E0,5.4927864E0,2.3789012E0,0E0,6.7775335E0,9.665295E0,9.278408E0,1.26658325E1,9.8577385E0,5.9398346E0,5.3496914E0,6.9733067E0,3.0503082E0,4.916291E0,3.2668815E0,4.692398E0,1.468273E0,0E0,0E0,0E0,0E0,0E0,0E0,0E0,0E0,0E0,0E0,0E0,0E0,0E0,0E0,0E0,0E0,0E0,0E0,0E0,0E0,0E0,0E0,0E0,0E0,0E0,0E0,0E0],"parents":[2147483647,0,0,1,1,2,2,3,3,4,4,5,5,6,6,7,7,8,8,9,9,10,10,11,11,12,12,13,13,15,15,16,16,17,17,18,18,19,19,20,20,21,21,22,22,23,23,24,24,25,25,26,26,27,27],"right_children":[2,4,6,8,10,12,14,16,18,20,22,24,26,28,-1,30,32,34,36,38,40,42,44,46,48,50,52,54,-1,-1,-1,-1,-1,-1,-1,-1,-1,-1,-1,-1,-1,-1,-1,-1,-1,-1,-1,-1,-1,-1,-1,-1,-1,-1,-1],"split_conditions":[1.800001E1,7E0,2.24E1,7.72E1,9E0,8.48E1,2.94E-1,6.3E1,1.2E1,4.804508E-1,1.69E2,3.37E-1,8.54E1,3.59E-1,-9.447847E-3,1.43E1,3.22E-1,2.06E-1,3.49E-1,6.989194E1,3.16E-1,1.15E1,-2.8168294E-1,8.12E1,7.7E0,2.2181639E-1,1.13E2,2.26E-1,2.4421092E-2,-1.4040809E-3,-2.0293577E-2,3.4569844E-3,2.539293E-2,-2.1983301E-2,5.7552173E-3,1.1843256E-2,5.9610028E-2,-3.0386427E-3,4.224339E-2,4.270847E-3,-1.1228914E-2,-7.5394833E-3,-2.137379E-2,1.0024812E-3,-7.2730444E-3,-2.4990601E-2,-3.3628117E-2,-2.41864E-2,1.9140793E-2,2.1903858E-2,-1.4354861E-2,-3.954176E-2,-1.8042615E-2,1.2491423E-2,-2.0972106E-3],"split_indices":[9,9,3,5,9,5,12,4,3,7,4,15,5,15,0,3,11,11,15,6,15,3,0,5,3,7,4,11,0,0,0,0,0,0,0,0,0,0,0,0,0,0,0,0,0,0,0,0,0,0,0,0,0,0,0],"split_type":[0,0,0,0,0,0,0,0,0,0,0,0,0,0,0,0,0,0,0,0,0,0,0,0,0,0,0,0,0,0,0,0,0,0,0,0,0,0,0,0,0,0,0,0,0,0,0,0,0,0,0,0,0,0,0],"sum_hessian":[1.8667309E4,1.6690035E4,1.977273E3,1.1452132E4,5.2379043E3,1.1612802E3,8.159928E2,6.106275E3,5.345857E3,3.5528713E3,1.6850327E3,9.050456E2,2.5623456E2,1.2456829E2,6.914245E2,8.809167E2,5.225358E3,4.8159746E3,5.2988214E2,2.3832468E3,1.1696244E3,6.655383E2,1.0194944E3,8.803706E2,2.467502E1,2.2938173E1,2.332964E2,1.1406744E2,1.0500857E1,8.315383E2,4.9378407E1,5.1756216E3,4.9736485E1,2.9379257E1,4.7865957E3,5.1654193E2,1.3340186E1,2.3721628E3,1.1083988E1,1.105101E3,6.4523506E1,5.866566E2,7.8881714E1,5.363052E2,4.8318924E2,7.504795E2,1.2989111E2,1.4020982E1,1.0654037E1,1.18888235E1,1.104935E1,2.9195074E1,2.0410132E2,2.0075485E1,9.399194E1],"tree_param":{"num_deleted":"0","num_feature":"29","num_nodes":"55","size_leaf_vector":"1"}},{"base_weights":[1.5693164E-3,3.941323E-2,-3.2156232E-1,-4.5916658E-2,7.820381E-2,-4.5943028E-1,-1.2533301E-1,-1.4409125E-1,-2.4500292E-2,4.7206916E-2,1.0813627E-1,-4.6671402E-1,-1.293418E-1,-1.5719235E-1,8.951036E-2,-1.1982016E-1,-3.581807E-1,-1.5846436E-1,-1.0424899E-2,3.5251465E-2,1.3380176E-1,1.0077551E-1,2.742249E-1,-4.7506616E-1,-2.343033E-1,-2.6191607E-2,1.2774493E-2,-7.4737403E-3,-2.601178E-2,1.8356952E-1,-1.6795723E-1,-1.0840586E-2,-3.919022E-3,-9.088139E-3,-2.5871558E-2,-1.0570376E-2,1.0472347E-2,-7.918117E-4,1.6751664E-2,-4.733891E-3,2.1932086E-3,-2.5872368E-4,1.0997563E-2,1.4296469E-3,5.6926897E-3,1.7309962E-2,-8.126551E-3,-4.9962502E-2,-2.3423675E-2,4.1312426E-3,-1.7326746E-2,3.0105102E-3,2.5381908E-2,8.926326E-4,-2.1619905E-2],"categories":[],"categories_nodes":[],"categories_segments":[],"categories_sizes":[],"default_left":[0,0,0,0,0,1,1,0,1,1,0,0,0,1,0,0,0,0,1,0,0,1,0,0,0,0,0,0,0,0,0,0,0,0,0,0,0,0,0,0,0,0,0,0,0,0,0,0,0,0,0,0,0,0,0],"id":27,"left_children":[1,3,5,7,9,11,13,15,17,19,21,23,25,27,29,31,33,35,37,39,41,43,45,47,49,-1,-1,-1,-1,51,53,-1,-1,-1,-1,-1,-1,-1,-1,-1,-1,-1,-1,-1,-1,-1,-1,-1,