{"learner":{"attributes":{"best_iteration":"597","best_score":"0.3721160390935005","scikit_learn":"{\"_estimator_type\": \"classifier\"}"},"feature_names":[],"feature_types":[],"gradient_booster":{"model":{"cats":{"enc":[],"feature_segments":[],"sorted_idx":[]},"gbtree_model_param":{"num_parallel_tree":"1","num_trees":"600"},"iteration_indptr":[0,1,2,3,4,5,6,7,8,9,10,11,12,13,14,15,16,17,18,19,20,21,22,23,24,25,26,27,28,29,30,31,32,33,34,35,36,37,38,39,40,41,42,43,44,45,46,47,48,49,50,51,52,53,54,55,56,57,58,59,60,61,62,63,64,65,66,67,68,69,70,71,72,73,74,75,76,77,78,79,80,81,82,83,84,85,86,87,88,89,90,91,92,93,94,95,96,97,98,99,100,101,102,103,104,105,106,107,108,109,110,111,112,113,114,115,116,117,118,119,120,121,122,123,124,125,126,127,128,129,130,131,132,133,134,135,136,137,138,139,140,141,142,143,144,145,146,147,148,149,150,151,152,153,154,155,156,157,158,159,160,161,162,163,164,165,166,167,168,169,170,171,172,173,174,175,176,177,178,179,180,181,182,183,184,185,186,187,188,189,190,191,192,193,194,195,196,197,198,199,200,201,202,203,204,205,206,207,208,209,210,211,212,213,214,215,216,217,218,219,220,221,222,223,224,225,226,227,228,229,230,231,232,233,234,235,236,237,238,239,240,241,242,243,244,245,246,247,248,249,250,251,252,253,254,255,256,257,258,259,260,261,262,263,264,265,266,267,268,269,270,271,272,273,274,275,276,277,278,279,280,281,282,283,284,285,286,287,288,289,290,291,292,293,294,295,296,297,298,299,300,301,302,303,304,305,306,307,308,309,310,311,312,313,314,315,316,317,318,319,320,321,322,323,324,325,326,327,328,329,330,331,332,333,334,335,336,337,338,339,340,341,342,343,344,345,346,347,348,349,350,351,352,353,354,355,356,357,358,359,360,361,362,363,364,365,366,367,368,369,370,371,372,373,374,375,376,377,378,379,380,381,382,383,384,385,386,387,388,389,390,391,392,393,394,395,396,397,398,399,400,401,402,403,404,405,406,407,408,409,410,411,412,413,414,415,416,417,418,419,420,421,422,423,424,425,426,427,428,429,430,431,432,433,434,435,436,437,438,439,440,441,442,443,444,445,446,447,448,449,450,451,452,453,454,455,456,457,458,459,460,461,462,463,464,465,466,467,468,469,470,471,472,473,474,475,476,477,478,479,480,481,482,483,484,485,486,487,488,489,490,491,492,493,494,495,496,497,498,499,500,501,502,503,504,505,506,507,508,509,510,511,512,513,514,515,516,517,518,519,520,521,522,523,524,525,526,527,528,529,530,531,532,533,534,535,536,537,538,539,540,541,542,543,544,545,546,547,548,549,550,551,552,553,554,555,556,557,558,559,560,561,562,563,564,565,566,567,568,569,570,571,572,573,574,575,576,577,578,579,580,581,582,583,584,585,586,587,588,589,590,591,592,593,594,595,596,597,598,599,600],"tree_info":[0,0,0,0,0,0,0,0,0,0,0,0,0,0,0,0,0,0,0,0,0,0,0,0,0,0,0,0,0,0,0,0,0,0,0,0,0,0,0,0,0,0,0,0,0,0,0,0,0,0,0,0,0,0,0,0,0,0,0,0,0,0,0,0,0,0,0,0,0,0,0,0,0,0,0,0,0,0,0,0,0,0,0,0,0,0,0,0,0,0,0,0,0,0,0,0,0,0,0,0,0,0,0,0,0,0,0,0,0,0,0,0,0,0,0,0,0,0,0,0,0,0,0,0,0,0,0,0,0,0,0,0,0,0,0,0,0,0,0,0,0,0,0,0,0,0,0,0,0,0,0,0,0,0,0,0,0,0,0,0,0,0,0,0,0,0,0,0,0,0,0,0,0,0,0,0,0,0,0,0,0,0,0,0,0,0,0,0,0,0,0,0,0,0,0,0,0,0,0,0,0,0,0,0,0,0,0,0,0,0,0,0,0,0,0,0,0,0,0,0,0,0,0,0,0,0,0,0,0,0,0,0,0,0,0,0,0,0,0,0,0,0,0,0,0,0,0,0,0,0,0,0,0,0,0,0,0,0,0,0,0,0,0,0,0,0,0,0,0,0,0,0,0,0,0,0,0,0,0,0,0,0,0,0,0,0,0,0,0,0,0,0,0,0,0,0,0,0,0,0,0,0,0,0,0,0,0,0,0,0,0,0,0,0,0,0,0,0,0,0,0,0,0,0,0,0,0,0,0,0,0,0,0,0,0,0,0,0,0,0,0,0,0,0,0,0,0,0,0,0,0,0,0,0,0,0,0,0,0,0,0,0,0,0,0,0,0,0,0,0,0,0,0,0,0,0,0,0,0,0,0,0,0,0,0,0,0,0,0,0,0,0,0,0,0,0,0,0,0,0,0,0,0,0,0,0,0,0,0,0,0,0,0,0,0,0,0,0,0,0,0,0,0,0,0,0,0,0,0,0,0,0,0,0,0,0,0,0,0,0,0,0,0,0,0,0,0,0,0,0,0,0,0,0,0,0,0,0,0,0,0,0,0,0,0,0,0,0,0,0,0,0,0,0,0,0,0,0,0,0,0,0,0,0,0,0,0,0,0,0,0,0,0,0,0,0,0,0,0,0,0,0,0,0,0,0,0,0,0,0,0,0,0,0,0,0,0,0,0,0,0,0,0,0,0,0,0,0,0,0,0,0,0,0,0,0,0,0,0,0,0,0,0,0,0,0,0,0,0,0,0,0,0,0,0,0,0,0,0,0,0,0,0,0,0,0,0,0,0,0,0,0,0,0,0,0,0,0,0,0,0,0,0,0,0,0,0,0,0,0,0,0,0,0,0,0,0,0,0,0],"trees":[{"base_weights":[-7.664999E-3,-6.5124387E-1,1.3025552E-1,-1.29418E0,-5.44073E-1,-1.0328616E-1,3.7742656E-1,-2.5222149E-2,-1.4507512E0,-6.9323E-1,-1.1715832E-1,7.6823016E-3,-5.1221794E-1,5.233831E-1,5.5796094E-2,-6.858284E-2,-3.602479E-2,-3.3434078E-3,-3.2768063E-2,6.1617023E-3,-2.5107827E-2,-7.792303E-3,1.0113555E-2,-2.3354203E-2,1.1285536E-2,1.6581701E-2,3.5710044E-2,-2.0264848E-3,1.9045638E-2],"categories":[],"categories_nodes":[],"categories_segments":[],"categories_sizes":[],"default_left":[0,0,0,0,0,0,0,0,0,0,0,0,0,0,0,0,0,0,0,0,0,0,0,0,0,0,0,0,0],"id":0,"left_children":[1,3,5,7,9,11,13,-1,15,17,19,21,23,25,27,-1,-1,-1,-1,-1,-1,-1,-1,-1,-1,-1,-1,-1,-1],"loss_changes":[2.9232166E2,3.880893E1,1.5660907E2,6.9213104E0,3.1693542E1,6.3367638E1,6.176416E1,0E0,6.845413E0,2.8278534E1,1.8423737E1,5.4619896E1,1.7235344E1,3.574141E1,1.8571848E1,0E0,0E0,0E0,0E0,0E0,0E0,0E0,0E0,0E0,0E0,0E0,0E0,0E0,0E0],"parents":[2147483647,0,0,1,1,2,2,3,3,4,4,5,5,6,6,8,8,9,9,10,10,11,11,12,12,13,13,14,14],"right_children":[2,4,6,8,10,12,14,-1,16,18,20,22,24,26,28,-1,-1,-1,-1,-1,-1,-1,-1,-1,-1,-1,-1,-1,-1],"split_conditions":[-1E0,-3E0,3.5E-1,3.574474E0,5.4E-1,5.409091E0,5.2E-1,-2.5222149E-2,3.1E1,1.4538076E3,5.2380953E0,1E0,1.5826007E3,2E0,2E0,-6.858284E-2,-3.602479E-2,-3.3434078E-3,-3.2768063E-2,6.1617023E-3,-2.5107827E-2,-7.792303E-3,1.0113555E-2,-2.3354203E-2,1.1285536E-2,1.6581701E-2,3.5710044E-2,-2.0264848E-3,1.9045638E-2],"split_indices":[177,177,15,113,15,95,33,0,9,140,95,177,139,177,177,0,0,0,0,0,0,0,0,0,0,0,0,0,0],"split_type":[0,0,0,0,0,0,0,0,0,0,0,0,0,0,0,0,0,0,0,0,0,0,0,0,0,0,0,0,0],"sum_hessian":[3.2897725E3,5.797281E2,2.7100444E3,8.032112E1,4.9940695E2,1.3936814E3,1.3163632E3,1.689429E1,6.342683E1,3.6923303E2,1.3017393E2,1.0971768E3,2.9650458E2,9.046014E2,4.1176172E2,4.060001E1,2.2826824E1,6.3793037E1,3.0544E2,8.557007E1,4.460386E1,6.0082153E2,4.9635526E2,2.7245706E2,2.404751E1,7.013816E2,2.0321977E2,3.2941425E2,8.234746E1],"tree_param":{"num_deleted":"0","num_feature":"205","num_nodes":"29","size_leaf_vector":"1"}},{"base_weights":[-1.1037982E-2,-1.6884723E-1,2.920882E-1,-2.7124828E-1,2.451396E-1,8.5299276E-2,5.281776E-1,-1.4494807E-1,-4.8164207E-1,4.4147152E-1,-1.0120442E-1,2.530657E-1,-1.4232834E-1,6.847892E-1,1.66786E-1,-1.1895165E-2,-3.759803E-4,-1.4652659E-2,-3.801945E-2,2.3094114E-2,-5.517834E-3,-0E0,-3.513652E-2,4.0666517E-3,2.5657246E-2,2.0292548E-3,-1.5758846E-2,2.343544E-2,4.5856643E-2,3.7533086E-2,-3.517453E-4],"categories":[],"categories_nodes":[],"categories_segments":[],"categories_sizes":[],"default_left":[0,0,0,0,0,0,0,0,0,0,0,0,0,0,0,0,0,0,0,0,0,0,0,0,0,0,0,0,0,0,0],"id":1,"left_children":[1,3,5,7,9,11,13,15,17,19,21,23,25,27,29,-1,-1,-1,-1,-1,-1,-1,-1,-1,-1,-1,-1,-1,-1,-1,-1],"loss_changes":[1.5830043E2,9.237316E1,5.5178146E1,4.6224976E1,2.9490929E1,2.3204145E1,2.9652313E1,2.2556705E1,3.4705566E1,2.1917835E1,1.2434755E1,2.0384933E1,1.2588777E1,1.5620728E1,2.2043312E1,0E0,0E0,0E0,0E0,0E0,0E0,0E0,0E0,0E0,0E0,0E0,0E0,0E0,0E0,0E0,0E0],"parents":[2147483647,0,0,1,1,2,2,3,3,4,4,5,5,6,6,7,7,8,8,9,9,10,10,11,11,12,12,13,13,14,14],"right_children":[2,4,6,8,10,12,14,16,18,20,22,24,26,28,30,-1,-1,-1,-1,-1,-1,-1,-1,-1,-1,-1,-1,-1,-1,-1,-1],"split_conditions":[4.9E-1,4E0,3E0,5.2E0,4.1E-1,4.3E-1,5.2E-1,-1.8226061E-2,1.3353345E0,7.3045784E-1,7.45234E-2,8E-1,7.3869765E-1,5E0,-6.6671036E-2,-1.1895165E-2,-3.759803E-4,-1.4652659E-2,-3.801945E-2,2.3094114E-2,-5.517834E-3,-0E0,-3.513652E-2,4.0666517E-3,2.5657246E-2,2.0292548E-3,-1.5758846E-2,2.343544E-2,4.5856643E-2,3.7533086E-2,-3.517453E-4],"split_indices":[15,175,175,95,33,33,33,126,117,117,132,15,142,175,155,0,0,0,0,0,0,0,0,0,0,0,0,0,0,0,0],"split_type":[0,0,0,0,0,0,0,0,0,0,0,0,0,0,0,0,0,0,0,0,0,0,0,0,0,0,0,0,0,0,0],"sum_hessian":[3.3064355E3,2.1750737E3,1.1313617E3,1.7443593E3,4.3071448E2,6.0442017E2,5.269415E2,1.0918976E3,6.5246173E2,2.7480984E2,1.5590463E2,3.4811996E2,2.563002E2,3.6649805E2,1.6044347E2,5.1275287E2,5.7914465E2,5.259698E2,1.26491974E2,2.2274986E2,5.2059994E1,1.3919989E2,1.6704737E1,2.5202235E2,9.609761E1,1.4548483E2,1.1081537E2,3.048126E2,6.168545E1,2.8640997E1,1.3180247E2],"tree_param":{"num_deleted":"0","num_feature":"205","num_nodes":"31","size_leaf_vector":"1"}},{"base_weights":[7.544921E-4,-1.9249839E-1,2.6661018E-1,-5.2572355E-2,-3.5630453E-1,1.8249846E-1,4.7724473E-1,-2.4635026E-1,1.6083255E-1,-6.933038E-1,-2.853012E-1,-1.23745315E-2,2.7392262E-1,3.368757E-1,7.4361265E-1,-6.866717E-3,-2.963273E-2,4.7824923E-3,3.496105E-2,-6.2302258E-2,-2.2889446E-2,-1.3564451E-2,5.319392E-3,-5.390131E-3,1.4087517E-2,-3.1161373E-2,1.1991662E-2,1.5641224E-2,-1.6114809E-2,4.0685065E-2,1.320458E-2],"categories":[],"categories_nodes":[],"categories_segments":[],"categories_sizes":[],"default_left":[0,0,0,0,0,0,0,0,0,0,0,0,0,0,0,0,0,0,0,0,0,0,0,0,0,0,0,0,0,0,0],"id":2,"left_children":[1,3,5,7,9,11,13,15,17,19,21,23,25,27,29,-1,-1,-1,-1,-1,-1,-1,-1,-1,-1,-1,-1,-1,-1,-1,-1],"loss_changes":[1.6912779E2,4.3616226E1,2.4355476E1,4.2660713E1,2.0601112E1,1.7724522E1,1.42552185E1,1.9683098E1,1.4190712E1,1.4292114E1,1.6463818E1,1.4246631E1,1.872646E1,1.0696827E1,1.4579338E1,0E0,0E0,0E0,0E0,0E0,0E0,0E0,0E0,0E0,0E0,0E0,0E0,0E0,0E0,0E0,0E0],"parents":[2147483647,0,0,1,1,2,2,3,3,4,4,5,5,6,6,7,7,8,8,9,9,10,10,11,11,12,12,13,13,14,14],"right_children":[2,4,6,8,10,12,14,16,18,20,22,24,26,28,30,-1,-1,-1,-1,-1,-1,-1,-1,-1,-1,-1,-1,-1,-1,-1,-1],"split_conditions":[4E-1,3.9E-1,7.7E-1,6.666667E-2,3.2282124E0,8.942406E-2,1.024E0,1.6392004E-1,1.9035728E2,-4.6164095E-3,5.3589745E0,5.064E-1,1.477844E-1,3.6925676E-1,9.42E1,-6.866717E-3,-2.963273E-2,4.7824923E-3,3.496105E-2,-6.2302258E-2,-2.2889446E-2,-1.3564451E-2,5.319392E-3,-5.390131E-3,1.4087517E-2,-3.1161373E-2,1.1991662E-2,1.5641224E-2,-1.6114809E-2,4.0685065E-2,1.320458E-2],"split_indices":[15,30,15,125,115,184,74,105,141,24,94,81,49,127,26,0,0,0,0,0,0,0,0,0,0,0,0,0,0,0,0],"split_type":[0,0,0,0,0,0,0,0,0,0,0,0,0,0,0,0,0,0,0,0,0,0,0,0,0,0,0,0,0,0,0],"sum_hessian":[3.2887307E3,1.9044248E3,1.3843058E3,1.0284753E3,8.759495E2,9.916066E2,3.926992E2,5.391492E2,4.8932617E2,1.4990558E2,7.2604395E2,3.1671774E2,6.748889E2,2.596453E2,1.3305391E2,4.7033478E2,6.8814354E1,4.6434753E2,2.4978636E1,1.6130781E1,1.337748E2,6.43752E2,8.2291954E1,2.3803308E2,7.868466E1,1.5043108E1,6.5984576E2,2.4271875E2,1.6926535E1,7.861884E1,5.4435074E1],"tree_param":{"num_deleted":"0","num_feature":"205","num_nodes":"31","size_leaf_vector":"1"}},{"base_weights":[1.6104802E-2,1.5288097E-1,-5.4498875E-1,-7.584925E-3,3.6495295E-1,-7.145078E-1,-2.4145253E-2,-9.872928E-2,3.662776E-1,3.1287354E-1,9.8894924E-1,-3.191291E-1,-8.4536386E-1,-3.576135E-1,3.5483253E-1,9.437459E-4,-1.31425755E-2,2.2443589E-2,9.979E-4,1.5610324E-2,1.5014393E-4,3.2620337E-2,5.8897175E-2,-2.3776865E-2,3.7011611E-3,-3.0304518E-2,-5.624636E-2,-3.2638505E-2,1.6198213E-3,2.8834488E-2,-4.143377E-3],"categories":[],"categories_nodes":[],"categories_segments":[],"categories_sizes":[],"default_left":[0,0,0,0,0,0,0,0,0,0,0,0,0,0,0,0,0,0,0,0,0,0,0,0,0,0,0,0,0,0,0],"id":3,"left_children":[1,3,5,7,9,11,13,15,17,19,21,23,25,27,29,-1,-1,-1,-1,-1,-1,-1,-1,-1,-1,-1,-1,-1,-1,-1,-1],"loss_changes":[2.5232509E2,9.001246E1,5.6792633E1,5.1354385E1,3.642415E1,2.462027E1,2.040087E1,3.4128494E1,1.9559269E1,2.5164444E1,5.257614E0,1.4121202E1,1.6098328E1,1.5811618E1,1.2836327E1,0E0,0E0,0E0,0E0,0E0,0E0,0E0,0E0,0E0,0E0,0E0,0E0,0E0,0E0,0E0,0E0],"parents":[2147483647,0,0,1,1,2,2,3,3,4,4,5,5,6,6,7,7,8,8,9,9,10,10,11,11,12,12,13,13,14,14],"right_children":[2,4,6,8,10,12,14,16,18,20,22,24,26,28,30,-1,-1,-1,-1,-1,-1,-1,-1,-1,-1,-1,-1,-1,-1,-1,-1],"split_conditions":[4E0,4E-1,5.4E-1,4E0,5E0,4.75E0,3E0,5.2222223E0,1.7438468E-1,5.4444447E0,3.298169E-1,8.450367E-2,3.266E-1,2.1904762E-1,8.629888E-2,9.437459E-4,-1.31425755E-2,2.2443589E-2,9.979E-4,1.5610324E-2,1.5014393E-4,3.2620337E-2,5.8897175E-2,-2.3776865E-2,3.7011611E-3,-3.0304518E-2,-5.624636E-2,-3.2638505E-2,1.6198213E-3,2.8834488E-2,-4.143377E-3],"split_indices":[176,15,15,175,175,95,175,95,197,95,46,50,110,17,50,0,0,0,0,0,0,0,0,0,0,0,0,0,0,0,0],"split_type":[0,0,0,0,0,0,0,0,0,0,0,0,0,0,0,0,0,0,0,0,0,0,0,0,0,0,0,0,0,0,0],"sum_hessian":[3.2852532E3,2.642394E3,6.428593E2,1.5047717E3,1.1376222E3,4.8443903E2,1.5842026E2,1.2109293E3,2.9384244E2,1.0522156E3,8.54067E1,1.219356E2,3.6250342E2,8.4455246E1,7.396501E1,7.9090466E2,4.2002463E2,1.8627075E2,1.0757167E2,8.4097107E2,2.1124449E2,6.597587E1,1.9430838E1,7.281693E1,4.911867E1,3.1665872E2,4.584471E1,3.864242E1,4.5812824E1,4.0770557E1,3.3194458E1],"tree_param":{"num_deleted":"0","num_feature":"205","num_nodes":"31","size_leaf_vector":"1"}},{"base_weights":[2.8590052E-3,-3.5262272E-1,2.1943294E-1,-8.349986E-1,-2.4454527E-1,3.4601855E-1,-7.83104E-2,-1.2603785E0,-6.756411E-1,-4.747943E-1,-3.0226465E-2,1.5834907E-1,5.620696E-1,-1.6369644E-1,6.6169757E-1,-6.260712E-2,-2.786067E-2,-1.2016514E-2,-3.5160854E-2,-2.448988E-2,-4.7144517E-3,4.6542594E-3,-1.2139995E-2,1.1002981E-2,-4.6115434E-3,1.8000586E-2,3.3315826E-2,-1.0909947E-2,5.3908885E-3,3.8312916E-2,-1.6081494E-3],"categories":[],"categories_nodes":[],"categories_segments":[],"categories_sizes":[],"default_left":[0,0,0,0,0,0,0,0,0,0,0,0,0,0,0,0,0,0,0,0,0,0,0,0,0,0,0,0,0,0,0],"id":4,"left_children":[1,3,5,7,9,11,13,15,17,19,21,23,25,27,29,-1,-1,-1,-1,-1,-1,-1,-1,-1,-1,-1,-1,-1,-1,-1,-1],"loss_changes":[2.51902E2,6.416011E1,7.671019E1,1.38441925E1,4.9975124E1,5.7669357E1,3.8506042E1,8.393372E0,1.2288483E1,2.3790146E1,2.118565E1,2.4536331E1,1.942015E1,1.7843355E1,1.3251198E1,0E0,0E0,0E0,0E0,0E0,0E0,0E0,0E0,0E0,0E0,0E0,0E0,0E0,0E0,0E0,0E0],"parents":[2147483647,0,0,1,1,2,2,3,3,4,4,5,5,6,6,7,7,8,8,9,9,10,10,11,11,12,12,13,13,14,14],"right_children":[2,4,6,8,10,12,14,16,18,20,22,24,26,28,30,-1,-1,-1,-1,-1,-1,-1,-1,-1,-1,-1,-1,-1,-1,-1,-1],"split_conditions":[0E0,-2E0,5.3E-1,4.7272725E0,3.3E-1,3.6E-1,8E-1,2.7448562E-1,2.590324E-1,3.5092E-1,1.6104087E-1,2.0546287E-1,2E0,2E0,1.6246285E-2,-6.260712E-2,-2.786067E-2,-1.2016514E-2,-3.5160854E-2,-2.448988E-2,-4.7144517E-3,4.6542594E-3,-1.2139995E-2,1.1002981E-2,-4.6115434E-3,1.8000586E-2,3.3315826E-2,-1.0909947E-2,5.3908885E-3,3.8312916E-2,-1.6081494E-3],"split_indices":[177,177,33,94,12,15,15,53,63,201,25,197,177,177,6,0,0,0,0,0,0,0,0,0,0,0,0,0,0,0,0],"split_type":[0,0,0,0,0,0,0,0,0,0,0,0,0,0,0,0,0,0,0,0,0,0,0,0,0,0,0,0,0,0,0],"sum_hessian":[3.2691267E3,1.2371235E3,2.032003E3,2.244289E2,1.01269464E3,1.4258818E3,6.061213E2,5.8167812E1,1.662611E2,4.8709955E2,5.255951E2,7.646994E2,6.6118243E2,5.445872E2,6.1534035E1,3.5913452E1,2.2254358E1,5.991947E1,1.0634161E2,3.5069565E2,1.3640388E2,3.4241837E2,1.831767E2,5.362914E2,2.2840799E2,4.7076425E2,1.904182E2,3.991962E2,1.4539104E2,4.2991776E1,1.8542261E1],"tree_param":{"num_deleted":"0","num_feature":"205","num_nodes":"31","size_leaf_vector":"1"}},{"base_weights":[1.948957E-4,-5.6404173E-1,1.217325E-1,-1.4770131E-1,-7.217539E-1,2.6420347E-2,4.7560522E-1,-2.996789E-1,4.316993E-1,-6.129174E-1,-1.2429068E0,1.5165012E-1,-2.3355706E-1,1.2817936E-1,6.3636464E-1,2.1234652E-2,-1.726893E-2,3.3787087E-2,-5.603386E-4,-1.807047E-2,-4.081759E-2,-6.009244E-2,-2.3158219E-2,2.6819902E-3,1.7918458E-2,-1.3738626E-2,4.8975105E-4,-1.5518694E-3,2.5726961E-2,2.753783E-2,4.3770144E-4],"categories":[],"categories_nodes":[],"categories_segments":[],"categories_sizes":[],"default_left":[0,0,0,0,0,0,0,0,0,0,0,0,0,0,0,0,0,0,0,0,0,0,0,0,0,0,0,0,0,0,0],"id":5,"left_children":[1,3,5,7,9,11,13,15,17,19,21,23,25,27,29,-1,-1,-1,-1,-1,-1,-1,-1,-1,-1,-1,-1,-1,-1,-1,-1],"loss_changes":[2.2661162E2,3.8206146E1,9.165715E1,1.4529606E1,2.273085E1,6.985694E1,3.2013794E1,1.4603109E1,6.4213924E0,2.241066E1,1.0829552E1,3.621119E1,1.8881187E1,1.5965432E1,1.2743454E1,0E0,0E0,0E0,0E0,0E0,0E0,0E0,0E0,0E0,0E0,0E0,0E0,0E0,0E0,0E0,0E0],"parents":[2147483647,0,0,1,1,2,2,3,3,4,4,5,5,6,6,7,7,8,8,9,9,10,10,11,11,12,12,13,13,14,14],"right_children":[2,4,6,8,10,12,14,16,18,20,22,24,26,28,30,-1,-1,-1,-1,-1,-1,-1,-1,-1,-1,-1,-1,-1,-1,-1,-1],"split_conditions":[-1E0,4E0,2E0,3.275911E-1,6E0,5.1E-1,4.8333335E0,1.9358051E-1,2.8E-1,2.8169376E-1,5.714286E-1,5.409091E0,3.131704E-1,2.8566584E-1,5.6969695E0,2.1234652E-2,-1.726893E-2,3.3787087E-2,-5.603386E-4,-1.807047E-2,-4.081759E-2,-6.009244E-2,-2.3158219E-2,2.6819902E-3,1.7918458E-2,-1.3738626E-2,4.8975105E-4,-1.5518694E-3,2.5726961E-2,2.753783E-2,4.3770144E-4],"split_indices":[177,176,177,47,176,33,94,59,33,63,158,94,47,53,95,0,0,0,0,0,0,0,0,0,0,0,0,0,0,0,0],"split_type":[0,0,0,0,0,0,0,0,0,0,0,0,0,0,0,0,0,0,0,0,0,0,0,0,0,0,0,0,0,0,0],"sum_hessian":[3.302177E3,5.841207E2,2.7180562E3,1.6145047E2,4.2267026E2,2.1428066E3,5.752495E2,1.2861209E2,3.283837E1,3.5250903E2,7.016122E1,1.4468677E3,6.95939E2,1.8302415E2,3.9222534E2,1.691715E1,1.1169495E2,1.6464539E1,1.6373833E1,2.5505511E2,9.745392E1,4.898015E1,2.1181068E1,1.1272123E3,3.1965543E2,4.807741E2,2.1516489E2,1.3911264E2,4.3911503E1,3.6178702E2,3.0438322E1],"tree_param":{"num_deleted":"0","num_feature":"205","num_nodes":"31","size_leaf_vector":"1"}},{"base_weights":[1.0747918E-2,-3.0957216E-1,2.0418213E-1,-7.5196403E-1,-2.06382E-1,7.6194614E-2,4.6480402E-1,-1.228296E-1,-8.673024E-1,-3.0512404E-1,2.3292889E-1,-4.252607E-2,3.844079E-1,6.6556513E-1,2.5990903E-1,-2.5735607E-2,1.2075229E-2,-3.7824027E-2,-1.0690357E-3,-2.7771076E-2,-9.416262E-3,1.4703857E-2,-2.6023043E-2,2.014732E-3,-2.1169491E-2,1.8678917E-2,-8.5905725E-3,4.9736355E-3,2.893055E-2,-2.4249531E-2,1.3047265E-2],"categories":[],"categories_nodes":[],"categories_segments":[],"categories_sizes":[],"default_left":[0,0,0,0,0,0,0,0,0,0,0,0,0,0,0,0,0,0,0,0,0,0,0,0,0,0,0,0,0,0,0],"id":6,"left_children":[1,3,5,7,9,11,13,15,17,19,21,23,25,27,29,-1,-1,-1,-1,-1,-1,-1,-1,-1,-1,-1,-1,-1,-1,-1,-1],"loss_changes":[2.0252654E2,5.58471E1,6.787964E1,1.6575516E1,4.349517E1,5.0151264E1,2.723819E1,8.687882E0,1.2743088E1,2.1837807E1,2.2245766E1,4.4821808E1,1.9027172E1,1.0322006E1,1.9478252E1,0E0,0E0,0E0,0E0,0E0,0E0,0E0,0E0,0E0,0E0,0E0,0E0,0E0,0E0,0E0,0E0],"parents":[2147483647,0,0,1,1,2,2,3,3,4,4,5,5,6,6,7,7,8,8,9,9,10,10,11,11,12,12,13,13,14,14],"right_children":[2,4,6,8,10,12,14,16,18,20,22,24,26,28,30,-1,-1,-1,-1,-1,-1,-1,-1,-1,-1,-1,-1,-1,-1,-1,-1],"split_conditions":[0E0,-2E0,5E-1,4.5882354E0,6.7E-1,2E0,3.3E-1,4.9333334E0,5.398288E-1,4.469697E0,7.7E-1,7.3E-1,1.4671664E0,1.4893617E-1,-1.4626334E0,-2.5735607E-2,1.2075229E-2,-3.7824027E-2,-1.0690357E-3,-2.7771076E-2,-9.416262E-3,1.4703857E-2,-2.6023043E-2,2.014732E-3,-2.1169491E-2,1.8678917E-2,-8.5905725E-3,4.9736355E-3,2.893055E-2,-2.4249531E-2,1.3047265E-2],"split_indices":[177,177,15,95,15,177,33,94,5,94,33,33,117,98,203,0,0,0,0,0,0,0,0,0,0,0,0,0,0,0,0],"split_type":[0,0,0,0,0,0,0,0,0,0,0,0,0,0,0,0,0,0,0,0,0,0,0,0,0,0,0,0,0,0,0],"sum_hessian":[3.2657603E3,1.2290613E3,2.0366989E3,2.3049492E2,9.985664E2,1.3674747E3,6.692242E2,3.6323906E1,1.94171E2,8.158721E2,1.8269432E2,9.8791016E2,3.7956454E2,3.36072E2,3.3315216E2,1.6079115E1,2.0244793E1,1.7734521E2,1.682579E1,1.21698265E2,6.941738E2,1.5938872E2,2.3305613E1,8.3053284E2,1.5737735E2,3.3403314E2,4.5531395E1,3.2999157E1,3.0307285E2,2.2703186E1,3.1044897E2],"tree_param":{"num_deleted":"0","num_feature":"205","num_nodes":"31","size_leaf_vector":"1"}},{"base_weights":[-6.021428E-3,-3.2129928E-1,1.8722728E-1,-4.6992978E-1,6.414964E-2,6.0681578E-2,4.5829803E-1,-8.5835683E-1,-3.713001E-1,1.5169375E-1,-5.1274204E-1,1.394266E-1,-4.0158123E-1,5.797353E-1,2.0629773E-1,-5.8814734E-2,-2.9926946E-2,-3.730013E-3,-1.9858016E-2,2.0424085E-2,-9.005989E-4,-4.2059664E-2,-1.959833E-3,-2.1317129E-3,1.1517488E-2,-2.3938037E-2,1.0978708E-3,-1.742614E-2,2.4809876E-2,-1.9867785E-2,1.2547329E-2],"categories":[],"categories_nodes":[],"categories_segments":[],"categories_sizes":[],"default_left":[0,0,0,0,0,0,0,0,0,0,0,0,0,0,0,0,0,0,0,0,0,0,0,0,0,0,0,0,0,0,0],"id":7,"left_children":[1,3,5,7,9,11,13,15,17,19,21,23,25,27,29,-1,-1,-1,-1,-1,-1,-1,-1,-1,-1,-1,-1,-1,-1,-1,-1],"loss_changes":[2.0101855E2,7.1921326E1,7.006344E1,3.4082138E1,1.776109E1,5.088404E1,1.9646774E1,1.0399506E1,2.5094574E1,1.9152872E1,1.1384944E1,3.4230015E1,1.7264427E1,1.8433731E1,1.6378807E1,0E0,0E0,0E0,0E0,0E0,0E0,0E0,0E0,0E0,0E0,0E0,0E0,0E0,0E0,0E0,0E0],"parents":[2147483647,0,0,1,1,2,2,3,3,4,4,5,5,6,6,7,7,8,8,9,9,10,10,11,11,12,12,13,13,14,14],"right_children":[2,4,6,8,10,12,14,16,18,20,22,24,26,28,30,-1,-1,-1,-1,-1,-1,-1,-1,-1,-1,-1,-1,-1,-1,-1,-1],"split_conditions":[0E0,5.4E-1,5.1E-1,-2E0,7.7E-1,7.3E-1,5.2E-1,1.9662915E-1,-1.411923E-1,1.15131E0,-2.33E0,-3.5317425E-2,9.068973E-2,2.8E1,2.7558488E-1,-5.8814734E-2,-2.9926946E-2,-3.730013E-3,-1.9858016E-2,2.0424085E-2,-9.005989E-4,-4.2059664E-2,-1.959833E-3,-2.1317129E-3,1.1517488E-2,-2.3938037E-2,1.0978708E-3,-1.742614E-2,2.4809876E-2,-1.9867785E-2,1.2547329E-2],"split_indices":[177,15,15,177,33,33,33,48,197,169,112,126,3,166,54,0,0,0,0,0,0,0,0,0,0,0,0,0,0,0,0],"split_type":[0,0,0,0,0,0,0,0,0,0,0,0,0,0,0,0,0,0,0,0,0,0,0,0,0,0,0,0,0,0,0],"sum_hessian":[3.296131E3,1.2524047E3,2.0437266E3,9.038193E2,3.485853E2,1.3947917E3,6.489349E2,1.8047963E2,7.2333966E2,3.0376715E2,4.4818165E1,1.1928563E3,2.0193546E2,4.363251E2,2.1260977E2,2.4571688E1,1.5590794E2,2.2557974E2,4.9775992E2,9.850425E1,2.052629E2,1.9753338E1,2.5064827E1,5.192821E2,6.735742E2,1.3817247E2,6.3762993E1,1.6084417E1,4.202407E2,2.7329525E1,1.8528024E2],"tree_param":{"num_deleted":"0","num_feature":"205","num_nodes":"31","size_leaf_vector":"1"}},{"base_weights":[-1.44751575E-2,1.01525605E-1,-4.9208862E-1,9.746207E-3,4.4426465E-1,-6.507248E-1,2.0006793E-2,1.5811993E-1,-2.0335345E-1,5.900083E-2,6.0329235E-1,-7.3585397E-1,-8.9667946E-2,-2.4174781E-1,4.885856E-1,3.4056348E-3,2.3076138E-2,-1.3174232E-2,1.5496071E-3,-2.8508604E-3,3.1663593E-2,1.7615877E-2,3.310805E-2,-4.3016586E-2,-2.3763333E-2,1.21706305E-2,-2.8627746E-2,4.808705E-3,-2.100798E-2,3.10208E-2,-3.8869085E-3],"categories":[],"categories_nodes":[],"categories_segments":[],"categories_sizes":[],"default_left":[0,0,0,0,0,0,0,0,0,0,0,0,0,0,0,0,0,0,0,0,0,0,0,0,0,0,0,0,0,0,0],"id":8,"left_children":[1,3,5,7,9,11,13,15,17,19,21,23,25,27,29,-1,-1,-1,-1,-1,-1,-1,-1,-1,-1,-1,-1,-1,-1,-1,-1],"loss_changes":[1.8236409E2,8.3237114E1,5.233751E1,6.613447E1,3.4128944E1,2.3284134E1,1.9021753E1,3.7555664E1,2.6232182E1,1.591995E1,1.3777679E1,1.9392532E1,1.6789051E1,1.0324732E1,9.530372E0,0E0,0E0,0E0,0E0,0E0,0E0,0E0,0E0,0E0,0E0,0E0,0E0,0E0,0E0,0E0,0E0],"parents":[2147483647,0,0,1,1,2,2,3,3,4,4,5,5,6,6,7,7,8,8,9,9,10,10,11,11,12,12,13,13,14,14],"right_children":[2,4,6,8,10,12,14,16,18,20,22,24,26,28,30,-1,-1,-1,-1,-1,-1,-1,-1,-1,-1,-1,-1,-1,-1,-1,-1],"split_conditions":[4E0,2E0,5.4E-1,4.3E-1,4.7916665E0,0E0,-1E0,7.3E-1,5E-1,9E0,1.0056371E-1,-1.5859662E-2,4E-1,9.42E1,3.31042E-1,3.4056348E-3,2.3076138E-2,-1.3174232E-2,1.5496071E-3,-2.8508604E-3,3.1663593E-2,1.7615877E-2,3.310805E-2,-4.3016586E-2,-2.3763333E-2,1.21706305E-2,-2.8627746E-2,4.808705E-3,-2.100798E-2,3.10208E-2,-3.8869085E-3],"split_indices":[176,177,15,33,94,177,177,15,15,0,184,68,33,8,22,0,0,0,0,0,0,0,0,0,0,0,0,0,0,0,0],"split_type":[0,0,0,0,0,0,0,0,0,0,0,0,0,0,0,0,0,0,0,0,0,0,0,0,0,0,0,0,0,0,0],"sum_hessian":[3.2880037E3,2.6462622E3,6.4174133E2,2.0887632E3,5.574991E2,4.8980075E2,1.519406E2,1.2318949E3,8.5686835E2,1.6367119E2,3.9382788E2,4.2471344E2,6.50873E1,9.78134E1,5.4127205E1,1.0508184E3,1.8107649E2,5.634712E2,2.9339716E2,1.3999432E2,2.3676868E1,2.3102167E2,1.6280621E2,1.2197718E2,3.0273627E2,4.0324116E1,2.4763184E1,4.318172E1,5.463168E1,3.6119034E1,1.8008173E1],"tree_param":{"num_deleted":"0","num_feature":"205","num_nodes":"31","size_leaf_vector":"1"}},{"base_weights":[3.547239E-4,-4.9362096E-1,1.08361796E-1,-4.0119347E-1,-1.1418916E0,1.9313473E-2,4.392759E-1,-5.8528817E-1,-6.323037E-2,-1.3759092E0,-2.973737E-2,1.3483876E-1,-2.2473751E-1,3.6715132E-1,9.3765426E-1,-2.9306902E-2,-7.7089495E-3,1.8834744E-2,-9.634652E-3,-6.4080544E-2,-3.462267E-2,8.465798E-3,-4.787724E-3,-1.9396663E-2,-5.066248E-3,2.5029091E-2,8.380611E-3,4.6800885E-2,1.7383285E-2],"categories":[],"categories_nodes":[],"categories_segments":[],"categories_sizes":[],"default_left":[0,0,0,0,0,0,0,0,0,0,0,0,0,0,0,0,0,0,0,0,0,0,0,0,0,0,0,0,0],"id":9,"left_children":[1,3,5,7,9,11,13,15,17,19,-1,21,23,25,27,-1,-1,-1,-1,-1,-1,-1,-1,-1,-1,-1,-1,-1,-1],"loss_changes":[1.7458556E2,3.4334747E1,7.908854E1,3.2000053E1,4.996338E0,5.9757484E1,1.9813683E1,1.9010818E1,1.759698E1,2.7081985E0,0E0,2.8176863E1,1.722055E1,2.0095894E1,7.3556404E0,0E0,0E0,0E0,0E0,0E0,0E0,0E0,0E0,0E0,0E0,0E0,0E0,0E0,0E0],"parents":[2147483647,0,0,1,1,2,2,3,3,4,4,5,5,6,6,7,7,8,8,9,9,11,11,12,12,13,13,14,14],"right_children":[2,4,6,8,10,12,14,16,18,20,-1,22,24,26,28,-1,-1,-1,-1,-1,-1,-1,-1,-1,-1,-1,-1,-1,-1],"split_conditions":[-1E0,6E0,2E0,2.3953213E1,1.2322893E0,5.2E-1,6E0,9.52381E-2,2.1597351E-1,3.096052E-1,-2.973737E-2,4.6640186E0,1E0,-1.02770574E-1,3.1E1,-2.9306902E-2,-7.7089495E-3,1.8834744E-2,-9.634652E-3,-6.4080544E-2,-3.462267E-2,8.465798E-3,-4.787724E-3,-1.9396663E-2,-5.066248E-3,2.5029091E-2,8.380611E-3,4.6800885E-2,1.7383285E-2],"split_indices":[177,176,177,141,149,33,175,35,58,47,0,113,29,117,27,0,0,0,0,0,0,0,0,0,0,0,0,0,0],"split_type":[0,0,0,0,0,0,0,0,0,0,0,0,0,0,0,0,0,0,0,0,0,0,0,0,0,0,0,0,0],"sum_hessian":[3.269999E3,5.855726E2,2.6844265E3,5.147626E2,7.080997E1,2.116713E3,5.677135E2,3.3233826E2,1.8242435E2,4.21338E1,2.8676167E1,1.4373855E3,6.793275E2,4.9839258E2,6.932092E1,2.4049321E2,9.184504E1,4.4771267E1,1.3765308E2,2.6838543E1,1.5295258E1,1.1046866E3,3.326988E2,1.840814E2,4.9524612E2,1.8683385E2,3.1155875E2,4.5922173E1,2.339875E1],"tree_param":{"num_deleted":"0","num_feature":"205","num_nodes":"29","size_leaf_vector":"1"}},{"base_weights":[-7.7264253E-3,-2.9534137E-1,1.680754E-1,-1.1061376E-1,-5.1952124E-1,6.739221E-2,4.2936715E-1,1.2135309E-1,-3.1640184E-1,-6.0488874E-1,2.6170567E-1,1.185632E-1,-3.8538992E-1,3.5120618E-1,9.2181957E-1,9.260893E-3,-1.8176919E-2,1.5077895E-2,-1.6132755E-2,-4.616023E-2,-2.0398704E-2,3.1925406E-2,-1.0923189E-2,8.9988176E-4,1.13231465E-2,-2.4511153E-2,1.279659E-2,1.0535598E-2,3.411611E-2,4.510565E-2,1.9426119E-2],"categories":[],"categories_nodes":[],"categories_segments":[],"categories_sizes":[],"default_left":[0,0,0,0,0,0,0,0,0,0,0,0,0,0,0,0,0,0,0,0,0,0,0,0,0,0,0,0,0,0,0],"id":10,"left_children":[1,3,5,7,9,11,13,15,17,19,21,23,25,27,29,-1,-1,-1,-1,-1,-1,-1,-1,-1,-1,-1,-1,-1,-1,-1,-1],"loss_changes":[1.6477136E2,5.105007E1,5.3105293E1,3.2535633E1,3.747719E1,3.390967E1,2.101522E1,2.0465973E1,2.1983261E1,2.5194016E1,1.6412113E1,2.0737473E1,2.4152325E1,2.1030907E1,5.828247E0,0E0,0E0,0E0,0E0,0E0,0E0,0E0,0E0,0E0,0E0,0E0,0E0,0E0,0E0,0E0,0E0],"parents":[2147483647,0,0,1,1,2,2,3,3,4,4,5,5,6,6,7,7,8,8,9,9,10,10,11,11,12,12,13,13,14,14],"right_children":[2,4,6,8,10,12,14,16,18,20,22,24,26,28,30,-1,-1,-1,-1,-1,-1,-1,-1,-1,-1,-1,-1,-1,-1,-1,-1],"split_conditions":[0E0,4E0,2E0,-2.8196385E-2,5.6444445E0,1.3690561E0,4E0,3.8529724E-1,9.9492E-1,-3E0,8.702109E-2,3.7378145E-3,2.3857822E-1,1.5535388E0,4.6E-1,9.260893E-3,-1.8176919E-2,1.5077895E-2,-1.6132755E-2,-4.616023E-2,-2.0398704E-2,3.1925406E-2,-1.0923189E-2,8.9988176E-4,1.13231465E-2,-2.4511153E-2,1.279659E-2,1.0535598E-2,3.411611E-2,4.510565E-2,1.9426119E-2],"split_indices":[177,176,177,117,94,117,177,100,169,177,183,6,2,196,32,0,0,0,0,0,0,0,0,0,0,0,0,0,0,0,0],"split_type":[0,0,0,0,0,0,0,0,0,0,0,0,0,0,0,0,0,0,0,0,0,0,0,0,0,0,0,0,0,0,0],"sum_hessian":[3.2554944E3,1.2348334E3,2.0206609E3,6.7845905E2,5.563744E2,1.4602533E3,5.604077E2,3.1900366E2,3.5945535E2,5.0198703E2,5.4387383E1,1.3131736E3,1.470797E2,4.860377E2,7.4370026E1,2.6866727E2,5.033639E1,3.935549E1,3.2009985E2,7.136308E1,4.3062393E2,2.687654E1,2.7510841E1,8.3051855E2,4.8265497E2,1.11477974E2,3.5601727E1,4.157519E2,7.0285774E1,4.8755573E1,2.5614454E1],"tree_param":{"num_deleted":"0","num_feature":"205","num_nodes":"31","size_leaf_vector":"1"}},{"base_weights":[5.2897707E-3,-2.5840956E-1,1.6422366E-1,-4.4676262E-1,-7.738583E-2,3.544424E-2,3.8759428E-1,-5.0783134E-1,6.2067896E-2,-2.9882565E-1,1.2216158E-1,1.4785413E-1,-1.823061E-1,5.7060206E-1,2.2473013E-1,-2.9253414E-2,-1.4484342E-2,2.7434563E-2,-1.1474515E-2,-6.590311E-3,-3.5525642E-2,1.37116E-2,-3.5177874E-3,-3.45358E-3,1.0836593E-2,-2.2827662E-4,-1.6087571E-2,4.6253756E-2,2.0509005E-2,1.1757582E-2,-1.8306116E-2],"categories":[],"categories_nodes":[],"categories_segments":[],"categories_sizes":[],"default_left":[0,0,0,0,0,0,0,0,0,0,0,0,0,0,0,0,0,0,0,0,0,0,0,0,0,0,0,0,0,0,0],"id":11,"left_children":[1,3,5,7,9,11,13,15,17,19,21,23,25,27,29,-1,-1,-1,-1,-1,-1,-1,-1,-1,-1,-1,-1,-1,-1,-1,-1],"loss_changes":[1.3675429E2,4.172946E1,5.85114E1,1.8757965E1,2.7809988E1,3.1699585E1,2.1909798E1,1.6972733E1,1.4598616E1,2.32364E1,1.5414772E1,2.4673487E1,1.707196E1,1.0781075E1,1.8913124E1,0E0,0E0,0E0,0E0,0E0,0E0,0E0,0E0,0E0,0E0,0E0,0E0,0E0,0E0,0E0,0E0],"parents":[2147483647,0,0,1,1,2,2,3,3,4,4,5,5,6,6,7,7,8,8,9,9,10,10,11,11,12,12,13,13,14,14],"right_children":[2,4,6,8,10,12,14,16,18,20,22,24,26,28,30,-1,-1,-1,-1,-1,-1,-1,-1,-1,-1,-1,-1,-1,-1,-1,-1],"split_conditions":[0E0,3.3E-1,5.2E0,1.17184E0,-1E0,5.2222223E0,3.3E-1,4.7849464E0,3.18E-1,2.8909138E-1,9.947E1,-3.8269897E1,3.0496654E-1,7.8E1,3.582897E-1,-2.9253414E-2,-1.4484342E-2,2.7434563E-2,-1.1474515E-2,-6.590311E-3,-3.5525642E-2,1.37116E-2,-3.5177874E-3,-3.45358E-3,1.0836593E-2,-2.2827662E-4,-1.6087571E-2,4.6253756E-2,2.0509005E-2,1.1757582E-2,-1.8306116E-2],"split_indices":[177,12,94,203,177,95,30,94,111,63,109,141,57,160,130,0,0,0,0,0,0,0,0,0,0,0,0,0,0,0,0],"split_type":[0,0,0,0,0,0,0,0,0,0,0,0,0,0,0,0,0,0,0,0,0,0,0,0,0,0,0,0,0,0,0],"sum_hessian":[3.2601934E3,1.2254265E3,2.0347668E3,5.9920575E2,6.262208E2,1.2920498E3,7.4271704E2,5.3517474E2,6.403102E1,2.9671167E2,3.2950912E2,8.527651E2,4.392847E2,3.476732E2,3.9504385E2,2.0856752E2,3.266072E2,2.2552055E1,4.1478962E1,2.4342265E2,5.328903E1,1.6049997E2,1.6900916E2,2.9361975E2,5.591453E2,2.4472641E2,1.9455829E2,2.8548815E1,3.1912436E2,3.5957504E2,3.546882E1],"tree_param":{"num_deleted":"0","num_feature":"205","num_nodes":"31","size_leaf_vector":"1"}},{"base_weights":[-4.352558E-3,9.9548556E-2,-4.2365626E-1,2.1962157E-1,-1.2200505E-1,-6.403154E-1,-1.0281311E-1,1.0191333E-1,4.4405174E-1,-3.1307402E-1,3.2839198E-2,-6.998988E-1,1.3831255E-2,4.8361823E-2,-5.508464E-1,9.386341E-3,-3.5532408E-3,1.5527227E-2,4.284724E-2,-4.5851045E-3,-2.1052115E-2,1.0729157E-2,-3.2460545E-3,-1.1892468E-2,-3.2270294E-2,-7.764043E-3,1.3031692E-2,-3.307537E-2,-3.05817E-3],"categories":[],"categories_nodes":[],"categories_segments":[],"categories_sizes":[],"default_left":[0,0,0,0,0,0,0,0,0,0,0,0,0,0,0,0,0,0,0,0,0,0,0,0,0,0,0,0,0],"id":12,"left_children":[1,3,5,7,9,11,13,15,17,19,21,23,-1,25,27,-1,-1,-1,-1,-1,-1,-1,-1,-1,-1,-1,-1,-1,-1],"loss_changes":[1.4282005E2,6.992139E1,4.5083893E1,4.489715E1,2.7375374E1,2.3204163E1,1.7998549E1,2.8407578E1,1.974739E1,1.7362225E1,1.3771953E1,1.5301956E1,0E0,1.3487888E1,8.587755E0,0E0,0E0,0E0,0E0,0E0,0E0,0E0,0E0,0E0,0E0,0E0,0E0,0E0,0E0],"parents":[2147483647,0,0,1,1,2,2,3,3,4,4,5,5,6,6,7,7,8,8,9,9,10,10,11,11,13,13,14,14],"right_children":[2,4,6,8,10,12,14,16,18,20,22,24,-1,26,28,-1,-1,-1,-1,-1,-1,-1,-1,-1,-1,-1,-1,-1,-1],"split_conditions":[4E0,4.9E-1,3.6E-1,4.9E-1,3E-1,5.733333E0,5.37931E0,7.54986E-2,5E0,1.2173365E-2,3.0797768E-1,4.6896553E0,1.3831255E-2,2.4E-1,7.703704E-2,9.386341E-3,-3.5532408E-3,1.5527227E-2,4.284724E-2,-4.5851045E-3,-2.1052115E-2,1.0729157E-2,-3.2460545E-3,-1.1892468E-2,-3.2270294E-2,-7.764043E-3,1.3031692E-2,-3.307537E-2,-3.05817E-3],"split_indices":[176,33,15,15,15,115,95,197,175,185,56,95,0,17,35,0,0,0,0,0,0,0,0,0,0,0,0,0,0],"split_type":[0,0,0,0,0,0,0,0,0,0,0,0,0,0,0,0,0,0,0,0,0,0,0,0,0,0,0,0,0],"sum_hessian":[3.2745403E3,2.6249883E3,6.49552E2,1.7026732E3,9.22315E2,3.8664972E2,2.629023E2,1.1186139E3,5.840594E2,4.124671E2,5.0984787E2,3.651244E2,2.152532E1,1.9740799E2,6.549431E1,6.596918E2,4.589221E2,5.3865814E2,4.5401234E1,2.150765E2,1.9739061E2,1.6596954E2,3.4387833E2,7.797283E1,2.8715155E2,1.05390816E2,9.201717E1,4.0565075E1,2.4929237E1],"tree_param":{"num_deleted":"0","num_feature":"205","num_nodes":"29","size_leaf_vector":"1"}},{"base_weights":[8.507977E-3,-1.4310813E-1,2.6634565E-1,-2.5633943E-1,1.5309036E-1,4.0207192E-1,4.2510442E-2,-7.277749E-1,-1.9458027E-1,-4.118139E-1,2.2015594E-1,3.5441384E-1,1.0073322E0,1.4278898E-1,-2.9212353E-1,-3.5530165E-2,-8.606137E-3,-4.1252724E-3,-1.4372556E-2,-3.3125293E-2,2.8304819E-3,1.7603336E-2,2.911756E-3,1.6989898E-2,-7.062486E-4,2.2042066E-2,5.252161E-2,9.384253E-3,-1.0388089E-2,-3.388959E-3,-3.8582888E-2],"categories":[],"categories_nodes":[],"categories_segments":[],"categories_sizes":[],"default_left":[0,0,0,0,0,0,0,0,0,0,0,0,0,0,0,0,0,0,0,0,0,0,0,0,0,0,0,0,0,0,0],"id":13,"left_children":[1,3,5,7,9,11,13,15,17,19,21,23,25,27,29,-1,-1,-1,-1,-1,-1,-1,-1,-1,-1,-1,-1,-1,-1,-1,-1],"loss_changes":[1.2848392E2,6.947031E1,3.6906685E1,4.3304512E1,2.1824127E1,2.117118E1,1.5530455E1,1.3814545E1,1.988213E1,1.245274E1,1.6536192E1,1.8486221E1,6.303196E0,1.3254239E1,1.4646071E1,0E0,0E0,0E0,0E0,0E0,0E0,0E0,0E0,0E0,0E0,0E0,0E0,0E0,0E0,0E0,0E0],"parents":[2147483647,0,0,1,1,2,2,3,3,4,4,5,5,6,6,7,7,8,8,9,9,10,10,11,11,12,12,13,13,14,14],"right_children":[2,4,6,8,10,12,14,16,18,20,22,24,26,28,30,-1,-1,-1,-1,-1,-1,-1,-1,-1,-1,-1,-1,-1,-1,-1,-1],"split_conditions":[1E0,5.5E-1,4.4E-1,-2E0,-2E0,4E0,9.7783613E-1,1.18782E0,5.204301E0,4.2E1,6.9654816E-1,6.3516665E-1,4.347826E-2,7.299491E-1,3.269E-1,-3.5530165E-2,-8.606137E-3,-4.1252724E-3,-1.4372556E-2,-3.3125293E-2,2.8304819E-3,1.7603336E-2,2.911756E-3,1.6989898E-2,-7.062486E-4,2.2042066E-2,5.252161E-2,9.384253E-3,-1.0388089E-2,-3.388959E-3,-3.8582888E-2],"split_indices":[177,15,33,177,177,177,117,169,95,10,137,202,35,137,110,0,0,0,0,0,0,0,0,0,0,0,0,0,0,0,0],"split_type":[0,0,0,0,0,0,0,0,0,0,0,0,0,0,0,0,0,0,0,0,0,0,0,0,0,0,0,0,0,0,0],"sum_hessian":[3.2833997E3,2.06777E3,1.2156296E3,1.4963008E3,5.714692E2,7.557355E2,4.598942E2,1.7125313E2,1.3250476E3,5.9668644E1,5.118005E2,7.0293036E2,5.2805077E1,3.547472E2,1.05147E2,1.2943767E2,4.181546E1,8.540086E2,4.7103906E2,3.1568026E1,2.810062E1,2.038743E2,3.079262E2,5.912255E2,1.1170484E2,2.300307E1,2.9802004E1,2.89565E2,6.51822E1,8.176606E1,2.3380941E1],"tree_param":{"num_deleted":"0","num_feature":"205","num_nodes":"31","size_leaf_vector":"1"}},{"base_weights":[-1.0783668E-2,-1.6609329E-1,2.553053E-1,-5.8910105E-2,-4.2346656E-1,2.811102E-2,3.7810963E-1,4.541325E-2,-2.8721863E-1,-4.8921558E-1,2.401072E-1,1.5630601E-1,-2.4806005E-1,5.455722E-1,2.0467983E-1,-6.39663E-3,6.756959E-3,1.0585014E-2,-1.5246367E-2,-4.0578626E-2,-1.6370248E-2,3.3451498E-2,-8.871519E-3,1.6914703E-2,-5.9953565E-4,-2.072198E-2,2.8787332E-3,2.8035415E-2,1.0821164E-2,-1.4038995E-3,1.8980812E-2],"categories":[],"categories_nodes":[],"categories_segments":[],"categories_sizes":[],"default_left":[0,0,0,0,0,0,0,0,0,0,0,0,0,0,0,0,0,0,0,0,0,0,0,0,0,0,0,0,0,0,0],"id":14,"left_children":[1,3,5,7,9,11,13,15,17,19,21,23,25,27,29,-1,-1,-1,-1,-1,-1,-1,-1,-1,-1,-1,-1,-1,-1,-1,-1],"loss_changes":[1.3530705E2,5.6954975E1,3.3607254E1,3.4861122E1,2.6702293E1,1.51046505E1,2.2492714E1,2.551183E1,2.395644E1,2.2472244E1,1.5658145E1,1.3365171E1,1.1778096E1,1.658017E1,2.5124575E1,0E0,0E0,0E0,0E0,0E0,0E0,0E0,0E0,0E0,0E0,0E0,0E0,0E0,0E0,0E0,0E0],"parents":[2147483647,0,0,1,1,2,2,3,3,4,4,5,5,6,6,7,7,8,8,9,9,10,10,11,11,12,12,13,13,14,14],"right_children":[2,4,6,8,10,12,14,16,18,20,22,24,26,28,30,-1,-1,-1,-1,-1,-1,-1,-1,-1,-1,-1,-1,-1,-1,-1,-1],"split_conditions":[1E0,4E0,4.878788E0,5.285714E0,5.6444445E0,5.225806E0,3.6E-1,2.3E-1,6.7653276E-2,-3E0,8.558742E-2,-8.9904606E-5,1.4427314E-4,2.261373E-3,2E0,-6.39663E-3,6.756959E-3,1.0585014E-2,-1.5246367E-2,-4.0578626E-2,-1.6370248E-2,3.3451498E-2,-8.871519E-3,1.6914703E-2,-5.9953565E-4,-2.072198E-2,2.8787332E-3,2.8035415E-2,1.0821164E-2,-1.4038995E-3,1.8980812E-2],"split_indices":[177,176,94,95,94,95,30,12,118,177,183,193,76,76,177,0,0,0,0,0,0,0,0,0,0,0,0,0,0,0,0],"split_type":[0,0,0,0,0,0,0,0,0,0,0,0,0,0,0,0,0,0,0,0,0,0,0,0,0,0,0,0,0,0,0],"sum_hessian":[3.2713013E3,2.0662317E3,1.2050695E3,1.460315E3,6.0591675E2,4.237563E2,7.813132E2,1.00284045E3,4.5747455E2,5.5178864E2,5.4128143E1,2.9010602E2,1.3365028E2,3.9556403E2,3.8574915E2,3.761922E2,6.2664825E2,6.599631E1,3.9147824E2,7.042009E1,4.8136853E2,2.3192995E1,3.0935148E1,1.12859436E2,1.7724657E2,7.2158585E1,6.149169E1,2.5109055E2,1.4447346E2,2.0474725E2,1.8100188E2],"tree_param":{"num_deleted":"0","num_feature":"205","num_nodes":"31","size_leaf_vector":"1"}},{"base_weights":[1.094656E-2,-2.2987977E-1,1.5546736E-1,-9.380046E-1,-1.7920433E-1,4.9742077E-2,3.7350675E-1,-1.0958849E0,-8.9198295E-3,-4.7366202E-1,-7.913481E-2,-4.1230373E-2,2.8943595E-1,5.406707E-1,2.516344E-1,-5.5263538E-2,-3.121503E-2,-2.5468932E-2,-2.5849799E-3,5.347407E-3,-8.018344E-3,-2.2132568E-2,3.6935223E-4,-6.8046013E-3,1.5393312E-2,-6.9397185E-3,2.3975918E-2,7.1324757E-3,3.0048354E-2],"categories":[],"categories_nodes":[],"categories_segments":[],"categories_sizes":[],"default_left":[0,0,0,0,0,0,0,0,0,0,0,0,0,0,0,0,0,0,0,0,0,0,0,0,0,0,0,0,0],"id":15,"left_children":[1,3,5,7,9,11,13,15,-1,17,19,21,23,25,27,-1,-1,-1,-1,-1,-1,-1,-1,-1,-1,-1,-1,-1,-1],"loss_changes":[1.1306268E2,4.3349724E1,4.6737827E1,8.630394E0,3.344481E1,2.9905203E1,1.3214088E1,4.0928345E0,0E0,1.9097023E1,2.2045837E1,2.5741903E1,1.665872E1,1.1845657E1,1.3857149E1,0E0,0E0,0E0,0E0,0E0,0E0,0E0,0E0,0E0,0E0,0E0,0E0,0E0,0E0],"parents":[2147483647,0,0,1,1,2,2,3,3,4,4,5,5,6,6,7,7,9,9,10,10,11,11,12,12,13,13,14,14],"right_children":[2,4,6,8,10,12,14,16,-1,18,20,22,24,26,28,-1,-1,-1,-1,-1,-1,-1,-1,-1,-1,-1,-1,-1,-1],"split_conditions":[0E0,-3E0,5E-1,4.910744E-2,9E-2,2E0,2.7E-1,5E-1,-8.9198295E-3,3.6164993E1,1E0,-1.192109E2,4.491228E0,2.7296272E-1,3.809524E-1,-5.5263538E-2,-3.121503E-2,-2.5468932E-2,-2.5849799E-3,5.347407E-3,-8.018344E-3,-2.2132568E-2,3.6935223E-4,-6.8046013E-3,1.5393312E-2,-6.9397185E-3,2.3975918E-2,7.1324757E-3,3.0048354E-2],"split_indices":[177,177,15,155,15,177,30,158,0,141,11,141,94,66,159,0,0,0,0,0,0,0,0,0,0,0,0,0,0],"split_type":[0,0,0,0,0,0,0,0,0,0,0,0,0,0,0,0,0,0,0,0,0,0,0,0,0,0,0,0,0],"sum_hessian":[3.245689E3,1.2166732E3,2.0290157E3,7.9368004E1,1.1373053E3,1.3679906E3,6.6102515E2,6.424356E1,1.512444E1,2.8679694E2,8.505083E2,9.922289E2,3.7576178E2,2.7620233E2,3.848228E2,3.0888094E1,3.335547E1,2.0428145E2,8.251548E1,3.084551E2,5.420532E2,8.784627E1,9.0438257E2,6.421219E1,3.115496E2,2.0634813E1,2.5556754E2,3.375205E2,4.73023E1],"tree_param":{"num_deleted":"0","num_feature":"205","num_nodes":"29","size_leaf_vector":"1"}},{"base_weights":[1.3159326E-2,1.08036384E-1,-3.7072706E-1,2.1713604E-1,-1.2765542E-1,-5.004068E-1,9.870093E-2,1.4248987E-1,5.1327217E-1,-3.9634413E-1,-3.079453E-2,-2.7064043E-1,-7.242613E-1,6.194156E-1,-8.770998E-2,1.5020755E-3,1.3833391E-2,1.2968451E-3,2.3750693E-2,1.843862E-2,-1.887155E-2,-5.225277E-3,1.01871975E-2,1.3007838E-2,-1.6584663E-2,-5.625777E-2,-2.5207847E-2,4.3208604E-3,3.8216818E-2,-1.3691832E-2,2.0157034E-2],"categories":[],"categories_nodes":[],"categories_segments":[],"categories_sizes":[],"default_left":[0,0,0,0,0,0,0,0,0,0,0,0,0,0,0,0,0,0,0,0,0,0,0,0,0,0,0,0,0,0,0],"id":16,"left_children":[1,3,5,7,9,11,13,15,17,19,21,23,25,27,29,-1,-1,-1,-1,-1,-1,-1,-1,-1,-1,-1,-1,-1,-1,-1,-1],"loss_changes":[1.18290085E2,6.702949E1,3.929107E1,3.920362E1,2.1406414E1,2.5563858E1,1.376162E1,3.0352335E1,1.3757156E1,1.4438206E1,1.7371733E1,2.1800364E1,1.4798569E1,6.154337E0,1.5990298E1,0E0,0E0,0E0,0E0,0E0,0E0,0E0,0E0,0E0,0E0,0E0,0E0,0E0,0E0,0E0,0E0],"parents":[2147483647,0,0,1,1,2,2,3,3,4,4,5,5,6,6,7,7,8,8,9,9,10,10,11,11,12,12,13,13,14,14],"right_children":[2,4,6,8,10,12,14,16,18,20,22,24,26,28,30,-1,-1,-1,-1,-1,-1,-1,-1,-1,-1,-1,-1,-1,-1,-1,-1],"split_conditions":[4E0,5.2E-1,5.9E-1,4E0,4.75641E0,3.3E-1,2.8885007E-1,4.9E-1,-3.9806336E-2,3.1E1,9.4469525E-2,-7.3024994E-1,3.0542552E0,2.9378492E-1,5.6507936E0,1.5020755E-3,1.3833391E-2,1.2968451E-3,2.3750693E-2,1.843862E-2,-1.887155E-2,-5.225277E-3,1.01871975E-2,1.3007838E-2,-1.6584663E-2,-5.625777E-2,-2.5207847E-2,4.3208604E-3,3.8216818E-2,-1.3691832E-2,2.0157034E-2],"split_indices":[176,33,15,175,94,33,64,15,68,163,51,117,115,56,94,0,0,0,0,0,0,0,0,0,0,0,0,0,0,0,0],"split_type":[0,0,0,0,0,0,0,0,0,0,0,0,0,0,0,0,0,0,0,0,0,0,0,0,0,0,0,0,0,0,0],"sum_hessian":[3.2453357E3,2.603277E3,6.420585E2,1.7799133E3,8.233638E2,5.031712E2,1.3888725E2,1.423624E3,3.5628934E2,2.1666698E2,6.0669684E2,2.5016241E2,2.5300879E2,3.5836056E1,1.030512E2,9.4052594E2,4.8309814E2,5.157057E1,3.0471878E2,1.6797646E1,1.9986934E2,4.5035913E2,1.5633769E2,4.818193E1,2.0198048E2,2.7994568E1,2.2501422E2,1.511346E1,2.0722597E1,7.260839E1,3.0442812E1],"tree_param":{"num_deleted":"0","num_feature":"205","num_nodes":"31","size_leaf_vector":"1"}},{"base_weights":[-6.837894E-3,7.962702E-2,-3.557501E-1,-1.1065564E-2,2.6731703E-1,-4.7368565E-1,7.4437913E-3,9.471346E-2,-1.602798E-1,2.2907612E-1,7.865846E-1,-5.6656964E-2,-4.158292E-1,1.4913726E-1,-2.9656878E-2,2.8607708E-3,3.7091237E-2,2.5751772E-3,-9.809977E-3,3.815628E-3,1.5031931E-2,8.7655755E-3,4.617752E-2,-2.4373592E-4,-2.0437052E-2,1.1943889E-2,-2.102043E-2],"categories":[],"categories_nodes":[],"categories_segments":[],"categories_sizes":[],"default_left":[0,0,0,0,0,0,0,0,0,0,0,0,0,0,0,0,0,0,0,0,0,0,0,0,0,0,0],"id":17,"left_children":[1,3,5,7,9,11,13,15,17,19,21,-1,23,25,-1,-1,-1,-1,-1,-1,-1,-1,-1,-1,-1,-1,-1],"loss_changes":[9.74377E1,4.4074295E1,2.7528145E1,2.7581385E1,1.6375309E1,2.5357422E1,1.6925674E1,1.9536613E1,1.3882921E1,1.5351948E1,1.1392353E1,0E0,1.781559E1,1.3789661E1,0E0,0E0,0E0,0E0,0E0,0E0,0E0,0E0,0E0,0E0,0E0,0E0,0E0],"parents":[2147483647,0,0,1,1,2,2,3,3,4,4,5,5,6,6,7,7,8,8,9,9,10,10,12,12,13,13],"right_children":[2,4,6,8,10,12,14,16,18,20,22,-1,24,26,-1,-1,-1,-1,-1,-1,-1,-1,-1,-1,-1,-1,-1],"split_conditions":[4E0,5E-1,5.4E-1,5.139785E0,5E0,2.881788E0,3.328179E-1,6E0,2.6179552E-1,4.452456E-2,3.9973805E0,-5.6656964E-2,4.6476192E0,2.8812936E-1,-2.9656878E-2,2.8607708E-3,3.7091237E-2,2.5751772E-3,-9.809977E-3,3.815628E-3,1.5031931E-2,8.7655755E-3,4.617752E-2,-2.4373592E-4,-2.0437052E-2,1.1943889E-2,-2.102043E-2],"split_indices":[176,15,15,95,175,115,56,175,65,126,115,0,95,63,0,0,0,0,0,0,0,0,0,0,0,0,0],"split_type":[0,0,0,0,0,0,0,0,0,0,0,0,0,0,0,0,0,0,0,0,0,0,0,0,0,0,0],"sum_hessian":[3.2259412E3,2.5859746E3,6.3996655E2,1.744098E3,8.418766E2,4.8295987E2,1.5700665E2,1.02052106E3,7.2357697E2,7.8632294E2,5.5553627E1,2.5789143E1,4.5717075E2,1.3314836E2,2.3858297E1,9.9456287E2,2.5958195E1,1.983438E2,5.2523315E2,4.130922E2,3.7323077E2,2.2897587E1,3.265604E1,8.661758E1,3.7055316E2,1.0980643E2,2.3341932E1],"tree_param":{"num_deleted":"0","num_feature":"205","num_nodes":"27","size_leaf_vector":"1"}},{"base_weights":[5.348349E-4,8.2227886E-2,-3.2284555E-1,1.81912E-1,-1.2808307E-1,-4.4091702E-1,3.1335194E-2,1.11165114E-1,4.6654478E-1,-2.6553884E-1,8.28264E-3,-2.3463412E-1,-6.3826203E-1,-2.3747663E-1,3.5851887E-1,1.909309E-3,1.664679E-2,3.840755E-4,2.2076407E-2,-4.4657513E-3,-2.2358699E-2,-2.4472428E-3,2.0618645E-2,7.5531956E-3,-1.6014481E-2,-3.1315934E-2,-1.4030646E-2,2.6803555E-3,-2.9054284E-2,2.7445685E-3,4.0458303E-2],"categories":[],"categories_nodes":[],"categories_segments":[],"categories_sizes":[],"default_left":[0,0,0,0,0,0,0,0,0,0,0,0,0,0,0,0,0,0,0,0,0,0,0,0,0,0,0,0,0,0,0],"id":18,"left_children":[1,3,5,7,9,11,13,15,17,19,21,23,25,27,29,-1,-1,-1,-1,-1,-1,-1,-1,-1,-1,-1,-1,-1,-1,-1,-1],"loss_changes":[8.643629E1,5.4820793E1,2.7653313E1,3.5580864E1,1.5789356E1,1.9844833E1,1.4752725E1,2.7451706E1,1.367981E1,1.876658E1,1.500128E1,1.7308216E1,9.950729E0,1.3825623E1,1.4117797E1,0E0,0E0,0E0,0E0,0E0,0E0,0E0,0E0,0E0,0E0,0E0,0E0,0E0,0E0,0E0,0E0],"parents":[2147483647,0,0,1,1,2,2,3,3,4,4,5,5,6,6,7,7,8,8,9,9,10,10,11,11,12,12,13,13,14,14],"right_children":[2,4,6,8,10,12,14,16,18,20,22,24,26,28,30,-1,-1,-1,-1,-1,-1,-1,-1,-1,-1,-1,-1,-1,-1,-1,-1],"split_conditions":[4E0,5.2E-1,5.4E-1,4E0,1E0,3.3E-1,3E0,6.9E-1,4.5882354E0,3E0,9.983122E-2,4.6363635E0,2.726973E-3,5.2E0,5.6372547E0,1.909309E-3,1.664679E-2,3.840755E-4,2.2076407E-2,-4.4657513E-3,-2.2358699E-2,-2.4472428E-3,2.0618645E-2,7.5531956E-3,-1.6014481E-2,-3.1315934E-2,-1.4030646E-2,2.6803555E-3,-2.9054284E-2,2.7445685E-3,4.0458303E-2],"split_indices":[176,33,15,175,204,33,175,15,94,176,50,95,76,95,94,0,0,0,0,0,0,0,0,0,0,0,0,0,0,0,0],"split_type":[0,0,0,0,0,0,0,0,0,0,0,0,0,0,0,0,0,0,0,0,0,0,0,0,0,0,0,0,0,0,0],"sum_hessian":[3.269783E3,2.6114905E3,6.582926E2,1.7721819E3,8.3930865E2,4.9364395E2,1.6464862E2,1.4213384E3,3.5084354E2,4.1764124E2,4.216674E2,2.4320952E2,2.5043443E2,9.0445145E1,7.420347E1,1.1783395E3,2.429989E2,5.5673786E1,2.9516974E2,2.7553986E2,1.421014E2,3.718595E2,4.9807884E1,6.8181435E1,1.7502809E2,1.6466203E2,8.577241E1,5.640483E1,3.4040318E1,5.2641457E1,2.1562016E1],"tree_param":{"num_deleted":"0","num_feature":"205","num_nodes":"31","size_leaf_vector":"1"}},{"base_weights":[1.22352345E-2,9.871696E-2,-3.3108285E-1,-1.0178988E-2,2.7945998E-1,-4.2602792E-1,8.0217056E-2,4.2818587E-2,-3.6484483E-1,5.7702816E-1,1.8981275E-1,3.401345E-2,-5.1035887E-1,-4.97335E-2,3.4067873E-2,-2.7808505E-3,6.714956E-3,-1.0294501E-3,-2.3016881E-2,2.5323373E-3,2.64342E-2,-4.2503527E-3,1.0490985E-2,2.1314701E-2,-1.0703944E-2,-1.7905254E-2,-3.728837E-2,7.4533746E-3,-2.3511136E-2],"categories":[],"categories_nodes":[],"categories_segments":[],"categories_sizes":[],"default_left":[0,0,0,0,0,0,0,0,0,0,0,0,0,0,0,0,0,0,0,0,0,0,0,0,0,0,0,0,0],"id":19,"left_children":[1,3,5,7,9,11,13,15,17,19,21,23,25,27,-1,-1,-1,-1,-1,-1,-1,-1,-1,-1,-1,-1,-1,-1,-1],"loss_changes":[9.6623856E1,5.1209152E1,2.5654655E1,3.0575634E1,2.5848465E1,2.0728264E1,1.25615015E1,1.9888288E1,1.5019913E1,9.572716E0,1.6235218E1,1.2833631E1,1.1148994E1,1.38348E1,0E0,0E0,0E0,0E0,0E0,0E0,0E0,0E0,0E0,0E0,0E0,0E0,0E0,0E0,0E0],"parents":[2147483647,0,0,1,1,2,2,3,3,4,4,5,5,6,6,7,7,8,8,9,9,10,10,11,11,12,12,13,13],"right_children":[2,4,6,8,10,12,14,16,18,20,22,24,26,28,-1,-1,-1,-1,-1,-1,-1,-1,-1,-1,-1,-1,-1,-1,-1],"split_conditions":[4E0,5.188406E0,6.4E-1,1.3690561E0,-9.777828E-1,4.6E0,2.69422E-1,3E0,5.095238E0,-8.9980386E-2,3.176E-1,-1.4810476E-1,6E0,2.1325742E-1,3.4067873E-2,-2.7808505E-3,6.714956E-3,-1.0294501E-3,-2.3016881E-2,2.5323373E-3,2.64342E-2,-4.2503527E-3,1.0490985E-2,2.1314701E-2,-1.0703944E-2,-1.7905254E-2,-3.728837E-2,7.4533746E-3,-2.3511136E-2],"split_indices":[176,94,15,117,117,95,7,175,95,45,108,117,176,7,0,0,0,0,0,0,0,0,0,0,0,0,0,0,0],"split_type":[0,0,0,0,0,0,0,0,0,0,0,0,0,0,0,0,0,0,0,0,0,0,0,0,0,0,0,0,0],"sum_hessian":[3.251974E3,2.5987178E3,6.532563E2,1.6222124E3,9.765053E2,5.308935E2,1.2236279E2,1.4122217E3,2.0999077E2,2.2393202E2,7.5257324E2,8.219784E1,4.4869565E2,1.0581299E2,1.65498E1,7.438615E2,6.6836017E2,8.127141E1,1.2871936E2,3.1950998E1,1.9198102E2,1.4756372E2,6.050095E2,3.0663351E1,5.1534485E1,3.9351086E2,5.5184803E1,7.409734E1,3.1715641E1],"tree_param":{"num_deleted":"0","num_feature":"205","num_nodes":"29","size_leaf_vector":"1"}},{"base_weights":[-3.0932685E-3,-1.2679532E-1,2.1082705E-1,-2.662194E-1,3.297394E-2,5.212363E-2,3.9735746E-1,-1.4724638E-1,-5.136453E-1,-2.3793268E-1,1.2090526E-1,9.879142E-2,-3.8134873E-2,3.2412753E-1,7.3177826E-1,-3.1454447E-3,-2.1965813E-2,-2.2537345E-2,2.1002823E-2,-1.26747405E-2,2.3528596E-2,1.2667394E-2,-1.3738519E-5,-5.4640938E-3,9.074646E-3,9.529655E-3,2.5669219E-2,4.484831E-3,3.6811285E-2],"categories":[],"categories_nodes":[],"categories_segments":[],"categories_sizes":[],"default_left":[0,0,0,0,0,0,0,0,0,0,0,0,0,0,0,0,0,0,0,0,0,0,0,0,0,0,0,0,0],"id":20,"left_children":[1,3,5,7,9,11,13,15,17,19,21,23,-1,25,27,-1,-1,-1,-1,-1,-1,-1,-1,-1,-1,-1,-1,-1,-1],"loss_changes":[8.546975E1,4.5633453E1,3.495091E1,3.2011734E1,2.2777668E1,3.0148941E1,1.2846497E1,2.0300941E1,1.8766167E1,1.5526125E1,1.7174461E1,1.8576092E1,0E0,1.1922985E1,1.0976498E1,0E0,0E0,0E0,0E0,0E0,0E0,0E0,0E0,0E0,0E0,0E0,0E0,0E0,0E0],"parents":[2147483647,0,0,1,1,2,2,3,3,4,4,5,5,6,6,7,7,8,8,9,9,10,10,11,11,13,13,14,14],"right_children":[2,4,6,8,10,12,14,16,18,20,22,24,-1,26,28,-1,-1,-1,-1,-1,-1,-1,-1,-1,-1,-1,-1,-1,-1],"split_conditions":[1E0,3.5E-1,3.7E-1,4E0,-1.8377695E-2,9.1E-1,5E0,3.4E1,1.3260576E2,1.1956964E-1,4.5E1,-3.9277924E1,-3.8134873E-2,4.7293267E0,2.9130885E-1,-3.1454447E-3,-2.1965813E-2,-2.2537345E-2,2.1002823E-2,-1.26747405E-2,2.3528596E-2,1.2667394E-2,-1.3738519E-5,-5.4640938E-3,9.074646E-3,9.529655E-3,2.5669219E-2,4.484831E-3,3.6811285E-2],"split_indices":[177,15,15,176,68,33,175,27,141,183,90,141,0,115,54,0,0,0,0,0,0,0,0,0,0,0,0,0,0],"split_type":[0,0,0,0,0,0,0,0,0,0,0,0,0,0,0,0,0,0,0,0,0,0,0,0,0,0,0,0,0],"sum_hessian":[3.2271606E3,2.0454388E3,1.1817217E3,1.092065E3,9.533739E2,6.398128E2,5.4190894E2,7.393502E2,3.5271472E2,2.3271346E2,7.2066046E2,6.1282214E2,2.6990675E1,4.4722955E2,9.4679405E1,6.3328174E2,1.060685E2,3.373283E2,1.5386402E1,2.1337213E2,1.9341322E1,2.7501013E2,4.456503E2,2.1562871E2,3.9719342E2,3.5434708E2,9.288246E1,2.2765717E1,7.191369E1],"tree_param":{"num_deleted":"0","num_feature":"205","num_nodes":"29","size_leaf_vector":"1"}},{"base_weights":[3.120688E-3,-2.070385E-1,1.3318363E-1,9.714215E-2,-2.9268673E-1,2.577177E-1,-4.035219E-2,-1.01860955E-1,4.7345608E-1,-1.5894678E-1,-4.584688E-1,4.8415148E-1,1.7839785E-1,-7.289207E-2,6.566038E-1,1.2694028E-3,-2.5970884E-2,-3.090258E-4,3.1081501E-2,3.3884582E-3,-1.1681012E-2,-1.153127E-2,-2.621003E-2,3.987895E-2,1.5387075E-2,4.8161875E-3,2.3307933E-2,-7.6610907E-3,3.4176963E-3,7.2163097E-3,4.36021E-2],"categories":[],"categories_nodes":[],"categories_segments":[],"categories_sizes":[],"default_left":[0,0,0,0,0,0,0,0,0,0,0,0,0,0,0,0,0,0,0,0,0,0,0,0,0,0,0,0,0,0,0],"id":21,"left_children":[1,3,5,7,9,11,13,15,17,19,21,23,25,27,29,-1,-1,-1,-1,-1,-1,-1,-1,-1,-1,-1,-1,-1,-1,-1,-1],"loss_changes":[8.850293E1,3.2305008E1,4.327021E1,2.0537422E1,2.1254028E1,2.0732376E1,1.8990416E1,1.3218835E1,1.3933355E1,1.7486012E1,1.4034477E1,1.4645714E1,2.0120762E1,1.50799055E1,7.284731E0,0E0,0E0,0E0,0E0,0E0,0E0,0E0,0E0,0E0,0E0,0E0,0E0,0E0,0E0,0E0,0E0],"parents":[2147483647,0,0,1,1,2,2,3,3,4,4,5,5,6,6,7,7,8,8,9,9,10,10,11,11,12,12,13,13,14,14],"right_children":[2,4,6,8,10,12,14,16,18,20,22,24,26,28,30,-1,-1,-1,-1,-1,-1,-1,-1,-1,-1,-1,-1,-1,-1,-1,-1],"split_conditions":[0E0,-5.798982E-1,4.1E-1,3.7037037E-2,4E0,1E0,3.578294E-1,5E0,3.1598213E-1,1.1530747E0,1E0,4.875E0,3E0,1.6389934E-2,-4.11E0,1.2694028E-3,-2.5970884E-2,-3.090258E-4,3.1081501E-2,3.3884582E-3,-1.1681012E-2,-1.153127E-2,-2.621003E-2,3.987895E-2,1.5387075E-2,4.8161875E-3,2.3307933E-2,-7.6610907E-3,3.4176963E-3,7.2163097E-3,4.36021E-2],"split_indices":[177,117,33,43,176,11,57,176,127,195,11,83,177,126,112,0,0,0,0,0,0,0,0,0,0,0,0,0,0,0,0],"split_type":[0,0,0,0,0,0,0,0,0,0,0,0,0,0,0,0,0,0,0,0,0,0,0,0,0,0,0,0,0,0,0],"sum_hessian":[3.235099E3,1.2361072E3,1.998992E3,2.7128094E2,9.648263E2,1.1637218E3,8.3527014E2,1.7798616E2,9.329477E1,5.3598065E2,4.2884567E2,2.995843E2,8.641375E2,7.9943243E2,3.583775E1,1.4405887E2,3.3927296E1,3.652866E1,5.676611E1,1.8925696E2,3.4672366E2,2.3221767E2,1.9662799E2,4.6308872E1,2.5327542E2,7.5765326E2,1.0648429E2,4.5719055E2,3.4224185E2,1.8198988E1,1.7638763E1],"tree_param":{"num_deleted":"0","num_feature":"205","num_nodes":"31","size_leaf_vector":"1"}},{"base_weights":[-1.1702448E-2,5.6891523E-2,-2.884743E-1,2.1772236E-2,5.4716957E-1,-2.2384636E-1,-7.785606E-1,-1.05484135E-1,1.4420092E-1,3.9102483E-1,1.088878E0,-3.052979E-1,1.8202752E-1,-1.0367686E0,-9.810663E-3,3.018463E-4,-1.1339426E-2,1.085466E-2,3.6476835E-4,7.5506167E-3,3.3562396E-2,5.094001E-2,2.9492276E-2,-9.289011E-3,-3.248659E-2,2.1014493E-2,-1.7451718E-2,-5.4160953E-2,-2.082657E-2],"categories":[],"categories_nodes":[],"categories_segments":[],"categories_sizes":[],"default_left":[0,0,0,0,0,0,0,0,0,0,0,0,0,0,0,0,0,0,0,0,0,0,0,0,0,0,0,0,0],"id":22,"left_children":[1,3,5,7,9,11,13,15,17,19,21,23,25,27,-1,-1,-1,-1,-1,-1,-1,-1,-1,-1,-1,-1,-1,-1,-1],"loss_changes":[6.114332E1,4.4346874E1,1.9899563E1,3.7561977E1,1.3778694E1,1.8855106E1,9.6448555E0,2.3807823E1,2.1078606E1,1.1997679E1,8.274765E-1,1.7145496E1,2.0643145E1,6.7937202E0,0E0,0E0,0E0,0E0,0E0,0E0,0E0,0E0,0E0,0E0,0E0,0E0,0E0,0E0,0E0],"parents":[2147483647,0,0,1,1,2,2,3,3,4,4,5,5,6,6,7,7,8,8,9,9,10,10,11,11,12,12,13,13],"right_children":[2,4,6,8,10,12,14,16,18,20,22,24,26,28,-1,-1,-1,-1,-1,-1,-1,-1,-1,-1,-1,-1,-1,-1,-1],"split_conditions":[4E0,5E0,6E0,-6.666667E-2,2.8677222E-1,3.7326247E-2,5.555556E-1,5.2E0,-2.8196385E-2,6E0,2.955E-1,9.62E1,1.5048635E-1,3.1E1,-9.810663E-3,3.018463E-4,-1.1339426E-2,1.085466E-2,3.6476835E-4,7.5506167E-3,3.3562396E-2,5.094001E-2,2.9492276E-2,-9.289011E-3,-3.248659E-2,2.1014493E-2,-1.7451718E-2,-5.4160953E-2,-2.082657E-2],"split_indices":[176,175,176,125,53,68,158,95,117,175,191,26,126,9,0,0,0,0,0,0,0,0,0,0,0,0,0,0,0],"split_type":[0,0,0,0,0,0,0,0,0,0,0,0,0,0,0,0,0,0,0,0,0,0,0,0,0,0,0,0,0],"sum_hessian":[3.216616E3,2.5784211E3,6.3819476E2,2.4077231E3,1.7069794E2,5.659516E2,7.224315E1,1.1802861E3,1.2274371E3,1.3465242E2,3.6045525E1,4.7187323E2,9.4078354E1,4.7595108E1,2.4648039E1,7.2242413E2,4.5786197E2,6.310833E2,5.963539E2,9.439448E1,4.025794E1,2.0868729E1,1.5176798E1,4.145011E2,5.7372143E1,6.0739033E1,3.333932E1,2.7847717E1,1.9747393E1],"tree_param":{"num_deleted":"0","num_feature":"205","num_nodes":"29","size_leaf_vector":"1"}},{"base_weights":[-6.171098E-3,-1.3528748E-1,2.1998185E-1,-2.812004E-1,2.150159E-2,8.743309E-2,3.7519544E-1,-1.6260177E-1,-5.2229834E-1,-2.0954368E-1,1.0590684E-1,-4.4986045E-1,1.6385274E-1,4.882499E-1,1.8932363E-1,5.8078556E-3,-1.0214311E-2,-4.9536643E-3,-2.6570145E-2,4.185854E-3,-1.53168235E-2,7.351127E-3,-6.4847753E-3,-2.7903719E-2,6.148072E-3,8.315837E-3,-3.2223783E-2,2.1554764E-2,-4.6745627E-3,1.4794981E-2,-1.1786361E-2],"categories":[],"categories_nodes":[],"categories_segments":[],"categories_sizes":[],"default_left":[0,0,0,0,0,0,0,0,0,0,0,0,0,0,0,0,0,0,0,0,0,0,0,0,0,0,0,0,0,0,0],"id":23,"left_children":[1,3,5,7,9,11,13,15,17,19,21,23,25,27,29,-1,-1,-1,-1,-1,-1,-1,-1,-1,-1,-1,-1,-1,-1,-1,-1],"loss_changes":[9.4604065E1,4.722712E1,2.4125744E1,3.0368164E1,1.9434853E1,2.6250263E1,1.1172211E1,2.0591908E1,1.9678612E1,1.4606646E1,1.5291056E1,1.2116713E1,2.4068981E1,1.0410454E1,1.8309734E1,0E0,0E0,0E0,0E0,0E0,0E0,0E0,0E0,0E0,0E0,0E0,0E0,0E0,0E0,0E0,0E0],"parents":[2147483647,0,0,1,1,2,2,3,3,4,4,5,5,6,6,7,7,8,8,9,9,10,10,11,11,12,12,13,13,14,14],"right_children":[2,4,6,8,10,12,14,16,18,20,22,24,26,28,30,-1,-1,-1,-1,-1,-1,-1,-1,-1,-1,-1,-1,-1,-1,-1,-1],"split_conditions":[1E0,3.3E-1,3.7E-1,4E0,-1E0,-7.28146E-2,4.4E-1,-1.96247E-1,7.775378E-2,4.9139786E0,8.642921E-3,8.539945E-2,9.1E-1,1.7378063E-1,3.1494558E-1,5.8078556E-3,-1.0214311E-2,-4.9536643E-3,-2.6570145E-2,4.185854E-3,-1.53168235E-2,7.351127E-3,-6.4847753E-3,-2.7903719E-2,6.148072E-3,8.315837E-3,-3.2223783E-2,2.1554764E-2,-4.6745627E-3,1.4794981E-2,-1.1786361E-2],"split_indices":[177,15,15,176,177,155,33,197,118,95,24,119,33,44,22,0,0,0,0,0,0,0,0,0,0,0,0,0,0,0,0],"split_type":[0,0,0,0,0,0,0,0,0,0,0,0,0,0,0,0,0,0,0,0,0,0,0,0,0,0,0,0,0,0,0],"sum_hessian":[3.2371208E3,2.0613115E3,1.1758094E3,1.0674012E3,9.939103E2,6.3582184E2,5.399877E2,7.174207E2,3.499805E2,2.65029E2,7.288813E2,7.809694E1,5.577249E2,3.339115E2,2.0607617E2,1.6568651E2,5.517342E2,9.285557E1,2.571249E2,9.424963E1,1.7077937E2,5.654439E2,1.6343738E2,5.5321987E1,2.2774952E1,5.347137E2,2.3011213E1,3.0843927E2,2.5472212E1,1.5049422E2,5.5581955E1],"tree_param":{"num_deleted":"0","num_feature":"205","num_nodes":"31","size_leaf_vector":"1"}},{"base_weights":[-1.4111237E-2,-1.2749627E-1,1.8482593E-1,-5.0862575E-1,-8.0281675E-2,2.3820531E-1,-2.979538E-1,-5.8388E-1,1.398409E-2,-2.6085097E-1,1.4294672E-2,1.7025645E-1,5.4461837E-1,8.1854224E-2,-7.7536905E-1,-1.1406233E-2,-3.1997032E-2,-8.805406E-3,-3.6386214E-2,-2.510241E-3,1.0866465E-2,2.1280171E-2,4.884403E-3,1.4383569E-2,3.5405647E-2,-1.3478102E-2,2.6800225E-2,-4.4691533E-2,-1.5473538E-3],"categories":[],"categories_nodes":[],"categories_segments":[],"categories_sizes":[],"default_left":[0,0,0,0,0,0,0,0,0,0,0,0,0,0,0,0,0,0,0,0,0,0,0,0,0,0,0,0,0],"id":24,"left_children":[1,3,5,7,9,11,13,15,-1,17,19,21,23,25,27,-1,-1,-1,-1,-1,-1,-1,-1,-1,-1,-1,-1,-1,-1],"loss_changes":[7.279188E1,3.6875595E1,3.0287369E1,1.4932308E1,3.1304518E1,2.1771088E1,2.139795E1,1.3008163E1,0E0,1.622697E1,2.3900051E1,1.4930477E1,1.1412182E1,1.6741802E1,1.2953812E1,0E0,0E0,0E0,0E0,0E0,0E0,0E0,0E0,0E0,0E0,0E0,0E0,0E0,0E0],"parents":[2147483647,0,0,1,1,2,2,3,3,4,4,5,5,6,6,7,7,9,9,10,10,11,11,12,12,13,13,14,14],"right_children":[2,4,6,8,10,12,14,16,-1,18,20,22,24,26,28,-1,-1,-1,-1,-1,-1,-1,-1,-1,-1,-1,-1,-1,-1],"split_conditions":[1E0,-2E0,1.3980129E0,1.1448257E2,-2.0746095E-2,3E0,2.847172E-1,3.119271E-1,1.398409E-2,1.3197353E-1,6.7E-1,-3.3915446E-3,1.0346111E-1,3.1785968E-1,5.8360994E-3,-1.1406233E-2,-3.1997032E-2,-8.805406E-3,-3.6386214E-2,-2.510241E-3,1.0866465E-2,2.1280171E-2,4.884403E-3,1.4383569E-2,3.5405647E-2,-1.3478102E-2,2.6800225E-2,-4.4691533E-2,-1.5473538E-3],"split_indices":[177,177,117,141,37,177,148,131,0,44,15,192,184,54,24,0,0,0,0,0,0,0,0,0,0,0,0,0,0],"split_type":[0,0,0,0,0,0,0,0,0,0,0,0,0,0,0,0,0,0,0,0,0,0,0,0,0,0,0,0,0],"sum_hessian":[3.2242788E3,2.0544043E3,1.1698745E3,2.2459923E2,1.8298049E3,1.0542739E3,1.1560059E2,2.0704074E2,1.7558485E1,6.284194E2,1.2013856E3,8.650941E2,1.891798E2,6.49572E1,5.064339E1,8.8548454E1,1.1849229E2,5.933469E2,3.5072495E1,9.251571E2,2.762285E2,9.959973E1,7.654944E2,1.2476447E2,6.441533E1,3.8215557E1,2.6741646E1,3.3967342E1,1.6676048E1],"tree_param":{"num_deleted":"0","num_feature":"205","num_nodes":"29","size_leaf_vector":"1"}},{"base_weights":[2.6676415E-3,-1.0735299E-1,1.7098562E-1,-5.3991783E-2,-4.4222307E-1,2.9712278E-1,-1.8013285E-2,-2.1924345E-1,4.868984E-2,-1.487625E-2,-6.529796E-1,1.0622445E-1,4.158717E-1,1.4768955E-1,-1.9172317E-1,-1.1663058E-2,7.2992677E-3,-4.028218E-3,7.208752E-3,-2.7022012E-2,1.3046114E-2,-2.9901395E-2,-1.7075555E-3,-4.8910384E-3,1.2163197E-2,2.7374603E-2,1.2019473E-2,-9.581034E-3,1.1438098E-2,-3.6383577E-2,-4.7427416E-3],"categories":[],"categories_nodes":[],"categories_segments":[],"categories_sizes":[],"default_left":[0,0,0,0,0,0,0,0,0,0,0,0,0,0,0,0,0,0,0,0,0,0,0,0,0,0,0,0,0,0,0],"id":25,"left_children":[1,3,5,7,9,11,13,15,17,19,21,23,25,27,29,-1,-1,-1,-1,-1,-1,-1,-1,-1,-1,-1,-1,-1,-1,-1,-1],"loss_changes":[5.9534523E1,3.4644306E1,3.0335789E1,2.8512613E1,2.3936691E1,1.7170166E1,1.4721701E1,1.8800201E1,2.0392942E1,2.0591305E1,1.0168007E1,1.3402523E1,1.4133293E1,1.4106222E1,1.2856067E1,0E0,0E0,0E0,0E0,0E0,0E0,0E0,0E0,0E0,0E0,0E0,0E0,0E0,0E0,0E0,0E0],"parents":[2147483647,0,0,1,1,2,2,3,3,4,4,5,5,6,6,7,7,8,8,9,9,10,10,11,11,12,12,13,13,14,14],"right_children":[2,4,6,8,10,12,14,16,18,20,22,24,26,28,30,-1,-1,-1,-1,-1,-1,-1,-1,-1,-1,-1,-1,-1,-1,-1,-1],"split_conditions":[4.3E-1,1.3690561E0,4.4E-1,0E0,1.56E2,2.611538E-1,9.4125205E-1,6.4563334E-1,-2E-1,2.8111926E-1,9.1E1,9.252594E-1,1E0,6.005004E-1,2.6949686E-1,-1.1663058E-2,7.2992677E-3,-4.028218E-3,7.208752E-3,-2.7022012E-2,1.3046114E-2,-2.9901395E-2,-1.7075555E-3,-4.8910384E-3,1.2163197E-2,2.7374603E-2,1.2019473E-2,-9.581034E-3,1.1438098E-2,-3.6383577E-2,-4.7427416E-3],"split_indices":[15,117,33,177,87,53,150,201,125,47,88,150,11,147,54,0,0,0,0,0,0,0,0,0,0,0,0,0,0,0,0],"split_type":[0,0,0,0,0,0,0,0,0,0,0,0,0,0,0,0,0,0,0,0,0,0,0,0,0,0,0,0,0,0,0],"sum_hessian":[3.2115457E3,1.9420673E3,1.2694783E3,1.6768961E3,2.6517123E2,7.611564E2,5.0832187E2,6.4236725E2,1.0345288E3,8.8269424E1,1.769018E2,2.933143E2,4.678421E2,2.5997717E2,2.4834468E2,5.4491266E2,9.745454E1,4.8417587E2,5.5035297E2,2.9650164E1,5.8619263E1,1.5273642E2,2.4165375E1,1.3614731E2,1.5716698E2,1.3813867E2,3.2970343E2,6.792536E1,1.9205182E2,2.1254698E1,2.2708998E2],"tree_param":{"num_deleted":"0","num_feature":"205","num_nodes":"31","size_leaf_vector":"1"}},{"base_weights":[-2.4249433E-3,-1.0422693E-1,1.7576592E-1,-5.8089703E-2,-4.6804532E-1,-1.0767553E-1,2.9063654E-1,2.492861E-3,-2.867171E-1,-7.384513E-2,-6.484591E-1,2.258923E-2,-1.7503363E-1,4.4657215E-1,1.05843715E-1,-4.7603236E-3,4.900593E-3,-4.049463E-2,-9.392108E-3,-1.4107829E-2,2.0818492E-2,-3.0821579E-2,1.6656001E-3,5.8082454E-3,-1.1552479E-2,1.9307744E-2,-1.5597242E-2,6.834614E-3,-1.8871378E-2],"categories":[],"categories_nodes":[],"categories_segments":[],"categories_sizes":[],"default_left":[0,0,0,0,0,0,0,0,0,0,0,0,0,0,0,0,0,0,0,0,0,0,0,0,0,0,0,0,0],"id":26,"left_children":[1,3,5,7,9,11,13,15,17,19,21,-1,23,25,27,-1,-1,-1,-1,-1,-1,-1,-1,-1,-1,-1,-1,-1,-1],"loss_changes":[5.8532265E1,3.43854E1,3.8256046E1,2.5305334E1,1.626405E1,1.5468733E1,2.3945091E1,2.1075924E1,1.3932753E1,1.2572563E1,1.3424431E1,0E0,1.1355132E1,1.395784E1,1.4534256E1,0E0,0E0,0E0,0E0,0E0,0E0,0E0,0E0,0E0,0E0,0E0,0E0,0E0,0E0],"parents":[2147483647,0,0,1,1,2,2,3,3,4,4,5,5,6,6,7,7,8,8,9,9,10,10,12,12,13,13,14,14],"right_children":[2,4,6,8,10,12,14,16,18,20,22,-1,24,26,28,-1,-1,-1,-1,-1,-1,-1,-1,-1,-1,-1,-1,-1,-1],"split_conditions":[1E0,5E0,4.7916665E0,5.4343433E0,1.5E-1,-3.0349346E-2,3.6E-1,3.4E-1,-6.000799E-3,4.0550295E-1,2.7E0,2.258923E-2,-1.1564277E0,4.7582704E-1,3.25E-1,-4.7603236E-3,4.900593E-3,-4.049463E-2,-9.392108E-3,-1.4107829E-2,2.0818492E-2,-3.0821579E-2,1.6656001E-3,5.8082454E-3,-1.1552479E-2,1.9307744E-2,-1.5597242E-2,6.834614E-3,-1.8871378E-2],"split_indices":[177,176,94,95,14,75,33,12,193,5,40,0,144,36,111,0,0,0,0,0,0,0,0,0,0,0,0,0,0],"split_type":[0,0,0,0,0,0,0,0,0,0,0,0,0,0,0,0,0,0,0,0,0,0,0,0,0,0,0,0,0],"sum_hessian":[3.2240425E3,2.0525732E3,1.1714692E3,1.8233604E3,2.2921307E2,3.3762018E2,8.3384906E2,1.442237E3,3.8112326E2,7.280467E1,1.564084E2,2.959779E1,3.0802237E2,4.5078906E2,3.8305997E2,7.162949E2,7.2594214E2,2.346447E1,3.5765878E2,5.008346E1,2.2721212E1,1.3287288E2,2.3535515E1,8.04094E1,2.2761298E2,4.3285187E2,1.79372E1,3.45408E2,3.7651985E1],"tree_param":{"num_deleted":"0","num_feature":"205","num_nodes":"29","size_leaf_vector":"1"}},{"base_weights":[-8.065918E-3,5.028436E-2,-2.3900354E-1,1.3836572E-1,-1.0957808E-1,-4.3567013E-2,-4.649752E-1,1.0517528E-2,2.5329086E-1,4.922592E-2,-2.3151289E-1,6.6638194E-2,-5.8006597E-1,-1.4469188E-1,-5.985287E-1,1.9957027E-3,-3.2978818E-2,2.3782833E-2,8.177573E-3,1.9561917E-2,-1.2054585E-3,-2.0515239E-2,-2.9402226E-3,6.4752684E-3,-2.0447493E-2,-3.4937438E-2,-2.8532292E-3,4.005983E-3,-3.5336696E-2,-9.31585E-3,-3.0315233E-2],"categories":[],"categories_nodes":[],"categories_segments":[],"categories_sizes":[],"default_left":[0,0,0,0,0,0,0,0,0,0,0,0,0,0,0,0,0,0,0,0,0,0,0,0,0,0,0,0,0,0,0],"id":27,"left_children":[1,3,5,7,9,11,13,15,17,19,21,23,25,27,29,-1,-1,-1,-1,-1,-1,-1,-1,-1,-1,-1,-1,-1,-1,-1,-1],"loss_changes":[4.3754612E1,3.650643E1,2.8845173E1,2.4528812E1,1.7865623E1,2.0987396E1,1.2772514E1,2.6063995E1,1.4405117E1,1.4058774E1,2.3069242E1,1.627658E1,8.839188E0,1.6755981E1,1.2069672E1,0E0,0E0,0E0,0E0,0E0,0E0,0E0,0E0,0E0,0E0,0E0,0E0,0E0,0E0,0E0,0E0],"parents":[2147483647,0,0,1,1,2,2,3,3,4,4,5,5,6,6,7,7,8,8,9,9,10,10,11,11,12,12,13,13,14,14],"right_children":[2,4,6,8,10,12,14,16,18,20,22,24,26,28,30,-1,-1,-1,-1,-1,-1,-1,-1,-1,-1,-1,-1,-1,-1,-1,-1],"split_conditions":[4E0,4.9E-1,1E0,3.1E-1,2.711457E-1,9.7783613E-1,4.8166666E0,7.79896E-2,1.07977E0,4.7849464E0,7.4626863E-1,6E0,2.4E-1,4.7E-1,-4.319533E-3,1.9957027E-3,-3.2978818E-2,2.3782833E-2,8.177573E-3,1.9561917E-2,-1.2054585E-3,-2.0515239E-2,-2.9402226E-3,6.4752684E-3,-2.0447493E-2,-3.4937438E-2,-2.8532292E-3,4.005983E-3,-3.5336696E-2,-9.31585E-3,-3.0315233E-2],"split_indices":[176,33,11,12,19,117,95,132,169,95,114,176,34,30,174,0,0,0,0,0,0,0,0,0,0,0,0,0,0,0,0],"split_type":[0,0,0,0,0,0,0,0,0,0,0,0,0,0,0,0,0,0,0,0,0,0,0,0,0,0,0,0,0,0,0],"sum_hessian":[3.242791E3,2.589301E3,6.534901E2,1.6699922E3,9.193088E2,3.5161765E2,3.0187244E2,7.917355E2,8.782567E2,3.9932065E2,5.199881E2,2.9263348E2,5.8984165E1,8.9973915E1,2.1189853E2,7.575426E2,3.4192863E1,1.0761914E2,7.706376E2,6.0049007E1,3.3927164E2,1.85558E2,3.3443008E2,2.5229955E2,4.0333946E1,3.6604015E1,2.238015E1,6.844871E1,2.1525206E1,6.563024E1,1.462683E2],"tree_param":{"num_deleted":"0","num_feature":"205","num_nodes":"31","size_leaf_vector":"1"}},{"base_weights":[-2.813513E-2,-3.318104E-1,3.8857177E-2,-2.5412405E-1,-9.130086E-1,-9.432338E-2,1.867567E-1,1.4271456E-1,-3.4143263E-1,-1.1325527E0,-1.7990993E-2,-8.635636E-3,-3.5684595E-1,2.7364102E-1,8.154241E-3,2.5210079E-2,-6.7109657E-3,-1.7968932E-2,-0E0,-5.519013E-2,-3.1294588E-2,-6.5567866E-3,5.018635E-3,-1.7531456E-2,1.2606877E-2,2.0633234E-2,8.113235E-3,6.546474E-3,-1.1191475E-2],"categories":[],"categories_nodes":[],"categories_segments":[],"categories_sizes":[],"default_left":[0,0,0,0,0,0,0,0,0,0,0,0,0,0,0,0,0,0,0,0,0,0,0,0,0,0,0,0,0],"id":28,"left_children":[1,3,5,7,9,11,13,15,17,19,-1,21,23,25,27,-1,-1,-1,-1,-1,-1,-1,-1,-1,-1,-1,-1,-1,-1],"loss_changes":[6.5399414E1,2.5768093E1,5.189488E1,1.7926922E1,5.9702034E0,3.1136322E1,1.9339691E1,1.4384819E1,1.5573601E1,2.0467873E0,0E0,2.183181E1,1.886789E1,1.4165985E1,1.843604E1,0E0,0E0,0E0,0E0,0E0,0E0,0E0,0E0,0E0,0E0,0E0,0E0,0E0,0E0],"parents":[2147483647,0,0,1,1,2,2,3,3,4,4,5,5,6,6,7,7,8,8,9,9,11,11,12,12,13,13,14,14],"right_children":[2,4,6,8,10,12,14,16,18,20,-1,22,24,26,28,-1,-1,-1,-1,-1,-1,-1,-1,-1,-1,-1,-1,-1,-1],"split_conditions":[-1E0,6E0,3.5E-1,1.4538076E3,3.3815512E-1,5.37931E0,5.2E-1,4.7E1,5.3809524E0,1E0,-1.7990993E-2,-3.3333334E-1,1.5734661E3,1E0,3.1E1,2.5210079E-2,-6.7109657E-3,-1.7968932E-2,-0E0,-5.519013E-2,-3.1294588E-2,-6.5567866E-3,5.018635E-3,-1.7531456E-2,1.2606877E-2,2.0633234E-2,8.113235E-3,6.546474E-3,-1.1191475E-2],"split_indices":[177,176,15,140,4,95,33,90,94,204,0,125,139,11,27,0,0,0,0,0,0,0,0,0,0,0,0,0,0],"split_type":[0,0,0,0,0,0,0,0,0,0,0,0,0,0,0,0,0,0,0,0,0,0,0,0,0,0,0,0,0],"sum_hessian":[3.2108025E3,5.7949994E2,2.6313025E3,5.132269E2,6.627301E1,1.3844764E3,1.246826E3,9.217447E1,4.2105246E2,4.334633E1,2.2926685E1,1.0452391E3,3.3923734E2,8.3787085E2,4.0895523E2,3.538667E1,5.6787804E1,3.1977185E2,1.01280594E2,2.2656973E1,2.0689354E1,4.8455573E2,5.606834E2,3.0316757E2,3.606975E1,1.870998E2,6.5077106E2,2.661896E2,1.4276561E2],"tree_param":{"num_deleted":"0","num_feature":"205","num_nodes":"29","size_leaf_vector":"1"}},{"base_weights":[-1.0704447E-3,-6.173509E-2,3.039173E-1,2.3807411E-1,-1.03707455E-1,6.356465E-2,4.1592923E-1,4.7824183E-1,6.3370527E-3,-8.379321E-2,-7.979723E-1,-6.484722E-2,3.292661E-2,5.521922E-1,2.0565303E-1,-9.975241E-3,2.2347903E-2,-1.3107477E-2,1.1446979E-2,-5.554781E-3,4.4676666E-3,-1.1294765E-2,-3.8866255E-2,-7.0259445E-3,2.6391951E-2,2.5350932E-2,9.3769253E-4,1.2472792E-2,-1.6782045E-2],"categories":[],"categories_nodes":[],"categories_segments":[],"categories_sizes":[],"default_left":[0,0,0,0,0,0,0,0,0,0,0,0,0,0,0,0,0,0,0,0,0,0,0,0,0,0,0,0,0],"id":29,"left_children":[1,3,5,7,9,11,13,15,17,19,21,23,-1,25,27,-1,-1,-1,-1,-1,-1,-1,-1,-1,-1,-1,-1,-1,-1],"loss_changes":[5.959129E1,3.3845978E1,1.429707E1,1.8326542E1,3.2427284E1,1.6923506E1,1.018066E1,9.719898E0,1.6008123E1,2.4736296E1,5.325508E0,1.2034433E1,0E0,9.386047E0,9.860967E0,0E0,0E0,0E0,0E0,0E0,0E0,0E0,0E0,0E0,0E0,0E0,0E0,0E0,0E0],"parents":[2147483647,0,0,1,1,2,2,3,3,4,4,5,5,6,6,7,7,8,8,9,9,10,10,11,11,13,13,14,14],"right_children":[2,4,6,8,10,12,14,16,18,20,22,24,-1,26,28,-1,-1,-1,-1,-1,-1,-1,-1,-1,-1,-1,-1,-1,-1],"split_conditions":[2E0,4.469697E0,4.8333335E0,1.4913434E3,6E0,6.839187E-2,7.703704E-2,4.107143E-2,7.4E1,5.404762E0,-1.8939395E-3,6E0,3.292661E-2,1.06909454E-1,2.9519463E-1,-9.975241E-3,2.2347903E-2,-1.3107477E-2,1.1446979E-2,-5.554781E-3,4.4676666E-3,-1.1294765E-2,-3.8866255E-2,-7.0259445E-3,2.6391951E-2,2.5350932E-2,9.3769253E-4,1.2472792E-2,-1.6782045E-2],"split_indices":[177,95,94,140,176,129,18,129,166,94,120,175,0,51,59,0,0,0,0,0,0,0,0,0,0,0,0,0,0],"split_type":[0,0,0,0,0,0,0,0,0,0,0,0,0,0,0,0,0,0,0,0,0,0,0,0,0,0,0,0,0],"sum_hessian":[3.219095E3,2.686293E3,5.328022E2,3.2873605E2,2.357557E3,1.7040182E2,3.6240036E2,1.604361E2,1.6829994E2,2.2935928E3,6.3964184E1,1.4682166E2,2.358017E1,2.1813203E2,1.4426833E2,1.5536385E1,1.4489972E2,7.644209E1,9.185786E1,1.7901719E3,5.0342078E2,1.7254984E1,4.6709198E1,1.2845479E2,1.8366861E1,1.8855301E2,2.9579025E1,1.24105606E2,2.0162716E1],"tree_param":{"num_deleted":"0","num_feature":"205","num_nodes":"29","size_leaf_vector":"1"}},{"base_weights":[3.0052215E-3,-9.65388E-2,1.7646411E-1,-1.389023E-1,2.2360891E-1,-3.5639156E-2,2.920143E-1,-3.214089E-1,-7.674102E-2,-1.6375518E-1,3.863016E-1,1.9013487E-1,-1.9237477E-1,3.7097877E-1,-4.4975955E-2,-2.3118751E-2,-5.80636E-3,6.6073646E-4,-8.840116E-3,-1.727011E-2,2.7513606E-2,2.4804024E-2,4.8777596E-3,8.231126E-5,2.1510925E-2,2.611136E-2,-1.0099254E-2,7.597916E-3,1.8955456E-2,3.3844266E-2,-7.85007E-3],"categories":[],"categories_nodes":[],"categories_segments":[],"categories_sizes":[],"default_left":[0,0,0,0,0,0,0,0,0,0,0,0,0,0,0,0,0,0,0,0,0,0,0,0,0,0,0,0,0,0,0],"id":30,"left_children":[1,3,5,7,9,11,13,15,17,19,21,23,25,27,29,-1,-1,-1,-1,-1,-1,-1,-1,-1,-1,-1,-1,-1,-1,-1,-1],"loss_changes":[5.5625114E1,2.7790277E1,2.8834766E1,2.0438145E1,1.5205949E1,1.4752955E1,2.0307663E1,2.053669E1,1.8205486E1,1.6780676E1,1.0272308E1,1.1104186E1,1.2712232E1,1.129155E1,1.9805773E1,0E0,0E0,0E0,0E0,0E0,0E0,0E0,0E0,0E0,0E0,0E0,0E0,0E0,0E0,0E0,0E0],"parents":[2147483647,0,0,1,1,2,2,3,3,4,4,5,5,6,6,7,7,8,8,9,9,10,10,11,11,12,12,13,13,14,14],"right_children":[2,4,6,8,10,12,14,16,18,20,22,24,26,28,30,-1,-1,-1,-1,-1,-1,-1,-1,-1,-1,-1,-1,-1,-1,-1,-1],"split_conditions":[1E0,7.7E-1,4.878788E0,1E0,-4.1708666E-1,-3.5204496E-2,5.46875E0,-5.2544177E-3,5.2E0,1.1818182E-1,3.101826E-1,1.0172832E0,-3.3029296E-2,0E0,3.860824E-2,-2.3118751E-2,-5.80636E-3,6.6073646E-4,-8.840116E-3,-1.727011E-2,2.7513606E-2,2.4804024E-2,4.8777596E-3,8.231126E-5,2.1510925E-2,2.611136E-2,-1.0099254E-2,7.597916E-3,1.8955456E-2,3.3844266E-2,-7.85007E-3],"split_indices":[177,15,94,29,156,197,95,154,95,35,67,143,75,37,21,0,0,0,0,0,0,0,0,0,0,0,0,0,0,0,0],"split_type":[0,0,0,0,0,0,0,0,0,0,0,0,0,0,0,0,0,0,0,0,0,0,0,0,0,0,0,0,0,0,0],"sum_hessian":[3.2180647E3,2.0447303E3,1.1733345E3,1.8068065E3,2.3792387E2,4.1384848E2,7.5948596E2,4.570463E2,1.3497601E3,7.018708E1,1.6773679E2,1.6918448E2,2.4466402E2,6.1542365E2,1.440623E2,1.8449625E2,2.7255005E2,8.2018146E2,5.2957874E2,5.4038174E1,1.6148909E1,8.774124E1,7.9995544E1,1.109536E2,5.823089E1,1.5152356E1,2.2951166E2,2.2494688E2,3.9047678E2,1.9811699E1,1.24250595E2],"tree_param":{"num_deleted":"0","num_feature":"205","num_nodes":"31","size_leaf_vector":"1"}},{"base_weights":[2.837171E-3,-9.492419E-2,1.7109224E-1,-7.634289E-3,-2.5025263E-1,-1.9148634E-1,2.3264018E-1,7.2655186E-2,-1.9848834E-1,-8.5945946E-1,-2.1078567E-1,2.3384985E-1,-3.5563806E-1,2.7749413E-1,-2.8172758E-1,5.2322885E-3,-8.136397E-3,1.4693626E-2,-1.0700444E-2,-4.4773687E-2,-1.3595601E-2,-1.189383E-3,-1.2740111E-2,-1.9709837E-2,2.9033441E-2,-4.2236657E-3,-3.3495497E-2,1.40373465E-2,8.569064E-4,5.8488995E-3,-3.3117954E-2],"categories":[],"categories_nodes":[],"categories_segments":[],"categories_sizes":[],"default_left":[0,0,0,0,0,0,0,0,0,0,0,0,0,0,0,0,0,0,0,0,0,0,0,0,0,0,0,0,0,0,0],"id":31,"left_children":[1,3,5,7,9,11,13,15,17,19,21,23,25,27,29,-1,-1,-1,-1,-1,-1,-1,-1,-1,-1,-1,-1,-1,-1,-1,-1],"loss_changes":[5.275052E1,2.7464771E1,2.6375927E1,1.9957281E1,1.7151115E1,1.2121046E1,2.3386883E1,1.4736149E1,1.5203545E1,5.1865196E0,1.3346533E1,1.790881E1,1.4783769E1,1.7415367E1,1.9292376E1,0E0,0E0,0E0,0E0,0E0,0E0,0E0,0E0,0E0,0E0,0E0,0E0,0E0,0E0,0E0,0E0],"parents":[2147483647,0,0,1,1,2,2,3,3,4,4,5,5,6,6,7,7,8,8,9,9,10,10,11,11,12,12,13,13,14,14],"right_children":[2,4,6,8,10,12,14,16,18,20,22,24,26,28,30,-1,-1,-1,-1,-1,-1,-1,-1,-1,-1,-1,-1,-1,-1,-1,-1],"split_conditions":[1E0,5.2083335E0,4.516667E0,4E0,3.132E-1,4.76E0,6.912075E-1,8.015012E-3,-1.4323593E0,9.036283E-3,1E0,1.4690881E3,4.105E1,5.8113706E-1,1.5550466E-2,5.2322885E-3,-8.136397E-3,1.4693626E-2,-1.0700444E-2,-4.4773687E-2,-1.3595601E-2,-1.189383E-3,-1.2740111E-2,-1.9709837E-2,2.9033441E-2,-4.2236657E-3,-3.3495497E-2,1.40373465E-2,8.569064E-4,5.8488995E-3,-3.3117954E-2],"split_indices":[177,95,94,176,108,95,124,24,117,68,11,139,10,117,105,0,0,0,0,0,0,0,0,0,0,0,0,0,0,0,0],"split_type":[0,0,0,0,0,0,0,0,0,0,0,0,0,0,0,0,0,0,0,0,0,0,0,0,0,0,0,0,0,0,0],"sum_hessian":[3.2034995E3,2.0262472E3,1.1772523E3,1.2986581E3,7.2758905E2,1.7014389E2,1.00710846E3,9.1439197E2,3.8426617E2,4.221806E1,6.8537103E2,4.703212E1,1.2311178E2,9.2714465E2,7.99638E1,7.562437E2,1.5814825E2,4.091606E1,3.433501E2,2.685932E1,1.5358741E1,2.5671927E2,4.2865176E2,1.8905592E1,2.8126528E1,8.238641E1,4.072536E1,7.197726E2,2.0737207E2,4.5349236E1,3.461456E1],"tree_param":{"num_deleted":"0","num_feature":"205","num_nodes":"31","size_leaf_vector":"1"}},{"base_weights":[-9.898896E-4,-2.6397848E-1,5.615093E-2,-1.657865E-1,-5.5669445E-1,-6.645412E-2,1.9478276E-1,-2.5805438E-1,2.7601063E-1,-9.5883995E-1,-3.011449E-1,-7.088813E-3,-4.288425E-1,2.8497806E-1,1.1227794E-2,-1.3509265E-2,5.441745E-3,-1.46786235E-2,2.5255404E-2,-5.7716716E-2,-2.8490497E-2,-2.3588538E-2,7.693309E-3,-6.513482E-3,3.399932E-3,-2.5319647E-2,-4.225517E-3,8.2489615E-3,2.2038043E-2,1.503371E-2,-4.0560323E-3],"categories":[],"categories_nodes":[],"categories_segments":[],"categories_sizes":[],"default_left":[0,0,0,0,0,0,0,0,0,0,0,0,0,0,0,0,0,0,0,0,0,0,0,0,0,0,0,0,0,0,0],"id":32,"left_children":[1,3,5,7,9,11,13,15,17,19,21,23,25,27,29,-1,-1,-1,-1,-1,-1,-1,-1,-1,-1,-1,-1,-1,-1,-1,-1],"loss_changes":[4.8066395E1,1.6200893E1,4.4670265E1,1.7631588E1,1.4088894E1,2.9950254E1,2.0384216E1,1.1287687E1,1.7469887E1,4.75333E0,1.2953606E1,1.7237993E1,1.2759102E1,1.706694E1,1.6851158E1,0E0,0E0,0E0,0E0,0E0,0E0,0E0,0E0,0E0,0E0,0E0,0E0,0E0,0E0,0E0,0E0],"parents":[2147483647,0,0,1,1,2,2,3,3,4,4,5,5,6,6,7,7,8,8,9,9,10,10,11,11,12,12,13,13,14,14],"right_children":[2,4,6,8,10,12,14,16,18,20,22,24,26,28,30,-1,-1,-1,-1,-1,-1,-1,-1,-1,-1,-1,-1,-1,-1,-1,-1],"split_conditions":[-1E0,2.8349444E-1,3.5E-1,3.7326247E-2,-1.4285562E-2,1.3690561E0,5.2E-1,6.286567E-1,1.25E-1,4.0173042E-1,8E1,0E0,2E0,4E0,-1.6054164E0,-1.3509265E-2,5.441745E-3,-1.46786235E-2,2.5255404E-2,-5.7716716E-2,-2.8490497E-2,-2.3588538E-2,7.693309E-3,-6.513482E-3,3.399932E-3,-2.5319647E-2,-4.225517E-3,8.2489615E-3,2.2038043E-2,1.503371E-2,-4.0560323E-3],"split_indices":[177,63,15,68,133,117,33,122,17,147,171,41,73,175,144,0,0,0,0,0,0,0,0,0,0,0,0,0,0,0,0],"split_type":[0,0,0,0,0,0,0,0,0,0,0,0,0,0,0,0,0,0,0,0,0,0,0,0,0,0,0,0,0,0,0],"sum_hessian":[3.1942244E3,5.6948944E2,2.6247349E3,4.2845486E2,1.410346E2,1.3929124E3,1.2318225E3,3.5513605E2,7.331881E1,5.304342E1,8.799119E1,1.1983997E3,1.9451271E2,8.250403E2,4.0678223E2,2.958005E2,5.9335545E1,2.59811E1,4.7337708E1,1.5307904E1,3.7735516E1,5.546645E1,3.2524734E1,4.4525946E2,7.5314014E2,1.1814229E2,7.637042E1,6.3890186E2,1.8613844E2,9.53821E1,3.1140015E2],"tree_param":{"num_deleted":"0","num_feature":"205","num_nodes":"31","size_leaf_vector":"1"}},{"base_weights":[-4.47558E-3,-1.0431878E-1,1.3738587E-1,-4.9024057E-2,-4.3999916E-1,8.269402E-2,4.04594E-1,-1.4414974E-1,1.1773721E-1,-5.5716634E-1,-1.0087305E-1,1.04938716E-1,-5.4941756E-1,-1.25146145E-2,4.820687E-1,2.1941511E-2,-7.1137706E-3,2.8947236E-2,2.8237887E-3,-3.1789463E-2,-1.3875149E-2,-2.7790086E-2,9.673534E-3,-5.153784E-4,9.030825E-3,-3.887871E-2,2.4513628E-3,2.6659742E-3,2.5310023E-2],"categories":[],"categories_nodes":[],"categories_segments":[],"categories_sizes":[],"default_left":[0,0,0,0,0,0,0,0,0,0,0,0,0,0,0,0,0,0,0,0,0,0,0,0,0,0,0,0,0],"id":33,"left_children":[1,3,5,7,9,11,13,15,17,19,21,23,25,-1,27,-1,-1,-1,-1,-1,-1,-1,-1,-1,-1,-1,-1,-1,-1],"loss_changes":[4.552435E1,3.494291E1,1.9299643E1,2.575863E1,1.043602E1,1.5566296E1,1.2740387E1,2.4240402E1,1.6686634E1,9.337006E0,1.4638527E1,1.5229632E1,9.888296E0,0E0,1.2613586E1,0E0,0E0,0E0,0E0,0E0,0E0,0E0,0E0,0E0,0E0,0E0,0E0,0E0,0E0],"parents":[2147483647,0,0,1,1,2,2,3,3,4,4,5,5,6,6,7,7,8,8,9,9,10,10,11,11,12,12,14,14],"right_children":[2,4,6,8,10,12,14,16,18,20,22,24,26,-1,28,-1,-1,-1,-1,-1,-1,-1,-1,-1,-1,-1,-1,-1,-1],"split_conditions":[4E-1,1.3690561E0,1.233885E0,1E0,3.163399E-1,3.593646E-1,2.8863415E-1,-2.2666667E0,4.2E0,8.26735E-2,9.14E1,1E0,8.0997154E-2,-1.25146145E-2,2.8141794E-1,2.1941511E-2,-7.1137706E-3,2.8947236E-2,2.8237887E-3,-3.1789463E-2,-1.3875149E-2,-2.7790086E-2,9.673534E-3,-5.153784E-4,9.030825E-3,-3.887871E-2,2.4513628E-3,2.6659742E-3,2.5310023E-2],"split_indices":[15,117,156,177,47,47,131,123,95,60,189,204,187,0,47,0,0,0,0,0,0,0,0,0,0,0,0,0,0],"split_type":[0,0,0,0,0,0,0,0,0,0,0,0,0,0,0,0,0,0,0,0,0,0,0,0,0,0,0,0,0],"sum_hessian":[3.2113264E3,1.8854404E3,1.325886E3,1.6205186E3,2.649219E2,1.1025548E3,2.2333119E2,1.032406E3,5.881126E2,1.9595921E2,6.896268E1,1.0664349E3,3.6119835E1,2.1196012E1,2.0213518E2,4.6689167E1,9.857168E2,4.0745438E1,5.473671E2,8.9830086E1,1.0612913E2,2.4777355E1,4.418532E1,5.401993E2,5.2623566E2,2.0920885E1,1.5198949E1,5.4555798E1,1.4757938E2],"tree_param":{"num_deleted":"0","num_feature":"205","num_nodes":"29","size_leaf_vector":"1"}},{"base_weights":[-3.6898553E-3,-4.1907296E-2,2.928552E-1,9.950306E-2,-1.23572744E-1,5.014594E-1,8.596418E-2,2.0304778E-1,-2.1460277E-1,-1.8756856E-1,2.6747644E-2,3.059433E-1,9.085404E-1,-1.0864335E-1,4.9367884E-1,9.515437E-3,-1.2734154E-2,-1.1014008E-2,1.9912949E-2,-9.678599E-3,2.265673E-3,-6.668102E-3,7.7530537E-3,1.9269526E-2,-5.7289824E-3,4.458315E-2,1.180391E-2,1.4046269E-2,-1.6060906E-2,3.7577968E-2,8.154726E-3],"categories":[],"categories_nodes":[],"categories_segments":[],"categories_sizes":[],"default_left":[0,0,0,0,0,0,0,0,0,0,0,0,0,0,0,0,0,0,0,0,0,0,0,0,0,0,0,0,0,0,0],"id":34,"left_children":[1,3,5,7,9,11,13,15,17,19,21,23,25,27,29,-1,-1,-1,-1,-1,-1,-1,-1,-1,-1,-1,-1,-1,-1,-1,-1],"loss_changes":[3.608035E1,3.261355E1,1.5560558E1,3.368062E1,1.7245073E1,1.3819992E1,1.4758212E1,1.4244007E1,1.1294536E1,1.6727848E1,1.7356295E1,9.952038E0,6.6465225E0,1.7178274E1,7.356002E0,0E0,0E0,0E0,0E0,0E0,0E0,0E0,0E0,0E0,0E0,0E0,0E0,0E0,0E0,0E0,0E0],"parents":[2147483647,0,0,1,1,2,2,3,3,4,4,5,5,6,6,7,7,8,8,9,9,10,10,11,11,12,12,13,13,14,14],"right_children":[2,4,6,8,10,12,14,16,18,20,22,24,26,28,30,-1,-1,-1,-1,-1,-1,-1,-1,-1,-1,-1,-1,-1,-1,-1,-1],"split_conditions":[7.7E-1,4.8958335E0,3.101826E-1,2.3995E-1,1.4761782E0,5.8479533E-3,3.191056E-1,3.4771407E-1,5E0,4E0,3E-1,6.7E-1,1.6880394E0,2.9E-1,3.1689256E-1,9.515437E-3,-1.2734154E-2,-1.1014008E-2,1.9912949E-2,-9.678599E-3,2.265673E-3,-6.668102E-3,7.7530537E-3,1.9269526E-2,-5.7289824E-3,4.458315E-2,1.180391E-2,1.4046269E-2,-1.6060906E-2,3.7577968E-2,8.154726E-3],"split_indices":[15,95,67,197,147,45,57,57,175,175,15,32,149,32,56,0,0,0,0,0,0,0,0,0,0,0,0,0,0,0,0],"split_type":[0,0,0,0,0,0,0,0,0,0,0,0,0,0,0,0,0,0,0,0,0,0,0,0,0,0,0,0,0,0,0],"sum_hessian":[3.1826895E3,2.8207842E3,3.619052E2,1.0320879E3,1.7886963E3,1.7890237E2,1.8300282E2,7.7684906E2,2.552389E2,1.2547892E3,5.3390717E2,1.22797295E2,5.610508E1,1.2445422E2,5.8548603E1,7.291381E2,4.771091E1,2.3616235E2,1.907656E1,1.0265537E3,2.2823544E2,2.4715102E2,2.8675616E2,8.8337654E1,3.445964E1,4.095952E1,1.5145561E1,4.8178085E1,7.627614E1,2.16068E1,3.6941803E1],"tree_param":{"num_deleted":"0","num_feature":"205","num_nodes":"31","size_leaf_vector":"1"}},{"base_weights":[8.974987E-3,-2.4139217E-1,6.5107025E-2,-2.683678E-1,2.364026E-2,-3.6202073E-2,1.6269891E-1,-6.5100235E-1,-2.0885767E-1,-5.8830963E-3,-6.470138E-1,4.118121E-1,1.0804198E-1,2.3397375E-3,-3.4357306E-2,-3.785899E-2,-6.6669304E-3,-2.853531E-3,9.343752E-3,-3.5703838E-2,-3.403265E-3,1.9653514E-2,-5.6144167E-3,6.5853265E-3,-8.298277E-3],"categories":[],"categories_nodes":[],"categories_segments":[],"categories_sizes":[],"default_left":[0,0,0,0,0,0,0,0,0,0,0,0,0,0,0,0,0,0,0,0,0,0,0,0,0],"id":35,"left_children":[1,3,5,7,-1,9,11,13,15,17,19,21,23,-1,-1,-1,-1,-1,-1,-1,-1,-1,-1,-1,-1],"loss_changes":[4.5244637E1,1.3442986E1,2.6033915E1,1.2738548E1,0E0,2.3848995E1,1.8138035E1,1.1378414E1,1.5134943E1,1.9323853E1,8.194126E0,1.0694771E1,1.9721836E1,0E0,0E0,0E0,0E0,0E0,0E0,0E0,0E0,0E0,0E0,0E0,0E0],"parents":[2147483647,0,0,1,1,2,2,3,3,5,5,6,6,7,7,8,8,9,9,10,10,11,11,12,12],"right_children":[2,4,6,8,-1,10,12,14,16,18,20,22,24,-1,-1,-1,-1,-1,-1,-1,-1,-1,-1,-1,-1],"split_conditions":[-1E0,6.6557163E-3,1E0,-3E0,2.364026E-2,5.852941E0,-3.1693518E-1,6.4328305E-2,-9.4532095E-2,4E0,8.571429E-2,5.46875E0,5.0039325E0,2.3397375E-3,-3.4357306E-2,-3.785899E-2,-6.6669304E-3,-2.853531E-3,9.343752E-3,-3.5703838E-2,-3.403265E-3,1.9653514E-2,-5.6144167E-3,6.5853265E-3,-8.298277E-3],"split_indices":[177,192,204,177,0,95,197,51,71,175,18,95,113,0,0,0,0,0,0,0,0,0,0,0,0],"split_type":[0,0,0,0,0,0,0,0,0,0,0,0,0,0,0,0,0,0,0,0,0,0,0,0,0],"sum_hessian":[3.2175068E3,5.880189E2,2.6294878E3,5.706619E2,1.7356964E1,1.2901332E3,1.3393547E3,7.457496E1,4.9608698E2,1.2307218E3,5.9411407E1,2.3889537E2,1.1004594E3,1.703739E1,5.753757E1,2.4968788E1,4.711182E2,9.676963E2,2.6302545E2,4.0605076E1,1.8806332E1,2.0912311E2,2.9772259E1,9.3396735E2,1.6649194E2],"tree_param":{"num_deleted":"0","num_feature":"205","num_nodes":"25","size_leaf_vector":"1"}},{"base_weights":[5.632372E-3,-3.3471206E-1,4.0235896E-2,-4.0484896E-1,1.2392714E-2,-2.8610526E-2,1.7502356E-1,-2.7398944E-1,-7.8391826E-1,2.515859E-1,-7.056705E-2,2.9117668E-1,2.4457572E-2,-1.8475287E-2,1.1885593E-3,-1.4622763E-2,-4.356955E-2,1.5685672E-2,-1.4748461E-2,-1.6765347E-3,-1.6905239E-2,1.672775E-2,2.123283E-3,1.1662012E-2,-5.8702813E-3],"categories":[],"categories_nodes":[],"categories_segments":[],"categories_sizes":[],"default_left":[0,0,0,0,0,0,0,0,0,0,0,0,0,0,0,0,0,0,0,0,0,0,0,0,0],"id":36,"left_children":[1,3,5,7,-1,9,11,13,15,17,19,21,23,-1,-1,-1,-1,-1,-1,-1,-1,-1,-1,-1,-1],"loss_changes":[3.7748894E1,1.3568386E1,2.7042461E1,1.284333E1,0E0,2.2675861E1,1.718663E1,1.1555607E1,7.8988495E0,2.2114792E1,1.68596E1,1.6722443E1,1.9789783E1,0E0,0E0,0E0,0E0,0E0,0E0,0E0,0E0,0E0,0E0,0E0,0E0],"parents":[2147483647,0,0,1,1,2,2,3,3,5,5,6,6,7,7,8,8,9,9,10,10,11,11,12,12],"right_children":[2,4,6,8,-1,10,12,14,16,18,20,22,24,-1,-1,-1,-1,-1,-1,-1,-1,-1,-1,-1,-1],"split_conditions":[4.3125E0,3.8165456E-1,5E-1,4.2E1,1.2392714E-2,4.469697E0,8.435531E-2,1.0149047E-2,-1.4556942E-3,4.8827577E-1,5E0,2.0914812E-1,-1.8E1,-1.8475287E-2,1.1885593E-3,-1.4622763E-2,-4.356955E-2,1.5685672E-2,-1.4748461E-2,-1.6765347E-3,-1.6905239E-2,1.672775E-2,2.123283E-3,1.1662012E-2,-5.8702813E-3],"split_indices":[94,146,15,162,0,95,60,68,75,5,176,7,162,0,0,0,0,0,0,0,0,0,0,0,0],"split_type":[0,0,0,0,0,0,0,0,0,0,0,0,0,0,0,0,0,0,0,0,0,0,0,0,0],"sum_hessian":[3.2045598E3,2.942779E2,2.9102817E3,2.6604065E2,2.8237234E1,1.9266389E3,9.8364294E2,1.9988562E2,6.615504E1,2.4963492E2,1.6770039E3,5.54112E2,4.2953094E2,1.23208206E2,7.667742E1,2.9439981E1,3.6715054E1,2.0409996E2,4.5534966E1,1.5526036E3,1.2440027E2,3.6033063E2,1.9378136E2,1.6760265E2,2.619283E2],"tree_param":{"num_deleted":"0","num_feature":"205","num_nodes":"25","size_leaf_vector":"1"}},{"base_weights":[-8.892594E-3,-6.049449E-2,2.4447687E-1,-2.5990205E-2,-4.2091793E-1,1.3450155E-1,4.81436E-1,1.0934771E-1,-8.8489845E-2,-2.4298693E-1,-7.212829E-1,2.636282E-2,4.5472932E-1,7.966419E-1,1.760109E-1,6.361231E-3,-1.5904231E-2,-7.757843E-3,1.7427356E-4,-4.5815376E-3,-4.327878E-2,-4.0506065E-2,-1.3622149E-2,-1.5389174E-2,5.560178E-3,-8.6648455E-3,2.559138E-2,3.817183E-2,1.0182568E-2,1.3729015E-2,-2.0506654E-2],"categories":[],"categories_nodes":[],"categories_segments":[],"categories_sizes":[],"default_left":[0,0,0,0,0,0,0,0,0,0,0,0,0,0,0,0,0,0,0,0,0,0,0,0,0,0,0,0,0,0,0],"id":37,"left_children":[1,3,5,7,9,11,13,15,17,19,21,23,25,27,29,-1,-1,-1,-1,-1,-1,-1,-1,-1,-1,-1,-1,-1,-1,-1,-1],"loss_changes":[4.1852764E1,3.302884E1,1.3954155E1,2.0568184E1,1.2046005E1,1.2824917E1,1.613567E1,1.9411835E1,1.6310724E1,1.566952E1,8.818691E0,1.3026492E1,1.1884899E1,6.647938E0,1.0476675E1,0E0,0E0,0E0,0E0,0E0,0E0,0E0,0E0,0E0,0E0,0E0,0E0,0E0,0E0,0E0,0E0],"parents":[2147483647,0,0,1,1,2,2,3,3,4,4,5,5,6,6,7,7,8,8,9,9,10,10,11,11,12,12,13,13,14,14],"right_children":[2,4,6,8,10,12,14,16,18,20,22,24,26,28,30,-1,-1,-1,-1,-1,-1,-1,-1,-1,-1,-1,-1,-1,-1,-1,-1],"split_conditions":[2E0,5E0,3.4247836E-1,1E0,1E0,2.8198317E-1,4.0013514E0,1.7555769E-1,1.48E2,7E0,5.6E1,1.4538076E3,2.96443E-1,1.9166666E1,1.0218978E-1,6.361231E-3,-1.5904231E-2,-7.757843E-3,1.7427356E-4,-4.5815376E-3,-4.327878E-2,-4.0506065E-2,-1.3622149E-2,-1.5389174E-2,5.560178E-3,-8.6648455E-3,2.559138E-2,3.817183E-2,1.0182568E-2,1.3729015E-2,-2.0506654E-2],"split_indices":[177,176,103,11,11,53,113,105,160,176,88,139,56,78,118,0,0,0,0,0,0,0,0,0,0,0,0,0,0,0,0],"split_type":[0,0,0,0,0,0,0,0,0,0,0,0,0,0,0,0,0,0,0,0,0,0,0,0,0,0,0,0,0,0,0],"sum_hessian":[3.1993467E3,2.659286E3,5.4006067E2,2.4286687E3,2.3061723E2,3.7076025E2,1.6930043E2,7.6638965E2,1.662279E3,1.4673836E2,8.3878876E1,2.78611E2,9.214927E1,8.1967834E1,8.7332596E1,6.991021E2,6.728755E1,7.780291E2,8.842499E2,1.288373E2,1.790106E1,4.595647E1,3.7922405E1,5.8951828E1,2.1965916E2,1.9739887E1,7.240938E1,6.247339E1,1.9494446E1,7.09928E1,1.6339796E1],"tree_param":{"num_deleted":"0","num_feature":"205","num_nodes":"31","size_leaf_vector":"1"}},{"base_weights":[4.9988525E-3,-7.319783E-2,1.4558786E-1,-1.1015309E-1,2.0026308E-1,2.4289571E-1,-8.418909E-3,-2.1146028E-1,-6.0994625E-3,4.7172403E-1,1.2341402E-2,6.224551E-1,1.7028901E-1,-5.141313E-2,4.035055E-2,-4.332563E-3,-1.7680679E-2,-9.077653E-3,3.2464294E-3,2.5797185E-2,-3.0386713E-3,1.9418342E-2,-7.96746E-3,1.4988564E-2,4.1362744E-2,3.7000703E-3,2.0502834E-2,6.3034724E-3,-9.0184E-3],"categories":[],"categories_nodes":[],"categories_segments":[],"categories_sizes":[],"default_left":[0,0,0,0,0,0,0,0,0,0,0,0,0,0,0,0,0,0,0,0,0,0,0,0,0,0,0,0,0],"id":38,"left_children":[1,3,5,7,9,11,13,15,17,19,21,23,25,27,-1,-1,-1,-1,-1,-1,-1,-1,-1,-1,-1,-1,-1,-1,-1],"loss_changes":[3.5113163E1,2.075705E1,1.713711E1,1.904181E1,1.241324E1,1.9056244E1,1.936183E1,2.1653728E1,1.7275126E1,9.592176E0,1.4806155E1,1.0661938E1,1.5576977E1,1.5581233E1,0E0,0E0,0E0,0E0,0E0,0E0,0E0,0E0,0E0,0E0,0E0,0E0,0E0,0E0,0E0],"parents":[2147483647,0,0,1,1,2,2,3,3,4,4,5,5,6,6,7,7,8,8,9,9,10,10,11,11,12,12,13,13],"right_children":[2,4,6,8,10,12,14,16,18,20,22,24,26,28,-1,-1,-1,-1,-1,-1,-1,-1,-1,-1,-1,-1,-1,-1,-1],"split_conditions":[1E0,7.7E-1,4.4E-1,-1.0316936E-2,3.1834215E-1,3.7E1,3.594532E-1,3.1E1,-6.204509E-3,9.715715E-2,-9.985972E-1,8.630036E-2,3.3448666E-1,6.4E1,4.035055E-2,-4.332563E-3,-1.7680679E-2,-9.077653E-3,3.2464294E-3,2.5797185E-2,-3.0386713E-3,1.9418342E-2,-7.96746E-3,1.4988564E-2,4.1362744E-2,3.7000703E-3,2.0502834E-2,6.3034724E-3,-9.0184E-3],"split_indices":[177,15,33,126,127,171,57,27,174,61,117,51,128,172,0,0,0,0,0,0,0,0,0,0,0,0,0,0,0],"split_type":[0,0,0,0,0,0,0,0,0,0,0,0,0,0,0,0,0,0,0,0,0,0,0,0,0,0,0,0,0],"sum_hessian":[3.190354E3,2.0500874E3,1.1402666E3,1.8071344E3,2.4295305E2,6.98628E2,4.4163852E2,9.1437976E2,8.9275464E2,9.82415E1,1.4471155E2,1.1013716E2,5.8849084E2,4.2518915E2,1.6449377E1,6.335716E2,2.8080817E2,2.5248912E2,6.402655E2,7.4573975E1,2.3667528E1,4.4255974E1,1.00455574E2,7.069556E1,3.944161E1,4.8130634E2,1.0718453E2,1.9299867E2,2.3219046E2],"tree_param":{"num_deleted":"0","num_feature":"205","num_nodes":"29","size_leaf_vector":"1"}},{"base_weights":[-4.8567224E-3,4.7869924E-2,-2.172981E-1,1.3671203E-1,-8.617971E-2,-1.6068871E-1,-6.697744E-1,2.9783307E-2,2.9434997E-1,-2.9831013E-1,-0E0,8.6554155E-2,-2.592731E-1,-8.6627537E-1,4.836883E-4,8.02714E-3,-4.241428E-3,1.3236771E-2,-8.603768E-3,-1.5454608E-2,5.7678525E-3,3.1042447E-2,-1.2991573E-3,2.3712618E-2,-1.677615E-3,-1.5308574E-2,1.8425107E-3,-1.7599868E-2,-4.8134554E-2],"categories":[],"categories_nodes":[],"categories_segments":[],"categories_sizes":[],"default_left":[0,0,0,0,0,0,0,0,0,0,0,0,0,0,0,0,0,0,0,0,0,0,0,0,0,0,0,0,0],"id":39,"left_children":[1,3,5,7,9,11,13,15,17,19,21,23,25,27,-1,-1,-1,-1,-1,-1,-1,-1,-1,-1,-1,-1,-1,-1,-1],"loss_changes":[3.5596985E1,3.032635E1,1.5943228E1,2.5766851E1,1.8553226E1,1.3794911E1,9.427298E0,2.126712E1,1.1638615E1,1.153133E1,1.8270016E1,1.0603289E1,1.5279549E1,6.8250237E0,0E0,0E0,0E0,0E0,0E0,0E0,0E0,0E0,0E0,0E0,0E0,0E0,0E0,0E0,0E0],"parents":[2147483647,0,0,1,1,2,2,3,3,4,4,5,5,6,6,7,7,8,8,9,9,10,10,11,11,12,12,13,13],"right_children":[2,4,6,8,10,12,14,16,18,20,22,24,26,28,-1,-1,-1,-1,-1,-1,-1,-1,-1,-1,-1,-1,-1,-1,-1],"split_conditions":[4E0,4.4E-1,7.6E-1,5.1466665E0,3.181E-1,4.770115E0,9.8E0,-4.150067E-2,1.5841433E3,8.4E1,2.432543E-2,-8.702052E-3,9.6E1,7.762663E-2,4.836883E-4,8.02714E-3,-4.241428E-3,1.3236771E-2,-8.603768E-3,-1.5454608E-2,5.7678525E-3,3.1042447E-2,-1.2991573E-3,2.3712618E-2,-1.677615E-3,-1.5308574E-2,1.8425107E-3,-1.7599868E-2,-4.8134554E-2],"split_indices":[176,33,33,94,108,95,86,197,140,88,21,39,166,51,0,0,0,0,0,0,0,0,0,0,0,0,0,0,0],"split_type":[0,0,0,0,0,0,0,0,0,0,0,0,0,0,0,0,0,0,0,0,0,0,0,0,0,0,0,0,0],"sum_hessian":[3.1735215E3,2.5430447E3,6.3047675E2,1.5298469E3,1.0131979E3,5.62372E2,6.810477E1,9.1297614E2,6.168707E2,2.91675E2,7.215229E2,1.6007747E2,4.0229456E2,5.2667873E1,1.5436892E1,4.042924E2,5.0868378E2,5.762293E2,4.06414E1,2.436141E2,4.806087E1,2.7617199E1,6.939057E2,3.1465008E1,1.2861246E2,2.864399E2,1.1585462E2,2.491509E1,2.775278E1],"tree_param":{"num_deleted":"0","num_feature":"205","num_nodes":"29","size_leaf_vector":"1"}},{"base_weights":[1.5285048E-3,-1.0438687E-1,1.0860244E-1,-7.8003876E-2,-6.37773E-1,-1.9035639E-1,1.6454716E-1,1.1608353E-1,-1.5187328E-1,-1.2290328E0,-1.03129685E-1,1.5817611E-1,-3.0703232E-1,3.8984412E-1,9.6422344E-2,-4.251122E-3,1.2585382E-2,1.1331068E-2,-7.992433E-3,-3.3599697E-2,-6.21272E-2,2.0775352E-2,-2.0868938E-2,-6.8899095E-3,3.4785304E-2,-3.2055944E-2,-6.626346E-3,-1.977856E-2,1.7688848E-2,2.2082238E-3,1.9941863E-2],"categories":[],"categories_nodes":[],"categories_segments":[],"categories_sizes":[],"default_left":[0,0,0,0,0,0,0,0,0,0,0,0,0,0,0,0,0,0,0,0,0,0,0,0,0,0,0,0,0,0,0],"id":40,"left_children":[1,3,5,7,9,11,13,15,17,19,21,23,25,27,29,-1,-1,-1,-1,-1,-1,-1,-1,-1,-1,-1,-1,-1,-1,-1,-1],"loss_changes":[3.6180027E1,2.2416376E1,2.6585466E1,2.1960789E1,2.3442148E1,1.0276904E1,2.042846E1,1.8709646E1,2.3209988E1,2.277153E0,1.1144327E1,1.5249589E1,1.2874628E1,1.4670795E1,1.696747E1,0E0,0E0,0E0,0E0,0E0,0E0,0E0,0E0,0E0,0E0,0E0,0E0,0E0,0E0,0E0,0E0],"parents":[2147483647,0,0,1,1,2,2,3,3,4,4,5,5,6,6,7,7,8,8,9,9,10,10,11,11,12,12,13,13,14,14],"right_children":[2,4,6,8,10,12,14,16,18,20,22,24,26,28,30,-1,-1,-1,-1,-1,-1,-1,-1,-1,-1,-1,-1,-1,-1,-1,-1],"split_conditions":[1E0,9E-1,4.5277777E0,3.166E-1,0E0,4.6712805E-2,1E0,5.0392156E0,2.0437784E-1,2.9E1,4.691E-1,8.4745765E-2,3.4E1,-4.3E0,5.6666665E0,-4.251122E-3,1.2585382E-2,1.1331068E-2,-7.992433E-3,-3.3599697E-2,-6.21272E-2,2.0775352E-2,-2.0868938E-2,-6.8899095E-3,3.4785304E-2,-3.2055944E-2,-6.626346E-3,-1.977856E-2,1.7688848E-2,2.2082238E-3,1.9941863E-2],"split_indices":[204,33,94,110,6,132,72,94,100,27,81,119,88,40,94,0,0,0,0,0,0,0,0,0,0,0,0,0,0,0,0],"split_type":[0,0,0,0,0,0,0,0,0,0,0,0,0,0,0,0,0,0,0,0,0,0,0,0,0,0,0,0,0,0,0],"sum_hessian":[3.1872234E3,1.6018296E3,1.5853938E3,1.5281493E3,7.368034E1,2.4906145E2,1.3363323E3,4.2066534E2,1.1074839E3,3.3973724E1,3.970662E1,6.211673E1,1.869447E2,3.0827576E2,1.0280565E3,1.9852565E2,2.221397E2,1.0895969E2,9.9852423E2,1.8029898E1,1.5943828E1,1.5723412E1,2.3983208E1,4.3097237E1,1.9019493E1,3.9857525E1,1.4708719E2,1.6423286E1,2.9185248E2,9.3425256E2,9.380398E1],"tree_param":{"num_deleted":"0","num_feature":"205","num_nodes":"31","size_leaf_vector":"1"}},{"base_weights":[6.903176E-4,-5.879406E-2,2.1868894E-1,-1.0851524E-1,1.904836E-1,2.69381E-1,-2.5594553E-1,1.6898918E-1,-1.4844465E-1,3.9527375E-1,6.938079E-2,-2.967129E-1,3.084905E-1,1.5144698E-1,-3.368863E-2,1.2444424E-2,-1.0782939E-2,-4.4590156E-3,-1.6043313E-2,2.4023924E-2,-3.1161094E-3,5.9663574E-3,-2.9003242E-2,-2.8526079E-2,8.214956E-3,1.4187836E-2,-8.546016E-3,2.1345235E-2,-1.7448207E-2],"categories":[],"categories_nodes":[],"categories_segments":[],"categories_sizes":[],"default_left":[0,0,0,0,0,0,0,0,0,0,0,0,0,0,0,0,0,0,0,0,0,0,0,0,0,0,0,0,0],"id":41,"left_children":[1,3,5,7,9,11,13,15,17,19,21,23,25,27,-1,-1,-1,-1,-1,-1,-1,-1,-1,-1,-1,-1,-1,-1,-1],"loss_changes":[4.1557175E1,3.1212034E1,1.6636368E1,2.3296312E1,1.0295634E1,1.39030075E1,1.6234356E1,1.661259E1,1.703233E1,1.5176764E1,1.6914198E1,8.796225E0,1.4179504E1,9.484275E0,0E0,0E0,0E0,0E0,0E0,0E0,0E0,0E0,0E0,0E0,0E0,0E0,0E0,0E0,0E0],"parents":[2147483647,0,0,1,1,2,2,3,3,4,4,5,5,6,6,7,7,8,8,9,9,10,10,11,11,12,12,13,13],"right_children":[2,4,6,8,10,12,14,16,18,20,22,24,26,28,-1,-1,-1,-1,-1,-1,-1,-1,-1,-1,-1,-1,-1,-1,-1],"split_conditions":[5.404762E0,2E0,1.8710637E-2,4.469697E0,2.2599234E-1,-2E0,1.0254E2,2.4564756E-1,1.3690561E0,7.861635E-1,3.9285713E-1,4.2E1,1.5826007E3,1E0,-3.368863E-2,1.2444424E-2,-1.0782939E-2,-4.4590156E-3,-1.6043313E-2,2.4023924E-2,-3.1161094E-3,5.9663574E-3,-2.9003242E-2,-2.8526079E-2,8.214956E-3,1.4187836E-2,-8.546016E-3,2.1345235E-2,-1.7448207E-2],"split_indices":[94,177,6,95,59,177,109,197,117,116,101,10,140,41,0,0,0,0,0,0,0,0,0,0,0,0,0,0,0],"split_type":[0,0,0,0,0,0,0,0,0,0,0,0,0,0,0,0,0,0,0,0,0,0,0,0,0,0,0,0,0],"sum_hessian":[3.2004944E3,2.5149006E3,6.8559375E2,2.0977327E3,4.171678E2,6.2021295E2,6.53808E1,2.6294504E2,1.8347877E3,1.5345203E2,2.6371576E2,3.9275795E1,5.8093713E2,3.913104E1,2.6249762E1,1.9909114E2,6.385391E1,1.6028027E3,2.3198497E2,1.0688087E2,4.6571163E1,2.4087215E2,2.284361E1,2.123322E1,1.8042578E1,5.34326E2,4.6611134E1,2.3897306E1,1.5233729E1],"tree_param":{"num_deleted":"0","num_feature":"205","num_nodes":"29","size_leaf_vector":"1"}},{"base_weights":[3.3360492E-3,-4.101471E-2,2.3371339E-1,-2.0440936E-1,2.0581229E-2,4.688792E-1,6.310989E-2,-6.41818E-2,-4.148407E-1,-1.5933742E-1,7.9695694E-2,1.4626424E-1,7.3263633E-1,-2.5058305E-2,1.3371071E-1,-7.1624285E-3,8.882551E-3,-3.626462E-2,-1.2159825E-2,-7.816542E-3,2.6739504E-2,-1.0500844E-2,4.571042E-3,1.525989E-2,-1.6691675E-2,6.572787E-3,3.5347413E-2,2.376908E-2,1.7608466E-3],"categories":[],"categories_nodes":[],"categories_segments":[],"categories_sizes":[],"default_left":[0,0,0,0,0,0,0,0,0,0,0,0,0,0,0,0,0,0,0,0,0,0,0,0,0,0,0,0,0],"id":42,"left_children":[1,3,5,7,9,11,13,15,17,19,21,23,25,-1,27,-1,-1,-1,-1,-1,-1,-1,-1,-1,-1,-1,-1,-1,-1],"loss_changes":[3.2578716E1,2.6916454E1,2.0556252E1,2.1514767E1,2.0659096E1,1.812828E1,1.4697888E1,1.4569719E1,1.5393566E1,1.4489539E1,1.7339436E1,1.3384324E1,9.8307E0,0E0,1.1206206E1,0E0,0E0,0E0,0E0,0E0,0E0,0E0,0E0,0E0,0E0,0E0,0E0,0E0,0E0],"parents":[2147483647,0,0,1,1,2,2,3,3,4,4,5,5,6,6,7,7,8,8,9,9,10,10,11,11,12,12,14,14],"right_children":[2,4,6,8,10,12,14,16,18,20,22,24,26,-1,28,-1,-1,-1,-1,-1,-1,-1,-1,-1,-1,-1,-1,-1,-1],"split_conditions":[2E0,1E0,-1.7026667E-1,3.4E-1,-1E0,5.0229883E0,-1.3308573E-2,1.532014E3,-4.761905E-2,1.3921616E2,3.144E-1,8.01E1,3.0087888E-1,-2.5058305E-2,-9.574395E-1,-7.1624285E-3,8.882551E-3,-3.626462E-2,-1.2159825E-2,-7.816542E-3,2.6739504E-2,-1.0500844E-2,4.571042E-3,1.525989E-2,-1.6691675E-2,6.572787E-3,3.5347413E-2,2.376908E-2,1.7608466E-3],"split_indices":[177,29,202,33,177,94,24,139,45,141,108,85,128,0,117,0,0,0,0,0,0,0,0,0,0,0,0,0,0],"split_type":[0,0,0,0,0,0,0,0,0,0,0,0,0,0,0,0,0,0,0,0,0,0,0,0,0,0,0,0,0],"sum_hessian":[3.1837566E3,2.6704563E3,5.133002E2,7.305863E2,1.9398701E3,2.1446518E2,2.9883496E2,4.3988663E2,2.9069965E2,4.7869537E2,1.4611747E3,9.76884E1,1.1677677E2,2.6525978E1,2.72309E2,3.1455667E2,1.2532996E2,5.1324165E1,2.3937547E2,4.5991907E2,1.8776283E1,1.3292574E2,1.328249E3,6.9387505E1,2.8300898E1,2.5316849E1,9.145993E1,4.2832085E1,2.2947691E2],"tree_param":{"num_deleted":"0","num_feature":"205","num_nodes":"29","size_leaf_vector":"1"}},{"base_weights":[1.9546528E-3,-9.475679E-2,9.921617E-2,-4.1809533E-2,-3.145335E-1,1.1728566E-1,-7.5984985E-1,5.4201573E-1,-6.4385235E-2,-3.8575545E-1,1.7527472E-2,1.01013586E-1,8.483082E-1,-1.2847051E-2,-4.3897305E-2,3.2997556E-2,-5.556792E-4,-2.8429298E-2,-1.8662686E-3,-2.9188287E-2,-9.776844E-3,1.1479038E-2,1.8291747E-3,4.1247983E-2,2.2404082E-2],"categories":[],"categories_nodes":[],"categories_segments":[],"categories_sizes":[],"default_left":[0,0,0,0,0,0,0,0,0,0,0,0,0,0,0,0,0,0,0,0,0,0,0,0,0],"id":43,"left_children":[1,3,5,7,9,11,13,15,17,19,-1,21,23,-1,-1,-1,-1,-1,-1,-1,-1,-1,-1,-1,-1],"loss_changes":[3.0020119E1,1.8560207E1,2.477716E1,1.7023796E1,1.6866495E1,1.8336943E1,4.198059E0,7.6582117E0,1.4137241E1,1.3446068E1,0E0,1.5657951E1,7.4762344E-1,0E0,0E0,0E0,0E0,0E0,0E0,0E0,0E0,0E0,0E0,0E0,0E0],"parents":[2147483647,0,0,1,1,2,2,3,3,4,4,5,5,6,6,7,7,8,8,9,9,11,11,12,12],"right_children":[2,4,6,8,10,12,14,16,18,20,-1,22,24,-1,-1,-1,-1,-1,-1,-1,-1,-1,-1,-1,-1],"split_conditions":[1E0,9.865404E-2,2.6371996E0,-2.2043593E0,1.1610538E-1,6E0,1.5730757E-1,3E0,-3E0,-2E0,1.7527472E-2,2.7962738E-1,3.0970392E-1,-1.2847051E-2,-4.3897305E-2,3.2997556E-2,-5.556792E-4,-2.8429298E-2,-1.8662686E-3,-2.9188287E-2,-9.776844E-3,1.1479038E-2,1.8291747E-3,4.1247983E-2,2.2404082E-2],"split_indices":[204,61,117,117,37,175,25,145,177,41,0,70,66,0,0,0,0,0,0,0,0,0,0,0,0],"split_type":[0,0,0,0,0,0,0,0,0,0,0,0,0,0,0,0,0,0,0,0,0,0,0,0,0],"sum_hessian":[3.1884436E3,1.5982466E3,1.590197E3,1.2897648E3,3.084818E2,1.5588206E3,3.1376436E1,4.656686E1,1.2431979E3,2.8260593E2,2.5875877E1,1.5266818E3,3.213885E1,1.5046942E1,1.6329494E1,3.049879E1,1.6068068E1,3.1473146E1,1.2117247E3,8.028124E1,2.0232469E2,3.4800024E2,1.1786815E3,1.7083775E1,1.5055078E1],"tree_param":{"num_deleted":"0","num_feature":"205","num_nodes":"25","size_leaf_vector":"1"}},{"base_weights":[-1.2486482E-2,-1.4253941E-1,6.8685584E-2,-1.8768555E-1,1.4554363E-1,-4.5263293E-1,9.157191E-2,-2.0384595E-1,2.7638499E-2,-5.536831E-2,5.4853565E-1,-6.883252E-1,1.1519477E-3,5.7485804E-2,3.8674268E-1,-1.173326E-2,-2.3816468E-3,4.366429E-3,-2.8877016E-2,-9.2119863E-4,3.2796286E-2,-4.830175E-3,-4.045771E-2,-1.5436955E-3,6.5971664E-3,3.222357E-2,9.497906E-3],"categories":[],"categories_nodes":[],"categories_segments":[],"categories_sizes":[],"default_left":[0,0,0,0,0,0,0,0,0,0,0,0,0,0,0,0,0,0,0,0,0,0,0,0,0,0,0],"id":44,"left_children":[1,3,5,7,9,11,13,15,-1,17,19,21,-1,23,25,-1,-1,-1,-1,-1,-1,-1,-1,-1,-1,-1,-1],"loss_changes":[3.3842735E1,1.6070032E1,2.3567242E1,1.5301193E1,1.3654582E1,9.518959E0,1.895356E1,1.3473717E1,0E0,1.2566967E1,8.797068E0,9.96471E0,0E0,1.754847E1,1.1818468E1,0E0,0E0,0E0,0E0,0E0,0E0,0E0,0E0,0E0,0E0,0E0,0E0],"parents":[2147483647,0,0,1,1,2,2,3,3,4,4,5,5,6,6,7,7,9,9,10,10,11,11,13,13,14,14],"right_children":[2,4,6,8,10,12,14,16,-1,18,20,22,-1,24,26,-1,-1,-1,-1,-1,-1,-1,-1,-1,-1,-1,-1],"split_conditions":[0E0,1.233885E0,-1.4770251E2,1.5523E0,8.1E1,8.0576494E-2,3E0,4.19E1,2.7638499E-2,3.1578946E-1,-1.18500166E-1,5.9368823E-2,1.1519477E-3,3.6E-1,4.7272725E0,-1.173326E-2,-2.3816468E-3,4.366429E-3,-2.8877016E-2,-9.2119863E-4,3.2796286E-2,-4.830175E-3,-4.045771E-2,-1.5436955E-3,6.5971664E-3,3.222357E-2,9.497906E-3],"split_indices":[177,156,141,201,171,51,177,10,0,101,149,51,0,15,95,0,0,0,0,0,0,0,0,0,0,0,0],"split_type":[0,0,0,0,0,0,0,0,0,0,0,0,0,0,0,0,0,0,0,0,0,0,0,0,0,0,0],"sum_hessian":[3.202226E3,1.2306273E3,1.9715988E3,1.0646531E3,1.6597427E2,8.154657E1,1.8900521E3,1.0466682E3,1.798487E1,1.11454384E2,5.4519886E1,5.4451897E1,2.7094675E1,1.696296E3,1.9375616E2,6.4466174E2,4.0200647E2,9.0275604E1,2.1178776E1,1.7875183E1,3.6644703E1,2.0613462E1,3.3838436E1,8.955269E2,8.007691E2,4.9006073E1,1.4475009E2],"tree_param":{"num_deleted":"0","num_feature":"205","num_nodes":"27","size_leaf_vector":"1"}},{"base_weights":[2.000198E-2,-2.8949985E-1,4.67181E-2,-4.6356216E-1,1.303139E-2,1.3129312E-1,-4.1935813E-2,-7.171787E-3,-6.121126E-1,3.2678434E-1,-4.0869806E-2,4.9800795E-1,9.72419E-2,8.568378E-2,-1.23606876E-1,-1.9816224E-2,2.309762E-2,-3.05567E-2,-5.719115E-3,-9.0636555E-3,2.1956017E-2,-8.300442E-3,2.4681803E-2,-5.410301E-3,5.478692E-3,6.0978816E-3,-1.351065E-2,-2.0083978E-3,-1.3570006E-2],"categories":[],"categories_nodes":[],"categories_segments":[],"categories_sizes":[],"default_left":[0,0,0,0,0,0,0,0,0,0,0,0,0,0,0,0,0,0,0,0,0,0,0,0,0,0,0,0,0],"id":45,"left_children":[1,3,5,7,9,11,13,15,17,19,-1,21,23,25,27,-1,-1,-1,-1,-1,-1,-1,-1,-1,-1,-1,-1,-1,-1],"loss_changes":[2.6330683E1,1.3376009E1,2.2011433E1,1.0835876E1,3.0834194E1,1.8625534E1,1.4952638E1,1.2174512E1,8.374111E0,9.199745E0,0E0,1.0900423E1,1.2742873E1,1.5876114E1,1.3780217E1,0E0,0E0,0E0,0E0,0E0,0E0,0E0,0E0,0E0,0E0,0E0,0E0,0E0,0E0],"parents":[2147483647,0,0,1,1,2,2,3,3,4,4,5,5,6,6,7,7,8,8,9,9,11,11,12,12,13,13,14,14],"right_children":[2,4,6,8,10,12,14,16,18,20,-1,22,24,26,28,-1,-1,-1,-1,-1,-1,-1,-1,-1,-1,-1,-1,-1,-1],"split_conditions":[4.2525253E0,1.2098281E-2,3.5E-1,4.062424E-1,3.3731517E-1,3.0801075E0,-1.7E1,-5.045999E-2,4.571789E-1,3.7769425E-1,-4.0869806E-2,-5.7307934E1,-1.0815667E0,3.75E-1,4.21993E0,-1.9816224E-2,2.309762E-2,-3.05567E-2,-5.719115E-3,-9.0636555E-3,2.1956017E-2,-8.300442E-3,2.4681803E-2,-5.410301E-3,5.478692E-3,